#pragma once

#define BABYMAMBA_VARIANT_CROSSOVER 0
#define BABYMAMBA_VARIANT_CHANNEL_INDEPENDENT 1
#define BABYMAMBA_DATASET_NAME "daphnet"
#define BABYMAMBA_DISPLAY_NAME "Daphnet"
#define BABYMAMBA_SEED 29
#define BABYMAMBA_SEQ_LEN 64
#define BABYMAMBA_IN_CHANNELS 9
#define BABYMAMBA_NUM_CLASSES 2
#define BABYMAMBA_D_MODEL 24
#define BABYMAMBA_D_STATE 16
#define BABYMAMBA_D_INNER 48
#define BABYMAMBA_DT_RANK 2
#define BABYMAMBA_D_CONV 4
#define BABYMAMBA_NUM_LAYERS 4
#define BABYMAMBA_STEM_KERNEL 5
#define BABYMAMBA_PATCH_KERNEL 16
#define BABYMAMBA_PATCH_STRIDE 4
#define BABYMAMBA_PATCH_OUT_LEN 15
#define BABYMAMBA_SCAN_IMPL_FALLBACK 0
#define BABYMAMBA_USE_INT8_PROJECTIONS 1
#define BABYMAMBA_FIXTURE_LABEL 0

static const char* const kBabyMambaClassNames[BABYMAMBA_NUM_CLASSES] = {"No Freeze", "Freeze"};

static const float kStemWeight[24][1][5] = {
  {
    {0.583476305f, -0.366905212f, -0.653319716f, -0.54364574f, 0.412356257f},
  },
  {
    {0.180163622f, 0.86408186f, -1.79177821f, 0.545309305f, 0.422646463f},
  },
  {
    {0.509567738f, 0.324379563f, 0.0670919418f, 0.196958497f, 0.0978131443f},
  },
  {
    {-0.68333751f, 0.305537015f, -1.24680829f, 0.244581684f, 0.627800345f},
  },
  {
    {-0.627446413f, 0.0796672478f, -0.0324407555f, -0.109655231f, -0.455062121f},
  },
  {
    {-0.541997671f, -0.367070794f, -0.533300638f, 0.222039521f, 0.40911147f},
  },
  {
    {0.584452808f, -0.362295538f, 0.406541675f, -0.0130873639f, 0.587344825f},
  },
  {
    {0.211890012f, -0.223628953f, -0.902737021f, 0.685866654f, -0.799362183f},
  },
  {
    {0.02044525f, -0.219265968f, -0.137740999f, 0.196264848f, -0.9660092f},
  },
  {
    {-0.433997989f, 0.249403298f, -0.498222262f, -0.613464236f, 0.204476222f},
  },
  {
    {-0.968840659f, 2.17615008f, -1.59243953f, 0.0883567929f, 0.334334254f},
  },
  {
    {0.431261003f, -0.596088886f, -0.564391792f, -0.000696759264f, 0.956486642f},
  },
  {
    {0.437511116f, -0.23460646f, 0.877859592f, -0.22063531f, 0.295320034f},
  },
  {
    {-1.40707397f, 2.17997694f, -2.05751276f, 1.0008055f, -0.608048439f},
  },
  {
    {-0.408708602f, 0.040325582f, 0.196269661f, 0.526665568f, 0.485527754f},
  },
  {
    {-0.882996142f, 0.231484786f, 0.372384727f, 0.82542783f, -1.00588059f},
  },
  {
    {0.368288845f, 0.0506950952f, 0.640022874f, -0.022553036f, 0.144129813f},
  },
  {
    {0.528150618f, 0.145927429f, 0.206439301f, 0.387951404f, -0.153244972f},
  },
  {
    {0.744269311f, 0.076876685f, 0.109943829f, -1.36144066f, 0.418373078f},
  },
  {
    {-0.688906133f, -0.41170904f, 0.793707073f, 0.734555423f, -0.560541928f},
  },
  {
    {0.351566195f, 0.34849751f, 0.310688227f, 0.502609909f, -1.07642794f},
  },
  {
    {1.12923837f, -0.0051933052f, -0.55069381f, -0.318293661f, 0.187316045f},
  },
  {
    {0.0921147242f, 0.00102568767f, 0.367221892f, 0.476541609f, -1.37073803f},
  },
  {
    {0.219849348f, -0.14590691f, 0.470394999f, 0.386938512f, 0.198636085f},
  },
};

static const float kStemBias[24] = {0.0142855709f, 0.00933650881f, 0.00626716297f, 0.0740160197f, -0.0458075553f, 0.0556543805f, 0.0389537252f, -0.0421340987f, -0.00960998796f, -0.0140207941f, 0.0170832947f, 0.0385488681f, 0.0146366218f, 0.0807312205f, 0.0349237137f, 0.0796211734f, -0.0306932293f, 0.0176459029f, 0.00903607905f, -0.0482535958f, 0.0611277781f, 0.0972048491f, -0.045769386f, -0.0157587714f};

static const float kPatchDepthwise[24][16] = {
  {0.0137357851f, -0.0547238626f, 0.0190860089f, -0.0360054821f, -0.0462623276f, -0.0718924999f, 0.0738970935f, -0.0129029872f, 0.128252327f, 0.032842055f, 0.0558618791f, 0.0560985543f, -0.0127065917f, 0.0326942317f, -0.0186704211f, -0.208996326f},
  {-0.109392077f, -0.00966114458f, -0.106115244f, -0.0163063202f, 0.0311186481f, -0.0900316834f, -0.0392445363f, 0.0227609053f, -0.0422379784f, 0.0353356376f, 0.0187022928f, -0.0217458569f, -0.066840373f, 0.0587232821f, -0.112530269f, -0.0496651083f},
  {0.146920264f, -0.146763936f, 0.0238236543f, 0.104689427f, 0.0402337015f, -0.0119419927f, 0.136009932f, 0.0481372662f, 0.052766446f, 0.0112379687f, 0.00737550529f, -0.00386344106f, -0.00995378569f, -0.0599887744f, 0.0709768161f, -0.029736137f},
  {-0.0222164709f, -0.111526951f, 0.0616315268f, 0.054639589f, -0.0237594284f, 0.0271560214f, 0.171902403f, 0.0987102017f, 0.0165439378f, -0.0662385225f, -0.110530399f, 0.0659416541f, 0.0173243526f, 0.02500185f, -0.0179901514f, -0.0683864281f},
  {0.0199534558f, -0.0159539394f, -0.0192890055f, 0.0834940746f, 0.00441869348f, 0.107447848f, 0.0672338903f, 0.168021798f, 0.0488072485f, -0.0273040235f, 0.00220782636f, -0.0847861171f, -0.058496695f, 0.0117484145f, 0.107541405f, 0.0409980714f},
  {0.0351279937f, -0.146232471f, -0.0663072541f, 0.154324159f, -0.0596815608f, -0.0615804344f, -0.0461453944f, 0.0232622474f, 0.0728097409f, 0.158817068f, -0.0945897624f, -0.0304912385f, -0.120869406f, -0.0164371673f, 0.158335522f, -0.000444511941f},
  {-0.0463050716f, 0.0376958735f, 0.0606615432f, 0.104404435f, -0.049162969f, -0.0619645678f, -0.10311833f, 0.00251082284f, -0.0666773766f, 0.0147377029f, 0.0135944812f, 0.161134273f, -0.00449957279f, 0.0211289041f, 0.0580930114f, -0.000638435944f},
  {0.0676988736f, -0.104987286f, 0.139388144f, 0.182771519f, 0.145008966f, -0.0123417275f, 0.151661173f, -0.0348467529f, 0.126113355f, -0.0824825913f, -0.0272999518f, 0.0551372431f, 0.000626830326f, 0.0647343993f, -0.0329670385f, -0.126520827f},
  {0.0871191621f, -0.0394000672f, 0.0545386858f, -0.0451367348f, -0.253812551f, -0.00763166044f, 0.120101862f, 0.064624466f, 0.0184002277f, -0.034267962f, 0.0724399909f, 0.104608648f, -0.104462378f, -0.0222321078f, 0.0768877417f, -0.0445523374f},
  {0.14952217f, 0.0427207761f, 0.0270251669f, 0.0296261981f, 0.0478456803f, 0.0771699622f, -0.113716811f, 0.0706890672f, 0.0280360524f, 0.00186609151f, 0.000480071059f, 0.0412272625f, -0.122138195f, 0.0018172781f, -0.146519229f, 0.0339788198f},
  {0.0226970445f, -0.0284863543f, -0.0499624163f, -0.0565712079f, -0.0328265429f, -0.0896060467f, 0.0202929042f, 0.13742435f, 0.0414088182f, -0.106027901f, 0.105750032f, -0.00816534366f, -0.0279332064f, 0.102853276f, -0.0704735219f, 0.155863389f},
  {0.0337685756f, 0.0726063401f, 0.0602577291f, -0.0405143835f, 0.0338482782f, 0.0291229039f, 0.019842146f, 0.0178621504f, -0.00390137336f, 0.066740416f, 0.0796862394f, -0.0677179322f, -0.0916676745f, -0.0413096473f, -0.0143869305f, -0.0173349846f},
  {0.038600225f, 0.0196519811f, -0.0049670497f, -0.0618335642f, -0.0604975373f, 0.0556698143f, -0.164722681f, 0.130812079f, 0.0280311126f, -0.0600178279f, 0.0436304994f, 0.113723271f, -0.0850552991f, 0.0927345678f, 0.138624236f, 0.00705710566f},
  {-0.0496018678f, -0.0703266039f, 0.0435432196f, -0.0145534407f, 0.0145203741f, 0.0281091351f, -0.0514916591f, -0.0661039278f, 0.0791424736f, -0.0852192566f, -0.051224485f, 0.120405637f, -0.0346900038f, 0.0279112775f, 0.170782179f, -0.0686483532f},
  {0.0871597603f, 0.121305145f, -0.0341731012f, 0.0207732245f, -0.0380615406f, 0.0507224388f, -0.072811693f, 0.056015037f, 0.00213626702f, 0.0315240994f, -0.0127281975f, 0.0763656124f, 0.0748977885f, -0.105378509f, 0.0761148334f, -0.159650102f},
  {-0.00354874926f, 0.0265911296f, -0.00188757898f, -0.0434350185f, -0.057978712f, -0.00240372145f, -0.0312345251f, 0.133955598f, 0.188350365f, -0.0499086939f, 0.122165456f, -0.135241181f, 0.0179722067f, 0.0845520571f, 0.116025701f, -0.0493194498f},
  {-0.0106879827f, -0.0205019377f, 0.0807462037f, -0.00663424237f, 0.0696596578f, -0.0261194017f, -0.0120913126f, 0.0308859386f, 0.0137627702f, -0.010804696f, 0.169189095f, -0.0256592352f, 0.131638035f, 0.00807603262f, -0.0262824185f, 0.0848040134f},
  {-0.0253087599f, 0.0386087634f, -0.0205387808f, 0.0642776042f, 0.00536920689f, 0.0335040689f, -0.140143216f, -0.0224234201f, 0.0533687584f, -0.0112684267f, -0.0428700894f, 0.0110112624f, 0.00323421205f, 0.113448747f, -0.000687252556f, 0.0933799893f},
  {0.0663290694f, 0.0457316041f, 0.100239739f, 0.077330336f, -0.0207361728f, -0.0510593019f, -0.0454097092f, 0.0436436608f, 0.0235550851f, -0.125819013f, 0.0193918049f, -0.0533677526f, -0.0313976705f, 0.0215482228f, -0.163794771f, 0.136906698f},
  {-0.0428821072f, -0.0217665061f, -0.050951682f, 0.00207637413f, 0.0405500419f, 0.0986614749f, -0.00458189379f, 0.00968149677f, -0.0242601242f, 0.0652643666f, 0.0334754623f, 0.0706705377f, -0.00871719606f, 0.037535809f, -0.00918041822f, 0.0699548051f},
  {0.0165696833f, 0.054653652f, 0.0826309025f, -0.0338818915f, -0.142311782f, -0.031772092f, 0.0752428845f, 0.0614861101f, 0.125565961f, 0.133827806f, -0.124915615f, -0.0198359434f, -0.201745614f, 0.029973194f, -0.00800812338f, 0.120880179f},
  {-0.0312597454f, 0.128401294f, 0.248168007f, -0.00464589894f, -0.119322345f, -0.110936135f, 0.0271390304f, 0.00406068889f, 0.0791894197f, 0.0207258482f, -0.0456795953f, -0.0634091124f, 0.0547968931f, 0.0760488138f, -0.0972909778f, -0.0437119305f},
  {0.0450908877f, 0.0368087851f, 0.0421533808f, -0.107849903f, 0.0557322949f, 0.0524925143f, 0.0318827406f, -0.0681869909f, 0.0975411311f, -0.0545852892f, -0.0214257389f, 0.00221897359f, 0.0605453029f, -0.0698148906f, -0.0900748447f, -0.188264742f},
  {-0.00309970672f, -0.0335339457f, -0.0278745405f, 0.0349356011f, -0.0246914346f, -0.0207583513f, -0.0544144362f, 0.033551421f, 0.0335875265f, 0.108096294f, 0.0379794836f, -0.0394779108f, 0.112255409f, 0.0640091896f, 0.0422073454f, 0.0271422062f},
};

static const int8_t kPatchPointwiseQ[24][24] = {
  {-56, 61, 91, -96, -55, -127, 23, 51, -80, -81, -102, 44, -93, -50, 12, 15, -25, 10, -36, 43, 63, 28, 2, 21},
  {65, -6, -18, 24, 43, 98, -127, -68, -118, 90, 7, -50, 59, -17, -6, 1, 40, 6, -27, 1, -27, -12, 15, -28},
  {73, -13, -8, 25, -17, 15, 22, -41, 35, -13, -26, -27, -102, 80, 85, 127, 2, 23, 55, -56, 34, -5, 19, -26},
  {12, -59, 47, 118, 81, 35, 49, -91, -79, 6, 64, -89, -23, 107, -127, 80, 2, -4, -22, -25, -50, -50, 107, 40},
  {-12, -20, -48, -15, -79, 16, 32, 42, -18, -8, -7, -43, 10, -60, 3, 73, -19, -127, 14, 61, -4, 11, -76, -65},
  {-36, -49, -56, -58, 5, 68, 80, 54, 11, 14, -6, 43, -112, 82, 85, 17, -127, 46, -26, 38, 27, -61, 60, -88},
  {-29, 40, 63, 42, 77, -127, 1, -54, -28, 40, 59, 77, 4, -23, -50, -10, -52, -37, -112, -42, -19, 15, 26, -14},
  {-35, 13, -79, 24, -17, 81, -83, 3, 43, 0, 127, -112, -28, 50, -65, -25, 46, -36, -27, -95, -15, 67, -125, -27},
  {-4, -25, 10, 72, 23, 41, -26, -6, -50, 106, -42, 78, 37, -9, 22, -73, 101, 127, 44, -96, -19, -38, -19, -2},
  {13, -6, 66, 26, -7, 43, 22, 34, 127, -76, -54, 17, 23, 46, 36, 25, 27, -25, -8, -54, -36, -47, -80, -8},
  {-42, -90, -6, -89, 8, -37, 57, -16, 49, 63, 15, -40, 36, 127, -121, 45, -60, 15, 0, -13, -108, -10, -39, -35},
  {21, 23, 40, -127, 123, 41, -44, -24, 14, 86, 15, 3, 101, -126, -64, -24, 4, -8, -11, -77, -23, -84, 31, -20},
  {-19, 48, -45, 33, -1, -32, 21, 77, 18, -48, 63, -127, 60, 32, 46, -21, 0, -6, 19, 38, -9, -1, -18, 33},
  {-65, -28, -9, -93, 75, -26, 60, -1, 39, 75, 126, -105, 84, -58, -40, 84, -127, -14, 82, 29, 0, -18, 1, 37},
  {-66, 67, 60, -8, -79, -63, 15, -31, 52, 58, -15, 9, -11, 18, 54, 8, -13, -8, 37, 127, -74, -7, -19, -28},
  {-127, -1, 26, -32, -1, 0, -49, 6, -91, -16, -57, -43, -92, -100, 39, -78, -32, -34, -17, 57, -97, -23, -71, -28},
  {-22, -26, -28, -127, -31, -15, 47, 61, 106, 45, -87, 81, 17, -40, -127, -36, -75, -13, 37, 79, 41, 14, 12, 10},
  {-95, 13, -123, -26, 38, 12, -21, -15, 12, 92, -72, -100, -61, 27, -7, 37, 93, 49, 44, -124, -89, 59, -32, 127},
  {-72, -6, 6, -85, 28, -104, 9, -7, -38, 26, -35, 79, 12, -97, -50, 23, -8, 22, -24, -37, 127, -46, -44, -9},
  {-61, -15, 9, -66, 48, 40, 16, 44, -46, 12, -12, 13, 127, -14, -56, 5, 74, -5, 77, -52, -5, -23, 68, 38},
  {80, 42, 60, -5, -65, -63, 56, 127, 17, -33, -64, 65, 47, 36, -76, 51, 6, -4, -25, 32, 111, 81, -14, 116},
  {80, -7, -68, 7, -96, -115, 11, 53, -4, 11, 34, 40, 7, -1, -13, 127, -50, 44, 16, 41, 54, 8, 75, 52},
  {38, -14, 15, -52, 50, -84, -25, 12, -21, 32, 43, -127, -77, -31, -10, 30, 58, -109, -29, 55, -95, -14, -75, 6},
  {-99, 48, -18, 33, -75, 70, -69, -28, 127, 27, 112, -65, 1, 28, -22, 48, 26, -61, -25, -41, 103, 69, -44, -58},
};

static const float kPatchPointwiseScale[24] = {0.0220307168f, 0.0315683708f, 0.022485815f, 0.0163789112f, 0.0282910578f, 0.0146098686f, 0.025558589f, 0.0194864981f, 0.0173425414f, 0.0251052398f, 0.0195351783f, 0.0203167088f, 0.02640412f, 0.0158245768f, 0.0317753591f, 0.0167139843f, 0.0173808318f, 0.0185179673f, 0.0168115925f, 0.0226441175f, 0.0154372677f, 0.0181230698f, 0.0256731883f, 0.0188039672f};

static const float kPatchBias[24] = {0.0262313541f, 0.0860153884f, 0.00373664196f, -0.0753985271f, 0.108569704f, 0.0963350087f, 0.0412520692f, 0.232688382f, -0.217493355f, -0.207765535f, 0.0304274652f, -0.027865041f, -0.0877260938f, -0.121639088f, 0.0826480538f, 0.187862352f, 0.0759395361f, 0.00319038075f, -0.0554117076f, -0.316927731f, -0.29772082f, -0.0550494269f, -0.0963543728f, 0.144009843f};

static const float kPosEmbed[1][15][24] = {
  {
    {-0.00231594988f, -0.0165193155f, -0.0254087094f, 0.028447086f, -0.0123023288f, -0.0289730132f, 0.0119046262f, -0.0807078332f, -0.00841161702f, -0.0260773413f, -0.00134020578f, 0.0298321769f, 0.00437562214f, 0.0441184752f, -0.019988317f, -0.0107201757f, 0.0017276163f, 0.029039694f, 0.0193231143f, 0.0394968726f, 0.0702944398f, 0.00703189988f, 0.0298021901f, -0.0316558741f},
    {0.0147291748f, -0.0122456988f, -0.0235771816f, -0.0126175294f, -0.00652414747f, -0.0094041666f, -0.00580874551f, -0.0460176915f, 0.0175496582f, 0.0382413678f, -0.0112988828f, 0.012420713f, 0.0212487355f, 0.0426640287f, -0.0162284169f, -0.0153181879f, -0.00567649724f, 0.0318810567f, 0.0129769053f, 0.0371660218f, 0.0456148982f, 0.00800737645f, -0.0114980051f, -0.0267002862f},
    {-0.00631710235f, -0.0276956931f, -0.0215419922f, -0.00353414938f, 0.0108131794f, -0.0154738249f, -0.008282247f, -0.0390952043f, 0.0162288696f, 0.0271947384f, -0.00422377419f, 0.013788254f, 0.0412275605f, 0.0216502659f, -0.0201097541f, 0.00342058716f, -0.0133682508f, 0.0239076931f, 0.000630929484f, 0.0269138087f, 0.0224902313f, 0.0137449708f, 0.00509504415f, -0.0145034045f},
    {0.00495973742f, -0.0180077646f, -0.00489245541f, -0.00430328026f, 0.00120920932f, -0.0249822251f, -0.0262530837f, -0.0234825555f, 0.0111224959f, 0.0190697871f, -0.0164659377f, 0.0169432424f, 0.0433348864f, 0.012437392f, -0.0297367778f, -0.00816698372f, -0.0147279287f, 0.0115094827f, -0.0168938432f, 0.0197492614f, 0.00436290726f, 0.0151568446f, 0.0107592763f, -0.0185468011f},
    {0.00396880182f, -0.0031164242f, 0.00664256513f, -0.0115669221f, -0.0062874048f, -0.0167608131f, -0.0158569422f, -0.00928134751f, -0.00188559911f, 0.035369277f, -0.0169040859f, -0.00323427026f, 0.0285355225f, 0.0151057132f, -0.0248328857f, -0.0202395748f, -0.0113116782f, 0.0149741573f, -0.0109103825f, 0.0100383591f, -0.00819682982f, 0.0183344707f, 0.00256436551f, -0.0102686789f},
    {-0.027968578f, -0.00232591457f, -8.56920451e-05f, 0.00345026585f, -0.00782670174f, -0.00612870604f, 0.0172218569f, -0.0133132972f, -0.0203040447f, 0.0415537581f, 0.00566682545f, -0.0199486036f, 0.00981718767f, 0.0201170873f, -0.017972976f, -0.0138264634f, -0.00633035973f, 0.0185239427f, 0.016317375f, 0.00184462452f, -0.00652771164f, 0.0228538271f, -0.00343857217f, 0.0243584663f},
    {-0.0219112225f, 0.00144945888f, -0.0100672618f, 0.0349287055f, -0.0357501879f, -0.0225782506f, -0.00429455191f, -0.0236166567f, -0.0190639235f, 0.0133683709f, 0.00835845619f, 0.0146205919f, -0.00558477128f, 0.0260471087f, -0.041591987f, -0.0225395523f, -0.00408587372f, -0.0114406189f, 0.0206562653f, 0.00789397117f, 0.0135061471f, 0.019848071f, -0.0152857229f, 0.0432810597f},
    {0.000338334532f, -0.00992328208f, -0.017508395f, 0.0213737637f, 0.021006763f, -0.00462463312f, -0.0121447416f, -0.0245639607f, -0.00238044094f, 0.029060265f, 0.0100630345f, -0.0098359324f, -0.0324765518f, 0.0204651002f, -0.0169483386f, -0.0123514207f, -0.023554625f, 0.0122432671f, 0.00752893649f, -0.0120364018f, 0.00352955121f, 0.0360472426f, -0.0218422208f, -0.00732098473f},
    {-0.020182088f, -0.00497636246f, 0.0147291208f, -0.0109639317f, -0.0188209116f, -0.0231345017f, 0.0170762297f, -0.0243831333f, -0.0234558973f, 0.0297491048f, 0.0133893294f, 0.0179253872f, -0.00740440097f, -0.00495249545f, 0.0219963826f, -0.00651598396f, 0.0381188318f, -0.00832920708f, 0.0147389863f, -0.0247141458f, 0.01862978f, 0.0186284371f, 0.0142503874f, 0.00955360942f},
    {-0.0371965766f, 0.0114955828f, 0.0269950498f, -0.0208037533f, 0.0026836039f, -0.0266343802f, 0.00526279537f, -0.00140061427f, -0.00937446672f, 0.0201757681f, 0.0336998254f, 0.0074808402f, -0.0304712933f, -0.0194394737f, -0.0185463764f, -0.0225298963f, 0.0160037f, -0.0187692996f, 0.0166157428f, -0.0169034079f, -0.0014058972f, 0.0343114175f, 0.0141809415f, 0.0129714748f},
    {-0.0315388851f, 0.00728109432f, 0.0369000025f, -0.00299172406f, 0.01083834f, -0.0379579216f, 0.00345294294f, 0.0289770588f, -0.024384154f, 0.000967369764f, 0.0106011592f, -0.0162946153f, -0.0162443034f, -0.0368075408f, -0.0194213651f, -0.023638783f, -0.00386405061f, -0.00935480092f, 0.0255234316f, -0.0166217647f, 0.0270330776f, 0.00653284648f, -0.0140611893f, 0.0141772022f},
    {0.000260800356f, -0.010938229f, 0.0119734947f, 0.002207899f, -0.0107025253f, -0.0240843501f, 0.0249931496f, 0.0528043546f, -0.0273064375f, -0.00562218996f, -0.0081258975f, -0.0397341847f, -0.00787803717f, -0.0385506861f, 0.00636275671f, -0.0203731079f, 0.0065923431f, 0.0179580003f, 0.016715331f, 0.000318540202f, 0.0339847803f, 0.00520379841f, -0.00300396909f, 0.0377744995f},
    {0.0120861335f, -0.0145461718f, 0.00390097662f, -0.00858936459f, -0.0124167856f, -0.00139865582f, 0.0559579208f, 0.0623040684f, -0.0308849942f, 0.00853317138f, -0.000795588945f, -0.0629713237f, -0.00735609233f, -0.0381739065f, 0.0237272941f, -0.0164636262f, 0.0236558039f, 0.0142473858f, 0.016446529f, 0.00646703597f, 0.00999859814f, 0.025682928f, 0.0271454249f, 0.0547585748f},
    {-0.0158243328f, 0.0012517235f, 0.0468131863f, -0.00340928766f, 0.0239076167f, -0.0119952457f, 0.0653027743f, 0.0447393134f, -0.0521788597f, 0.0359489173f, 0.00331436237f, -0.0671777427f, 0.00727027096f, -0.0485072397f, 0.0103839757f, -0.00470524421f, 0.0106982216f, -0.0234609786f, 0.0346721001f, -0.00521918433f, 0.0140487077f, 0.0164419338f, 0.0184415188f, 0.0322353803f},
    {0.00347157195f, -0.0127591854f, 0.0109639531f, 0.0318778194f, -0.0024861889f, -0.0414494872f, 0.0267861262f, -0.0179491118f, -0.00555914314f, 0.0677473694f, -0.0254327375f, -0.000109789551f, -0.00830086041f, -0.0263722539f, -0.0439726971f, 0.0101851635f, -0.0309873857f, 0.0315991566f, -0.0233996231f, 0.0736490712f, 0.0627984032f, 0.0135101015f, 0.00320586679f, 0.0164886117f},
  },
};

static const float kLayer0PreNormWeight[24] = {1.05268216f, 1.03790426f, 1.0313071f, 1.01866877f, 1.05432057f, 1.03578508f, 1.11802554f, 1.03003669f, 1.04039192f, 1.02783263f, 1.06773627f, 1.03273225f, 1.04292631f, 1.03368628f, 1.04241884f, 1.03683197f, 1.05435526f, 1.07524467f, 1.06200612f, 1.0290693f, 1.03362894f, 1.05392814f, 1.02099621f, 1.03115761f};

static const float kLayer0PreNormBias[24] = {0.0265230574f, -0.00341031933f, 0.0205628462f, -0.0196043402f, -0.0252754912f, 0.0196173321f, -0.0237945393f, 0.0164508782f, -0.0241945442f, -0.0223477222f, -0.0458661839f, -0.0219163075f, -0.0233525783f, -0.0232582334f, 0.018056618f, 0.0204985645f, -0.022946341f, 0.0301520638f, -0.0186485238f, -0.0237644222f, -0.0244413354f, -0.019029662f, -0.0171832591f, 0.0206766017f};

static const float kLayer0PostNormWeight[24] = {0.960451543f, 1.00550759f, 0.963191092f, 0.956345975f, 0.981792927f, 0.90693599f, 0.934553504f, 0.992545485f, 0.987159014f, 0.924890459f, 1.00554204f, 1.00000167f, 0.972025394f, 0.993255436f, 0.956379354f, 0.923339128f, 1.05021417f, 0.986724138f, 0.931500137f, 1.00432324f, 1.01288354f, 0.969561577f, 1.00789094f, 0.984485686f};

static const float kLayer0PostNormBias[24] = {0.0541613325f, -0.00459098583f, 0.0222822707f, 0.0053889174f, -0.0121133737f, 0.0122382063f, 0.0150892558f, 0.0205752384f, -0.0164839569f, -0.00262852246f, -0.0111239562f, -0.00248317258f, 0.0068207602f, -0.0154797873f, 0.0234952886f, -0.00294581335f, 0.000548305456f, -0.00879401341f, 0.0127530918f, -0.00798123144f, 0.00920616183f, 0.0117455935f, -0.00681539485f, 0.0244329553f};

static const float kLayer0ALog[48][16] = {
  {-0.0321522132f, 0.662734628f, 1.0638485f, 1.3525269f, 1.5759995f, 1.75585496f, 1.91249859f, 2.04402304f, 2.16347909f, 2.26765037f, 2.36390948f, 2.44866014f, 2.52697802f, 2.59905887f, 2.66618133f, 2.72901702f},
  {-0.0370447375f, 0.655977666f, 1.05753326f, 1.34686756f, 1.57052982f, 1.74983704f, 1.90728736f, 2.03799558f, 2.15633059f, 2.26203012f, 2.35760283f, 2.44354725f, 2.52267981f, 2.59604406f, 2.66400862f, 2.72757339f},
  {-0.010302403f, 0.680859327f, 1.07719278f, 1.36181915f, 1.58164561f, 1.76260638f, 1.91438723f, 2.04594779f, 2.16125703f, 2.26651359f, 2.35941553f, 2.44395876f, 2.52329183f, 2.59613132f, 2.66399169f, 2.72755146f},
  {-0.0387159586f, 0.654886305f, 1.05590427f, 1.34472144f, 1.56822062f, 1.74746859f, 1.90488338f, 2.03594446f, 2.15563393f, 2.26076984f, 2.35792136f, 2.44369435f, 2.52286005f, 2.59622431f, 2.66405725f, 2.72757053f},
  {-0.172023728f, 0.512135863f, 0.91737479f, 1.21090424f, 1.44137502f, 1.62142015f, 1.79956436f, 1.93694842f, 2.07212329f, 2.19639063f, 2.31303334f, 2.41357946f, 2.50264645f, 2.5851469f, 2.65697789f, 2.72358203f},
  {-0.0330700427f, 0.660190761f, 1.06109333f, 1.34921968f, 1.57305682f, 1.7514118f, 1.90690136f, 2.03830576f, 2.15751815f, 2.26177764f, 2.35764623f, 2.44395471f, 2.52275801f, 2.59601569f, 2.66400361f, 2.72756147f},
  {-0.0364388674f, 0.659823656f, 1.06151307f, 1.35089898f, 1.57528627f, 1.75414884f, 1.91112316f, 2.04308128f, 2.16202712f, 2.26529169f, 2.36060333f, 2.4455924f, 2.52395582f, 2.59661818f, 2.66443348f, 2.72785521f},
  {-0.0338061973f, 0.662451684f, 1.06452477f, 1.35390019f, 1.57756186f, 1.75674772f, 1.91328883f, 2.04486537f, 2.16414762f, 2.26777363f, 2.36382556f, 2.44850397f, 2.52632856f, 2.59834933f, 2.66569448f, 2.72865796f},
  {-0.0244695395f, 0.654621184f, 1.05562556f, 1.34331679f, 1.56379807f, 1.74378967f, 1.90017688f, 2.03188205f, 2.15255952f, 2.25964046f, 2.35581255f, 2.44293571f, 2.52215052f, 2.59563804f, 2.6637938f, 2.72745419f},
  {-0.0261769649f, 0.659859419f, 1.05437803f, 1.33373809f, 1.54953456f, 1.72994089f, 1.88752997f, 2.02091002f, 2.14239693f, 2.25001216f, 2.350348f, 2.43868995f, 2.51965094f, 2.5943141f, 2.66283011f, 2.72697473f},
  {-0.00902345311f, 0.653303325f, 1.03378642f, 1.31148219f, 1.52588248f, 1.70531583f, 1.86932623f, 2.00204206f, 2.1298945f, 2.24077582f, 2.3461113f, 2.43619776f, 2.51823831f, 2.59376717f, 2.66247177f, 2.72670126f},
  {0.0159546975f, 0.701435804f, 1.0878346f, 1.362571f, 1.5778141f, 1.76375735f, 1.91196048f, 2.04365802f, 2.16118717f, 2.26470494f, 2.3589294f, 2.44486904f, 2.52346039f, 2.59637737f, 2.66428375f, 2.72776866f},
  {0.0181706995f, 0.688701868f, 1.08537698f, 1.36370707f, 1.57335484f, 1.76083362f, 1.90790522f, 2.03972244f, 2.15396094f, 2.26330113f, 2.35680723f, 2.44291568f, 2.52261829f, 2.59591746f, 2.66400266f, 2.72762489f},
  {-0.0269549675f, 0.663349628f, 1.06268215f, 1.35182393f, 1.57357645f, 1.75390446f, 1.90908146f, 2.040874f, 2.16100478f, 2.2648592f, 2.36228347f, 2.44693899f, 2.52486944f, 2.59693241f, 2.6649816f, 2.72830224f},
  {-0.0205680169f, 0.67351073f, 1.07179248f, 1.35716975f, 1.5773623f, 1.76286161f, 1.91523123f, 2.04470348f, 2.16199875f, 2.26787663f, 2.36015987f, 2.4460938f, 2.52449489f, 2.59728861f, 2.66479254f, 2.72805977f},
  {-0.00465589995f, 0.687938333f, 1.08763993f, 1.37266493f, 1.59049118f, 1.77863729f, 1.92656374f, 2.0574193f, 2.17188072f, 2.27269173f, 2.36305046f, 2.44738865f, 2.52533865f, 2.59755993f, 2.66505408f, 2.72824335f},
  {-0.0129949516f, 0.679088175f, 1.07817125f, 1.36672175f, 1.58861482f, 1.77005446f, 1.92315185f, 2.0541935f, 2.17000341f, 2.27172732f, 2.36347103f, 2.44747686f, 2.52526999f, 2.59736991f, 2.66496897f, 2.72813821f},
  {-0.0301839504f, 0.66471976f, 1.06587005f, 1.35468316f, 1.57836783f, 1.75720739f, 1.91449416f, 2.04589605f, 2.16555953f, 2.26920199f, 2.36575055f, 2.44984961f, 2.52780867f, 2.59946513f, 2.66645336f, 2.72918057f},
  {-0.0368825756f, 0.65673238f, 1.05771649f, 1.34659553f, 1.57044721f, 1.74902928f, 1.90632272f, 2.03770661f, 2.15779305f, 2.26205349f, 2.36000681f, 2.445472f, 2.52432799f, 2.59726501f, 2.66483688f, 2.72811174f},
  {-0.0103698662f, 0.641772091f, 1.01938736f, 1.29140031f, 1.51156473f, 1.69052029f, 1.8475368f, 1.98023415f, 2.11595774f, 2.2159133f, 2.32994938f, 2.42931104f, 2.51236725f, 2.5904994f, 2.66007566f, 2.725348f},
  {-0.0779011101f, 0.606836498f, 1.00878215f, 1.30023372f, 1.53273249f, 1.71682608f, 1.88463342f, 2.02071929f, 2.14847231f, 2.25616145f, 2.35403609f, 2.44195676f, 2.52179241f, 2.59565115f, 2.66379571f, 2.72748685f},
  {-0.0211314969f, 0.673256218f, 1.0727942f, 1.35966253f, 1.5808959f, 1.76696813f, 1.91962683f, 2.05109286f, 2.16792011f, 2.27209592f, 2.3635962f, 2.44788742f, 2.52584529f, 2.59793973f, 2.66531539f, 2.72839212f},
  {-0.0282197241f, 0.667023242f, 1.06775784f, 1.35688162f, 1.5810734f, 1.76026368f, 1.91634774f, 2.04781628f, 2.16645718f, 2.26928115f, 2.36352658f, 2.44781351f, 2.52550673f, 2.59752846f, 2.66507125f, 2.72821379f},
  {-0.023302123f, 0.67042321f, 1.06906903f, 1.35462153f, 1.57818079f, 1.75458455f, 1.90948403f, 2.04263616f, 2.16116881f, 2.26396537f, 2.35939169f, 2.4449501f, 2.52326536f, 2.59613848f, 2.66418004f, 2.72769904f},
  {-0.0696209222f, 0.627952337f, 1.03168225f, 1.32524049f, 1.54425538f, 1.73079073f, 1.88884258f, 2.01894593f, 2.13960433f, 2.24964547f, 2.3484416f, 2.43708301f, 2.51871228f, 2.59392095f, 2.66247463f, 2.72670412f},
  {-0.0590492114f, 0.635513484f, 1.0380795f, 1.32913566f, 1.55103719f, 1.73410177f, 1.89439476f, 2.02436399f, 2.14425015f, 2.25484943f, 2.35281134f, 2.43991804f, 2.52064395f, 2.59514427f, 2.66333675f, 2.72717357f},
  {-0.0416562371f, 0.649063885f, 1.05025327f, 1.3388108f, 1.56071472f, 1.74088168f, 1.89845514f, 2.02992368f, 2.14966154f, 2.25619388f, 2.35396409f, 2.44111395f, 2.52109551f, 2.59527922f, 2.66342998f, 2.727247f},
  {-0.0170892607f, 0.676829815f, 1.07760262f, 1.36540711f, 1.58769512f, 1.76891422f, 1.92193079f, 2.05298638f, 2.16853666f, 2.27105117f, 2.36284661f, 2.44704676f, 2.52497029f, 2.59719849f, 2.66485977f, 2.72807407f},
  {-0.0304087736f, 0.66264981f, 1.06290019f, 1.35198843f, 1.57490015f, 1.75394058f, 1.91063106f, 2.04213691f, 2.16189098f, 2.26556849f, 2.36203909f, 2.44706345f, 2.52529645f, 2.59763718f, 2.66516685f, 2.72830653f},
  {-0.0412129685f, 0.654048502f, 1.05679774f, 1.34568131f, 1.57213509f, 1.74746704f, 1.90499079f, 2.03736925f, 2.15739489f, 2.26145983f, 2.35813355f, 2.44431901f, 2.52270317f, 2.59582615f, 2.66394687f, 2.72755337f},
  {-0.0148533722f, 0.668467224f, 1.06115866f, 1.34620428f, 1.56450486f, 1.74579453f, 1.90221357f, 2.03253961f, 2.1521771f, 2.25870895f, 2.35527992f, 2.44221783f, 2.52186036f, 2.59557176f, 2.66369295f, 2.7274127f},
  {-0.0335418358f, 0.661508977f, 1.06281924f, 1.35172987f, 1.57602787f, 1.75496626f, 1.91162109f, 2.04297471f, 2.16201043f, 2.26590776f, 2.36151648f, 2.44639444f, 2.52464962f, 2.59717679f, 2.66480732f, 2.7280612f},
  {-0.0319874138f, 0.664590538f, 1.06564128f, 1.35473692f, 1.57947135f, 1.75824952f, 1.91344976f, 2.04511857f, 2.16408777f, 2.26697636f, 2.36156726f, 2.44667125f, 2.52456546f, 2.59688354f, 2.66463947f, 2.72792602f},
  {-0.0157459751f, 0.672311127f, 1.05669451f, 1.33200467f, 1.54942763f, 1.72635889f, 1.88305116f, 2.01276112f, 2.13614821f, 2.24330139f, 2.34675026f, 2.43695521f, 2.51839066f, 2.59392285f, 2.66256809f, 2.72680759f},
  {-0.0290688183f, 0.667283773f, 1.06688094f, 1.35060406f, 1.57109141f, 1.74930286f, 1.90660167f, 2.03849459f, 2.15400457f, 2.25991225f, 2.35497117f, 2.44033527f, 2.52100825f, 2.59531665f, 2.6634233f, 2.72724009f},
  {-0.0344009772f, 0.662058234f, 1.06498015f, 1.3539058f, 1.57856333f, 1.75698686f, 1.91424406f, 2.04621387f, 2.16395903f, 2.26806688f, 2.36262631f, 2.44666958f, 2.52493072f, 2.59732413f, 2.66492295f, 2.72816515f},
  {-0.0341546051f, 0.661938071f, 1.06299269f, 1.3527962f, 1.57632041f, 1.75632751f, 1.91194665f, 2.04367757f, 2.1616652f, 2.26522255f, 2.35972404f, 2.44506979f, 2.52373886f, 2.59658742f, 2.66440034f, 2.72782397f},
  {-0.0538347214f, 0.641995609f, 1.04723001f, 1.33611715f, 1.56552279f, 1.73787057f, 1.89843035f, 2.03125668f, 2.15201664f, 2.2583015f, 2.35655141f, 2.44294095f, 2.52173424f, 2.59505224f, 2.66345382f, 2.72728443f},
  {-0.00298524834f, 0.662815213f, 1.04349899f, 1.32463086f, 1.54229474f, 1.7220732f, 1.88741529f, 2.02220464f, 2.14688325f, 2.2540729f, 2.35407352f, 2.44124508f, 2.52133226f, 2.59534001f, 2.66358328f, 2.72733355f},
  {-0.0205127895f, 0.67696178f, 1.07819927f, 1.36696756f, 1.59152746f, 1.77022672f, 1.92474329f, 2.05687976f, 2.17360878f, 2.27488041f, 2.36698198f, 2.45008945f, 2.52709866f, 2.59836721f, 2.66570163f, 2.72859526f},
  {-0.0391764715f, 0.656528175f, 1.05807197f, 1.34746194f, 1.57120502f, 1.75032222f, 1.90807378f, 2.03917003f, 2.15930986f, 2.26373839f, 2.36132526f, 2.44637156f, 2.52521038f, 2.59791112f, 2.66529298f, 2.72843456f},
  {-0.0344952196f, 0.660432577f, 1.06080508f, 1.34983695f, 1.5733031f, 1.75286961f, 1.91005433f, 2.04148102f, 2.16167712f, 2.26539421f, 2.36241078f, 2.44764066f, 2.52595973f, 2.5982697f, 2.66559458f, 2.7285881f},
  {-0.0389500521f, 0.655931652f, 1.05692458f, 1.34578502f, 1.56998599f, 1.74760592f, 1.90524638f, 2.03630519f, 2.15704632f, 2.2608788f, 2.36017561f, 2.44599438f, 2.52485824f, 2.59793234f, 2.66533637f, 2.72855425f},
  {-0.0379025564f, 0.658511698f, 1.06027877f, 1.34966564f, 1.5734688f, 1.75320065f, 1.91061068f, 2.0423286f, 2.16036749f, 2.2652967f, 2.36029291f, 2.44483566f, 2.52397799f, 2.5968082f, 2.6645112f, 2.72789741f},
  {-0.0236247033f, 0.673742294f, 1.07586861f, 1.36362755f, 1.58778799f, 1.76763117f, 1.92088211f, 2.05277395f, 2.16842556f, 2.27107739f, 2.36311507f, 2.44728398f, 2.52496624f, 2.59709597f, 2.6648159f, 2.72805524f},
  {-0.0394470841f, 0.653478861f, 1.05409896f, 1.34291291f, 1.5667541f, 1.74453294f, 1.90194237f, 2.03289676f, 2.15316081f, 2.25745153f, 2.35613942f, 2.44278193f, 2.521806f, 2.59568524f, 2.6635654f, 2.72727704f},
  {-0.0204764456f, 0.677833319f, 1.07768619f, 1.36701918f, 1.58990884f, 1.77202225f, 1.92422628f, 2.05575538f, 2.17467594f, 2.27606893f, 2.36845112f, 2.45263052f, 2.52888131f, 2.59956098f, 2.66656089f, 2.72906899f},
  {-0.0239111204f, 0.670103848f, 1.07056284f, 1.35859418f, 1.58187628f, 1.76201737f, 1.91785741f, 2.04923487f, 2.16619372f, 2.26856995f, 2.36196399f, 2.44621158f, 2.52449298f, 2.5968864f, 2.66461134f, 2.72794247f},
};

static const float kLayer0D[48] = {1.02456927f, 1.02448952f, 1.05301857f, 1.0301131f, 1.16124165f, 1.0127728f, 1.02905524f, 1.02048886f, 1.02962279f, 1.07582641f, 1.02624345f, 1.04160917f, 1.05633104f, 1.06730366f, 1.03752685f, 1.03070199f, 1.02650261f, 1.02276206f, 1.0238471f, 1.14074898f, 1.07233214f, 1.02978408f, 1.01992607f, 1.03800023f, 1.05405343f, 1.0494442f, 1.01564479f, 1.0073576f, 1.03650582f, 1.0398438f, 1.02991164f, 1.02206755f, 1.02817583f, 1.05405438f, 1.0724237f, 1.01760435f, 1.0130651f, 1.05856395f, 1.02347481f, 1.02644956f, 1.0296737f, 1.02335846f, 1.02531624f, 1.02850497f, 1.02314949f, 1.02630556f, 1.04770076f, 1.02923071f};

static const int8_t kLayer0InProjQ[96][24] = {
  {-49, 53, -92, -23, 11, -77, 30, -22, 92, -6, -14, 17, 41, 14, -127, -75, 20, 64, 73, 66, 116, 16, 38, -56},
  {-127, -18, -78, 33, 44, -98, 36, 43, 70, 108, 25, 29, 43, 55, -86, -57, 7, 32, 91, 31, 110, -14, 64, -36},
  {97, -71, 40, -48, 26, 54, 127, -11, -43, -62, -39, -75, 42, 61, 13, 32, -113, 1, 71, -39, -59, 23, -10, 58},
  {38, 35, 102, -8, -33, 67, -102, 55, -127, -91, -38, -72, -23, -47, 40, -11, -75, -23, -32, -66, -75, 49, -66, 13},
  {42, -11, -79, -72, -4, 12, 54, -92, 62, 6, -40, 19, 16, 1, -41, -44, 57, 12, 29, 37, 96, 20, 18, -127},
  {-88, -116, -41, -61, -83, -102, 64, -71, 62, 95, -52, 29, 58, 43, -127, -40, -79, 55, 32, 100, 38, 0, 43, -56},
  {-121, -48, -25, -11, 17, -80, 108, -12, 93, 121, -47, 72, -33, 80, -67, -39, 21, 9, 127, 45, 48, 4, 106, -50},
  {26, -58, -18, 28, -2, -85, 45, -3, 15, 35, -83, -33, 28, 6, -70, -62, 42, -35, 127, 31, 71, 97, 26, -55},
  {68, 28, 66, 45, -67, -5, -82, 12, 17, 13, 88, -85, -116, -64, 111, 56, -62, -7, 29, -18, -65, -42, -127, 23},
  {44, -63, -11, -64, -49, 2, 99, -106, 37, 25, 68, 23, -46, 100, -43, -24, -78, 17, 127, 24, -12, 52, 53, -96},
  {55, -62, 32, -30, 56, 44, -9, -114, -119, -39, -118, -67, 115, 127, -6, -71, 27, -17, 120, -39, 55, 1, -25, 26},
  {10, -127, -106, -120, 27, 28, 22, 39, 7, -11, -125, 34, 88, 66, 35, -15, 29, -21, -16, 23, -29, 69, 48, 2},
  {60, -55, -18, -60, -7, -17, 84, 13, -83, -1, 127, 0, -15, 78, 52, -25, -13, 7, 19, -51, -3, 33, 84, 69},
  {-127, 67, -47, -28, 34, -41, -121, 43, 30, 16, -62, 23, 42, -4, -43, -21, 76, 113, -107, 29, 42, -52, 31, -40},
  {61, -62, -11, -42, -13, -79, 80, -96, -6, 14, -127, -55, -6, 4, 2, -57, 13, 21, 96, 87, 47, 99, -16, -23},
  {14, 4, 19, 21, -19, -18, -27, 3, 22, 72, 5, -99, -70, -40, 36, -73, 32, 19, 127, 28, 23, 17, -17, -1},
  {-116, 52, -70, -49, 23, -49, -38, -35, 65, 1, 4, 127, 41, 72, -86, -35, 125, 67, 78, 69, 54, 88, 12, -19},
  {-77, 15, -54, 5, 71, -25, 43, -40, 107, 42, 29, 22, 53, 58, -66, -20, 116, -81, 127, 85, 54, 30, -12, -72},
  {67, -27, 66, 26, 36, 63, -4, 49, -20, -85, 58, -34, -25, -56, 87, 26, -127, 8, -25, -53, -39, -9, -80, 79},
  {36, -25, -55, -43, 20, -127, 50, -68, 93, -68, -47, 90, -23, 25, -27, 37, -63, 66, 63, 80, -11, 95, -49, -99},
  {33, 28, -64, 38, -38, -53, -116, -39, 67, 81, 34, -96, 76, -37, 17, -67, -1, 58, -100, 118, 127, -72, -19, -74},
  {-27, -44, -60, -15, -39, -66, -95, -46, 32, 24, 43, -124, -17, -30, -43, -46, 27, 103, 127, 40, 35, 107, -29, -53},
  {32, 72, 41, 0, -63, 70, -22, 51, -59, -66, -88, 5, -3, -61, 106, 33, -59, -38, -127, -25, -34, -45, -23, 75},
  {8, -43, -10, -17, 37, -43, 127, -52, -99, -9, -22, 53, 15, 50, -42, -25, 10, -88, 27, -1, 27, 22, 42, 26},
  {76, -1, 99, -96, 40, 12, -14, -33, -38, -26, 77, -18, -87, -104, 70, 127, -16, -44, 62, -61, -76, 35, -51, 122},
  {-99, 0, -122, 75, 24, -42, -19, 0, 66, 68, -54, 36, 70, 48, -69, -89, 47, 19, -71, 127, 94, -62, 65, -42},
  {-34, -46, -111, -64, -19, -52, 77, -29, 9, 107, -39, 70, 81, 73, -30, -50, 40, 4, -121, 127, 108, -76, 106, -102},
  {59, 59, 82, -127, -40, 5, -90, -39, -82, -42, 8, -57, 33, -14, 49, 106, -104, -18, -109, -85, -124, 57, -2, 55},
  {115, -107, 43, -40, -33, 56, 80, -57, -41, -102, -5, -52, -94, -2, 40, 8, -101, -20, 127, -66, -25, 52, -68, 5},
  {40, 87, 54, -15, 23, 10, -56, 33, -13, -21, -6, -31, -17, -127, 77, 65, -11, -9, -80, -42, -52, -41, -24, 26},
  {-24, -58, 7, -40, 37, 36, -93, -19, 8, -68, -50, -19, 127, 96, 42, -13, -42, 54, -19, 11, -30, 49, -34, 4},
  {44, 57, 97, -8, -72, 40, -58, 50, -67, -64, 17, -62, -8, -105, 95, 59, -48, 37, -115, -82, -114, -71, -45, 127},
  {-44, -60, -32, 33, 67, -38, 28, -33, 80, 43, 11, 46, 73, 21, -76, -127, 75, 107, 59, 77, 56, 12, 62, -77},
  {-25, 62, 8, 30, -38, 9, -127, 50, 52, 37, 57, -1, -89, -104, -27, 11, 17, 41, -59, -17, -12, -52, -37, -1},
  {-35, 94, -68, 74, 27, 60, -91, 75, -4, -70, -79, 127, -43, -77, 52, 75, 86, -98, -83, -32, -124, -112, -113, 78},
  {-78, -44, -35, 11, 56, -57, 6, -54, 102, 66, -36, 8, 36, 127, -77, -75, 37, 40, 10, 24, 51, -21, 105, -29},
  {41, 38, 111, 34, 2, 93, -86, -57, 3, -90, -32, -60, -2, -90, 31, 127, -53, -81, -39, -111, -65, 4, -50, 3},
  {48, 74, 42, 0, -103, 30, -76, -8, 3, -78, -82, 2, 26, -87, 127, 90, -88, 90, -48, -24, -78, -17, -113, 64},
  {-80, 35, 44, 81, -78, 95, 40, 127, 127, 97, 42, -4, -77, -115, -90, -3, -48, 66, -88, -31, 0, -56, 13, -24},
  {-117, -116, -28, -17, 30, -54, 61, -69, 66, 43, 42, 73, 89, 99, -93, -55, 67, 66, 127, 102, 84, 53, 28, -67},
  {-8, -10, -34, 41, -26, -119, 57, -52, 118, 87, -34, 40, 18, 57, -10, -98, 94, -18, 127, 61, 80, 84, 37, -38},
  {-19, -21, -78, 43, 11, -65, -35, -86, 62, 43, 24, 65, 10, 4, -45, -112, 78, 56, 62, 127, 67, -10, -9, -93},
  {-101, 44, -25, -8, 20, -81, 20, -10, 24, 65, 39, 72, 34, 102, -102, -93, 36, -38, 82, 26, 43, 9, 79, -127},
  {55, -41, 71, 9, 51, 125, -67, -17, -79, -74, 22, -33, 53, -94, 52, 62, -127, -37, -11, -60, -61, 30, -27, 100},
  {-49, -21, -42, -101, -2, -29, 58, -5, -49, 77, 40, 32, -13, 44, -127, -36, 88, 20, 97, 74, 59, 31, -55, -73},
  {-41, -49, -48, -2, 23, -30, -14, -58, 65, 64, -68, 44, 56, 102, -81, -108, 82, -16, 112, 127, 65, 62, 58, -77},
  {-96, -1, -63, 76, -59, -44, 23, -17, 66, -25, 54, 39, -26, -6, -32, -62, -1, 54, 127, 61, 45, 69, -17, -75},
  {65, 39, 41, 47, 21, 48, -111, 62, -81, -61, -42, -21, 38, -22, 42, 84, -51, -41, -127, -37, -49, -65, -4, 97},
  {0, 17, 25, 29, -59, 127, -39, 45, -26, -57, 24, -19, -46, -35, 6, 60, -111, 69, -39, -83, -73, -108, -33, 20},
  {9, -34, -61, 41, 100, -53, 46, 20, 16, 88, 67, -26, -55, 14, -127, -71, 41, -4, 61, -22, 95, 34, 31, -47},
  {-43, 65, 24, 5, -32, 61, -66, 83, -24, 65, 40, 14, -89, -76, 53, 9, 92, -92, -127, -34, -36, -122, -14, 22},
  {23, 11, 29, -43, -73, 57, -32, 26, -31, -84, -21, 28, 6, -83, 99, 127, -63, -27, -102, -39, -97, -108, -37, 101},
  {44, 28, -72, -73, -79, -49, -54, -46, 96, 22, -2, -8, -35, -75, 127, 17, -14, 97, 31, 26, -12, 11, -48, -74},
  {81, 1, 94, 68, -5, 74, 44, -18, -58, -43, -14, -26, 49, -20, -2, 58, -100, -56, 50, -80, -65, 94, -31, 127},
  {87, 13, -20, 35, 45, -63, 20, -70, 100, 98, 21, 43, -50, -44, -69, -46, 45, -33, 127, 51, 8, -7, 49, -30},
  {-2, -3, 20, 0, -8, 26, -101, 50, -62, -56, 25, -88, -40, -62, 127, 53, -80, 35, 4, -74, -100, -45, -39, 67},
  {-5, -40, -18, 17, 35, -57, 106, 15, -11, -22, -98, 7, 40, 33, -53, -72, 58, -50, 40, 5, 78, 127, 56, 29},
  {92, -62, 41, -35, -79, 19, 127, -67, -14, -35, 35, 5, -47, -4, 8, 0, -69, -90, 90, 3, 3, 29, -4, -28},
  {54, -20, 43, -24, 81, 59, -32, -63, -33, -16, -50, -51, 103, 70, 127, -12, -15, -40, 72, -40, 7, 68, -16, 5},
  {-29, 94, 15, 116, 8, -70, -125, 35, 126, 88, 127, -65, -107, -51, -36, 24, 76, 19, -114, 19, 21, -108, -74, -35},
  {-46, 45, 65, 50, 107, 127, -76, -5, 53, 42, -96, -8, -25, -64, -81, 13, 66, -119, -28, -57, 7, -55, -34, -12},
  {-20, 106, 85, -34, 127, 30, -63, 118, -111, -18, -71, -121, -68, -81, 53, 105, 52, -44, -121, -117, -48, -126, -5, 101},
  {0, -80, 15, 5, 7, 99, 114, 21, -41, -42, -68, -9, 66, 127, -19, 62, -29, -64, 75, -89, -51, 78, -22, 16},
  {-71, -16, -57, -79, 21, 80, 78, 38, -82, -89, 33, 127, 70, 95, -78, 27, 16, -53, -102, -72, -76, 16, 80, -43},
  {-20, 63, -74, 69, 43, -7, -5, -48, 86, 24, 44, 34, -58, 87, -24, -81, 103, 21, 120, 27, 37, 127, 39, -78},
  {-7, -4, 46, -25, 3, 35, -31, 30, -34, -46, 28, -52, -21, -52, 42, 88, -127, 28, -71, -24, -31, -80, -27, 12},
  {-4, 15, 21, 4, -14, 52, -29, 39, -44, -37, 51, -8, -71, -43, 33, 118, -95, 54, -66, -115, -97, -127, -69, 55},
  {95, -21, -17, -44, 69, 7, 127, -35, -17, 3, -45, 69, -89, -11, -37, 60, -18, -58, 60, 2, -43, -22, 2, -8},
  {-52, -24, -127, -70, -59, 3, 14, -63, 44, -19, 73, 71, -13, 18, -25, -7, 85, 92, 73, -8, -7, 15, 4, -121},
  {-54, -28, 53, 91, 28, 73, 117, 85, -72, -18, 83, -6, 65, 36, -46, 51, -38, -68, -75, -61, -79, -127, 19, -21},
  {34, -43, 52, 12, -39, 127, -29, 72, -28, -54, -42, -25, 10, -54, -7, 56, -67, 1, -56, -53, -58, 9, -21, 33},
  {55, 51, -17, 90, -94, -25, -82, -127, 114, 118, 74, -44, -68, -19, -20, -37, -24, 31, -5, 55, -17, -25, 28, -84},
  {-10, -19, -42, -50, 51, 14, 19, 46, -58, -53, -21, 3, 27, 29, -66, -65, 127, -3, 7, -8, 40, 100, 1, 7},
  {-8, 4, -30, -19, 99, -39, -81, 102, 26, 29, 20, 6, 18, 2, -127, -62, 126, -33, -37, 24, 87, -14, -12, 25},
  {-46, 70, 19, 14, -23, 8, -51, 11, -18, -60, 69, -40, -40, -46, 108, 28, -127, 73, 11, -43, -83, -85, -67, 56},
  {-4, 28, -4, 80, -7, -70, -27, -42, 39, 59, 25, -2, -82, 70, -54, -127, 118, 84, 88, 25, 36, -4, 42, -31},
  {2, 65, 31, -3, 16, 53, -72, 53, -29, -15, 1, -87, -47, -40, 56, 65, -10, -15, -127, -48, -1, -123, -11, 60},
  {37, 37, -54, 34, -28, -38, 50, 12, 57, 127, -13, 17, -62, -34, -33, -34, 57, -29, 45, 38, 41, -44, -24, -25},
  {11, -43, 23, -32, 77, 66, -34, 33, -108, -67, 1, 16, 97, 127, -24, -27, 28, -58, -21, -63, -6, 34, 3, 82},
  {-1, -29, 15, -21, 19, 54, -2, 11, -43, -64, 3, -7, -26, -47, 34, 47, -127, -46, -6, -40, -82, -33, -18, 18},
  {-46, 17, -127, 23, 59, -90, -41, 14, 85, 46, -33, 66, 20, 6, 7, -24, 105, 15, 4, 98, 88, -53, -62, -41},
  {37, -72, -17, -98, 55, 45, 121, -40, -83, -99, -42, -2, 106, 127, 53, -19, -47, -1, 44, -39, -11, 74, -12, -6},
  {124, -102, 46, -32, 21, -58, 127, -84, -37, 57, 75, -70, -14, -2, -6, -77, -69, -55, 64, -2, 18, 25, 22, 26},
  {12, -29, -5, 41, -34, -52, -19, -21, -2, 79, -127, 14, -25, 18, 1, -48, 96, -46, 51, 31, 76, 37, 33, -28},
  {-44, 36, -2, 29, 17, 1, 3, -60, 15, 28, -86, 8, 39, 9, -127, -100, 26, -111, -13, 84, 18, 121, 15, -51},
  {18, -14, -26, 55, -47, -83, 7, -7, 33, 127, 3, -1, -44, -35, 8, -44, -21, 23, 22, 49, 56, -41, -28, -26},
  {49, -16, 49, -71, 89, 16, 71, -73, -75, -99, -127, -39, 115, 80, 111, -1, -16, -47, 84, 58, -31, 15, -50, 75},
  {28, 63, -33, 30, 19, -117, -86, -102, 83, 72, -80, 28, 37, 57, -12, -56, 58, -62, 67, -13, 127, -49, 0, -39},
  {18, 28, 0, 5, -50, 80, -45, 34, -37, -47, -16, -11, -74, -33, 127, 108, -107, 27, -103, -89, -80, -126, -52, 69},
  {42, -48, 36, -25, -62, 50, -34, 90, -60, -23, 25, -73, -30, -75, 94, 79, -127, -57, -116, -70, -53, -72, -44, 89},
  {17, 44, 89, 14, -25, 45, -39, -5, -69, -81, 54, -14, -15, -71, 24, 90, -109, 12, -61, -61, -127, -45, -33, 44},
  {-21, -29, -10, 58, -8, -23, 26, -47, -37, 15, 17, -17, 10, 38, -127, -27, 11, -18, 74, 47, 40, 126, -1, -35},
  {21, 54, 28, 68, -5, -88, -89, 2, 38, 111, -86, 10, -30, -2, 1, -42, 25, 14, 59, 94, 127, -72, -50, -67},
  {-3, 15, 79, -12, -1, 43, -33, 20, -24, -83, 2, -3, -23, -72, 127, 56, -77, -29, -43, -59, -89, -9, -111, 79},
  {-127, 78, -50, 50, 41, -64, -91, -6, 58, -26, -8, 33, 69, 14, -54, -29, 97, 114, -48, 63, 19, 41, 21, -35},
  {26, 3, -27, 13, 81, -46, 96, -45, -7, 51, 27, 35, -38, 76, -41, -6, 53, -56, 127, 41, 26, 46, -40, -31},
};

static const float kLayer0InProjScale[96] = {0.000684088853f, 0.000731588108f, 0.000777316978f, 0.000826904259f, 0.00145075575f, 0.000587952323f, 0.000726522703f, 0.000851665915f, 0.000568325282f, 0.00104719785f, 0.000641764083f, 0.000691969355f, 0.00159276684f, 0.00126533594f, 0.00085309078f, 0.00101945142f, 0.000868438277f, 0.000777042995f, 0.000779041089f, 0.0014976745f, 0.000879680621f, 0.000725572114f, 0.000762530719f, 0.00110512122f, 0.000688244414f, 0.000716577517f, 0.000494774082f, 0.000459268515f, 0.000868560688f, 0.000983019709f, 0.000944075466f, 0.000601383857f, 0.000682427955f, 0.00139581889f, 0.000783067604f, 0.00076782488f, 0.000496907858f, 0.000827219454f, 0.000669995381f, 0.00061554159f, 0.000710613793f, 0.000676707015f, 0.000733253488f, 0.000738642295f, 0.000579224026f, 0.000794674095f, 0.00105477311f, 0.000923580606f, 0.000771804422f, 0.000705006591f, 0.000862007728f, 0.00070957077f, 0.00161939661f, 0.000556381885f, 0.000921641244f, 0.000594232464f, 0.00112059771f, 0.00120569183f, 0.000926858396f, 0.000498553331f, 0.00103252311f, 0.000916508783f, 0.000738300441f, 0.000782981573f, 0.000724811223f, 0.000950992748f, 0.000750846171f, 0.00155243278f, 0.00107445382f, 0.000744409277f, 0.000786907505f, 0.000727135222f, 0.00143367576f, 0.000808465062f, 0.000759895367f, 0.000578960928f, 0.0010935301f, 0.0010934294f, 0.000851223944f, 0.0010378724f, 0.000711986737f, 0.00106016768f, 0.00102106878f, 0.00105279882f, 0.000643963693f, 0.00118305348f, 0.000594672107f, 0.00070165511f, 0.000742317468f, 0.000713595422f, 0.000749463274f, 0.000934637093f, 0.00072250847f, 0.000769835082f, 0.000918870152f, 0.000958933553f};

static const float kLayer0Conv1dWeight[48][4] = {
  {-0.0336743221f, -0.176797956f, -0.0325915553f, -0.119528271f},
  {-0.0776496828f, 0.214124933f, 0.0590669364f, -0.00895828567f},
  {-0.101105697f, -0.00110338884f, 0.00591992121f, -0.186231896f},
  {-0.0448831432f, -0.151127577f, -0.112335794f, -0.0297735929f},
  {0.111785978f, 0.141875863f, 0.0657105669f, 0.241661474f},
  {-0.111594833f, 0.0841048434f, -0.0958798379f, -0.0238524526f},
  {0.139635265f, 0.096616298f, 0.0930028036f, -0.0297003016f},
  {0.180321664f, 0.176052153f, -0.0538965091f, 0.0365073346f},
  {-0.0239224732f, -0.0350810774f, -0.0465382114f, -0.13643609f},
  {0.0900751874f, 0.19285585f, -0.00220869039f, -0.100836068f},
  {-0.0794261694f, -0.0931733549f, 0.147856995f, -0.199667513f},
  {-0.0676818863f, 0.0420611054f, 0.201776683f, -0.0196323115f},
  {0.0761607289f, 0.136221245f, -0.0455491468f, -0.224157572f},
  {-0.0432930775f, -0.187519521f, 0.232906267f, 0.256037086f},
  {-0.10317257f, 0.0237979814f, -0.00387576711f, -0.125591457f},
  {0.0975388438f, 0.0635721236f, 0.276773691f, -0.132883638f},
  {-0.0581149235f, 0.0652702749f, 0.0902524963f, 0.080851689f},
  {-0.127325192f, -0.157400995f, -0.033213146f, -0.0583419427f},
  {-0.138078675f, 0.00468094554f, -0.0961516872f, -0.136203974f},
  {0.0452838838f, -0.351389498f, -0.0723918602f, 0.301037312f},
  {-0.0705151707f, 0.147472024f, 0.160427764f, 0.122621447f},
  {0.0317725204f, -0.0405113138f, 0.0298053417f, 0.204366252f},
  {-0.100457139f, -0.128507331f, -0.0889964923f, -0.0604160912f},
  {-0.0758665577f, -0.143970579f, 0.0607228652f, -0.0236282609f},
  {0.273187786f, 0.0779294819f, -0.0326767899f, 0.163638711f},
  {0.125926286f, 0.168514684f, 0.11156968f, 0.0086785052f},
  {0.0290584471f, 0.0449284278f, 0.248013824f, 0.0594477467f},
  {0.0693219155f, 0.0626219958f, 0.154691577f, 0.081108734f},
  {-0.110860504f, 0.12378829f, -0.274328887f, -0.136205375f},
  {-0.115700267f, -0.100038156f, -0.0554518476f, -0.0556886122f},
  {0.0765853971f, 0.0347986743f, 0.0272587501f, -0.125356898f},
  {-0.150180846f, 0.0206077062f, -0.0194323584f, -0.0997566879f},
  {-0.207331136f, 0.0490832143f, -0.129943267f, -0.0771869272f},
  {0.00408790261f, 0.155132666f, 0.198897243f, -0.182723239f},
  {0.0816788673f, -0.265329063f, -0.156001076f, 0.122621037f},
  {0.150035948f, 0.118481159f, 0.0849393383f, 0.00622012373f},
  {0.0646057278f, -0.193719417f, -0.165051937f, -0.127793372f},
  {-0.181542873f, -0.189881369f, 0.012661567f, 0.0377908647f},
  {-0.107054614f, 0.080752559f, -0.111695707f, 0.119484976f},
  {0.0113122202f, 0.0356216766f, 0.172144845f, 0.0596293956f},
  {0.209617555f, 0.294619203f, -0.0163299907f, 0.131651491f},
  {0.037981648f, 0.186089173f, 0.185412467f, 0.147589505f},
  {-0.187215433f, -0.157566398f, -0.118795842f, -0.115280271f},
  {-0.140211418f, -0.156088129f, -0.0747096017f, -0.191678986f},
  {0.0633888245f, 0.0674284324f, 0.262214839f, 0.0903670639f},
  {0.0578136966f, -0.148920983f, -0.0787644237f, -0.168260574f},
  {0.0177120827f, -0.0718097612f, 0.311496496f, 0.122560188f},
  {0.100246228f, 0.175747395f, -0.0130310683f, 0.00889455993f},
};

static const float kLayer0Conv1dBias[48] = {0.0282049458f, -0.0172522999f, 0.00352907018f, -0.0293594673f, -0.022086421f, 0.0253804829f, -0.0318241343f, 0.00409350451f, -0.0785367414f, -0.014768552f, -0.0596064068f, 0.0353537537f, 0.048547931f, -0.0164012387f, 0.0337323099f, -0.0478999764f, -0.023359945f, 0.0276531279f, -0.0237022489f, 0.0722224116f, -0.0381953046f, -0.0472781248f, -0.0209632609f, 0.027058674f, 0.0132638318f, -0.0343429856f, -0.0156583525f, 0.03473299f, -0.008422927f, -0.0385866165f, 0.00847396255f, -0.022335114f, 0.0126081472f, -0.0108358683f, -0.0388179868f, -0.0150027201f, 0.0112217609f, -0.0209900215f, -0.0107565261f, -0.0317820385f, -0.018796213f, -0.0105458926f, 0.0253978297f, 0.00231445977f, -0.0401353315f, 0.0269593596f, 0.0177197158f, 0.0323689468f};

static const int8_t kLayer0XProjQ[34][48] = {
  {57, -34, -16, -46, -50, 47, -35, -37, -46, -40, 23, 7, -3, -40, 3, -5, -8, 25, -53, 127, -60, -36, -61, 42, 60, -41, -10, 3, 2, -45, 34, -22, 32, 11, -54, -44, -47, -74, 53, -20, -49, -48, 15, -33, -47, 27, -33, 8},
  {-40, 76, 15, 54, 62, -5, 54, 56, 55, 69, 1, 22, -63, 26, -47, 14, 42, -60, 49, -127, 68, 16, 16, -50, -83, 51, 42, -29, 10, 25, -33, 70, -21, -15, 67, 8, 67, 77, -14, 61, 63, 72, -25, 65, 45, -46, 19, -34},
  {88, -48, -68, -66, -83, 100, -106, -45, -57, -40, -20, 84, 68, -84, 9, 2, -27, 43, -83, 42, -16, -15, -48, 36, 45, -58, -48, 82, -46, -71, 33, -112, 102, 1, -63, -43, -74, -49, 64, -49, -58, -127, 97, -83, -69, 99, -5, 49},
  {-127, 65, 31, 40, 89, -120, 70, 68, 65, 68, -45, -5, -100, 19, -21, 40, 2, -74, 67, -65, 52, -10, 60, -88, -79, 40, 39, -58, 93, 121, -20, 32, -29, 28, 57, 66, 105, 78, -93, 34, 59, 97, -101, 77, 80, -68, 91, -30},
  {76, -78, -64, -79, -81, 48, -83, -63, -78, -80, 96, 17, 55, -29, 73, 4, -58, 98, -87, 52, -43, -7, -48, 45, 127, -28, -25, 61, -107, -109, 11, -89, 107, -42, -73, -116, -81, -62, 78, -85, -61, -110, 119, -48, -52, 59, -96, 44},
  {-31, 25, 43, 41, 50, -59, 75, 37, 61, 109, -18, -38, -21, 41, -47, 22, 80, -64, 24, -45, 6, 85, -16, 0, -42, 41, 42, -66, 87, 67, -73, 18, -39, 127, 71, 39, 33, 62, -63, 72, 12, 24, -119, 68, 41, -100, 57, -15},
  {-65, 107, 12, 66, 12, -10, 47, 17, 44, -14, -10, -28, -39, 30, -25, 32, 72, -26, 67, -81, 81, 25, 36, -97, -32, 31, 29, -103, 48, 38, -109, 83, -40, 51, 31, 75, 7, 95, -127, 35, 74, 101, -16, 69, 108, -29, 56, -65},
  {34, -73, -9, -47, -70, 4, -65, -70, -72, -88, 56, 49, 58, -97, 62, 4, -13, 75, -84, 104, -51, -42, -75, 127, 71, -77, -98, 57, -87, -38, 62, -70, 35, -55, -123, -47, -55, -100, 16, -104, -63, -61, 125, -76, -90, 25, -64, 10},
  {-38, 98, -81, 118, 56, -16, 79, 90, 82, 35, -34, -47, -48, 32, -23, 7, 104, -59, 52, -29, 46, 19, 65, -77, -96, 45, 80, 1, 66, -12, -46, -21, -127, 100, 27, 22, 28, 97, -83, 51, 102, 100, -35, 59, 14, -35, 11, -71},
  {89, -86, -56, -33, -101, 54, -23, -82, -53, -23, 87, 44, 39, -58, 41, -36, -83, 48, -17, 72, -35, -26, -53, 26, 60, -38, -11, 50, -70, -48, 13, -100, 19, -70, -46, -96, -53, -48, 127, -10, -60, -72, 113, -37, -32, 40, -69, 63},
  {62, -16, 1, -62, -46, 22, -14, -127, -78, -32, 68, 52, 81, -40, 38, 12, -70, 63, -56, 79, -2, -7, -70, 96, 21, -46, 6, 81, -63, -61, 47, -43, 74, -31, -61, 13, 9, -104, 100, -43, -32, -52, 50, -44, -53, 64, -55, 59},
  {13, -82, -37, -44, -5, 73, -40, -84, -63, -39, 73, -7, -3, -68, 16, -27, -61, 69, -42, 37, -25, -10, -26, 39, 81, -31, -56, 52, -39, -9, 56, -38, 12, -41, -47, -89, -40, -64, 77, -15, -127, -37, 101, -28, -46, 72, -32, 25},
  {16, -20, 20, -61, -39, 64, -88, -64, -73, -70, 101, 48, 57, -67, 62, -34, -79, 52, -24, 127, -11, -60, -53, 25, 73, -54, -58, 15, -86, -54, -13, -113, 16, -20, -79, 13, -9, -41, 77, -35, -57, -25, 56, -49, -37, 91, -59, 86},
  {-3, -68, -33, -61, -43, 52, -17, -70, -21, -30, -1, 26, 64, -47, 46, 34, -39, 27, -82, 127, -5, -70, -52, 74, 76, 7, -30, 31, -38, -81, 43, -33, 19, -41, -45, -54, -9, -42, 20, -72, -42, -69, -3, -56, 19, 86, -53, 30},
  {46, -21, -4, -63, -28, 16, -116, -100, -72, 10, 62, 25, 57, -41, 61, 18, -33, 56, -40, 94, 5, -50, -44, 39, 61, -11, -54, 10, -67, -71, 78, -108, 64, -3, -105, -76, -23, -31, 127, -47, -39, -26, 42, -88, -37, 86, -42, 48},
  {-48, 50, 11, 48, 99, -34, 25, -8, 53, 64, -51, -29, -60, 25, -79, -10, -14, -53, 103, -42, 9, 20, 40, -127, -46, 13, 80, -44, 39, 57, 3, 70, -11, 42, 34, 70, 67, 39, -53, 91, 23, 58, -75, 16, 30, -5, 52, -79},
  {-110, 95, 38, 58, 51, -80, 41, 49, 102, 28, -31, -84, -57, 58, -105, -42, 70, -29, 67, -78, 2, 48, 121, -111, -115, 118, 51, -5, 92, 98, -94, 119, -9, 29, 49, 127, 61, 73, -96, 43, 23, 65, -55, 76, 38, -62, 57, -11},
  {16, -44, -26, -55, -62, 42, -65, -31, -59, -36, 62, 20, 60, -55, 12, -30, -61, 10, -57, 80, -21, -60, -66, 47, 30, -61, -75, 31, -19, -62, 30, -72, 84, -21, -74, -58, -58, -70, 127, -57, -27, -23, 72, -89, -14, 23, -4, 75},
  {48, -58, -10, -88, -49, 56, -40, -75, -63, -78, 127, 50, 58, -81, 57, -41, -25, 66, -63, 81, -21, -32, -22, 63, 73, -47, -33, 54, -58, -24, 53, -78, 62, -88, -93, -80, -93, -90, 70, -73, -45, -78, 23, -53, 14, 68, -66, 45},
  {-84, 118, 34, 33, 90, -58, 106, 85, 117, 100, -62, 9, -54, 61, -14, 19, 107, -77, 52, -74, 28, 30, 127, -24, -59, 66, 90, -111, 80, 60, -94, 102, -23, 77, 55, 96, 94, 30, -102, 75, 91, 52, -47, 58, 55, -82, 22, -95},
  {66, -58, -99, -78, -52, 55, -51, -55, -56, -70, 77, 104, 53, -95, 49, 35, -55, 58, -34, 127, -85, -93, -65, 65, 91, -58, -52, 16, -77, -109, 83, -70, 123, -75, -52, -104, -66, -24, 127, 8, -105, -14, 116, -81, -18, 70, -101, 46},
  {-98, -15, 37, 110, 82, -72, 82, 56, 65, 63, -43, -37, -62, 57, -97, -39, 77, -80, 29, -15, 37, 21, 24, -70, -68, 56, 7, -3, 63, 48, -49, -1, 9, 36, 50, 86, 8, 77, -127, 50, 68, 21, -64, 64, 68, -46, 50, -28},
  {-47, 32, 0, 34, 40, -13, 74, 11, 80, 45, -70, -16, -72, 91, -127, 41, 56, -57, 13, -97, 66, 33, 14, -69, -6, 45, 42, -18, 55, 47, -49, 42, -26, 40, 92, 50, 85, 49, -65, 58, 36, 46, -38, 63, 13, -101, 39, -47},
  {73, -75, -15, -66, -57, -11, -75, -60, -52, 3, -5, 37, 40, -77, -8, 15, -13, 91, -45, 32, -13, 1, -81, 73, 55, -25, -74, 9, -48, -36, 85, -41, 108, 2, -19, -91, -55, -66, 127, -46, -109, 7, 68, -10, -32, 75, -15, 64},
  {-56, 22, 15, 115, 75, -53, 85, 17, 50, 42, -27, -50, -79, 127, -20, 31, 58, -40, 71, -29, 0, 68, 90, -31, -62, 47, 24, 1, 29, 89, -31, 27, -2, 35, -11, 73, 27, 90, -92, 67, 76, 76, -52, 19, 81, -15, 38, -22},
  {62, -40, -7, -73, -74, 25, -23, -51, -70, -39, 39, -20, 56, -53, 32, -36, -20, -14, -75, 47, -27, -46, -76, 29, 63, -95, -54, 58, -32, -8, 81, -76, 127, -36, -24, -60, -31, -107, 83, 1, -15, -58, 76, -50, -87, 13, -86, 35},
  {110, -80, -20, -30, -50, 72, -6, -64, -82, -39, 109, 60, 127, -2, 16, -49, -64, 51, -69, 77, -25, -92, -9, 0, 110, -77, -89, 46, -52, -3, 46, -61, 51, -91, -34, -96, -66, -48, 73, -82, -92, -3, 45, -89, -64, 76, -55, 48},
  {70, -70, -12, -63, -15, 61, -72, -45, -64, -98, -7, 55, 30, -50, 37, -20, -73, 30, -32, 47, -52, -27, -64, 18, 65, -44, -102, 98, -65, 1, 127, -84, 126, -72, -52, -46, -68, -20, 77, -72, -94, -36, 73, -27, -40, 103, -29, 96},
  {120, -29, -66, -59, -86, 37, -116, -38, -64, -57, -9, 29, 81, -57, 87, -53, -52, 37, -74, 103, -53, -44, -69, 68, 0, -36, -43, -22, -10, -32, 127, -39, 111, -69, -26, -75, -83, -23, 99, -17, -40, -95, 59, -77, -25, 35, -75, 19},
  {80, -5, -21, -30, 23, -5, -58, -78, -62, -61, 23, 35, 67, -23, 47, -58, -30, 24, 3, 65, -28, -44, -62, 90, 22, -64, -14, 34, -49, -37, 16, -80, 10, -51, -17, -62, -87, -35, 127, -18, -37, -75, 28, -33, -72, 54, -7, 19},
  {74, -37, 10, -53, -39, 49, -68, -56, -99, -83, 38, 25, 39, -33, 67, -20, -53, 35, -46, 68, -39, 15, -48, 15, 73, -72, -41, 78, -52, -41, 35, -67, 89, -76, -59, -73, -76, -48, 127, 59, -51, -69, 57, -55, -50, 31, -9, 54},
  {-78, 55, -12, 92, 64, -70, 88, 53, 123, 68, -116, -77, -60, 85, -50, -20, 46, -49, 38, -76, 17, 26, 26, -124, -69, 127, 11, -15, 28, 90, -61, 36, -63, -3, 92, 101, 115, 87, -41, 109, 16, 39, -61, 62, 85, -58, 81, -18},
  {-109, 35, 1, 79, 78, -13, 64, 43, 96, 25, -30, -66, -47, 73, -51, 40, 127, -99, 68, -124, -26, 79, 42, -70, -64, 63, 106, -51, 46, 70, -51, 60, -29, 78, 23, 99, 85, 95, -108, 92, 60, 46, -58, 85, 48, -95, 52, -98},
  {27, -112, 22, -19, -82, 61, -32, -54, -64, -7, 45, 15, 62, -51, -14, 23, -66, 41, -88, 87, -92, -10, -4, 52, 72, -112, -77, 79, -34, -48, 39, -42, -12, 35, -47, -39, -90, -86, 109, -26, -77, -63, 119, -127, -43, 58, -109, 40},
};

static const float kLayer0XProjScale[34] = {0.00107744511f, 0.000937051431f, 0.000726877304f, 0.000595354184f, 0.000599779829f, 0.000751750369f, 0.00067430886f, 0.00060881488f, 0.000610922463f, 0.000687105174f, 0.000702757738f, 0.000736209215f, 0.000624418317f, 0.000796512701f, 0.000674173527f, 0.000751263637f, 0.000580723165f, 0.00083422754f, 0.000810088823f, 0.000612219097f, 0.000638123136f, 0.00074593781f, 0.000750696228f, 0.000717497896f, 0.000674562296f, 0.000779775379f, 0.00062669022f, 0.000637987978f, 0.000581396103f, 0.000794871943f, 0.000694675604f, 0.00055340142f, 0.000583147164f, 0.000674753159f};

static const int8_t kLayer0DtProjWeightQ[48][2] = {
  {-82, 127},
  {115, -127},
  {-73, 127},
  {127, -81},
  {127, -127},
  {-97, -127},
  {-63, 127},
  {-127, 114},
  {127, -69},
  {127, -86},
  {-127, -121},
  {127, -44},
  {127, -94},
  {38, -127},
  {-75, 127},
  {-127, 110},
  {127, -29},
  {-107, 127},
  {127, -12},
  {127, -111},
  {108, -127},
  {127, -122},
  {-127, -30},
  {-127, -92},
  {127, -32},
  {26, -127},
  {127, -88},
  {-14, 127},
  {127, -72},
  {104, -127},
  {-95, 127},
  {-30, 127},
  {-19, -127},
  {78, -127},
  {-111, 127},
  {127, -22},
  {98, -127},
  {-127, 34},
  {127, 47},
  {-61, 127},
  {121, 127},
  {-24, -127},
  {127, 54},
  {-127, -89},
  {-127, -19},
  {127, -72},
  {42, -127},
  {-48, 127},
};

static const float kLayer0DtProjWeightScale[48] = {0.000157489339f, 0.000269818382f, 0.000434402871f, 0.000290210068f, 0.00135518168f, 0.000197804358f, 0.000181398747f, 0.000209380116f, 0.000331939867f, 0.000402610429f, 0.000169387946f, 0.000318961567f, 0.000287257426f, 0.000304431655f, 0.000114304508f, 0.00030843186f, 0.000123081118f, 0.000136907824f, 0.000331178482f, 0.000695096271f, 0.000560572953f, 0.000237551823f, 0.000308938383f, 0.000205143704f, 0.000200792463f, 0.000541734742f, 0.000329052709f, 0.000273861951f, 0.000176246598f, 0.000168014478f, 0.000170228363f, 0.000185126046f, 0.000118239303f, 0.000394005823f, 0.000277138519f, 0.000132517132f, 0.000174313565f, 0.000364777748f, 0.000163580116f, 0.000179803377f, 6.83837061e-06f, 0.000141049051f, 0.000141722121f, 0.000192641135f, 0.000208852987f, 0.000152837383f, 0.000196435183f, 0.00011727713f};

static const float kLayer0DtProjBias[48] = {0.0181207377f, 0.0285182539f, 0.00603499264f, 0.0253515542f, 0.178239331f, 0.0214490108f, 0.0205662902f, 0.0167056378f, 0.0170461293f, 0.0841270611f, -0.00107422459f, 0.0294086263f, 0.0365581997f, 0.0466680601f, 0.0146347778f, 0.00278316252f, 0.0142568452f, 0.0160995573f, 0.0238307826f, 0.118106663f, 0.0961470902f, 0.0225286055f, 0.0137683256f, -0.00136766816f, 0.0410818532f, 0.0425365865f, 0.0316713378f, 0.00852359552f, 0.0295149907f, 0.0232550967f, 0.00334439124f, 0.0188303646f, 0.0171340741f, 0.0463608429f, 0.0326880105f, 0.0156171285f, 0.0242279302f, 0.0278078839f, -0.00846842676f, 0.0098645268f, 0.0245988313f, 0.0217526816f, 0.0226597786f, 0.0194785558f, 0.011848392f, 0.0267847385f, 0.0246920977f, 0.0203969833f};

static const int8_t kLayer0OutProjQ[24][48] = {
  {35, 17, -47, -49, 127, 55, 40, 5, -29, 34, -31, 6, 16, -113, 46, 31, 19, 5, -31, -51, 37, -37, -56, -80, 57, -8, 13, 5, -54, 37, -20, -49, -66, 31, 25, 2, 23, 61, -30, 22, -37, -35, 69, 20, 31, 30, 75, -54},
  {-32, -22, 45, 43, 5, -19, -44, 58, -9, -84, -38, 50, 48, 101, -23, 5, -67, -43, 62, 127, -35, 31, 31, 87, 28, -47, 40, 29, 45, -17, -72, 23, 54, 34, -91, -11, -5, -40, -74, -63, 51, -4, -49, -17, -18, -65, -85, 18},
  {22, 16, 7, -9, 127, 37, 17, 2, -9, -5, 4, -1, 26, -37, 41, 22, 21, -7, 1, 20, 47, -34, -55, -48, 53, -20, 8, -42, -31, 54, 10, -34, -43, 40, 1, 5, 31, 45, -3, 35, -18, -25, 8, -9, 47, 5, 47, -3},
  {-31, -10, 84, 37, 28, -13, -29, 40, 31, -97, -41, 26, 44, 27, -26, 30, -11, -32, 28, 127, 5, 38, 16, 13, 20, -42, 16, 17, 42, -39, -42, 31, 5, 50, -58, 7, -34, -35, -44, -22, 9, 42, -31, -2, -41, -19, -61, 59},
  {-58, -28, 78, 65, 15, -27, -76, 57, 5, -71, -30, 65, 50, 63, -35, -27, -59, -24, 50, 127, 1, 14, 86, 37, 31, -83, 30, -6, 34, -44, -43, 32, 24, 8, -109, -25, -65, -112, -52, -88, 48, 57, -47, -57, -31, -48, -63, 1},
  {-100, -5, 98, 60, -21, -61, -9, 63, -80, -7, 60, 60, -47, -5, -47, 127, 11, -70, 95, -84, -64, 84, 14, 21, 13, -46, 95, 17, -24, -109, -56, -10, -3, 45, -5, -61, -57, -64, 1, -72, 50, 33, -19, -83, -110, -94, 22, -16},
  {0, 95, -57, -57, 48, 71, 25, -47, -31, 30, -30, -46, 4, -127, 53, 30, 35, 40, -11, -75, 74, -39, -55, -86, 2, 79, -70, -27, -73, 67, 5, -16, -45, 44, 34, -9, 45, 83, -30, 80, -27, -49, 35, 35, 37, 57, 94, -18},
  {-41, -43, -12, 73, 121, 39, -27, 48, -94, 18, -4, -22, -27, -63, 105, 71, -37, -33, 65, -16, 85, 13, -46, 33, 127, -60, 62, 17, -60, 12, 28, 4, -54, -37, 56, -101, -78, -23, -55, -25, 82, 18, 30, -68, -19, -46, 58, 2},
  {76, 46, -97, -81, -65, -6, 65, -41, 5, 100, 6, -114, -74, -29, 61, -79, 51, 42, -61, -111, -29, -81, -19, -57, -111, 127, -43, -40, -62, 57, 43, -57, -75, -115, 106, 43, 55, 61, 27, 47, -92, -14, 31, 105, 35, 44, -3, -40},
  {-18, -8, 8, 19, -27, -17, -14, -3, 9, 88, -8, 16, 29, -20, -64, 26, -5, 13, -20, -127, -46, 17, -1, 28, -16, 0, 18, 10, -26, -33, -13, 19, 25, 12, 82, 34, -18, 6, -54, 9, -31, 3, 14, 19, -4, -26, 20, 37},
  {-28, -8, 26, 6, 1, -4, -21, 41, 11, -90, 12, 30, 34, 44, -40, 24, -24, -37, 46, 127, 53, 35, 13, -24, 35, -35, -4, -10, 15, -8, 11, 28, 17, 28, -76, -18, -1, -38, -14, 4, 48, 15, -14, -46, -12, -11, -31, -2},
  {-40, -42, -2, 39, -127, -28, -24, 62, 15, 26, 17, -48, -30, 49, -53, -25, -16, -69, 72, -79, -62, 39, 55, 41, -20, -51, 8, 27, 85, -67, 10, 69, 23, -64, 11, -36, -40, -64, 41, -100, 17, 55, -43, -49, -25, -10, -42, 20},
  {17, 59, -3, 4, -127, -15, 18, -14, -4, 91, 66, -67, -93, 7, 51, -12, 39, -1, -34, -123, -77, -25, 6, 5, -62, 14, 44, -12, -4, 31, 32, -14, 7, -83, 108, 25, 35, -4, 19, 26, -16, 11, 11, 30, -13, -5, 7, -46},
  {-42, -43, 61, 27, -98, -47, -32, 23, 69, -34, 0, 48, 33, 80, -52, -54, -68, -26, 18, 66, -35, 35, 68, 15, -21, -4, 5, -16, 36, -89, -53, 53, 75, 40, -22, -21, -39, -127, 24, -26, 5, 58, -45, -24, -44, -48, -89, 37},
  {35, -18, -44, 33, 127, 18, 28, 3, -53, 88, -8, -3, 3, -84, 72, -4, 4, -3, 3, -85, -24, -48, -16, -4, 46, -13, 9, 11, -22, 5, -4, -9, -19, 15, 25, 13, -6, 39, -55, 22, -34, -35, 0, 5, 49, -6, 54, -17},
  {-25, -23, 50, 48, 127, -33, -59, 0, -49, -34, -32, 40, 21, 11, 1, 13, -58, -21, 62, -35, 61, -1, 9, 50, 63, -58, 27, -39, 61, -29, 9, 45, -8, 17, -35, -27, -28, -67, -23, -17, 45, 25, -26, -43, 9, -26, -20, 62},
  {-49, -29, 30, 31, -12, -25, -58, 61, 50, -87, -13, 31, 28, 70, -72, 54, -8, -66, 26, 127, -14, 47, 28, 46, 36, -31, 18, 29, 29, -58, -10, 31, 32, 59, -79, -37, -72, -55, -15, -48, 41, 59, -41, -37, -20, -27, -54, 50},
  {25, 28, -29, -27, -72, 12, 60, -36, 20, 108, 0, -61, -25, -12, 27, -18, 37, 3, -22, -127, -38, -11, -29, -35, -58, 72, -18, -25, -51, 29, 32, -19, 21, -48, 64, 45, 38, 8, -2, 24, 2, -34, 31, 38, 7, 40, 40, -19},
  {-5, -5, 98, 16, 36, -39, 3, 25, 64, -86, -11, 49, 60, 31, -24, -56, -29, -9, -26, 127, 17, -3, 42, -15, -63, 2, -28, -19, 23, 32, -21, 33, 33, 52, -118, 12, -22, -17, 4, -41, -16, 16, -48, -29, -36, -20, -57, 37},
  {24, 59, -25, -64, -122, 27, 34, -42, 30, 42, 16, -74, -62, -44, 21, 8, 41, 32, -46, -127, -12, -51, -2, -54, -84, 60, -47, -37, -48, 34, 51, -46, -6, -58, 52, 42, 27, 29, 33, -1, -34, -41, 44, 35, 49, 11, 29, -60},
  {42, 127, -90, -63, -54, 53, 51, -61, 54, 94, 69, -49, -62, -43, 53, -29, 82, 56, -69, -115, 13, -32, -30, -43, -68, 59, -50, -55, -65, 35, 62, -51, -38, -45, 94, 78, 55, 43, 61, 67, -46, -49, 64, 61, 1, 60, 62, -81},
  {3, -7, 21, -9, 20, 15, 20, 19, 21, -49, -32, 8, 56, -11, 14, -30, 25, -20, -15, 127, 21, -3, -6, -38, -15, -3, -12, -22, 7, 28, -35, 3, -20, 60, -65, -16, 5, -2, -5, 9, -22, -16, -1, -3, 49, 14, -15, -22},
  {69, 33, -62, -32, -27, 32, 22, -46, 11, 112, 73, -97, -111, -86, 42, -69, 41, 58, -50, -127, 46, -58, -51, -65, -18, 52, 15, -7, -76, 16, 97, -17, -72, -75, 81, 20, -7, 70, 79, 37, -47, -32, 50, 48, 39, 59, 69, -46},
  {-38, -44, 40, 50, 127, 25, -8, 27, -29, 37, -53, -7, 51, -11, -1, 18, 17, -31, 2, 42, 76, -5, -1, 30, 66, -58, 13, 11, 14, 8, -27, 27, 11, 69, -43, -13, -5, 1, -87, -29, 30, 10, -17, -47, 27, -19, -9, 21},
};

static const float kLayer0OutProjScale[24] = {0.0015192267f, 0.001093333f, 0.00169843505f, 0.00125331839f, 0.000880214269f, 0.000622626452f, 0.00102348987f, 0.00082361314f, 0.000896568061f, 0.00126381533f, 0.00122088892f, 0.000929869479f, 0.000782074872f, 0.00118919648f, 0.00128083723f, 0.00106482848f, 0.00134961703f, 0.00115226279f, 0.000868463947f, 0.00112752046f, 0.000982159632f, 0.0014730813f, 0.000946986605f, 0.00112913467f};

static const float kLayer1PreNormWeight[24] = {1.11938441f, 1.07296383f, 1.09410846f, 1.10606503f, 1.12928855f, 1.03805482f, 1.11849189f, 1.08672118f, 1.06543577f, 1.08971846f, 1.08144832f, 1.12492573f, 1.04586387f, 1.0742749f, 1.11044574f, 1.11694896f, 1.1359694f, 1.07961464f, 1.063241f, 1.0707165f, 1.06286895f, 1.07257354f, 1.06378782f, 1.10283303f};

static const float kLayer1PreNormBias[24] = {-0.00436880207f, -0.0268034711f, -0.0331184492f, 0.00147922535f, -0.0225959215f, 0.00169099332f, -0.0013987046f, -0.0387580171f, 0.043445576f, 0.0442376025f, 0.00359122758f, 0.0489314198f, -0.0365658291f, -0.0228096973f, -0.0104879783f, -0.0409497619f, -0.00734918471f, 0.0181146078f, 0.0385389961f, 0.034241315f, 0.037286263f, -0.017709868f, -0.047965318f, -0.06294173f};

static const float kLayer1PostNormWeight[24] = {0.968459904f, 1.00691438f, 0.960936129f, 0.959986389f, 0.970538795f, 0.916731894f, 0.931726992f, 0.985767841f, 0.988224685f, 0.924599648f, 0.997260809f, 0.992949247f, 0.97111094f, 0.993429124f, 0.940917552f, 0.916702926f, 1.05494142f, 0.975569665f, 0.923535764f, 1.00235355f, 1.02308834f, 0.961191177f, 1.01272309f, 0.984819233f};

static const float kLayer1PostNormBias[24] = {0.0545316711f, -0.00456775399f, 0.0265525021f, 0.00553595135f, -0.0120583428f, 0.0120683387f, 0.0149582187f, 0.0250529591f, -0.0175844971f, -0.00575517397f, -0.0100301253f, -0.00405754708f, 0.00683377497f, -0.0148800453f, 0.0214372762f, -0.00401473138f, 0.00127904373f, -0.00953764003f, 0.0131509444f, -0.0099508334f, 0.00860786624f, 0.0123621952f, -0.00715618534f, 0.0256438479f};

static const float kLayer1ALog[48][16] = {
  {-0.0458302498f, 0.667676091f, 1.05041277f, 1.34320438f, 1.56892407f, 1.75051391f, 1.89799762f, 2.03852248f, 2.15585446f, 2.26695395f, 2.35688233f, 2.44523191f, 2.52413225f, 2.59714007f, 2.66442919f, 2.72777486f},
  {0.0124418186f, 0.698780417f, 1.11041844f, 1.3851167f, 1.60696661f, 1.77513266f, 1.93865836f, 2.06283975f, 2.17531896f, 2.27148676f, 2.36389923f, 2.4486351f, 2.52750158f, 2.5987556f, 2.66530752f, 2.7287581f},
  {-0.011970032f, 0.679385006f, 1.06446755f, 1.35304606f, 1.57081723f, 1.75020623f, 1.90388596f, 2.03436494f, 2.15272117f, 2.25960565f, 2.35242772f, 2.4428618f, 2.52325726f, 2.59662676f, 2.66368794f, 2.72783923f},
  {-0.0267235506f, 0.689475775f, 1.09167635f, 1.35814238f, 1.59258521f, 1.74851263f, 1.90820754f, 2.04723692f, 2.15762186f, 2.26338506f, 2.35581779f, 2.44379282f, 2.52366424f, 2.59718609f, 2.66411304f, 2.72782445f},
  {-0.00667868368f, 0.669953585f, 1.08583462f, 1.36755919f, 1.5825274f, 1.76963603f, 1.92811298f, 2.05092025f, 2.17169595f, 2.2735579f, 2.36579347f, 2.44937468f, 2.52793908f, 2.59900951f, 2.66581392f, 2.72892785f},
  {0.0150480019f, 0.689828157f, 1.09851813f, 1.37489128f, 1.59267545f, 1.76952326f, 1.92279673f, 2.05077362f, 2.16519856f, 2.26697946f, 2.36039686f, 2.44519782f, 2.523669f, 2.59633517f, 2.66442275f, 2.72780252f},
  {-0.00459887646f, 0.682136357f, 1.10744631f, 1.36767614f, 1.5764513f, 1.77182901f, 1.92035055f, 2.05021214f, 2.16592145f, 2.26682186f, 2.36115909f, 2.44523096f, 2.52364516f, 2.59651351f, 2.66433907f, 2.72778797f},
  {0.0193045065f, 0.708741546f, 1.11079788f, 1.39803433f, 1.61919355f, 1.78560257f, 1.93440855f, 2.06501126f, 2.17157817f, 2.27217627f, 2.36327863f, 2.44722056f, 2.52543116f, 2.59734726f, 2.66480613f, 2.72813416f},
  {0.0369968638f, 0.722123682f, 1.10361171f, 1.38608229f, 1.60162771f, 1.77511501f, 1.92316306f, 2.05723643f, 2.16846824f, 2.27011395f, 2.36188698f, 2.44686341f, 2.52502441f, 2.59714937f, 2.66462278f, 2.72806239f},
  {0.0473434739f, 0.725933373f, 1.14197576f, 1.42156994f, 1.64471829f, 1.80210268f, 1.96766853f, 2.08956242f, 2.19161415f, 2.29503083f, 2.38055182f, 2.4590857f, 2.53559422f, 2.6035037f, 2.66765928f, 2.73041058f},
  {0.00814900547f, 0.672653019f, 1.08951151f, 1.34829307f, 1.56198549f, 1.73938632f, 1.90969348f, 2.03538823f, 2.15592861f, 2.26060534f, 2.35580564f, 2.44289184f, 2.52198267f, 2.59537792f, 2.66404057f, 2.72756505f},
  {0.00864219479f, 0.64689523f, 1.07433021f, 1.34083331f, 1.55305743f, 1.74902499f, 1.90615678f, 2.03680062f, 2.15781355f, 2.26328063f, 2.35773993f, 2.44367576f, 2.52268815f, 2.5957489f, 2.66411281f, 2.72761941f},
  {0.0414135903f, 0.715950549f, 1.12045324f, 1.39738178f, 1.61531949f, 1.78419614f, 1.9304291f, 2.06103396f, 2.16919374f, 2.26923966f, 2.36184144f, 2.44612527f, 2.52446842f, 2.59699655f, 2.66452909f, 2.72792768f},
  {0.0148980673f, 0.715723991f, 1.08560419f, 1.37022412f, 1.5896225f, 1.7686379f, 1.91323459f, 2.04757285f, 2.16164589f, 2.26528215f, 2.35835791f, 2.44467306f, 2.52353597f, 2.5967319f, 2.66416121f, 2.72774339f},
  {0.0332739018f, 0.7189852f, 1.12637854f, 1.40710151f, 1.62509477f, 1.7933867f, 1.9407413f, 2.06893516f, 2.17443609f, 2.27210116f, 2.36397648f, 2.44713616f, 2.52515626f, 2.59742284f, 2.66477561f, 2.72806787f},
  {0.0551707819f, 0.73022598f, 1.10373271f, 1.37836838f, 1.59300971f, 1.76598024f, 1.91502059f, 2.04808283f, 2.1594193f, 2.2682004f, 2.35894561f, 2.44489908f, 2.52351284f, 2.59693074f, 2.66432452f, 2.72779012f},
  {0.0633029193f, 0.643974841f, 1.11189771f, 1.35192621f, 1.54182398f, 1.74396873f, 1.90074325f, 2.03999114f, 2.14963555f, 2.26008081f, 2.35662508f, 2.44028282f, 2.52058578f, 2.59219098f, 2.66294384f, 2.72651815f},
  {-0.00764466263f, 0.683827102f, 1.0968436f, 1.36142719f, 1.59387779f, 1.74344444f, 1.91468287f, 2.03869462f, 2.15529251f, 2.25747132f, 2.35361576f, 2.44201541f, 2.52235985f, 2.59600782f, 2.66401815f, 2.72769666f},
  {0.0123049198f, 0.69556874f, 1.07537043f, 1.36006212f, 1.58009756f, 1.76305091f, 1.9125104f, 2.04386854f, 2.16136932f, 2.26401448f, 2.35860801f, 2.44442248f, 2.52322817f, 2.59642386f, 2.66418481f, 2.72772193f},
  {0.0528461374f, 0.697155833f, 1.12270105f, 1.39495993f, 1.60747063f, 1.78349245f, 1.93693995f, 2.06152844f, 2.17176604f, 2.272717f, 2.36412191f, 2.44734287f, 2.52500272f, 2.59717703f, 2.66479754f, 2.72802615f},
  {0.0176508985f, 0.678815186f, 1.1112895f, 1.37955785f, 1.59035218f, 1.78897929f, 1.9395113f, 2.06054115f, 2.17635226f, 2.26942396f, 2.36514759f, 2.44726062f, 2.52478385f, 2.59782696f, 2.66452408f, 2.72820187f},
  {-0.0939233452f, 0.639935672f, 1.02105391f, 1.3273592f, 1.5703274f, 1.74162042f, 1.89775729f, 2.03353453f, 2.15285015f, 2.26161432f, 2.35543275f, 2.44325733f, 2.52285194f, 2.59627867f, 2.66408944f, 2.72768402f},
  {0.0294918586f, 0.69458735f, 1.10212111f, 1.3742038f, 1.58816922f, 1.77068818f, 1.92137337f, 2.0488658f, 2.16467071f, 2.26651382f, 2.36013532f, 2.44504404f, 2.52355528f, 2.59637117f, 2.66439295f, 2.72778225f},
  {-0.019501444f, 0.697634161f, 1.14587271f, 1.39355624f, 1.62477481f, 1.79172385f, 1.94451201f, 2.07163024f, 2.17400122f, 2.27409339f, 2.36385393f, 2.44806027f, 2.52673244f, 2.59873414f, 2.66493559f, 2.72834563f},
  {0.0134504968f, 0.696350217f, 1.09492409f, 1.37639689f, 1.59615147f, 1.7715615f, 1.92455399f, 2.05335832f, 2.16739392f, 2.26694155f, 2.36064696f, 2.44564891f, 2.52428579f, 2.59698868f, 2.66442418f, 2.72798944f},
  {-0.0266051199f, 0.63871038f, 1.04721463f, 1.34479845f, 1.55956864f, 1.74783254f, 1.89632845f, 2.03622532f, 2.15142703f, 2.26480269f, 2.35707879f, 2.44439268f, 2.52333975f, 2.5962956f, 2.66413403f, 2.72770071f},
  {0.00133956154f, 0.677627325f, 1.07382345f, 1.36574721f, 1.58552468f, 1.76347017f, 1.92005444f, 2.04431725f, 2.16456771f, 2.26339698f, 2.3567102f, 2.44445992f, 2.52392483f, 2.59760857f, 2.66442657f, 2.7280643f},
  {0.0342615955f, 0.722282708f, 1.12426901f, 1.39875543f, 1.61493671f, 1.79539919f, 1.93420303f, 2.0696671f, 2.17439342f, 2.27772903f, 2.36667871f, 2.44868731f, 2.5262332f, 2.59875154f, 2.66489887f, 2.72813272f},
  {-0.0501536205f, 0.637609184f, 1.09569156f, 1.3396982f, 1.54977787f, 1.74356103f, 1.91355979f, 2.02833891f, 2.15450931f, 2.25721526f, 2.35534286f, 2.44145942f, 2.52155113f, 2.59494925f, 2.66395545f, 2.72753119f},
  {0.00485614501f, 0.679245055f, 1.07228184f, 1.35371912f, 1.57042444f, 1.75295532f, 1.89756298f, 2.03222442f, 2.14928102f, 2.2599225f, 2.35304666f, 2.44279838f, 2.52220511f, 2.59657812f, 2.66348529f, 2.72747946f},
  {0.0961670429f, 0.711630821f, 1.16681004f, 1.39039075f, 1.58562601f, 1.78021181f, 1.92810023f, 2.05658174f, 2.16776705f, 2.2711544f, 2.36393523f, 2.44555163f, 2.52322674f, 2.59576058f, 2.66446948f, 2.72763729f},
  {0.00926948804f, 0.696972132f, 1.10502803f, 1.3744421f, 1.59050572f, 1.76460266f, 1.91903079f, 2.05145431f, 2.16427255f, 2.26653934f, 2.35974717f, 2.44508743f, 2.52374196f, 2.59647155f, 2.66435885f, 2.72779393f},
  {0.0311823208f, 0.704984903f, 1.10286963f, 1.38734674f, 1.60747015f, 1.76034188f, 1.92661345f, 2.05239987f, 2.16411638f, 2.26681447f, 2.35917258f, 2.44517112f, 2.52377582f, 2.59553623f, 2.66457176f, 2.72787333f},
  {0.0300224219f, 0.692677677f, 1.12416875f, 1.37541735f, 1.58735991f, 1.77025163f, 1.9277271f, 2.05797505f, 2.16933155f, 2.26752973f, 2.3628602f, 2.44538951f, 2.52396345f, 2.59655929f, 2.66434383f, 2.72786808f},
  {-0.0179940742f, 0.671615541f, 1.07895851f, 1.36991525f, 1.58888197f, 1.77262723f, 1.92858934f, 2.05813456f, 2.1802721f, 2.27419901f, 2.36779785f, 2.4558332f, 2.53374505f, 2.60272336f, 2.66724944f, 2.73078871f},
  {0.0316429585f, 0.753547132f, 1.19686103f, 1.46355546f, 1.66555858f, 1.82506263f, 1.98160911f, 2.10739446f, 2.19676042f, 2.29012513f, 2.37807488f, 2.45439243f, 2.53206396f, 2.60095048f, 2.66629624f, 2.72929406f},
  {0.0279261656f, 0.700167f, 1.0939703f, 1.38115692f, 1.59485638f, 1.77400792f, 1.92086899f, 2.05294228f, 2.1654489f, 2.26922083f, 2.36114717f, 2.44594002f, 2.52421498f, 2.59685493f, 2.66451883f, 2.72787023f},
  {0.0659755096f, 0.705232859f, 1.17195606f, 1.40281236f, 1.60269356f, 1.78194952f, 1.94708359f, 2.06460094f, 2.17538524f, 2.27005577f, 2.36595178f, 2.44673967f, 2.52413058f, 2.59589243f, 2.6647532f, 2.72797704f},
  {0.0423300602f, 0.703892112f, 1.12060988f, 1.38318217f, 1.60063982f, 1.78191924f, 1.93849778f, 2.06368113f, 2.17395282f, 2.27371025f, 2.36651015f, 2.44931412f, 2.52778912f, 2.59908056f, 2.66513586f, 2.72868586f},
  {0.00935264863f, 0.680975795f, 1.12299895f, 1.3846482f, 1.59723186f, 1.78825104f, 1.94620836f, 2.06638336f, 2.17898846f, 2.27677178f, 2.36973643f, 2.44992995f, 2.52692604f, 2.59803176f, 2.66531801f, 2.72849274f},
  {-0.0527208112f, 0.644542456f, 1.03399205f, 1.31652737f, 1.53991663f, 1.7316165f, 1.88784456f, 2.01528215f, 2.14050865f, 2.25456142f, 2.35088849f, 2.43932128f, 2.52059698f, 2.59488606f, 2.66324544f, 2.72727776f},
  {0.028518118f, 0.659448624f, 1.07239628f, 1.33517873f, 1.53640389f, 1.74445665f, 1.89226031f, 2.02274895f, 2.15090823f, 2.26004791f, 2.35758042f, 2.44071245f, 2.51887298f, 2.59095311f, 2.66360569f, 2.7269001f},
  {-0.0305890348f, 0.694878101f, 1.05834234f, 1.37525225f, 1.60511506f, 1.76991987f, 1.91806519f, 2.05864453f, 2.17058063f, 2.28157115f, 2.36213088f, 2.4580102f, 2.53853154f, 2.60949016f, 2.66898489f, 2.73168159f},
  {-0.0517603084f, 0.619389355f, 1.03008711f, 1.2974472f, 1.50916886f, 1.70711792f, 1.87708879f, 1.99726617f, 2.13477588f, 2.24352169f, 2.34592056f, 2.43613887f, 2.51715803f, 2.59180903f, 2.66275311f, 2.72669935f},
  {0.0161798056f, 0.679805934f, 1.09100759f, 1.36568236f, 1.578668f, 1.76324546f, 1.91473019f, 2.04538584f, 2.1623168f, 2.26531601f, 2.35928607f, 2.44465351f, 2.52335119f, 2.59626389f, 2.66430759f, 2.72773981f},
  {-0.0143753504f, 0.680162072f, 1.07069409f, 1.36467338f, 1.587538f, 1.76283157f, 1.9104929f, 2.04444408f, 2.16013312f, 2.2657969f, 2.35851049f, 2.4446311f, 2.52352333f, 2.59639621f, 2.66432142f, 2.72776723f},
  {0.0107876314f, 0.694559038f, 1.10525703f, 1.38648009f, 1.59747052f, 1.78581429f, 1.93895137f, 2.06496453f, 2.18111491f, 2.27886939f, 2.37090087f, 2.45309329f, 2.53020144f, 2.59996271f, 2.66615248f, 2.72937799f},
  {0.0336444229f, 0.729340553f, 1.11911011f, 1.39549685f, 1.60420251f, 1.78810215f, 1.93078756f, 2.06186938f, 2.17332006f, 2.27224922f, 2.36402249f, 2.4466536f, 2.52466679f, 2.59753203f, 2.66459608f, 2.72789717f},
};

static const float kLayer1D[48] = {1.07030332f, 1.09434175f, 1.06509292f, 1.0434854f, 1.08293021f, 1.02881658f, 1.05018747f, 1.03778934f, 1.01997626f, 1.15022039f, 1.05150771f, 1.04099047f, 1.03388226f, 1.03919613f, 1.0299176f, 1.06176722f, 1.16167164f, 1.07337677f, 1.02338159f, 1.04234672f, 1.09727848f, 1.06517756f, 1.02857363f, 1.05867136f, 1.07195687f, 1.12167656f, 1.10264373f, 1.07938707f, 1.10788786f, 1.0749433f, 1.04927909f, 1.03097391f, 1.06952512f, 1.09211898f, 1.12679315f, 1.10336983f, 1.0153383f, 1.06617343f, 1.08877647f, 1.0758779f, 1.13714206f, 1.06708729f, 1.09436226f, 1.06645536f, 1.0035969f, 1.01951444f, 1.08383846f, 1.06724238f};

static const int8_t kLayer1InProjQ[96][24] = {
  {68, -19, 73, -25, 107, 17, 25, 89, -79, 42, -127, -53, -14, -80, 52, 112, -32, -100, -72, -85, -37, -103, -2, 106},
  {51, -66, 101, -54, -15, 9, 96, -44, -59, 12, -23, -48, 21, 58, 127, -23, -8, -44, 31, -60, -12, 54, 24, 41},
  {101, -47, 61, -44, 41, 72, 90, 49, -45, 9, -59, -91, -33, -45, 127, 104, -46, -93, -77, -94, -47, -79, 65, 69},
  {-24, 21, -87, 23, -3, -48, -101, 37, 26, -28, 45, 55, -10, 33, -127, 34, 27, 38, -13, 50, 1, -43, -13, -34},
  {39, 9, 19, 9, 21, 71, 45, 126, -64, 55, -20, 5, -66, -69, 75, 79, 82, -66, -49, -76, -56, -63, 127, 88},
  {-24, -16, -34, 11, 3, -26, 98, -12, 80, 4, 68, 71, -38, -11, 3, -11, 127, 10, 82, 69, 6, -30, -76, -123},
  {-41, 43, -48, 24, -23, 50, -127, 88, 63, 6, 28, 16, 77, 1, -105, 41, -58, 64, -43, 90, -10, -30, 2, -6},
  {-34, 86, -51, 76, 35, -63, -40, 32, 47, 16, 39, -106, -6, -46, -94, -66, -37, 127, 20, 111, 55, -24, -37, 11},
  {-68, 59, -60, 103, -37, -7, 58, -19, 121, -41, 15, 99, -38, 3, -52, -60, 8, 32, 109, 42, 4, -10, -75, -127},
  {-43, -28, -71, -35, -5, 24, 20, 23, -65, -17, -26, 73, -23, 40, 10, 127, 41, -62, -50, -16, -29, -29, 99, -6},
  {-48, 45, -46, 41, -48, -2, -65, 26, 52, 3, 65, 48, -12, -62, -127, 7, 22, 48, -46, 79, -1, -70, -10, -45},
  {-96, 94, 1, 55, 62, -98, 69, 51, 11, -1, -7, 15, -127, -103, -59, 32, -114, -43, -19, -61, -25, -21, 51, -6},
  {39, -105, -8, -73, 127, 3, -26, 17, -106, -84, -71, -24, 47, 40, -21, 50, 8, -23, -38, -40, 47, 47, 44, 46},
  {105, -60, 97, -97, 127, 59, -10, 27, -110, 33, -15, -29, -50, 36, 97, 104, -27, -97, -37, -97, -46, 35, 78, 46},
  {-80, 46, -45, -22, -44, 71, -78, 40, -84, 7, 39, 86, 29, 10, 9, 56, 43, -127, -95, -46, -53, -40, 12, -3},
  {-37, 44, -63, 75, -127, -22, -5, 34, 65, 84, 78, 33, 11, -11, -111, -4, 61, 101, -36, 58, 12, -101, 20, -23},
  {-88, 111, 6, 113, -11, 52, -63, 127, 38, 113, -10, -31, 49, -74, 4, 66, -101, 29, -77, -2, -87, -53, 32, -50},
  {83, -92, 105, -63, 25, -49, 30, -55, -24, -13, -99, -127, 85, 1, 53, -104, -95, 32, 69, -49, 2, 74, -28, 86},
  {36, -104, 101, -112, 95, 86, -13, -43, -49, -42, 1, -4, 5, 65, 33, 72, 46, -125, -16, -68, 17, 127, 48, 26},
  {-61, -19, 40, 44, 97, 27, -21, 95, -18, -16, -26, -9, 78, 86, -86, -127, -125, -11, 26, 12, 35, 87, 53, -12},
  {-51, 18, -63, 64, -40, 59, -80, 127, 66, 0, 79, 22, 12, -18, -90, 31, -47, 112, -32, 123, 32, -49, -71, -16},
  {34, -6, -52, -108, -5, 44, -108, 67, 22, -17, -89, -87, 44, -49, 79, 105, -55, 77, -127, 3, -38, -83, -43, 33},
  {35, -57, 59, -20, -34, -50, 126, 9, -26, -31, -2, -5, -47, -19, 28, 3, 57, -39, 127, -26, 4, -17, 20, 62},
  {41, -74, -107, -50, 72, -117, 56, -61, -59, -55, -64, 72, -76, 127, 78, 13, 75, -44, 71, 38, -50, 52, -29, -10},
  {67, -13, 55, -71, 101, 14, 73, 28, -73, 48, -127, -11, -28, -9, 52, 23, 56, -92, 1, -48, -11, 20, 87, 57},
  {-53, 62, -16, 54, 115, 92, -89, -29, 127, -85, 40, 52, -7, -48, -72, -16, 29, -52, 26, -24, -73, 87, -42, -125},
  {101, 9, 50, -74, -9, 33, 120, -32, -84, -12, -67, -6, -21, 46, 120, -6, 9, -127, 60, -124, -100, 106, 112, 94},
  {-55, -9, -32, 51, -1, -8, -5, 27, 30, -13, 31, 11, 12, 36, -127, -13, -32, 55, -21, 54, 18, -32, -11, -4},
  {55, -70, 91, 39, 16, -19, 98, -127, -11, 55, 62, 5, -51, 35, -34, -111, 116, -39, 87, -12, 54, 125, 30, -29},
  {-67, -18, -31, 41, 14, 6, 17, -22, 5, -34, 68, 81, 13, 17, -127, -58, 81, -5, 62, 48, 13, 23, 21, -84},
  {53, -81, 93, -41, 43, 45, 1, -117, 18, -8, -52, -127, -25, -3, 73, 2, 11, -35, 61, -18, -13, 37, -73, 40},
  {-51, 61, -28, 36, 51, -14, -41, 62, -109, 72, -60, -35, 59, 34, -9, 70, 32, 4, -60, -59, -44, -81, 25, 127},
  {-68, 44, -72, -62, 117, 51, -39, 99, -11, -85, -88, -66, 101, 54, -59, 12, -44, 38, -127, -3, -45, -53, 3, 6},
  {-75, 44, -42, -23, 27, -58, -84, 27, 46, 25, -68, 54, 32, -16, -24, 34, 77, 52, -52, 59, 35, -29, -127, 24},
  {-27, -24, -35, -46, -127, -22, 8, -94, 39, -103, 106, -16, 17, 70, -49, -75, -67, 91, 58, 59, -11, 43, -17, -79},
  {-14, 88, -84, 27, 114, -22, 41, 18, -31, 22, -124, 120, -44, -97, 4, 127, 98, -113, -79, -59, -53, -32, 60, 60},
  {-24, 1, -48, 30, -9, 50, -40, 25, 28, -7, -121, 60, 62, -1, -50, -51, -99, -43, -11, -36, -44, 7, 9, -127},
  {-58, 27, -64, 58, -77, 15, -67, 32, 18, -49, 54, 53, -83, -47, -38, 5, 127, -6, -20, 47, -5, -26, -44, -14},
  {-7, -3, -12, 22, 53, -95, 94, -114, 24, -75, -87, 37, 2, 22, -64, -75, 65, 18, 127, 26, 54, 96, 4, -29},
  {-8, 34, -11, 6, -46, 127, -7, 36, -12, 98, 17, 52, -59, -57, 0, 10, 32, -48, -27, -28, -5, -34, 45, -1},
  {64, -108, 51, -72, -7, 66, 95, 1, -127, 2, 52, -42, 4, -11, 38, 72, -66, -46, 32, -60, -90, 24, 4, 22},
  {83, -18, 69, 4, -34, -23, -62, -54, -8, 71, 60, -72, -38, -64, 127, 16, -45, 72, 39, -5, 19, 1, -93, 95},
  {111, 10, 78, 16, 20, 55, 58, -23, -50, 57, -121, -23, -71, -71, 83, 118, 6, -127, 9, -63, -74, -47, -13, 17},
  {-6, -95, 122, -9, -48, -96, 34, -18, 5, 65, 70, -11, -69, 3, 46, -124, 43, 39, 127, 51, 56, -49, -24, 17},
  {19, -29, 41, -5, -28, -5, 87, -18, 0, -47, -10, -26, -15, -2, -21, -16, 33, -53, 127, -18, -3, 26, -14, 35},
  {47, -6, 39, -37, 35, 61, 20, 20, -72, 9, -71, -3, 68, -28, 62, 70, -73, -60, -127, -82, -25, -66, 31, 61},
  {-28, -12, -8, 47, -1, -20, -36, -73, 46, -59, 97, -63, 39, 114, -122, -98, -127, 76, 63, 114, 5, 37, -70, -103},
  {-23, 45, 16, 87, 90, 16, -101, -53, -9, 15, 62, -27, -16, -36, -94, 69, -127, 39, -90, 125, -13, -65, -46, -50},
  {103, -75, 41, -26, -57, 68, 127, -26, -55, 26, -1, -21, -45, -63, 115, 67, -97, -85, -24, -90, -85, -54, 69, 73},
  {9, -71, -31, -56, -66, -54, 58, -80, 12, -55, -34, -84, 76, 22, -16, -111, -29, 82, 74, 89, 127, 16, -20, -12},
  {-84, 45, -83, 23, -109, -77, -15, -58, 93, -40, 30, 124, 8, 20, -115, -56, 19, 111, 77, 72, 78, 46, -72, -127},
  {-35, 64, -34, 40, 45, 91, -83, 82, -32, 36, 76, 83, -108, 23, 35, 86, 5, -32, -12, -42, -127, -84, 30, 1},
  {-86, 47, -110, -45, -108, -52, -38, -12, 114, -38, -43, 74, 93, -18, -13, -8, -98, 127, -30, 112, 43, -89, -38, -41},
  {-34, -76, -80, 54, -72, -29, 112, -24, 12, 20, -32, -114, 6, -17, 26, -64, -111, 121, -22, 127, 63, 70, 32, -86},
  {-25, 67, -20, 47, 15, 100, -91, 127, 18, -1, 39, 39, 17, 3, -46, 33, -19, -26, -57, -48, -51, -29, 14, -9},
  {-41, -66, -91, -44, 28, 37, 59, -22, -18, 14, -73, 41, -19, -11, -3, -61, 53, 62, 79, 127, 67, 28, -10, 63},
  {-19, -59, -127, 64, -32, -38, 52, 21, 13, -3, 67, 15, -4, -5, -31, -105, 78, 98, 20, 60, 53, 50, -3, -87},
  {-8, -93, -127, -98, 94, 18, -35, 29, -57, -109, -50, 39, 48, 110, -44, -37, 74, 20, -15, 67, -6, 39, 27, 38},
  {62, -57, 53, -20, 25, 4, 52, -96, -68, -50, -28, -127, 50, 9, 68, -65, 18, -11, 56, -1, 59, 57, -36, 65},
  {9, -15, 30, -33, -84, 34, -111, 56, -24, -81, -69, -82, 74, 78, 127, 16, 51, -84, 0, -41, -56, 82, -61, 42},
  {-34, -127, -82, -50, -101, -27, 99, -64, 74, 13, 90, 25, -60, -68, -32, -29, 39, 49, 51, 60, 18, -73, -36, -46},
  {-55, -25, -56, 50, -7, -30, 33, -17, 59, 38, 127, 32, -39, -3, -127, -53, 27, 107, 100, 78, 90, 88, -48, -83},
  {23, -23, 98, -23, 20, 12, 127, -18, 5, -21, -93, -34, 93, -27, -13, 4, -122, -51, 56, -60, -95, 123, 47, -80},
  {61, -73, 66, 12, 67, -15, -27, -84, -23, -21, 6, -127, -12, 23, -8, -64, 70, -16, 45, -6, 11, 70, -65, -24},
  {49, -56, 64, -41, 6, -22, -9, -14, -5, -6, -58, -77, 36, -15, 127, -31, -21, 12, 12, 1, 14, 42, -56, 58},
  {76, -95, 63, -6, 7, 5, 37, -38, -13, -19, -76, -127, 69, 2, 1, -61, -29, 32, 37, 42, 55, 74, -52, 20},
  {-20, -89, -98, 24, 18, -40, 36, -70, 30, -11, 127, 17, -32, -22, -37, -14, 60, 41, 0, 103, 17, -7, -79, -85},
  {7, -4, -50, -95, -39, 18, 60, -37, 6, -44, -127, 85, 9, 13, -31, -54, 67, -37, 43, 77, 43, 51, -21, -33},
  {-82, 54, -108, 0, -85, -19, -30, -31, 71, -22, 61, 91, 64, -26, -84, 73, -41, 104, -63, 117, -27, -54, 21, -127},
  {-26, -83, -3, -127, -16, 92, -33, 37, -1, -20, -4, 15, 23, 97, 13, 14, 53, -46, -43, -58, -12, -81, 103, -39},
  {10, -59, 8, 6, -31, -65, 13, -28, 27, -90, -31, -31, 17, -79, 59, 40, -127, 99, -11, 110, 82, -14, -21, -98},
  {59, -42, -21, -67, 95, -9, -23, -49, -62, -66, -40, 23, -76, 73, 127, -2, 102, 0, 76, -24, -86, 48, -33, 7},
  {111, 8, 89, 66, 13, 6, -14, -22, -86, 42, 72, -116, 11, 21, 11, 28, -26, -123, 49, -105, -54, 127, -58, 76},
  {24, 81, 63, 59, 127, 9, -82, -30, 26, 22, 41, -55, -72, -54, -16, 57, 32, -72, 48, -67, -30, 32, -62, -50},
  {-104, 25, -92, 84, -125, 4, 59, -93, 58, -70, 46, 126, 34, 8, 28, 115, -125, 90, 29, 110, -52, -127, -22, -120},
  {-25, 58, 5, 34, -32, 59, -101, 98, 21, -18, 7, -28, 43, -17, 15, 127, -71, 60, -66, -9, -71, -87, 70, -33},
  {0, 49, -11, -60, 69, 98, -83, 109, -30, -75, 45, 27, -10, 59, -60, 54, 89, -127, -68, -117, -107, -55, -10, -38},
  {-33, -30, -47, 17, -86, -89, 23, -80, 70, -5, -58, 32, 58, 49, -19, -88, -16, 85, -7, 86, 127, 55, -33, -29},
  {11, -23, 14, 22, 70, -22, 11, -83, -57, -114, -20, -57, 57, 87, 25, -116, 68, -57, 96, -17, 10, 127, -30, -25},
  {127, 4, 33, -30, -27, 45, 51, -34, 30, -127, 66, -55, -8, -66, 88, -8, -39, -35, 47, -63, 26, 51, -53, -89},
  {-94, -76, -53, -127, -43, 49, 16, -8, -61, -80, -39, 53, 47, 79, -56, -82, 112, 9, 20, -40, -18, 72, 55, 10},
  {-38, 63, -43, -50, 94, 48, -70, 86, -66, 1, -104, 39, -12, 4, 49, 84, 127, -109, -105, -96, -68, -76, -71, 100},
  {95, -112, 78, 29, -3, 77, 122, -25, -127, -34, 80, -102, -58, 26, 73, -35, -72, -30, 38, -84, -100, 53, 36, 51},
  {-127, 47, -122, -98, 79, 23, -80, 81, 87, -23, -12, 121, -15, 83, -65, 44, 63, 63, -7, 31, -120, -92, -15, -53},
  {-10, -13, -62, -32, -67, 26, 9, 47, -31, -93, -53, 49, 70, 32, -42, -127, -53, -67, 7, -19, 25, 74, 77, -69},
  {28, -53, 127, 57, 46, -69, 12, -29, -48, -18, -27, -111, -31, 34, -35, -63, -96, -13, 64, -66, 57, 76, -43, 44},
  {-79, 3, -90, 14, -102, -32, 23, -12, 61, -67, 99, 97, 11, 30, -121, -67, 49, 127, 6, 64, 43, -8, -10, -70},
  {-127, -16, -121, 37, -55, -6, -41, 50, 29, 3, 50, 83, 79, -44, -73, -27, -14, 89, -72, 120, 92, -92, 22, -86},
  {26, 77, 70, 16, 11, 13, -47, 94, -3, 79, -120, -95, -54, -90, 127, 75, 17, -65, -96, -97, -57, -118, -44, 72},
  {-20, -33, -38, -30, -11, -5, 36, -49, -11, -78, -9, 52, 28, 52, -41, -127, 27, 59, 47, 62, 46, 121, 15, -29},
  {-40, 127, -39, 27, -21, 5, -73, -104, 124, -54, -20, 91, 2, -40, -77, 25, -27, 82, 96, 43, 16, 104, -99, -126},
  {-32, -17, -29, -105, 88, 44, -84, 71, -53, -31, 65, 68, -1, 98, -67, -7, 80, -55, 21, -41, -127, -23, 110, -21},
  {-2, -32, -6, 32, -31, -7, 26, 32, 20, 15, 38, -13, -127, -89, 56, 93, -63, 59, 50, 34, 22, -79, -24, 12},
  {32, -42, 50, -65, -9, 89, 42, 41, -57, -56, 10, 40, 48, 26, 27, 81, -9, -72, -123, -125, -66, -127, -12, -2},
  {-127, 35, -126, -94, -73, -119, -63, -7, 124, -13, -90, 92, 92, -47, -40, -84, 26, 106, -103, 85, 97, -120, -40, -58},
  {-82, 59, -28, 76, 127, 91, -68, 72, 39, -49, 74, 1, 28, 52, -117, 76, -65, 22, -10, -42, -50, -28, 3, -73},
};

static const float kLayer1InProjScale[96] = {0.00117362023f, 0.00132877508f, 0.00106842921f, 0.00136674382f, 0.00135678088f, 0.000771605177f, 0.00135268841f, 0.000846887822f, 0.0010136062f, 0.00182408339f, 0.00131074048f, 0.000829398457f, 0.00118221354f, 0.000727760489f, 0.000892688928f, 0.00105036597f, 0.00201823562f, 0.000947321241f, 0.000807116157f, 0.000764452619f, 0.0011704166f, 0.000881899789f, 0.00113446522f, 0.000944625994f, 0.00120232953f, 0.00101841101f, 0.000899119244f, 0.0017757006f, 0.00103296281f, 0.00114916766f, 0.00100593281f, 0.00101109291f, 0.00113615475f, 0.00173601857f, 0.00145358429f, 0.000969219604f, 0.000779918802f, 0.00111923611f, 0.00106874981f, 0.00161458331f, 0.00125908817f, 0.00116888038f, 0.00131259358f, 0.000884036184f, 0.00104446174f, 0.000792161853f, 0.00102969969f, 0.000872943143f, 0.00106296875f, 0.00104977924f, 0.000988801126f, 0.000833199127f, 0.00102452945f, 0.000687091029f, 0.00122862263f, 0.000829507248f, 0.000832095742f, 0.00133926561f, 0.00116345799f, 0.000760939438f, 0.000807666744f, 0.000760802533f, 0.000729279127f, 0.00101506745f, 0.00219802489f, 0.0010884885f, 0.00067726319f, 0.00110252458f, 0.00108749303f, 0.00120107899f, 0.000770931714f, 0.00117149821f, 0.000812294951f, 0.0014052192f, 0.000925285334f, 0.00110667653f, 0.00108868687f, 0.00119168474f, 0.000799835485f, 0.000901328167f, 0.00138648564f, 0.00111590535f, 0.00121404708f, 0.00117329718f, 0.000841674511f, 0.000977615593f, 0.00100409915f, 0.00104073854f, 0.00100439787f, 0.00166044733f, 0.00104860053f, 0.00103101949f, 0.000708766573f, 0.000621288258f, 0.000849174859f, 0.00112553721f};

static const float kLayer1Conv1dWeight[48][4] = {
  {0.0413570255f, -0.0804647729f, 0.210217878f, 0.161713153f},
  {-0.138002306f, 0.0529195182f, 0.0675804764f, -0.162690833f},
  {-0.0217677429f, -0.0977147296f, 0.209568322f, 0.228800282f},
  {-0.309021354f, -0.14876081f, 0.186221987f, -0.34901762f},
  {-0.129933536f, -0.115587272f, 0.0173560865f, 0.165247336f},
  {-0.0316566527f, -0.0450393632f, -0.0190137997f, -0.08255402f},
  {-0.0589524359f, -0.0430665724f, 0.122959703f, -0.0752352476f},
  {-0.063122347f, -0.0856176615f, 0.0659183338f, -0.170936316f},
  {0.0925763249f, 0.0173569918f, 0.290400267f, 0.267284155f},
  {0.0418034606f, -0.0363184549f, 0.324097276f, -0.199633792f},
  {-0.173821032f, -0.147572368f, 0.17507486f, -0.0769287795f},
  {-0.222277671f, -0.0701842606f, -0.198527902f, 0.135620952f},
  {0.053388413f, -0.123119064f, 0.20985797f, 0.0253629647f},
  {-0.172661155f, -0.0695996508f, -0.216343701f, -0.193672016f},
  {0.0890852138f, -0.00685058814f, -0.0841309503f, 0.241589397f},
  {-0.124228507f, -0.119500846f, 0.0570324846f, -0.132685855f},
  {0.426700532f, -0.291398048f, 0.2374807f, -0.155574575f},
  {-0.24924612f, -0.0223487616f, 0.0703675747f, -0.108750671f},
  {-0.166799545f, 0.0429561809f, -0.155045033f, -0.125652507f},
  {-0.184399784f, -0.135375828f, -0.00430250308f, -0.190634593f},
  {-0.0976988226f, 0.321804672f, -0.124352314f, 0.0371262133f},
  {0.181270346f, 0.178026423f, 0.0378112607f, -0.00700545032f},
  {-0.0684509799f, -0.332090765f, -0.0223494098f, 0.0390918814f},
  {-0.265192032f, 0.062845476f, 0.0793689862f, -0.151135758f},
  {0.046837166f, -0.177857116f, 0.160630018f, 0.0955509916f},
  {-0.135745615f, -0.141957477f, -0.136900336f, -0.184228808f},
  {-0.0586586744f, -0.360477626f, 0.117015921f, 0.0669737458f},
  {0.037893869f, 0.229505762f, -0.0361734629f, 0.203367233f},
  {0.034679506f, 0.220930442f, 0.15783374f, -0.022469651f},
  {0.141434953f, 0.00712030195f, 0.235778779f, 0.122921169f},
  {0.0881489441f, 0.119194448f, -0.0361398123f, 0.184405208f},
  {-0.0768210292f, -0.105557136f, 0.0344492309f, 0.135883629f},
  {0.105862103f, 0.301352352f, -0.0754957423f, -0.0292321034f},
  {0.0681646094f, 0.118936911f, -0.0114946049f, -0.179826885f},
  {-0.138777465f, -0.312283307f, 0.18438381f, 0.339759111f},
  {0.0846338272f, -0.244673461f, -0.0836398378f, 0.0828965083f},
  {-0.140976846f, 0.0964448154f, -0.120382547f, -0.206704587f},
  {-0.120678328f, -0.128197968f, 0.279682428f, -0.11583782f},
  {0.115909696f, -0.262189806f, 0.0258041993f, -0.176882938f},
  {0.0676169172f, -0.0505674221f, -0.0977243632f, 0.150075525f},
  {-0.00914053153f, 0.0488192812f, -0.184600145f, -0.209411696f},
  {-0.162210599f, -0.163534001f, -0.303055584f, -0.0293957628f},
  {-0.0793503001f, -0.19571346f, 0.301544756f, 0.329134345f},
  {0.118800752f, -0.140494063f, -0.0944883898f, -0.058984071f},
  {-0.0632214025f, 0.248027802f, 0.0824516639f, 0.0262391586f},
  {0.0797583982f, 0.0694600865f, 0.215812162f, 0.152044803f},
  {-0.0699993372f, 0.128904238f, -0.0412245095f, -0.236919403f},
  {-0.0874395892f, -0.159511298f, 0.129285142f, -0.0719524398f},
};

static const float kLayer1Conv1dBias[48] = {0.042123612f, 0.0873399749f, -0.0439422578f, -0.04745562f, -0.0681228042f, -0.10024371f, -0.0754016489f, -0.0865203217f, 0.068657048f, 0.0420063436f, 0.0403237417f, -0.0909362361f, -0.0693428293f, 0.0475838594f, -0.00787300337f, 0.0615086965f, 0.100726135f, 0.0394800119f, 0.0294479616f, -0.0412254855f, -0.0728645548f, -0.0149608953f, -0.0945113078f, -0.0708673596f, -0.0525084734f, -0.0437343046f, -0.0551187098f, 0.0393905491f, 0.0897685587f, 0.077741012f, 0.0648766384f, -0.0393522978f, -0.00116610259f, -0.071411781f, 0.0717459396f, 0.0124605764f, -0.0542309321f, 0.0591628812f, -0.0425940678f, -0.0775307268f, 0.0435400046f, 0.0659527332f, 0.0321767256f, -0.0949485749f, 0.0422808528f, -0.0319652334f, -0.0659172013f, -0.0507110357f};

static const int8_t kLayer1XProjQ[34][48] = {
  {70, -76, 38, 45, 76, 65, 61, 45, -45, -23, -64, 69, 103, -62, -12, -108, -127, -23, -67, 59, 74, -19, 67, 30, 94, 13, 86, 0, -74, -37, -52, 89, -44, 78, -98, 38, 57, -38, 84, 70, -71, -48, 74, 46, -56, 40, 102, -5},
  {42, -63, 66, 31, 94, 54, 42, 45, -94, -77, -84, 50, 87, -60, -4, -123, -127, -39, -65, 67, 72, -67, 41, 7, 78, 59, 57, -18, -43, -61, -78, 92, -45, 77, -105, 47, 59, -68, 95, 86, -40, -33, 54, 82, -84, 17, 71, -6},
  {-127, 51, -77, -53, -69, -61, -54, -75, 64, 4, 41, -87, -28, 64, -36, -21, 49, 22, 47, -46, -26, -20, -54, 38, -57, 23, -20, 45, 72, 87, -47, 3, 23, -61, 83, -5, 20, -21, -49, 11, 87, 94, -65, -23, 44, -48, -71, -38},
  {-54, 60, -74, -42, -87, -53, -44, -42, 76, 33, 71, -50, -64, 43, -46, 41, 127, 29, 66, -37, -62, 0, -81, 10, -72, -51, -92, 65, 59, 52, 36, -38, 23, -39, 62, -37, -64, 66, -67, -77, 70, 58, -62, -69, 37, -41, -56, -16},
  {121, -82, 110, 78, 45, 40, 118, 118, -102, 7, 49, 58, 76, -92, -1, 56, -82, -89, -97, 9, 6, 27, 100, -67, 84, -3, 39, -127, -92, -78, 49, -21, 23, 89, -100, 29, 9, -1, 101, 12, -60, -49, 115, 52, -78, 90, 107, 29},
  {-88, 71, -66, -49, -45, -45, -46, -77, 79, 32, 30, -77, -71, 77, -28, 17, 127, 34, 118, -21, -48, 9, -36, 42, -81, -10, -45, 50, 69, 78, -9, -48, 12, -80, 80, -9, -28, 22, -106, -37, 86, 65, -60, -42, 35, -58, -43, -26},
  {51, -29, 85, 44, 46, 41, 37, 24, -44, -16, -43, 68, 52, -37, 30, -19, -127, -18, -49, 44, 52, -10, 58, -1, 57, 22, 45, -42, -62, -39, -19, 44, 1, 42, -68, 46, 47, -36, 86, 36, -43, -53, 64, 54, -48, 32, 58, -15},
  {-74, 55, -86, -85, -57, -63, -39, -42, 64, 43, 36, -75, -78, 53, -14, 9, 104, 38, 88, -46, -30, 7, -49, -7, -15, -78, -55, 91, 43, 91, -64, -50, 14, -34, 64, -67, -31, 46, -70, -44, 74, 127, -79, -28, 62, -65, -90, -20},
  {-121, 68, -123, -82, -77, -79, -87, -121, 92, 2, 17, -86, -104, 73, -29, -29, 91, 44, 68, -71, -23, -57, -97, 60, -72, -35, -76, 89, 73, 90, -72, -11, -45, -57, 73, -47, -37, 28, -127, -40, 65, 39, -123, -77, 60, -76, -117, -64},
  {-85, 75, -100, -58, -67, -63, -87, -79, 78, 21, 47, -71, -77, 51, -37, -14, 126, 66, 82, -37, -67, -6, -59, 12, -71, -46, -53, 69, 73, 69, -33, -27, 1, -86, 127, -39, -28, 25, -119, -57, 57, 96, -80, -71, 99, -63, -62, -28},
  {-92, 62, -105, -96, -106, -64, -71, -110, 127, 13, 19, -34, -88, 102, -53, -52, 65, 85, 69, -17, -8, -26, -100, 42, -84, -1, -63, 90, 48, 120, -43, -76, -8, -73, 106, -26, -50, 41, -80, -7, 90, 119, -55, -44, 81, -51, -96, -33},
  {-76, 84, -79, -60, -71, -56, -84, -80, 72, 13, 51, -59, -66, 68, -16, -8, 126, 31, 52, -9, -50, 33, -72, -6, -102, -48, -46, 21, 62, 94, -9, -69, 0, -84, 68, -11, -59, 67, -127, -60, 63, 109, -106, -85, 70, -84, -58, -19},
  {-127, 86, -102, -119, -34, -22, -47, -88, 71, 55, 5, -60, -110, 104, -23, -58, 81, 78, 78, -14, -62, -23, -76, 57, -68, -32, -59, 102, 71, 105, -65, -23, 7, -68, 100, -70, -16, 27, -114, -11, 127, 104, -120, -78, 65, -60, -49, -57},
  {88, -59, 97, 71, 102, 86, 72, 56, -101, -28, -29, 71, 86, -66, 36, -19, -117, -37, -39, 28, 35, 43, 60, -13, 62, 8, 68, -93, -115, -70, 18, 24, -30, 60, -72, 52, 39, -25, 127, 33, -66, -84, 63, 79, -59, 66, 83, 31},
  {-85, 65, -60, -39, -67, -48, -73, -46, 80, 46, 45, -95, -65, 47, -34, 49, 127, 39, 69, -18, -55, 30, -46, 11, -48, -21, -70, 41, 75, 71, -6, -77, -7, -29, 90, -46, -50, 63, -59, -60, 72, 60, -77, -66, 41, -51, -105, -14},
  {56, -37, 56, -6, 75, 48, 50, 46, -64, -69, -75, 58, 22, -56, 46, -40, -127, 4, -22, 93, 64, -23, 25, 38, 75, 35, 75, -3, -46, -81, -41, 80, -79, 63, -90, 95, 86, -55, 76, 92, -50, -119, 71, 38, -56, 16, 63, 5},
  {99, -80, 84, 80, 57, 49, 57, 39, -122, -46, -48, 127, 90, -115, 56, -1, -126, -50, -104, 42, 51, 24, 66, -16, 115, 6, 54, -66, -84, -60, 10, 71, 14, 91, -87, 60, 26, -57, 117, 75, -100, -47, 117, 72, -75, 69, 77, 19},
  {78, -48, 60, 62, 48, 70, 52, 81, -61, -38, -90, 91, 60, -56, 59, -47, -127, -49, -110, 34, 76, 8, 50, -21, 91, 33, 79, -52, -66, -70, -18, 51, 15, 51, -100, 54, 61, -49, 70, 59, -71, -48, 58, 37, -79, 77, 79, 34},
  {-106, 36, -110, -78, -63, -61, -52, -54, 53, -6, -9, -49, -69, 58, -16, -65, 73, 58, 47, -29, -33, 5, -48, 94, -34, -5, -51, 65, 74, 80, -115, 10, 25, -62, 64, -12, -29, 29, -127, -25, 60, 113, -97, -58, 56, -52, -88, -34},
  {-66, 21, -68, -27, -69, -15, -50, -16, 58, 37, 31, -63, -69, 34, -22, 24, 127, 32, 57, -39, -46, 24, -55, 9, -76, -27, -46, 30, 59, 53, 13, -36, -1, -39, 76, -27, -24, 55, -77, -31, 40, 58, -41, -63, 33, -32, -57, 21},
  {90, -78, 94, 127, 37, 55, 44, 51, -58, -30, 13, 26, 47, -63, 19, 51, -72, -70, -96, 25, 14, 14, 47, -41, 32, 5, 63, -102, -91, -72, 61, -16, 47, 44, -56, 16, 43, -21, 117, 31, -74, -12, 82, 39, -52, 85, 91, -16},
  {-88, 88, -86, -61, -72, -60, -64, -50, 70, 35, 49, -80, -71, 83, -16, 29, 127, 33, 82, -52, -44, -21, -44, 4, -84, -7, -29, 17, 81, 71, -14, -53, 2, -89, 47, -59, -30, 19, -76, -29, 54, 87, -106, -54, 69, -61, -73, 8},
  {82, -31, 71, 17, 63, 55, 54, 56, -46, -8, -78, 71, 76, -74, 19, -42, -127, -46, -58, 36, 44, -21, 34, -5, 72, 6, 60, -19, -69, -74, -12, 28, -27, 58, -67, 41, 32, -55, 113, 40, -51, -56, 67, 61, -54, 50, 73, 17},
  {-84, 84, -117, -85, -123, -74, -84, -36, 127, 85, 46, -66, -42, 111, -21, 39, 124, 69, 77, -74, -7, -21, -36, -4, -100, -34, -82, 61, 85, 115, -62, -64, 43, -73, 55, -77, -32, 27, -124, -65, 83, 127, -121, -62, 39, -103, -84, -18},
  {-98, 49, -99, -107, -46, -77, -71, -74, 77, 46, 24, -73, -93, 120, -48, -16, 60, 77, 62, -6, -34, -28, -50, 75, -24, -28, -108, 51, 106, 73, -46, -24, -10, -78, 127, -32, 0, 14, -99, -22, 79, 43, -109, -84, 65, -91, -73, -11},
  {-90, 82, -79, -48, -63, -56, -68, -44, 65, 54, 48, -64, -67, 77, -11, 23, 127, 88, 67, -40, -73, 2, -82, -2, -81, -35, -43, 71, 89, 52, -23, -52, 13, -86, 61, -57, -5, 38, -89, -43, 71, 83, -97, -51, 56, -56, -61, -31},
  {-94, 87, -118, -93, -54, -69, -94, -95, 123, 46, 28, -96, -94, 73, -48, -9, 73, 107, 49, -27, -33, -68, -81, 19, -35, 5, -28, 117, 56, 91, -45, -65, -4, -63, 97, -46, -70, 4, -103, -101, 127, 108, -75, -61, 78, -95, -90, -63},
  {-104, 84, -92, -62, -59, -48, -47, -74, 55, 66, 43, -71, -99, 55, -32, 14, 127, 59, 51, -36, -46, 1, -40, 5, -77, -42, -72, 42, 127, 62, 4, -36, 17, -77, 28, -57, -80, 66, -102, -55, 88, 70, -88, -74, 44, -85, -66, -29},
  {-79, 68, -127, -110, -77, -69, -86, -54, 75, 48, 1, -24, -74, 60, -34, -52, 70, 55, 65, -25, -39, -27, -77, 35, -29, -21, -44, 106, 84, 80, -63, -13, -31, -77, 52, -48, -46, 14, -83, -10, 39, 98, -110, -98, 28, -62, -92, -23},
  {80, -94, 97, 91, 78, 81, 79, 70, -112, -59, -35, 100, 58, -93, 24, -11, -127, -51, -59, -1, 60, 26, 90, -20, 43, 30, 68, -73, -44, -99, -12, 82, -1, 61, -89, 80, 49, -45, 107, 40, -48, -95, 101, 98, -48, 59, 75, 38},
  {-57, 55, -62, -42, -70, -38, -61, -57, 58, 43, 19, -65, -53, 47, -36, 29, 127, 33, 83, -28, -82, 17, -71, -9, -63, -53, -52, 62, 53, 67, -1, -47, -10, -31, 82, -58, -39, 47, -87, -68, 74, 76, -72, -60, 31, -34, -69, 14},
