#pragma once

#define BABYMAMBA_VARIANT_CROSSOVER 0
#define BABYMAMBA_VARIANT_CHANNEL_INDEPENDENT 1
#define BABYMAMBA_DATASET_NAME "opportunity"
#define BABYMAMBA_DISPLAY_NAME "Opportunity"
#define BABYMAMBA_SEED 29
#define BABYMAMBA_SEQ_LEN 128
#define BABYMAMBA_IN_CHANNELS 79
#define BABYMAMBA_NUM_CLASSES 5
#define BABYMAMBA_D_MODEL 24
#define BABYMAMBA_D_STATE 16
#define BABYMAMBA_D_INNER 48
#define BABYMAMBA_DT_RANK 2
#define BABYMAMBA_D_CONV 4
#define BABYMAMBA_NUM_LAYERS 4
#define BABYMAMBA_STEM_KERNEL 5
#define BABYMAMBA_PATCH_KERNEL 16
#define BABYMAMBA_PATCH_STRIDE 4
#define BABYMAMBA_PATCH_OUT_LEN 31
#define BABYMAMBA_SCAN_IMPL_FALLBACK 0
#define BABYMAMBA_USE_INT8_PROJECTIONS 1
#define BABYMAMBA_FIXTURE_LABEL 0

static const char* const kBabyMambaClassNames[BABYMAMBA_NUM_CLASSES] = {"Null", "Stand", "Walk", "Sit", "Lie"};

static const float kStemWeight[24][1][5] = {
  {
    {-0.617324114f, -0.943832755f, -0.266346693f, 0.405026138f, 0.536294878f},
  },
  {
    {0.0273736082f, 0.124051385f, 0.296590447f, -0.279638976f, -0.982883394f},
  },
  {
    {-0.360100806f, -0.378056467f, 1.63471031f, 0.206063494f, -0.375237167f},
  },
  {
    {0.0642498732f, -0.18620342f, -1.05544829f, -0.0600569434f, 0.212884307f},
  },
  {
    {0.388722837f, 0.536613345f, -0.523198545f, -0.96469152f, -0.085543409f},
  },
  {
    {1.65600705f, 0.981854737f, -0.647724688f, -0.934486032f, -0.892120123f},
  },
  {
    {0.0340457186f, 0.204453856f, 0.178119317f, 0.325377911f, 0.11459823f},
  },
  {
    {-0.213145122f, -0.24453944f, -0.0451953374f, -0.165456638f, 1.16964006f},
  },
  {
    {-0.557281375f, 0.0823157728f, 0.07855618f, -0.269916952f, -0.435225457f},
  },
  {
    {0.270847291f, -0.184714705f, 0.801329255f, -0.0678177997f, 0.253147691f},
  },
  {
    {-0.0149885807f, -0.805415273f, -0.116444461f, 0.309633613f, 0.321406305f},
  },
  {
    {0.340447456f, -0.562185764f, 1.54664433f, -0.333489746f, -0.0578648448f},
  },
  {
    {0.396905392f, 0.112681583f, -0.356754631f, -0.393190563f, -0.649615824f},
  },
  {
    {-1.04842353f, -0.660363615f, -0.0305045228f, 0.437053978f, 0.625186861f},
  },
  {
    {1.26769853f, 0.573130488f, -0.116772249f, -1.43332958f, -1.12087369f},
  },
  {
    {-0.208505586f, -0.494147062f, -0.15515472f, 0.0741772652f, 0.341608346f},
  },
  {
    {0.383973479f, 0.319445461f, 0.274039805f, 0.021794064f, 0.0677008033f},
  },
  {
    {0.676189005f, -0.0604438968f, 0.220242247f, -0.0760621578f, 0.0964419618f},
  },
  {
    {0.191084445f, -0.864821553f, 0.0635413378f, 0.341087788f, -0.890218198f},
  },
  {
    {0.290326357f, -0.343171328f, 0.0360851996f, -0.295747578f, -0.104197405f},
  },
  {
    {0.0340782367f, -0.0607102364f, 0.201589555f, 0.0574698783f, 0.817084968f},
  },
  {
    {-0.968987525f, -0.131205112f, 0.100200444f, 0.397168487f, 0.77543211f},
  },
  {
    {0.126471698f, 0.343877017f, 0.320966214f, 0.16332297f, 0.0726656169f},
  },
  {
    {0.48191452f, -0.133480906f, 0.821258247f, -0.326123625f, 0.213343203f},
  },
};

static const float kStemBias[24] = {0.0548592657f, -0.138897389f, 0.0512796603f, 0.0807770044f, 0.167174369f, -0.702147067f, -0.197535127f, -0.129864097f, -0.0412938967f, -0.256699413f, 0.00611478463f, 0.058863502f, -0.186333418f, 0.135911465f, 0.209442914f, -0.282460034f, -0.0728436634f, -0.231556535f, 0.0224353671f, -0.421996474f, 0.31996873f, 0.127567247f, 0.187025771f, 0.0292292982f};

static const float kPatchDepthwise[24][16] = {
  {-0.231695235f, -0.359492093f, -0.337732971f, -0.18255274f, -0.0786452368f, -0.0555657223f, -0.0767195821f, -0.00774935773f, 0.0500870869f, -0.11672125f, -0.122321986f, 0.0526387766f, 0.163453549f, 0.393924236f, 0.130832717f, 0.0945549905f},
  {0.0458879136f, 0.0108883418f, -0.289314002f, 0.0615967214f, -0.136766016f, -0.00447277585f, 0.0423009619f, -0.305342317f, 0.0336361937f, -0.182101533f, -0.226679966f, 0.15480116f, -0.025414275f, 0.0663427487f, 0.235453635f, 0.102039486f},
  {0.0651765764f, 0.338653773f, -0.177813917f, -0.179241866f, -0.13110882f, -0.0593501702f, -0.197838351f, -0.0667422414f, -0.0193036795f, 0.100660376f, 0.213469744f, 0.162562579f, 0.092768468f, 0.037055321f, 0.0932399631f, 0.0137262065f},
  {0.0492103845f, 0.0435558669f, 0.0215403847f, -0.0732395723f, -0.255818456f, -0.039808549f, -0.0409331955f, -0.0651207864f, 0.12721625f, -0.273647308f, -0.248063236f, -0.358396798f, -0.409247011f, -0.411192238f, -0.127758011f, 0.00546605559f},
  {0.0751842409f, 0.140545353f, 0.114917815f, -0.256908387f, -0.209747136f, -0.00593545474f, 0.125363648f, 0.26895839f, -0.0794297233f, -0.186548054f, -0.184752747f, -0.160012498f, 0.0957846269f, 0.061444886f, 0.103418477f, 0.222617865f},
  {-0.392592907f, -0.118579797f, -0.0260253213f, -0.117840171f, -0.202493906f, -0.200606987f, -0.315509409f, -0.219344765f, -0.116881803f, -0.168268517f, -0.204999015f, -0.00280328072f, -0.144771963f, -0.286361486f, -0.342576385f, -0.0837276056f},
  {0.0782857388f, 0.099400416f, -0.0321151428f, 0.0503357574f, 0.0405436605f, 0.148799032f, 0.121589646f, 0.206621066f, 0.050138507f, 0.0871644989f, 0.00870485976f, -0.102119781f, 0.0124487812f, -0.0822374895f, -0.145918772f, -0.177838415f},
  {-0.0528337806f, -0.0572475195f, -0.198804721f, -0.179552853f, -0.00908659399f, -0.0843666121f, 0.00981831923f, 0.00485809706f, 0.0498001277f, 0.305174619f, 0.149397194f, 0.146891043f, -0.0341308601f, -0.132736027f, 0.191160098f, -0.00384407141f},
  {0.115102589f, 0.065204747f, -0.184555069f, 0.00252555544f, 0.132355794f, 0.276009083f, 0.329293489f, 0.203896612f, 0.14361231f, 0.192209005f, 0.111081265f, 0.268042415f, 0.215209648f, 0.0500038899f, -0.0154978586f, 0.0620855428f},
  {-0.0681993216f, -0.126046017f, -0.180541068f, -0.0470195897f, -0.144489542f, 0.0747037306f, -0.243976891f, -0.224741876f, -0.213835046f, -0.272310674f, -0.289371789f, -0.280390799f, -0.206403598f, -0.127077818f, -0.169860855f, -0.0729146153f},
  {-0.174135134f, -0.0368422903f, 0.235670552f, 0.159936443f, -0.0357702225f, -0.0500248782f, -0.221534193f, -0.0630328059f, -0.163571954f, 0.145368874f, -0.0610723831f, -0.0404645912f, 0.140099436f, -0.0300501976f, -0.0517285913f, 0.00889256876f},
  {0.0704928711f, 0.294176847f, 0.114127874f, -0.0422917865f, 0.161880791f, -0.172485888f, 0.0197936874f, 0.00301246229f, -0.0105575444f, 0.179560542f, 0.198011756f, 0.270218134f, 0.140379384f, 0.184008032f, 0.23172614f, 0.00511240633f},
  {-0.147225276f, 0.0616472997f, 0.0316362344f, -0.183289647f, -0.169962183f, -0.263020307f, -0.123666577f, -0.256134868f, -0.156091973f, -0.0917105898f, 0.0588708147f, -0.00202108431f, 0.265999645f, 0.172938764f, 0.155092433f, 0.00256099598f},
  {0.0235299096f, -0.427802831f, -0.233304903f, -0.223383576f, -0.123832993f, -0.0101625742f, 0.0845037773f, -0.0665700287f, 0.0993190035f, 0.164954394f, 0.233491376f, 0.293026358f, 0.103914171f, 0.194962993f, -0.0533832684f, 0.0604258813f},
  {-0.196233913f, -0.109364979f, -0.162353814f, -0.257958621f, -0.270115018f, -0.11080502f, -0.00834103487f, -0.0376717933f, -0.184236512f, 0.143447205f, -0.0195128601f, 0.130168125f, 0.327202976f, 0.191820815f, 0.502179742f, 0.375166863f},
  {-0.103530549f, -0.07080286f, 0.083860673f, 0.110179923f, -0.0416991673f, -0.0558584332f, 0.0417621434f, 0.15813975f, -0.00339164049f, 0.122848615f, 0.0954007804f, -0.0287264604f, -0.0389961787f, -0.292781204f, -0.104049899f, 0.0511026457f},
  {0.260555655f, 0.189040065f, 0.0461165681f, 0.167634234f, 0.181674421f, 0.0204647761f, 0.110074095f, 0.0861980692f, 0.0562122948f, -0.148000777f, 0.0927393064f, 0.245768696f, 0.237780929f, 0.250057787f, 0.236863434f, 0.129106387f},
  {0.222243756f, -0.0116123231f, 0.195305556f, 0.125964597f, 0.178464592f, 0.0542342775f, 0.0455928668f, 0.0508271642f, -0.0257941484f, 0.0118703134f, 0.00149143161f, 0.167460442f, 0.08359842f, -0.0754038393f, 0.00233818498f, 0.13278687f},
  {-0.367818981f, -0.0314243212f, -0.157736167f, -0.257470667f, -0.292300373f, -0.44840768f, -0.257414401f, -0.421373427f, -0.308258623f, -0.286288887f, -0.221011207f, 0.0596569031f, -0.0106063746f, 0.0502148457f, -0.00868625287f, -0.0109359771f},
  {0.120218091f, 0.0562074557f, -0.0998051688f, 0.118794575f, -0.229287028f, -0.0481363796f, -0.0886756778f, -0.0722650513f, 0.00911888201f, 0.0458687693f, 0.116122417f, -0.0328920707f, 0.0287905671f, 0.125201896f, 0.0569728948f, -0.0485189781f},
  {-0.234549254f, -0.0830113068f, 0.0588625036f, 0.0579492785f, 0.238068461f, -0.0304216482f, 0.147024274f, 0.181325778f, 0.0662107915f, 0.154766306f, 0.0991352797f, 0.0525402389f, 0.0331823975f, -0.302941233f, -0.218511552f, -0.383875132f},
  {0.208301246f, -0.175780222f, -0.116811119f, -0.178779289f, -0.00600647833f, 0.00763324369f, -0.0401024371f, -0.177148819f, -0.0573170297f, -0.0343920514f, 0.0122983838f, 0.158837527f, -0.0425769091f, 0.264024705f, 0.226229578f, 0.0714259371f},
  {0.229109287f, 0.0882346705f, 0.143561751f, -0.0766061172f, 0.0344888531f, -0.0608956479f, 0.0322181024f, 0.117572844f, 0.14318639f, 0.277890712f, 0.160530075f, 0.127576515f, 0.134088442f, 0.0760995075f, 0.147065148f, 0.0396814644f},
  {-0.369811654f, -0.144439429f, -0.370345503f, -0.254115701f, -0.160072178f, -0.0439667888f, 0.0689425394f, -0.0982167423f, -0.139375553f, -0.035235405f, -0.160937831f, -0.0420623235f, 0.0483684205f, -0.105045885f, 0.0063020261f, -0.14870055f},
};

static const int8_t kPatchPointwiseQ[24][24] = {
  {-14, 25, 9, -26, 2, -20, 7, -36, 74, 11, -16, -60, 26, 51, -5, 62, -91, -127, -84, -27, 20, 31, 12, 35},
  {45, -99, -6, -63, -8, 36, -10, -28, 97, 41, 9, 98, -21, 72, -75, 3, 44, -2, -87, 46, -27, 127, 10, -84},
  {31, -58, 127, -38, -1, 38, -19, 20, -29, 121, 26, -94, -5, -24, 34, -31, -34, -46, 8, 17, 1, 9, -96, 80},
  {39, 42, -20, 98, 42, -33, 7, 19, -127, 66, -18, 6, 92, 55, -75, -32, 1, -36, 127, -15, 0, -3, 3, -7},
  {40, -46, -9, 65, -25, 109, 16, 62, -15, 7, 32, 43, 127, 3, -6, -20, 51, 25, 16, -32, -15, 74, 121, 7},
  {96, -25, -4, -1, -118, -11, 9, 9, -63, 127, 3, -22, -4, 29, -9, -89, -57, -16, 52, 28, -6, 18, 32, 24},
  {54, 32, 39, 54, -120, -35, -5, 57, -74, -64, -63, 81, 3, -6, 89, -14, 34, 49, -51, 79, 127, 5, 19, -63},
  {17, -63, -16, -9, -63, -127, 0, 29, -28, 31, 24, -18, -22, 32, -115, 37, -23, 25, 81, 7, -51, 28, -23, 5},
  {20, 5, -27, 6, 38, 9, -13, -18, -2, 48, -1, -53, 0, 3, 20, -8, -51, -23, -5, -5, 14, 14, -127, 59},
  {-85, -25, -127, -43, -58, -34, -61, -51, -8, 48, -44, -18, 50, -125, 93, -94, -84, -6, 46, 16, -7, -17, 5, -2},
  {-22, 60, 13, 107, 27, 59, 77, -3, -37, 1, 4, 107, 22, -26, 127, 13, -72, -9, 37, -39, 105, 29, 36, 61},
  {34, -66, 105, -14, -58, -42, -28, 8, -46, -105, -60, 106, -45, 74, -80, -26, 127, 53, -85, -47, -113, 29, 79, -89},
  {117, 8, 18, 6, 20, -9, -32, 5, 29, -30, -5, 23, 85, 8, 79, -14, -47, -4, -127, 6, -21, -22, -21, -15},
  {43, 108, -40, 81, -16, 66, -28, 4, -53, 13, 26, -35, 127, -53, -16, 5, -16, -13, 97, 44, 3, 30, -10, 12},
  {-26, 93, 51, 109, 9, -51, -127, 79, -95, 63, -23, 29, -17, 74, 103, 7, -12, -45, -39, 36, -21, 77, -12, 91},
  {-92, 74, -49, 77, 64, -23, -55, -28, -60, 87, 127, -97, 3, -103, 100, 111, 0, -50, 47, -10, 33, -96, -10, 71},
  {-84, 53, 5, 36, 50, -8, 19, 20, -5, -25, -16, -42, 35, -82, 81, 38, 6, -60, -9, 44, 23, -127, -12, 33},
  {-30, -50, -127, 8, 90, -120, -31, -23, 78, -18, 103, -49, 39, 28, -31, -57, 40, -5, -68, 27, 4, 56, -46, 11},
  {-32, 10, -18, -36, -44, -54, 78, -47, -82, 127, 107, -90, 10, -116, 14, -16, -101, -55, 28, 65, 76, -27, -99, 121},
  {-49, 100, 9, -83, -8, 62, 17, -65, -12, -4, 73, -127, 12, -79, 3, 9, -62, -38, 8, 86, 87, 2, -116, 71},
  {-51, 28, -101, 40, 68, -34, 16, -37, -28, 45, 48, -11, 21, -4, 127, -7, 47, 7, 6, -38, 4, -13, -49, -43},
  {31, -4, -11, 55, -1, 7, -79, 1, 22, 127, -44, -54, 43, 35, -33, 2, -117, -92, 12, -14, -71, 64, -117, 63},
  {31, 6, -65, -61, 54, 116, 60, 52, 80, -127, -22, 19, -31, 9, -51, -14, 105, 67, -56, 21, 30, 82, 42, 41},
  {27, 1, -25, 19, -93, -45, 20, -52, -127, 12, -65, 58, 59, 12, -83, -5, -45, -74, 72, 75, -24, 68, 22, -20},
};

static const float kPatchPointwiseScale[24] = {0.00226511108f, 0.00273829629f, 0.00225899462f, 0.00193107803f, 0.00288136536f, 0.00418720348f, 0.00311724865f, 0.0050644516f, 0.00305088121f, 0.00452696672f, 0.00319193187f, 0.00189813797f, 0.00461212825f, 0.00329993526f, 0.0049974937f, 0.00312285498f, 0.00529158814f, 0.0038640399f, 0.00213422487f, 0.00249502645f, 0.00494060898f, 0.00264489255f, 0.00371585879f, 0.00268749287f};

static const float kPatchBias[24] = {-0.124040991f, -0.725661695f, 0.321632981f, 0.412037134f, -0.176585242f, 0.562175035f, -0.143491775f, 0.720975876f, 0.427500635f, 0.312935352f, 0.206677049f, -0.434291184f, -0.348007292f, 0.728390157f, 0.6313954f, 0.581171811f, 0.153362811f, -0.117735207f, 0.586996257f, 0.287760407f, 0.0996278748f, 0.641238451f, -0.868883789f, 0.338506788f};

static const float kPosEmbed[1][31][24] = {
  {
    {0.127618074f, -0.037552271f, 0.0712916702f, -0.0121713364f, 0.141695291f, -0.010751782f, -0.254413486f, 0.157176211f, 0.0821198374f, -0.000775971974f, 0.0710572749f, 0.162027583f, -0.137455478f, -0.0437458307f, -0.214493304f, -0.270017773f, 0.07111682f, 0.139723703f, 0.211098939f, -0.0966403186f, -0.0145491995f, -0.13811706f, 0.167270333f, -0.328388005f},
    {-0.127511159f, -0.120566979f, 0.155283391f, -0.135393992f, -0.0317324698f, -0.100341506f, -0.179518431f, 0.328834295f, 0.0232266374f, 0.155905128f, -0.102584735f, 0.183671474f, -0.227071106f, 0.119805671f, 0.14987883f, -0.194088712f, 0.0924288034f, -0.198812902f, -0.0621123873f, 0.0133598847f, 0.129572853f, 0.0212530047f, -0.261209935f, 0.0724604726f},
    {0.0149953449f, -0.0842382759f, 0.0869263709f, 0.0717502609f, -0.0442528836f, -0.0982983783f, -0.0980397686f, -0.0540780984f, -0.10753081f, 0.00194957538f, 0.0852899924f, 0.0483284146f, 0.0444105603f, 0.262482941f, -0.0996040478f, 0.0205261912f, 0.00670853257f, -0.0143190399f, -0.0980687588f, 0.24060142f, 0.101159573f, 0.00459679589f, -0.133129627f, 0.0269448459f},
    {0.218628302f, -0.0696310177f, 0.0356023125f, -0.0829793438f, -0.0582592152f, -0.0669290125f, -0.193663254f, 0.139469743f, 0.0430690646f, -0.104844801f, -0.12783511f, 0.0910214335f, 0.0911008492f, 0.0665875524f, 0.0204248577f, 0.0383425765f, -0.00152330892f, 0.153189093f, 0.0176421367f, -0.0491953343f, 0.190050691f, -0.00565285981f, -0.0685425252f, -0.114691325f},
    {-0.0457433648f, -0.0599761568f, -0.14114666f, 0.0683865249f, -0.0448157713f, 0.0783993825f, 0.00552869728f, 0.0105164573f, -0.0520631708f, -0.0525500812f, -0.162227601f, 0.0724446699f, -0.0744321421f, 0.171976462f, 0.210988104f, 0.108334154f, 0.0320862047f, -0.138679236f, 0.163640782f, -0.113229595f, 0.249500841f, -0.153489128f, -0.10641446f, -0.0195002109f},
    {-0.0222599898f, 0.0294862688f, -0.0895688757f, 0.116285108f, -0.115862697f, 0.0685440451f, 0.017210722f, 0.00415748218f, -0.0428431295f, -0.0990406275f, -0.0155409183f, -0.00402517198f, -0.0835478231f, 0.0348135084f, -0.00272976537f, 0.126551703f, -0.0770719573f, -0.0204038285f, 0.138233796f, 0.0350623652f, 0.179941148f, -0.0494784154f, -0.138101831f, -0.0234045461f},
    {0.00440937793f, 0.0278621987f, -0.0693838f, 0.239433646f, -0.0189600252f, 0.0591245964f, 0.0663061813f, -0.0192301646f, 0.00771380356f, -0.103835776f, 0.070716992f, -0.145565525f, -0.0509195961f, -0.0828206614f, -0.0662601888f, 0.109374881f, -0.167217985f, 0.0182759576f, -0.0503122583f, -0.0154800406f, 0.159725785f, -0.00503821624f, -0.0347843617f, 0.0495690964f},
    {-0.133093432f, 0.0236430205f, 0.0384754352f, 0.210374087f, 0.102046348f, 0.129226863f, 0.0898986831f, -0.0556558855f, 0.0359902941f, -0.0979875177f, 0.0412905551f, -0.137556598f, 0.0433255211f, -0.19105041f, 0.0207729153f, 0.148434862f, -0.106123678f, -0.163926557f, 0.00265291752f, 0.0326374061f, 0.0522268005f, -0.110332176f, 0.0189451855f, 0.169052392f},
    {-0.191335946f, 0.0772270709f, 0.129526183f, 0.039649494f, 0.117814161f, 0.0928583592f, 0.0113238189f, -0.0616804138f, -0.0271724556f, -0.0362013653f, 0.118521124f, 0.0224061813f, 0.148095638f, -0.251221299f, -0.0594499409f, 0.0935734883f, 0.00173087616f, -0.187000394f, 0.0718574673f, 0.163675487f, -0.0980264246f, -0.155938134f, 0.0784454048f, 0.15193136f},
    {-0.148910195f, 0.0705653131f, 0.124650694f, 0.0463671982f, 0.0495446883f, -0.00358186755f, 0.0313387923f, -0.0954085588f, -0.0318476446f, 0.0383355916f, 0.170508191f, 0.0836885795f, 0.173460811f, -0.179594755f, -0.115068242f, -0.121859848f, 0.0586879253f, -0.06843853f, -0.064532645f, 0.140517235f, -0.128275886f, -0.125644803f, 0.106789291f, 0.096013926f},
    {-0.198765948f, 0.0126653304f, 0.122261554f, 0.106386729f, -0.0435735583f, -0.0199594591f, 0.14879781f, -0.0966979787f, 0.0897994488f, -0.0208744258f, 0.0317471363f, -0.0222552996f, 0.119455509f, -0.103628278f, 0.0223632921f, -0.172705516f, 0.0797424763f, 0.0222403966f, -0.0634231567f, 0.0871688873f, -0.0417889357f, -0.137975067f, 0.0362591073f, 0.100828364f},
    {-0.254912823f, -0.00398609787f, -0.027464699f, 0.0343593806f, -0.00838784222f, -0.0539354198f, 0.179443851f, -0.056520354f, 0.014886179f, -0.0364859775f, 0.0462494753f, -0.16570954f, -0.0112758717f, -0.0432771221f, 0.0512438826f, 0.0331159197f, 0.0765208304f, 0.156740263f, 0.0985093266f, 0.0564113557f, 0.0871509239f, -0.130189195f, 0.0763384625f, 0.0572446547f},
    {-0.0801325738f, -0.0683422983f, 0.00749160396f, 0.0718909651f, 0.0571198128f, -0.0267830677f, 0.202150017f, -0.0716894791f, -0.0197966229f, 0.0248216055f, 0.0754903927f, -0.258169085f, 0.0192780271f, -0.101791248f, -0.0244550575f, -0.00867106579f, 0.0650082901f, 0.199229404f, 0.193235382f, 0.0661462769f, 0.0152105931f, -0.00705124857f, -0.0591793358f, 0.0416229144f},
    {-0.0587794371f, -0.13108784f, 0.0934120417f, 0.0908668637f, 0.11932414f, -0.109901361f, 0.295340657f, -0.120839432f, 0.0795093179f, -0.0193554554f, 0.0135701792f, -0.1980443f, 0.128710613f, -0.150451332f, -0.0481091104f, -0.0902026743f, -0.0140225459f, 0.174145386f, 0.16915004f, 0.111490652f, -0.0170345157f, -0.0672390908f, 0.0297545586f, 0.039308656f},
    {0.021937998f, -0.00763973733f, 0.0213563275f, 0.0216114502f, -0.0446734279f, 0.0778727978f, 0.151633859f, -0.0711593106f, 0.244807139f, 0.121338837f, 0.049475804f, -0.187992573f, -0.115438573f, -0.170618892f, -0.0765479282f, -0.0352194011f, -0.130899549f, 0.0949633643f, 0.215476975f, 0.0028284248f, 0.0242879372f, -0.278456509f, -0.0451011695f, 0.101165615f},
    {0.0478998981f, -0.201185495f, -0.18817164f, 0.186061233f, 0.166106492f, 0.0749929547f, 0.29286021f, -0.076734975f, 0.335070908f, -0.184925079f, -0.317126662f, -0.308567852f, 0.0446794927f, -0.00233471044f, -0.0741835535f, -0.0930879638f, 0.122900061f, 0.157368347f, 0.143983796f, -0.206642613f, 0.171753749f, -0.158042654f, 0.120882533f, 0.128837928f},
    {-0.0973322392f, -0.00905598234f, -0.0797652528f, 0.104848526f, 0.0226615183f, 0.0150375217f, 0.00813882425f, 0.00925347395f, 0.121165708f, 0.00613707118f, 0.206259504f, 0.0116429646f, 0.145455196f, -0.230419785f, -0.182908148f, -0.0826562047f, 0.188624293f, -0.135956168f, 0.153677821f, -0.0977690667f, 0.181789681f, -0.136594191f, 0.0075129671f, 0.0468083136f},
    {-0.167757377f, -0.0427029394f, 0.0298737194f, -0.02424182f, 0.0703498498f, -0.0878182426f, 0.172556788f, -0.00961297937f, -0.0255233645f, -0.0961904079f, 0.0922328234f, 0.0445245951f, 0.00775853824f, -0.0290131737f, 0.132846907f, -0.0844762772f, 0.043246638f, -0.0189762246f, 0.191701204f, -0.141692966f, 0.0464019701f, -0.103806607f, -0.0553200953f, -0.149726167f},
    {-0.0490656048f, 0.106142692f, 0.036753457f, 0.144744888f, 0.154286608f, -0.0427792221f, 0.174666494f, -0.0590720363f, -0.0992776081f, 0.132201836f, -0.166561782f, -0.0619337931f, -0.0531681366f, 0.0356530771f, 0.0392827056f, -0.00331819453f, 0.0996565372f, -0.0954301357f, 0.0298880935f, 0.0686921999f, -0.091832146f, -0.0249841269f, -0.103640854f, 0.0615908578f},
    {0.185274899f, 0.0919216648f, -0.0136999879f, 0.16935046f, 0.159517586f, -0.064067103f, 0.0746673793f, -0.000906607369f, 0.0485063829f, 0.0394447744f, -0.333659708f, -0.181938857f, -0.213121742f, -0.0134693738f, -0.038506113f, -0.0368396677f, 0.0947324783f, 0.0231785718f, -0.146939382f, 0.114149809f, 0.0837819278f, 0.0701582283f, -0.101578526f, 0.208420038f},
    {0.0176004022f, 0.0809031203f, -0.255203933f, 0.1450499f, 0.0304737799f, -0.0351243503f, 0.0234750099f, -0.0304883327f, -0.0724594072f, -0.0224564448f, -0.140911311f, -0.160562441f, -0.148944676f, 0.156133264f, -0.0179993268f, 0.0899068788f, -0.0319709815f, -0.0120356614f, 0.0491077937f, 0.000475122797f, 0.157392845f, 0.00796752609f, 0.0843801796f, 0.0895606056f},
    {-0.0195283201f, 0.0866282135f, -0.10078536f, 0.0539995804f, -0.119154207f, 0.141014725f, -0.11562597f, 0.0261303317f, 0.0138074774f, -0.0464852713f, -0.0659720972f, -0.182018518f, -0.0760772675f, 0.117867671f, 0.00839622505f, 0.107783191f, -0.0770870671f, -0.0369091928f, 0.148760751f, 0.0327889472f, -0.0191957504f, -0.120784648f, 0.114483297f, 0.0665270016f},
    {0.0821986645f, 0.0824967921f, 0.0688586533f, 0.0805379897f, -0.0730410665f, 0.176076025f, -0.106291756f, 0.0863071233f, 0.0441948585f, 0.0570514016f, -0.0109974686f, -0.149732381f, 0.0328329764f, -0.0566988476f, 0.0164425559f, -0.0386112742f, -0.104999438f, 0.057765577f, -0.096179314f, 0.0115061263f, 0.0285017248f, -0.184666961f, -0.000569792697f, 0.0745918453f},
    {0.0130169094f, 0.0610144585f, 0.0133341206f, 0.101446979f, 0.0401811115f, 0.134388342f, -0.0184205044f, 0.0255072471f, -0.135582373f, 0.117142491f, -0.0858034566f, 0.0539716519f, 0.0486478768f, -0.0624186546f, 0.0485322513f, -0.0866541713f, -0.110991448f, -0.0367433317f, -0.170838729f, 0.021094745f, 0.00712520676f, -0.0347318761f, 0.0645529777f, 0.0985409915f},
    {-0.0850158185f, 0.0223861188f, -0.0888384059f, -0.0594134703f, 0.0317527354f, 0.136397526f, 0.080091022f, -0.104855992f, -0.10864073f, 0.0199537054f, -0.109885491f, 0.116202623f, 0.0992294848f, 0.0519972257f, 0.0226429254f, -0.0547363199f, 0.00576832145f, -0.121278837f, -0.0605640858f, -0.0199422557f, -0.0235708747f, 0.13120985f, 0.128194839f, 0.0112311803f},
    {-0.0436836071f, -0.00273042358f, -0.0654251054f, -0.232268661f, -0.0576430261f, 0.0914362893f, 0.147314817f, -0.10607893f, 0.0187830925f, -0.00807565078f, -0.0294473525f, 0.0651015118f, 0.298571646f, 0.113669254f, -0.0279362481f, -0.0567816235f, 0.122766048f, 0.063527748f, -0.0458228923f, -0.140059903f, 0.080144681f, 0.104224883f, -0.0059429761f, -0.219323203f},
    {-0.0137148695f, 0.045097284f, 0.0618716143f, -0.253575832f, -0.0243558548f, -0.0468541533f, 0.0414802395f, 0.0101145338f, -0.161060765f, 0.00694332691f, -0.150128558f, 0.246679038f, 0.279432684f, 0.121376395f, 0.0541900545f, -0.00261123478f, 0.0806312561f, 0.13415201f, 0.00835852511f, -0.0602443032f, -0.200077698f, 0.071862042f, 0.0307795648f, -0.205185682f},
    {0.0793408453f, 0.0560277849f, 0.0426581465f, -0.22401534f, 0.182401672f, -0.250169992f, 0.00473273313f, -0.0787845477f, -0.276929528f, -0.171815515f, -0.00556335086f, 0.275926948f, 0.125926793f, 0.144373626f, 0.0974117592f, 0.0436808169f, 0.0877389908f, 0.0706070215f, -0.062533237f, -0.0438779332f, -0.514853001f, 0.104428761f, 0.191531956f, 0.0757927969f},
    {0.223480701f, -0.247372389f, 0.107901141f, -0.209363088f, 0.0119128106f, -0.267679304f, -0.0304022469f, -0.080455564f, -0.400297403f, -0.0533247218f, 0.0968895108f, 0.19417581f, 0.211851791f, 0.284628987f, 0.0460366085f, 0.0910975188f, 0.280461043f, 0.130143374f, -0.221364036f, 0.0134808775f, -0.412637293f, 0.130820468f, -0.0240332708f, 0.168933854f},
    {-0.156012788f, -0.204128653f, 0.187345952f, -0.358375132f, -0.226285636f, -0.213300005f, -0.118067302f, 0.224208266f, -0.35103628f, 0.102131858f, -0.0335928798f, 0.186624736f, -0.097607635f, 0.236664876f, 0.172721013f, 0.152311578f, 0.153623f, -0.034349829f, -0.343607366f, 0.143764004f, -0.1525857f, 0.199713826f, -0.0572992489f, 0.00522848777f},
    {-0.0796618387f, -0.101730525f, -0.0180515125f, -0.0899747908f, 0.0906469077f, 0.0680505484f, 0.108353831f, -0.182724357f, -0.216635898f, 0.0651273727f, -0.0410062112f, 0.208815753f, -0.101471327f, -0.0789633319f, -0.124895602f, -0.0259285327f, -0.12810044f, -0.168504015f, -0.134188399f, 0.103423581f, -0.244165584f, 0.451239526f, 0.0535553396f, 0.237478644f},
  },
};

static const float kLayer0PreNormWeight[24] = {0.670442641f, 0.74851948f, 0.737993419f, 0.712746441f, 0.70829457f, 0.902169228f, 0.813417614f, 0.856179297f, 0.894999981f, 0.613919914f, 0.748201311f, 0.605556428f, 0.720330477f, 0.650179803f, 0.977023304f, 0.810009718f, 0.564607859f, 0.790127575f, 0.773053885f, 0.889192104f, 0.725550711f, 0.885176301f, 0.73409462f, 0.677422762f};

static const float kLayer0PreNormBias[24] = {0.322084963f, 0.290998429f, 0.161448345f, -0.395459592f, 0.0420276783f, -0.279849827f, 0.088116616f, -0.285571069f, 0.127809092f, -0.108012326f, -0.0311874412f, 0.256643742f, 0.333918929f, -0.381636828f, -0.160825521f, -0.117714196f, 0.222663969f, 0.281964064f, -0.164386094f, 0.291402131f, 0.129655927f, -0.146897003f, 0.358427346f, -0.273137599f};

static const float kLayer0PostNormWeight[24] = {0.723534346f, 0.976447701f, 0.893203378f, 1.00038838f, 0.576703608f, 0.954058051f, 0.843365252f, 0.917612016f, 1.02449811f, 0.918619573f, 1.12313008f, 0.95633316f, 0.922534049f, 1.4424206f, 0.974081218f, 0.814936817f, 0.74168992f, 0.705602229f, 1.15992153f, 0.808060825f, 0.709316552f, 1.65310574f, 1.01838398f, 0.763714492f};

static const float kLayer0PostNormBias[24] = {-0.0239784103f, 0.00229448779f, 0.00997854583f, -0.0222669821f, 0.0254486874f, 0.0410326459f, 0.0305647589f, -0.0386459529f, 0.039180018f, 0.00576032558f, 0.0107867261f, 0.0341660157f, 0.00618537702f, -0.122138157f, -0.00738742994f, 0.00766310701f, -0.0206382237f, -0.0305192303f, 0.0321138538f, 0.022041101f, 0.0259861723f, -0.0281720683f, 0.0103149228f, 0.00945486501f};

static const float kLayer0ALog[48][16] = {
  {-0.087859042f, 0.803655863f, 0.737586439f, 1.55454862f, 1.24039996f, 1.93004072f, 1.75503588f, 1.59601092f, 1.77241039f, 1.86968672f, 1.76192474f, 2.115978f, 2.34636426f, 2.37727213f, 2.46254897f, 2.53062892f},
  {0.0270613208f, 0.631590784f, 1.04487991f, 1.24321997f, 1.51493013f, 1.70536244f, 1.90677559f, 1.85982692f, 1.9881897f, 2.01327348f, 2.09236002f, 2.17651296f, 2.3595016f, 2.39083338f, 2.46612358f, 2.53387403f},
  {-0.170435727f, 0.648946822f, 0.72152096f, 0.845066369f, 1.22050035f, 1.42593408f, 1.37111092f, 1.73074234f, 1.96301115f, 1.99840331f, 2.23010969f, 2.47002339f, 2.06812191f, 2.59038043f, 2.52335691f, 2.52876878f},
  {0.184365094f, 0.737251639f, 1.17577255f, 1.32441604f, 1.56513667f, 1.67579997f, 1.86491072f, 1.94498634f, 2.08462715f, 2.03070855f, 2.09028697f, 2.25864053f, 2.32883954f, 2.45913482f, 2.51194739f, 2.56541634f},
  {0.236227244f, 0.866609573f, 1.15954673f, 1.67472541f, 1.75896275f, 2.0558629f, 2.20316362f, 2.13825464f, 2.46284556f, 2.26435494f, 2.24218822f, 2.5206368f, 2.81258512f, 2.68828344f, 2.92200589f, 2.765836f},
  {-0.0123687182f, 0.808732688f, 0.708529353f, 1.49961007f, 1.20225644f, 1.97826457f, 1.68067694f, 1.64350283f, 1.93659484f, 1.87077558f, 2.00428104f, 2.18725181f, 2.37968659f, 2.39219856f, 2.47740316f, 2.53513694f},
  {0.0727429166f, 0.889351845f, 1.09545839f, 1.31818461f, 1.61970091f, 1.77566862f, 1.85453629f, 1.82741106f, 1.92159653f, 2.02344942f, 1.95374715f, 2.21513367f, 2.32778549f, 2.39545393f, 2.4685843f, 2.5335083f},
  {0.0261319689f, 0.609920204f, 1.34597278f, 1.30838966f, 1.80269539f, 1.78079879f, 2.11815572f, 2.1634438f, 2.29322791f, 2.4334569f, 2.47183323f, 2.45454311f, 2.3229022f, 2.49366522f, 2.45682311f, 2.53575921f},
  {0.236801535f, 0.952468514f, 0.604603946f, 1.88317645f, 0.840269446f, 2.422755f, 1.29750896f, 1.3853159f, 2.02481627f, 1.69141722f, 1.94034362f, 2.17286038f, 2.64298105f, 2.81421089f, 2.63787723f, 2.25248122f},
  {0.152532086f, 0.718644917f, 1.10891056f, 1.14407039f, 1.53955865f, 1.71327484f, 1.8608098f, 1.82806027f, 2.01462841f, 1.97102714f, 2.00530648f, 2.10012412f, 2.30537748f, 2.35289741f, 2.43687534f, 2.49833393f},
  {-0.450205654f, 0.509208262f, 0.698148966f, 1.58561945f, 1.23673141f, 1.8817662f, 1.5235132f, 1.47021747f, 1.61634851f, 1.66220272f, 1.69437063f, 1.86679304f, 2.5272665f, 2.20018649f, 2.3672421f, 2.4683404f},
  {-0.460004896f, -0.154633731f, -0.299634695f, 0.405751646f, 0.0100221466f, 0.637463748f, 1.61949742f, 1.8556751f, 1.72879374f, 1.5907532f, 2.12996674f, 1.96932685f, 1.91298068f, 2.25594473f, 2.3101697f, 2.86239743f},
  {0.301199496f, 0.620458364f, 1.06315994f, 1.15127611f, 1.60089517f, 1.7496295f, 1.89695144f, 1.87429702f, 2.05512214f, 2.09929013f, 2.1039443f, 2.27238274f, 2.35642791f, 2.42019272f, 2.47317863f, 2.53147364f},
  {-0.360055506f, 0.722044647f, 1.07657111f, 1.35924256f, 1.55379415f, 1.69835818f, 1.90620112f, 2.09766293f, 2.14597702f, 2.32240653f, 2.45963049f, 2.402457f, 2.35513091f, 2.47812247f, 2.49072194f, 2.52811527f},
  {0.299552679f, 0.523249626f, 1.14883828f, 1.33771396f, 1.47517419f, 1.65079629f, 1.68236351f, 1.64309585f, 1.8394742f, 1.90352654f, 1.98694539f, 2.18327928f, 2.34693694f, 2.39673853f, 2.47181678f, 2.53224492f},
  {0.125230312f, 0.133140326f, 1.25910914f, 1.0120635f, 1.68067944f, 1.38972402f, 1.61895978f, 1.63742518f, 1.50222683f, 1.64071846f, 1.40563464f, 1.74256098f, 2.05318689f, 1.88544321f, 2.36894107f, 2.50978851f},
  {-0.565291584f, 1.08244979f, 0.404861093f, 1.55860257f, 0.853220165f, 1.96250784f, 1.61869633f, 1.67499888f, 1.90269387f, 2.06782222f, 2.22490072f, 2.55707669f, 2.3911221f, 2.55314922f, 2.4519577f, 2.71295834f},
  {0.10146632f, 0.909943342f, 1.16335893f, 1.97098899f, 1.68403625f, 2.24426484f, 1.75396907f, 1.64393842f, 1.88267732f, 1.76856065f, 1.76741302f, 2.04215312f, 2.37759876f, 2.39193726f, 2.48630714f, 2.52439332f},
  {0.182139665f, 0.520648837f, 0.494628161f, 1.17238843f, 0.895334065f, 1.82696319f, 1.74878561f, 1.82185304f, 1.93744528f, 2.03238559f, 2.19882464f, 2.07471395f, 2.79048443f, 2.83772945f, 2.82343507f, 2.21857142f},
  {0.0199499391f, 0.77823633f, 0.907028794f, 1.33976543f, 1.39318109f, 1.73874986f, 1.66300786f, 1.75938988f, 2.00729895f, 1.91927981f, 1.97476268f, 2.20974779f, 2.41122413f, 2.40865445f, 2.48103237f, 2.54183841f},
  {-0.200691223f, 0.407409102f, 0.765967488f, 1.56587553f, 1.34511399f, 1.82216406f, 1.80512536f, 1.98507798f, 1.96599138f, 2.16040564f, 2.24883986f, 2.36526465f, 2.20150089f, 2.12004042f, 2.25760579f, 2.53198719f},
  {-0.0114887478f, 0.93470633f, 0.80812639f, 1.51004434f, 1.58143401f, 1.8721031f, 1.79735303f, 1.93038082f, 2.17833662f, 2.18223596f, 2.27411199f, 2.38572097f, 2.42333579f, 2.64101958f, 2.58023953f, 2.48383594f},
  {-0.287412643f, 0.809811294f, 1.05078089f, 1.36226535f, 1.61418939f, 1.90624511f, 1.74603975f, 1.72551715f, 1.88021755f, 1.75858045f, 1.69271028f, 2.14574385f, 2.35604477f, 2.40079784f, 2.47428632f, 2.52484918f},
  {0.148290679f, 0.461137056f, 1.29580462f, 1.1847688f, 1.74256635f, 1.74154043f, 1.86536098f, 2.00570846f, 2.02773881f, 2.19320536f, 2.22039056f, 2.27855968f, 2.2823174f, 2.43165779f, 2.47579646f, 2.53073645f},
  {-0.0372685939f, 0.584017992f, 0.922854066f, 1.21533453f, 1.3412118f, 1.73382962f, 1.42971516f, 1.69170856f, 1.85850596f, 1.81232035f, 1.84793174f, 2.19612527f, 2.29214716f, 2.48672295f, 2.49671435f, 2.53908896f},
  {0.312098444f, 0.722785056f, 1.22151017f, 1.26032043f, 1.59570503f, 1.53978169f, 1.50836277f, 1.59280598f, 1.94422853f, 1.6812458f, 1.73847806f, 2.28237772f, 2.24252009f, 2.33071017f, 2.45088387f, 2.47977042f},
  {0.353738129f, 1.12134874f, 0.840579391f, 1.76132309f, 0.894229412f, 2.23521852f, 1.59021747f, 1.6713208f, 1.90380228f, 1.89757609f, 2.0719161f, 2.08213091f, 2.55414557f, 2.6069572f, 2.71344161f, 2.87682557f},
  {0.0920755193f, 0.469402701f, 1.08099592f, 1.46667027f, 1.59425151f, 1.82106268f, 1.84944224f, 1.85068834f, 1.97909987f, 2.01231384f, 1.9923054f, 2.20527267f, 2.34813476f, 2.39875317f, 2.47109389f, 2.53206277f},
  {-0.06545683f, 0.117589824f, 1.86049247f, 0.833862841f, 2.21300435f, 1.37531066f, 2.10064268f, 2.27280426f, 2.10417652f, 2.37352443f, 2.44660139f, 2.42879891f, 2.33950424f, 2.40971279f, 2.46571541f, 2.54472232f},
  {-0.129071042f, 0.467146099f, 0.995913506f, 1.48476517f, 1.47126937f, 1.95613122f, 1.89474368f, 1.93552709f, 1.87714291f, 2.14770627f, 2.18699813f, 2.22464919f, 2.358953f, 2.34538674f, 2.46192837f, 2.53151035f},
  {-0.0283508375f, 0.612312675f, 0.715105414f, 1.3724916f, 1.17643332f, 1.83820331f, 1.80882204f, 1.56048906f, 1.85426629f, 2.04192591f, 1.89887178f, 2.31232762f, 2.37712216f, 2.41889596f, 2.48045278f, 2.55355859f},
  {0.348949015f, 0.808363676f, 1.31693971f, 1.83052683f, 1.67673171f, 2.13269353f, 2.10630894f, 2.34772205f, 2.26113224f, 2.62927341f, 2.76946712f, 2.54158258f, 2.38879824f, 2.55107355f, 2.70989799f, 2.98427773f},
  {-0.0146308634f, 0.924023509f, 1.29271972f, 1.30268884f, 1.61064219f, 1.52313912f, 1.92472005f, 2.07702971f, 2.07356048f, 2.24422312f, 2.37264323f, 2.40543056f, 2.01829076f, 2.44649696f, 2.47702193f, 2.55751991f},
  {0.527472496f, 0.601111591f, 1.17305684f, 0.99130851f, 1.64383018f, 1.32203531f, 1.44813728f, 1.31090248f, 1.57508504f, 1.31256282f, 1.20871437f, 1.7279917f, 2.1498692f, 2.40511918f, 2.45932961f, 2.53226066f},
  {0.0838362128f, 0.888721824f, 1.05934441f, 1.39592683f, 1.47514749f, 1.63146126f, 1.82323825f, 2.13908482f, 2.19421291f, 2.04265952f, 2.24702716f, 2.25296354f, 2.13795161f, 2.22128463f, 2.15197515f, 2.28920794f},
  {0.74512428f, 0.930997729f, 1.91625285f, 1.84546077f, 2.32052875f, 2.08082652f, 2.91232133f, 3.14480734f, 2.84794188f, 2.88193798f, 3.03198647f, 3.18536234f, 2.49033689f, 3.36284542f, 3.52929378f, 3.84825158f},
  {-0.182305574f, 0.875634432f, 1.83960056f, 1.08762276f, 2.38544941f, 1.63531959f, 2.47422147f, 2.3530159f, 2.30623746f, 2.67815685f, 2.68935323f, 2.63524866f, 2.03668308f, 2.33822536f, 2.45599461f, 2.81723976f},
  {0.164167151f, 0.822073698f, 0.995389938f, 1.50843239f, 1.51578236f, 1.91891301f, 1.83513296f, 1.72492945f, 1.8390708f, 1.9541235f, 1.88337278f, 2.12551951f, 2.36067843f, 2.3920691f, 2.47005582f, 2.53164768f},
  {-0.333242595f, -0.228149027f, 0.899287939f, 0.126193881f, 1.24503505f, 0.423817933f, 1.65984476f, 1.93907213f, 1.99156976f, 2.12457252f, 2.27893162f, 2.3108561f, 2.37011027f, 2.3260057f, 2.48022556f, 2.3233211f},
  {-0.208931059f, 0.761433423f, 1.0042522f, 1.35511911f, 1.52083862f, 1.71134388f, 1.81959391f, 2.05547237f, 2.17292929f, 2.20351124f, 2.36181903f, 2.33907747f, 2.26084685f, 2.46193051f, 2.48923945f, 2.54923177f},
  {-0.685881078f, 0.268114418f, 0.649323702f, 0.896250248f, 0.864746392f, 1.78202569f, 1.60024488f, 1.46753085f, 1.25648904f, 1.84823835f, 1.93827856f, 1.59213507f, 2.07452154f, 2.28084397f, 2.4272871f, 2.41316295f},
  {0.0869249776f, 0.643887401f, 1.01182437f, 1.45921433f, 1.53652012f, 1.90771401f, 1.67932022f, 1.45343649f, 1.39192379f, 1.85252559f, 1.72674632f, 1.8630507f, 2.53179812f, 1.8174665f, 2.23864985f, 2.2044704f},
  {0.513560176f, 0.394241303f, 0.933037639f, 1.34463072f, 1.44248009f, 1.84815145f, 1.81055462f, 2.12095714f, 2.45665288f, 2.25480413f, 2.51058006f, 2.41307497f, 2.33849454f, 2.81123471f, 2.84516835f, 2.64161396f},
  {0.0854614526f, 0.613233328f, 0.996079743f, 1.37091184f, 1.57282126f, 1.73239827f, 1.90954638f, 2.02719522f, 2.13336992f, 2.24538875f, 2.37302613f, 2.38137221f, 2.3162334f, 2.45476484f, 2.46601057f, 2.5280354f},
  {-0.190156534f, 0.94048655f, 0.876390219f, 1.4660188f, 1.33594286f, 1.80871046f, 1.64253616f, 1.75940084f, 1.86892641f, 1.95359182f, 2.04531932f, 2.13289118f, 2.35468554f, 2.31871843f, 2.39580011f, 2.49241161f},
  {-0.152230561f, 0.711494207f, 1.05765045f, 1.7615577f, 1.47900951f, 2.15230942f, 2.04937482f, 2.12331152f, 2.24911261f, 2.35282087f, 2.36859202f, 2.54104781f, 2.32664704f, 2.4434588f, 2.46243763f, 2.46745181f},
  {-0.441248655f, 0.733504295f, 1.00703204f, 1.6741941f, 1.49887061f, 2.02116346f, 1.85798883f, 1.86831594f, 2.01030993f, 2.10378695f, 2.13430119f, 2.26424456f, 2.37925768f, 2.38655543f, 2.46752977f, 2.53331447f},
  {-0.652395189f, 0.392130196f, 0.596716166f, 0.826687992f, 1.03965461f, 1.40551078f, 1.44347906f, 1.52895594f, 1.77415156f, 1.63482761f, 1.81428277f, 1.99989295f, 2.24858284f, 2.32519245f, 2.45934033f, 2.52351356f},
};

static const float kLayer0D[48] = {0.602721512f, 0.7077654f, 0.434408993f, 0.695684135f, 0.669229746f, 0.354311556f, 0.270963281f, 0.63473773f, 0.963407218f, 0.763426244f, 0.608648598f, 0.82949537f, 0.242272973f, 0.155559808f, 0.234051332f, 0.125900313f, 0.943356156f, 0.0949441493f, 0.64617157f, 0.228291094f, 0.469705254f, 0.729819775f, 0.32290858f, 0.0628474131f, 0.347982049f, 0.193495795f, 1.01855659f, 0.261703998f, 0.171442732f, 0.270196289f, 0.391808569f, 0.851524532f, 0.568972707f, 0.547749221f, 0.26212737f, 1.06112385f, 0.91960752f, 0.566096127f, 0.608573675f, 0.187959358f, 0.333337992f, 0.645434439f, -0.0393511467f, 0.20062153f, 0.675304294f, 0.443828732f, 0.223310813f, 0.358131289f};

static const int8_t kLayer0InProjQ[96][24] = {
  {23, -4, -56, -35, 26, -34, 44, -23, 0, -43, -127, 48, -11, 36, 25, 89, -5, 64, 53, -3, -38, -6, 3, 8},
  {127, -13, 5, -33, 2, -95, -44, 110, 67, 77, -73, 47, 47, 46, -95, 6, 55, 99, -107, -24, -3, -120, 52, 15},
  {2, -10, 61, -39, 64, 25, 78, -63, -40, 7, 52, -71, -29, 62, -127, 2, 52, -78, 18, 77, -52, 37, 112, 3},
  {-33, 10, 3, 3, 3, 12, -5, 4, 1, 2, -18, 39, -12, -49, 25, -33, 127, -26, -32, -14, 15, 20, 25, 21},
  {75, 55, 31, -56, -17, -60, 16, -1, 9, -17, -38, 24, 127, -125, -71, -88, -6, 89, -28, 30, 36, 13, 26, -43},
  {-51, 1, 26, 12, 4, 59, 80, -79, 80, -113, 52, -16, -54, -120, 117, -52, -65, -127, 92, -24, -28, 32, 39, -6},
  {24, -15, 43, 53, 58, -31, 13, 35, 18, -39, -127, 30, -36, 36, -32, 67, 31, 47, 44, 57, -41, -41, 52, 25},
  {32, -2, -22, -62, -32, 8, -15, 75, 84, 7, -40, -4, 65, -42, 3, -42, -8, 22, -100, 15, 127, -30, 19, -53},
  {2, 21, -33, -79, -89, -92, 14, -45, -11, 1, 78, -60, 12, -64, 85, 127, 90, 47, -12, 9, 114, -73, -34, -127},
  {1, 36, -24, 34, -25, 22, -74, -127, -74, -31, -55, -34, -37, 110, 52, 92, -103, 15, 22, -55, -118, -25, 0, 31},
  {88, -11, -58, 27, 22, -17, -64, 40, 127, -56, 24, -7, -37, 34, -74, -21, -49, 76, -38, -25, 62, -48, -2, -4},
  {-30, 13, -37, -45, -26, -5, -96, 55, 3, 101, -30, 15, 4, -21, -127, 26, 46, -36, 56, 76, 26, -36, 63, 8},
  {-48, -14, 15, 94, -29, 37, 36, -47, -26, -9, 127, -47, -23, -59, -44, -89, -25, 13, 107, 36, -70, 36, 3, 38},
  {-26, 29, 3, 10, 24, 65, -86, 19, -29, 90, -16, 127, -18, 11, -26, -10, -10, -44, 1, -37, 19, -23, -26, -36},
  {-27, -12, 29, -22, -28, -63, 26, 6, 44, -51, 58, -10, -39, -31, -35, -14, 127, 4, 45, 24, 72, -31, -7, -21},
  {-20, -5, 79, -70, -5, 19, -60, -15, 34, 40, 61, 0, 44, 22, 35, -105, -50, -127, -75, -79, 32, -5, -37, -14},
  {14, 32, -9, -45, 70, 26, 49, -88, -2, 92, 104, -23, 79, 21, 127, -122, -96, -44, 14, -46, -11, -7, 39, -37},
  {-24, -101, -27, 21, 6, 43, -14, 56, 42, -53, -127, 55, -19, 38, -104, 54, 77, 67, -5, -20, 47, -59, 60, 44},
  {29, 18, 35, -40, 6, -52, 89, -98, 13, -34, -2, 29, 33, -29, 127, -59, -19, 37, -37, -8, 40, -19, -7, -44},
  {25, 72, 74, 61, -77, 124, 125, -45, -51, 0, 125, -45, 125, -62, 3, -127, 0, 0, -24, -6, 37, -41, -85, -15},
  {-83, 108, -68, 86, 68, -14, 63, 113, -30, -43, 61, 126, -104, 7, -118, -20, -127, -17, -65, -101, 63, -72, 101, 90},
  {45, -28, -5, 0, 49, 27, 24, -40, 100, 56, 35, -54, -34, 82, 11, -32, -1, -69, -1, 21, -2, -12, 127, -39},
  {43, -65, 79, 12, -9, -4, 127, 49, 22, -74, -32, -3, -26, -62, 18, 15, 41, 126, 13, -37, -54, -29, -9, -19},
  {-16, -6, 59, 80, -37, 53, 48, 17, -48, -62, 54, -42, 96, -127, 64, 13, -20, -43, -66, 53, -115, 51, -27, 34},
  {34, 52, -25, 40, -27, -30, -119, 93, 74, 62, -38, 8, 4, 84, -22, 33, -17, 39, 10, -4, 103, -127, -10, 29},
  {-13, -26, 6, -49, -53, -19, -53, 127, -69, 65, -96, 6, 86, -24, -84, 49, -1, 86, 92, -28, -38, -49, -26, -61},
  {-80, -73, 16, 62, 39, -9, -8, -93, -85, 72, 7, -41, -77, 110, 60, 77, 53, -127, 10, 84, -65, 28, 39, 111},
  {20, 14, -122, -27, 5, 0, -7, -26, -127, 60, -76, -16, 31, -31, -41, 91, 64, -53, 18, -62, 0, -48, 21, -36},
  {-22, 4, 8, 1, -11, -48, 19, 127, -77, 25, -20, 90, -31, -88, -5, -26, 5, 10, 1, 47, 58, 84, -116, 9},
  {31, 46, -47, 36, 17, 50, -87, -101, 12, -84, 88, -102, -20, 81, 17, 7, 20, -29, -127, -29, 58, 10, 61, 4},
  {-2, -37, 44, 52, -5, -91, -54, -29, 1, 127, 4, -63, -37, 77, -56, 19, -57, -6, -7, 38, 60, -60, -45, 64},
  {46, 19, -49, -6, 41, -47, 76, -12, -12, -61, 48, -2, 40, -42, 19, -3, 28, 30, -127, -54, 58, -89, 46, -4},
  {62, 49, -53, 51, -1, -99, 3, -75, -21, -127, -7, -45, 59, 65, -2, 5, 73, 96, -31, -53, -4, -5, -50, 76},
  {-44, 27, -14, 23, -47, 64, -93, 127, 9, -98, -6, -22, -22, -88, 76, 6, -23, -14, -26, -85, -8, 42, -37, 11},
  {20, -29, 49, -22, -19, 77, -69, 22, -27, -41, 19, -18, 127, 26, 64, 8, 0, -27, -54, 8, 27, 69, -73, -11},
  {5, -45, 58, -18, -77, 54, -59, -38, 115, 21, -48, -61, -3, 0, 30, 22, -9, -18, 69, 63, 7, 127, -51, -42},
  {-36, -32, 45, 68, 15, 120, -15, -57, -2, 19, -20, -36, -93, 85, 127, 108, -87, -90, 52, 75, -95, 86, -89, 47},
  {13, 1, 22, 76, 69, 90, -10, -90, 18, -17, 2, 35, 34, -23, 82, -97, -127, 28, -24, 62, -11, 38, -4, 43},
  {-20, -32, -2, 76, 9, 41, 45, -34, -56, -127, 82, -20, -54, 21, 58, 62, -29, -41, 55, 12, -52, 82, -48, 44},
  {19, -72, -69, -127, 26, -69, -63, 30, 34, 115, -22, 122, 68, 35, 3, 27, -18, 65, 57, 3, -15, -37, 1, -104},
  {59, -70, -54, 39, 31, -63, 28, 23, -10, -49, 9, -92, -82, -30, -19, 95, 70, 127, -48, -1, -13, -25, -35, 35},
  {78, 13, -114, 49, 21, -9, -92, 117, 80, -41, 46, -9, -62, -26, -123, -33, -75, 66, -112, -52, 58, -127, 13, 67},
  {-1, -43, 79, -3, 3, 2, 90, -48, 2, -39, 43, 42, 65, -43, 127, -32, -18, -77, -17, 11, -14, 30, -36, 3},
  {68, -14, -40, 59, 8, -23, -89, 39, 13, -108, -57, -120, -12, 87, -12, 127, 32, 16, -93, 11, 64, 18, 50, 5},
  {-19, -21, -2, -12, -4, 127, -20, 73, -1, 78, -18, 79, 38, -20, 19, -19, 110, -21, -73, 1, -44, -11, 105, -24},
  {31, -9, -3, -100, -73, 3, 107, 92, -84, 85, -12, 127, 8, -115, -30, -95, 37, 51, 30, -87, 71, 39, -53, -115},
  {-46, -2, -35, -31, 40, 44, 39, -9, -35, 127, 16, -2, 15, 17, 5, -88, 21, -25, -8, -22, 96, -2, 0, -43},
  {84, -25, 78, -17, -3, 7, -6, -14, 80, -48, 94, -92, -65, 50, 82, -26, -49, -43, -127, -11, -25, 59, -78, 36},
  {2, 32, 15, -15, -2, -10, -10, -5, -14, 45, -12, 47, -15, -37, 3, 57, 127, -50, 19, 40, -43, 15, 1, -7},
  {-52, 44, 0, 24, -127, 51, -78, 115, -47, 107, -49, 38, 12, 12, 17, 18, 40, -14, -36, -101, 78, -69, -16, 71},
  {32, 32, 31, -9, -18, 23, -32, 42, 18, -7, -20, -10, 108, -30, -85, -127, -82, 4, -13, 23, -48, 31, -17, -14},
  {96, -99, 83, -17, -3, 105, 69, -89, 8, 18, -72, 3, -19, -50, 54, 21, -97, -34, 41, -83, -127, 36, 28, -55},
  {24, -28, 51, -22, -92, 17, -127, 53, 67, 5, -10, -26, -15, -23, 24, -2, -25, 4, 54, 55, -63, 79, -25, -21},
  {-85, -68, -28, 113, -35, 33, 24, 77, -46, 114, 82, -127, -53, 11, -34, 59, -29, -34, 43, 11, -72, -111, -7, 114},
  {-13, 32, -19, 8, 9, -9, 29, 8, 46, -127, 15, 23, -31, -39, 36, 5, 9, 34, 40, -19, -15, -42, 5, 26},
  {-56, -5, 8, 47, 24, 53, 50, 59, 65, -60, 54, -59, 26, -6, -53, -48, -127, -23, -12, -35, -8, -6, 4, 87},
  {-31, -64, -6, -31, -26, -8, 12, -46, -12, -45, 70, -23, -17, 55, 127, 73, 29, -27, -1, -31, 72, 16, -79, -46},
  {-46, 32, -23, -6, 14, -21, -66, -67, -44, 49, 21, -10, -4, 48, -13, 25, 55, 10, -11, -41, 127, -110, 34, -19},
  {-32, -6, -2, 22, 25, 22, 92, -127, -27, -21, 95, -4, 74, 72, 66, -37, -72, -53, -69, -20, -52, -14, 39, 25},
  {-15, -12, -90, 106, 2, 69, -23, 57, -20, 41, -1, -10, -70, 61, -127, 12, -36, -61, 7, -55, 38, -57, 11, 63},
  {21, 19, 29, 30, -24, 72, -22, 30, -8, 3, -3, -31, 43, 5, -77, -41, -127, -29, -15, -18, 63, 7, -27, 16},
  {-1, 19, -3, 4, 6, 4, -29, -28, 38, 127, 20, -14, -36, -8, -47, -8, 7, -1, 62, -17, 36, -84, -13, -3},
  {15, 35, -15, 29, 9, 31, -18, 34, 19, 49, 13, 33, 28, -41, 70, -51, -127, 0, -21, -54, -21, -23, -15, -5},
  {54, -2, 20, 7, -109, -59, -31, 13, 96, -4, -14, -36, -66, -59, 105, 58, 31, 127, -72, 57, 97, -49, -93, -82},
  {20, 7, -79, 38, 23, -40, 59, -121, -26, 61, 127, -12, 65, 39, 79, -115, -81, 33, -53, -78, 3, -46, -10, 2},
  {21, 105, 10, 29, 2, 18, -59, 127, -16, 4, -16, 7, -99, -14, -21, 38, -49, 3, 19, 15, -84, 1, 9, -3},
  {-4, -47, 24, -6, -56, 36, 39, -46, 45, -82, 20, -83, 10, -45, 127, 46, -2, 27, 37, 10, 44, 21, -59, -13},
  {-9, 21, 41, -21, 12, 123, 33, 45, 88, 74, 35, -94, 38, -127, -98, 3, -7, -18, 34, -53, 123, -17, 14, 24},
  {17, 16, -11, -10, -20, -22, -67, -35, 15, 127, -11, 20, -8, -31, 53, 5, -45, -21, -42, 23, 121, 26, 9, -9},
  {36, 41, -17, 14, -67, -117, 14, -17, -10, -48, 44, -30, 77, -56, -127, -108, -21, 72, -39, -4, 33, -49, 38, 7},
  {-54, 49, 68, -2, 24, -41, -6, -8, 14, 1, -36, 14, 14, -92, 127, -7, -45, 6, 108, 3, -127, 32, 3, 31},
  {48, 21, -22, 118, 19, 82, 27, -20, 76, -107, -20, -46, 50, -51, 120, 5, -23, -37, -37, -91, -39, -127, 21, 53},
  {-37, -12, -8, 89, 7, -10, 10, -51, -9, 67, 54, -83, -66, 41, 16, 71, 1, -127, 68, 43, 41, 29, 70, 40},
  {-26, -21, 9, 41, 30, 36, 47, -67, 9, -30, 48, 16, -127, -28, 16, 56, 54, -79, 21, 29, -69, -1, 54, 63},
  {54, 46, -58, 34, 35, -20, -35, 95, 3, -125, -71, 40, -18, 30, 25, 18, -49, 59, -69, -127, 46, 9, 5, 9},
  {-70, 45, -69, 45, 1, 58, -89, -56, -57, 127, 22, -43, -65, 105, -106, 13, -10, -81, 7, 28, 12, -48, 56, 59},
  {-28, 33, -11, 127, 30, -2, -39, -13, 54, -21, 46, -39, -39, -32, -7, 2, -17, -63, 103, -68, -63, -21, 44, 34},
  {-45, -14, 18, 31, -6, 108, 26, -29, 36, 78, 69, -39, -20, 42, 18, 7, -127, -37, 39, -26, 63, 27, -13, -9},
  {-6, 17, -24, 6, 8, 47, 1, -35, 27, -18, 63, 12, 36, -9, 127, 5, -19, -37, -4, -81, 33, -33, 16, -39},
  {-54, 1, -74, 127, 24, 68, -26, 52, -25, -34, -34, -37, -25, -11, -41, 33, -66, -40, 36, -47, 18, -53, 5, 60},
  {-14, -3, -29, 21, -10, 42, 49, 6, -27, 49, 15, -26, 52, -48, 77, 83, 79, -7, -40, -49, 127, -42, 28, 11},
  {31, -38, 117, -22, -127, 50, -125, 28, 82, 17, -55, -35, -65, -59, -4, 90, 70, -31, 52, 83, 29, 94, -87, -74},
  {-13, 102, -49, -16, 31, 43, 12, 110, -66, -20, 17, 115, -20, -55, 91, -29, -83, 21, -6, -127, -97, -25, 48, 9},
  {-96, -50, -71, 123, 19, 96, 5, 127, -85, -27, 26, 5, -108, 65, 80, -31, -116, -105, -18, -121, -12, 11, -16, 82},
  {-13, -1, -57, 49, 76, -8, 59, -60, -27, -58, 127, -45, -16, 95, -51, 7, -20, -3, -45, -60, -23, -64, 40, 31},
  {-14, 39, -29, 4, -39, 3, -1, -27, 1, 106, -45, -26, -30, 39, 15, 2, 93, -1, -32, -31, 127, 44, -5, 17},
  {-27, -24, 90, 75, -37, 39, -34, 110, -55, 41, -13, 92, -36, 49, -118, -79, 8, -57, -38, 73, -30, 15, -51, 127},
  {-29, 11, 13, 69, -9, 80, 31, 98, 17, 64, 13, 4, -9, -18, -78, -5, -59, -36, 127, -46, -8, -27, -51, 90},
  {40, -3, -23, -54, -66, 18, 79, 80, 56, 83, 11, 3, 67, -44, -30, -127, -74, 76, -8, -35, 61, 48, -21, -49},
  {-17, -19, 19, 28, 31, 43, 25, -94, 21, 12, 76, -42, 20, 56, -38, -43, -127, -60, 2, 10, -48, 6, 92, 29},
  {-104, 7, -82, 115, -40, 113, 80, -12, -10, 101, 116, -127, 48, -4, -69, 21, -12, -79, 19, -64, 69, -77, -24, 117},
  {-61, -63, -42, -17, -1, 31, 57, -50, 14, 51, 34, 20, -16, 91, 21, 127, 30, -51, 63, 58, 56, -61, -60, -38},
  {39, -43, 56, 3, -44, 107, -35, 46, 5, 47, -36, -38, 28, -40, 72, 101, -127, 30, 20, 30, 7, 31, -16, -51},
  {-46, 69, -36, -42, -6, 42, -109, 121, -127, 124, 24, 34, -26, 46, 41, 87, 98, -37, -50, -42, -1, -16, 14, -12},
  {22, 61, -31, -57, -1, -6, -73, 4, -61, 126, -63, 97, 21, -32, 109, -43, -127, -19, -81, -98, 75, 39, 37, -53},
  {2, 71, -26, 21, -34, 75, 2, 105, -127, 70, -31, 31, 35, 47, 1, -78, -27, -1, -18, -83, -25, 30, -34, 38},
};

static const float kLayer0InProjScale[96] = {0.00178412546f, 0.00120886974f, 0.00335351587f, 0.00141919672f, 0.00326321623f, 0.0015151893f, 0.00236925436f, 0.00154637662f, 0.00391079346f, 0.00113824429f, 0.00286596827f, 0.00440651551f, 0.00218176981f, 0.00212078379f, 0.00225699157f, 0.00272568921f, 0.00361433276f, 0.00196176278f, 0.00346039166f, 0.00104874081f, 0.00174385344f, 0.0032124843f, 0.00200014445f, 0.00154522178f, 0.00167063589f, 0.00205396581f, 0.00393257197f, 0.00131019554f, 0.00249184645f, 0.00195423723f, 0.00140245841f, 0.0037483112f, 0.00204348355f, 0.00254298816f, 0.00249280059f, 0.00437715743f, 0.00283517363f, 0.00130093866f, 0.00300616957f, 0.00106301834f, 0.0033920689f, 0.00216686167f, 0.00403473806f, 0.00214041094f, 0.00103449577f, 0.00139218103f, 0.00136180851f, 0.00133798423f, 0.00189725612f, 0.00107121281f, 0.00424714433f, 0.000656953256f, 0.00475837989f, 0.00138242438f, 0.00283993362f, 0.00142010371f, 0.00452363538f, 0.00159329816f, 0.0023289707f, 0.00476036826f, 0.00266004866f, 0.00310620968f, 0.00280754874f, 0.00176161225f, 0.00337569811f, 0.00398840057f, 0.0036821384f, 0.00144639029f, 0.00325580034f, 0.0023854617f, 0.00142251665f, 0.00175109401f, 0.00230269856f, 0.00306451204f, 0.00314237247f, 0.000982177909f, 0.00289113028f, 0.00286102388f, 0.00219891197f, 0.00364998542f, 0.00268679042f, 0.00252068322f, 0.00315236254f, 0.00253224676f, 0.00260418747f, 0.00111763296f, 0.00249331864f, 0.00136832497f, 0.00353523111f, 0.00402753986f, 0.00288919988f, 0.00117321871f, 0.00129301264f, 0.00228028744f, 0.00195887359f, 0.00153373159f};

static const float kLayer0Conv1dWeight[48][4] = {
  {0.0541402251f, -0.0654971674f, 0.0837319493f, -0.0130890273f},
  {-0.178624719f, 0.0272824001f, 0.0755017698f, 0.0681091845f},
  {0.0392631665f, 0.254546642f, -0.154081821f, -0.188325882f},
  {-0.0294303577f, -0.0203158725f, 0.0442445986f, -0.0361865796f},
  {-0.286465883f, -0.0311131012f, -0.147665188f, -0.147492409f},
  {0.162299514f, -0.0548854135f, -0.0562255308f, -0.043083854f},
  {-0.0939182565f, 0.121946044f, -0.0908154771f, 0.0175965838f},
  {0.069898665f, 0.0943739042f, -0.0455079973f, -0.0651734918f},
  {-0.352392524f, 0.388531297f, -0.368984848f, 0.183261201f},
  {0.0672658309f, 0.0327142105f, 0.0616674349f, 0.0186414961f},
  {0.0826377571f, -0.146778807f, 0.00189390895f, 0.22072193f},
  {-0.0461688787f, -0.452731878f, 0.37851125f, 0.0855561122f},
  {-0.0669836253f, 0.0876501128f, 0.0509048328f, -0.101366915f},
  {0.0257782955f, 0.0242293533f, -0.0796264336f, 0.0183654167f},
  {0.0757252127f, -0.0608619899f, -0.0140233925f, 0.0558721684f},
  {0.0695680231f, -0.177671865f, 0.148682788f, -0.000696829753f},
  {-0.139510795f, 0.0618845746f, 0.399393797f, -0.370827913f},
  {-0.0705643892f, 0.103108048f, 0.0175205637f, -0.0486897789f},
  {-0.0617242604f, 0.347144127f, -0.0922705084f, -0.2914868f},
  {0.0378448144f, 0.00307293795f, 0.00357882073f, -0.033980716f},
  {-0.0415751003f, 0.130164132f, 0.0424918458f, 0.0835747644f},
  {0.185774714f, -0.236850828f, -0.0273316912f, 0.1131026f},
  {-0.115262181f, 0.0867374986f, -0.0920168534f, 0.114395373f},
  {-0.0641685799f, 0.0115108164f, 0.0765217617f, -0.0182140879f},
  {-0.035940364f, -0.0216827877f, 0.0673530102f, 0.0594551079f},
  {0.184092313f, -0.0864055604f, -0.0400048196f, -0.13575156f},
  {-0.427683949f, -0.0061762617f, 0.439727545f, 0.0116380714f},
  {-0.0557005294f, 0.0500737093f, 0.0639517531f, -0.0667066723f},
  {-0.090748772f, -0.112681516f, -0.00741896592f, 0.00674808398f},
  {0.135219455f, -0.106689848f, 0.0628560632f, -0.0954926834f},
  {-0.0280939434f, -0.0155371772f, -0.0558842979f, 0.0496702008f},
  {-0.208899036f, -0.159304827f, 0.306721598f, 0.0927293524f},
  {0.00955013465f, -0.0141393039f, 0.0830617324f, -0.144908756f},
  {-0.1335489f, 0.215488732f, -0.218624294f, -0.00618232181f},
  {0.0485313311f, -0.168845996f, -0.00879662763f, -0.0195811335f},
  {0.380375087f, 0.418677181f, 0.0771415085f, -0.114793524f},
  {0.341290951f, 0.0841372684f, -0.0603870042f, -0.281007439f},
  {-0.0983011872f, 0.0730818138f, 0.0555829927f, -0.0429978892f},
  {0.298292667f, 0.0909654349f, -0.0534123331f, -0.100718066f},
  {0.0237272792f, -0.00219594338f, -0.0447223112f, -0.0279054753f},
  {0.101841532f, -0.0555216111f, -0.300594777f, 0.179281756f},
  {0.0605412573f, -0.205359206f, 0.0984367356f, 0.18024531f},
  {0.0731693357f, 0.109774463f, -0.336025f, 0.02090309f},
  {0.0632539093f, -0.0352363996f, 0.0877022222f, -0.0887279212f},
  {-0.023143664f, -0.00567232771f, -0.0381483175f, 0.0196800195f},
  {0.0994109735f, -0.0361666307f, -0.0383413471f, 0.0226025581f},
  {0.0440372527f, -0.0284875724f, -0.0324425101f, 0.0167071912f},
  {-0.0611171685f, -0.0292294379f, -0.0267458223f, 0.0181791224f},
};

static const float kLayer0Conv1dBias[48] = {0.00389742432f, -0.0115194302f, -0.212140083f, -0.000521899783f, 0.0267845485f, 0.0243620835f, 0.00942293741f, -0.0080036046f, -0.21059294f, 0.0135411574f, -0.0206543542f, -0.0963019431f, -0.000495818618f, -0.0390044264f, -0.0296233241f, 0.0120821893f, 0.0825453103f, -0.0765664577f, -0.152523533f, -0.00842159148f, -0.205492169f, 0.0727834404f, 0.027824074f, -0.0174073447f, 0.0291151945f, -0.0241914894f, 0.0138488524f, 0.0217703339f, 0.00838262215f, 0.000898594852f, -0.000172340267f, 0.0180517994f, -0.0411167555f, 0.093739368f, -0.229282632f, 0.0422907546f, -0.0974647254f, 0.0115634054f, 0.0167306252f, 0.0146338828f, -0.00898752362f, -0.0635249466f, -0.0193265527f, 0.0115219885f, -0.0134124076f, 0.0268030297f, -0.0336448513f, 0.0277260169f};

static const int8_t kLayer0XProjQ[34][48] = {
  {4, 25, -2, 14, 25, -8, 51, 18, -28, -29, 50, 61, -37, -30, -23, 48, -33, -13, 1, -23, 11, -26, 70, -21, 2, -24, -37, -3, 20, -1, -4, -127, -23, 7, -23, -118, -101, -27, 45, -5, 40, 40, 74, 20, 3, 23, -9, 10},
  {-3, -34, 10, 16, -97, -62, -33, 14, -127, -30, -73, -75, 25, -2, 25, -65, 58, 3, 1, 14, -8, -35, -59, 29, -72, 8, -18, -51, 69, 12, 18, 23, 71, 22, 69, 57, 41, 5, -41, 14, 15, -91, -115, -10, 27, -55, 54, -18},
  {9, -2, 41, 13, -45, 60, 40, 4, 96, -5, 1, -41, 7, -58, 29, 36, -11, 36, 20, -26, 27, -33, 4, 21, 7, -12, 39, 8, -9, 16, 18, 13, -27, -15, -21, 7, -111, -18, -76, 33, 127, 20, -2, -50, -35, -21, 38, 16},
  {44, 16, 33, -29, 54, -2, -34, 11, 11, 25, 32, -45, -12, 45, -4, -67, -127, 28, -74, 3, 104, 5, -56, 13, -16, 11, -27, -68, -26, 2, -13, 26, 61, 22, -9, 8, 88, 2, -11, -31, -33, 25, 10, 5, 8, -6, 46, -6},
  {-36, 14, -60, 17, 82, 40, 13, -26, -127, 14, -18, 86, -59, 22, -19, -28, 8, 57, -18, -28, -35, -21, 48, -20, -31, -12, 23, -38, -37, 54, -61, -73, -59, 50, -60, -30, 76, -8, 110, -32, -30, -39, 35, 36, 21, -19, -35, 21},
  {-2, -10, -6, -3, -50, -49, 14, -5, -13, -10, -6, 81, 27, -21, 9, 8, 127, -12, 65, -30, -32, 33, 18, -25, 12, 9, 8, -2, 12, -9, 25, -17, -10, -19, 1, 9, -82, 24, -17, 1, 62, -3, 6, 1, -22, 43, -36, 4},
  {-29, -25, -40, 22, 94, 40, -16, -29, -127, 21, -65, 94, -19, -18, -5, -10, 36, -9, -4, -5, -66, 11, 55, -9, -36, -4, 5, 2, -48, 14, -38, -64, -53, 84, -40, -15, 35, 18, 120, -16, -10, -101, -18, 52, -22, -9, -53, 32},
  {6, 13, 4, 16, 56, 79, -4, -14, 22, 18, 10, -104, -30, 18, 2, -11, -127, 11, -109, 37, 11, -37, -13, 27, -11, -6, -16, 9, -9, -14, -12, 61, 19, 25, 10, -12, 105, -41, -4, 21, -59, 5, 11, -26, 25, -57, 38, -21},
  {52, -4, -30, -26, -107, -63, -24, 22, 113, 2, 16, -71, -21, -19, 10, -29, -56, -10, -13, 27, 105, 13, -36, 28, 31, 33, -75, -37, -82, -110, 54, 127, 47, -2, 69, 27, 16, 92, -45, -6, -22, 51, -10, 27, 6, 89, 26, 5},
  {60, 2, -9, -22, -127, -12, -11, -27, 105, -9, 10, 0, 14, -31, 21, -6, 16, 10, 49, -15, 20, 16, 4, 9, 20, 7, -107, 12, -45, -35, 47, 70, 49, -14, 63, 57, 85, 61, 33, -20, -17, 15, -16, 24, 8, 24, 34, -22},
  {-6, 12, -89, 21, 127, 25, -11, 0, -30, 27, -19, -64, -2, -63, -11, -6, -25, -13, -117, 22, -72, -2, 28, 24, -7, 22, 49, 10, 45, -43, -23, -39, 43, 27, -40, -35, 11, -33, -16, 76, -76, -26, 6, -53, -5, -10, 14, -40},
  {-38, -37, -13, 1, 108, 20, -30, 1, -44, 11, -32, 6, 11, 12, -9, 16, 60, -9, -14, -11, -12, -4, -21, 20, -23, 21, 100, 26, -10, -3, 0, -62, 24, 41, -37, -47, -127, 7, -51, -15, 21, -29, -11, 0, 7, 11, -11, 2},
  {-11, -36, 11, -3, 95, 8, -35, 7, -18, 11, -17, -55, -2, 34, -9, -3, 42, -8, -47, 5, 9, 4, -37, 12, -8, 7, 127, 15, -14, -6, 7, -46, 33, 26, -3, -66, -117, 0, -75, -7, 10, -4, 11, -12, 13, 18, 24, 7},
  {10, -29, -31, -12, 127, 5, -37, 29, -56, 40, -59, -39, 26, -22, -7, -13, -6, -20, -74, 6, 5, 59, 14, 9, -5, 9, 65, 17, -3, -41, 6, -43, 6, 53, -35, -47, -51, 21, -22, 16, -34, -69, -12, 5, -13, 14, -7, -2},
  {32, 28, 6, -4, -27, 16, 12, -8, 13, 8, 9, -1, 1, -27, -13, 1, 127, -89, 41, 29, -49, 44, -38, 31, 42, -29, -9, 27, 61, -9, 1, -26, -39, -35, 9, -2, -87, -7, -56, 48, -17, -2, 31, -98, -15, 38, -45, -21},
  {37, -8, -15, -3, 96, 10, -37, -19, 5, 6, -4, -127, 16, 18, 10, -39, -83, -6, -102, 6, -18, 0, -16, 37, -47, 15, 48, 15, 36, -45, -16, 1, 7, 33, -24, -34, 6, -32, -45, 57, -98, -11, 42, -55, -10, 3, 5, -31},
  {54, 61, -1, 6, 108, 18, 9, 13, -58, 5, -36, 4, 37, -3, 11, -11, -93, 51, -127, -42, -119, 54, 77, -49, 10, -32, 18, -65, 93, -43, -56, 53, -43, 57, -23, -19, 75, -46, 40, -20, -86, -31, 55, -21, -36, -51, 12, -75},
  {9, 58, 40, -3, 60, 5, 33, 1, -91, -26, 3, 32, 13, -39, 31, -9, -48, 43, -40, -1, -127, 33, 46, -41, 51, -54, 38, -63, 98, 73, -70, -28, -51, -30, -32, -23, -26, -66, 2, -23, 55, -20, 36, -14, -11, -82, 35, -54},
  {-7, 35, 26, 31, 66, 83, 50, -6, -102, 14, -77, 28, 5, 61, 4, -21, 127, -42, 28, 5, -43, 108, 20, 16, -11, -56, -23, 18, 86, 82, 30, -26, 64, 75, 24, 13, 11, -28, 46, 20, -28, -64, 1, -26, 27, -17, 17, -3},
  {16, 0, -10, -3, 14, -61, -55, 23, 48, -6, -4, -127, 16, -14, -56, -108, -92, -76, -75, -76, -96, 49, -44, -79, 39, 74, -5, -1, 40, -33, 13, 11, 6, 22, -45, -26, 44, 17, -10, -52, -75, -30, 44, 6, -22, 20, -50, 39},
  {-20, -23, -19, 9, -127, 24, -3, 24, 82, -45, -12, 20, 25, 10, 11, 41, 12, 25, 30, 13, 27, -58, 31, 41, -32, -3, -29, -34, -73, -57, -18, -4, 5, -68, 74, 1, -8, 42, -35, -4, 15, -11, -27, -3, -1, 21, 25, -5},
  {-13, -3, 6, -5, 0, 17, 22, -11, -45, -11, 39, 115, 22, -10, 3, 44, 113, 35, 127, 10, 51, -23, 16, 16, 15, -22, 22, -2, -1, 26, -34, -46, -12, -35, -15, 23, -88, 7, 4, 1, 46, 42, -11, 1, 20, 36, -7, -12},
  {-13, -8, 44, 12, -127, 5, -17, 35, 60, -34, 5, 40, 2, 35, 9, 32, -33, 51, 24, -2, 48, -71, -12, -29, -27, 12, -5, -34, -60, -1, -47, -9, -38, -73, 28, 6, -46, 14, -15, -15, 53, -5, -31, -24, 12, 15, -15, 25},
  {22, -3, 3, 6, 11, 19, -14, -8, 37, 18, -14, -127, -3, 24, 2, -24, -100, -14, -100, 14, -33, 4, -21, 21, -17, 8, -10, 16, 6, -40, 19, 53, 17, 26, 25, -18, 86, -17, -12, 29, -43, -26, 12, -13, -8, -29, 28, -23},
  {69, 26, -20, -17, 127, -79, 8, -16, -61, 4, 23, -65, 15, -16, -9, -24, -89, -9, -88, -51, -87, -14, 10, -29, -7, 18, 56, 5, 76, 1, -11, -31, -9, 8, -45, -23, 45, -22, -11, 0, -96, 11, 74, -7, 11, -24, 1, -46},
  {-1, 1, 22, -13, 127, -25, -7, 9, -69, 21, 14, -22, 0, 1, -11, -2, -33, 5, -64, 5, -20, 2, 11, -32, -2, 8, 102, -9, 75, 12, -23, -32, 1, 21, -33, -34, -73, -52, -77, -41, 5, 8, 47, -12, 4, -18, -5, -21},
  {-5, 46, -17, 23, -127, 42, 15, 16, 57, -4, 57, -43, -54, -5, -6, -14, -53, 3, 6, 24, 68, -67, -64, 23, 13, 3, -61, -16, -2, 17, -8, 90, -23, -18, 74, 22, 72, -9, 11, 25, -26, 60, -57, -49, -25, 0, 28, 6},
  {-8, 31, 11, 7, -127, 33, 29, -2, 20, -14, 13, 78, -2, 22, 21, 30, 3, 12, 73, -4, -10, -2, 16, -22, 8, -16, -93, 4, -5, 12, -2, 37, -27, -50, 36, 44, 90, 7, 58, -21, 41, 8, -20, 7, 15, -18, -7, 7},
  {-2, 24, -16, -9, -87, 39, 25, -28, 18, 3, 16, 36, 6, 10, 2, 4, 2, 2, 36, -19, -9, 3, 25, 0, -8, -12, -98, 14, -1, 15, 1, 42, -19, -23, 14, 46, 127, 7, 39, -10, -11, -2, 17, -12, -10, -16, -13, -14},
  {-5, 22, 50, 11, -127, -3, 23, -4, 76, -7, 56, 20, -8, 6, 4, -7, -69, 13, 25, -3, 8, -56, -29, 1, -3, -15, -90, -19, -1, 57, -20, 36, -35, -54, 9, 32, 85, -10, 47, 17, 0, 50, -6, -7, -7, -1, 11, 9},
  {23, 43, 101, -51, 30, 48, 53, -19, -72, -10, 56, 88, -11, -96, 30, -56, 115, 75, 72, 43, 82, -1, -55, 49, 127, -70, -9, 17, 23, 113, -27, -7, -2, -52, 48, 23, -56, -41, 27, 52, 71, 44, -54, 47, 48, 7, -23, -1},
  {-15, -10, -5, -15, -63, 34, -33, -3, 43, 11, 3, -97, -18, 29, 7, -56, -99, 5, -19, 1, 27, -31, -35, 25, 29, 8, -77, 14, -25, -49, 30, 112, -19, 3, 50, 18, 127, 42, 25, 40, -43, 18, 11, 8, -30, 7, 47, 26},
  {-33, -107, 10, -1, -97, -58, -81, 108, 127, 32, 27, -95, -41, 29, -37, -52, -88, -28, -7, 113, 121, -88, -46, -13, 52, 11, -1, -9, -112, -101, 52, 38, 34, 23, 76, 22, -4, 40, -37, 2, -7, 86, -22, -14, 19, 127, 16, 49},
  {31, -42, -25, 11, -56, -21, -20, 29, 72, 6, -13, 13, -12, -54, -28, 12, 79, -59, 54, 30, 127, -42, -32, 54, -10, 16, -39, 10, -79, -15, 12, -26, 44, 17, 7, 29, -35, 48, 19, 15, 13, 19, -83, 30, -1, 89, -54, 51},
};

static const float kLayer0XProjScale[34] = {0.00606086059f, 0.00563215045f, 0.00335818925f, 0.00342740095f, 0.00236757612f, 0.00453183893f, 0.00246138778f, 0.00353756524f, 0.00153307163f, 0.0020622178f, 0.00177244132f, 0.00293987175f, 0.00358645478f, 0.00282664923f, 0.00299383327f, 0.00235595228f, 0.00152465992f, 0.00199311366f, 0.0029216113f, 0.00302463234f, 0.00276356563f, 0.00365202292f, 0.00296467682f, 0.00391038414f, 0.00186481525f, 0.00247148518f, 0.00173085392f, 0.00294372649f, 0.00432669604f, 0.00276513584f, 0.00208750996f, 0.0023086716f, 0.00128946092f, 0.0020536338f};

static const int8_t kLayer0DtProjWeightQ[48][2] = {
  {-127, 70},
  {30, 127},
  {-127, 82},
  {-63, 127},
  {81, -127},
  {-127, 83},
  {-127, 88},
  {127, 40},
  {53, 127},
  {127, 28},
  {-127, 6},
  {-62, 127},
  {-127, 47},
  {127, 67},
  {-127, -52},
  {95, -127},
  {-82, 127},
  {-24, -127},
  {-100, 127},
  {-84, 127},
  {-127, 56},
  {-127, 93},
  {127, -77},
  {127, 61},
  {-104, 127},
  {-127, 74},
  {127, -84},
  {-53, -127},
  {-84, -127},
  {-49, -127},
  {-127, 121},
  {127, -12},
  {-127, 98},
  {-127, 2},
  {-127, 126},
  {127, -3},
  {127, 13},
  {-29, 127},
  {-3, 127},
  {-26, 127},
  {-127, 22},
  {-127, -24},
  {-127, 115},
  {-19, 127},
  {-127, 76},
  {-7, 127},
  {-127, -119},
  {-54, 127},
};

static const float kLayer0DtProjWeightScale[48] = {0.00158832781f, 0.00145588315f, 0.00430684583f, 0.00418051658f, 0.00273062731f, 0.00178201974f, 0.00130408048f, 0.000585578673f, 0.00578807201f, 0.00122055854f, 0.00410152599f, 0.00967849232f, 0.00125763379f, 0.00135116396f, 0.00273780385f, 0.000576568069f, 0.00496613653f, 0.00212305249f, 0.00890325662f, 0.00176749064f, 0.00374066294f, 0.00447175885f, 0.000772688072f, 0.00209616683f, 0.00261031627f, 0.00397190172f, 0.00363853574f, 0.00260719797f, 0.00231116056f, 0.0018287542f, 0.0016822929f, 0.00453007221f, 0.00425270712f, 0.00462412462f, 0.00572608598f, 0.0064093098f, 0.0041631083f, 0.00224426971f, 0.0054517719f, 0.00229921006f, 0.00413480215f, 0.00572045008f, 0.00286355801f, 0.00299358042f, 0.00303158956f, 0.00428782776f, 0.00210623047f, 0.00383358076f};

static const float kLayer0DtProjBias[48] = {0.0270984545f, 0.18697539f, 0.407323301f, 0.0649558008f, -0.189347669f, 0.175968662f, 0.30211556f, -0.162733093f, -0.591556847f, -0.0120482109f, 0.0482734591f, -0.228427202f, 0.302502006f, -0.0276263431f, 0.506508768f, 0.0779828653f, 0.0880571306f, 0.396528244f, 0.304154605f, -2.85734241e-05f, 0.506389022f, -0.0884849578f, 0.193798199f, 0.11336267f, 0.270058244f, 0.367631257f, -0.412070572f, 0.34652555f, -0.0386773236f, 0.120049268f, 0.276193827f, -0.0917048231f, 0.15642035f, 0.416913271f, 0.578506827f, -0.682529628f, -0.699235797f, 0.282282442f, -0.0219695028f, 0.00180715462f, 0.468876123f, 0.0596264377f, 0.242048115f, -0.101705059f, 0.294767857f, 0.430689484f, 0.123890549f, 0.22077176f};

static const int8_t kLayer0OutProjQ[24][48] = {
  {-1, -7, -60, 13, 11, -5, -23, 9, -71, 7, -33, -127, -9, 0, 26, 38, 59, 21, 0, 20, 29, -7, 30, -3, 22, -20, 65, 5, 19, -21, -16, 42, 6, -60, 27, 17, -47, 12, -37, -15, 4, -8, -42, 6, -34, -10, -23, -5},
  {10, 8, 48, 18, 40, 15, -15, -26, 8, 19, 28, 10, 21, -21, 2, -14, 37, -15, -18, 7, -38, -62, -20, 2, -14, 14, -60, 9, 2, -12, 5, 36, 5, 5, 16, 5, 15, 38, 20, 18, 127, 25, -29, -11, -5, 33, 8, -2},
  {-14, -13, -118, 1, 4, -39, -31, 7, -8, -35, -40, -114, -25, 2, 4, 56, 28, -48, -22, 17, 0, 40, 35, 4, -12, -16, 127, -25, -11, 27, 21, 68, 10, -15, 67, 24, -75, 3, -7, -32, -20, -44, 121, -2, -20, -58, -47, 13},
  {-12, -2, -52, 1, -10, -4, 4, 14, -96, -5, -32, 88, -11, 10, -13, -8, -22, 36, 10, -9, -42, 113, -24, -67, -1, -56, -48, 21, 34, 66, -12, -127, -34, -11, -46, -97, -14, 1, 26, 55, 22, -18, 10, -15, 17, 19, 15, 3},
  {-18, 6, -6, -14, 7, 3, 16, 6, -127, -14, -21, -61, -1, -42, 11, 31, 69, 69, -7, -62, 46, 106, 16, 3, 46, 1, -46, 2, 56, 3, 1, -7, -59, 6, 14, 12, 17, -21, 6, -37, 35, -44, 50, 6, -6, 12, 12, -3},
  {16, 7, 13, 16, 6, -10, -34, -37, -8, 11, 55, 53, 7, -21, 15, -127, 40, 78, 52, 39, 39, -57, -5, -24, -22, 40, -10, -12, -13, 22, -13, -67, -9, 65, 37, -118, 1, 25, 46, -7, 16, 49, 46, -7, 26, 9, 22, -42},
  {-17, 10, 56, -1, -33, 54, -30, -11, -41, 8, 16, -11, -16, 23, 64, 46, -14, 57, -14, 12, 23, 48, 10, 13, 1, -36, -127, 9, 35, 3, 14, 9, 0, -16, 18, 51, 43, 4, 7, -7, 38, 14, 19, -7, -11, 22, 19, 13},
  {-15, -3, -63, 8, 31, -33, 59, -36, 87, -11, 9, 127, 10, -36, -17, -24, -37, 59, -26, 4, 33, 65, -13, -9, -50, 36, -17, 17, -60, -20, 0, -25, -2, 35, 83, -2, 51, -8, 60, 37, 30, -25, -60, -8, 14, 26, 2, -16},
  {-2, -34, 21, 16, -32, 13, -25, 8, -84, 33, -75, 114, -48, 39, -22, 64, 127, 57, 20, -14, 20, 29, -8, -55, 19, 59, -124, -21, 3, -3, -14, -49, -83, -127, -75, 18, 27, 6, -50, -5, 34, -79, 91, 44, 34, -64, -18, -15},
  {1, 6, -6, 5, 1, 32, 41, -11, 82, -7, -1, 74, -19, 58, -27, -3, -127, -24, -76, 2, 8, -43, -37, -12, 25, 45, -7, -19, 83, -63, -5, 113, -59, 41, 14, 57, 77, -15, 37, -1, -13, 6, -80, -4, 22, -78, 9, -21},
  {-5, -43, 52, 22, -127, -7, -25, 10, 51, 48, -14, -25, -7, 0, -29, 5, 46, -57, 16, -38, 25, -12, -16, 9, -2, 63, -76, 13, 2, -22, 37, -92, -12, -56, -37, -116, 42, 21, -63, 18, -21, 24, -30, -31, -15, 24, -44, 30},
  {-5, 25, 74, -8, 43, 4, 34, -7, 125, -24, 0, -35, 34, -63, 26, -62, -86, 29, -3, -26, 26, -20, 37, 86, -38, 11, 37, 14, -35, -44, 2, 73, 101, 123, -78, 88, -15, -4, 112, -21, -106, 12, -127, 13, -6, -11, 88, -29},
  {3, -15, -72, 23, 62, 31, -7, -8, 32, 4, -48, -33, -7, 15, 14, -2, -63, -70, -8, 5, -52, -24, 36, -94, -11, -127, 47, -1, -15, 93, 6, -2, 32, 2, -54, -5, -74, 15, -13, -2, -21, 37, -10, 5, -4, -2, 5, 34},
  {21, -27, -26, -5, 11, -14, 31, -1, -45, -2, 96, -121, 15, 27, 32, 38, 102, 3, 127, -1, -43, -49, 15, -12, -12, -4, 11, 21, -36, 34, -34, 20, 54, 0, 71, 35, -43, -3, -24, -28, -69, 97, 86, 12, 1, -25, -27, -4},
  {4, -5, 13, -8, 28, -25, 12, -8, 127, 9, 49, -52, 4, -64, 27, 51, -125, -9, -87, -5, -55, -35, -22, 60, -18, -71, 40, 34, -66, 12, 23, -15, 2, 4, 20, -3, -7, -4, -54, 10, -39, 66, 47, -15, -16, 85, 32, 37},
  {-8, 6, -115, 0, -8, 32, -23, 20, 68, 3, 41, 40, 17, -28, -56, -16, -83, -112, -88, 18, -127, 7, -27, 35, 5, -63, 92, 31, -14, 12, 24, 12, 16, 58, 90, 27, -37, 18, -28, 29, 16, 30, 29, -24, -9, 18, -32, 28},
  {-21, 2, -41, -11, 27, 38, 29, 6, 54, -15, -29, 9, 14, 10, 37, 37, -41, -87, -59, 12, 44, -18, -7, 31, -26, -15, 40, 3, 62, -45, 21, 68, -75, -9, 32, 107, -2, -15, -23, -15, -127, -11, 25, 25, 3, 18, -10, 32},
  {1, -13, -127, 9, 43, -32, 11, -1, 62, -5, -41, 50, -4, 43, -38, -7, -61, -31, -8, 41, 41, -17, -1, -49, 11, -28, 108, -10, -5, 26, -18, -35, 30, 33, -51, -42, -50, 4, -11, 28, -25, -18, -108, 9, -17, -35, -32, -22},
  {22, 3, -22, -21, 39, 37, -9, 31, 0, -6, 5, -40, -18, -30, 3, -75, -11, -15, 32, 25, 34, -29, -15, -10, 36, -53, 49, 20, 45, 13, -6, 26, 3, 86, -13, -5, -127, -8, -42, 31, -5, 20, 63, -8, 14, 9, -12, -19},
  {-12, -16, -120, 2, -22, -22, -15, 13, -77, -15, -7, -26, 5, 25, -35, 50, 38, -23, -44, 27, -54, 23, 23, 15, -9, 25, 127, -34, 20, 5, 5, 62, 22, 0, 24, 34, -18, -6, -18, -31, 12, -35, 12, 6, -28, -62, -16, -4},
  {-12, 7, 10, 2, -73, 49, 18, -20, 14, 25, 1, -41, -34, 102, -18, 62, -1, 21, -40, 6, -55, 33, -41, -26, -15, -10, -108, -10, -6, -69, -3, 80, -72, -14, -39, 32, 127, 10, 6, -12, 31, 18, -33, -7, 6, -20, -36, 19},
  {-2, 19, 41, 5, 5, -12, 3, -13, -11, -37, -52, -32, 26, 17, 1, -26, -35, -27, 56, -37, 53, -16, 10, 24, -39, 54, 127, -17, -10, 0, 3, -26, 5, -45, -87, -73, 16, 5, 25, -24, -42, -64, -66, 11, 9, 18, -8, -5},
  {13, 21, 7, -21, 32, -37, -34, 23, -66, -39, 33, -54, -16, 36, -56, -41, 10, 23, 68, 27, -47, -35, -6, 22, 127, 32, 51, -45, 24, -35, 35, -6, 56, 44, -30, -36, 28, -11, 14, 36, 84, -20, -122, 10, -15, -54, -15, -2},
  {-14, 13, 114, 3, -6, 35, -24, -24, -65, 10, 25, -3, -8, -12, 40, 33, -16, 103, -86, -5, -28, 52, 7, 48, -12, -12, -127, -1, 0, -30, 15, 22, -54, -19, 48, 29, 58, 7, 18, -16, 16, 3, 61, 6, 17, 27, 55, 2},
};

static const float kLayer0OutProjScale[24] = {0.00327099324f, 0.00399746746f, 0.00373753766f, 0.00355751882f, 0.00363008748f, 0.00298454007f, 0.00493365899f, 0.00375713594f, 0.00237898389f, 0.00296395109f, 0.00446182908f, 0.00228375755f, 0.00347438361f, 0.00264030788f, 0.00321484823f, 0.00317983539f, 0.00329649425f, 0.00435311813f, 0.00356272748f, 0.00381847494f, 0.00330865267f, 0.00313634705f, 0.00259640045f, 0.0043366584f};

static const float kLayer1PreNormWeight[24] = {0.701221466f, 0.885692239f, 0.989843309f, 0.994813621f, 0.839485109f, 0.860070765f, 0.837074339f, 1.05095184f, 0.931825399f, 1.1005255f, 1.02719295f, 0.862391055f, 1.13255954f, 1.22118616f, 0.901196003f, 1.05603731f, 0.839857459f, 0.910850585f, 0.753060341f, 0.921348989f, 0.997311771f, 1.21802402f, 0.742328584f, 0.890672743f};

static const float kLayer1PreNormBias[24] = {0.253207058f, 0.191675708f, 0.116676681f, -0.0121893557f, 0.121892259f, -0.13427794f, 0.134837925f, -0.102831773f, 0.216626093f, -0.0899335966f, 0.0626311153f, -0.0369101204f, 0.152944624f, -0.101960175f, -0.33787486f, -0.241161689f, -0.0267018396f, 0.0773759931f, -0.0753707886f, 0.187589899f, 0.0865590349f, -0.00637058867f, 0.300034463f, -0.0478182547f};

static const float kLayer1PostNormWeight[24] = {0.62701869f, 1.00806785f, 0.756919265f, 1.00827706f, 0.589279294f, 0.855291665f, 0.737005055f, 0.913570166f, 1.0383271f, 0.819007218f, 1.33222628f, 0.963462293f, 0.786071241f, 1.45656979f, 1.05940092f, 0.768232048f, 0.848871648f, 0.629253447f, 1.14263237f, 0.72046715f, 0.591875196f, 1.47150338f, 1.13239646f, 0.636772513f};

static const float kLayer1PostNormBias[24] = {-0.0987568498f, -0.0886268094f, -0.0261713564f, -0.0175415687f, 0.00993446447f, 0.0964293852f, 0.0111735864f, 0.0189820547f, 0.0183536913f, 0.0280685667f, -0.037511602f, 0.0228568614f, -0.0498639755f, 0.0148881264f, 0.0774343759f, 0.0146625731f, 0.0101743191f, -0.0827485844f, 0.0568375178f, -0.0177670643f, 0.0142883277f, 0.0460532345f, -0.0903298929f, 0.0494258925f};

static const float kLayer1ALog[48][16] = {
  {0.033872623f, 0.51916945f, 1.06069577f, 0.703270495f, 1.62183654f, 1.42531621f, 1.89529729f, 1.80577505f, 2.03338575f, 2.12516689f, 2.17627668f, 2.16154099f, 2.36163712f, 2.40634656f, 2.49270844f, 2.53906512f},
  {-0.0588544086f, 1.09375274f, 1.47347236f, 1.15417898f, 1.93592298f, 1.59336317f, 1.88416493f, 2.18385768f, 2.09806252f, 2.29269338f, 2.52436996f, 2.26456547f, 2.22702813f, 2.39314127f, 2.45941114f, 2.72869301f},
  {0.491901517f, 0.925301194f, 1.22342014f, 1.67705488f, 1.47319281f, 1.8972857f, 2.18242526f, 2.17865181f, 1.81865263f, 2.29944849f, 2.2500658f, 2.78554535f, 2.08132625f, 2.75093699f, 2.19675136f, 2.35563612f},
  {0.136663765f, 0.68248564f, 1.64473414f, 0.745405555f, 1.96722758f, 1.43241882f, 2.01675081f, 1.52506363f, 2.20254374f, 1.9628967f, 2.0097754f, 1.65110362f, 2.84956026f, 2.454041f, 2.89667678f, 2.79204679f},
  {0.377547443f, 0.797392964f, 1.32099771f, 1.130144f, 2.09909153f, 1.93374979f, 2.09639239f, 2.00744724f, 2.38466167f, 2.47023439f, 2.63125849f, 2.38604116f, 2.70146441f, 2.56259656f, 2.77584267f, 2.63183665f},
  {0.244763315f, 0.906708717f, 0.178331852f, 1.2503866f, 1.28940821f, 1.49671769f, 1.71723759f, 2.08153701f, 2.03445983f, 2.21666932f, 1.95491278f, 2.1943748f, 2.04702353f, 2.38494253f, 2.1775043f, 2.46581602f},
  {0.887509763f, 0.451451063f, 0.883448064f, 0.638696432f, 1.89485729f, 1.31166434f, 1.98843098f, 1.6965903f, 2.06660318f, 2.04214215f, 2.10716844f, 1.99659145f, 2.74907136f, 2.35287499f, 3.07315898f, 3.1084106f},
  {0.117871977f, 0.635577738f, 1.43255866f, 0.61826545f, 1.97429621f, 1.23761404f, 1.86325681f, 1.9529537f, 2.08977413f, 2.10574818f, 2.2703352f, 2.31778765f, 2.41919875f, 2.41207671f, 2.53815985f, 2.57504773f},
  {0.259282082f, 1.15372074f, 1.5936985f, 1.12431431f, 1.97369778f, 1.30595446f, 2.02482629f, 2.10788894f, 2.09907913f, 2.48393416f, 2.37426233f, 1.84277463f, 2.73308969f, 2.41790628f, 2.78660607f, 2.79167485f},
  {0.0643852428f, 0.655695796f, 1.14604032f, 0.626427472f, 1.99785161f, 1.27885425f, 1.84618759f, 1.8954066f, 2.29047084f, 2.17844272f, 2.38793564f, 1.770702f, 2.55029798f, 2.45187879f, 2.71731067f, 2.78034306f},
  {-0.0430997275f, 0.390429467f, 1.30885565f, 0.61890769f, 2.051826f, 1.35310984f, 1.84343469f, 1.8100549f, 2.2414f, 2.20874166f, 2.48148036f, 2.11485696f, 2.76023269f, 2.35900259f, 2.91522861f, 2.97478509f},
  {-0.342999518f, 0.732960105f, 0.848018348f, 1.21392667f, 1.79170573f, 1.7255739f, 1.97234738f, 1.73976839f, 2.20564723f, 2.17088652f, 2.07975101f, 2.08299065f, 1.92721689f, 2.163203f, 1.9611733f, 2.34352756f},
  {0.216719061f, 1.01343322f, 1.53179586f, 1.19108033f, 1.93929958f, 1.6123569f, 1.6084938f, 1.98861587f, 2.00531006f, 2.17420697f, 2.24923801f, 2.34549356f, 2.49506378f, 2.40050745f, 2.59289598f, 2.57053304f},
  {0.151877463f, 0.403477371f, 0.933993876f, 0.634664059f, 1.64359665f, 1.35956931f, 1.91301918f, 1.84625423f, 2.04766273f, 2.13032818f, 2.20700216f, 2.19787216f, 2.36943412f, 2.41088367f, 2.49107194f, 2.54125023f},
  {0.676959932f, 1.27673435f, 1.84327793f, 1.74963391f, 2.47959232f, 1.45586669f, 2.12403846f, 2.22804904f, 2.55287266f, 2.66260552f, 2.75885987f, 2.23087096f, 2.86191344f, 2.34684181f, 3.02351713f, 3.16031456f},
  {-0.170158505f, 0.209572017f, 1.18952417f, 0.568718731f, 1.68767536f, 1.51092732f, 1.84666193f, 1.67164719f, 2.07039022f, 2.17154503f, 2.10694218f, 2.052459f, 2.36618376f, 2.40753698f, 2.49125004f, 2.54610038f},
  {0.000978227472f, 0.613306761f, 1.00821364f, 1.20606673f, 1.60003746f, 1.54292917f, 1.81625402f, 1.89129078f, 2.03684068f, 2.10557938f, 2.19103169f, 2.24013019f, 2.34294295f, 2.40989399f, 2.47729945f, 2.53686881f},
  {-0.237355724f, 0.934872866f, 1.12724686f, 1.20940387f, 1.57026863f, 1.6989876f, 2.13050914f, 1.99126124f, 1.93803585f, 2.19057369f, 2.36852145f, 2.25228429f, 2.52290726f, 2.40558314f, 2.59570861f, 2.56769514f},
  {0.244789496f, 1.41685164f, 1.09264374f, 2.20189881f, 1.64393377f, 2.40910196f, 2.61588454f, 2.56094718f, 2.48714924f, 2.30790257f, 2.61681199f, 2.93929386f, 2.3945601f, 2.91550851f, 2.51252627f, 2.96322227f},
  {0.00334417052f, 0.863838196f, 1.22071671f, 1.28378177f, 1.60097003f, 1.72137928f, 1.96503365f, 2.11658573f, 2.1441803f, 2.33155441f, 2.30078411f, 2.37049341f, 2.06965399f, 2.47488952f, 2.22709084f, 2.44724035f},
  {0.00634465367f, 0.389739007f, 1.0574007f, 0.666311502f, 1.58689487f, 1.5534128f, 1.8136301f, 1.85865903f, 2.02485466f, 2.12520742f, 2.19121647f, 2.22309113f, 2.34603214f, 2.41196418f, 2.47581148f, 2.53469825f},
  {0.260409892f, 1.31348014f, 2.01692104f, 1.78183365f, 1.80467248f, 1.94990885f, 2.13352275f, 2.24012804f, 2.26241374f, 2.30860567f, 2.470716f, 2.59050035f, 2.59365082f, 2.52227211f, 2.60410643f, 2.41536641f},
  {-0.0364932232f, 0.630485237f, 1.19593537f, 0.804006279f, 1.77028906f, 1.59846973f, 1.83124459f, 1.89744079f, 2.03894329f, 2.12512183f, 2.20186925f, 2.23500133f, 2.348979f, 2.4110992f, 2.47679377f, 2.53522134f},
  {0.298055351f, 0.0418090932f, 0.888218105f, 0.895728111f, 2.11855078f, 1.21739888f, 2.04528689f, 1.80814445f, 2.18171453f, 2.29249573f, 2.42520905f, 1.94398725f, 2.6240077f, 2.45375371f, 2.77648377f, 2.72641349f},
  {-0.425107926f, 0.637328863f, 1.12567365f, 1.01584518f, 1.75548303f, 1.42136538f, 1.77452636f, 1.90238655f, 2.01466608f, 2.08493972f, 2.19406438f, 2.35787439f, 2.37214351f, 2.41081691f, 2.48844385f, 2.53987598f},
  {0.530166388f, 1.41134548f, 1.30581129f, 1.48074007f, 2.01094055f, 2.2799263f, 1.86057341f, 2.5243926f, 2.01352215f, 2.16163731f, 2.53843379f, 2.64732575f, 1.96757865f, 2.52795553f, 2.24286008f, 2.71019053f},
  {0.175885007f, 0.723423064f, 1.57997227f, 0.898801565f, 1.68619955f, 1.88683486f, 1.72716391f, 1.9069103f, 1.85722053f, 2.15318322f, 2.09542084f, 1.9673897f, 2.65348005f, 2.43217635f, 2.69497991f, 2.22742987f},
  {-0.085112907f, 0.509734571f, 1.13221192f, 0.767894387f, 1.59296012f, 1.38597584f, 1.79156661f, 1.82630777f, 2.01374602f, 2.11010361f, 2.18788028f, 2.20014501f, 2.34391832f, 2.40645432f, 2.47365475f, 2.53387499f},
  {-0.365472198f, 0.359710753f, 1.19894958f, 0.46517992f, 1.86819363f, 0.89107126f, 1.25212741f, 1.50591934f, 2.2002759f, 2.18318295f, 2.42043829f, 1.56911993f, 2.29696488f, 2.40189552f, 2.50713992f, 2.61523104f},
  {-0.211774886f, 0.671477437f, 1.39792609f, 1.22973692f, 1.67789209f, 1.55496037f, 1.96976125f, 2.00039363f, 2.00393319f, 2.30353069f, 2.16749811f, 2.56429839f, 2.57069921f, 2.65787983f, 2.57869411f, 2.40878296f},
  {-0.163175061f, 0.42598781f, 0.847666323f, 0.205956399f, 1.69707835f, 1.37998486f, 2.10766578f, 1.38288653f, 2.1775372f, 2.35022306f, 2.37760901f, 0.980197608f, 2.54516029f, 2.51590586f, 2.71078348f, 2.8534596f},
  {0.0205482785f, 0.939660788f, 0.783210099f, 1.30498552f, 1.55970299f, 1.57818413f, 2.02247953f, 1.94809079f, 2.09795666f, 2.19766617f, 2.02768135f, 2.26318836f, 2.22407866f, 2.44280505f, 2.35774922f, 2.5496335f},
  {-0.0933841541f, 0.659163475f, 0.863907933f, 0.67516768f, 1.5396893f, 1.44133675f, 1.67537999f, 1.7542336f, 1.99046719f, 2.01980472f, 2.13910651f, 2.09491372f, 2.38734865f, 2.33873415f, 2.55173969f, 2.58365917f},
  {-0.502821863f, 0.831359327f, 1.08283353f, 0.938222408f, 1.88249075f, 1.46225047f, 1.64173567f, 1.80476654f, 2.02754736f, 2.1177392f, 2.23624134f, 2.24824095f, 2.39790916f, 2.40842843f, 2.49457073f, 2.53564334f},
  {-0.437694907f, 0.387217969f, 0.557388544f, 0.779722273f, 0.875397742f, 1.68782628f, 1.63282573f, 1.25438845f, 1.87470782f, 2.16173601f, 1.57340729f, 2.23661041f, 1.65763664f, 2.3761878f, 1.62518406f, 1.68764603f},
  {0.333321244f, 0.590865433f, 1.50607634f, 1.14871967f, 1.57861757f, 1.93427205f, 1.99490452f, 2.29053783f, 2.46951604f, 2.52033067f, 2.46892166f, 2.60097837f, 2.52142882f, 2.45053434f, 2.8019805f, 3.2723918f},
  {0.813117802f, 1.13968503f, 1.95063794f, 1.77790093f, 1.99035776f, 2.24103427f, 2.62067914f, 2.80629253f, 2.90791631f, 2.8851366f, 3.31767678f, 3.2973001f, 2.76136875f, 3.23008156f, 2.83288288f, 2.82426f},
  {1.23428297f, 0.976661205f, 0.582293868f, 2.31132436f, 1.15840518f, 1.79532957f, 1.70681703f, 2.24476218f, 2.53443933f, 2.33229899f, 2.55744648f, 2.64904642f, 1.87649453f, 2.73295379f, 1.96289229f, 2.44548368f},
  {0.107636265f, 0.494485497f, 1.20029271f, 0.90225935f, 1.83576763f, 1.80704689f, 2.32977152f, 1.85924423f, 2.09932733f, 2.27535272f, 2.09948492f, 2.08730483f, 2.38825393f, 2.39374995f, 2.55471992f, 2.44857931f},
  {0.109409332f, 0.368145823f, 0.974454045f, 0.657635272f, 1.51680076f, 1.19122279f, 1.89615738f, 1.74114335f, 2.15745926f, 2.17289424f, 2.22059536f, 1.87640297f, 1.99022901f, 2.40879369f, 2.23798323f, 2.5404532f},
  {0.184472963f, 0.723504424f, 1.2467742f, 0.727009892f, 1.78784347f, 1.33298337f, 1.78353596f, 1.8224237f, 2.02684546f, 2.10379934f, 2.19867373f, 2.13585687f, 2.37391591f, 2.39693761f, 2.50054693f, 2.54568911f},
  {0.729777932f, 1.33990717f, 1.44824445f, 1.6674639f, 1.90951383f, 2.30599236f, 2.09434247f, 2.37115073f, 2.26293659f, 2.47065043f, 2.30219769f, 2.56112027f, 2.78933382f, 2.5878408f, 2.80661821f, 2.67905259f},
  {0.851272404f, 1.30753291f, 1.34563303f, 2.16043758f, 1.90749025f, 2.12416267f, 2.35699773f, 2.66363525f, 2.46073174f, 2.25020194f, 2.55249071f, 2.84774184f, 2.41084623f, 2.60284853f, 2.44254684f, 2.7052474f},
  {0.391544133f, 0.520106733f, 1.76531887f, 0.746912718f, 2.2961688f, 1.78641379f, 2.23528242f, 1.9961561f, 2.35747409f, 2.47102785f, 2.49732065f, 2.1754148f, 2.84504557f, 2.7160244f, 2.9827199f, 3.03517675f},
  {0.226140931f, 0.399750322f, 0.892716169f, 1.22156894f, 1.54178071f, 1.54194701f, 1.86120689f, 1.9361006f, 1.99895608f, 2.09790897f, 2.20198107f, 2.37024045f, 2.3640542f, 2.40787935f, 2.49703765f, 2.54190922f},
  {0.330055892f, 0.252124906f, 1.27155495f, 0.807717085f, 1.54333997f, 1.03164423f, 2.00187063f, 1.87320256f, 2.21953487f, 2.20090294f, 2.30801392f, 1.81976271f, 2.38018036f, 2.42958021f, 2.58604598f, 2.68451214f},
  {-0.107888184f, 0.420851171f, 1.69295311f, 1.25600302f, 2.40942311f, 1.63005161f, 1.74564791f, 2.21762276f, 2.07220697f, 2.04275155f, 2.61663628f, 2.52692366f, 2.81896043f, 2.48449564f, 2.97368455f, 2.96607304f},
  {1.4500829f, 1.3540163f, 1.650455f, 1.98764169f, 1.91584551f, 2.35115123f, 2.096735f, 2.77983069f, 2.97999859f, 2.49613309f, 3.27135682f, 2.41126037f, 2.48122525f, 2.70624399f, 2.70486712f, 3.27148056f},
};

static const float kLayer1D[48] = {0.55662179f, 0.099222973f, 0.732474208f, 0.176080346f, 0.636629701f, 1.04877234f, 0.267228484f, 0.177634686f, 0.423954695f, 0.766773522f, 0.142198235f, 0.787192225f, 0.226588324f, 0.494411349f, 0.891490757f, 0.262023985f, 0.836754262f, 0.0770961717f, 0.953511655f, 0.484586209f, 0.634342313f, 1.02313614f, 0.679344296f, 0.101353973f, 0.104019068f, 0.78424114f, 1.14137876f, 0.348489851f, 0.553919733f, 0.117378004f, 0.852383018f, 0.599544227f, 0.248277575f, 0.168571427f, 0.519050062f, 1.01347554f, 1.0871259f, 1.17463779f, 0.597746372f, 0.42536658f, 0.20815064f, 0.861128986f, 0.970012367f, 0.251360804f, 0.147859797f, 0.762380123f, 0.130943984f, 1.15175486f};

static const int8_t kLayer1InProjQ[96][24] = {
  {-36, 3, -27, 37, -5, 111, 33, 30, 36, 68, 3, -35, -11, -48, -127, 14, 23, 21, 42, -15, -18, -5, 52, 2},
  {-64, -75, 111, 19, 40, -74, 64, -26, -24, 37, -55, 51, -1, -13, 127, -23, 59, -7, -5, 38, -56, -48, -33, 73},
  {-11, 57, 3, 22, 58, -12, 69, -48, 4, -22, -40, 2, 91, 53, -65, -84, -121, -14, -127, -20, 43, -113, 39, 76},
  {88, -81, 127, -4, 8, -85, 25, 34, 49, -116, -100, -30, 2, 50, 26, 7, 55, -57, -22, 89, -38, -8, -69, 68},
  {-21, 18, -4, -113, 1, 34, 31, -127, -65, -3, 20, 19, -37, -10, 80, 25, 4, -26, -33, -38, -59, 96, 22, -48},
  {96, -41, 43, 23, 29, 34, 50, -62, 127, -60, -19, -126, 28, -9, -96, -12, 41, -67, 109, 90, -8, 36, -13, 49},
  {-26, -29, 53, -4, -34, 112, 31, -2, -47, -97, -64, 7, 96, 27, 61, 15, 20, -21, 25, -99, -127, -11, 7, -34},
  {42, -7, -64, 94, 82, -31, 79, 108, -9, -79, 59, 90, -42, 32, -101, -127, -61, 2, -119, -68, 89, -21, -14, 42},
  {-77, -23, -24, 79, -40, 73, -101, 127, -84, 33, -41, 85, 19, -38, 36, -66, -53, 67, -3, -43, -94, 63, -38, -39},
  {-85, 33, -91, 127, -31, 97, -7, 94, 10, 78, 61, 35, -7, -38, 21, -19, 15, -16, 64, -38, -38, -20, -23, 1},
  {8, -8, 29, -127, -49, -14, 56, -42, -44, -4, -47, 38, 97, -11, 99, 0, 21, -9, 38, -21, -26, 12, 8, -22},
  {31, 3, -14, 72, -56, -41, -2, 54, 96, -2, 127, -99, 38, 3, -61, -55, 114, 57, -6, -25, 101, -41, -95, 93},
  {-110, 42, -64, 30, 16, -32, 19, -31, 2, 127, 37, -34, -42, -4, -57, -36, -102, -36, -10, -6, 63, 50, 126, 38},
  {50, 82, 76, 127, 50, -5, -14, -30, 50, -74, 85, -43, 13, -43, 1, -108, -39, -29, -106, -20, -26, -11, -69, 73},
  {39, -39, -5, 29, 72, -84, 127, -84, 3, -90, -13, 13, 19, 58, -22, -97, -72, 57, -8, -6, 13, 0, 24, 31},
  {-10, -120, 15, 16, -33, -11, 64, 39, 26, 109, -65, 13, 39, 18, -127, -80, 80, 57, -50, 53, 64, 14, -24, -54},
  {-6, -95, -11, 64, -87, 2, -8, -35, -26, -48, -72, -8, 41, 73, -21, 23, -60, 127, 66, 19, -2, -58, -84, -68},
  {-23, -21, 53, -75, 41, -41, -63, 47, -8, 127, -83, 10, -76, -48, 57, 32, 70, -21, 79, 58, -52, -96, 76, 4},
  {-1, 67, -35, 6, 82, 96, 30, 127, -9, -54, -32, 53, -67, 26, -82, -67, -59, 7, -10, -35, -25, -5, 37, 60},
  {-25, 127, -20, 61, 4, 39, -89, 12, -10, 26, 115, -25, 83, -52, -3, -18, 38, -91, -52, -23, -17, 3, 15, -5},
  {81, -11, 15, -10, 43, -85, 21, -6, 46, -27, 49, 0, -1, -60, -34, -43, 127, -28, -88, -56, -61, 22, -87, 12},
  {-56, -57, 63, 127, 76, 37, 18, -26, 33, -124, -53, 24, 15, 0, 9, -72, -17, -62, 34, 15, -52, 66, -4, 36},
  {16, -38, 33, 26, 11, 33, 73, 21, 69, 22, 5, 45, 48, -69, -127, -20, 70, -63, -27, -11, 64, -20, -110, 79},
  {36, -4, -26, -5, 71, -70, 66, 47, 12, -34, -5, 29, -59, 2, -122, -45, -34, -30, -51, 16, 127, -34, -23, 37},
  {-14, -91, 14, -40, -6, 20, 40, 6, 93, 30, -4, 10, 41, -11, -20, -13, 20, 15, 127, 26, 53, -2, -11, -30},
  {29, 10, -30, 127, 0, -28, 11, 72, 52, -58, -6, -35, -6, 2, -25, 11, 48, 30, -24, -40, 37, -55, -35, 80},
  {14, 89, -12, 54, -47, 28, -45, 41, 35, 70, -75, -26, 127, -39, -44, -2, -36, 35, -7, 10, 13, -27, -30, 23},
  {-32, 26, -48, -44, -36, 39, -5, 23, 6, 12, 23, 33, 39, 56, 13, -74, -43, 35, -127, -83, -35, -13, -9, -36},
  {20, -47, -40, 127, -58, 90, 41, 30, -17, -25, 1, -116, 80, -37, 14, -86, -29, 34, -23, -14, 28, -8, -45, 38},
  {18, -127, 16, -6, -68, 2, 47, 121, -8, 48, 1, 26, 0, -81, -100, 32, 33, 58, 84, 42, 99, -84, -41, -42},
  {-42, 2, 54, -74, 9, -63, 24, 56, -83, 117, -27, 94, 4, 2, -127, 8, 59, -22, -55, 68, -18, 32, -24, 13},
  {30, 53, -17, 127, 15, 19, -37, 7, -30, -31, 58, -32, -2, 6, -25, -69, 74, -7, -84, -48, -37, 50, 26, 24},
  {-56, 7, -2, -85, -72, -115, 58, 9, -47, 66, -22, 5, -44, -33, -9, 39, 122, -72, 6, 1, 127, 59, -14, -18},
  {-6, -71, -8, 22, -3, 91, -32, 29, 20, 54, 30, 40, -28, -20, -42, 53, -96, 25, 127, 32, -7, 2, 18, -14},
  {-65, -47, -14, 71, 56, 2, 22, 117, 68, 42, -25, 34, -50, 30, -58, -66, 22, -52, -1, 6, 29, -108, -8, 127},
  {10, 2, 43, -25, 34, -52, 70, -29, -16, -55, -43, 72, 127, -15, 54, -67, 6, -26, -61, -23, -30, -19, 14, 31},
  {38, 40, 28, -25, -28, 16, -29, -86, 69, 9, 9, -22, 77, -127, -11, -25, -37, 70, 11, 21, 27, 17, 22, -65},
  {17, 13, 3, -17, -8, -87, 23, -77, -68, 6, -14, -17, 56, 48, 25, 121, 79, 30, -55, 38, 62, -127, -43, -14},
  {32, -64, 38, -102, 36, -38, 51, -39, 127, -59, -104, 7, -56, 42, -109, 25, 55, -11, 45, 38, -1, -54, -16, 44},
  {29, -127, 6, 83, -68, -8, 41, 31, -6, -61, -3, 45, 4, -35, 57, -32, 78, 90, -67, 48, 59, 4, -34, 35},
  {108, -30, 47, -22, 20, -67, -74, 1, 54, -7, -3, 0, -64, 2, -127, -8, 76, -6, 11, 35, 98, -2, -43, 34},
  {-66, 54, -95, -38, -73, -33, -53, -2, -61, 77, 75, 68, 73, -63, 127, 54, -20, 59, -124, -92, 62, -20, 4, -59},
  {-18, -81, 35, 34, 71, -17, 57, -109, 17, -76, 37, -17, -1, 70, 11, 94, 3, -127, 21, 20, 2, 45, 9, 34},
  {-64, 95, -127, 3, 2, 28, -8, -16, -46, 43, 103, -23, 37, -37, -22, -9, -33, -27, -87, -84, 56, 21, 60, -17},
  {101, 79, 16, -33, -64, -75, 47, -71, -8, -70, 38, -84, 127, 53, -108, -71, 64, 25, -70, 2, 6, -9, -18, -53},
  {9, -75, -8, 2, 40, -118, 72, 20, -127, -70, 18, 45, -49, -58, 127, 113, 36, 45, 9, 12, -40, 9, -24, 1},
  {18, 30, -1, -39, -22, -40, -34, -91, -84, -11, -37, 65, -79, 28, 127, -14, 0, -60, -8, -1, 16, 8, -21, 4},
  {2, -55, 81, -127, -107, -1, -52, 107, 72, 105, -102, 24, 20, -127, 26, -19, 16, 62, 49, 48, 17, 83, -74, -58},
  {-70, 6, -12, -37, 20, 127, 24, -2, 7, -11, 30, 8, 9, -76, 58, -3, 36, 4, 31, -81, 51, 16, 26, -30},
  {-13, 16, 43, -70, 45, -55, -7, -7, -62, 29, -127, 20, -28, -2, 126, 64, 80, -76, 53, 8, -54, -78, 4, 89},
  {15, -83, 79, -19, 53, -101, 5, -34, -43, 84, -107, -18, 60, 16, -32, 12, -37, -38, 15, 21, 12, 5, -127, 52},
  {-55, -42, -10, 19, -22, 5, 22, -11, -29, -25, 29, 4, 20, 4, 127, -9, -43, -16, 2, -53, -9, 15, -26, 5},
  {-26, 67, -4, -51, -14, 52, -11, 30, 48, 37, -16, 55, -87, -127, 14, 23, -35, -60, -17, -5, 68, -22, 47, -12},
  {-38, 53, -66, -62, -37, -3, -101, 44, -125, 127, -43, 76, 28, -52, 100, 51, 37, 66, -62, -103, 47, -75, 31, -66},
  {21, 117, -18, 35, -30, 96, 19, 123, 33, 67, -27, 22, 22, -88, -20, -31, -91, -37, -59, -127, 43, -53, -72, 47},
  {19, -16, -44, 76, 56, 29, -14, -2, -22, -127, 59, 5, -114, -21, 68, 8, -16, -20, -53, 6, -38, 73, 89, -22},
  {-85, -62, -80, 94, 40, 127, -68, -90, -78, 45, 20, -49, -28, -39, 102, 26, -4, -46, 23, -56, -23, 33, 89, -26},
  {6, 89, 29, -113, 73, -123, -2, 35, -88, -127, -72, 120, -96, -67, 40, -55, -5, -100, -77, -66, -62, 74, 31, 29},
  {21, -3, -15, 26, 41, 54, 29, -127, -68, 12, 24, 79, 50, -43, -2, -7, 31, -10, -12, -1, -29, 13, 11, -48},
  {-41, 36, 8, -113, 11, 5, 12, -69, 22, 97, -20, 29, -52, -89, 64, 45, 0, -127, 0, -6, 78, 0, 66, -52},
  {-37, -6, 7, 13, 29, -2, -47, -44, -12, 40, 11, 18, -111, -13, -87, 127, 96, -62, 41, 33, -20, -15, 41, -1},
  {-60, 38, -21, -25, -8, 67, -55, 8, -4, 39, -13, -32, -24, 17, 127, 43, -42, -27, 56, -36, 4, -27, -13, -24},
  {7, 72, -96, 59, -113, 24, -29, 45, -106, 46, -3, 75, 105, -33, 127, 13, 45, 28, -105, -102, 117, -102, -39, 8},
  {-25, 105, -38, 127, -5, 108, -80, -3, 28, -6, -5, 10, 12, -25, 40, -96, -15, 127, -8, -94, -32, -84, 26, 9},
  {-10, 99, 29, 22, 4, 20, -9, 50, 65, -70, -27, -127, 41, 44, 16, -30, 43, -38, -114, -54, -85, -24, -80, 13},
  {-118, -39, -66, 95, 58, 90, -36, -16, -59, 127, 74, 8, -103, -112, -20, 52, 33, -30, 30, -18, 24, -81, 113, 41},
  {-41, -16, 10, -9, -49, -78, -30, 96, -127, 97, 9, 39, -26, -25, 32, 75, 59, -29, -13, -2, 68, -32, -46, 14},
  {-46, -32, 69, -93, 77, 94, 48, -65, -45, 84, -11, 65, -127, -57, 33, -49, -69, -109, 39, 9, -21, -3, 93, -110},
  {23, 109, -42, -8, -9, -10, -57, -34, 3, 9, -22, 21, -32, 54, 127, -20, -28, 45, 3, -97, 74, 60, 46, -27},
  {30, 3, 10, 56, -13, 49, 19, 76, 1, -127, -72, 40, -41, -50, 50, -57, -27, -18, 42, -77, -24, 26, -53, 68},
  {-27, 43, -27, -5, -3, 11, -33, 7, 28, -2, 8, -8, -8, 33, 127, 42, -17, -34, 21, -26, -5, -6, 49, 7},
  {-18, -6, -5, 11, -71, 95, -45, -41, 9, 30, 35, -11, 35, -19, 127, 49, -4, 30, 42, -75, 28, -50, -18, -22},
  {-67, -57, 13, -50, 25, -5, 69, 51, -26, -46, 26, 43, -49, 9, 127, 16, 73, -26, 34, 33, 59, 36, -65, -13},
  {-59, 20, -65, 3, -1, 90, 18, -30, 69, -21, 92, 56, -50, -83, 127, -16, -104, -22, -14, -85, 44, -79, 51, -17},
  {-40, -12, -43, 33, 14, 39, -35, 24, -33, -16, -37, 37, 12, -3, 127, 30, -30, 26, 20, -63, -50, 0, 25, -26},
  {-8, -4, -6, -31, 1, 37, -24, 8, -4, 29, -39, 21, -7, -7, 127, -41, -17, -26, 38, -3, -47, -15, 21, 16},
  {19, 23, -16, -47, -38, -119, 8, 8, -60, 98, 38, -33, 16, -45, -60, 78, 123, 85, -56, 13, 127, -41, -8, -34},
  {-7, 71, -3, 71, 44, 125, -28, 13, 5, -9, -25, -25, 89, -59, 127, 87, 125, -36, -80, -64, -98, -77, 76, 125},
  {88, 119, -13, 20, -39, 102, -71, 118, 25, -115, -127, 41, 41, -19, -81, -57, -113, -29, -47, 22, -60, 55, -28, 88},
  {-22, 97, -92, 12, -15, -40, -11, -35, -45, 6, 4, 44, 27, -44, 42, 16, -18, -14, 20, -127, 5, -11, -57, 77},
  {46, 33, -24, 49, 17, -8, 2, 22, -7, 35, 6, -4, 16, -25, -43, -20, -16, 127, 51, -8, 3, 65, -20, -15},
  {-52, 75, -23, -66, -25, 127, -22, 94, -85, 56, -76, 56, 12, -20, 92, 67, 17, -2, 9, -82, 27, -28, 16, -14},
  {4, 40, 38, -15, -11, -8, -1, -127, 5, 9, 15, -38, -35, 2, 32, 69, 17, -43, 9, 52, 23, -24, -26, 15},
  {-68, 18, -27, 88, -18, 81, 26, 32, -64, -84, -83, 91, 61, -34, 127, 40, 1, -34, -8, -114, -114, -31, -7, 52},
  {32, -50, 106, -29, -18, 10, -105, 17, 33, 1, -111, -32, -22, -22, 30, 13, 26, 19, 76, 94, -103, 127, -29, -50},
  {-38, -28, -76, 45, -26, -96, 55, 56, -11, 113, 22, -37, -92, -10, -47, 85, 121, -52, -15, -12, 127, -104, -77, 58},
  {73, 32, 79, -30, 7, -24, -53, 21, 25, -127, -58, -33, -8, 11, 73, -33, -9, -58, -73, 66, 5, 3, -116, 53},
  {-12, 127, -21, -26, -33, 52, -34, -21, -11, 53, -4, 32, -29, 31, 1, 34, -45, 0, -5, -50, 37, 19, 3, -8},
  {16, -37, -17, -1, -13, 25, 5, -52, -28, 9, 2, 44, 10, -8, 33, -36, 127, -13, -26, -22, 2, 5, 16, 1},
  {-36, -7, -70, 4, -86, -15, -94, -3, -28, 127, 41, 29, 39, -39, 63, 111, 39, 60, -24, -53, 48, -62, 33, -68},
  {-30, -10, -67, -9, -68, -37, -41, 82, -34, 100, -59, 33, -71, -31, 33, 127, 74, 40, 90, -15, 21, -18, -29, 3},
  {-38, 84, -9, -30, -100, 37, -107, -19, -23, 38, 32, 39, -57, 20, 127, 65, -48, 73, -25, -89, 58, -3, -48, -99},
  {-2, -9, -73, 32, 32, 97, 18, -56, -14, -38, -44, 13, -82, -63, -69, 23, 42, 81, 66, 24, -33, -61, 127, -40},
  {-31, 32, -69, 34, -59, 127, -67, 64, -9, 103, -54, -8, 21, 10, -115, -38, 44, -96, -49, -36, 66, -21, 12, 53},
  {25, 35, 48, 26, -31, -49, -63, 20, -8, -78, -37, 12, 7, -23, 100, 32, 10, -22, 17, 83, -127, -4, 15, 19},
  {-68, -84, -12, 20, -31, -21, 22, -10, -66, 46, 76, -76, -121, 96, 99, 127, 61, -106, 14, 2, 40, -88, -50, 46},
};

static const float kLayer1InProjScale[96] = {0.00189049263f, 0.00211685826f, 0.00235569547f, 0.00314157736f, 0.00253892853f, 0.00419730041f, 0.00201766822f, 0.00181073428f, 0.00192610978f, 0.0016351369f, 0.00296741584f, 0.00254360633f, 0.00279130554f, 0.00157516706f, 0.00443734648f, 0.0016483384f, 0.000548094278f, 0.00168055051f, 0.00348094269f, 0.00186763029f, 0.000883090717f, 0.00389370183f, 0.000957453391f, 0.00229463563f, 0.00222626701f, 0.00458856113f, 0.00424607424f, 0.00101822626f, 0.00454126205f, 0.00142241898f, 0.00366934272f, 0.002757543f, 0.00159383111f, 0.00207705074f, 0.00252805743f, 0.00623709941f, 0.00363614177f, 0.00411332678f, 0.00201033615f, 0.000761592004f, 0.00101975456f, 0.00304889632f, 0.00324168615f, 0.00423902227f, 0.0010771188f, 0.00322140334f, 0.00199516327f, 0.00355834723f, 0.000831533282f, 0.00212350395f, 0.0019772388f, 0.00470417738f, 0.00258764508f, 0.00334284711f, 0.00175284629f, 0.000703256403f, 0.00262609147f, 0.00115567737f, 0.00176653184f, 0.00452285307f, 0.0031024646f, 0.0013892618f, 0.00338753243f, 0.00123962061f, 0.000558962114f, 0.00126441498f, 0.0036637024f, 0.00140249287f, 0.000933983829f, 0.00366996997f, 0.00146442326f, 0.00272276998f, 0.000972077833f, 0.00337642594f, 0.00644507399f, 0.00128174084f, 0.00340461289f, 0.000849793723f, 0.00250411383f, 0.00131838454f, 0.00148938189f, 0.00224059401f, 0.00440407172f, 0.00323172379f, 0.00452938443f, 0.00422841264f, 0.00211019348f, 0.00122233748f, 0.00127894967f, 0.00335251656f, 0.00357067236f, 0.00295275333f, 0.000877836777f, 0.00358575745f, 0.00183719851f, 0.00434510643f};

static const float kLayer1Conv1dWeight[48][4] = {
  {0.0470360108f, 0.0147872102f, -0.0708838627f, 0.0915500447f},
  {-0.104777232f, 0.0991367176f, -0.0610423721f, 0.0421002172f},
  {-0.239962727f, -0.115401283f, 0.0183487032f, 0.153142974f},
  {0.120530918f, -0.183768719f, 0.318685293f, 0.00222515478f},
  {0.165792957f, -0.219533309f, -0.0910663977f, 0.000634146854f},
  {-0.165160924f, -0.261264086f, -0.106288135f, 0.227238953f},
  {-0.135537431f, 0.0908406824f, -0.0136240236f, -0.025886571f},
  {-0.15968138f, -0.0127742998f, 0.191252828f, -0.0612802953f},
  {0.152660936f, -0.145666316f, -0.114667118f, 0.0862958878f},
  {-0.0184723418f, 0.0351879969f, -0.153135553f, 0.0788755566f},
  {-0.134353444f, 0.104454681f, 0.133549422f, -0.00221044268f},
  {0.198176175f, -0.198487327f, 0.162596092f, 0.0666095242f},
  {0.0619232319f, -0.105228946f, 0.111548245f, -0.00626515178f},
  {0.112145275f, -0.0158804338f, -0.0821256638f, 0.00305911386f},
  {-0.0123505034f, -0.286303073f, -0.469272524f, 0.0311975554f},
  {0.0541373193f, -0.0516213067f, 0.0329990201f, -0.0179424584f},
  {0.00626466703f, -0.0368116498f, 0.00749756163f, -0.0159521848f},
  {-0.031740956f, 0.04873579f, 0.0982896015f, -0.0352238007f},
  {-0.0665090829f, -0.310856402f, 0.0255593136f, -0.258211523f},
  {0.0302309226f, -4.43581375e-05f, -0.155388817f, 0.02833133f},
  {0.0308287125f, -0.0260525588f, 0.0102227833f, 0.00633490412f},
  {0.190059319f, 0.179005921f, 0.118930817f, -0.310311854f},
  {0.000126251136f, -0.0249053985f, 0.0236887243f, 0.00998717919f},
  {-0.0959310457f, -0.0274944361f, 0.0894089267f, -0.125633404f},
  {0.108024985f, -0.00326980092f, -0.0463231802f, 0.000212678351f},
  {-0.244442314f, -0.0811356455f, 0.360528946f, 0.0510779619f},
  {0.392312109f, -0.142645091f, -0.137376219f, 0.0425781682f},
  {0.0187895242f, 0.032580249f, 0.0105322227f, 0.0113715492f},
  {-0.0322516933f, -0.417941868f, 0.159877598f, 0.169320554f},
  {-0.0364042148f, -0.0463332497f, 0.0980083048f, 0.0359549709f},
  {-0.387717366f, 0.182678685f, 0.023604935f, 0.0507389344f},
  {-0.127830893f, 0.0849177316f, 0.111412376f, -0.0336245708f},
  {0.0547062457f, 0.0702169612f, -0.105504446f, 0.0030262575f},
  {-0.0392557308f, 0.0959492698f, -0.0736696869f, 0.0301397033f},
  {-0.204218596f, -0.108774722f, 0.0344893187f, 0.0745113194f},
  {-0.255471408f, -0.431270868f, -0.0451811478f, 0.157316759f},
  {-0.165668607f, -0.21080251f, -0.324374974f, -0.0373360217f},
  {-0.399117172f, -0.0167691372f, 0.336856633f, -0.111355029f},
  {-0.0704839379f, 0.04558862f, -0.160581857f, 0.123073064f},
  {0.0060003791f, -0.00584621076f, 0.0221694913f, -0.0098942481f},
  {-0.0121542243f, -0.00177203375f, -0.0317273811f, 0.0091290595f},
  {0.265952349f, -0.0729832351f, 0.191900983f, -0.152198151f},
  {-0.327616066f, -0.0789970532f, -0.000921229366f, 0.0222712122f},
  {0.120241314f, -0.119457237f, 0.393224508f, -0.0723054707f},
  {0.0114506846f, -0.0244110916f, 0.0651956722f, -0.0464265607f},
  {-0.276955754f, -0.0982082859f, 0.195163891f, 0.0958772972f},
  {0.018770745f, 0.106936499f, -0.0116554685f, 0.0236384477f},
  {0.099714078f, 0.349650621f, 0.357661903f, -0.250699788f},
};

static const float kLayer1Conv1dBias[48] = {-0.0101332255f, 0.010302363f, -0.11928881f, -0.0241580252f, -0.0605760477f, -0.253094614f, -0.010254683f, -0.0744011328f, -0.0523317009f, -0.0172048975f, 0.0197410434f, -0.271558285f, 0.0390782394f, 0.0361074358f, -0.0467587411f, 0.0185821671f, 0.00621096045f, 0.0209757742f, 0.0922421366f, 0.0296026152f, -0.00336479023f, 0.0277660191f, 0.00423387252f, -0.00153046392f, -0.00101720309f, -0.0461791046f, -0.209645897f, 0.00695696101f, -0.0926071927f, -0.00166446145f, -0.0210935269f, -0.0422273204f, -0.0455737226f, -0.0306372829f, -0.0459171571f, 0.0107934084f, 0.0245190077f, -0.237463996f, -0.0194345899f, 0.00255960436f, -0.0142449727f, -0.199558973f, -0.0100742374f, -0.0665477291f, -0.0097124977f, -0.0751606375f, 0.0252601244f, 0.118024223f};

static const int8_t kLayer1XProjQ[34][48] = {
  {7, -21, 56, 98, -12, -11, -27, 74, 52, 34, -63, 49, -20, -73, -29, -18, -7, -20, -83, -63, -11, -113, -27, 42, 45, 53, 31, -3, 52, -41, -39, 121, 32, 10, 4, -3, -70, -32, 16, -3, -34, 49, -51, -36, 28, 16, 2, -127},
  {3, -32, 56, 94, -30, -11, -27, 80, 56, 25, -53, 62, -4, -70, -42, -18, -1, -33, -79, -69, -11, -123, -14, 40, 37, 66, 26, -13, 69, -45, -34, 117, 34, 10, 3, 11, -77, -20, 10, -6, -25, 50, -50, -33, 17, 16, 4, -127},
  {-37, -31, -32, -127, 11, -67, -37, 39, 64, -30, 21, -57, -19, -58, 7, -41, -90, 23, 126, -52, -49, 71, -10, 17, -18, 3, -61, -64, 19, 2, -15, -7, 63, -5, -50, -30, 40, -22, -24, 13, 19, -79, -25, 1, -49, -92, 11, -39},
  {9, -71, 54, 66, -40, -26, 45, 21, -24, 63, 67, -105, -127, 3, -40, -23, 12, -38, -34, 73, -10, -49, -27, -26, 59, -113, 30, -60, -12, -45, -13, -24, -71, 29, 31, -2, 12, -20, -60, 39, 2, -63, 21, -97, -18, -31, -89, 26},
  {-2, -8, 106, -4, 60, -67, 51, 23, -66, 17, 6, 8, -23, 28, -16, 21, 0, 8, 44, 45, 16, 9, 26, -58, 42, 99, -20, -24, -34, -3, -56, -2, 16, -6, 60, 127, -30, 14, 57, 20, -31, -21, -12, -58, -1, 54, -11, 51},
  {18, 15, -68, 70, -115, -102, 1, 18, 50, 47, 11, -107, -13, 8, -92, 3, 14, -12, 127, 70, 17, 47, -10, 53, 4, -73, 85, 2, -1, -28, -25, -62, -15, -27, -45, -87, 79, -51, -38, -29, -30, -107, 57, -63, 56, 40, 8, 39},
  {47, -43, 37, 7, -36, -82, -8, 76, -1, 22, -25, -41, -14, 24, -77, -5, 12, -31, 7, 97, 78, 88, 59, 8, 17, 22, -12, -1, -64, -38, 5, -59, 63, -13, -1, 127, -36, -34, -31, -2, 31, -62, 6, -37, -1, 67, -2, 15},
  {-3, 52, -36, -62, 20, -27, -18, 26, -16, -3, -70, 1, 29, -38, 76, 41, -23, -2, 76, -28, -30, 16, -51, 41, -10, 57, -66, -26, 74, 37, -19, 16, 100, 25, 5, -3, -37, 37, -11, -73, -40, -1, -66, 13, -32, -127, -6, -16},
  {19, -37, -8, -7, -6, -8, 48, 86, 26, 42, -42, -20, 20, -57, 13, -32, -27, -52, 53, 20, 19, 35, 35, 37, 47, 52, -36, -8, 67, -30, -127, 26, -3, 67, 110, -1, -45, -27, 25, 28, 36, 23, -34, 11, 59, -113, -97, -4},
  {-19, -7, -29, 32, 75, -88, 20, -52, -22, -96, 66, -61, -10, -9, -45, 16, -34, 53, 68, 13, -47, -36, -26, -25, 3, -29, 93, 14, -12, -10, -127, -4, 29, -8, -65, -13, 61, -19, -4, 22, 5, -47, 45, -57, -91, 46, -7, 38},
  {70, -63, 42, 27, 66, 10, 6, 56, 7, -12, -66, -22, -16, -67, -8, -5, 3, 60, -27, 11, 40, -3, -37, -14, -19, 78, 69, 64, -56, -13, -127, 66, -6, 10, 11, 0, 20, -24, 45, -19, -30, 20, 25, 11, -25, -15, 15, 11},
