#pragma once

#define BABYMAMBA_VARIANT_CROSSOVER 0
#define BABYMAMBA_VARIANT_CHANNEL_INDEPENDENT 1
#define BABYMAMBA_DATASET_NAME "ucihar"
#define BABYMAMBA_DISPLAY_NAME "UCI-HAR"
#define BABYMAMBA_SEED 29
#define BABYMAMBA_SEQ_LEN 128
#define BABYMAMBA_IN_CHANNELS 9
#define BABYMAMBA_NUM_CLASSES 6
#define BABYMAMBA_D_MODEL 24
#define BABYMAMBA_D_STATE 16
#define BABYMAMBA_D_INNER 48
#define BABYMAMBA_DT_RANK 2
#define BABYMAMBA_D_CONV 4
#define BABYMAMBA_NUM_LAYERS 4
#define BABYMAMBA_STEM_KERNEL 5
#define BABYMAMBA_PATCH_KERNEL 16
#define BABYMAMBA_PATCH_STRIDE 4
#define BABYMAMBA_PATCH_OUT_LEN 31
#define BABYMAMBA_SCAN_IMPL_FALLBACK 1
#define BABYMAMBA_FIXTURE_LABEL 4

static const char* const kBabyMambaClassNames[BABYMAMBA_NUM_CLASSES] = {"Walking", "Walking Upstairs", "Walking Downstairs", "Sitting", "Standing", "Laying"};

static const float kStemWeight[24][1][5] = {
  {
    {-0.718187153f, -0.26948595f, -1.05595934f, 1.10466325f, 0.600213885f},
  },
  {
    {0.99441433f, 0.394242704f, -3.20030928f, -0.401006728f, 1.90253425f},
  },
  {
    {-0.276306659f, -0.107727304f, 0.388804466f, -0.298093855f, -0.379029751f},
  },
  {
    {-0.299779296f, -0.135255843f, -0.708550036f, -0.153352171f, 0.517151833f},
  },
  {
    {-0.299805462f, 0.337151945f, 0.614917457f, 0.923654556f, -1.9704963f},
  },
  {
    {0.149379566f, 0.143923953f, 0.079717055f, 0.000399406475f, 0.0886377543f},
  },
  {
    {-0.394284546f, -0.529443741f, 0.131307393f, 0.401872665f, 1.0020026f},
  },
  {
    {-0.0986089334f, -0.366586626f, 0.18080166f, 0.293680727f, -0.887225509f},
  },
  {
    {0.042012237f, 0.151095957f, 0.368717223f, 0.0262843836f, -1.26549029f},
  },
  {
    {0.141069308f, -0.162105903f, -0.0829190239f, -0.472054005f, -0.26379627f},
  },
  {
    {-0.226370499f, -0.148178652f, -0.284252644f, -0.164893448f, -0.151071042f},
  },
  {
    {-0.0642048195f, -0.178515881f, -0.210215136f, -0.124347746f, -0.35641247f},
  },
  {
    {1.24562323f, 0.211823195f, -0.0161382258f, -0.126570791f, -1.05659974f},
  },
  {
    {0.309254736f, 0.526355386f, 0.33042258f, -0.7081424f, 0.228692263f},
  },
  {
    {0.423244655f, -0.0600286797f, 0.0531413443f, 0.0100419922f, 0.42578581f},
  },
  {
    {0.779439151f, 0.624021113f, 0.279825747f, -0.331310689f, -0.659973443f},
  },
  {
    {0.4002707f, 0.0368992239f, 0.0473892577f, 0.175066292f, 0.162174761f},
  },
  {
    {-0.333618075f, -0.121903814f, 0.0909009054f, -0.0290487688f, -0.46037963f},
  },
  {
    {-0.460202456f, -0.230923459f, 0.0253282152f, -0.156979546f, -0.0929721221f},
  },
  {
    {-0.551822424f, -0.601524055f, 0.102995589f, 0.0873952657f, 0.0420776233f},
  },
  {
    {0.436040342f, 0.697349548f, 1.17757261f, -1.30260527f, -0.628782451f},
  },
  {
    {0.192790136f, -0.428200603f, 0.154845595f, 0.197161898f, 0.621815622f},
  },
  {
    {-0.423075467f, -0.289082259f, -0.186503634f, -0.146856561f, 0.187277317f},
  },
  {
    {0.0715839267f, 0.0865441337f, 0.0848600268f, 0.376400709f, 0.149035886f},
  },
};

static const float kStemBias[24] = {0.0635005906f, -0.350663543f, -0.0707682222f, -0.0243018195f, 0.00752687594f, -0.387906969f, 0.157323629f, 0.06931144f, 0.0704642683f, -0.115504183f, -0.0533406995f, 0.0486542881f, 0.0819340646f, -0.177846417f, -0.397185922f, -0.265868455f, -0.141721427f, -0.0701632202f, 0.0319981873f, -0.0751412213f, 0.104430437f, -0.138370246f, 0.0317802839f, -0.239448279f};

static const float kPatchDepthwise[24][16] = {
  {0.0697843358f, 0.169353127f, 0.0894515067f, 0.0791148543f, -0.000787540397f, -0.00600734819f, -0.123181291f, -0.107743688f, 0.00067461445f, -0.0772654116f, 0.0314994156f, 0.192784846f, 0.114790305f, 0.00248973724f, -0.0394166298f, -0.170955613f},
  {-0.0861249566f, -0.158216193f, -0.18655102f, -0.120777674f, -0.0255996529f, -0.152020514f, -0.0107485242f, -0.0923997015f, -0.00751634408f, 0.0417400487f, 0.180462822f, 0.163538814f, 0.129639879f, 0.0983645767f, 0.0589145795f, 0.227311209f},
  {-0.0525236689f, 0.0981098562f, 0.118754052f, 0.0866611153f, 0.0440735668f, -0.00479610031f, 0.0563349314f, -2.38631474e-05f, 0.0176930316f, -0.0599536002f, 0.0566849373f, -0.1036494f, 0.0779377818f, -0.0555372462f, -0.126827031f, -0.0822120532f},
  {0.0475328825f, -0.218950152f, -0.0528748669f, -0.111957289f, -0.156334385f, -0.0458712019f, 0.0315695368f, 0.0185533594f, 0.0751804188f, -0.00990560092f, -0.161536485f, -0.0896565914f, 0.0461690091f, 0.0762281641f, 0.0375955962f, 0.0671965629f},
  {-0.0641514584f, 0.00896657538f, -0.0160393864f, -0.0731858686f, 0.0378096513f, 0.172923595f, 0.0349491872f, 0.0868082941f, -0.0120580047f, 0.0474647433f, -0.109051876f, -0.0119723575f, 0.0489646904f, 0.00729315262f, -0.025499301f, -0.139042109f},
  {-0.0696303248f, -0.0134199653f, -0.080708392f, -0.0361206681f, -0.0280791372f, 0.0754898265f, -0.0738151595f, 0.0693390071f, -0.0134996874f, 0.0529349223f, -0.0838130414f, -0.0195190888f, -0.0173499025f, -0.0712300763f, 0.118581198f, -0.0433866344f},
  {0.0550545081f, 0.104002096f, -4.62292483e-05f, 0.0175151266f, 0.187454119f, 0.191699237f, 0.136168033f, 0.0513546094f, -0.0194448344f, -0.137286425f, -0.0639842078f, -0.145847365f, -0.13605465f, -0.107989065f, -0.194455087f, -0.108007513f},
  {0.0372795351f, 0.00158172625f, 0.0218014549f, 0.0527729429f, 0.0596603304f, 0.130497798f, -0.00750809908f, -0.0916676298f, -0.0930183902f, -0.00538231153f, 0.0282064602f, -0.0211158264f, -0.101954229f, -0.296774238f, -0.128576785f, -0.183567137f},
  {0.168619275f, 0.105259724f, 0.0800223276f, 0.0567395315f, -0.0496413931f, -0.121084951f, -0.112738594f, -0.22310032f, -0.187621146f, -0.168196425f, -0.128970012f, -0.0303536337f, -0.00484556006f, -0.0759218708f, -0.02151943f, -0.0775140226f},
  {-0.064494282f, -0.123086013f, 0.00542528415f, -0.0820277929f, -0.126189455f, -0.0348892473f, -0.0535857417f, -0.0310878213f, -0.0322050415f, 0.102479272f, -0.0741864666f, 0.136059016f, 0.153646737f, 0.193930835f, 0.210815221f, 0.0952169895f},
  {-0.257965833f, -0.128126889f, -0.092557326f, -0.0198581405f, 0.129609868f, 0.0668879747f, 0.141897723f, 0.0113976458f, 0.233380392f, 0.176438496f, 0.103065677f, 0.101311654f, 0.0615673624f, -0.00320754596f, 0.0149411149f, -0.00526318979f},
  {0.0837481841f, -0.145772919f, -0.12341474f, -0.109512471f, -0.105881542f, -0.173366234f, -0.0733059347f, 0.0362174436f, -0.0747727305f, -0.125630617f, -0.0305915363f, -0.0955873206f, -0.0751290321f, -0.217418581f, -0.191217154f, -0.0947249755f},
  {-0.0437670909f, -0.00738770608f, 0.0930082798f, 0.199862033f, 0.108545884f, 0.157297418f, 0.0897695348f, -0.0772469491f, -0.0230210442f, -0.0435046628f, -0.118633814f, -0.183319196f, 0.0200028811f, -0.0381601565f, -0.0480701849f, -0.142075226f},
  {0.0241455771f, 0.0473177098f, 0.0257058274f, 0.0723878667f, 0.00588252302f, -0.0658231452f, 0.107571058f, -0.0568183064f, 0.132353216f, 0.0500349328f, 0.0709099472f, 0.0160199925f, -0.133627072f, -0.0126865003f, -0.177797481f, -0.157648519f},
  {0.01426988f, -0.0929871574f, -0.0958000496f, 0.00432139775f, -0.0755715296f, -0.0307169538f, -0.106289729f, -0.0174338259f, -0.0859063864f, -0.103031427f, -0.0661970079f, -0.0311893374f, -0.174978301f, -0.238934666f, -0.102595352f, -0.108664893f},
  {-0.200722128f, -0.174153894f, -0.0910483897f, -0.089976117f, 0.0391527712f, 0.00591811677f, -0.0762429908f, 0.0139575144f, -0.0508711897f, 0.000114333714f, 0.133265093f, 0.173703805f, 0.0188356135f, 0.0527895913f, 0.178492054f, 0.0279617701f},
  {-0.134921461f, -0.0744573697f, -0.0757077262f, -0.0823556781f, -0.119746536f, -0.00180581782f, -0.0554142222f, -0.187116578f, -0.0250542164f, -0.0229642354f, -0.0537024885f, -0.00182912347f, -0.0689024106f, 0.00873241294f, 0.0154785393f, -0.0378221124f},
  {-0.108545236f, -0.111275718f, 0.0111834649f, -0.0899950415f, -0.0155734569f, -0.07392703f, -0.0742698461f, 0.00786184147f, -0.123638533f, -0.075750567f, -0.0869207978f, -0.0771305561f, -0.143816724f, 0.0127933435f, -0.102740645f, -0.0734039769f},
  {0.108625084f, 0.107076138f, 0.17145656f, 0.178034663f, 0.0832343027f, 0.0708423555f, 0.0151058706f, -0.0830338523f, -0.0417219698f, -0.122701466f, -0.212879732f, -0.107156791f, -0.0818631053f, -0.0188281313f, -0.150990725f, -0.0989927649f},
  {0.162856236f, 0.0779734626f, 0.0473603643f, -0.0198867489f, -0.138000727f, -0.17020078f, -0.229889616f, 0.0242254846f, 0.0243839324f, 0.0337210521f, -0.0247524325f, -0.020509135f, -0.000153458968f, 0.0204523224f, 0.0889588073f, -0.0785390139f},
  {0.121934392f, 0.172807634f, 0.134165093f, 0.0347817317f, -0.106204748f, -0.033344876f, -0.00387296919f, 0.127122059f, 0.146895558f, 0.214963004f, -0.0286745429f, -0.0430904068f, -0.0270313304f, 0.0243664347f, -0.0634195507f, -0.18894884f},
  {0.0557464734f, -0.111296862f, 0.0141590331f, -0.0139259649f, -0.0778340772f, 0.029669119f, 0.0892169774f, -0.00800530985f, -0.0187390633f, -0.212085485f, -0.105414495f, 0.00515354564f, -0.0260147639f, 0.00964459032f, 0.0476959683f, -0.0877177343f},
  {0.228403479f, 0.0179569442f, 0.0541025884f, 0.150142133f, 0.151828662f, 0.25970915f, 0.0506188013f, 0.000572361867f, -0.0139418738f, -0.0224548373f, 0.0107351309f, 0.0626488551f, -0.0921827704f, -0.00244489894f, -0.0512575731f, 0.108131759f},
  {0.135528579f, -0.029014919f, -0.0804347768f, -0.00427720137f, -0.0914853439f, -0.147886857f, -0.0958265811f, -0.13816604f, -0.017777767f, -0.0356340706f, 0.0961477831f, 0.0997661725f, 0.0208211206f, 0.116450906f, 0.00945815071f, 0.000114301038f},
};

static const float kPatchPointwise[24][24] = {
  {-0.616016388f, -0.343264073f, 0.208582357f, 0.757030904f, -0.264991939f, 0.745628178f, -0.975355446f, 0.447168618f, 0.294751465f, -0.0374182463f, -0.559631586f, 0.703841925f, -0.056017708f, 0.0155309699f, -0.0646263063f, 0.421995729f, 0.959647596f, 0.757952034f, -0.177127868f, 0.640630782f, -0.239905849f, -0.101927862f, 0.0792427808f, 0.11861597f},
  {-0.547692299f, -0.77127254f, -0.0958362445f, 0.301844865f, 0.299022347f, 0.34049347f, 0.852227509f, -0.0171705f, 0.0613573454f, -0.0991039649f, -0.082647346f, 0.994665265f, -0.00255517103f, 0.300512105f, 0.00850283448f, -0.197239414f, 0.273234278f, 0.287854344f, 0.403543562f, 0.192274511f, 0.710736692f, 0.127329573f, 0.0168208182f, -0.0443740375f},
  {0.639638662f, -0.744559884f, -0.317353219f, 0.216665447f, 0.283664227f, 0.323220611f, 0.274804026f, -0.718996704f, -0.715184331f, -0.034039367f, 0.00584689202f, 0.149548918f, -0.847995222f, 0.112151265f, 0.197343782f, 0.0127906287f, -0.910210967f, -0.163547799f, -0.777181149f, 0.122044779f, 0.211465836f, -0.19346635f, -0.458788484f, -0.307983994f},
  {-0.0395638496f, 0.338988036f, -0.221707508f, -0.234597847f, -0.711640477f, 0.289723158f, -0.25097239f, -0.0336390473f, -0.0647473037f, -0.0787163079f, -0.219474524f, 0.180503994f, -0.138076007f, 0.72969985f, 1.22535992f, 0.179305956f, 0.558865488f, 0.263213128f, -0.173084244f, -0.0887003317f, 0.13025099f, -0.156393722f, 0.216252878f, 0.428516388f},
  {0.827474654f, 0.632648051f, 0.174471185f, -0.202064782f, 0.000316692458f, -0.356747121f, -0.377441615f, -0.395065278f, -0.0889873281f, 0.299090892f, 0.079052873f, 0.556064248f, 1.47467387f, 0.257472098f, 0.265594721f, -1.23515081f, -0.612336934f, -0.159757346f, -0.168198869f, 0.604110777f, -0.0400319174f, 0.410274953f, -0.178515822f, 0.319297582f},
  {-1.24488509f, 0.366515607f, -0.32564497f, -0.202533349f, -0.0259870384f, 0.0484813415f, -0.431306243f, -0.562669933f, 0.900945723f, -0.775983036f, 0.0442077145f, -0.252973974f, 0.164878175f, -0.0707290247f, -0.180998206f, 0.137882054f, -0.296585411f, -0.179752156f, -0.106106803f, -0.720815837f, -0.443801671f, 0.415962636f, 1.19739401f, 0.296698838f},
  {-1.03956616f, 0.433915883f, 1.05116963f, -1.01847541f, -0.236616164f, 0.321222663f, -0.561088979f, 0.189236596f, 0.121794418f, -0.664153099f, 0.328287333f, -0.0890258327f, 0.609428406f, -0.0892358199f, -0.566338837f, -0.0487467572f, 0.262637526f, -0.127859637f, 0.765556872f, -0.539604366f, 0.35293445f, 0.491818905f, 1.1810832f, 0.290197968f},
  {0.330058098f, -0.300027579f, 0.0240753479f, -1.09587872f, 0.0392221697f, 0.555186093f, 0.35957253f, 0.661555946f, 0.2476587f, 0.279555678f, -0.380651712f, 0.0442010649f, -0.0052869902f, 0.317597419f, -0.251902193f, -0.0513532497f, 0.557699621f, -0.237949297f, 0.685004115f, 0.1499217f, -0.0178543851f, -0.055894874f, 1.47569275f, -0.594905138f},
  {-0.0962675661f, -0.383296013f, 0.444596678f, 0.0353441872f, -1.1579504f, -0.520301282f, 7.97499524e-06f, -0.118870988f, 0.979843974f, 0.15715152f, 0.265269876f, 0.129827991f, -0.619219363f, 0.213813052f, 0.182111442f, -0.287690759f, 1.17387319f, 0.288278401f, 0.179950401f, 0.375734568f, -0.802093327f, 0.406539202f, 0.480959415f, 0.0570148118f},
  {0.608216643f, 0.0915453508f, 0.0405418985f, 0.195225477f, 0.122353412f, -0.0306339413f, 0.487968236f, -0.151906759f, -0.137513578f, -0.122510143f, -0.23211731f, -0.514039457f, -0.291032434f, -0.014826173f, 0.59730202f, -0.480824232f, 0.687800765f, 0.297377944f, -0.00667664409f, -0.0880476311f, -0.0697812214f, 0.568656623f, -0.475680083f, 0.268801153f},
  {-0.786176324f, -0.0212797094f, -0.00228794804f, 0.27208221f, -1.1607765f, -0.949914992f, -0.33262226f, -0.739562809f, -0.169577435f, 0.0702875853f, -0.212547839f, -1.01751304f, 0.215148717f, -0.88341397f, 0.0246306453f, 0.780443907f, -0.00738051627f, 0.697591126f, -0.163805187f, -0.551601827f, -0.388912112f, -0.431255281f, 0.404223025f, 1.2889936f},
  {0.397061586f, -0.0587163046f, 0.706756651f, -0.562032938f, 0.631237209f, 0.369861871f, -0.237950385f, 0.356746674f, 0.609720826f, 0.171549767f, -0.24593693f, 0.0239103269f, -0.483145952f, -0.324455202f, -0.501550257f, -0.211911753f, -0.248067677f, -0.0830646157f, 0.315555036f, 0.101631477f, -0.366111487f, 0.161403254f, 1.01094127f, 0.114342615f},
  {-0.134232238f, -0.644839644f, -0.0863932222f, -0.247417375f, 0.112925038f, 0.589499354f, 0.415623218f, -0.16566655f, 0.273422271f, -0.0555073358f, -0.108490974f, -0.403834313f, 0.125927061f, 0.327361941f, 0.644286871f, -0.280618817f, 0.278626561f, -0.249569312f, -0.05588286f, 0.334360063f, -0.344183892f, 0.992262185f, -0.522832632f, -0.279161096f},
  {-0.354565173f, -0.0178887118f, -0.159828097f, 0.105856121f, -0.0678613037f, -0.235301077f, -0.158418015f, -0.596780956f, -0.0432568341f, -0.33100301f, -0.0307837017f, 0.272095531f, 0.0407571979f, 0.176578596f, -1.45843506f, -0.192985848f, -0.147638828f, -0.409715086f, -0.125441268f, 0.384651601f, -0.125086531f, -0.297431529f, 0.673312068f, -0.722814381f},
  {-0.36447975f, 0.0243851282f, 0.146973342f, 0.357356787f, -0.131427675f, 0.201296851f, -0.107316531f, 0.0870962068f, 0.211272359f, -0.682022512f, -0.141155437f, 0.37853387f, 0.138556153f, -0.483408242f, 0.0148497568f, 0.305993646f, -0.217165843f, 0.21829702f, 0.159226179f, 0.481035829f, -0.27205199f, -0.104356579f, -0.00107811228f, -0.10496214f},
  {-1.26339221f, 0.351177424f, 0.257065415f, 0.00956328399f, -0.390973747f, 0.178992331f, -0.0479584336f, 0.000236297608f, -0.596706986f, 0.778304517f, -0.204999372f, -0.164987668f, 0.613228559f, 0.0619338229f, 0.047471419f, 0.326075196f, -0.0179209355f, -0.488322139f, -1.03461313f, -0.380153775f, 0.17607367f, -0.0546627119f, -0.0587324388f, -0.193105146f},
  {0.123590015f, 0.614650667f, -0.112523258f, -0.220699027f, -0.196866617f, -0.405677706f, -0.815090477f, 0.666596949f, 0.800126731f, -0.598921239f, -0.434329987f, 0.358654886f, -0.400230348f, -0.37472266f, 0.646884561f, 0.154630169f, 0.0803489015f, -0.122833394f, 0.251321644f, -0.478567094f, -0.096126616f, -0.706238627f, -0.263500988f, -0.0993150398f},
  {1.39880764f, 1.81428492f, 0.425114185f, -1.66663432f, 0.146599561f, -0.316393256f, 0.364979655f, -0.420931846f, -0.0683436021f, 0.0504686162f, 0.544710159f, 0.60635525f, -0.351140171f, -1.06036448f, 0.0299186632f, -0.631972611f, -0.158270642f, 0.149185002f, -0.329621911f, 0.152890071f, 0.342382193f, 0.200143948f, 0.237420037f, -0.0937797204f},
  {-0.098388873f, 0.254166991f, 0.363199174f, 0.0103253713f, -0.127252311f, -0.290862203f, 0.0236196425f, 0.372738361f, 0.196115479f, -0.144395873f, -0.662653804f, 0.2614654f, 0.000145938044f, 0.098060444f, -0.0190414023f, -0.147042483f, -0.170899168f, 0.743957222f, 0.367527217f, 0.262173355f, -0.201978102f, 0.317328125f, -0.0517990217f, -0.0378466547f},
  {0.538815498f, -0.93431133f, 0.152376786f, -0.303981572f, -0.0864363313f, -0.252979934f, -0.255537957f, -0.192053214f, -0.145829514f, 0.540627837f, -1.35718703f, -0.146644324f, -0.399905682f, -0.172918633f, -0.557726741f, 0.733727813f, 0.425433427f, 0.332908362f, 0.836991251f, 0.140321419f, 0.488636434f, -0.186856151f, 0.545198917f, 0.136825413f},
  {-0.236571252f, -0.091064468f, 0.488446236f, -0.465191722f, 1.08392525f, 0.359108269f, 0.149312526f, 0.80435878f, -0.572317541f, -0.501293242f, 0.44163239f, -0.127536297f, -0.0658676624f, -0.404937863f, 0.606993675f, -0.299905807f, 0.932788849f, 0.367937416f, -0.179187074f, -1.02498126f, 0.408633828f, -0.469102532f, -0.0461706966f, -0.019401988f},
  {0.0809786916f, -0.170176864f, 0.0691220537f, -0.0728418306f, -0.178740278f, 0.228425324f, -0.440895826f, 0.298589528f, -0.733342826f, -0.48317048f, 0.422415555f, 0.104307234f, 0.669180095f, 0.0241736602f, -0.22133337f, 0.611729622f, 0.160682276f, 0.163264811f, -0.139454663f, 1.03707743f, -0.927944958f, 0.0159387589f, -0.92110312f, 0.138669655f},
  {-0.452338368f, 0.313401341f, 0.062969476f, 0.377959788f, 0.647490561f, -0.0382947959f, 0.465456247f, -0.482016712f, -0.564956009f, 0.403221071f, -0.195524797f, 0.41055724f, -0.0866256282f, 0.0199484527f, 1.10027289f, -0.167693779f, 0.304058075f, 0.344103813f, -0.0442557372f, 0.438964307f, 0.214899793f, 0.244506225f, 0.273121208f, 0.0971117169f},
  {-0.665306687f, 0.33455795f, -0.170017838f, -0.165013179f, -0.613926232f, -0.0318380259f, 0.696072936f, -0.88384676f, -0.0191328805f, 0.0496748686f, 0.482767582f, -0.948010027f, -0.728462815f, 0.57169497f, -0.168108582f, 0.771646678f, -0.265488714f, 0.0926771313f, 0.190596297f, -0.391080171f, -0.362074107f, -0.222468659f, -0.127253339f, -0.512945712f},
};

static const float kPatchBias[24] = {0.518741369f, 0.353870898f, -0.257159352f, 0.0440526195f, 0.0663617104f, -0.143511146f, -0.225071594f, -0.11409416f, 0.284155011f, -0.0392925292f, -0.302786827f, -0.0691811219f, -0.0158946104f, -0.144919023f, 0.170046687f, -0.277368933f, 0.289531648f, -0.100667827f, 0.300115377f, -0.107814819f, -0.0909602046f, 0.231172487f, 0.0258481763f, -0.318765402f};

static const float kPosEmbed[1][31][24] = {
  {
    {-0.174249038f, 0.0639355779f, 0.146267533f, 0.0888679475f, 0.0387808122f, 0.166461378f, -0.0342821553f, -0.0795655623f, -0.0412103534f, 0.0587834865f, 0.0162984971f, -0.0898652896f, 0.0200176202f, 0.00855305884f, 0.0452719927f, -0.0578160249f, 0.0132600209f, 0.129966184f, 0.114936665f, -0.275787413f, 0.0875848904f, -0.00314707658f, 0.012351091f, -0.0238017831f},
    {0.0615683682f, 0.118242227f, -0.0344840921f, 0.0147248674f, -0.0287365224f, 0.21196425f, -0.113191061f, 0.0149653051f, -0.0234381072f, 0.0182637591f, 0.0935443044f, -0.226399407f, 0.00303420052f, 0.0134102274f, 0.0753054917f, 0.0733836815f, 0.0282838941f, -0.0460936017f, 0.0745447353f, -0.0980635434f, -0.0559314042f, 0.0646589324f, -0.0937696621f, 0.1176221f},
    {0.0138980392f, 0.110127814f, 0.0714290589f, -0.015102311f, 0.0609710775f, 0.0262040291f, -0.101654194f, -0.0817838013f, -0.209099248f, -0.007800641f, 0.0355936475f, -0.0840699375f, -0.0151511487f, -0.0481813252f, 0.103075311f, 0.122828454f, 0.00518334145f, 0.18013002f, 0.0908011794f, -0.0993442684f, -0.0203106981f, 0.123996876f, -0.0492305234f, 0.0532324836f},
    {0.102193303f, 0.186148182f, -0.0547573529f, -0.00994625781f, -0.0201695021f, -0.00681360997f, -0.128550857f, -0.0484594591f, -0.0646273047f, -0.00567085762f, 0.0159577839f, -0.133435041f, -0.0119064897f, -0.139100283f, 0.0389043614f, 0.0568317212f, 0.0705925897f, 0.154768199f, 0.111832418f, -0.0969243199f, -0.0439070575f, 0.115235113f, -0.0393083803f, 0.0321492217f},
    {0.0549714155f, 0.117731631f, -0.0710930452f, 0.0438183658f, -0.0533212423f, 0.018852938f, -0.0832361504f, 0.0187487453f, -0.0340966545f, 0.0450834408f, 0.0822449923f, -0.116711318f, 0.0106707541f, -0.0645689666f, -0.00917352736f, 0.0341042839f, 0.034183614f, 0.127198279f, 0.0348458961f, -0.0491853356f, -0.0462040566f, 0.038551107f, -0.0116425436f, 0.0763907805f},
    {0.0628643632f, 0.0673432052f, -0.152566269f, 0.0380122103f, -0.0649008155f, 0.0279070307f, -0.00792207755f, 0.0271408483f, -0.0307234805f, 0.0143591594f, 0.114964239f, -0.0957861245f, -0.0160649754f, -0.0443533137f, -0.0332285538f, 0.123856373f, 0.0253618192f, 0.0730928704f, 0.0138717517f, -0.0137563627f, -0.0260302033f, 0.0323805586f, -0.0270627961f, 0.149975032f},
    {0.134563699f, 0.0563911311f, -0.150644869f, 0.0270005967f, -0.0641346127f, 0.0827378184f, -0.00440054247f, 0.0573228337f, 0.0267264117f, -0.00380451372f, 0.0606555752f, -0.158174634f, -0.0390364453f, -0.0573618487f, 0.012928037f, 0.0288878344f, 0.0760356933f, -0.0188190509f, -0.00617434271f, -0.0155141065f, -0.000459797797f, 0.103208303f, -0.0459707677f, 0.057947468f},
    {0.144517928f, 0.0615027994f, -0.0649977028f, 0.0279427134f, -0.0450548418f, 0.113826409f, 0.00572691998f, 0.0265265424f, 0.0289339479f, 0.00577110145f, 0.0144017702f, -0.202935651f, -0.0470934026f, -0.0494111553f, 0.0742390156f, -0.0837806463f, 0.125137657f, -0.0831190273f, -0.0440453812f, -0.0117360875f, 0.0186752267f, 0.0835873261f, -0.0302943867f, 0.00447161403f},
    {0.0736075267f, 0.0653960407f, -0.00363930408f, 0.0235991608f, 0.0187646467f, 0.0539754853f, -0.0232924279f, -0.0175757054f, 0.0190359075f, 0.0449246503f, 0.0219569374f, -0.179109916f, -0.0556796826f, -0.038256485f, 0.0451841727f, -0.0817037225f, 0.0730070025f, -0.0572632141f, -0.0682456046f, -0.00447643176f, -0.00804269314f, 0.0208191276f, -0.0153948618f, 0.0565048717f},
    {0.0131714437f, 0.0565044805f, 0.004589458f, 0.0231159702f, 0.039152611f, 0.000449106592f, -0.0677882805f, -0.0122830085f, 0.0393289812f, 0.01659761f, 0.0115579749f, -0.0838907212f, -0.059491463f, -0.0186393224f, -0.00198162487f, -0.0583577603f, -0.029483011f, 0.000876996608f, 0.00954463519f, 0.00656276522f, -0.046359919f, -0.00345767592f, -0.0224538576f, 0.075987339f},
    {0.00119607034f, 0.0160484388f, -0.0333188921f, 0.0537022389f, -0.0324655026f, 0.0138184046f, -0.049812533f, -0.0250247233f, 0.0664150864f, -0.0618353412f, 0.00294220704f, 0.0028155311f, -0.0285336543f, 0.00241223397f, 0.0247353036f, -0.0300747808f, -0.0570837334f, -0.0224939007f, 0.107748121f, 0.0179073866f, -0.0348379947f, -0.0254032873f, -0.0105749834f, 0.0829012841f},
    {-0.00390359503f, -0.0402245596f, -0.068817541f, 0.102715716f, -0.0157627743f, -0.00165807398f, -0.0810173154f, -0.0210761931f, 0.116700508f, 0.00154324248f, 0.0623198785f, -0.0660198107f, 0.0246124435f, -0.0176324043f, 0.0265435856f, -0.0263014287f, -0.0258846916f, -0.0847409666f, 0.0557196587f, -0.0170056485f, 0.00134305703f, 0.00483837398f, 0.0166334268f, 0.0857311189f},
    {0.00960231107f, -0.00386236212f, -0.0391910411f, 0.0783094242f, 0.0641966835f, -0.0246790238f, -0.035260193f, -0.0243099742f, 0.0148730222f, -0.0258994121f, 0.0511482768f, -0.104706824f, -0.000155913978f, -0.0249901339f, 0.00807668827f, -0.0534162633f, 0.0303012878f, -0.0428220183f, 0.107295468f, -0.0483268723f, 0.0615752749f, 0.0150591666f, -0.00770115387f, 0.0318675861f},
    {-0.004968761f, -0.00128971075f, 0.0527865402f, 0.0285441857f, 0.0249793846f, 0.017534541f, 0.0433619767f, -0.137186319f, -0.0510405675f, 0.021458881f, 0.0709112063f, 0.0169208311f, 0.0136659555f, 0.0283089709f, 0.0160749294f, 0.0325978175f, -0.0730597898f, 0.0509954989f, -0.00654950412f, -0.0793410912f, 0.0493718125f, -0.111133799f, 0.0200934112f, 0.0856439844f},
    {0.0304489415f, 0.0489421338f, 0.0944101065f, -0.0707805157f, 0.121846072f, -0.141191676f, -0.000358374877f, -0.134281099f, 0.0130518619f, -0.0632587969f, -0.0486272462f, 0.0958637148f, -0.0455780253f, -0.0517349578f, 0.0280440971f, -0.0339658409f, -0.0854224265f, 0.00992225204f, 0.0697485879f, 0.00465483451f, -0.0400349237f, 0.0178738069f, 0.0312837362f, -0.0887037739f},
    {0.0433433801f, -0.0392050073f, -0.0433604084f, 0.134576991f, -0.0430814698f, 0.00230851164f, -0.0116720358f, -0.0169635136f, 0.0701912418f, -0.0411752649f, -0.0200868137f, -0.0828911662f, -0.0352251083f, -0.0234884657f, -0.0486056954f, -0.114917584f, 0.0458463095f, 0.017880626f, 0.00808327366f, -0.0782985613f, 0.112755015f, 0.0437248945f, 0.0821684077f, -0.0141634801f},
    {0.00580410287f, -0.018292699f, 0.0863689482f, 0.0693870485f, 0.0192817152f, 0.0341802053f, -0.00682711368f, -0.0950864702f, -0.0998073146f, -0.0381916016f, 0.0861520842f, -0.0341809131f, -0.0745168552f, 0.0160980355f, -0.0321621969f, -0.108597986f, 0.0404650494f, 0.113894291f, -0.0575171784f, -0.141798735f, 0.108821049f, 0.00153115846f, 0.0726346448f, 0.0443707891f},
    {0.0615267009f, 0.0122113973f, 0.0202179924f, -0.0734231472f, 0.00385894231f, 0.0412799045f, 0.0735172704f, -0.036525704f, 0.00864500832f, -0.159418911f, 0.0127382008f, -0.0148967979f, -0.0773720294f, 0.018000219f, 0.00501293363f, 0.0368908904f, 0.0070826062f, 0.102972165f, 0.0670741946f, 0.0153981075f, -0.146361589f, 0.030493455f, -0.0141561702f, 0.0263603479f},
    {0.0496906526f, -0.030518068f, 0.0218320731f, -0.0285200793f, 0.0685114488f, -0.034240488f, 0.0538209528f, 0.00469096284f, -0.0339929536f, 0.0316339768f, 0.0383204371f, -0.00288122729f, -0.000213132647f, 0.0047192052f, -0.031429965f, 0.0721099228f, -0.00886298809f, 0.0781588554f, 0.00140290323f, -0.0192551911f, -0.0964067131f, -0.00702692941f, 0.0237097051f, 0.00785385631f},
    {-0.0263737887f, 0.00605841959f, 0.0665179342f, 0.0331348144f, 0.0612774678f, -0.0401342884f, -0.0150621049f, 0.00544551993f, -0.0449438654f, 0.0115211867f, -0.00339810457f, -0.0387922898f, 0.0109911794f, -0.0885250494f, -0.0952528119f, -0.0111539848f, 0.0225866698f, 0.0976068377f, -0.0131176598f, 0.0304171145f, -0.00680561317f, 0.0140543496f, 0.0174175408f, -0.00140496402f},
    {0.000463949022f, -0.0252620261f, 0.0704876557f, -0.0140926307f, 0.14913258f, -0.073918134f, 0.017255649f, 0.0199300479f, -0.0768048316f, -0.0164177138f, -0.0194763616f, 0.0469697639f, -0.00379771134f, -0.0717795417f, -0.13458778f, 0.0328557752f, -0.0246060975f, 0.140914351f, -0.0482644103f, 0.0740429014f, -0.0376141295f, 0.00586571125f, 0.0406824835f, -0.0158586912f},
    {0.0160045717f, -0.0330497287f, -0.0110593671f, -0.0552122556f, 0.124168247f, -0.0575904958f, 0.0264892969f, 0.00625769794f, 0.0168793499f, 0.0385340415f, -0.0111045483f, 0.0131940627f, 0.0320937894f, -0.1245033f, -0.103594095f, 0.0499905832f, -0.057890512f, 0.0745536089f, -0.0371120833f, 0.0546405539f, -0.0376135968f, -0.0200256966f, 0.0476697646f, 0.0218130946f},
    {-0.0144317849f, -0.0581135564f, -0.0739402771f, -0.0854077712f, 0.0249919835f, -0.0112429792f, 0.0471045375f, 0.0271588955f, 0.0460947454f, 0.0578884706f, 0.0158860236f, 0.0323293135f, 0.0477097705f, -0.0988087431f, -0.0628652424f, 0.0192794893f, -0.0208222568f, 0.0277579818f, -0.0949645266f, 0.0606179573f, -0.017200755f, -0.0212907195f, 0.0280953962f, 0.0334586352f},
    {-0.0773897022f, -0.054192014f, -0.042495165f, -0.0722455531f, 0.0040959199f, 0.0136804292f, 0.0431666113f, 0.0212936942f, 0.0193720907f, 0.0547011681f, 0.0128044216f, 0.0643469468f, 0.0406989492f, -0.0523789264f, -0.0270707514f, 0.0534881055f, -0.017819779f, 0.0188581161f, -0.118961528f, 0.0755935386f, -0.0245884359f, -0.00973098073f, 0.0291943029f, 0.0276979823f},
    {-0.137428716f, -0.0227956716f, 0.0687733889f, -0.0159117319f, 0.0535460226f, 0.0226266962f, 0.0103772404f, 0.00366318063f, 0.0508801192f, 0.0566498376f, -0.0115606822f, -0.00226506358f, 0.0308091212f, -0.0681808963f, -0.000398811826f, 0.0454139709f, -0.0429269969f, 0.0217838641f, -0.076757662f, 0.0589888208f, 0.00419041514f, 0.0224830806f, 0.0221766122f, 0.00467970176f},
    {-0.144325644f, -0.0406489708f, 0.159061611f, 0.0277482159f, 0.0609998405f, 0.0546608828f, 0.0138929337f, -0.0120465485f, 0.0642966479f, 0.0296598878f, 0.0101917554f, -0.0347438753f, 0.0227135345f, -0.0671915188f, 0.0125094168f, -0.0389456339f, -0.0245754942f, -0.00625933055f, -0.050105013f, 0.0188577473f, 0.0263194926f, 0.0435222052f, -0.0101251528f, -0.015456656f},
    {-0.114007272f, -0.0673789531f, 0.112604469f, 0.0673948675f, 0.00675229589f, 0.0952414572f, 0.0236696023f, -0.050655853f, 0.0652125999f, -0.00354897766f, 0.0451585911f, -0.00893640518f, 0.0215913113f, -0.0434599295f, -0.0013191693f, -0.0610808805f, 0.000393358205f, -0.0988052413f, -0.00862370525f, -0.024972409f, -0.0360674523f, 0.0182190221f, -0.0246256664f, 0.0261789188f},
    {-0.106978856f, -0.077454254f, 0.00815941766f, 0.109657802f, -0.0276249722f, 0.0798125714f, 0.0190063529f, 0.028627282f, 0.128674194f, -0.00933697727f, 0.038385421f, -0.049315393f, -0.0094016036f, 0.00160310662f, -0.0761270151f, -0.0849630609f, -0.0121593149f, -0.0644135997f, -0.0351418518f, -0.0270809326f, -0.0217235778f, 0.0490568653f, -0.0224422272f, 0.0362698548f},
    {-0.120545171f, -0.0765508339f, 0.043747101f, 0.133515239f, -0.0715145543f, 0.0784183145f, -0.00798223261f, -0.028701568f, 0.0228708219f, 0.0412738882f, 0.0775970593f, -0.0720227435f, 0.0174073149f, -0.0262390394f, -0.0505998582f, 0.0145617528f, -0.127320722f, 0.0245291349f, -0.0787011683f, -0.0634831041f, 0.0435402803f, 0.0820916072f, 0.0766036808f, 0.0469869524f},
    {-0.0544895157f, 0.00837178342f, 0.0346988365f, 0.132345214f, -0.0160350986f, 0.0125842197f, -0.0338151716f, -0.0736130998f, 0.0462071449f, 0.0810176209f, 0.0103263445f, -0.0140516218f, -0.00817286782f, -0.0943212137f, -0.0319824368f, -0.0412982851f, -0.0825291276f, -0.0187025163f, -0.0292943176f, -0.110645562f, 0.0544574037f, 0.0217047893f, 0.104336426f, -0.0453756899f},
    {-0.0784341022f, -0.018900983f, -0.00184367772f, -0.2488323f, 0.0821797848f, 0.0376778618f, 0.347387403f, 0.0835079029f, -0.0462569967f, -0.142925248f, -0.145604491f, 0.376087666f, -0.11074663f, 0.0211933702f, -0.0379276387f, 0.189255744f, -0.0355658494f, 0.179721758f, -0.0246592108f, 0.170297652f, 0.0024351161f, 0.0588424727f, -0.137282386f, 0.0121108918f},
  },
};

static const float kLayer0PreNormWeight[24] = {0.651004612f, 0.804759622f, 0.963127851f, 0.947663426f, 0.991896868f, 0.774779439f, 0.72304219f, 0.890713215f, 0.85291034f, 0.900447369f, 0.812753856f, 0.879742324f, 0.90850991f, 0.245736524f, 0.852095246f, 0.777160764f, 0.833047211f, 0.829000771f, 0.926531017f, 0.908944726f, 0.988656044f, 0.832159996f, 0.978040695f, 0.766379356f};

static const float kLayer0PreNormBias[24] = {-0.013924242f, -0.0236476846f, -0.00666887127f, -0.0057884939f, -0.049407132f, 0.162540048f, 0.150551647f, 0.0902272612f, 0.00624818495f, -0.0139471497f, 0.00681165792f, 0.00217802427f, -0.00886656251f, 0.0183587726f, 0.0218105726f, 0.115470171f, 0.00237143994f, 0.0387834311f, -0.0511501282f, 0.0424737185f, 0.00383956288f, -0.0448191352f, -0.0217095949f, 0.185950696f};

static const float kLayer0PostNormWeight[24] = {0.954560459f, 0.913432539f, 0.672224581f, 0.928930581f, 0.850155234f, 0.715959907f, 0.777132094f, 0.699808359f, 0.786666691f, 0.702102005f, 0.638122439f, 0.810471356f, 0.696983218f, 0.90734303f, 0.630578101f, 0.694226921f, 0.922610402f, 0.704425395f, 0.789253712f, 0.745808363f, 0.768589556f, 0.847706854f, 0.908617556f, 0.739324391f};

static const float kLayer0PostNormBias[24] = {-0.0356728546f, -0.0233722441f, 0.036294505f, 0.00578944385f, 0.03252507f, -0.0270856973f, 0.0560880192f, 0.00471694907f, -0.000724615122f, 0.063370876f, 0.00588306552f, -0.0153102623f, 0.0227364823f, 0.02117927f, -0.0656032562f, 0.0670905858f, -0.0765142068f, 0.0356258787f, -0.0802995786f, -0.00526017463f, 0.0402136222f, -0.0446001962f, 0.0501399338f, 0.0253467262f};

static const float kLayer0ALog[48][16] = {
  {-0.117734753f, 0.602665544f, 1.00725377f, 1.31192505f, 1.20237768f, 1.42927349f, 1.68148816f, 1.68425667f, 1.81964672f, 1.98052001f, 1.80788743f, 2.10910177f, 2.08550119f, 2.12207532f, 2.17534089f, 2.25471497f},
  {0.0453097075f, 0.560123861f, 0.931129396f, 1.22631884f, 1.29934764f, 1.29635203f, 1.71336496f, 1.70683789f, 1.72381592f, 1.85163152f, 1.95148325f, 2.10215902f, 2.0692749f, 2.10555863f, 2.17784142f, 2.18035269f},
  {-0.000756554015f, 0.571104765f, 0.698843837f, 0.948632777f, 1.34567404f, 1.77154875f, 1.05312562f, 1.41942692f, 1.9503001f, 1.73852777f, 2.4691813f, 2.2485714f, 2.28603864f, 1.91370654f, 2.2900207f, 2.25014901f},
  {0.0739872009f, 0.739835918f, 0.813471615f, 1.2788229f, 1.37100828f, 1.76928544f, 1.77636075f, 1.65603971f, 1.84310091f, 1.88128662f, 1.85332596f, 2.3274169f, 2.32458472f, 2.28029418f, 2.39818478f, 2.4239099f},
  {0.0525825918f, 0.481817275f, 0.731064856f, 0.922931433f, 1.29449928f, 1.59334242f, 1.63990235f, 1.61931252f, 1.77081859f, 2.09807682f, 2.01655102f, 1.99544179f, 2.35028505f, 1.97110605f, 2.34877515f, 2.38996911f},
  {0.0131215313f, 0.595665991f, 0.810134292f, 1.18689501f, 1.27947295f, 1.40637648f, 1.58585179f, 1.75666606f, 2.04478192f, 1.78623617f, 2.11012697f, 1.83539784f, 2.07881951f, 2.0729394f, 2.08790803f, 2.25658894f},
  {0.100851752f, 0.639707088f, 1.10253751f, 1.24170661f, 1.31757426f, 1.73134685f, 1.72231138f, 1.71698773f, 1.94676077f, 1.70192289f, 1.94952488f, 1.71171796f, 1.88363862f, 2.15760183f, 2.01580238f, 2.17530727f},
  {-0.127076447f, 0.537430763f, 0.762057483f, 1.18484282f, 1.36549759f, 1.79086876f, 1.57297099f, 1.65405226f, 2.01813149f, 2.04716301f, 2.10934877f, 1.71816158f, 1.91738558f, 2.12432933f, 2.09308219f, 2.41133308f},
  {0.0892190188f, 0.635743499f, 0.972636044f, 1.04298151f, 1.57199979f, 1.6906327f, 1.78460085f, 2.04172587f, 1.9794575f, 2.27712631f, 1.9212991f, 1.98587179f, 2.27984262f, 2.38052368f, 2.34994483f, 2.35244918f},
  {-0.0303941108f, 0.586380839f, 0.863121748f, 1.26958656f, 1.21533394f, 1.51826012f, 1.67300701f, 1.88102806f, 1.96534419f, 1.98483562f, 1.98625314f, 2.13653255f, 2.22809649f, 2.13620901f, 2.21226835f, 2.20811319f},
  {-0.183513969f, 0.516602039f, 1.10900009f, 1.16482115f, 1.34581769f, 1.53999841f, 1.7095716f, 1.82525861f, 1.4281354f, 1.97242117f, 2.24983001f, 1.79554307f, 2.26898265f, 2.29100561f, 2.00263953f, 2.25489712f},
  {0.243849978f, 0.494453907f, 0.853923798f, 1.11560857f, 1.52339947f, 1.231969f, 1.93183744f, 1.29958344f, 1.70462704f, 1.92914307f, 1.6847477f, 1.99950004f, 2.12121749f, 2.19545674f, 2.37131214f, 2.38299537f},
  {-0.0205557626f, 0.614245296f, 0.955631077f, 1.19382918f, 1.35382664f, 1.54474306f, 1.77157402f, 1.72358918f, 1.93275666f, 1.82479441f, 1.8850069f, 2.17250657f, 2.2059617f, 2.17771101f, 2.2032733f, 2.10805488f},
  {-0.00530886604f, 0.549023032f, 0.973643959f, 1.14611626f, 1.31107974f, 1.70058799f, 1.7280432f, 1.48779142f, 1.90680182f, 1.99948001f, 2.00070453f, 2.05712557f, 2.02210975f, 1.96680117f, 2.08368063f, 2.24302769f},
  {0.0256122798f, 0.546902418f, 0.737892687f, 1.12802303f, 1.21846294f, 1.48455715f, 1.6559459f, 1.59078491f, 2.04275298f, 1.83343589f, 2.02680731f, 2.06269193f, 2.02701879f, 2.2867353f, 2.02325869f, 2.33533216f},
  {-0.0163897891f, 0.605036318f, 1.00276113f, 1.10075867f, 1.36281645f, 1.64942861f, 1.64931524f, 1.63563991f, 2.12255168f, 1.57959461f, 2.09900379f, 2.11521316f, 2.3919735f, 2.3541944f, 2.10574269f, 2.3295393f},
  {-0.000273416517f, 0.612944782f, 0.98228842f, 1.06459761f, 1.29450858f, 1.46360016f, 1.76148629f, 1.45248628f, 1.9669193f, 2.02156067f, 1.98761868f, 2.09739494f, 2.01214957f, 2.05282378f, 2.07974792f, 2.08195972f},
  {0.423689842f, 0.581062615f, 0.858152211f, 0.839491904f, 1.15426421f, 1.47412026f, 1.45041418f, 1.27828014f, 1.81070352f, 2.07065606f, 1.83968043f, 2.02179885f, 2.37169027f, 2.33316374f, 2.42472243f, 2.39107037f},
  {0.198280215f, 0.451037914f, 1.05016673f, 1.15952361f, 1.22802866f, 1.57237172f, 1.57277238f, 1.7905724f, 2.02573752f, 1.8002007f, 2.04030633f, 1.86729228f, 2.10367751f, 2.14714932f, 2.14412975f, 2.1527245f},
  {-9.66037405e-05f, 0.481375754f, 0.717586815f, 1.02112734f, 1.21834707f, 1.38285697f, 1.9406985f, 1.32043302f, 1.71936572f, 1.94995463f, 2.12810445f, 1.88809705f, 1.94984198f, 2.00002861f, 2.04843569f, 2.21757221f},
  {0.020907741f, 0.559488416f, 0.923071921f, 1.19633806f, 1.30739212f, 1.36550188f, 1.54332304f, 1.74609351f, 1.71404004f, 1.9355036f, 2.05937743f, 1.99931109f, 1.98031139f, 2.06705427f, 2.1848433f, 2.23874474f},
  {-0.147607058f, 0.689949751f, 0.768359721f, 1.3147105f, 1.47672033f, 1.3865875f, 1.84753895f, 1.59320056f, 2.07197118f, 1.8853687f, 2.02553678f, 2.28074384f, 2.29013896f, 2.18940425f, 2.29440141f, 2.31115341f},
  {0.0122595113f, 0.600847006f, 0.894482136f, 1.33805227f, 1.31365466f, 1.50599432f, 1.74704194f, 1.85153234f, 2.07119441f, 1.69780076f, 2.00900745f, 2.02453971f, 2.06005073f, 2.04489923f, 2.06019449f, 2.24457717f},
  {0.0275040343f, 0.603790283f, 0.79145056f, 1.23458195f, 1.24212945f, 1.57445478f, 1.5505662f, 1.58648717f, 2.0527544f, 1.77502942f, 2.14402986f, 2.05195165f, 2.10476065f, 2.07748294f, 2.1232729f, 2.21151805f},
  {0.020608237f, 0.552672029f, 0.853881598f, 1.13253522f, 1.3054477f, 1.46526706f, 1.55407965f, 1.55411434f, 1.74323273f, 1.9440304f, 2.01494169f, 2.05593991f, 2.03772545f, 2.0961349f, 2.16925287f, 2.20478797f},
  {-0.222009271f, 0.49645561f, 0.647057652f, 1.0829432f, 1.29783487f, 1.50854611f, 1.16428828f, 1.82976782f, 1.83689892f, 1.8364315f, 2.20422888f, 1.96119452f, 2.17371702f, 2.21673298f, 2.1686821f, 2.12839127f},
  {-0.12487822f, 0.554857075f, 0.714240909f, 0.703567326f, 1.21034944f, 1.45978916f, 1.43498051f, 1.75301802f, 1.74333322f, 1.91743851f, 1.76053989f, 2.14261937f, 1.86939132f, 1.88274813f, 2.08628249f, 1.86247623f},
  {-0.178281188f, 0.616139591f, 0.735769689f, 1.25288177f, 1.79421842f, 1.46303809f, 1.53203928f, 1.51809895f, 1.86311603f, 1.93844759f, 1.85852492f, 2.05285168f, 2.28639126f, 2.17630267f, 2.32228518f, 2.32386684f},
  {0.193610221f, 0.715330303f, 1.01349223f, 1.00323021f, 1.31538594f, 1.39910924f, 1.58722436f, 1.67255354f, 1.84942222f, 1.8391453f, 2.1044426f, 2.16351533f, 2.02180338f, 2.01079535f, 2.00729132f, 2.05488229f},
  {-0.0387557447f, 0.596069515f, 1.02032733f, 1.1285814f, 1.33328712f, 1.53000522f, 1.64217484f, 1.56729221f, 2.03347754f, 1.93811977f, 2.01761031f, 2.16645598f, 2.19198084f, 2.15689659f, 2.12002611f, 2.138798f},
  {-0.0821649656f, 0.704890788f, 1.03197885f, 1.07647526f, 1.40183675f, 1.50778925f, 1.63836455f, 1.64174294f, 1.7415539f, 1.91408336f, 1.93696046f, 2.33432722f, 2.21883416f, 2.20746136f, 2.22112131f, 1.94823754f},
  {0.0934164226f, 0.52658534f, 0.968823433f, 1.35843277f, 1.28907824f, 1.71824932f, 1.64908516f, 1.69907522f, 1.94907093f, 1.80110967f, 1.94476902f, 1.92858255f, 2.34547544f, 2.34238434f, 2.572016f, 2.61138082f},
  {0.037042398f, 0.411165655f, 0.894129634f, 1.04389441f, 1.04889667f, 1.06894231f, 1.59627163f, 1.49429369f, 1.94925177f, 2.11996055f, 1.79636788f, 2.09757781f, 1.99015272f, 2.00307918f, 2.03935122f, 2.0598259f},
  {0.0478206947f, 0.602142096f, 0.917759776f, 1.24169588f, 1.47397447f, 1.76597917f, 1.55132735f, 1.5925281f, 2.05625749f, 1.93899429f, 2.06331849f, 2.29687119f, 2.13224769f, 2.19866514f, 2.10382605f, 2.0762403f},
  {0.329551131f, 0.583188951f, 0.992401183f, 1.04793394f, 1.29395914f, 1.30952203f, 1.42019784f, 1.8433392f, 1.88814962f, 1.82343817f, 1.96434724f, 2.04477453f, 2.14685488f, 2.16244149f, 2.11924887f, 2.12072682f},
  {-0.0211108308f, 0.593593121f, 0.867387176f, 1.21509135f, 1.394997f, 1.49712408f, 1.57216299f, 1.70482409f, 1.82894421f, 2.12143421f, 1.87857771f, 1.9506619f, 2.05354309f, 1.96154284f, 1.99167788f, 1.96865666f},
  {0.00957249478f, 0.634465814f, 0.654835105f, 1.13195539f, 1.17475581f, 1.26766968f, 1.21763039f, 1.21766448f, 1.7732054f, 1.92594218f, 2.0616138f, 1.95123792f, 2.08934617f, 2.10451221f, 2.15857434f, 2.29421949f},
  {-0.234674826f, 0.834656119f, 0.743836939f, 1.23716319f, 1.46268904f, 1.69675565f, 1.69989932f, 1.6671108f, 1.67676997f, 2.15413189f, 1.64129341f, 2.16490459f, 2.24843812f, 2.21147108f, 2.17628169f, 2.16764474f},
  {0.0530163012f, 0.57771337f, 0.905079603f, 1.144315f, 1.32334244f, 1.45196438f, 1.54626906f, 1.67835236f, 2.0151937f, 1.79588044f, 2.03739548f, 1.99914086f, 2.06294274f, 2.1130898f, 2.10338998f, 2.16271687f},
  {-0.0312440656f, 0.561290443f, 0.827052355f, 1.38818073f, 1.33331311f, 1.37804675f, 1.44860232f, 1.36542809f, 1.73971891f, 1.98343289f, 1.92222571f, 1.96227574f, 1.94670916f, 2.00059128f, 2.14131379f, 2.12332177f},
  {-0.0788550824f, 0.630523741f, 0.839491844f, 1.30614567f, 1.41813159f, 1.4230901f, 1.52457476f, 1.43197501f, 1.72626138f, 2.06332588f, 1.95601785f, 2.01254535f, 1.79666114f, 1.87158918f, 2.28217411f, 2.26676679f},
  {-0.111492395f, 0.589761615f, 0.811952651f, 1.56305075f, 1.43651962f, 1.50299954f, 1.69592917f, 1.55512297f, 1.79233158f, 2.24944782f, 1.80491865f, 2.2156682f, 2.14586973f, 2.1577003f, 2.06079268f, 2.07229543f},
  {0.0493224263f, 0.530679524f, 0.730442166f, 1.26569331f, 1.22849584f, 1.62937927f, 1.59636819f, 1.62390578f, 2.02464032f, 1.94445038f, 2.07856727f, 2.1080184f, 2.09007549f, 2.02842474f, 2.1548481f, 2.23042941f},
  {-0.000555321109f, 0.603868425f, 0.704170227f, 1.08509159f, 1.3462317f, 1.30153739f, 1.47034991f, 1.92525113f, 1.93292499f, 2.2022016f, 1.95141196f, 2.21609139f, 2.07579613f, 2.22492003f, 2.16140413f, 2.20533109f},
  {0.107389539f, 0.593341112f, 0.994369864f, 1.12609637f, 1.34071124f, 1.3037405f, 1.66487241f, 1.65978301f, 1.82027984f, 1.88854063f, 2.07510567f, 1.90302634f, 2.21299028f, 2.22397161f, 2.26833153f, 2.28195333f},
  {-0.00892577134f, 0.521189034f, 0.993288338f, 0.998297215f, 1.33047593f, 1.3721118f, 1.62505579f, 1.70053005f, 1.90444112f, 2.0229516f, 2.00861025f, 2.19989872f, 2.12630177f, 2.12319994f, 2.11658454f, 2.34686661f},
  {-0.0676136911f, 0.609154344f, 0.946864426f, 1.11573219f, 1.39063025f, 1.47025156f, 1.78296602f, 1.56317222f, 1.9207803f, 1.82451439f, 1.99123108f, 2.02165508f, 2.025213f, 2.27767587f, 2.35059929f, 2.33575344f},
  {0.0123716919f, 0.608853102f, 0.855220258f, 1.20251596f, 1.3534528f, 1.6109153f, 1.78187549f, 1.76898992f, 2.08829236f, 1.70623553f, 2.10599136f, 2.29420829f, 2.15719008f, 2.1930449f, 2.32031751f, 2.39796138f},
};

static const float kLayer0D[48] = {0.717554271f, 0.776806533f, 0.934628248f, 0.766293228f, 0.727005303f, 0.773907781f, 0.691517115f, 0.637211442f, 0.958377779f, 0.750559449f, 0.964500725f, 0.923655152f, 0.767040074f, 0.759454727f, 0.727515459f, 0.769521952f, 0.739283741f, 0.896909237f, 0.711590052f, 0.874542356f, 0.705331087f, 0.743824065f, 0.753219306f, 0.732850134f, 0.795069516f, 0.900001466f, 0.810194075f, 0.733674288f, 1.06846082f, 0.761815965f, 0.742721438f, 0.842408419f, 0.770739019f, 0.747523844f, 0.863479435f, 0.781790078f, 0.869831145f, 0.935180128f, 0.777409434f, 0.721984029f, 0.755791068f, 0.801061749f, 0.856063664f, 0.773704529f, 0.669865608f, 0.776525319f, 0.770236909f, 0.747327387f};

static const float kLayer0InProj[96][24] = {
  {0.0564819574f, -0.0925726444f, 0.0438336283f, -0.0725643709f, 0.141246289f, -0.0216393974f, 0.0299612954f, -0.162042677f, -0.0872241035f, -0.0348155722f, -0.046178475f, 0.0307114255f, -0.0672175735f, -0.00376831088f, 0.0414030924f, 0.0533610582f, 0.151982158f, 0.125561073f, -0.0350644626f, -0.00249873823f, 0.0447818711f, 0.177615583f, -0.0708293021f, -0.0660806298f},
  {-0.0170059726f, -0.0240631066f, -0.0282746125f, -0.0312798321f, -0.0221790243f, 0.0361000858f, 0.0060520838f, -0.0497504026f, -0.0185767654f, -0.0168578271f, 0.0246143192f, 0.00446335832f, -0.0250479039f, 0.00251462567f, 0.0507606789f, 0.0114460597f, 0.021443449f, -0.00587502075f, -0.0183347482f, 0.0157367513f, -0.0346105285f, 0.0346782133f, -0.0303217527f, 0.0412635505f},
  {0.0137418984f, 0.11242608f, -0.235323012f, -0.032267835f, -0.0995680392f, 0.247956887f, 0.177101731f, -0.162055403f, 0.0342789665f, -0.14902702f, 0.157670453f, -0.189205691f, 0.10660851f, 0.0422746055f, 0.0184472091f, 0.306004375f, -0.0835118219f, -0.224018976f, 0.135957062f, -0.112931058f, 0.0225263443f, -0.240837708f, 0.107303575f, 0.109985203f},
  {-0.00414456893f, -0.0651139095f, -0.0328870714f, 0.0622816682f, -0.00272858818f, -0.0921587572f, -0.0456029922f, 0.025984332f, 0.086330846f, 0.0778909102f, -0.00791799836f, -0.0650317594f, 0.0665460378f, 0.0136075402f, -0.0888768584f, -0.0278189592f, -0.0589320287f, 0.00156029803f, -0.0465211049f, -0.0687868297f, 0.0795259625f, 0.0350029022f, 0.145824745f, -0.110467643f},
  {-0.00150070968f, -0.0760926604f, -0.0326077081f, 0.0273125805f, -0.0832982734f, 0.253922075f, 0.162302479f, 0.0714616627f, -0.00595462508f, -0.0552867129f, 0.116659656f, -0.028731294f, -0.0484189354f, -0.0464823432f, -0.0577935539f, 0.0531080849f, 0.0478684492f, -0.0408634134f, -0.0719107985f, 0.00838728156f, -0.0290604904f, -0.0427120328f, -0.0462215021f, 0.121349618f},
  {0.021846462f, 0.0436058715f, -0.0189158581f, 0.0326194726f, 0.0168139488f, -0.113255717f, -0.0338870138f, -0.0526246503f, 0.024787873f, 0.0153919999f, -0.0385093205f, -0.0189343169f, 0.0449786708f, 0.00724549312f, -0.018938113f, 0.00106552918f, -0.0400132053f, -0.0252814479f, 0.0409070402f, -0.00890099443f, 0.0113770338f, 0.03492238f, 0.0338716656f, -0.0779928267f},
  {-0.0028924807f, 0.0671825707f, 0.00748885656f, 0.00570161734f, 0.0479251891f, -0.231330842f, -0.0788950175f, -0.0572021864f, 0.045041956f, 0.0255168099f, -0.107082851f, 0.0542153753f, 0.021926092f, 0.000282937195f, -0.0037315134f, -0.0318563692f, -0.00264373329f, 0.150812581f, 0.0823325589f, -0.0320743248f, 0.0600531399f, 0.0226128288f, 0.11271669f, -0.206626102f},
  {0.0108876238f, 0.0508252084f, -0.0341997929f, -0.0479822755f, 0.031381458f, 0.214880466f, 0.207827315f, -0.0913167223f, -0.0994500145f, -0.134839743f, 0.0554621145f, -0.0235704035f, -0.0227468554f, 0.005598519f, 0.00916980766f, 0.056136705f, -0.0647884533f, -0.263388366f, 0.00091022288f, -0.127305478f, 0.218033478f, 0.0132357478f, -0.0847416371f, -0.0151398927f},
  {0.0375696011f, -0.00741082709f, -0.183219939f, 0.308391899f, -0.335787743f, 0.0247925967f, 0.000555663952f, 0.0832022429f, 0.218864262f, 0.161102384f, 0.090544723f, -0.188004583f, 0.142247543f, -0.000343517342f, -0.166646704f, -0.0495550521f, 0.0506205671f, -0.0636937395f, -0.16462402f, -0.166292608f, 0.147093967f, -0.0338635221f, 0.23004432f, -0.0399482921f},
  {0.0986383259f, 0.00295279245f, -0.101467609f, 0.0433746055f, 0.036886923f, -0.0561240204f, 0.0342284255f, 0.0812420025f, 0.0503725782f, -0.0495106392f, -0.0153932078f, -0.00934747513f, 0.0261564143f, 0.0446055196f, -0.0612568259f, -0.0627186149f, 0.00832960289f, -0.0109940199f, 0.0366078541f, -0.0512047298f, -0.00831887312f, 0.0102269938f, 0.0238783192f, -0.124535464f},
  {0.174501315f, -0.0340934582f, -0.148734584f, -0.0716269985f, 0.268964797f, -0.0381402783f, -0.105774038f, -0.322390318f, 0.117977776f, -0.0247279424f, 0.139755651f, -0.0996394455f, 0.093176946f, 0.0488087423f, 0.0540381446f, 0.149950281f, -0.29570514f, -0.0696308538f, 0.0883921757f, -0.102593988f, -0.349284768f, 0.210031182f, 0.0559007153f, 0.0492399484f},
  {-0.228183508f, -0.0212281998f, 0.190302968f, -0.319394201f, 0.124998234f, 0.0189417787f, 0.162254229f, 0.200936303f, -0.216399059f, -0.201871172f, -0.0885986611f, 0.0338753201f, -0.172323748f, -0.00803366024f, -0.171569124f, 0.147984818f, -0.144886374f, 0.162566185f, -0.317124367f, 0.311668009f, 0.0617412478f, -0.140583813f, -0.00601663021f, 0.219600737f},
  {0.0289809015f, 0.0104354564f, -0.10563799f, 0.0221495554f, 0.0477517135f, -0.0220437814f, 0.149498329f, 0.0703243762f, 0.0469610356f, -0.0397912301f, 0.0351094715f, -0.0541970022f, 0.022013152f, 0.0567931458f, -0.0481020957f, -0.0349106118f, -0.0376335159f, -0.0200058874f, -0.000874750607f, -0.0425961018f, 0.0688288435f, 0.0430438891f, 0.00414536614f, -0.105712056f},
  {0.0208378118f, 0.0704515427f, -0.133773968f, 0.06473919f, 0.174040303f, -0.0884950534f, 0.0511310361f, -0.0364479609f, 0.0599380434f, -0.0569092259f, -0.0713405535f, -0.0155173009f, -0.0400105603f, 0.058234565f, -0.0841785148f, -0.0275981016f, -0.0554497875f, 0.108384535f, 0.0667096078f, -0.0596463159f, 0.169235379f, 0.0331054702f, 0.113376446f, -0.200178653f},
  {-0.0187281594f, -0.0101528838f, 0.0088649299f, 0.0326595306f, -0.0548143759f, -0.0387387685f, -0.0420210063f, -0.0571809225f, 0.0308365375f, 0.0716615766f, 0.0143114729f, -0.0730643272f, 0.0613536127f, -0.0188604724f, -0.0258827768f, 0.0440001301f, -0.103976786f, -0.0296409242f, -0.0756367967f, -0.0651954189f, 0.00300530205f, 0.00217554509f, 0.0915038958f, 0.0260325298f},
  {0.0279645249f, -0.0498422943f, -0.043283172f, 0.0475735553f, 0.20507361f, -0.0965876058f, 0.0301635489f, 0.031790074f, 0.0951597169f, 0.101380691f, -0.0225125737f, -0.0367500558f, 0.0475538112f, 0.0171075761f, -0.0868089423f, -0.0672516972f, -0.0461731367f, -0.0538433418f, 0.00922969915f, -0.0620091297f, 0.0325534604f, 0.188595742f, 0.0476992093f, -0.177878901f},
  {-0.0216618981f, 0.00260443264f, 0.048356086f, -0.0625559688f, 0.0320783369f, 0.00671364227f, -0.0646761134f, -0.0359752625f, -0.0200021807f, 0.000912233489f, -0.0191330928f, 0.00294268411f, 0.00976926461f, -0.0414462648f, 0.036197599f, 0.0514848456f, -0.0387527719f, -0.00848083943f, -0.0683400035f, 0.0200101808f, 0.0146025782f, -0.0320595764f, 0.0209102184f, 0.0915330127f},
  {-0.0970277935f, -0.11975871f, 0.289363563f, -5.57258281e-05f, 0.0570817031f, -0.172529832f, -0.154946923f, 0.0440570898f, -0.123113506f, 0.29779315f, -0.0828324929f, 0.0807048306f, -0.0604436547f, -0.0464017689f, -0.176871732f, -0.259602457f, 0.196663544f, 0.216775432f, -0.264808685f, 0.0104231313f, 0.0541007072f, 0.14282243f, -0.0564739145f, -0.123704717f},
  {-0.0654597431f, 0.111591473f, 0.190713093f, 0.0554178096f, -0.10357777f, 0.0479275584f, -0.0271463785f, -0.0670078397f, -0.0753107592f, -0.0128025142f, -0.032667134f, -0.0177638512f, -0.0403659008f, -0.0474666692f, 0.0626023114f, -0.0425922088f, 0.0200862214f, 0.00713882409f, -0.0171788111f, -0.0214577373f, 0.125345677f, -0.0448317863f, 0.0227596685f, 0.0262095146f},
  {-0.0956481919f, 0.366782069f, 0.0962798446f, -0.0364322029f, -0.0707997158f, 0.142561808f, 0.126584634f, -0.112095125f, -0.0768504441f, 0.0905090198f, 0.0117613822f, -0.170497477f, 0.185979798f, 0.0287847444f, 0.0272949729f, 0.085378468f, -0.0947934017f, 0.0232006852f, -0.220692515f, -0.140180215f, 0.431626469f, 0.011908032f, 0.0725561604f, -0.113982625f},
  {-0.00085897767f, -0.0188071355f, 0.0194688737f, -0.015263387f, 0.0554654263f, 0.0689792931f, 0.0439762361f, -0.0290462971f, -0.0451416224f, -0.0158776008f, 0.0229954515f, -0.018198479f, -0.0263606291f, -0.014223123f, 0.0164781772f, 0.0318600982f, 0.048913613f, 0.0168158524f, -0.00821326673f, -0.00401402079f, 0.0860269964f, 0.0160608906f, -0.051401563f, 0.0332281552f},
  {0.102714859f, 0.0866940543f, -0.0983076394f, 0.033245679f, 0.0284420308f, -0.111993767f, -0.0358797014f, 0.00752227847f, 0.0200431794f, 0.00492463401f, -0.037946254f, -0.0823292658f, 0.0425464138f, 0.0201722067f, -0.0342649072f, -0.00657993369f, -0.0180326514f, -0.0684026182f, -0.013472476f, -0.143543929f, 0.0410431698f, 0.145443365f, 0.10584075f, -0.138023689f},
  {-0.00392242242f, -0.00366755831f, -0.0730136931f, 0.0384080149f, 0.0449652113f, -0.0961530507f, 0.026833985f, 0.00318180281f, 0.0219561104f, 0.0342037156f, -0.0240010023f, -0.0186407212f, -0.0057207793f, 0.0118913567f, -0.0165644344f, -0.0804538578f, -0.0467529707f, 0.0262784828f, 0.0561983995f, -0.0790467933f, 0.052001819f, 0.0415807329f, 0.0449671447f, -0.14281249f},
  {0.00104859273f, 0.0519341752f, -0.0904195234f, 0.0150962174f, 0.047363691f, -0.160885885f, -0.0743336454f, -0.00162494066f, 0.0884306282f, -0.0189769603f, -0.00612936495f, -0.000651559676f, 0.0601999201f, 0.0162258837f, 0.0001022336f, -0.0349652693f, -0.0508968346f, 0.0645542145f, 0.0529009923f, 0.00123213592f, -0.0244183708f, 0.0667044222f, 0.0439191684f, -0.101353541f},
  {-0.0095775295f, 0.0352515951f, -0.0203254297f, -0.00611360231f, -0.00745379226f, -0.0107443361f, 0.0149525702f, 0.0266975276f, -0.0230978038f, -0.00273649837f, -0.139602587f, 0.036353454f, -0.044229988f, -0.00955971424f, 0.0103451852f, -0.042203296f, 0.0751607642f, 0.0654960126f, -0.0563519299f, 0.0203769021f, 0.0672797114f, -0.0431906544f, -0.00365533028f, -0.039762605f},
  {0.0748009756f, -0.0255177282f, -0.272592038f, 0.0477394871f, -0.142112419f, 0.0804775804f, -0.0409794152f, -0.0251809098f, 0.125854909f, -0.0944986194f, 0.156128779f, -0.00894661155f, -0.124443054f, 0.0280935355f, 0.122369044f, 0.280617744f, 0.080324851f, -0.0930237472f, 0.147547856f, -0.020411592f, -0.302713037f, -0.297089845f, 0.11011117f, 0.246456459f},
  {-0.128881767f, 0.0566620044f, 0.231059641f, 0.0991039947f, 0.076015301f, -0.166634768f, -0.05866744f, 0.0488634929f, -0.0753808543f, 0.177793905f, -0.144794822f, -0.0224172119f, 0.00980064459f, -0.0673617125f, -0.0838360935f, -0.0751075819f, -0.0325264856f, 0.195556f, -0.141657174f, -0.00744910026f, 0.17461592f, -0.0728552267f, 0.0890454426f, -0.0922575966f},
  {0.0378304012f, -0.275910586f, -0.0766681507f, 0.00319282711f, 0.289914101f, -0.231748521f, -0.0844984055f, 0.022725936f, -0.0561635569f, 0.146294206f, 0.00278118276f, 0.0906435847f, 0.0668639094f, 0.042098254f, 0.0457345285f, -0.0341718122f, -0.062504448f, -0.0127770118f, -0.0049553453f, -0.051729463f, -0.0500109121f, 0.284182638f, -0.0745284408f, -0.187492907f},
  {-0.152137354f, 0.0952239782f, -0.307660341f, 0.0725655034f, -0.395929545f, 0.314191997f, 0.21819675f, 0.0265906062f, 0.11457859f, -0.134196803f, 0.209381267f, 0.235376254f, 0.000437449751f, 0.0367421769f, 0.0812976882f, -0.00988305546f, 0.237161174f, -0.375501066f, 0.057926517f, -0.0587175339f, 0.118780024f, -0.29622063f, 0.0653176233f, 0.049391374f},
  {0.0484314412f, 0.00648557069f, -0.0870271027f, 0.0203011371f, 0.0113558033f, -0.0225351304f, 0.0574475043f, 0.05302931f, 0.00610639853f, -0.00984500907f, -0.0340374634f, -0.0200644378f, -0.0127735911f, 0.0219584126f, -0.0493099801f, -0.0719068348f, 0.0174217224f, 0.00700306846f, 0.0342898034f, -0.0612814389f, 0.0195792243f, 0.0423737951f, 0.0189786106f, -0.108975738f},
  {0.0554186106f, 0.0220786538f, -0.129993945f, 0.0724155232f, 0.0411677994f, 0.0204299837f, 0.0151050901f, 0.0366078913f, 0.0529693328f, 0.0309175812f, 0.0296954513f, -0.0536866635f, 0.0894325897f, 0.0206099749f, -0.101040363f, -0.011961f, -0.0674554035f, -0.11999733f, -0.0215569939f, -0.147866413f, 0.0538742729f, 0.0500502288f, 0.0404358879f, -0.0552903041f},
  {-0.107434802f, -0.0257345308f, 0.0159467794f, 0.0596522763f, 0.00242669065f, -0.0756302178f, -0.0949198306f, -0.0631941631f, 0.0185382776f, 0.126227051f, 0.0907708034f, -0.0237379298f, 0.180654213f, -0.0832782611f, -0.105523713f, 0.078764908f, -0.128663465f, -0.0791768953f, -0.0590253808f, -0.042993702f, 0.0184275769f, -0.00254500727f, 0.116173007f, -0.031849578f},
  {0.00934947655f, -0.0438001081f, -0.0937390998f, 0.0314399824f, 0.180649981f, 0.283076257f, 0.283749938f, 0.0259881932f, 0.00662208907f, -0.124938153f, 0.128749117f, -0.0321215726f, -0.0372477323f, 0.0997681469f, -0.0460101478f, 0.0399338305f, 0.0141140232f, -0.1722866f, -0.0672056079f, -0.0832887292f, 0.0538236909f, -0.0218824688f, -0.0732757226f, -0.0668819845f},
  {0.00962880906f, 0.0824898779f, -0.0636124015f, 0.0197361242f, 0.0917916894f, -0.113984182f, 0.0151205789f, -0.0162992273f, 0.0501659252f, 0.0138861695f, -0.102668956f, -0.00148432713f, -0.00652034953f, -0.0157365091f, -0.0332452133f, -0.0831751302f, -0.0341173336f, 0.108446665f, 0.0322206169f, -0.0159501899f, 0.152184382f, 0.00994195696f, 0.0816484392f, -0.181720257f},
  {0.0481267758f, -0.229165405f, -0.202700719f, -0.0306276679f, 0.405575484f, -0.176883116f, -0.0929797441f, 0.047089491f, 0.0587865748f, -0.102421917f, -0.0276232287f, -0.0614265017f, -0.0676263943f, 0.035705097f, 0.0016924435f, 0.145537689f, -0.116791397f, 0.231156871f, -0.0402767733f, -0.0226102136f, -0.102886878f, 0.315159559f, -0.0432053246f, -0.026117716f},
  {-0.0621965937f, -0.0227975436f, -0.0074811629f, 0.0201328956f, -0.034424983f, 0.114092335f, 0.0401691459f, -0.0602175631f, -0.0584716499f, 0.0118848374f, 0.0171058644f, -0.0616627596f, -0.0382983796f, -0.00245841499f, 0.0724200979f, 0.0769744962f, -0.017810652f, 0.072436668f, 0.0207955651f, 0.0191862974f, -0.104870364f, -0.136976078f, 0.0244442951f, 0.189000994f},
  {0.0170182306f, -0.0395067297f, 0.155540541f, 0.0537282154f, 0.102159381f, -0.121008985f, -0.157220215f, -0.203961506f, -0.0106455497f, 0.164350107f, 0.0492147729f, -0.04409872f, 0.147836491f, -0.00786440074f, -0.0122479601f, 0.0571882501f, -0.130270913f, 0.104287133f, -0.0235823654f, -0.0803284198f, -0.150528952f, 0.037688721f, 0.23699601f, -0.015064341f},
  {-0.190970629f, -0.0641472191f, 0.0847019777f, 0.0845690072f, -0.297981083f, 0.198108509f, 0.286799461f, 0.113461494f, -0.111347169f, 0.0206082687f, -0.0979283005f, -0.0533422306f, -0.0366467312f, -0.0858721733f, -0.0781984851f, -0.000872157281f, 0.240733445f, 0.164157256f, -0.127718881f, -0.136734396f, 0.351044029f, -0.181398317f, -0.0789294913f, -0.0492880195f},
  {0.0337366425f, -0.0161917731f, -0.0584289022f, 0.00462313183f, 0.035069406f, -0.00962838624f, 0.055934146f, 0.0176179912f, 0.0428577736f, -0.00864071399f, 0.054367844f, -0.00546577852f, -0.00104794034f, 0.0306568705f, -0.00616776571f, -0.00687055243f, -0.0327414349f, 0.0176602863f, 0.0461661667f, -0.0368762277f, -0.0292182826f, 0.00685931323f, -0.000186008372f, -0.0268221609f},
  {0.0180788431f, -0.099905923f, 0.113089234f, 0.00338522624f, 0.0205505807f, 0.0194802154f, -0.0140854716f, -0.0729927346f, -0.0356878862f, 0.0747741833f, -0.0156932268f, -0.00774053531f, -0.00251023611f, -0.0230561197f, 0.0143924486f, 0.0151596051f, 0.0630509853f, 0.0060963612f, -0.0534531958f, -0.0128110191f, 0.0359790921f, 0.0607543029f, 0.0207098592f, 0.00503264973f},
  {0.00432061264f, 0.100180298f, -0.0359511226f, 0.0529667065f, -0.171286702f, 0.219672203f, 0.0867884979f, 0.127542764f, 0.071182698f, -0.160189062f, 0.105601862f, -0.117520511f, -0.120275371f, -0.016283283f, 0.00649338169f, -0.110353395f, 0.0140255112f, 0.0284635797f, 0.0816378444f, -0.0182251241f, -0.0507710837f, -0.136636332f, 0.00517756352f, 0.109532528f},
  {-0.0767679885f, -0.0749997273f, 0.18406941f, -0.0602433383f, 0.0112358462f, -0.0662259161f, -0.110590085f, -0.0399284065f, -0.103692375f, 0.069472976f, -0.027853176f, 0.100506134f, 0.0495267436f, -0.0399992019f, 0.0672225207f, -0.0806898102f, 0.00268550054f, 0.114968166f, 0.0486438721f, 0.0988383666f, -0.112838492f, 0.0172279142f, -0.0965181068f, 0.0110908095f},
  {-0.0657111108f, -0.117160492f, 0.150704101f, -0.0022296363f, 0.27347061f, -0.154101759f, -0.0653153211f, 0.00313393516f, -0.292211503f, 0.0752392933f, -0.0333328657f, -0.0826638713f, -0.0730808899f, 0.0110134287f, -0.0184623096f, 0.00822897907f, -0.108670458f, 0.156791016f, -0.104869962f, -0.0744032636f, 0.252375692f, 0.321271062f, -0.0703779683f, -0.105919152f},
  {-0.0102044391f, 0.0853307322f, 0.0566405877f, 0.0221293252f, -0.00352019467f, -0.0874654502f, -0.0986014977f, 0.166960269f, 0.0920814425f, 0.0621258318f, -0.0778305754f, 0.0265471824f, 0.000721823715f, -0.0596056804f, -0.102642782f, -0.13918145f, 0.0538245626f, 0.0370125398f, 0.0999936014f, 0.0307228379f, 0.0468509346f, 0.0301705599f, -0.043136321f, -0.105426267f},
  {0.102474608f, 0.00855291914f, 0.0034645542f, 0.0440146327f, 0.0245650671f, -0.0600664429f, -0.142464176f, -0.116293848f, 0.00688724779f, -0.0117855864f, 0.0959733352f, -0.0475734137f, 0.0757099092f, -0.0515811928f, 0.0830240846f, -0.0118734697f, -0.125261933f, -0.0482394323f, 0.0393623933f, -0.0313502513f, -0.149725437f, 0.205457568f, 0.0977009982f, 0.01461918f},
  {0.0545005277f, -0.144107416f, -0.0622930117f, -0.0255458187f, 0.189687163f, -0.13009578f, -0.0210150033f, -0.0689930767f, -0.0412611999f, -0.00211549341f, 0.0204155408f, 0.0314682312f, -0.0207494218f, 0.0132135293f, -0.019296078f, 0.0595160201f, -0.0338205993f, -0.0282019377f, 0.0111121079f, -0.102633663f, 0.00750161242f, 0.346785307f, -0.0552984178f, -0.0357527845f},
  {0.0440650508f, 0.0726631284f, -0.117576122f, 0.102436393f, -0.0865281597f, -0.0855965093f, -0.0541623235f, 0.101919971f, 0.0499195904f, 0.0479530431f, 0.00538411131f, -0.053971801f, 0.07097812f, 0.0637862012f, -0.0624577329f, -0.105848476f, -0.0348767377f, -0.0847043693f, -0.0202478804f, -0.0501542613f, 0.00761902565f, -0.0470252857f, 0.0489824228f, -0.021683082f},
  {0.00826020073f, -0.0478889719f, 0.0870246962f, -0.00740882289f, -0.0338748582f, 0.115585573f, -0.0206646901f, -0.0228604004f, -0.0517676212f, 0.000934958982f, 0.0703432411f, -0.0251115952f, -0.0326245204f, -0.0404978096f, 0.0660331845f, 0.083187677f, 0.0170289036f, -0.0957286581f, -0.031707488f, 0.0183486678f, -0.0773514435f, -0.014360168f, -0.067124337f, 0.144535959f},
  {0.0494726002f, -0.0205588285f, -0.0244665053f, -0.157140046f, 0.0486413687f, 0.00115121761f, 0.0513544641f, -0.0466763936f, 0.0152710695f, -0.0640665591f, -0.0359040052f, 0.102104999f, 0.0286601223f, -0.00491533941f, -0.00921183452f, 0.0944976062f, 0.0416211933f, -0.0347853415f, -0.0912111998f, 0.0587911867f, -0.0100083947f, 0.0927009061f, -0.0405698381f, -0.0431578942f},
  {-0.00707540056f, 0.0370931588f, 0.0209221821f, 0.0271236002f, 0.0224712081f, -0.0141919395f, 0.0617188103f, -0.0266145207f, -0.00092189922f, -0.0300257299f, -0.0132591864f, -0.0178866051f, -0.0100513445f, 0.0185467731f, 0.018470237f, -0.014280498f, -0.0233821068f, -0.0286471676f, -0.0257106777f, -0.0438424312f, 0.0987506956f, -0.00530470908f, 0.00114636333f, -0.0320721194f},
  {-0.364447355f, -0.0547835715f, 0.0874029323f, -0.07870996f, 0.117331751f, -0.10978125f, -0.0349520817f, 0.290049404f, -0.187685966f, 0.102371112f, -0.210003346f, 0.193662316f, 0.0736313984f, -0.0155981239f, -0.0322042219f, -0.0384734459f, 0.0323018692f, 0.159952357f, -0.0479036383f, 0.276946962f, 0.0919498727f, -0.131594643f, -0.220815048f, -0.109580241f},
  {0.00928654522f, 0.135326818f, -0.135988861f, 0.0432767197f, 0.0611549877f, -0.0546453297f, 0.0640760213f, 0.0219210573f, 0.0377208255f, -0.02086135f, -0.00417406298f, -0.084214747f, -0.0117842825f, -0.0117300926f, -0.0421331413f, -0.0989907533f, 0.00346465874f, -0.00202420237f, 0.079600893f, -0.128800765f, 0.12879087f, 0.0427593067f, 0.00377801876f, -0.171049729f},
  {0.0582462549f, 0.0996839106f, 0.007541392f, 0.0384772159f, -0.121065132f, -0.00168780761f, 0.0223662257f, 0.0166548565f, 0.0855577812f, 0.00886918977f, -0.0882639289f, -0.0592314787f, 0.0498841777f, 0.0169201326f, -0.0551670119f, -0.0959608033f, 0.0912373811f, -0.1269373f, -0.00577779533f, 0.0529820025f, 0.0218785703f, -0.0619677305f, 0.11379461f, -0.0756323859f},
  {0.021099098f, -0.00429929094f, -0.0600728244f, 0.0333850123f, 0.013353385f, -0.0236008614f, 0.0366761759f, 0.00709746219f, 0.0106349187f, -0.0320793837f, -0.0343012214f, -0.0261335447f, -0.0176252443f, 0.0250197854f, -0.0072684777f, -0.0289149806f, -0.0103097437f, -0.0456081033f, -0.00357112964f, 0.00521874754f, -0.0134700872f, 0.0460909195f, 0.00491869496f, -0.0244009402f},
  {0.0126357498f, 0.0589432903f, 0.0117851021f, 0.0462302603f, -0.00254732184f, -0.0880782828f, -0.0183864087f, -0.0627912134f, 0.0766597912f, 0.0109646209f, -0.0552924462f, -0.0699757785f, 0.0127493069f, 0.00802690536f, 0.0197538827f, -0.0639957562f, 0.0323140621f, -0.0802462772f, 0.00264140125f, 0.00713772653f, -0.00278740725f, 0.0669711754f, 0.112893879f, -0.127098545f},
  {-0.077492632f, 0.204592019f, -0.0660537034f, -0.0784207508f, -0.0777595863f, 0.187151343f, 0.0775801539f, 0.0212720353f, -0.0106213186f, -0.0720068067f, 0.0537931435f, -0.0948219448f, 0.0636008754f, -0.0405688249f, -0.0484417416f, -0.0420475602f, 0.0138852121f, -0.121425591f, -0.0862969086f, 0.0251136981f, 0.147169992f, -0.0549462177f, -0.0805338994f, 0.140030965f},
  {0.0522292033f, 0.165407434f, 0.0446108617f, -0.313721448f, 0.122068167f, -0.0183375999f, 0.0791281462f, -0.0780962035f, -0.0879399702f, -0.263418078f, -0.15932174f, 0.214299127f, -0.272890121f, 0.00360173336f, 0.140883178f, -0.0718048662f, 0.0581401326f, 0.00837873016f, 0.253191799f, 0.204717442f, -0.119555354f, 0.029214967f, -0.315499306f, -0.0502805263f},
  {-0.0357184671f, 0.042804528f, 0.0503375977f, 0.0574828051f, 0.0179466121f, 0.0102783488f, -0.00406387029f, -0.00951220561f, -0.0171912201f, -0.00467254734f, 0.0334623754f, -0.0107700201f, 0.00131335156f, -0.0272991545f, -0.0347338654f, -0.0318160951f, -0.0816020072f, -0.0168908592f, 0.00584462937f, -0.0222021565f, 0.0507186055f, 0.00646428159f, 0.0804045796f, -0.0667990223f},
  {0.0205377266f, -0.00464016013f, -0.0463624038f, 0.00636596885f, -0.255095661f, -0.205916241f, -0.137809739f, 0.167592019f, 0.0184975546f, -0.143479347f, 0.108963184f, 0.146606579f, -0.112049192f, -0.0199131537f, -0.091912061f, -0.057879474f, 0.223887548f, -0.110819302f, 0.00042097905f, 0.442279756f, 0.0144899888f, -0.198423326f, -0.0801481977f, 0.0199592616f},
  {0.139932558f, -0.304538876f, -0.0956707001f, -0.0717450976f, 0.113054946f, -0.142459169f, 0.145330817f, -0.0124298781f, -0.146703601f, -0.108851403f, -0.0271608476f, 0.0943936408f, -0.240599185f, -0.051273603f, -0.159466878f, 0.118713081f, 0.180507734f, 0.221893758f, -0.233614296f, 0.0629715547f, -0.0446145795f, 0.182040289f, -0.194489628f, -0.0817987844f},
  {0.00406774087f, 0.0304749366f, -0.0443046726f, 0.0467291363f, 0.0283442922f, -0.0395785831f, 0.0599796921f, 0.0131684504f, 0.00721120695f, -0.0318367369f, 0.079399243f, -0.0201659724f, 0.00311908778f, 0.0301082637f, -0.000453216751f, -0.0217361003f, -0.0121996664f, 0.0475865826f, -0.0142605938f, -0.0482988358f, 0.0342449695f, -0.0160272811f, 0.021683028f, -0.0774707422f},
  {0.0513577349f, 0.0623177961f, -0.0869859159f, 0.0452402197f, 0.0907250196f, -0.0245719161f, 0.0498683825f, 0.00857938174f, 0.0474996381f, -0.0468854867f, 0.0253541972f, -0.076329425f, -0.0362959914f, 0.067732811f, -0.0393165499f, -0.0305826049f, -0.00267312909f, -0.0465747416f, 0.0219014138f, -0.0825646371f, 0.0421890765f, 0.0690688491f, 0.0802134275f, -0.163724929f},
  {-0.0537194274f, -0.0337033905f, 0.120299928f, -0.0841915011f, 0.0168799236f, 0.0126473019f, 0.072960861f, -0.104711287f, -0.0385621265f, 0.00502482476f, -0.0139314616f, 0.0351566933f, 0.0006759346f, -0.093843706f, 0.0341529399f, 0.028026646f, -0.0310177319f, -0.00357364537f, 0.0354742706f, 0.0586324371f, 0.0227426346f, -0.124855042f, 0.0576190464f, -0.0315384269f},
  {-0.0197539292f, 0.077198714f, -0.0717990249f, 0.0403353944f, 0.0337192602f, -0.013010771f, -0.0121280365f, 0.00510813948f, -0.0406387858f, -0.0515277721f, 0.0235091466f, -0.0515132397f, -0.0438632928f, 0.0320706479f, -0.024236273f, -0.0814328641f, 0.0589762405f, 0.0375918224f, 0.0442649648f, -0.0934430882f, 0.134726524f, 0.015689088f, 0.0673845112f, -0.173633501f},
  {-0.00514341565f, -0.0481098369f, -0.00973844156f, 0.0279457178f, -0.0365595855f, 0.0175442118f, 0.0190506224f, 0.00735893054f, 0.0396755449f, -0.0183318872f, 0.0258707553f, -0.0170890223f, -0.0156267509f, -0.00244499138f, -0.0329793952f, -0.0339999907f, 0.0036368221f, -0.0152319688f, 0.0387896448f, -0.024941355f, -0.0669727698f, 0.0193442125f, -0.0212195106f, -0.08916834f},
  {0.0146903209f, -0.0511217974f, -0.0907611772f, 0.11374972f, -0.0841660947f, 0.0519559011f, 0.0146808494f, -0.131040305f, -0.00621583546f, 0.0779829398f, 0.119596846f, -0.0886448622f, 0.148214623f, 0.0650718436f, -0.132553622f, 0.299397856f, -0.233112767f, -0.128908634f, -0.11977306f, -0.133259535f, -0.195133507f, -0.190318063f, 0.175412863f, 0.292149812f},
  {-0.0457870103f, -0.0617087856f, 0.0307838805f, 0.00834855437f, 0.0309191942f, -0.0400859602f, 0.00290694553f, -0.0241549555f, 0.0492287353f, 0.0366083384f, 0.0316831172f, 0.0157154463f, 0.0222878959f, 0.0473204292f, 0.00517792581f, 0.0775789768f, -0.060928423f, -0.0325701907f, -0.056183897f, 0.052068036f, -0.0773459673f, -0.00334644504f, 0.0762028471f, 0.0142261172f},
  {0.0743574947f, -0.0795915127f, -0.15466933f, 0.156835929f, -0.301740706f, 0.191529334f, 0.00788571592f, 0.0926112905f, 0.110904537f, -0.157864347f, -0.100044645f, 0.00725679193f, -0.286699951f, -0.0511390157f, 0.0432368815f, -0.12361677f, 0.210580707f, -0.0411264561f, 0.251094878f, -0.0192775f, -0.149703801f, -0.182629704f, -0.103579149f, 0.0933197141f},
  {-0.0226031058f, 0.0181213338f, 0.0335135609f, 0.0032188138f, 0.0108596077f, -0.0144177089f, 0.010292897f, 0.00651050778f, -0.0225435887f, 0.024030095f, -0.0091907829f, 0.0340735354f, -0.00083142065f, 0.0205313303f, -0.0226835143f, -0.0190955605f, -0.0139821153f, -0.0586488433f, -0.0119567439f, 0.0272165351f, -0.0104739871f, -0.0262530837f, 0.0461885035f, -0.0403982662f},
  {0.0630769506f, 0.0319852158f, -0.0440419354f, -0.0675847381f, -0.0104452837f, 0.0325924307f, 0.103245385f, 0.0429861248f, -0.00938402675f, -0.0884243697f, -0.0692970008f, 0.105141401f, -0.108476333f, -0.0642175451f, 0.00538307335f, 0.00250636647f, 0.11152105f, 0.0918999836f, 0.0984224156f, 0.166324079f, -0.0385056809f, 0.065114364f, -0.130790725f, 0.0418298803f},
  {0.0118349455f, 0.0202472787f, -0.0528544337f, 0.00442679133f, 0.0202014651f, -0.0692423508f, 0.0372926779f, 0.0270827506f, 0.0184918735f, -0.0329340436f, 0.0147747435f, -0.034646228f, 0.00731308386f, 0.018286692f, -0.0385618508f, -0.06689585f, -0.0334563218f, -0.0161710605f, 0.018874675f, -0.028953854f, 0.00672772806f, 0.079119131f, 0.0330230296f, -0.112953655f},
  {-0.0333179012f, 0.0353855193f, -0.00912460033f, 0.019794859f, -0.0383020043f, -0.0622152798f, 0.00497968961f, 0.0168118868f, 0.0249603316f, -0.00413901266f, -0.0339105725f, -0.0317999348f, -0.00207584375f, -0.00114737055f, -0.00269198231f, -0.0484674685f, -0.0210647099f, -0.0139024425f, 0.013994256f, -0.00552608445f, 0.00137226342f, 0.0650848076f, 0.0636682287f, -0.0736429617f},
  {0.00910800975f, -0.0392397754f, 0.00848821178f, 0.011166838f, 0.00169135979f, 0.0216908939f, -0.0354731493f, -0.00902443659f, 0.0197878554f, -0.00957374368f, 0.0536650456f, 0.0118403574f, -0.0247741491f, -0.0188099556f, 0.0123528494f, 0.0345503278f, -0.00329807727f, -0.0291566495f, 0.00408216426f, -0.0392742157f, -0.0944618881f, 0.0339800566f, 0.00775588211f, 0.00253199693f},
  {-0.113466367f, -0.0473105088f, 0.284194559f, 0.0441654548f, 0.0468510799f, -0.229718238f, -0.132755071f, 0.0481769107f, 0.0429173596f, 0.159565583f, -0.144439995f, 0.0182113107f, -0.0131040588f, -0.00903930608f, -0.0210192185f, -0.253668875f, -0.0148062585f, 0.309355766f, -0.0526024215f, 0.132107064f, -0.10673745f, 0.161253095f, -0.0799130425f, -0.0637838542f},
  {-0.0551085137f, 0.0613390915f, 0.0243501328f, 0.0736700073f, -0.206591994f, -0.0413867459f, 0.077137582f, 0.25739187f, -0.0260276292f, 0.0370303914f, -0.0832769871f, 0.0718719885f, 0.0256047528f, 0.00458324375f, -0.0513982698f, -0.137739941f, -0.0716883913f, -0.0385400988f, 0.127761737f, 0.0981644392f, 0.0162812807f, -0.126670226f, 0.173081771f, -0.103189774f},
  {0.0770658478f, -0.0158040058f, -0.0539463907f, -0.13645786f, -0.0798046887f, 0.0767559558f, 0.0871170014f, 0.116717145f, 0.0807380378f, -0.0519643016f, -0.0818114206f, 0.148212239f, -0.103704087f, -0.0710793585f, 0.0478585176f, 0.0319066755f, 0.0749221221f, -0.0151923299f, -0.0162164811f, 0.0956684127f, -0.0566809922f, 0.0574401543f, -0.2877599f, -0.0298328884f},
  {-0.0916410387f, -0.0251364894f, -0.041999653f, -0.142332643f, 0.14948158f, 0.0711803064f, 0.113552928f, -0.104264766f, -0.262054652f, -0.15722926f, 0.149789885f, 0.0740033537f, -0.340396553f, -0.0194209125f, 0.0142442491f, 0.0232576542f, 0.321132839f, 0.050603874f, -0.204328537f, -0.0402797088f, 0.262696803f, -0.119202442f, -0.0686638355f, -0.00624660309f},
  {-0.0200318079f, -0.0256869029f, 0.0118978694f, 0.0678227767f, 0.00634858757f, -0.0325598717f, 0.0196312256f, 0.00755162863f, -0.00342728407f, -0.00675923843f, 0.0366001204f, -0.0249415413f, 0.00902642403f, 0.0270416196f, -0.0354028307f, -0.0206902325f, -0.005915944f, -0.0346210003f, 0.0048528472f, -0.027301481f, 0.0149254156f, 0.0213977545f, 0.000186326433f, -0.0798533112f},
  {0.0513826199f, 0.0508651063f, 0.06481684f, -0.0736089796f, -0.0230878573f, -0.0434172936f, 0.0308894906f, 0.0797428563f, -0.022888381f, 0.0068328348f, -0.110731021f, 0.125123113f, -0.0140790641f, -0.0870965123f, -0.00511002354f, 0.0131172575f, 0.0735236704f, 0.134473041f, 0.047867015f, 0.203177884f, -0.0293653924f, 0.0544505194f, -0.0643566474f, 0.0246690791f},
  {-0.0974108204f, 0.0973618776f, 0.181282908f, -0.0519742183f, 0.0873810351f, -0.053617008f, -0.0293244943f, -0.209009379f, -0.0823050961f, 0.0486002788f, -0.0908361599f, 0.0289470498f, 0.048260171f, -0.0585758314f, 0.0581691936f, 0.0436695404f, -0.0670642704f, 0.0270378552f, 0.0439336225f, -0.0671369061f, 0.0719582364f, -0.195852369f, 0.098240532f, -0.0909172371f},
  {-0.0137043241f, -0.0557762608f, -0.0178825799f, -0.15148297f, 0.00712690176f, 0.0773452595f, 0.0999137536f, -0.0629754141f, -0.0506518409f, -0.115451299f, 0.0940662175f, 0.0103078391f, -0.0473607816f, 0.032629393f, 0.106171474f, 0.11710006f, -0.035653308f, 0.0751194805f, -0.0806346312f, 0.000219596026f, -0.0148786493f, 0.00289103203f, -0.170202434f, 0.0890843272f},
  {-0.00179107045f, 0.0311670322f, 0.0201855525f, 0.0621274114f, 0.0915425047f, -0.0702403039f, -0.0106196096f, -0.0547420084f, 0.0151023595f, 0.0202329271f, -0.0193388592f, -0.0490227267f, -0.000936387456f, 0.0309104808f, -0.01834145f, -0.0672024265f, -0.0162163042f, -0.033564657f, -0.0265406892f, -0.0471733026f, 0.0661271438f, 0.0923483223f, 0.0859563723f, -0.163696766f},
  {-0.16325973f, 0.163422614f, 0.221481174f, -0.0240082722f, 0.0329593457f, 0.0796360373f, -0.0972426534f, -0.140813753f, -0.0683147311f, 0.142044708f, -0.0425478034f, -0.147263691f, 0.188336536f, -0.0659178719f, 0.00717030559f, -0.0385772437f, -0.112709291f, -0.0434511043f, 0.0458740816f, 4.27739324e-05f, 0.291758716f, -0.249540672f, 0.109140925f, 0.00589289656f},
  {0.0218085814f, 0.0633559749f, -0.00480849249f, 0.0135574052f, 0.0195267983f, 0.00631744135f, 0.108804867f, -0.0254754648f, -0.000555338687f, -0.0357653387f, 0.0160095915f, -0.0301918928f, 0.0497234277f, 0.0609768592f, -0.0233412609f, -0.0244352669f, -0.0598974898f, -0.0836442932f, 0.00757887773f, -0.0509001948f, 0.104273796f, 0.0594282784f, -0.0394156501f, -0.0718540177f},
  {-0.0760449544f, 0.12396054f, 0.234280258f, -0.0506426878f, 0.226647601f, -0.126480952f, -0.0606691912f, -0.184421733f, -0.130180269f, 0.0550071001f, -0.0769886598f, 0.0271743424f, 0.0464579351f, -0.0611718334f, 0.0352413431f, 0.0650912896f, -0.154989854f, 0.0779822916f, -0.0184436478f, -0.0241983626f, 0.10472586f, -0.0747550726f, 0.175684348f, -0.0922634825f},
  {0.148584187f, -0.184579194f, -0.343462348f, 0.133672088f, -0.0633444041f, -0.0373731665f, -0.0911683887f, 0.397227049f, 0.197519958f, -0.119856931f, 0.0421575345f, 0.0488351956f, -0.0385476425f, -0.0342259519f, -0.103147373f, -0.0842955261f, 0.0406566374f, -0.0153033976f, 0.108331524f, 0.0655564815f, -0.0614562258f, 0.0381960683f, 0.0525844544f, -0.0824864954f},
  {-0.012814804f, 0.0242700092f, -0.0103737498f, 0.0139426496f, 0.00248716259f, -0.0282160286f, 0.0188913159f, 0.0316905081f, -0.0124118067f, -0.00915362965f, 0.0307602454f, -0.0117522376f, 0.0142880501f, 0.0235970113f, -0.0226845238f, -0.0371966548f, -0.0195258651f, 0.00213310006f, -0.00477284892f, -0.0188894123f, -0.039136298f, -0.00549238455f, 0.005162491f, -0.00644975016f},
  {0.0336258411f, 0.00104293902f, -0.0638279542f, -0.0140301213f, 0.0137385512f, 0.0505193397f, 0.0428048372f, -0.0232228301f, 0.0461562946f, -0.0297006555f, -0.0576042831f, 0.0700478703f, -0.0185637251f, -0.0601475276f, -0.00204359996f, 0.0696120337f, 0.0951781869f, -0.0486886799f, -0.0153322835f, 0.0419561118f, 0.00577347865f, 0.0237385463f, -0.0744512454f, -0.0245289691f},
  {0.09030509f, 0.0731177777f, -0.082422398f, -0.237292305f, 0.0508686677f, -0.00129147538f, 0.0218013804f, 0.0897634774f, 0.0359123722f, -0.181544229f, -0.14649938f, 0.157183036f, -0.0585587807f, -0.105054148f, -0.0505378395f, 0.127054796f, 0.105616719f, -0.0831196308f, -0.00487531768f, 0.108278535f, -0.0635297522f, 0.177857131f, -0.139393061f, -0.0326085947f},
  {-0.0979605243f, -0.0974512175f, 0.127581477f, -0.0638316646f, 0.0851666629f, -0.0330823958f, -0.0413212106f, 0.0892075598f, -0.00721707195f, 0.0523294248f, -0.00567750726f, 0.0662942678f, 0.0148830768f, -0.119691812f, 0.0294703133f, -0.0626332685f, 0.0166168585f, 0.146343961f, 0.0898458362f, 0.140708759f, -0.159104258f, -0.0231997706f, -0.135006949f, 0.00892882422f},
  {0.00831898209f, 0.0841122195f, 0.0218319912f, 0.13035588f, -0.152708471f, 0.0730333179f, -0.0984050259f, 0.0086092148f, 0.193598583f, 0.0883343816f, -0.05566407f, -0.0708608329f, 0.0182707775f, -0.0881870463f, -0.0706222653f, -0.171675593f, -0.033831276f, 0.0368857533f, 0.0306032784f, 0.0291704927f, -0.318934441f, -0.231137663f, 0.234293565f, 0.177004993f},
  {-0.0181738678f, -0.079647094f, 0.0612600669f, -0.0716446862f, 0.0314762741f, -0.0146130119f, -0.0332668573f, 0.0490213484f, 0.0143535463f, 0.0288486388f, 0.0548507348f, 0.00408762367f, 0.0142033845f, -0.0588416867f, -0.0209926944f, 0.0278376546f, 0.0829535574f, 0.0625199527f, 0.026447203f, 0.0932883024f, -0.053632006f, 0.0402911939f, -0.185418442f, 0.028767392f},
  {-0.149199754f, -0.0371656418f, 0.0744412467f, 0.00625285739f, 0.0121370452f, 0.0407318845f, 0.123077124f, -0.0186328925f, -0.0721788555f, 0.10592676f, 0.0366343148f, 0.0484369658f, 0.0334989727f, -0.0100872563f, -0.0225704033f, 0.00958772376f, 0.010053942f, 0.109043837f, -0.0358447693f, -0.0190966353f, 0.0917117819f, -0.2630651f, 0.0545476042f, 0.0385250971f},
  {0.0161284562f, -0.0273165759f, -0.0560608394f, -0.115616918f, 0.042407237f, -0.124977276f, -0.0149120837f, 0.0825593174f, -0.0515302196f, -0.0293821916f, -0.0508100912f, 0.112610333f, 0.0302026682f, 0.0386437476f, -0.0329070576f, 0.0673850253f, 0.0032643117f, -0.0487451926f, -0.0921816975f, 0.133097827f, 0.11619357f, 0.0102857873f, -0.115696624f, -0.0489670821f},
  {0.117870383f, -0.021458352f, -0.0157927815f, -0.127813697f, 0.00644402066f, 0.00576342503f, 0.0204443578f, 0.0430244617f, 0.0405080616f, -0.0960069373f, -0.114040986f, 0.13681218f, -0.0125315581f, -0.01610999f, 0.0102847964f, 0.0266607404f, 0.0885082334f, 0.0160884876f, 0.0192433745f, 0.140183002f, -0.0413238294f, 0.107619137f, -0.140782252f, -0.0573789366f},
  {0.0263859779f, 0.0669156238f, -0.0557959899f, 0.0144074708f, 0.0243339576f, -0.0144209312f, 0.011597448f, 0.00486839237f, -0.0084480159f, -0.00987302698f, 0.0266090538f, -0.0385097899f, -0.030380372f, -0.0131774666f, -0.0615450814f, -0.0545832142f, -0.00634411583f, -0.0112459902f, 0.0295002237f, -0.0119474223f, 0.0174223874f, 0.0740609095f, 0.0512542538f, -0.12991038f},
};

static const float kLayer0Conv1dWeight[48][4] = {
  {0.00682901265f, 0.155276164f, -0.0259378534f, -0.113595739f},
  {0.0477176681f, 0.0399133116f, -0.0683454275f, -0.092971094f},
  {-0.298371881f, 0.303278625f, -0.140875384f, 0.0110185314f},
  {-0.086998336f, -0.0402524173f, -0.110783674f, -0.0984798372f},
  {-0.163455203f, -0.0459372401f, 0.0305483844f, 0.0511416644f},
  {-0.0678643137f, -0.0452161431f, 0.0189581942f, 0.00505319145f},
  {0.199332327f, 0.076237835f, 0.0337850526f, -0.0618368313f},
  {-0.244229957f, -0.0115233595f, 0.141432434f, 0.0165870003f},
  {0.192480594f, 0.325275272f, 0.108521797f, -0.00964893308f},
  {0.0831754729f, -0.0754016191f, -0.156799421f, -0.0682789758f},
  {0.145727232f, -0.374207675f, 0.132595211f, 0.0560363606f},
  {0.184587926f, 0.336539268f, -0.165163398f, -0.246319786f},
  {-0.0839208513f, -0.00862327497f, -0.0309390146f, -0.0153636057f},
  {0.173689663f, 0.00843697507f, 0.0732413828f, -0.0238618851f},
  {0.0502991825f, 0.00348525634f, -0.105896458f, -0.0901378542f},
  {-0.0899569094f, -0.0508582219f, 0.10807959f, -0.167586267f},
  {-0.00517913839f, -0.00512742018f, -0.0344709605f, -0.123689778f},
  {0.157538176f, -0.253481984f, 0.229154333f, -0.0954631194f},
  {0.017698884f, -0.0864603817f, -0.0130020697f, 0.156517208f},
  {0.319713801f, 0.0118378941f, -0.0676725283f, -0.181732476f},
  {0.0511335768f, 0.0458528176f, -0.0180408917f, -0.0419999175f},
  {-0.0772146583f, 0.0234972239f, 0.231886595f, 0.0574529357f},
  {0.0834980309f, 0.0448287763f, 0.00493358774f, 0.0281724893f},
  {-0.12081743f, -0.0573837645f, 0.0260337107f, 0.019028252f},
  {-0.0480520837f, 0.0614166372f, 0.0203579571f, -0.0736169815f},
  {0.230737329f, 0.0098642176f, -0.377510935f, 0.146436244f},
  {-0.13186188f, 0.159843281f, -0.191287369f, 0.202968299f},
  {-0.158772752f, 0.0276324172f, 0.192216516f, -0.0607980676f},
  {-0.417919695f, 0.30979535f, -0.13728793f, 0.0534466803f},
  {0.0261014644f, 0.0313506089f, -0.0013805388f, 0.140980825f},
  {-0.0927633345f, -0.00961102918f, -0.128884315f, -0.00019847152f},
  {0.0205519628f, 0.114114136f, 0.224792138f, 0.184793934f},
  {0.111455724f, 0.0945612416f, 0.116926625f, -0.210702449f},
  {0.113009162f, 0.118055187f, 0.135038286f, 0.0338621996f},
  {0.202724755f, -0.228839025f, -0.146502331f, 0.222196028f},
  {-0.163221806f, 0.134710863f, 0.0823842883f, -0.117823683f},
  {0.014934795f, -0.359754682f, -0.197421074f, -0.0378477611f},
  {0.371872425f, -0.237681314f, 0.217532009f, -0.0469652675f},
  {0.0115008345f, 0.00968965236f, -0.0111046806f, 0.0320921764f},
  {0.0706876516f, 0.0537583902f, -0.105931818f, 0.0108214309f},
  {-0.0950094685f, -0.128086507f, 0.163991839f, 0.0608118512f},
  {-0.0257187895f, -0.0122081153f, -0.270924956f, 0.0730172247f},
  {0.217895821f, -0.280991137f, 0.0650982931f, 0.0730682984f},
  {0.0156782828f, 0.215232939f, -0.153977096f, 0.047272291f},
  {0.0662469342f, -0.00956099667f, 0.154982939f, -0.140466213f},
  {-0.201175198f, 0.223843157f, 0.0365137681f, -0.123914614f},
  {-0.0948625058f, 0.170841947f, 0.208010748f, -0.0947831869f},
  {-0.0679109395f, -0.047456108f, -0.197565526f, 0.0933393613f},
};

static const float kLayer0Conv1dBias[48] = {-0.00624663057f, 0.00693908939f, 0.0244577155f, 0.0191323366f, -0.0480332077f, 0.0154163409f, -0.0521508679f, -0.00549485628f, 0.0924481004f, -0.00524855824f, 0.0103358459f, 0.0190047119f, 9.79015931e-06f, -0.0480432883f, 0.0068634036f, 0.022746766f, -0.018077638f, 0.0213145241f, -0.0229668282f, -0.00280400645f, 6.4276287e-06f, 0.0305431299f, -0.0279265512f, 0.0246930756f, 0.0102827838f, 0.0125373583f, 0.00954727083f, 0.0336509459f, 0.0105309356f, -0.00510533853f, -0.0426983424f, -0.0419230387f, -0.0135859651f, -0.0471140966f, 0.00253803632f, -0.00548371766f, 0.00858792849f, -0.0468912795f, -0.00358199794f, -0.00605169358f, -0.072496213f, -0.0262965728f, 0.0342426449f, -0.0136331683f, -0.00834164489f, -0.0122676482f, 0.0342797711f, -0.0278479382f};

static const float kLayer0XProj[34][48] = {
  {-0.0926597267f, -0.0175407287f, 0.204797938f, -0.110573724f, -0.0907023177f, 0.0634803474f, -0.042533122f, 0.018670544f, 0.0579288602f, -0.0228647757f, 0.29823193f, 0.0593970791f, -0.0367421992f, 0.0146442f, -0.0307023153f, -0.0349270999f, 0.0331958756f, 0.141060442f, 0.05509625f, -0.134080738f, 4.6767459e-06f, 0.0285275206f, 0.00955513678f, -0.0010788478f, -0.0148349227f, 0.102241158f, 0.194986224f, 0.0170564298f, 0.0944088474f, 0.0605139695f, -0.00654098717f, 0.0394525118f, -0.0555087887f, -0.0307219196f, 0.223455116f, -0.0550787002f, 0.119507454f, -0.183376685f, -0.051704593f, 0.0309725627f, -0.0427990854f, -0.0407848544f, 0.210716069f, 0.0147006353f, 0.120246023f, -0.230147764f, 0.106190696f, -0.0318547972f},
  {0.0198827088f, -0.0166351795f, -0.234082624f, 0.125262916f, 0.196929559f, -0.0896323696f, 0.199878141f, -0.0310415011f, -0.200560808f, -0.0532928668f, -0.279939353f, -0.0830027089f, 0.0220375378f, 0.0652554408f, 0.171452358f, 0.0418368503f, 0.106030174f, -0.188510925f, -0.0853750035f, 0.0857767239f, -0.0988186449f, -0.0733428746f, 0.0388750993f, -0.0769460201f, -0.104360044f, -0.169965088f, -0.13603346f, -0.0148277646f, -0.168481767f, -0.0250974596f, 0.107230127f, -0.161703601f, 0.0757699087f, 0.073661752f, -0.279914111f, 0.239853978f, -0.0872221068f, 0.147762775f, 0.0226783417f, -0.0110084079f, 0.0321236961f, 0.0235988889f, -0.295261592f, 0.143306106f, -0.0692151338f, 0.149745136f, -0.179833427f, 0.107478194f},
  {-0.00108477648f, 0.00588995218f, -0.0958065242f, -0.0121430913f, 0.166626349f, -0.0662627295f, 0.118633054f, 0.294047832f, -0.0171710942f, -0.00528294407f, -0.00818680599f, -0.107424989f, 0.0190454889f, 0.0445586294f, 3.21622429e-05f, -0.0604974516f, 0.0501507483f, -0.0367512777f, -0.00329450984f, -0.488921255f, -0.0441050455f, -0.00231734337f, 0.0341075361f, -0.111556441f, 0.0478546023f, -0.304320484f, 0.0318304114f, -0.186717719f, -0.0310896169f, 0.0628018677f, 0.0221851356f, 0.0561618879f, -0.283379465f, 0.0615540333f, 0.0640774593f, 0.0805338845f, -0.0676094368f, -0.249305665f, 0.0174864735f, 0.0201464072f, 0.0908521265f, 0.01298148f, 0.0352402739f, 0.157990187f, -0.036258705f, -0.264231294f, -0.0348247811f, 0.0184805542f},
  {0.137286022f, 0.00712817721f, -0.0249580313f, -0.0149111673f, 0.0433646478f, -0.036148984f, 0.0197202265f, -0.0522617698f, 0.00095850497f, -0.00557940174f, 0.0014329562f, 0.150389224f, -0.0222617015f, 0.0292107426f, -0.0709206462f, 0.0112796165f, -0.0120199798f, -0.0436319932f, -0.00338230887f, -0.11167907f, 0.0205685049f, 0.0479413942f, 0.0260353256f, -0.0447420664f, 0.0665452108f, 0.0410842896f, -0.119285494f, -0.0567805693f, -0.0310220383f, -0.0220371895f, -0.0158518851f, 0.0164458826f, -0.00925109908f, 0.0248458255f, -0.153280169f, -0.0183587763f, 0.0409645364f, 0.0427902751f, -0.0157156549f, -0.0111431517f, 0.0130342524f, 0.0354298651f, -0.0769125372f, -0.12813659f, -0.0975924209f, 0.0740722939f, -0.0715810135f, 0.0477077328f},
  {0.0459202528f, -0.0154317422f, 0.203359336f, -0.122706726f, 0.121871293f, -0.0419950634f, 0.226676002f, 0.246647388f, 0.0072919135f, -0.0077507589f, 0.19175005f, 0.0295086093f, -0.0312253516f, 0.213295773f, -0.0078659188f, -0.0872614533f, 0.0775554031f, 0.194755226f, 0.0572744496f, 0.111493088f, 0.0193104446f, 0.0644716471f, 0.121418126f, -0.0704523623f, -0.0867269039f, -0.0444096141f, 0.152090222f, -0.022309104f, 0.243700758f, 0.122628435f, -0.0735058039f, 0.0321086571f, -0.0747819617f, 0.188056961f, 0.214313462f, 0.128454521f, -0.0867824703f, -0.255023539f, 0.000497283239f, -0.0118150031f, 0.0342713371f, 0.0172671396f, 0.229528949f, -0.106076576f, 0.0332405418f, -0.121886738f, 0.00845590048f, 0.0886986628f},
  {-0.0229159985f, 0.0408761464f, -0.0861850977f, 0.02843537f, -0.0106147164f, 0.034973368f, -0.0721583888f, -0.0671480224f, -0.00142060791f, -0.0578248166f, -0.122847989f, -0.00571907964f, -0.00276082102f, -0.145409822f, -0.00832843687f, 0.0717288405f, -0.0324041024f, -0.0434253439f, -0.0597911179f, -0.272265255f, -0.0285839289f, 0.059581425f, -0.0548557341f, 0.00518191839f, -0.0553480871f, 0.0483682081f, -0.0319183618f, 0.139768988f, -0.116900831f, -0.027319178f, 0.0143791456f, 0.0280938968f, -0.0361489169f, -0.0791450217f, -0.111228935f, 0.0337776691f, -0.0109093525f, 0.118277065f, -0.0256632492f, -0.0503048897f, -0.0719151124f, -0.0187453479f, -0.0915190503f, 0.00631673215f, -0.0347916298f, -0.00546397362f, 0.0468047746f, -0.00305213616f},
  {-0.141635209f, -0.0394852944f, 0.101762332f, 0.0795755461f, 0.0499533191f, -0.0372396819f, -0.0421154089f, -0.0890156552f, 0.0968773291f, 0.0571083762f, -0.16062884f, -0.209606305f, 0.0691009834f, -0.0794189274f, 0.121887796f, 0.111052781f, 0.0267766882f, 0.211307481f, -0.0470038652f, 0.0678915903f, 0.0058046109f, -0.0993003324f, -0.065835163f, 0.0508162826f, 0.029104013f, 0.122732073f, -0.0469576158f, -0.15719229f, 0.100187205f, -0.0059283548f, 0.0635518059f, -0.0511199348f, -0.0711396039f, -0.107626021f, 0.202152267f, 0.0425222665f, -0.0850084648f, -0.114053369f, 0.031152539f, 0.157405272f, 0.03370478f, -0.125806689f, 0.0590301007f, -0.00436111586f, 0.118798122f, -0.199399784f, 0.106736228f, -0.109293006f},
  {-0.113312028f, -0.00871492084f, 0.0502797067f, -0.0115078818f, 0.0920288712f, -0.102743842f, 0.128446311f, 0.283934385f, -0.137683004f, 0.0187806245f, -0.0403803512f, -0.0805270076f, -0.0156046292f, 0.0553480014f, 0.0951488689f, -0.00212260685f, 0.0702614337f, 0.0401244499f, -0.151821643f, 0.179174379f, -0.0322101787f, -0.10417214f, 0.0238279384f, -0.112844042f, 0.0340446234f, 0.120959267f, 0.00429546786f, -0.0924642682f, 0.133182913f, 0.0192848966f, 0.069517456f, -0.060418874f, 0.0228170399f, 0.0115780095f, 0.154872522f, 0.0331559032f, -0.0221502539f, -0.0395219103f, 0.0240383372f, 0.114743851f, 0.189694256f, -0.0805678591f, 0.104513869f, -0.0525975525f, -0.0478189662f, -0.209560335f, -0.0958991051f, -0.00760940323f},
  {0.110125303f, 0.00735076703f, 0.0209861454f, 0.079471983f, 0.170751616f, -0.0404701121f, 0.093458876f, 0.461867869f, -0.00555496709f, -0.0517249443f, 0.144537613f, -0.199416071f, 0.0955098942f, 0.0563766286f, 0.0942848325f, 0.100050248f, 0.0421900526f, -0.0377408862f, -0.151784092f, -0.0533390418f, 0.0314087532f, -0.0732581615f, -0.0454513319f, -0.0150110675f, 0.0199891217f, -0.170805842f, 0.0100307195f, 0.047378365f, 0.137864962f, 0.0164384712f, -0.00573079567f, -0.040251933f, -0.264189094f, -0.0706974491f, 0.112375259f, 0.0581829809f, 0.110845231f, -0.256363451f, 0.0233391169f, -0.0751065761f, 0.115720943f, 0.0609115213f, 0.111196034f, 0.0737831146f, 0.0906066298f, -0.0940338448f, 0.0331488512f, -0.103523031f},
  {-0.186033845f, -0.0204864368f, 0.269782513f, 0.116206184f, 0.161783919f, -0.022204088f, 0.0662139431f, 0.383896023f, -0.217922077f, -0.13396427f, -0.0292877164f, -0.144981533f, 0.0663135201f, -0.0815220624f, 0.287172794f, 0.0449140556f, 0.204136148f, 0.157419458f, -0.191518188f, 0.139534429f, 0.0288591105f, -0.177067429f, 0.0317692235f, -0.101943403f, -0.103118792f, 0.197233155f, -0.0584729426f, 0.0459112152f, 0.159475476f, 0.0951778516f, 0.289735228f, -0.256782472f, -0.0803926885f, -0.0350769572f, 0.130534872f, 0.00876432378f, 0.219257295f, -0.147198096f, 0.00643699896f, 0.0633030012f, 0.008696693f, -0.209724411f, -0.0244056415f, -0.162578136f, -0.00468006963f, -0.173376277f, -0.189502373f, -0.0326801129f},
  {-0.0157498773f, 0.0303025935f, -0.5394665f, 0.0736536086f, 0.0868234187f, -0.0374196246f, 0.124455862f, 0.0974155664f, -0.18969354f, -0.0159738287f, -0.168676242f, 0.0888754874f, 0.0930934176f, 0.0914186984f, -0.0083119357f, 0.0299227592f, 0.0097691752f, -0.456076652f, 0.215919629f, -0.320989162f, -0.0900519863f, 0.0558528453f, 0.038816385f, -0.10518989f, 0.0106801344f, -0.182065487f, 0.494185358f, -0.0499663875f, -0.522034049f, -0.0185223576f, 0.090666078f, -0.0726850107f, -0.056590613f, 0.108473457f, -0.166990787f, -0.0175625514f, -0.0987653732f, 0.0646969229f, -0.0400799625f, 0.045410499f, 0.155738115f, 0.0353228934f, -0.406119853f, 0.273533344f, -0.109574534f, 0.0460029095f, -0.0397303216f, 0.10715165f},
  {0.44328329f, 0.110444359f, -0.325906575f, -0.302056313f, -0.0328995883f, 0.0494822375f, 0.0744271427f, -0.0151437214f, -0.218735322f, 0.0338439234f, 0.218593106f, 0.340360701f, 0.0342057124f, 0.202370629f, -0.365598887f, -0.0755964965f, -0.0654334649f, -0.413989216f, 0.122474805f, -0.257005423f, 0.0163791478f, 0.196321771f, 0.0135987699f, 0.0581560135f, 0.326012939f, -0.291277111f, 0.308192492f, -0.00195444818f, -0.0800709277f, -0.0269743986f, -0.0914763808f, 0.340087593f, 0.0879257396f, 0.0741063282f, -0.355549842f, 0.0831923559f, -0.11619731f, -0.317996085f, -0.0287666451f, 0.0286054779f, 0.239305094f, 0.28627041f, -0.0785499364f, 0.234797955f, -0.0258848649f, 0.0442299582f, -0.102556765f, 0.0465879664f},
  {0.105574638f, 0.0885114968f, 0.468133181f, -0.144426346f, 0.00100840663f, -0.0317950249f, -0.0515853167f, -0.0965775549f, 0.0801671967f, -0.172176942f, 0.120859168f, 0.0312255807f, -0.0778239071f, 0.00795456395f, 0.0161327999f, -0.266734689f, 0.143025979f, 0.0547567122f, -0.212974593f, 0.42928791f, 0.0268029962f, -0.00824648235f, 0.062967971f, 0.0440145731f, -0.113421142f, -0.266597152f, 0.0101732258f, -0.0812261701f, 0.524487734f, 0.236684397f, 0.0739281327f, 0.0278227851f, 0.336209834f, 0.0203613751f, 0.24946484f, 0.218481347f, 0.148100957f, -0.268638104f, 0.0402692482f, 0.13002646f, -0.0351470262f, -0.0394881666f, 0.472271472f, -0.0948915333f, 0.108909443f, -0.286542058f, -0.0546756014f, -0.294435859f},
  {-0.153785169f, -0.18475686f, 0.198807001f, 0.168079168f, 0.205982119f, -0.139038414f, 0.175386146f, 0.0128313228f, -0.00619940646f, 0.164978415f, -0.21994105f, -0.249915764f, 0.262377203f, 0.0487815924f, 0.211532325f, 0.251252949f, -0.0175886638f, 0.13518247f, -0.100307062f, 0.265221894f, -0.128158778f, -0.183877513f, -0.052608382f, -0.167982742f, -0.184938058f, 0.264591843f, -0.0142426817f, -0.158403337f, 0.288782388f, -0.0633999184f, 0.243223786f, -0.240073308f, -0.075569436f, -0.187749296f, 0.245421618f, 0.12584658f, -0.226631224f, -0.1372834f, -0.116197363f, 0.178624973f, 0.170180753f, -0.213637397f, -0.0765597671f, 0.0334177837f, 0.160630181f, 0.0936932787f, -0.0350003019f, -0.114041016f},
  {0.0189981945f, -0.102472082f, 0.223398298f, -0.0126735475f, 0.131498843f, 0.0558330119f, 0.219217479f, 0.193922371f, -0.257703871f, 0.146155149f, -0.124809451f, 0.108769961f, 0.23732169f, 0.0977451354f, -0.05873245f, 0.260860652f, -0.0769991502f, 0.142291456f, 0.122129276f, -0.295135111f, -0.108909272f, -0.0662509054f, -0.0902134627f, 0.0108973533f, 0.115823224f, 0.325411409f, -0.00501777325f, 0.189651191f, 0.116716765f, -0.17031239f, 0.12409652f, 0.123364761f, -0.481002092f, 0.0499941297f, -0.137822539f, -0.171222165f, -0.134138539f, -0.153642371f, -0.0327677764f, -0.0989359468f, 0.000531302299f, -0.226917624f, -0.0976039693f, -0.171244189f, -0.0274005011f, 0.0560810827f, -0.124880888f, 0.34123075f},
  {-0.0978699327f, -0.0873522386f, 0.251483828f, 0.159602851f, 0.037577834f, 0.0481730402f, 0.0849002078f, 0.0279568378f, -0.123066343f, 0.233885393f, -0.0689775199f, -0.0340602025f, 0.277152628f, -0.038384717f, -0.0127681522f, 0.259178907f, -0.112477235f, 0.224322408f, 0.0624295026f, -0.169566512f, -0.00428182445f, -0.21110861f, -0.13680619f, 0.0361974649f, 0.154989198f, 0.413341016f, -0.270461142f, 0.196143314f, 0.15715152f, -0.239893183f, 0.101993725f, -0.00550147658f, -0.316620499f, -0.174374178f, -0.168547079f, -0.152299955f, -0.0686829388f, -0.0676068068f, -0.00830733776f, -0.109304205f, -0.116284169f, -0.320183158f, -0.260160655f, -0.244817585f, -0.0555365048f, 0.0532642677f, -0.0568441153f, 0.200697616f},
  {0.0024118314f, -0.0889593586f, 0.216635659f, 0.121302418f, 0.0410689153f, 0.101989157f, 0.129368186f, 0.088559255f, -0.121317826f, 0.265135467f, -0.0782008544f, 0.0472427718f, 0.253691137f, 0.0368601903f, -0.110247828f, 0.319501609f, -0.155613169f, 0.190979555f, 0.170385405f, -0.261834592f, 0.0221733283f, -0.0938246772f, -0.16782093f, 0.0437674113f, 0.141392633f, 0.366334587f, -0.200051263f, 0.186965495f, 0.00695694517f, -0.302843243f, 0.0904923007f, 0.0982399657f, -0.376072228f, -0.0634362102f, -0.239545256f, -0.306011349f, -0.21156843f, 0.0716595277f, -0.0619934276f, -0.0951336101f, -0.0442134291f, -0.247990042f, -0.293979645f, -0.280873626f, -0.111477897f, 0.239525542f, -0.0283155125f, 0.337946653f},
  {0.162310734f, 0.0184615925f, 0.184231251f, 0.0222169179f, 0.0160537064f, 0.0957066938f, 0.0983046666f, -0.01877602f, -0.156664312f, 0.0846082866f, -0.0593700856f, 0.0891275853f, 0.0762871876f, 0.160532415f, -0.104870804f, 0.251561165f, -0.138225764f, 0.18076773f, 0.171370953f, -0.266336709f, 0.0414589755f, -0.0769352838f, -0.149272621f, 0.121795736f, 0.110398501f, 0.302890509f, -0.0218138862f, 0.0785804987f, 0.0776887387f, -0.197679937f, 0.0633340552f, 0.19460237f, -0.348706067f, 0.0648921803f, -0.270727783f, -0.278391868f, -0.128281221f, 0.0581650063f, -0.0697129592f, 0.0121158874f, 0.0369259529f, -0.164955109f, -0.168264359f, -0.280082524f, -0.150354639f, 0.301938742f, -0.119747207f, 0.468420267f},
  {-0.0485763587f, -0.0108612813f, -0.0582452007f, 0.0157839097f, 0.150489375f, -0.0370347165f, 0.0618265718f, 0.123394452f, -0.0055102231f, 0.0951788351f, -0.030808311f, -0.259561718f, 0.035638947f, 0.0434994735f, -0.025942497f, -0.0627461672f, -0.0463117138f, -0.156791538f, 0.0103237415f, -0.370991588f, -0.0583437309f, 0.0145078693f, 0.0330277346f, -0.118260406f, 0.0875326768f, -0.39013949f, 0.117796019f, -0.201637134f, 0.0264193919f, -0.0230470151f, 0.0546960905f, 0.0254148766f, -0.242025748f, 0.0626693219f, 0.258728057f, 0.11918553f, -0.091807656f, -0.170214221f, -0.0147315897f, 0.00204375689f, 0.112221338f, -0.00909892842f, 0.0594025254f, 0.114600599f, 0.0155217052f, -0.276724398f, 0.00553781539f, 0.0167448446f},
  {-0.0526367649f, -0.0145709561f, -0.0021370633f, -0.0228886325f, -0.0313726924f, -0.0424569547f, -0.0551030561f, -0.0158128552f, 0.00715789804f, 0.0159011111f, 0.0441613495f, -0.175660804f, -0.00595060876f, -0.0394945182f, 0.0724206865f, 0.0436580218f, -0.00151378138f, 0.0342201442f, -0.000706952007f, -0.0621895194f, 0.0126932263f, -0.0851956755f, 0.00063822564f, -0.0259650704f, 0.0642022714f, 0.123736076f, -0.0495285131f, -0.062961638f, -0.0297307204f, -0.029168129f, 0.0354049988f, -0.0515140705f, 0.0182473566f, -0.0264342315f, 0.0902604908f, -0.0311180465f, 0.0502153337f, 0.0605343096f, -0.0161099937f, 0.0494137742f, -0.0339415595f, -0.0137090832f, -0.0147233242f, -0.0719366223f, 0.0267627724f, -0.0734050497f, -0.00881342404f, -0.00550500955f},
  {0.0593076944f, -0.0306367688f, 0.18672812f, -0.0982756764f, 0.124934435f, -0.0686764643f, 0.19037503f, 0.265544146f, -5.98640327e-05f, 0.0543234088f, 0.246477485f, 0.0380768515f, -0.0203808229f, 0.15835993f, -0.0416945033f, -0.0471745059f, -0.0206644032f, 0.176734641f, 0.0660679862f, 0.0227959324f, 0.0228690151f, 0.0161400121f, 0.0806082636f, -0.0134424223f, -0.044317048f, -0.0175848641f, 0.177005634f, -0.00398740405f, 0.25731349f, 0.0144299148f, -0.065716736f, 0.0492127873f, -0.138519391f, 0.137652814f, 0.207093418f, 0.104763359f, -0.131473124f, -0.286407113f, 0.00245167268f, 0.00563057512f, 0.0395497009f, -0.016177373f, 0.254925638f, -0.0564559847f, 0.0400706083f, -0.156628266f, -0.00482352916f, 0.0736320466f},
  {-0.107586473f, 0.035278324f, -0.0640531108f, 0.0894505009f, 0.0177053865f, 0.0158699546f, -0.0597422384f, -0.121716648f, -0.00562055083f, -0.0379261598f, -0.150385633f, -0.117059365f, 0.0292251166f, -0.100084133f, -0.0118640959f, 0.0606359541f, 0.00603861408f, -0.0423484296f, -0.0619840063f, -0.164982155f, -0.0362204239f, 0.0649063811f, -0.0785104409f, 0.00471550133f, -0.0961479917f, 0.0266376715f, -0.0827008858f, 0.0814700201f, -0.143432766f, -0.0418870635f, 0.0828231126f, -0.00795648526f, 0.0108763603f, -0.0621397831f, -0.0393514372f, 0.0743672252f, -0.00112931896f, 0.0847158581f, -0.0016716799f, -0.0275572799f, -0.0520305037f, -0.0769798234f, -0.11001984f, 0.0445113741f, -0.0376261324f, -0.0436053798f, 0.0308030676f, 0.0106200045f},
  {0.131068707f, 0.0416996218f, -0.0965526998f, -0.0875206888f, -0.0222041775f, 0.040302299f, 0.0707259551f, 0.0623023137f, -0.0955785364f, -0.0701573566f, 0.134831339f, 0.227405533f, -0.00140382478f, 0.0580731556f, -0.0610931925f, -0.0946877301f, -0.0600044541f, -0.202949539f, 0.0665066391f, -0.0553201661f, -0.0372432061f, 0.119752906f, 0.0792845115f, -0.0101104006f, -0.0167346075f, -0.231093839f, 0.0554579571f, 0.132054716f, -0.127683178f, 0.0249736924f, -0.081730932f, 0.0666555837f, 0.0622255355f, 0.116388284f, -0.126365378f, -0.102314457f, 0.0826062635f, 0.0952822194f, -0.0317817368f, -0.122753583f, -0.0282727983f, 0.0986474305f, -0.0456969626f, 0.0800331384f, -0.092050992f, 0.0976965576f, -0.0829650834f, 0.114319779f},
  {0.0954002962f, 0.00327264611f, -0.0471069328f, -0.004814866f, -0.0863269567f, 0.0427939147f, -0.042335026f, -0.302226722f, 0.101504445f, 0.0246545058f, -0.0852955505f, 0.220895797f, -0.0114923175f, 0.0356708243f, -0.106228694f, -0.0325488932f, -0.0927061737f, 0.0391478613f, 0.156357288f, 0.0368460864f, -0.00777211692f, 0.056155201f, -0.0180907547f, 0.0780519843f, 0.036962226f, -0.130293623f, -0.0576429702f, 0.0376552716f, -0.103258014f, 0.00868791156f, -0.121284321f, 0.106137604f, -0.0209523719f, -0.011646782f, -0.0792701319f, 0.09188281f, -0.0750527233f, 0.00137494842f, 0.0585182048f, -0.0870252401f, -0.0971835926f, 0.0825122967f, -0.0581596456f, -0.0103038782f, 0.074413538f, 0.233674064f, 0.14856559f, -0.0265849885f},
