#pragma once

#define BABYMAMBA_VARIANT_CROSSOVER 0
#define BABYMAMBA_VARIANT_CHANNEL_INDEPENDENT 1
#define BABYMAMBA_DATASET_NAME "ucihar"
#define BABYMAMBA_DISPLAY_NAME "UCI-HAR"
#define BABYMAMBA_SEED 29
#define BABYMAMBA_SEQ_LEN 128
#define BABYMAMBA_IN_CHANNELS 9
#define BABYMAMBA_NUM_CLASSES 6
#define BABYMAMBA_D_MODEL 24
#define BABYMAMBA_D_STATE 16
#define BABYMAMBA_D_INNER 48
#define BABYMAMBA_DT_RANK 2
#define BABYMAMBA_D_CONV 4
#define BABYMAMBA_NUM_LAYERS 4
#define BABYMAMBA_STEM_KERNEL 5
#define BABYMAMBA_PATCH_KERNEL 16
#define BABYMAMBA_PATCH_STRIDE 4
#define BABYMAMBA_PATCH_OUT_LEN 31
#define BABYMAMBA_SCAN_IMPL_FALLBACK 1
#define BABYMAMBA_USE_INT8_PROJECTIONS 1
#define BABYMAMBA_FIXTURE_LABEL 4

static const char* const kBabyMambaClassNames[BABYMAMBA_NUM_CLASSES] = {"Walking", "Walking Upstairs", "Walking Downstairs", "Sitting", "Standing", "Laying"};

static const float kStemWeight[24][1][5] = {
  {
    {-0.718187153f, -0.26948595f, -1.05595934f, 1.10466325f, 0.600213885f},
  },
  {
    {0.99441433f, 0.394242704f, -3.20030928f, -0.401006728f, 1.90253425f},
  },
  {
    {-0.276306659f, -0.107727304f, 0.388804466f, -0.298093855f, -0.379029751f},
  },
  {
    {-0.299779296f, -0.135255843f, -0.708550036f, -0.153352171f, 0.517151833f},
  },
  {
    {-0.299805462f, 0.337151945f, 0.614917457f, 0.923654556f, -1.9704963f},
  },
  {
    {0.149379566f, 0.143923953f, 0.079717055f, 0.000399406475f, 0.0886377543f},
  },
  {
    {-0.394284546f, -0.529443741f, 0.131307393f, 0.401872665f, 1.0020026f},
  },
  {
    {-0.0986089334f, -0.366586626f, 0.18080166f, 0.293680727f, -0.887225509f},
  },
  {
    {0.042012237f, 0.151095957f, 0.368717223f, 0.0262843836f, -1.26549029f},
  },
  {
    {0.141069308f, -0.162105903f, -0.0829190239f, -0.472054005f, -0.26379627f},
  },
  {
    {-0.226370499f, -0.148178652f, -0.284252644f, -0.164893448f, -0.151071042f},
  },
  {
    {-0.0642048195f, -0.178515881f, -0.210215136f, -0.124347746f, -0.35641247f},
  },
  {
    {1.24562323f, 0.211823195f, -0.0161382258f, -0.126570791f, -1.05659974f},
  },
  {
    {0.309254736f, 0.526355386f, 0.33042258f, -0.7081424f, 0.228692263f},
  },
  {
    {0.423244655f, -0.0600286797f, 0.0531413443f, 0.0100419922f, 0.42578581f},
  },
  {
    {0.779439151f, 0.624021113f, 0.279825747f, -0.331310689f, -0.659973443f},
  },
  {
    {0.4002707f, 0.0368992239f, 0.0473892577f, 0.175066292f, 0.162174761f},
  },
  {
    {-0.333618075f, -0.121903814f, 0.0909009054f, -0.0290487688f, -0.46037963f},
  },
  {
    {-0.460202456f, -0.230923459f, 0.0253282152f, -0.156979546f, -0.0929721221f},
  },
  {
    {-0.551822424f, -0.601524055f, 0.102995589f, 0.0873952657f, 0.0420776233f},
  },
  {
    {0.436040342f, 0.697349548f, 1.17757261f, -1.30260527f, -0.628782451f},
  },
  {
    {0.192790136f, -0.428200603f, 0.154845595f, 0.197161898f, 0.621815622f},
  },
  {
    {-0.423075467f, -0.289082259f, -0.186503634f, -0.146856561f, 0.187277317f},
  },
  {
    {0.0715839267f, 0.0865441337f, 0.0848600268f, 0.376400709f, 0.149035886f},
  },
};

static const float kStemBias[24] = {0.0635005906f, -0.350663543f, -0.0707682222f, -0.0243018195f, 0.00752687594f, -0.387906969f, 0.157323629f, 0.06931144f, 0.0704642683f, -0.115504183f, -0.0533406995f, 0.0486542881f, 0.0819340646f, -0.177846417f, -0.397185922f, -0.265868455f, -0.141721427f, -0.0701632202f, 0.0319981873f, -0.0751412213f, 0.104430437f, -0.138370246f, 0.0317802839f, -0.239448279f};

static const float kPatchDepthwise[24][16] = {
  {0.0697843358f, 0.169353127f, 0.0894515067f, 0.0791148543f, -0.000787540397f, -0.00600734819f, -0.123181291f, -0.107743688f, 0.00067461445f, -0.0772654116f, 0.0314994156f, 0.192784846f, 0.114790305f, 0.00248973724f, -0.0394166298f, -0.170955613f},
  {-0.0861249566f, -0.158216193f, -0.18655102f, -0.120777674f, -0.0255996529f, -0.152020514f, -0.0107485242f, -0.0923997015f, -0.00751634408f, 0.0417400487f, 0.180462822f, 0.163538814f, 0.129639879f, 0.0983645767f, 0.0589145795f, 0.227311209f},
  {-0.0525236689f, 0.0981098562f, 0.118754052f, 0.0866611153f, 0.0440735668f, -0.00479610031f, 0.0563349314f, -2.38631474e-05f, 0.0176930316f, -0.0599536002f, 0.0566849373f, -0.1036494f, 0.0779377818f, -0.0555372462f, -0.126827031f, -0.0822120532f},
  {0.0475328825f, -0.218950152f, -0.0528748669f, -0.111957289f, -0.156334385f, -0.0458712019f, 0.0315695368f, 0.0185533594f, 0.0751804188f, -0.00990560092f, -0.161536485f, -0.0896565914f, 0.0461690091f, 0.0762281641f, 0.0375955962f, 0.0671965629f},
  {-0.0641514584f, 0.00896657538f, -0.0160393864f, -0.0731858686f, 0.0378096513f, 0.172923595f, 0.0349491872f, 0.0868082941f, -0.0120580047f, 0.0474647433f, -0.109051876f, -0.0119723575f, 0.0489646904f, 0.00729315262f, -0.025499301f, -0.139042109f},
  {-0.0696303248f, -0.0134199653f, -0.080708392f, -0.0361206681f, -0.0280791372f, 0.0754898265f, -0.0738151595f, 0.0693390071f, -0.0134996874f, 0.0529349223f, -0.0838130414f, -0.0195190888f, -0.0173499025f, -0.0712300763f, 0.118581198f, -0.0433866344f},
  {0.0550545081f, 0.104002096f, -4.62292483e-05f, 0.0175151266f, 0.187454119f, 0.191699237f, 0.136168033f, 0.0513546094f, -0.0194448344f, -0.137286425f, -0.0639842078f, -0.145847365f, -0.13605465f, -0.107989065f, -0.194455087f, -0.108007513f},
  {0.0372795351f, 0.00158172625f, 0.0218014549f, 0.0527729429f, 0.0596603304f, 0.130497798f, -0.00750809908f, -0.0916676298f, -0.0930183902f, -0.00538231153f, 0.0282064602f, -0.0211158264f, -0.101954229f, -0.296774238f, -0.128576785f, -0.183567137f},
  {0.168619275f, 0.105259724f, 0.0800223276f, 0.0567395315f, -0.0496413931f, -0.121084951f, -0.112738594f, -0.22310032f, -0.187621146f, -0.168196425f, -0.128970012f, -0.0303536337f, -0.00484556006f, -0.0759218708f, -0.02151943f, -0.0775140226f},
  {-0.064494282f, -0.123086013f, 0.00542528415f, -0.0820277929f, -0.126189455f, -0.0348892473f, -0.0535857417f, -0.0310878213f, -0.0322050415f, 0.102479272f, -0.0741864666f, 0.136059016f, 0.153646737f, 0.193930835f, 0.210815221f, 0.0952169895f},
  {-0.257965833f, -0.128126889f, -0.092557326f, -0.0198581405f, 0.129609868f, 0.0668879747f, 0.141897723f, 0.0113976458f, 0.233380392f, 0.176438496f, 0.103065677f, 0.101311654f, 0.0615673624f, -0.00320754596f, 0.0149411149f, -0.00526318979f},
  {0.0837481841f, -0.145772919f, -0.12341474f, -0.109512471f, -0.105881542f, -0.173366234f, -0.0733059347f, 0.0362174436f, -0.0747727305f, -0.125630617f, -0.0305915363f, -0.0955873206f, -0.0751290321f, -0.217418581f, -0.191217154f, -0.0947249755f},
  {-0.0437670909f, -0.00738770608f, 0.0930082798f, 0.199862033f, 0.108545884f, 0.157297418f, 0.0897695348f, -0.0772469491f, -0.0230210442f, -0.0435046628f, -0.118633814f, -0.183319196f, 0.0200028811f, -0.0381601565f, -0.0480701849f, -0.142075226f},
  {0.0241455771f, 0.0473177098f, 0.0257058274f, 0.0723878667f, 0.00588252302f, -0.0658231452f, 0.107571058f, -0.0568183064f, 0.132353216f, 0.0500349328f, 0.0709099472f, 0.0160199925f, -0.133627072f, -0.0126865003f, -0.177797481f, -0.157648519f},
  {0.01426988f, -0.0929871574f, -0.0958000496f, 0.00432139775f, -0.0755715296f, -0.0307169538f, -0.106289729f, -0.0174338259f, -0.0859063864f, -0.103031427f, -0.0661970079f, -0.0311893374f, -0.174978301f, -0.238934666f, -0.102595352f, -0.108664893f},
  {-0.200722128f, -0.174153894f, -0.0910483897f, -0.089976117f, 0.0391527712f, 0.00591811677f, -0.0762429908f, 0.0139575144f, -0.0508711897f, 0.000114333714f, 0.133265093f, 0.173703805f, 0.0188356135f, 0.0527895913f, 0.178492054f, 0.0279617701f},
  {-0.134921461f, -0.0744573697f, -0.0757077262f, -0.0823556781f, -0.119746536f, -0.00180581782f, -0.0554142222f, -0.187116578f, -0.0250542164f, -0.0229642354f, -0.0537024885f, -0.00182912347f, -0.0689024106f, 0.00873241294f, 0.0154785393f, -0.0378221124f},
  {-0.108545236f, -0.111275718f, 0.0111834649f, -0.0899950415f, -0.0155734569f, -0.07392703f, -0.0742698461f, 0.00786184147f, -0.123638533f, -0.075750567f, -0.0869207978f, -0.0771305561f, -0.143816724f, 0.0127933435f, -0.102740645f, -0.0734039769f},
  {0.108625084f, 0.107076138f, 0.17145656f, 0.178034663f, 0.0832343027f, 0.0708423555f, 0.0151058706f, -0.0830338523f, -0.0417219698f, -0.122701466f, -0.212879732f, -0.107156791f, -0.0818631053f, -0.0188281313f, -0.150990725f, -0.0989927649f},
  {0.162856236f, 0.0779734626f, 0.0473603643f, -0.0198867489f, -0.138000727f, -0.17020078f, -0.229889616f, 0.0242254846f, 0.0243839324f, 0.0337210521f, -0.0247524325f, -0.020509135f, -0.000153458968f, 0.0204523224f, 0.0889588073f, -0.0785390139f},
  {0.121934392f, 0.172807634f, 0.134165093f, 0.0347817317f, -0.106204748f, -0.033344876f, -0.00387296919f, 0.127122059f, 0.146895558f, 0.214963004f, -0.0286745429f, -0.0430904068f, -0.0270313304f, 0.0243664347f, -0.0634195507f, -0.18894884f},
  {0.0557464734f, -0.111296862f, 0.0141590331f, -0.0139259649f, -0.0778340772f, 0.029669119f, 0.0892169774f, -0.00800530985f, -0.0187390633f, -0.212085485f, -0.105414495f, 0.00515354564f, -0.0260147639f, 0.00964459032f, 0.0476959683f, -0.0877177343f},
  {0.228403479f, 0.0179569442f, 0.0541025884f, 0.150142133f, 0.151828662f, 0.25970915f, 0.0506188013f, 0.000572361867f, -0.0139418738f, -0.0224548373f, 0.0107351309f, 0.0626488551f, -0.0921827704f, -0.00244489894f, -0.0512575731f, 0.108131759f},
  {0.135528579f, -0.029014919f, -0.0804347768f, -0.00427720137f, -0.0914853439f, -0.147886857f, -0.0958265811f, -0.13816604f, -0.017777767f, -0.0356340706f, 0.0961477831f, 0.0997661725f, 0.0208211206f, 0.116450906f, 0.00945815071f, 0.000114301038f},
};

static const int8_t kPatchPointwiseQ[24][24] = {
  {-80, -45, 27, 99, -35, 97, -127, 58, 38, -5, -73, 92, -7, 2, -8, 55, 125, 99, -23, 83, -31, -13, 10, 15},
  {-70, -98, -12, 39, 38, 43, 109, -2, 8, -13, -11, 127, 0, 38, 1, -25, 35, 37, 52, 25, 91, 16, 2, -6},
  {89, -104, -44, 30, 40, 45, 38, -100, -100, -5, 1, 21, -118, 16, 28, 2, -127, -23, -108, 17, 30, -27, -64, -43},
  {-4, 35, -23, -24, -74, 30, -26, -3, -7, -8, -23, 19, -14, 76, 127, 19, 58, 27, -18, -9, 13, -16, 22, 44},
  {71, 54, 15, -17, 0, -31, -33, -34, -8, 26, 7, 48, 127, 22, 23, -106, -53, -14, -14, 52, -3, 35, -15, 27},
  {-127, 37, -33, -21, -3, 5, -44, -57, 92, -79, 5, -26, 17, -7, -18, 14, -30, -18, -11, -74, -45, 42, 122, 30},
  {-112, 47, 113, -110, -25, 35, -60, 20, 13, -71, 35, -10, 66, -10, -61, -5, 28, -14, 82, -58, 38, 53, 127, 31},
  {28, -26, 2, -94, 3, 48, 31, 57, 21, 24, -33, 4, 0, 27, -22, -4, 48, -20, 59, 13, -2, -5, 127, -51},
  {-10, -41, 48, 4, -125, -56, 0, -13, 106, 17, 29, 14, -67, 23, 20, -31, 127, 31, 19, 41, -87, 44, 52, 6},
  {112, 17, 7, 36, 23, -6, 90, -28, -25, -23, -43, -95, -54, -3, 110, -89, 127, 55, -1, -16, -13, 105, -88, 50},
  {-77, -2, 0, 27, -114, -94, -33, -73, -17, 7, -21, -100, 21, -87, 2, 77, -1, 69, -16, -54, -38, -42, 40, 127},
  {50, -7, 89, -71, 79, 46, -30, 45, 77, 22, -31, 3, -61, -41, -63, -27, -31, -10, 40, 13, -46, 20, 127, 14},
  {-17, -83, -11, -32, 14, 75, 53, -21, 35, -7, -14, -52, 16, 42, 82, -36, 36, -32, -7, 43, -44, 127, -67, -36},
  {-31, -2, -14, 9, -6, -20, -14, -52, -4, -29, -3, 24, 4, 15, -127, -17, -13, -36, -11, 33, -11, -26, 59, -63},
  {-68, 5, 27, 67, -24, 37, -20, 16, 39, -127, -26, 70, 26, -90, 3, 57, -40, 41, 30, 90, -51, -19, 0, -20},
  {-127, 35, 26, 1, -39, 18, -5, 0, -60, 78, -21, -17, 62, 6, 5, 33, -2, -49, -104, -38, 18, -5, -6, -19},
  {19, 96, -18, -34, -31, -63, -127, 104, 125, -93, -68, 56, -62, -58, 101, 24, 13, -19, 39, -75, -15, -110, -41, -15},
  {98, 127, 30, -117, 10, -22, 26, -29, -5, 4, 38, 42, -25, -74, 2, -44, -11, 10, -23, 11, 24, 14, 17, -7},
  {-17, 43, 62, 2, -22, -50, 4, 64, 33, -25, -113, 45, 0, 17, -3, -25, -29, 127, 63, 45, -34, 54, -9, -6},
  {50, -87, 14, -28, -8, -24, -24, -18, -14, 51, -127, -14, -37, -16, -52, 69, 40, 31, 78, 13, 46, -17, 51, 13},
  {-28, -11, 57, -55, 127, 42, 17, 94, -67, -59, 52, -15, -8, -47, 71, -35, 109, 43, -21, -120, 48, -55, -5, -2},
  {10, -21, 8, -9, -22, 28, -54, 37, -90, -59, 52, 13, 82, 3, -27, 75, 20, 20, -17, 127, -114, 2, -113, 17},
  {-52, 36, 7, 44, 75, -4, 54, -56, -65, 47, -23, 47, -10, 2, 127, -19, 35, 40, -5, 51, 25, 28, 32, 11},
  {-89, 45, -23, -22, -82, -4, 93, -118, -3, 7, 65, -127, -98, 77, -23, 103, -36, 12, 26, -52, -49, -30, -17, -69},
};

static const float kPatchPointwiseScale[24] = {0.00767996395f, 0.00783201028f, 0.00716701569f, 0.00964850374f, 0.0116116051f, 0.0098022446f, 0.00929986779f, 0.0116196284f, 0.00924309622f, 0.00541575393f, 0.0101495562f, 0.00796016771f, 0.00781308766f, 0.011483741f, 0.00537025603f, 0.00994797051f, 0.00641803537f, 0.0142857078f, 0.00585793098f, 0.0106865121f, 0.00853484403f, 0.00816596393f, 0.00866356585f, 0.0074646459f};

static const float kPatchBias[24] = {0.518741369f, 0.353870898f, -0.257159352f, 0.0440526195f, 0.0663617104f, -0.143511146f, -0.225071594f, -0.11409416f, 0.284155011f, -0.0392925292f, -0.302786827f, -0.0691811219f, -0.0158946104f, -0.144919023f, 0.170046687f, -0.277368933f, 0.289531648f, -0.100667827f, 0.300115377f, -0.107814819f, -0.0909602046f, 0.231172487f, 0.0258481763f, -0.318765402f};

static const float kPosEmbed[1][31][24] = {
  {
    {-0.174249038f, 0.0639355779f, 0.146267533f, 0.0888679475f, 0.0387808122f, 0.166461378f, -0.0342821553f, -0.0795655623f, -0.0412103534f, 0.0587834865f, 0.0162984971f, -0.0898652896f, 0.0200176202f, 0.00855305884f, 0.0452719927f, -0.0578160249f, 0.0132600209f, 0.129966184f, 0.114936665f, -0.275787413f, 0.0875848904f, -0.00314707658f, 0.012351091f, -0.0238017831f},
    {0.0615683682f, 0.118242227f, -0.0344840921f, 0.0147248674f, -0.0287365224f, 0.21196425f, -0.113191061f, 0.0149653051f, -0.0234381072f, 0.0182637591f, 0.0935443044f, -0.226399407f, 0.00303420052f, 0.0134102274f, 0.0753054917f, 0.0733836815f, 0.0282838941f, -0.0460936017f, 0.0745447353f, -0.0980635434f, -0.0559314042f, 0.0646589324f, -0.0937696621f, 0.1176221f},
    {0.0138980392f, 0.110127814f, 0.0714290589f, -0.015102311f, 0.0609710775f, 0.0262040291f, -0.101654194f, -0.0817838013f, -0.209099248f, -0.007800641f, 0.0355936475f, -0.0840699375f, -0.0151511487f, -0.0481813252f, 0.103075311f, 0.122828454f, 0.00518334145f, 0.18013002f, 0.0908011794f, -0.0993442684f, -0.0203106981f, 0.123996876f, -0.0492305234f, 0.0532324836f},
    {0.102193303f, 0.186148182f, -0.0547573529f, -0.00994625781f, -0.0201695021f, -0.00681360997f, -0.128550857f, -0.0484594591f, -0.0646273047f, -0.00567085762f, 0.0159577839f, -0.133435041f, -0.0119064897f, -0.139100283f, 0.0389043614f, 0.0568317212f, 0.0705925897f, 0.154768199f, 0.111832418f, -0.0969243199f, -0.0439070575f, 0.115235113f, -0.0393083803f, 0.0321492217f},
    {0.0549714155f, 0.117731631f, -0.0710930452f, 0.0438183658f, -0.0533212423f, 0.018852938f, -0.0832361504f, 0.0187487453f, -0.0340966545f, 0.0450834408f, 0.0822449923f, -0.116711318f, 0.0106707541f, -0.0645689666f, -0.00917352736f, 0.0341042839f, 0.034183614f, 0.127198279f, 0.0348458961f, -0.0491853356f, -0.0462040566f, 0.038551107f, -0.0116425436f, 0.0763907805f},
    {0.0628643632f, 0.0673432052f, -0.152566269f, 0.0380122103f, -0.0649008155f, 0.0279070307f, -0.00792207755f, 0.0271408483f, -0.0307234805f, 0.0143591594f, 0.114964239f, -0.0957861245f, -0.0160649754f, -0.0443533137f, -0.0332285538f, 0.123856373f, 0.0253618192f, 0.0730928704f, 0.0138717517f, -0.0137563627f, -0.0260302033f, 0.0323805586f, -0.0270627961f, 0.149975032f},
    {0.134563699f, 0.0563911311f, -0.150644869f, 0.0270005967f, -0.0641346127f, 0.0827378184f, -0.00440054247f, 0.0573228337f, 0.0267264117f, -0.00380451372f, 0.0606555752f, -0.158174634f, -0.0390364453f, -0.0573618487f, 0.012928037f, 0.0288878344f, 0.0760356933f, -0.0188190509f, -0.00617434271f, -0.0155141065f, -0.000459797797f, 0.103208303f, -0.0459707677f, 0.057947468f},
    {0.144517928f, 0.0615027994f, -0.0649977028f, 0.0279427134f, -0.0450548418f, 0.113826409f, 0.00572691998f, 0.0265265424f, 0.0289339479f, 0.00577110145f, 0.0144017702f, -0.202935651f, -0.0470934026f, -0.0494111553f, 0.0742390156f, -0.0837806463f, 0.125137657f, -0.0831190273f, -0.0440453812f, -0.0117360875f, 0.0186752267f, 0.0835873261f, -0.0302943867f, 0.00447161403f},
    {0.0736075267f, 0.0653960407f, -0.00363930408f, 0.0235991608f, 0.0187646467f, 0.0539754853f, -0.0232924279f, -0.0175757054f, 0.0190359075f, 0.0449246503f, 0.0219569374f, -0.179109916f, -0.0556796826f, -0.038256485f, 0.0451841727f, -0.0817037225f, 0.0730070025f, -0.0572632141f, -0.0682456046f, -0.00447643176f, -0.00804269314f, 0.0208191276f, -0.0153948618f, 0.0565048717f},
    {0.0131714437f, 0.0565044805f, 0.004589458f, 0.0231159702f, 0.039152611f, 0.000449106592f, -0.0677882805f, -0.0122830085f, 0.0393289812f, 0.01659761f, 0.0115579749f, -0.0838907212f, -0.059491463f, -0.0186393224f, -0.00198162487f, -0.0583577603f, -0.029483011f, 0.000876996608f, 0.00954463519f, 0.00656276522f, -0.046359919f, -0.00345767592f, -0.0224538576f, 0.075987339f},
    {0.00119607034f, 0.0160484388f, -0.0333188921f, 0.0537022389f, -0.0324655026f, 0.0138184046f, -0.049812533f, -0.0250247233f, 0.0664150864f, -0.0618353412f, 0.00294220704f, 0.0028155311f, -0.0285336543f, 0.00241223397f, 0.0247353036f, -0.0300747808f, -0.0570837334f, -0.0224939007f, 0.107748121f, 0.0179073866f, -0.0348379947f, -0.0254032873f, -0.0105749834f, 0.0829012841f},
    {-0.00390359503f, -0.0402245596f, -0.068817541f, 0.102715716f, -0.0157627743f, -0.00165807398f, -0.0810173154f, -0.0210761931f, 0.116700508f, 0.00154324248f, 0.0623198785f, -0.0660198107f, 0.0246124435f, -0.0176324043f, 0.0265435856f, -0.0263014287f, -0.0258846916f, -0.0847409666f, 0.0557196587f, -0.0170056485f, 0.00134305703f, 0.00483837398f, 0.0166334268f, 0.0857311189f},
    {0.00960231107f, -0.00386236212f, -0.0391910411f, 0.0783094242f, 0.0641966835f, -0.0246790238f, -0.035260193f, -0.0243099742f, 0.0148730222f, -0.0258994121f, 0.0511482768f, -0.104706824f, -0.000155913978f, -0.0249901339f, 0.00807668827f, -0.0534162633f, 0.0303012878f, -0.0428220183f, 0.107295468f, -0.0483268723f, 0.0615752749f, 0.0150591666f, -0.00770115387f, 0.0318675861f},
    {-0.004968761f, -0.00128971075f, 0.0527865402f, 0.0285441857f, 0.0249793846f, 0.017534541f, 0.0433619767f, -0.137186319f, -0.0510405675f, 0.021458881f, 0.0709112063f, 0.0169208311f, 0.0136659555f, 0.0283089709f, 0.0160749294f, 0.0325978175f, -0.0730597898f, 0.0509954989f, -0.00654950412f, -0.0793410912f, 0.0493718125f, -0.111133799f, 0.0200934112f, 0.0856439844f},
    {0.0304489415f, 0.0489421338f, 0.0944101065f, -0.0707805157f, 0.121846072f, -0.141191676f, -0.000358374877f, -0.134281099f, 0.0130518619f, -0.0632587969f, -0.0486272462f, 0.0958637148f, -0.0455780253f, -0.0517349578f, 0.0280440971f, -0.0339658409f, -0.0854224265f, 0.00992225204f, 0.0697485879f, 0.00465483451f, -0.0400349237f, 0.0178738069f, 0.0312837362f, -0.0887037739f},
    {0.0433433801f, -0.0392050073f, -0.0433604084f, 0.134576991f, -0.0430814698f, 0.00230851164f, -0.0116720358f, -0.0169635136f, 0.0701912418f, -0.0411752649f, -0.0200868137f, -0.0828911662f, -0.0352251083f, -0.0234884657f, -0.0486056954f, -0.114917584f, 0.0458463095f, 0.017880626f, 0.00808327366f, -0.0782985613f, 0.112755015f, 0.0437248945f, 0.0821684077f, -0.0141634801f},
    {0.00580410287f, -0.018292699f, 0.0863689482f, 0.0693870485f, 0.0192817152f, 0.0341802053f, -0.00682711368f, -0.0950864702f, -0.0998073146f, -0.0381916016f, 0.0861520842f, -0.0341809131f, -0.0745168552f, 0.0160980355f, -0.0321621969f, -0.108597986f, 0.0404650494f, 0.113894291f, -0.0575171784f, -0.141798735f, 0.108821049f, 0.00153115846f, 0.0726346448f, 0.0443707891f},
    {0.0615267009f, 0.0122113973f, 0.0202179924f, -0.0734231472f, 0.00385894231f, 0.0412799045f, 0.0735172704f, -0.036525704f, 0.00864500832f, -0.159418911f, 0.0127382008f, -0.0148967979f, -0.0773720294f, 0.018000219f, 0.00501293363f, 0.0368908904f, 0.0070826062f, 0.102972165f, 0.0670741946f, 0.0153981075f, -0.146361589f, 0.030493455f, -0.0141561702f, 0.0263603479f},
    {0.0496906526f, -0.030518068f, 0.0218320731f, -0.0285200793f, 0.0685114488f, -0.034240488f, 0.0538209528f, 0.00469096284f, -0.0339929536f, 0.0316339768f, 0.0383204371f, -0.00288122729f, -0.000213132647f, 0.0047192052f, -0.031429965f, 0.0721099228f, -0.00886298809f, 0.0781588554f, 0.00140290323f, -0.0192551911f, -0.0964067131f, -0.00702692941f, 0.0237097051f, 0.00785385631f},
    {-0.0263737887f, 0.00605841959f, 0.0665179342f, 0.0331348144f, 0.0612774678f, -0.0401342884f, -0.0150621049f, 0.00544551993f, -0.0449438654f, 0.0115211867f, -0.00339810457f, -0.0387922898f, 0.0109911794f, -0.0885250494f, -0.0952528119f, -0.0111539848f, 0.0225866698f, 0.0976068377f, -0.0131176598f, 0.0304171145f, -0.00680561317f, 0.0140543496f, 0.0174175408f, -0.00140496402f},
    {0.000463949022f, -0.0252620261f, 0.0704876557f, -0.0140926307f, 0.14913258f, -0.073918134f, 0.017255649f, 0.0199300479f, -0.0768048316f, -0.0164177138f, -0.0194763616f, 0.0469697639f, -0.00379771134f, -0.0717795417f, -0.13458778f, 0.0328557752f, -0.0246060975f, 0.140914351f, -0.0482644103f, 0.0740429014f, -0.0376141295f, 0.00586571125f, 0.0406824835f, -0.0158586912f},
    {0.0160045717f, -0.0330497287f, -0.0110593671f, -0.0552122556f, 0.124168247f, -0.0575904958f, 0.0264892969f, 0.00625769794f, 0.0168793499f, 0.0385340415f, -0.0111045483f, 0.0131940627f, 0.0320937894f, -0.1245033f, -0.103594095f, 0.0499905832f, -0.057890512f, 0.0745536089f, -0.0371120833f, 0.0546405539f, -0.0376135968f, -0.0200256966f, 0.0476697646f, 0.0218130946f},
    {-0.0144317849f, -0.0581135564f, -0.0739402771f, -0.0854077712f, 0.0249919835f, -0.0112429792f, 0.0471045375f, 0.0271588955f, 0.0460947454f, 0.0578884706f, 0.0158860236f, 0.0323293135f, 0.0477097705f, -0.0988087431f, -0.0628652424f, 0.0192794893f, -0.0208222568f, 0.0277579818f, -0.0949645266f, 0.0606179573f, -0.017200755f, -0.0212907195f, 0.0280953962f, 0.0334586352f},
    {-0.0773897022f, -0.054192014f, -0.042495165f, -0.0722455531f, 0.0040959199f, 0.0136804292f, 0.0431666113f, 0.0212936942f, 0.0193720907f, 0.0547011681f, 0.0128044216f, 0.0643469468f, 0.0406989492f, -0.0523789264f, -0.0270707514f, 0.0534881055f, -0.017819779f, 0.0188581161f, -0.118961528f, 0.0755935386f, -0.0245884359f, -0.00973098073f, 0.0291943029f, 0.0276979823f},
    {-0.137428716f, -0.0227956716f, 0.0687733889f, -0.0159117319f, 0.0535460226f, 0.0226266962f, 0.0103772404f, 0.00366318063f, 0.0508801192f, 0.0566498376f, -0.0115606822f, -0.00226506358f, 0.0308091212f, -0.0681808963f, -0.000398811826f, 0.0454139709f, -0.0429269969f, 0.0217838641f, -0.076757662f, 0.0589888208f, 0.00419041514f, 0.0224830806f, 0.0221766122f, 0.00467970176f},
    {-0.144325644f, -0.0406489708f, 0.159061611f, 0.0277482159f, 0.0609998405f, 0.0546608828f, 0.0138929337f, -0.0120465485f, 0.0642966479f, 0.0296598878f, 0.0101917554f, -0.0347438753f, 0.0227135345f, -0.0671915188f, 0.0125094168f, -0.0389456339f, -0.0245754942f, -0.00625933055f, -0.050105013f, 0.0188577473f, 0.0263194926f, 0.0435222052f, -0.0101251528f, -0.015456656f},
    {-0.114007272f, -0.0673789531f, 0.112604469f, 0.0673948675f, 0.00675229589f, 0.0952414572f, 0.0236696023f, -0.050655853f, 0.0652125999f, -0.00354897766f, 0.0451585911f, -0.00893640518f, 0.0215913113f, -0.0434599295f, -0.0013191693f, -0.0610808805f, 0.000393358205f, -0.0988052413f, -0.00862370525f, -0.024972409f, -0.0360674523f, 0.0182190221f, -0.0246256664f, 0.0261789188f},
    {-0.106978856f, -0.077454254f, 0.00815941766f, 0.109657802f, -0.0276249722f, 0.0798125714f, 0.0190063529f, 0.028627282f, 0.128674194f, -0.00933697727f, 0.038385421f, -0.049315393f, -0.0094016036f, 0.00160310662f, -0.0761270151f, -0.0849630609f, -0.0121593149f, -0.0644135997f, -0.0351418518f, -0.0270809326f, -0.0217235778f, 0.0490568653f, -0.0224422272f, 0.0362698548f},
    {-0.120545171f, -0.0765508339f, 0.043747101f, 0.133515239f, -0.0715145543f, 0.0784183145f, -0.00798223261f, -0.028701568f, 0.0228708219f, 0.0412738882f, 0.0775970593f, -0.0720227435f, 0.0174073149f, -0.0262390394f, -0.0505998582f, 0.0145617528f, -0.127320722f, 0.0245291349f, -0.0787011683f, -0.0634831041f, 0.0435402803f, 0.0820916072f, 0.0766036808f, 0.0469869524f},
    {-0.0544895157f, 0.00837178342f, 0.0346988365f, 0.132345214f, -0.0160350986f, 0.0125842197f, -0.0338151716f, -0.0736130998f, 0.0462071449f, 0.0810176209f, 0.0103263445f, -0.0140516218f, -0.00817286782f, -0.0943212137f, -0.0319824368f, -0.0412982851f, -0.0825291276f, -0.0187025163f, -0.0292943176f, -0.110645562f, 0.0544574037f, 0.0217047893f, 0.104336426f, -0.0453756899f},
    {-0.0784341022f, -0.018900983f, -0.00184367772f, -0.2488323f, 0.0821797848f, 0.0376778618f, 0.347387403f, 0.0835079029f, -0.0462569967f, -0.142925248f, -0.145604491f, 0.376087666f, -0.11074663f, 0.0211933702f, -0.0379276387f, 0.189255744f, -0.0355658494f, 0.179721758f, -0.0246592108f, 0.170297652f, 0.0024351161f, 0.0588424727f, -0.137282386f, 0.0121108918f},
  },
};

static const float kLayer0PreNormWeight[24] = {0.651004612f, 0.804759622f, 0.963127851f, 0.947663426f, 0.991896868f, 0.774779439f, 0.72304219f, 0.890713215f, 0.85291034f, 0.900447369f, 0.812753856f, 0.879742324f, 0.90850991f, 0.245736524f, 0.852095246f, 0.777160764f, 0.833047211f, 0.829000771f, 0.926531017f, 0.908944726f, 0.988656044f, 0.832159996f, 0.978040695f, 0.766379356f};

static const float kLayer0PreNormBias[24] = {-0.013924242f, -0.0236476846f, -0.00666887127f, -0.0057884939f, -0.049407132f, 0.162540048f, 0.150551647f, 0.0902272612f, 0.00624818495f, -0.0139471497f, 0.00681165792f, 0.00217802427f, -0.00886656251f, 0.0183587726f, 0.0218105726f, 0.115470171f, 0.00237143994f, 0.0387834311f, -0.0511501282f, 0.0424737185f, 0.00383956288f, -0.0448191352f, -0.0217095949f, 0.185950696f};

static const float kLayer0PostNormWeight[24] = {0.954560459f, 0.913432539f, 0.672224581f, 0.928930581f, 0.850155234f, 0.715959907f, 0.777132094f, 0.699808359f, 0.786666691f, 0.702102005f, 0.638122439f, 0.810471356f, 0.696983218f, 0.90734303f, 0.630578101f, 0.694226921f, 0.922610402f, 0.704425395f, 0.789253712f, 0.745808363f, 0.768589556f, 0.847706854f, 0.908617556f, 0.739324391f};

static const float kLayer0PostNormBias[24] = {-0.0356728546f, -0.0233722441f, 0.036294505f, 0.00578944385f, 0.03252507f, -0.0270856973f, 0.0560880192f, 0.00471694907f, -0.000724615122f, 0.063370876f, 0.00588306552f, -0.0153102623f, 0.0227364823f, 0.02117927f, -0.0656032562f, 0.0670905858f, -0.0765142068f, 0.0356258787f, -0.0802995786f, -0.00526017463f, 0.0402136222f, -0.0446001962f, 0.0501399338f, 0.0253467262f};

static const float kLayer0ALog[48][16] = {
  {-0.117734753f, 0.602665544f, 1.00725377f, 1.31192505f, 1.20237768f, 1.42927349f, 1.68148816f, 1.68425667f, 1.81964672f, 1.98052001f, 1.80788743f, 2.10910177f, 2.08550119f, 2.12207532f, 2.17534089f, 2.25471497f},
  {0.0453097075f, 0.560123861f, 0.931129396f, 1.22631884f, 1.29934764f, 1.29635203f, 1.71336496f, 1.70683789f, 1.72381592f, 1.85163152f, 1.95148325f, 2.10215902f, 2.0692749f, 2.10555863f, 2.17784142f, 2.18035269f},
  {-0.000756554015f, 0.571104765f, 0.698843837f, 0.948632777f, 1.34567404f, 1.77154875f, 1.05312562f, 1.41942692f, 1.9503001f, 1.73852777f, 2.4691813f, 2.2485714f, 2.28603864f, 1.91370654f, 2.2900207f, 2.25014901f},
  {0.0739872009f, 0.739835918f, 0.813471615f, 1.2788229f, 1.37100828f, 1.76928544f, 1.77636075f, 1.65603971f, 1.84310091f, 1.88128662f, 1.85332596f, 2.3274169f, 2.32458472f, 2.28029418f, 2.39818478f, 2.4239099f},
  {0.0525825918f, 0.481817275f, 0.731064856f, 0.922931433f, 1.29449928f, 1.59334242f, 1.63990235f, 1.61931252f, 1.77081859f, 2.09807682f, 2.01655102f, 1.99544179f, 2.35028505f, 1.97110605f, 2.34877515f, 2.38996911f},
  {0.0131215313f, 0.595665991f, 0.810134292f, 1.18689501f, 1.27947295f, 1.40637648f, 1.58585179f, 1.75666606f, 2.04478192f, 1.78623617f, 2.11012697f, 1.83539784f, 2.07881951f, 2.0729394f, 2.08790803f, 2.25658894f},
  {0.100851752f, 0.639707088f, 1.10253751f, 1.24170661f, 1.31757426f, 1.73134685f, 1.72231138f, 1.71698773f, 1.94676077f, 1.70192289f, 1.94952488f, 1.71171796f, 1.88363862f, 2.15760183f, 2.01580238f, 2.17530727f},
  {-0.127076447f, 0.537430763f, 0.762057483f, 1.18484282f, 1.36549759f, 1.79086876f, 1.57297099f, 1.65405226f, 2.01813149f, 2.04716301f, 2.10934877f, 1.71816158f, 1.91738558f, 2.12432933f, 2.09308219f, 2.41133308f},
  {0.0892190188f, 0.635743499f, 0.972636044f, 1.04298151f, 1.57199979f, 1.6906327f, 1.78460085f, 2.04172587f, 1.9794575f, 2.27712631f, 1.9212991f, 1.98587179f, 2.27984262f, 2.38052368f, 2.34994483f, 2.35244918f},
  {-0.0303941108f, 0.586380839f, 0.863121748f, 1.26958656f, 1.21533394f, 1.51826012f, 1.67300701f, 1.88102806f, 1.96534419f, 1.98483562f, 1.98625314f, 2.13653255f, 2.22809649f, 2.13620901f, 2.21226835f, 2.20811319f},
  {-0.183513969f, 0.516602039f, 1.10900009f, 1.16482115f, 1.34581769f, 1.53999841f, 1.7095716f, 1.82525861f, 1.4281354f, 1.97242117f, 2.24983001f, 1.79554307f, 2.26898265f, 2.29100561f, 2.00263953f, 2.25489712f},
  {0.243849978f, 0.494453907f, 0.853923798f, 1.11560857f, 1.52339947f, 1.231969f, 1.93183744f, 1.29958344f, 1.70462704f, 1.92914307f, 1.6847477f, 1.99950004f, 2.12121749f, 2.19545674f, 2.37131214f, 2.38299537f},
  {-0.0205557626f, 0.614245296f, 0.955631077f, 1.19382918f, 1.35382664f, 1.54474306f, 1.77157402f, 1.72358918f, 1.93275666f, 1.82479441f, 1.8850069f, 2.17250657f, 2.2059617f, 2.17771101f, 2.2032733f, 2.10805488f},
  {-0.00530886604f, 0.549023032f, 0.973643959f, 1.14611626f, 1.31107974f, 1.70058799f, 1.7280432f, 1.48779142f, 1.90680182f, 1.99948001f, 2.00070453f, 2.05712557f, 2.02210975f, 1.96680117f, 2.08368063f, 2.24302769f},
  {0.0256122798f, 0.546902418f, 0.737892687f, 1.12802303f, 1.21846294f, 1.48455715f, 1.6559459f, 1.59078491f, 2.04275298f, 1.83343589f, 2.02680731f, 2.06269193f, 2.02701879f, 2.2867353f, 2.02325869f, 2.33533216f},
  {-0.0163897891f, 0.605036318f, 1.00276113f, 1.10075867f, 1.36281645f, 1.64942861f, 1.64931524f, 1.63563991f, 2.12255168f, 1.57959461f, 2.09900379f, 2.11521316f, 2.3919735f, 2.3541944f, 2.10574269f, 2.3295393f},
  {-0.000273416517f, 0.612944782f, 0.98228842f, 1.06459761f, 1.29450858f, 1.46360016f, 1.76148629f, 1.45248628f, 1.9669193f, 2.02156067f, 1.98761868f, 2.09739494f, 2.01214957f, 2.05282378f, 2.07974792f, 2.08195972f},
  {0.423689842f, 0.581062615f, 0.858152211f, 0.839491904f, 1.15426421f, 1.47412026f, 1.45041418f, 1.27828014f, 1.81070352f, 2.07065606f, 1.83968043f, 2.02179885f, 2.37169027f, 2.33316374f, 2.42472243f, 2.39107037f},
  {0.198280215f, 0.451037914f, 1.05016673f, 1.15952361f, 1.22802866f, 1.57237172f, 1.57277238f, 1.7905724f, 2.02573752f, 1.8002007f, 2.04030633f, 1.86729228f, 2.10367751f, 2.14714932f, 2.14412975f, 2.1527245f},
  {-9.66037405e-05f, 0.481375754f, 0.717586815f, 1.02112734f, 1.21834707f, 1.38285697f, 1.9406985f, 1.32043302f, 1.71936572f, 1.94995463f, 2.12810445f, 1.88809705f, 1.94984198f, 2.00002861f, 2.04843569f, 2.21757221f},
  {0.020907741f, 0.559488416f, 0.923071921f, 1.19633806f, 1.30739212f, 1.36550188f, 1.54332304f, 1.74609351f, 1.71404004f, 1.9355036f, 2.05937743f, 1.99931109f, 1.98031139f, 2.06705427f, 2.1848433f, 2.23874474f},
  {-0.147607058f, 0.689949751f, 0.768359721f, 1.3147105f, 1.47672033f, 1.3865875f, 1.84753895f, 1.59320056f, 2.07197118f, 1.8853687f, 2.02553678f, 2.28074384f, 2.29013896f, 2.18940425f, 2.29440141f, 2.31115341f},
  {0.0122595113f, 0.600847006f, 0.894482136f, 1.33805227f, 1.31365466f, 1.50599432f, 1.74704194f, 1.85153234f, 2.07119441f, 1.69780076f, 2.00900745f, 2.02453971f, 2.06005073f, 2.04489923f, 2.06019449f, 2.24457717f},
  {0.0275040343f, 0.603790283f, 0.79145056f, 1.23458195f, 1.24212945f, 1.57445478f, 1.5505662f, 1.58648717f, 2.0527544f, 1.77502942f, 2.14402986f, 2.05195165f, 2.10476065f, 2.07748294f, 2.1232729f, 2.21151805f},
  {0.020608237f, 0.552672029f, 0.853881598f, 1.13253522f, 1.3054477f, 1.46526706f, 1.55407965f, 1.55411434f, 1.74323273f, 1.9440304f, 2.01494169f, 2.05593991f, 2.03772545f, 2.0961349f, 2.16925287f, 2.20478797f},
  {-0.222009271f, 0.49645561f, 0.647057652f, 1.0829432f, 1.29783487f, 1.50854611f, 1.16428828f, 1.82976782f, 1.83689892f, 1.8364315f, 2.20422888f, 1.96119452f, 2.17371702f, 2.21673298f, 2.1686821f, 2.12839127f},
  {-0.12487822f, 0.554857075f, 0.714240909f, 0.703567326f, 1.21034944f, 1.45978916f, 1.43498051f, 1.75301802f, 1.74333322f, 1.91743851f, 1.76053989f, 2.14261937f, 1.86939132f, 1.88274813f, 2.08628249f, 1.86247623f},
  {-0.178281188f, 0.616139591f, 0.735769689f, 1.25288177f, 1.79421842f, 1.46303809f, 1.53203928f, 1.51809895f, 1.86311603f, 1.93844759f, 1.85852492f, 2.05285168f, 2.28639126f, 2.17630267f, 2.32228518f, 2.32386684f},
  {0.193610221f, 0.715330303f, 1.01349223f, 1.00323021f, 1.31538594f, 1.39910924f, 1.58722436f, 1.67255354f, 1.84942222f, 1.8391453f, 2.1044426f, 2.16351533f, 2.02180338f, 2.01079535f, 2.00729132f, 2.05488229f},
  {-0.0387557447f, 0.596069515f, 1.02032733f, 1.1285814f, 1.33328712f, 1.53000522f, 1.64217484f, 1.56729221f, 2.03347754f, 1.93811977f, 2.01761031f, 2.16645598f, 2.19198084f, 2.15689659f, 2.12002611f, 2.138798f},
  {-0.0821649656f, 0.704890788f, 1.03197885f, 1.07647526f, 1.40183675f, 1.50778925f, 1.63836455f, 1.64174294f, 1.7415539f, 1.91408336f, 1.93696046f, 2.33432722f, 2.21883416f, 2.20746136f, 2.22112131f, 1.94823754f},
  {0.0934164226f, 0.52658534f, 0.968823433f, 1.35843277f, 1.28907824f, 1.71824932f, 1.64908516f, 1.69907522f, 1.94907093f, 1.80110967f, 1.94476902f, 1.92858255f, 2.34547544f, 2.34238434f, 2.572016f, 2.61138082f},
  {0.037042398f, 0.411165655f, 0.894129634f, 1.04389441f, 1.04889667f, 1.06894231f, 1.59627163f, 1.49429369f, 1.94925177f, 2.11996055f, 1.79636788f, 2.09757781f, 1.99015272f, 2.00307918f, 2.03935122f, 2.0598259f},
  {0.0478206947f, 0.602142096f, 0.917759776f, 1.24169588f, 1.47397447f, 1.76597917f, 1.55132735f, 1.5925281f, 2.05625749f, 1.93899429f, 2.06331849f, 2.29687119f, 2.13224769f, 2.19866514f, 2.10382605f, 2.0762403f},
  {0.329551131f, 0.583188951f, 0.992401183f, 1.04793394f, 1.29395914f, 1.30952203f, 1.42019784f, 1.8433392f, 1.88814962f, 1.82343817f, 1.96434724f, 2.04477453f, 2.14685488f, 2.16244149f, 2.11924887f, 2.12072682f},
  {-0.0211108308f, 0.593593121f, 0.867387176f, 1.21509135f, 1.394997f, 1.49712408f, 1.57216299f, 1.70482409f, 1.82894421f, 2.12143421f, 1.87857771f, 1.9506619f, 2.05354309f, 1.96154284f, 1.99167788f, 1.96865666f},
  {0.00957249478f, 0.634465814f, 0.654835105f, 1.13195539f, 1.17475581f, 1.26766968f, 1.21763039f, 1.21766448f, 1.7732054f, 1.92594218f, 2.0616138f, 1.95123792f, 2.08934617f, 2.10451221f, 2.15857434f, 2.29421949f},
  {-0.234674826f, 0.834656119f, 0.743836939f, 1.23716319f, 1.46268904f, 1.69675565f, 1.69989932f, 1.6671108f, 1.67676997f, 2.15413189f, 1.64129341f, 2.16490459f, 2.24843812f, 2.21147108f, 2.17628169f, 2.16764474f},
  {0.0530163012f, 0.57771337f, 0.905079603f, 1.144315f, 1.32334244f, 1.45196438f, 1.54626906f, 1.67835236f, 2.0151937f, 1.79588044f, 2.03739548f, 1.99914086f, 2.06294274f, 2.1130898f, 2.10338998f, 2.16271687f},
  {-0.0312440656f, 0.561290443f, 0.827052355f, 1.38818073f, 1.33331311f, 1.37804675f, 1.44860232f, 1.36542809f, 1.73971891f, 1.98343289f, 1.92222571f, 1.96227574f, 1.94670916f, 2.00059128f, 2.14131379f, 2.12332177f},
  {-0.0788550824f, 0.630523741f, 0.839491844f, 1.30614567f, 1.41813159f, 1.4230901f, 1.52457476f, 1.43197501f, 1.72626138f, 2.06332588f, 1.95601785f, 2.01254535f, 1.79666114f, 1.87158918f, 2.28217411f, 2.26676679f},
  {-0.111492395f, 0.589761615f, 0.811952651f, 1.56305075f, 1.43651962f, 1.50299954f, 1.69592917f, 1.55512297f, 1.79233158f, 2.24944782f, 1.80491865f, 2.2156682f, 2.14586973f, 2.1577003f, 2.06079268f, 2.07229543f},
  {0.0493224263f, 0.530679524f, 0.730442166f, 1.26569331f, 1.22849584f, 1.62937927f, 1.59636819f, 1.62390578f, 2.02464032f, 1.94445038f, 2.07856727f, 2.1080184f, 2.09007549f, 2.02842474f, 2.1548481f, 2.23042941f},
  {-0.000555321109f, 0.603868425f, 0.704170227f, 1.08509159f, 1.3462317f, 1.30153739f, 1.47034991f, 1.92525113f, 1.93292499f, 2.2022016f, 1.95141196f, 2.21609139f, 2.07579613f, 2.22492003f, 2.16140413f, 2.20533109f},
  {0.107389539f, 0.593341112f, 0.994369864f, 1.12609637f, 1.34071124f, 1.3037405f, 1.66487241f, 1.65978301f, 1.82027984f, 1.88854063f, 2.07510567f, 1.90302634f, 2.21299028f, 2.22397161f, 2.26833153f, 2.28195333f},
  {-0.00892577134f, 0.521189034f, 0.993288338f, 0.998297215f, 1.33047593f, 1.3721118f, 1.62505579f, 1.70053005f, 1.90444112f, 2.0229516f, 2.00861025f, 2.19989872f, 2.12630177f, 2.12319994f, 2.11658454f, 2.34686661f},
  {-0.0676136911f, 0.609154344f, 0.946864426f, 1.11573219f, 1.39063025f, 1.47025156f, 1.78296602f, 1.56317222f, 1.9207803f, 1.82451439f, 1.99123108f, 2.02165508f, 2.025213f, 2.27767587f, 2.35059929f, 2.33575344f},
  {0.0123716919f, 0.608853102f, 0.855220258f, 1.20251596f, 1.3534528f, 1.6109153f, 1.78187549f, 1.76898992f, 2.08829236f, 1.70623553f, 2.10599136f, 2.29420829f, 2.15719008f, 2.1930449f, 2.32031751f, 2.39796138f},
};

static const float kLayer0D[48] = {0.717554271f, 0.776806533f, 0.934628248f, 0.766293228f, 0.727005303f, 0.773907781f, 0.691517115f, 0.637211442f, 0.958377779f, 0.750559449f, 0.964500725f, 0.923655152f, 0.767040074f, 0.759454727f, 0.727515459f, 0.769521952f, 0.739283741f, 0.896909237f, 0.711590052f, 0.874542356f, 0.705331087f, 0.743824065f, 0.753219306f, 0.732850134f, 0.795069516f, 0.900001466f, 0.810194075f, 0.733674288f, 1.06846082f, 0.761815965f, 0.742721438f, 0.842408419f, 0.770739019f, 0.747523844f, 0.863479435f, 0.781790078f, 0.869831145f, 0.935180128f, 0.777409434f, 0.721984029f, 0.755791068f, 0.801061749f, 0.856063664f, 0.773704529f, 0.669865608f, 0.776525319f, 0.770236909f, 0.747327387f};

static const int8_t kLayer0InProjQ[96][24] = {
  {40, -66, 31, -52, 101, -15, 21, -116, -62, -25, -33, 22, -48, -3, 30, 38, 109, 90, -25, -2, 32, 127, -51, -47},
  {-43, -60, -71, -78, -55, 90, 15, -124, -46, -42, 62, 11, -63, 6, 127, 29, 54, -15, -46, 39, -87, 87, -76, 103},
  {6, 47, -98, -13, -41, 103, 74, -67, 14, -62, 65, -79, 44, 18, 8, 127, -35, -93, 56, -47, 9, -100, 45, 46},
  {-4, -57, -29, 54, -2, -80, -40, 23, 75, 68, -7, -57, 58, 12, -77, -24, -51, 1, -41, -60, 69, 30, 127, -96},
  {-1, -38, -16, 14, -42, 127, 81, 36, -3, -28, 58, -14, -24, -23, -29, 27, 24, -20, -36, 4, -15, -21, -23, 61},
  {24, 49, -21, 37, 19, -127, -38, -59, 28, 17, -43, -21, 50, 8, -21, 1, -45, -28, 46, -10, 13, 39, 38, -87},
  {-2, 37, 4, 3, 26, -127, -43, -31, 25, 14, -59, 30, 12, 0, -2, -17, -1, 83, 45, -18, 33, 12, 62, -113},
  {5, 25, -16, -23, 15, 104, 100, -44, -48, -65, 27, -11, -11, 3, 4, 27, -31, -127, 0, -61, 105, 6, -41, -7},
  {14, -3, -69, 117, -127, 9, 0, 31, 83, 61, 34, -71, 54, 0, -63, -19, 19, -24, -62, -63, 56, -13, 87, -15},
  {101, 3, -103, 44, 38, -57, 35, 83, 51, -50, -16, -10, 27, 45, -62, -64, 8, -11, 37, -52, -8, 10, 24, -127},
  {63, -12, -54, -26, 98, -14, -38, -117, 43, -9, 51, -36, 34, 18, 20, 55, -108, -25, 32, -37, -127, 76, 20, 18},
  {-91, -8, 76, -127, 50, 8, 65, 80, -86, -80, -35, 13, -69, -3, -68, 59, -58, 65, -126, 124, 25, -56, -2, 87},
  {25, 9, -90, 19, 41, -19, 127, 60, 40, -34, 30, -46, 19, 48, -41, -30, -32, -17, -1, -36, 58, 37, 4, -90},
  {13, 45, -85, 41, 110, -56, 32, -23, 38, -36, -45, -10, -25, 37, -53, -18, -35, 69, 42, -38, 107, 21, 72, -127},
  {-23, -12, 11, 40, -67, -47, -51, -70, 38, 88, 17, -89, 75, -23, -32, 54, -127, -36, -92, -80, 4, 3, 112, 32},
  {17, -31, -27, 29, 127, -60, 19, 20, 59, 63, -14, -23, 29, 11, -54, -42, -29, -33, 6, -38, 20, 117, 30, -110},
  {-30, 4, 67, -87, 45, 9, -90, -50, -28, 1, -27, 4, 14, -58, 50, 71, -54, -12, -95, 28, 20, -44, 29, 127},
  {-41, -51, 123, 0, 24, -74, -66, 19, -53, 127, -35, 34, -26, -20, -75, -111, 84, 92, -113, 4, 23, 61, -24, -53},
  {-44, 74, 127, 37, -69, 32, -18, -45, -50, -9, -22, -12, -27, -32, 42, -28, 13, 5, -11, -14, 83, -30, 15, 17},
  {-28, 108, 28, -11, -21, 42, 37, -33, -23, 27, 3, -50, 55, 8, 8, 25, -28, 7, -65, -41, 127, 4, 21, -34},
  {-1, -28, 29, -23, 82, 102, 65, -43, -67, -23, 34, -27, -39, -21, 24, 47, 72, 25, -12, -6, 127, 24, -76, 49},
  {90, 76, -86, 29, 25, -98, -31, 7, 18, 4, -33, -72, 37, 18, -30, -6, -16, -60, -12, -125, 36, 127, 92, -121},
  {-3, -3, -65, 34, 40, -86, 24, 3, 20, 30, -21, -17, -5, 11, -15, -72, -42, 23, 50, -70, 46, 37, 40, -127},
  {1, 41, -71, 12, 37, -127, -59, -1, 70, -15, -5, -1, 48, 13, 0, -28, -40, 51, 42, 1, -19, 53, 35, -80},
  {-9, 32, -18, -6, -7, -10, 14, 24, -21, -2, -127, 33, -40, -9, 9, -38, 68, 60, -51, 19, 61, -39, -3, -36},
  {31, -11, -114, 20, -60, 34, -17, -11, 53, -40, 66, -4, -52, 12, 51, 118, 34, -39, 62, -9, -127, -125, 46, 103},
  {-71, 31, 127, 54, 42, -92, -32, 27, -41, 98, -80, -12, 5, -37, -46, -41, -18, 107, -78, -4, 96, -40, 49, -51},
  {17, -121, -34, 1, 127, -102, -37, 10, -25, 64, 1, 40, 29, 18, 20, -15, -27, -6, -2, -23, -22, 124, -33, -82},
  {-49, 31, -99, 23, -127, 101, 70, 9, 37, -43, 67, 76, 0, 12, 26, -3, 76, -120, 19, -19, 38, -95, 21, 16},
  {56, 8, -101, 24, 13, -26, 67, 62, 7, -11, -40, -23, -15, 26, -57, -84, 20, 8, 40, -71, 23, 49, 22, -127},
  {48, 19, -112, 62, 35, 18, 13, 31, 45, 27, 26, -46, 77, 18, -87, -10, -58, -103, -19, -127, 46, 43, 35, -47},
  {-76, -18, 11, 42, 2, -53, -67, -44, 13, 89, 64, -17, 127, -59, -74, 55, -90, -56, -41, -30, 13, -2, 82, -22},
  {4, -20, -42, 14, 81, 127, 127, 12, 3, -56, 58, -14, -17, 45, -21, 18, 6, -77, -30, -37, 24, -10, -33, -30},
  {7, 58, -44, 14, 64, -80, 11, -11, 35, 10, -72, -1, -5, -11, -23, -58, -24, 76, 23, -11, 106, 7, 57, -127},
  {15, -72, -63, -10, 127, -55, -29, 15, 18, -32, -9, -19, -21, 11, 1, 46, -37, 72, -13, -7, -32, 99, -14, -8},
  {-42, -15, -5, 14, -23, 77, 27, -40, -39, 8, 11, -41, -26, -2, 49, 52, -12, 49, 14, 13, -70, -92, 16, 127},
  {9, -21, 83, 29, 55, -65, -84, -109, -6, 88, 26, -24, 79, -4, -7, 31, -70, 56, -13, -43, -81, 20, 127, -8},
  {-69, -23, 31, 31, -108, 72, 104, 41, -40, 7, -35, -19, -13, -31, -28, 0, 87, 59, -46, -49, 127, -66, -29, -18},
  {73, -35, -127, 10, 76, -21, 122, 38, 93, -19, 118, -12, -2, 67, -13, -15, -71, 38, 100, -80, -64, 15, 0, -58},
  {20, -112, 127, 4, 23, 22, -16, -82, -40, 84, -18, -9, -3, -26, 16, 17, 71, 7, -60, -14, 40, 68, 23, 6},
  {2, 58, -21, 31, -99, 127, 50, 74, 41, -93, 61, -68, -70, -9, 4, -64, 8, 16, 47, -11, -29, -79, 3, 63},
  {-53, -52, 127, -42, 8, -46, -76, -28, -72, 48, -19, 69, 34, -28, 46, -56, 2, 79, 34, 68, -78, 12, -67, 8},
  {-26, -46, 60, -1, 108, -61, -26, 1, -116, 30, -13, -33, -29, 4, -7, 3, -43, 62, -41, -29, 100, 127, -28, -42},
  {-8, 65, 43, 17, -3, -67, -75, 127, 70, 47, -59, 20, 1, -45, -78, -106, 41, 28, 76, 23, 36, 23, -33, -80},
  {63, 5, 2, 27, 15, -37, -88, -72, 4, -7, 59, -29, 47, -32, 51, -7, -77, -30, 24, -19, -93, 127, 60, 9},
  {20, -53, -23, -9, 69, -48, -8, -25, -15, -1, 7, 12, -8, 5, -7, 22, -12, -10, 4, -38, 3, 127, -20, -13},
  {48, 78, -127, 111, -93, -92, -59, 110, 54, 52, 6, -58, 77, 69, -67, -114, -38, -91, -22, -54, 8, -51, 53, -23},
  {7, -42, 76, -7, -30, 102, -18, -20, -45, 1, 62, -22, -29, -36, 58, 73, 15, -84, -28, 16, -68, -13, -59, 127},
  {40, -17, -20, -127, 39, 1, 42, -38, 12, -52, -29, 83, 23, -4, -7, 76, 34, -28, -74, 48, -8, 75, -33, -35},
  {-9, 48, 27, 35, 29, -18, 79, -34, -1, -39, -17, -23, -13, 24, 24, -18, -30, -37, -33, -56, 127, -7, 1, -41},
  {-127, -19, 30, -27, 41, -38, -12, 101, -65, 36, -73, 67, 26, -5, -11, -13, 11, 56, -17, 97, 32, -46, -77, -38},
  {7, 100, -101, 32, 45, -41, 48, 16, 28, -15, -3, -63, -9, -9, -31, -73, 3, -2, 59, -96, 96, 32, 3, -127},
  {58, 100, 8, 38, -121, -2, 22, 17, 86, 9, -88, -59, 50, 17, -55, -96, 91, -127, -6, 53, 22, -62, 114, -76},
  {45, -9, -127, 71, 28, -50, 78, 15, 22, -68, -73, -55, -37, 53, -15, -61, -22, -96, -8, 11, -28, 97, 10, -52},
  {13, 59, 12, 46, -3, -88, -18, -63, 77, 11, -55, -70, 13, 8, 20, -64, 32, -80, 3, 7, -3, 67, 113, -127},
  {-48, 127, -41, -49, -48, 116, 48, 13, -7, -45, 33, -59, 39, -25, -30, -26, 9, -75, -54, 16, 91, -34, -50, 87},
  {21, 67, 18, -126, 49, -7, 32, -31, -35, -106, -64, 86, -110, 1, 57, -29, 23, 3, 102, 82, -48, 12, -127, -20},
  {-56, 67, 78, 89, 28, 16, -6, -15, -27, -7, 52, -17, 2, -42, -54, -50, -127, -26, 9, -35, 79, 10, 125, -104},
  {6, -1, -13, 2, -73, -59, -40, 48, 5, -41, 31, 42, -32, -6, -26, -17, 64, -32, 0, 127, 4, -57, -23, 6},
  {58, -127, -40, -30, 47, -59, 61, -5, -61, -45, -11, 39, -100, -21, -67, 50, 75, 93, -97, 26, -19, 76, -81, -34},
  {7, 49, -71, 75, 45, -63, 96, 21, 12, -51, 127, -32, 5, 48, -1, -35, -20, 76, -23, -77, 55, -26, 35, -124},
  {40, 48, -67, 35, 70, -19, 39, 7, 37, -36, 20, -59, -28, 53, -30, -24, -2, -36, 17, -64, 33, 54, 62, -127},
  {-55, -34, 122, -86, 17, 13, 74, -107, -39, 5, -14, 36, 1, -95, 35, 29, -32, -4, 36, 60, 23, -127, 59, -32},
  {-14, 56, -53, 30, 25, -10, -9, 4, -30, -38, 17, -38, -32, 23, -18, -60, 43, 27, 32, -68, 99, 11, 49, -127},
  {-7, -69, -14, 40, -52, 25, 27, 10, 57, -26, 37, -24, -22, -3, -47, -48, 5, -22, 55, -36, -95, 28, -30, -127},
  {6, -22, -38, 48, -36, 22, 6, -56, -3, 33, 51, -38, 63, 28, -56, 127, -99, -55, -51, -57, -83, -81, 74, 124},
  {-75, -101, 50, 14, 51, -66, 5, -40, 81, 60, 52, 26, 36, 77, 8, 127, -100, -53, -92, 85, -127, -5, 125, 23},
  {31, -33, -65, 66, -127, 81, 3, 39, 47, -66, -42, 3, -121, -22, 18, -52, 89, -17, 106, -8, -63, -77, -44, 39},
  {-49, 39, 73, 7, 24, -31, 22, 14, -49, 52, -20, 74, -2, 44, -49, -41, -30, -127, -26, 59, -23, -57, 100, -87},
  {48, 24, -34, -52, -8, 25, 79, 33, -7, -68, -53, 80, -83, -49, 4, 2, 85, 70, 75, 127, -29, 50, -100, 32},
  {13, 23, -59, 5, 23, -78, 42, 30, 21, -37, 17, -39, 8, 21, -43, -75, -38, -18, 21, -33, 8, 89, 37, -127},
  {-57, 61, -16, 34, -66, -107, 9, 29, 43, -7, -58, -55, -4, -2, -5, -84, -36, -24, 24, -10, 2, 112, 110, -127},
  {12, -53, 11, 15, 2, 29, -48, -12, 27, -13, 72, 16, -33, -25, 17, 46, -4, -39, 5, -53, -127, 46, 10, 3},
  {-47, -19, 117, 18, 19, -94, -55, 20, 18, 66, -59, 7, -5, -4, -9, -104, -6, 127, -22, 54, -44, 66, -33, -26},
  {-27, 30, 12, 36, -102, -20, 38, 127, -13, 18, -41, 35, 13, 2, -25, -68, -35, -19, 63, 48, 8, -63, 85, -51},
  {34, -7, -24, -60, -35, 34, 38, 52, 36, -23, -36, 65, -46, -31, 21, 14, 33, -7, -7, 42, -25, 25, -127, -13},
  {-34, -9, -16, -53, 56, 27, 42, -39, -98, -59, 56, 28, -127, -7, 5, 9, 120, 19, -76, -15, 98, -44, -26, -2},
  {-32, -41, 19, 108, 10, -52, 31, 12, -5, -11, 58, -40, 14, 43, -56, -33, -9, -55, 8, -43, 24, 34, 0, -127},
  {32, 32, 41, -46, -14, -27, 19, 50, -14, 4, -69, 78, -9, -54, -3, 8, 46, 84, 30, 127, -18, 34, -40, 15},
  {-59, 59, 110, -32, 53, -33, -18, -127, -50, 30, -55, 18, 29, -36, 35, 27, -41, 16, 27, -41, 44, -119, 60, -55},
  {-10, -42, -13, -113, 5, 58, 75, -47, -38, -86, 70, 8, -35, 24, 79, 87, -27, 56, -60, 0, -11, 2, -127, 66},
  {-1, 24, 16, 48, 71, -54, -8, -42, 12, 16, -15, -38, -1, 24, -14, -52, -13, -26, -21, -37, 51, 72, 67, -127},
  {-71, 71, 96, -10, 14, 35, -42, -61, -30, 62, -19, -64, 82, -29, 3, -17, -49, -19, 20, 0, 127, -109, 48, 3},
  {25, 74, -6, 16, 23, 7, 127, -30, -1, -42, 19, -35, 58, 71, -27, -29, -70, -98, 9, -59, 122, 69, -46, -84},
  {-41, 67, 127, -27, 123, -69, -33, -100, -71, 30, -42, 15, 25, -33, 19, 35, -84, 42, -10, -13, 57, -41, 95, -50},
  {48, -59, -110, 43, -20, -12, -29, 127, 63, -38, 13, 16, -12, -11, -33, -27, 13, -5, 35, 21, -20, 12, 17, -26},
  {-42, 79, -34, 45, 8, -92, 61, 103, -40, -30, 100, -38, 46, 77, -74, -121, -63, 7, -15, -61, -127, -18, 17, -21},
  {45, 1, -85, -19, 18, 67, 57, -31, 62, -40, -77, 93, -25, -80, -3, 93, 127, -65, -20, 56, 8, 32, -99, -33},
  {48, 39, -44, -127, 27, -1, 12, 48, 19, -97, -78, 84, -31, -56, -27, 68, 57, -44, -3, 58, -34, 95, -75, -17},
  {-78, -78, 102, -51, 68, -26, -33, 71, -6, 42, -5, 53, 12, -96, 24, -50, 13, 117, 72, 112, -127, -19, -108, 7},
  {3, 33, 9, 52, -61, 29, -39, 3, 77, 35, -22, -28, 7, -35, -28, -68, -13, 15, 12, 12, -127, -92, 93, 70},
  {-12, -55, 42, -49, 22, -10, -23, 34, 10, 20, 38, 3, 10, -40, -14, 19, 57, 43, 18, 64, -37, 28, -127, 20},
  {-72, -18, 36, 3, 6, 20, 59, -9, -35, 51, 18, 23, 16, -5, -11, 5, 5, 53, -17, -9, 44, -127, 26, 19},
  {15, -26, -53, -110, 40, -119, -14, 79, -49, -28, -48, 107, 29, 37, -31, 64, 3, -47, -88, 127, 111, 10, -110, -47},
  {106, -19, -14, -115, 6, 5, 18, 39, 37, -87, -103, 123, -11, -15, 9, 24, 80, 15, 17, 126, -37, 97, -127, -52},
  {26, 65, -55, 14, 24, -14, 11, 5, -8, -10, 26, -38, -30, -13, -60, -53, -6, -11, 29, -12, 17, 72, 50, -127},
};

static const float kLayer0InProjScale[96] = {0.0013985479f, 0.000399690383f, 0.00240948331f, 0.00114822632f, 0.00199938635f, 0.000891777279f, 0.00182150269f, 0.00207392406f, 0.00264399801f, 0.000980594195f, 0.00275027379f, 0.00251491508f, 0.00117715215f, 0.00157620991f, 0.000818714849f, 0.00161475281f, 0.00072073238f, 0.00234482787f, 0.00150167791f, 0.00339863356f, 0.000677377917f, 0.00114522339f, 0.00112450775f, 0.00126681803f, 0.00109923293f, 0.00238356716f, 0.00181936729f, 0.00228278828f, 0.00311755552f, 0.000858076673f, 0.00116430246f, 0.00142247416f, 0.00223425147f, 0.00143086817f, 0.00319350767f, 0.00148819678f, 0.00186611037f, 0.00276412629f, 0.000460070092f, 0.000890466385f, 0.00172970234f, 0.0014493654f, 0.0025296933f, 0.00131464784f, 0.00161777611f, 0.00273059285f, 0.000925796223f, 0.0011380784f, 0.00123732316f, 0.000777564535f, 0.00286966423f, 0.00134684821f, 0.00099950633f, 0.00047301437f, 0.00100077596f, 0.00161096081f, 0.00248424639f, 0.00064253551f, 0.00348251779f, 0.00239794399f, 0.000625190907f, 0.00128917268f, 0.000983110513f, 0.00136719295f, 0.000702112913f, 0.00235746335f, 0.000610858086f, 0.00237591099f, 0.000461801916f, 0.00130963838f, 0.000889398856f, 0.000579865824f, 0.000743794371f, 0.0024358721f, 0.00202670763f, 0.0022658261f, 0.00268028793f, 0.000628766255f, 0.0015998258f, 0.00164574315f, 0.00134017668f, 0.00128895091f, 0.00229731272f, 0.000856731262f, 0.00184472639f, 0.00312777213f, 0.000308159826f, 0.000749434519f, 0.00186844333f, 0.0012527894f, 0.00251129479f, 0.00145998772f, 0.00207137875f, 0.00104801438f, 0.00110852171f, 0.0010229164f};

static const float kLayer0Conv1dWeight[48][4] = {
  {0.00682901265f, 0.155276164f, -0.0259378534f, -0.113595739f},
  {0.0477176681f, 0.0399133116f, -0.0683454275f, -0.092971094f},
  {-0.298371881f, 0.303278625f, -0.140875384f, 0.0110185314f},
  {-0.086998336f, -0.0402524173f, -0.110783674f, -0.0984798372f},
  {-0.163455203f, -0.0459372401f, 0.0305483844f, 0.0511416644f},
  {-0.0678643137f, -0.0452161431f, 0.0189581942f, 0.00505319145f},
  {0.199332327f, 0.076237835f, 0.0337850526f, -0.0618368313f},
  {-0.244229957f, -0.0115233595f, 0.141432434f, 0.0165870003f},
  {0.192480594f, 0.325275272f, 0.108521797f, -0.00964893308f},
  {0.0831754729f, -0.0754016191f, -0.156799421f, -0.0682789758f},
  {0.145727232f, -0.374207675f, 0.132595211f, 0.0560363606f},
  {0.184587926f, 0.336539268f, -0.165163398f, -0.246319786f},
  {-0.0839208513f, -0.00862327497f, -0.0309390146f, -0.0153636057f},
  {0.173689663f, 0.00843697507f, 0.0732413828f, -0.0238618851f},
  {0.0502991825f, 0.00348525634f, -0.105896458f, -0.0901378542f},
  {-0.0899569094f, -0.0508582219f, 0.10807959f, -0.167586267f},
  {-0.00517913839f, -0.00512742018f, -0.0344709605f, -0.123689778f},
  {0.157538176f, -0.253481984f, 0.229154333f, -0.0954631194f},
  {0.017698884f, -0.0864603817f, -0.0130020697f, 0.156517208f},
  {0.319713801f, 0.0118378941f, -0.0676725283f, -0.181732476f},
  {0.0511335768f, 0.0458528176f, -0.0180408917f, -0.0419999175f},
  {-0.0772146583f, 0.0234972239f, 0.231886595f, 0.0574529357f},
  {0.0834980309f, 0.0448287763f, 0.00493358774f, 0.0281724893f},
  {-0.12081743f, -0.0573837645f, 0.0260337107f, 0.019028252f},
  {-0.0480520837f, 0.0614166372f, 0.0203579571f, -0.0736169815f},
  {0.230737329f, 0.0098642176f, -0.377510935f, 0.146436244f},
  {-0.13186188f, 0.159843281f, -0.191287369f, 0.202968299f},
  {-0.158772752f, 0.0276324172f, 0.192216516f, -0.0607980676f},
  {-0.417919695f, 0.30979535f, -0.13728793f, 0.0534466803f},
  {0.0261014644f, 0.0313506089f, -0.0013805388f, 0.140980825f},
  {-0.0927633345f, -0.00961102918f, -0.128884315f, -0.00019847152f},
  {0.0205519628f, 0.114114136f, 0.224792138f, 0.184793934f},
  {0.111455724f, 0.0945612416f, 0.116926625f, -0.210702449f},
  {0.113009162f, 0.118055187f, 0.135038286f, 0.0338621996f},
  {0.202724755f, -0.228839025f, -0.146502331f, 0.222196028f},
  {-0.163221806f, 0.134710863f, 0.0823842883f, -0.117823683f},
  {0.014934795f, -0.359754682f, -0.197421074f, -0.0378477611f},
  {0.371872425f, -0.237681314f, 0.217532009f, -0.0469652675f},
  {0.0115008345f, 0.00968965236f, -0.0111046806f, 0.0320921764f},
  {0.0706876516f, 0.0537583902f, -0.105931818f, 0.0108214309f},
  {-0.0950094685f, -0.128086507f, 0.163991839f, 0.0608118512f},
  {-0.0257187895f, -0.0122081153f, -0.270924956f, 0.0730172247f},
  {0.217895821f, -0.280991137f, 0.0650982931f, 0.0730682984f},
  {0.0156782828f, 0.215232939f, -0.153977096f, 0.047272291f},
  {0.0662469342f, -0.00956099667f, 0.154982939f, -0.140466213f},
  {-0.201175198f, 0.223843157f, 0.0365137681f, -0.123914614f},
  {-0.0948625058f, 0.170841947f, 0.208010748f, -0.0947831869f},
  {-0.0679109395f, -0.047456108f, -0.197565526f, 0.0933393613f},
};

static const float kLayer0Conv1dBias[48] = {-0.00624663057f, 0.00693908939f, 0.0244577155f, 0.0191323366f, -0.0480332077f, 0.0154163409f, -0.0521508679f, -0.00549485628f, 0.0924481004f, -0.00524855824f, 0.0103358459f, 0.0190047119f, 9.79015931e-06f, -0.0480432883f, 0.0068634036f, 0.022746766f, -0.018077638f, 0.0213145241f, -0.0229668282f, -0.00280400645f, 6.4276287e-06f, 0.0305431299f, -0.0279265512f, 0.0246930756f, 0.0102827838f, 0.0125373583f, 0.00954727083f, 0.0336509459f, 0.0105309356f, -0.00510533853f, -0.0426983424f, -0.0419230387f, -0.0135859651f, -0.0471140966f, 0.00253803632f, -0.00548371766f, 0.00858792849f, -0.0468912795f, -0.00358199794f, -0.00605169358f, -0.072496213f, -0.0262965728f, 0.0342426449f, -0.0136331683f, -0.00834164489f, -0.0122676482f, 0.0342797711f, -0.0278479382f};

static const int8_t kLayer0XProjQ[34][48] = {
  {-39, -7, 87, -47, -39, 27, -18, 8, 25, -10, 127, 25, -16, 6, -13, -15, 14, 60, 23, -57, 0, 12, 4, 0, -6, 44, 83, 7, 40, 26, -3, 17, -24, -13, 95, -23, 51, -78, -22, 13, -18, -17, 90, 6, 51, -98, 45, -14},
  {9, -7, -101, 54, 85, -39, 86, -13, -86, -23, -120, -36, 9, 28, 74, 18, 46, -81, -37, 37, -43, -32, 17, -33, -45, -73, -59, -6, -72, -11, 46, -70, 33, 32, -120, 103, -38, 64, 10, -5, 14, 10, -127, 62, -30, 64, -77, 46},
  {0, 2, -25, -3, 43, -17, 31, 76, -4, -1, -2, -28, 5, 12, 0, -16, 13, -10, -1, -127, -11, -1, 9, -29, 12, -79, 8, -49, -8, 16, 6, 15, -74, 16, 17, 21, -18, -65, 5, 5, 24, 3, 9, 41, -9, -69, -9, 5},
  {114, 6, -21, -12, 36, -30, 16, -43, 1, -5, 1, 125, -18, 24, -59, 9, -10, -36, -3, -93, 17, 40, 22, -37, 55, 34, -99, -47, -26, -18, -13, 14, -8, 21, -127, -15, 34, 35, -13, -9, 11, 29, -64, -106, -81, 61, -59, 40},
  {23, -8, 101, -61, 61, -21, 113, 123, 4, -4, 95, 15, -16, 106, -4, -43, 39, 97, 29, 56, 10, 32, 60, -35, -43, -22, 76, -11, 121, 61, -37, 16, -37, 94, 107, 64, -43, -127, 0, -6, 17, 9, 114, -53, 17, -61, 4, 44},
  {-11, 19, -40, 13, -5, 16, -34, -31, -1, -27, -57, -3, -1, -68, -4, 33, -15, -20, -28, -127, -13, 28, -26, 2, -26, 23, -15, 65, -55, -13, 7, 13, -17, -37, -52, 16, -5, 55, -12, -23, -34, -9, -43, 3, -16, -3, 22, -1},
  {-85, -24, 61, 48, 30, -22, -25, -54, 58, 34, -97, -126, 42, -48, 73, 67, 16, 127, -28, 41, 3, -60, -40, 31, 17, 74, -28, -94, 60, -4, 38, -31, -43, -65, 121, 26, -51, -69, 19, 95, 20, -76, 35, -3, 71, -120, 64, -66},
  {-51, -4, 22, -5, 41, -46, 57, 127, -62, 8, -18, -36, -7, 25, 43, -1, 31, 18, -68, 80, -14, -47, 11, -50, 15, 54, 2, -41, 60, 9, 31, -27, 10, 5, 69, 15, -10, -18, 11, 51, 85, -36, 47, -24, -21, -94, -43, -3},
  {30, 2, 6, 22, 47, -11, 26, 127, -2, -14, 40, -55, 26, 16, 26, 28, 12, -10, -42, -15, 9, -20, -12, -4, 5, -47, 3, 13, 38, 5, -2, -11, -73, -19, 31, 16, 30, -70, 6, -21, 32, 17, 31, 20, 25, -26, 9, -28},
  {-62, -7, 89, 38, 54, -7, 22, 127, -72, -44, -10, -48, 22, -27, 95, 15, 68, 52, -63, 46, 10, -59, 11, -34, -34, 65, -19, 15, 53, 31, 96, -85, -27, -12, 43, 3, 73, -49, 2, 21, 3, -69, -8, -54, -2, -57, -63, -11},
  {-4, 7, -127, 17, 20, -9, 29, 23, -45, -4, -40, 21, 22, 22, -2, 7, 2, -107, 51, -76, -21, 13, 9, -25, 3, -43, 116, -12, -123, -4, 21, -17, -13, 26, -39, -4, -23, 15, -9, 11, 37, 8, -96, 64, -26, 11, -9, 25},
  {127, 32, -93, -87, -9, 14, 21, -4, -63, 10, 63, 98, 10, 58, -105, -22, -19, -119, 35, -74, 5, 56, 4, 17, 93, -83, 88, -1, -23, -8, -26, 97, 25, 21, -102, 24, -33, -91, -8, 8, 69, 82, -23, 67, -7, 13, -29, 13},
  {26, 21, 113, -35, 0, -8, -12, -23, 19, -42, 29, 8, -19, 2, 4, -65, 35, 13, -52, 104, 6, -2, 15, 11, -27, -65, 2, -20, 127, 57, 18, 7, 81, 5, 60, 53, 36, -65, 10, 31, -9, -10, 114, -23, 26, -69, -13, -71},
  {-68, -81, 87, 74, 91, -61, 77, 6, -3, 73, -97, -110, 115, 21, 93, 110, -8, 59, -44, 117, -56, -81, -23, -74, -81, 116, -6, -70, 127, -28, 107, -106, -33, -83, 108, 55, -100, -60, -51, 79, 75, -94, -34, 15, 71, 41, -15, -50},
  {5, -27, 59, -3, 35, 15, 58, 51, -68, 39, -33, 29, 63, 26, -16, 69, -20, 38, 32, -78, -29, -17, -24, 3, 31, 86, -1, 50, 31, -45, 33, 33, -127, 13, -36, -45, -35, -41, -9, -26, 0, -60, -26, -45, -7, 15, -33, 90},
  {-30, -27, 77, 49, 12, 15, 26, 9, -38, 72, -21, -10, 85, -12, -4, 80, -35, 69, 19, -52, -1, -65, -42, 11, 48, 127, -83, 60, 48, -74, 31, -2, -97, -54, -52, -47, -21, -21, -3, -34, -36, -98, -80, -75, -17, 16, -17, 62},
  {1, -30, 73, 41, 14, 34, 44, 30, -41, 90, -26, 16, 86, 12, -37, 108, -53, 64, 58, -88, 7, -32, -57, 15, 48, 124, -68, 63, 2, -102, 31, 33, -127, -21, -81, -103, -71, 24, -21, -32, -15, -84, -99, -95, -38, 81, -10, 114},
  {44, 5, 50, 6, 4, 26, 27, -5, -42, 23, -16, 24, 21, 44, -28, 68, -37, 49, 46, -72, 11, -21, -40, 33, 30, 82, -6, 21, 21, -54, 17, 53, -95, 18, -73, -75, -35, 16, -19, 3, 10, -45, -46, -76, -41, 82, -32, 127},
  {-16, -4, -19, 5, 49, -12, 20, 40, -2, 31, -10, -84, 12, 14, -8, -20, -15, -51, 3, -121, -19, 5, 11, -38, 28, -127, 38, -66, 9, -8, 18, 8, -79, 20, 84, 39, -30, -55, -5, 1, 37, -3, 19, 37, 5, -90, 2, 5},
  {-38, -11, -2, -17, -23, -31, -40, -11, 5, 11, 32, -127, -4, -29, 52, 32, -1, 25, -1, -45, 9, -62, 0, -19, 46, 89, -36, -46, -21, -21, 26, -37, 13, -19, 65, -22, 36, 44, -12, 36, -25, -10, -11, -52, 19, -53, -6, -4},
  {26, -14, 83, -44, 55, -30, 84, 118, 0, 24, 109, 17, -9, 70, -18, -21, -9, 78, 29, 10, 10, 7, 36, -6, -20, -8, 78, -2, 114, 6, -29, 22, -61, 61, 92, 46, -58, -127, 1, 2, 18, -7, 113, -25, 18, -69, -2, 33},
  {-83, 27, -49, 69, 14, 12, -46, -94, -4, -29, -116, -90, 22, -77, -9, 47, 5, -33, -48, -127, -28, 50, -60, 4, -74, 21, -64, 63, -110, -32, 64, -6, 8, -48, -30, 57, -1, 65, -1, -21, -40, -59, -85, 34, -29, -34, 24, 8},
  {72, 23, -53, -48, -12, 22, 39, 34, -53, -39, 74, 125, -1, 32, -34, -52, -33, -112, 37, -30, -20, 66, 44, -6, -9, -127, 30, 73, -70, 14, -45, 37, 34, 64, -69, -56, 45, 52, -17, -67, -16, 54, -25, 44, -51, 54, -46, 63},
  {40, 1, -20, -2, -36, 18, -18, -127, 43, 10, -36, 93, -5, 15, -45, -14, -39, 16, 66, 15, -3, 24, -8, 33, 16, -55, -24, 16, -43, 4, -51, 45, -9, -5, -33, 39, -32, 1, 25, -37, -41, 35, -24, -4, 31, 98, 62, -11},
  {-48, 11, 9, -18, -53, -1, -38, -127, -3, 8, -32, 42, -20, -17, -22, -26, -2, -5, 44, -1, -16, 28, 13, 1, -5, 38, 9, -2, -41, 1, -18, 13, 70, 17, -13, -4, -22, 67, -4, 13, -38, 0, -34, -11, -18, 24, 15, 9},
  {79, 7, -92, -36, -44, 15, -9, -127, 81, 51, 11, 43, -17, 30, -109, -15, -81, -51, 76, -46, 0, 61, -16, 31, 48, -56, 9, -2, -51, -35, -106, 103, 33, 7, -54, -7, -72, 45, 5, -21, 1, 68, 3, 46, -8, 64, 47, 6},
  {-81, -16, -99, 44, 44, -33, 30, 16, -12, 8, -63, -80, 18, 5, 5, 5, 3, -71, 42, -89, -47, -19, 16, -39, -17, -15, 71, -40, -127, -16, 29, -33, -3, 10, -15, -13, -38, 53, -8, 5, 28, 15, -96, 67, -16, 43, 21, 17},
  {-122, -15, 80, 107, -5, -46, 6, -44, 9, 9, -98, -56, 6, -36, 111, 65, 18, 127, 21, 55, -34, -53, -5, -42, -48, 127, -94, -7, 29, -3, 22, -94, -83, 11, 55, -48, 52, 86, -6, 11, -35, -90, -10, -70, 9, 31, 50, 39},
  {-29, 2, 127, -8, -13, -3, -43, -44, 79, -31, 49, 5, -38, -33, 11, -54, 18, 68, -76, 112, 21, 7, -1, 13, -24, -86, -47, -37, 119, 47, -55, 5, 113, -4, 82, 75, 32, -16, 15, 14, -27, 25, 99, -26, 24, -50, 60, -47},
  {60, 53, -79, -52, -52, 62, -67, -13, -8, -66, 87, 104, -65, 2, -68, -83, 9, -40, 51, -127, 55, 68, 8, 62, 87, -93, 10, 76, -118, 24, -75, 85, -6, 65, -94, -67, 69, 79, 35, -46, -75, 80, 14, -12, -65, -18, 23, 77},
  {-34, -25, 23, 42, 7, 33, 26, 9, -67, 76, 25, 27, 81, 12, -23, 106, -50, 58, 63, -72, -9, -18, -36, 3, 70, 127, -81, 113, -7, -109, 22, 35, -124, -30, -88, -108, -28, 8, -12, -63, -52, -97, -96, -71, -41, 35, 1, 122},
  {25, 5, 14, -26, 9, 25, 60, 4, -57, 10, 26, 57, 40, 38, -48, 56, -24, 19, 42, -101, -26, 30, -14, 2, 69, 63, -11, 76, -1, -38, 13, 68, -103, 32, -65, -60, -44, -16, -7, -41, -5, -21, -26, -59, -23, 54, -23, 127},
  {22, -19, 34, -1, 26, 15, 49, 47, -72, 36, -31, 35, 63, 28, -28, 67, -23, 28, 39, -106, -19, -27, -36, 2, 41, 92, -7, 52, -4, -51, 51, 45, -127, 12, -74, -70, -33, -11, -15, -12, 5, -69, -63, -75, -36, 63, -41, 120},
  {29, -13, 83, 37, -12, 45, 21, -24, -27, 54, 17, 3, 35, 37, -25, 127, -48, 96, 50, -47, 23, -48, -62, 45, 14, 112, -45, 30, 13, -95, 15, 29, -101, -31, -90, -119, -17, 14, -21, 4, -8, -76, -67, -111, -51, 85, -23, 122},
};

static const float kLayer0XProjScale[34] = {0.00234828284f, 0.00232489454f, 0.00384977367f, 0.00120693049f, 0.00200805929f, 0.00214382098f, 0.0016638384f, 0.00223570387f, 0.00363675482f, 0.00302280323f, 0.00424776785f, 0.00349041959f, 0.00412982469f, 0.00227387715f, 0.00378741813f, 0.00325465365f, 0.00296119857f, 0.00368834846f, 0.00307196449f, 0.00138315593f, 0.0022551741f, 0.00129907206f, 0.00181963656f, 0.00237973803f, 0.00420533121f, 0.00291314325f, 0.00401663687f, 0.00336217927f, 0.00375929312f, 0.00260271668f, 0.0027793264f, 0.00363397342f, 0.00370668154f, 0.00288233324f};

static const int8_t kLayer0DtProjWeightQ[48][2] = {
  {-27, -127},
  {-91, 127},
  {-127, 29},
  {-127, -63},
  {127, -96},
  {-127, -2},
  {104, -127},
  {-75, 127},
  {-11, -127},
  {114, -127},
  {-122, 127},
  {127, -48},
  {127, -77},
  {53, -127},
  {122, -127},
  {-80, 127},
  {49, 127},
  {-127, 90},
  {61, -127},
  {-127, 102},
  {-96, 127},
  {59, -127},
  {-119, 127},
  {-8, 127},
  {-122, 127},
  {-127, 115},
  {-127, 75},
  {127, -79},
  {11, -127},
  {-8, -127},
  {127, -103},
  {-112, 127},
  {-127, 106},
  {-89, 127},
  {106, -127},
  {73, -127},
  {-105, 127},
  {76, -127},
  {-58, 127},
  {-71, 127},
  {127, -85},
  {-127, 88},
  {-127, 88},
  {48, -127},
  {115, -127},
  {127, -116},
  {-127, 72},
  {-127, -79},
};

static const float kLayer0DtProjWeightScale[48] = {0.000209836726f, 0.000798525289f, 0.00101323181f, 0.000263986236f, 0.000355427037f, 0.000139603348f, 0.00158907939f, 0.00189482002f, 0.000811084174f, 0.00148935593f, 0.00257668598f, 0.000764077762f, 8.75418336e-05f, 0.000793935324f, 0.00109043403f, 0.00106097583f, 0.000244283059f, 0.000116531999f, 0.00153951196f, 0.00185537303f, 0.000422387006f, 0.000438257062f, 0.000473715831f, 0.000409987348f, 0.00035570201f, 0.000172173983f, 0.00136139372f, 0.00155327423f, 0.00130698853f, 7.42517805e-05f, 0.000778903486f, 0.00159716024f, 0.00168040919f, 0.000729261315f, 0.00141029502f, 0.000459521456f, 0.00356648234f, 0.00228553778f, 0.000710182183f, 0.000642317173f, 0.000395065959f, 0.00178377714f, 0.00169388717f, 0.000800804177f, 0.00121487572f, 0.00215249904f, 0.00141512917f, 0.00012776177f};

static const float kLayer0DtProjBias[48] = {0.0485123061f, 0.119309373f, -0.0891188383f, 0.0261767488f, 0.111727461f, 0.0621701628f, 0.262062669f, 0.0882043019f, 0.216022894f, 0.169308528f, 0.206951961f, 0.0295375716f, -0.0253816955f, 0.176122323f, -0.0772790164f, 0.0087324772f, -0.00170552742f, 0.0846602693f, 0.0718327239f, -0.211320892f, -0.0043876362f, 0.0638277754f, 0.065096207f, 0.0153605891f, 0.0236411281f, -0.0577012748f, -0.10481412f, -0.183561981f, 0.286860704f, 0.000204068609f, -0.0548745953f, 0.322241724f, -0.0939518139f, 0.0434561037f, 0.446712434f, 0.0712496787f, -0.213916391f, -0.0743969753f, 0.0700949356f, -0.0910012349f, -0.245246276f, -0.101272389f, 0.124611303f, -0.133773893f, 0.306447208f, 0.0438416377f, -0.162333876f, 0.0441363603f};

static const int8_t kLayer0OutProjQ[24][48] = {
  {-8, 6, -88, -3, 39, -21, 55, -32, -8, 11, 45, 127, 9, 39, -32, -28, 33, 21, 32, 29, 6, 16, 18, -27, -5, -38, 54, 10, -66, 10, -37, 47, 42, 24, -6, 23, -82, -88, 5, 1, -9, 37, -2, -16, -8, -14, 27, 27},
  {-31, 9, 15, -7, 0, 16, 9, -70, -78, -17, -102, -74, 13, 16, 24, -9, 10, 42, -26, -49, 23, -14, 8, -6, 17, -10, -35, -2, -127, 22, 0, -68, 17, 6, -67, -11, 72, -2, 7, -17, -18, -10, -9, -23, 1, 19, 23, 19},
  {-20, -14, -22, 28, -52, 43, -61, -39, 31, 14, -35, -41, 27, -72, -28, 58, -42, 65, -9, -24, 13, -24, -36, 32, -13, -91, 76, -38, 46, -32, 24, 14, -22, -55, -127, -28, -4, 49, -14, -6, -3, 10, -30, -5, -41, -31, -6, -44},
  {24, 9, -16, -14, 10, 12, -8, 41, -47, 6, -24, 38, -19, -12, -5, 2, 7, 49, -1, 14, -6, -14, 6, -8, 2, -83, -57, -22, 23, 16, 43, -7, -11, -9, 62, 5, -52, 127, 8, 13, 57, 6, 71, 27, 17, 17, -53, 10},
  {14, -1, -44, -11, -8, -10, 30, -7, 73, -21, 3, -82, -5, 11, 46, -12, -17, -3, 14, -127, -2, -8, 0, -11, 15, 14, 86, -4, 37, 7, -11, -6, -1, 22, -20, 13, 27, -49, -13, -16, -20, -15, -7, -10, -6, 2, -14, 20},
  {23, 3, -51, -27, 15, -15, 0, 45, -80, -7, 26, 4, -26, 0, 34, -23, 32, 27, -9, 74, -10, -5, 6, -27, 7, 54, -76, 26, -127, 12, 23, -37, 25, -5, 117, -9, 28, 39, 16, 8, -1, 5, 54, 57, -47, -31, -29, 3},
  {-21, -21, -44, 89, 48, 10, -5, 74, 73, 61, 100, 98, 49, -50, -61, 38, -7, 22, 43, 52, 15, 99, -19, 7, -23, 15, -28, 127, 66, -18, -90, 26, -45, -48, 39, -9, -77, -33, -25, -33, -107, 61, -21, 32, -42, -14, 110, -23},
  {-19, -9, 6, 6, -25, 34, -25, 3, -15, 9, 53, -17, 8, -30, 29, 17, -19, -5, -11, -7, 7, 7, -14, 18, -21, -17, 61, 83, 127, -10, -8, 19, -82, -22, 36, -26, 20, 25, -10, -28, -62, -11, 38, -10, 10, 14, 3, -11},
  {13, -11, 49, -16, -15, 10, 13, -46, -30, -17, -38, -84, -20, 36, 5, -32, 11, -127, -6, 9, -17, -21, 12, -6, -24, 125, -8, 6, 103, 3, 40, 52, 20, 19, 99, -28, -94, 45, 2, 1, 20, -63, 0, -11, -34, -9, -16, 8},
  {1, 16, 127, -18, 1, -20, -1, 14, 57, -33, -73, -21, -16, 24, 23, -24, 0, -105, 1, -22, -11, -15, 10, -20, 4, 62, 6, -29, 85, 16, 7, -19, 1, 16, -11, 11, 29, -19, 12, 6, 14, -46, -37, -44, 17, 22, -10, 15},
  {22, 14, -10, 3, 6, 7, 13, 50, -64, -1, -3, 119, 2, 4, -2, 6, 1, -3, -16, 28, -8, -24, -3, -9, -12, -56, -13, -38, 79, 7, 25, 14, -25, 1, 21, 8, -4, -127, 7, 10, 52, -7, -59, -4, 8, -22, -34, 5},
  {-49, -2, 43, 8, -43, 25, -46, 36, 127, -2, 62, -82, 13, -45, 21, 32, -19, -61, 25, 79, 18, 14, -8, 14, 10, 22, 42, 49, 112, -2, -36, 10, -115, -28, -51, -27, -20, 76, 2, -16, -49, -1, -73, -5, 31, -53, 56, -2},
  {0, 1, 89, 10, -9, 13, -3, -3, 21, -2, -127, 20, 3, 2, -18, 4, 2, -39, -13, 41, 5, 5, 4, 9, -12, -1, 5, 9, 107, -1, -5, 10, -38, 4, -8, -3, 2, -14, 3, 4, 19, -7, -46, -23, 12, -2, 17, 1},
  {14, 4, -124, 5, 2, 6, -16, -65, 95, 10, 74, 89, 18, -36, -14, 15, 23, 43, -5, 127, -1, -10, -12, 6, -2, -38, -9, -31, 6, 1, -5, 60, 44, -18, -104, -9, -47, -19, 0, 21, 68, 50, 12, 37, -1, 27, -3, -15},
  {8, 14, 73, -47, 9, -23, 23, 6, -43, -39, 65, -32, -17, 43, -16, -33, 11, 99, 42, -6, -5, -48, 21, -23, 20, -30, -16, -35, 87, 31, 29, 56, 45, 42, -127, 24, -31, 44, 6, 25, 6, -50, -57, -53, 11, -11, -19, 27},
  {-33, -1, 47, 22, 7, -2, 1, 18, 74, 6, 124, 0, 17, 0, -9, 21, -14, -34, 31, -41, 9, 29, -13, 2, 4, 35, 42, 32, -17, -14, -32, -4, -7, -6, -33, 21, 13, -127, -13, -20, -63, -10, -58, -18, 37, -50, 54, -14},
  {17, 9, 42, -24, 59, -17, 52, -4, -127, -18, 16, 44, -8, 46, 2, -47, 13, -104, 50, 58, -2, -3, 40, -44, 19, 62, -6, 36, -45, 23, -5, 26, 44, 27, 54, 6, -15, 77, 10, 13, -18, -32, 1, -32, -23, 56, -8, 24},
  {-45, -1, -51, 76, 16, 26, -61, 101, -5, 58, -50, -65, 13, -105, -17, 75, -19, 83, -27, -109, 7, 63, -45, 31, 40, -127, -30, 10, 37, -24, -62, -72, -114, -92, -61, -7, 60, 73, 7, 1, -34, 87, -37, 67, 28, -23, 33, -46},
  {1, 10, 101, -38, -2, 4, -5, -6, -126, -11, -57, -127, -24, 10, 40, -20, 6, 28, -39, 20, 0, -50, 2, 2, -4, 22, -54, -36, -30, 16, 47, -19, -34, 19, -29, 12, -12, 82, 8, 18, 60, -44, -30, 13, -5, -41, -50, 8},
  {0, -11, -127, 4, -10, -5, 28, -40, 106, -42, -106, 12, 8, 11, -6, 5, 8, 10, 4, -117, -22, 4, 2, -20, 9, -78, 75, 14, 98, 0, -35, 92, 22, 8, 10, -11, 2, 45, -6, -4, -41, 62, -19, -55, -13, 45, -27, 25},
  {26, -19, -32, 42, 21, -8, 2, 44, -28, -4, -28, 19, 25, -19, -6, 12, 3, 91, -7, -5, 11, 41, -11, 10, 10, 16, -37, 44, -81, -7, -36, -38, -14, -15, 95, -3, 63, 17, -2, -18, -9, 37, 127, 7, -6, 64, 6, -21},
  {39, 14, -77, -40, -42, -3, -7, -35, -104, -20, 51, -108, -16, 3, 44, -28, 1, 110, -23, -73, 3, -25, 7, 12, -17, -123, 51, 1, -127, 19, 37, -46, -11, 13, -39, -5, 34, -28, 7, -7, 23, -23, 99, 15, 59, 67, -54, 17},
  {-12, -2, 10, 38, -7, 20, -26, -42, 41, 7, -28, -14, 7, -45, -3, 22, -6, 34, -19, -51, 13, 18, -5, 8, 0, -40, -7, -46, -127, -15, -31, -71, 8, -25, -15, -18, 74, 12, 9, -2, 7, 30, 23, 12, 12, -29, 45, -12},
  {23, 32, 27, -27, 41, -28, 34, 19, 35, -19, -44, 73, -15, 29, 36, -20, 17, -87, -2, 9, -21, -48, 27, -30, -1, 104, -43, -50, 11, 39, 58, -14, 46, 30, 75, 39, 26, -127, 20, 28, 52, -51, -104, 0, -5, -18, -55, 28},
};

static const float kLayer0OutProjScale[24] = {0.00249018613f, 0.00143610046f, 0.0017690463f, 0.0020131229f, 0.00211583776f, 0.00226477813f, 0.00191937189f, 0.0021227852f, 0.00181691302f, 0.00314708217f, 0.00194838759f, 0.00163499953f, 0.00248000445f, 0.00219941395f, 0.00183931761f, 0.00330862892f, 0.00183360698f, 0.00143318484f, 0.00248548645f, 0.00149799092f, 0.00185969018f, 0.0021665839f, 0.00193380238f, 0.00195124932f};

static const float kLayer1PreNormWeight[24] = {0.842942655f, 0.982561469f, 0.855081439f, 1.07578933f, 1.08554828f, 0.782778203f, 0.843893886f, 0.823608458f, 1.08554173f, 0.882688522f, 0.82230556f, 0.866094708f, 0.844827175f, 1.04711378f, 0.887761354f, 0.924379349f, 0.997360349f, 0.885419428f, 0.994004548f, 0.904324591f, 0.93903923f, 0.966713428f, 1.12454379f, 0.96940589f};

static const float kLayer1PreNormBias[24] = {-0.0336008742f, -0.0688052699f, -0.00549157849f, 0.136485815f, 0.0626448393f, 0.0259736553f, 0.0711852685f, 0.139549255f, 0.135899201f, 0.158479244f, 0.0531535372f, -0.0329899564f, 0.182940751f, -0.00444796402f, -0.0747317895f, 0.0828667656f, -0.025866881f, 0.0245817956f, -0.0831359625f, 0.0180884562f, 0.112651251f, -0.0790043399f, 0.117009409f, 0.0961842686f};

static const float kLayer1PostNormWeight[24] = {0.981400549f, 0.834416211f, 0.765591681f, 0.903033793f, 0.79150784f, 0.760975242f, 0.949464858f, 0.799168825f, 0.775393784f, 0.822837293f, 0.718127966f, 0.925519049f, 0.724169552f, 0.749934137f, 0.646959126f, 0.849164903f, 0.812606573f, 0.850007713f, 0.753170192f, 0.850959897f, 0.79092437f, 0.877441227f, 0.823316634f, 0.833339572f};

static const float kLayer1PostNormBias[24] = {0.0165983159f, 0.0100913448f, 0.0627279133f, -0.0466025211f, 0.0287076253f, -0.00836048275f, -0.0220372435f, -0.0496053733f, -0.0464189835f, -0.0199904907f, 0.00758515438f, 0.0390314832f, -0.0065683159f, 0.0657775179f, 0.00628472958f, -0.0201052669f, -0.0550061725f, 0.0168319903f, 0.00608172081f, 0.0254792422f, -0.022184696f, 0.0552306697f, -0.009932274f, 0.0196751449f};

static const float kLayer1ALog[48][16] = {
  {0.00927728973f, 0.413287759f, 0.886452377f, 0.935590565f, 1.29462862f, 1.30761945f, 1.29346383f, 1.92529035f, 1.90586495f, 1.90281832f, 1.80560696f, 2.21208787f, 2.20022464f, 2.20356083f, 2.23620081f, 2.48197842f},
  {0.092941761f, 0.514601827f, 0.692607701f, 1.04239941f, 1.37069523f, 1.94473302f, 1.91859603f, 1.71265483f, 1.70879173f, 1.64900172f, 1.9924053f, 1.81335115f, 2.11774659f, 2.24852109f, 2.52378106f, 2.35757232f},
  {-0.0235347003f, 0.481105864f, 0.95500958f, 1.04800582f, 1.45327008f, 1.1230818f, 1.46023047f, 1.9942838f, 2.16925764f, 1.80120695f, 1.83503449f, 1.81664956f, 1.81563437f, 2.08588219f, 2.13177752f, 2.49578309f},
  {0.191258267f, 0.734742701f, 0.747808397f, 0.976450562f, 1.13790393f, 1.21259427f, 1.11525345f, 1.88532937f, 1.86474431f, 1.91771019f, 1.89973354f, 1.89534163f, 1.94431269f, 2.29067922f, 2.21569562f, 2.66720676f},
  {0.095805034f, 0.720452011f, 1.01892269f, 0.993890405f, 1.26513398f, 1.41234171f, 1.63378215f, 1.52451122f, 1.48669362f, 1.73417854f, 2.02831984f, 1.74803782f, 2.05950904f, 2.05320621f, 2.33549094f, 2.31343627f},
  {-0.162759364f, 0.783768833f, 0.957386971f, 1.0529772f, 1.61957216f, 1.56865859f, 1.39323378f, 1.58247578f, 1.74303818f, 1.62092781f, 1.7126298f, 1.64775932f, 1.95658529f, 2.06862497f, 2.14412379f, 2.56381702f},
  {0.267704517f, 0.616929829f, 0.393561274f, 1.44296467f, 1.45110798f, 1.49073076f, 1.78951395f, 1.24606133f, 1.84414101f, 2.08227777f, 1.9790504f, 1.97502053f, 2.10696936f, 2.31547642f, 2.39127851f, 2.34660292f},
  {0.385476112f, 0.510353625f, 0.199252784f, 0.840561211f, 1.20994174f, 1.66823244f, 1.34365666f, 2.0726912f, 2.05351472f, 1.55891633f, 2.06519985f, 2.02250314f, 2.08553076f, 2.05385733f, 2.41578317f, 2.36731291f},
  {0.160581619f, 0.0433506034f, 0.840276301f, 1.23389602f, 1.58318734f, 1.31025326f, 1.58793104f, 1.70641851f, 1.71688771f, 1.95494258f, 2.09130836f, 2.07512164f, 2.15192318f, 2.21202612f, 2.46763277f, 2.42599535f},
  {0.159935132f, 0.115459949f, 0.891477883f, 1.31795311f, 1.41479933f, 1.45897257f, 1.68684804f, 1.74692452f, 1.75884414f, 2.2264564f, 1.96568573f, 2.03846049f, 2.00261998f, 1.88364697f, 2.31343532f, 2.42262769f},
  {-0.205803528f, 0.491083801f, 0.640038848f, 1.28875327f, 1.09079266f, 1.56328166f, 1.49719346f, 1.53833938f, 1.83583879f, 2.08122206f, 1.92356575f, 1.95136201f, 1.9531858f, 2.28963113f, 2.21506524f, 2.29679656f},
  {0.0205781516f, 0.787579715f, 0.805451512f, 1.16007137f, 1.00863564f, 1.51000571f, 1.56970561f, 1.63577306f, 1.91971695f, 2.05333781f, 2.02128577f, 2.27548814f, 2.33406305f, 2.42764163f, 2.0684731f, 2.15222883f},
  {0.0233978536f, 0.666756809f, 0.808054447f, 1.04121912f, 1.02882445f, 1.37481582f, 1.38952875f, 1.7222302f, 1.75018191f, 2.23115182f, 1.96664584f, 1.94169652f, 2.25864124f, 2.30407214f, 2.3817966f, 2.28455591f},
  {0.390940696f, 0.11272829f, 0.758151114f, 1.04067802f, 1.2340039f, 1.74182522f, 1.57868052f, 1.47290468f, 1.59651554f, 1.60891378f, 1.78490007f, 2.20759225f, 2.39432859f, 2.15008473f, 2.43707466f, 2.35873437f},
  {-0.204024658f, 0.557731748f, 0.817288339f, 1.1875f, 1.50600362f, 1.47220445f, 1.50026691f, 1.79345667f, 1.82435548f, 1.61383247f, 2.22307992f, 2.56026173f, 2.58489752f, 2.58158517f, 2.21150899f, 2.15187812f},
  {0.06340947f, 0.17737405f, 0.627160728f, 1.03740418f, 1.06392789f, 1.31953132f, 1.49072456f, 1.52200139f, 1.77706647f, 2.29889369f, 2.08140182f, 2.10415173f, 2.27362895f, 2.11590552f, 2.37518406f, 2.23583889f},
  {-0.198616654f, 0.443383843f, 1.04230261f, 1.3597815f, 1.37181938f, 1.50438821f, 1.62611151f, 1.66773486f, 1.58578765f, 2.02913547f, 1.94620299f, 1.97156549f, 1.98844934f, 2.05257869f, 2.43711066f, 2.47877383f},
  {-0.119200729f, 0.647145689f, 0.989202857f, 0.992389083f, 1.5007298f, 1.5235101f, 1.81065083f, 1.80772722f, 2.11310458f, 1.78931975f, 1.75858319f, 1.90807259f, 1.8582015f, 2.3015852f, 1.76414371f, 2.37331438f},
  {0.0187653229f, 0.474971116f, 0.982408881f, 1.19483328f, 1.15454054f, 1.11143422f, 1.64817548f, 1.68540144f, 1.58549106f, 1.63611317f, 1.80176103f, 1.90931404f, 2.01820445f, 2.19912171f, 2.42344308f, 2.51357079f},
  {0.0611257963f, 0.394578457f, 0.850984812f, 1.23757923f, 1.36447799f, 1.07314169f, 1.64808977f, 1.62630391f, 1.79500389f, 1.81984282f, 1.66844714f, 1.97211111f, 2.07057548f, 1.99458659f, 2.17461133f, 1.92034304f},
  {0.123370983f, 0.587977827f, 1.01568341f, 1.06655765f, 1.31252515f, 1.39946079f, 1.46753788f, 1.70299697f, 2.13585114f, 1.79237807f, 1.8876543f, 1.93265021f, 2.18019581f, 2.40495777f, 2.15490746f, 2.05442619f},
  {0.0618529394f, 0.691363037f, 1.09256005f, 1.1933974f, 1.39260435f, 1.59784842f, 1.70344102f, 1.57963002f, 1.6501168f, 1.93495405f, 1.78002536f, 1.74240422f, 1.7781322f, 2.19813776f, 2.16769409f, 2.30631042f},
  {-0.232101277f, 0.230318859f, 0.802072823f, 0.795588732f, 1.07124424f, 1.87292421f, 1.40987504f, 1.94535267f, 1.64385176f, 1.85338032f, 2.00026083f, 2.1561594f, 2.19334292f, 2.04226089f, 2.46062899f, 2.15867448f},
  {-0.0918307677f, 0.454994947f, 0.893554568f, 1.23529434f, 1.50216663f, 1.5043515f, 1.50406337f, 1.65275156f, 2.1411984f, 1.90544605f, 2.29012752f, 2.4916482f, 2.30234766f, 2.46980357f, 2.27998352f, 2.24909091f},
  {-0.144615024f, 0.602677107f, 0.911847174f, 1.04374337f, 1.33683538f, 1.28891635f, 1.63082516f, 1.96455491f, 1.91107213f, 1.931283f, 2.18971324f, 2.0923481f, 2.33594561f, 2.08615088f, 2.15484643f, 2.43328118f},
  {0.484805286f, 0.467927068f, 0.870452046f, 0.952645242f, 1.00290263f, 1.29611218f, 1.88485825f, 1.93007231f, 2.01459074f, 1.96136498f, 2.01452279f, 2.02008414f, 2.04247355f, 2.16825271f, 2.18161559f, 2.4645319f},
  {0.058101099f, 0.631383002f, 0.862322867f, 1.01766348f, 1.52010787f, 1.64908266f, 1.94096291f, 1.76232493f, 1.93462956f, 2.16202235f, 2.03370976f, 1.79091966f, 1.78692842f, 1.92270958f, 2.34171772f, 2.07128859f},
  {-0.160134569f, 0.867919564f, 0.816006005f, 0.949877501f, 1.38268423f, 1.91556752f, 1.50339258f, 1.65003693f, 2.14214468f, 2.19990706f, 1.86235082f, 1.82531726f, 1.71444631f, 1.90326154f, 2.03335524f, 2.40343499f},
  {0.0877374783f, 0.441912979f, 0.990635931f, 1.0886029f, 1.3248682f, 1.29708564f, 1.74842525f, 1.72300291f, 1.9828136f, 1.94411135f, 1.87638009f, 2.08363271f, 2.06891608f, 2.15174031f, 2.12471128f, 2.13827825f},
  {-0.0244902056f, 0.927398503f, 0.846517742f, 1.16605639f, 1.49496138f, 1.45027721f, 1.67103565f, 1.7614162f, 1.79896033f, 2.09046483f, 2.04021215f, 2.4315443f, 2.35576725f, 2.45422983f, 2.32326579f, 2.39660525f},
  {0.106807515f, 0.678184032f, 0.819746852f, 0.974619985f, 1.32905364f, 1.31267953f, 1.28472733f, 1.8626883f, 1.93764496f, 1.67698991f, 1.9784838f, 2.03042793f, 2.08702278f, 1.93729138f, 1.99868691f, 2.45146132f},
  {-0.00156184426f, 0.663416922f, 0.919861913f, 1.08275163f, 1.35481012f, 1.55417168f, 1.81084239f, 1.68413734f, 1.79897356f, 1.93176425f, 2.02338505f, 1.83138371f, 2.12070894f, 2.44726491f, 2.31183839f, 2.45086527f},
  {0.0266681015f, 0.506424129f, 1.02393746f, 0.974184036f, 1.03501058f, 1.37965524f, 1.60962963f, 1.82678866f, 1.84428501f, 1.83530962f, 1.90892208f, 2.03284883f, 1.90045643f, 2.02035546f, 2.06112599f, 2.0489161f},
  {0.130728304f, 0.270636618f, 0.910774589f, 1.09434092f, 1.42295074f, 1.56111896f, 1.78852797f, 1.92833912f, 1.98723006f, 1.79833901f, 2.03202891f, 2.02632093f, 2.06838465f, 2.12317371f, 2.16062951f, 2.28334188f},
  {0.0927806944f, 0.930950284f, 0.961193383f, 1.10023999f, 1.8061136f, 1.59886134f, 1.72741723f, 1.41824913f, 1.45532906f, 2.04771495f, 2.23640895f, 1.9470998f, 1.67590821f, 2.00182343f, 2.35621238f, 2.5174737f},
  {-0.256874055f, 0.188875616f, 0.735078454f, 1.21969545f, 1.49916816f, 1.2681731f, 1.52668774f, 1.84426367f, 1.83357942f, 1.91725552f, 1.90103209f, 2.29747176f, 2.29954076f, 2.32317185f, 2.48045206f, 2.34173441f},
  {-0.130830377f, 0.372489184f, 0.642422438f, 0.896144629f, 1.41876435f, 1.50350285f, 1.79431438f, 1.66218829f, 1.63496208f, 2.02951717f, 2.23872709f, 2.27016068f, 1.99217653f, 2.3635726f, 2.37218213f, 2.47443891f},
  {0.16273354f, 0.952728152f, 0.966209412f, 1.12007415f, 1.4107368f, 1.63993573f, 1.3979255f, 1.7031095f, 1.94246721f, 1.62890983f, 1.9555428f, 2.12454653f, 2.16978645f, 2.1118679f, 1.95049381f, 2.0420115f},
  {0.0858016536f, 0.624043405f, 1.01595533f, 0.865904748f, 1.28624463f, 1.85511017f, 1.69767463f, 1.53659523f, 1.53270853f, 1.7412504f, 1.65576053f, 2.05164289f, 2.26249194f, 2.36274052f, 2.27664161f, 2.30043697f},
  {-0.0652543679f, 0.40378949f, 0.817767978f, 1.01518023f, 1.35987401f, 1.2943579f, 1.36390853f, 1.83247375f, 1.80699098f, 1.84785044f, 2.42478299f, 2.37619019f, 2.40460205f, 2.49236894f, 2.34793496f, 2.45427632f},
  {-0.0283159651f, 1.11533403f, 0.761740267f, 1.03722835f, 1.25210989f, 1.61289132f, 1.57267427f, 1.80579579f, 1.80764222f, 2.06825614f, 2.34995246f, 2.34155726f, 2.35205388f, 2.33242226f, 2.09259915f, 1.98975992f},
  {0.241910651f, 0.197063997f, 0.811437309f, 1.07759118f, 1.54144537f, 1.51603281f, 1.48969841f, 1.74875569f, 1.73548341f, 1.94791114f, 2.20090675f, 2.09950566f, 2.14746213f, 2.35519433f, 2.60231829f, 2.27375364f},
  {0.0485042259f, 0.390376478f, 0.899123609f, 1.07701099f, 1.41124678f, 1.02859509f, 1.98199666f, 1.55449271f, 1.66277039f, 2.26225901f, 1.69727111f, 1.83019507f, 1.86362481f, 2.12363505f, 2.34249759f, 2.48283601f},
  {0.0572082363f, 0.570015311f, 0.8937217f, 1.00213981f, 1.35117626f, 1.32631171f, 1.42793715f, 1.63960445f, 1.63577437f, 2.06832314f, 1.89581597f, 2.34726119f, 2.40655875f, 2.3318274f, 1.86451828f, 2.16281986f},
  {0.166249737f, 0.233614385f, 0.847924888f, 1.15607345f, 1.5293268f, 1.69921291f, 1.66590762f, 1.82851815f, 1.80298686f, 2.1204083f, 2.16316748f, 2.07610989f, 2.13022137f, 2.15360308f, 2.49093938f, 2.41851306f},
  {-0.0865728855f, 0.695918322f, 0.927711546f, 1.20447886f, 1.32051194f, 1.62427723f, 1.85688269f, 1.79736209f, 2.06309438f, 2.02879381f, 1.78332293f, 1.89894021f, 2.04197049f, 2.38700509f, 2.375319f, 2.37591219f},
  {0.144342855f, 0.619920492f, 0.940548837f, 1.17162859f, 1.43666339f, 1.49151719f, 1.68534863f, 1.46545279f, 1.83554721f, 2.19216728f, 2.02130103f, 1.7156806f, 2.08623719f, 2.05435324f, 2.10312748f, 2.29538345f},
  {0.11758443f, 0.763319075f, 0.933335245f, 1.13458538f, 1.54040933f, 1.14768898f, 1.1548301f, 1.74339449f, 1.79537165f, 1.95659149f, 2.01933336f, 2.0615766f, 2.23055243f, 2.23500729f, 2.00911236f, 2.04429913f},
};

static const float kLayer1D[48] = {0.868191361f, 0.810007691f, 0.838080049f, 1.00546956f, 0.867705941f, 0.92329067f, 0.933017373f, 0.789292574f, 0.744906843f, 0.775418282f, 0.988415182f, 0.853917599f, 0.864108205f, 0.581987917f, 0.922190845f, 1.10612667f, 0.978508472f, 0.975068569f, 0.849735975f, 0.788717806f, 0.868503749f, 0.807984173f, 1.02447307f, 0.883900106f, 1.05819333f, 0.435512811f, 0.59834975f, 0.832445204f, 0.70933181f, 0.950906157f, 0.871087193f, 0.769929469f, 0.887747526f, 0.791415453f, 0.844046295f, 0.824370146f, 1.02886462f, 1.20023835f, 0.584318578f, 0.842271626f, 0.90722692f, 0.812432587f, 0.819570482f, 1.17028618f, 0.833091795f, 0.869313061f, 0.849040449f, 1.09507704f};

static const int8_t kLayer1InProjQ[96][24] = {
  {-79, 13, 80, -35, 10, -67, -81, 102, 32, 127, -35, 58, 70, -26, -68, -99, 95, 33, -55, 37, 63, -11, -93, -42},
  {-9, 31, 36, -82, -65, 34, 14, -3, -46, -119, -2, 41, -91, 43, 62, -35, -4, -49, 60, 46, -46, 12, -127, -38},
  {69, 72, 69, -125, 120, -127, -86, -116, -100, 29, 19, -34, 24, -62, 19, 116, -40, 20, -41, 6, -54, 52, 21, 52},
  {-17, -32, 3, 41, 0, -3, 52, -127, -105, 16, 1, -8, -8, 1, -2, 4, 88, 33, 31, -101, 73, -46, -20, 39},
  {-29, -38, 52, 65, -21, 7, -99, -94, 31, 63, -80, 27, 50, 5, 110, -46, -7, -127, 93, -98, 24, 9, 76, -112},
  {-10, 59, 5, -105, 33, -27, -34, 35, -127, -60, 76, -41, 39, 22, -15, 120, -118, -11, -34, -18, -5, -51, -81, 119},
  {11, 16, 4, -39, 54, -54, 8, 77, 2, 7, -41, 21, 13, -40, -47, -30, 1, 55, -40, 127, 9, -36, -87, 53},
  {23, -34, -3, -4, 66, -72, -81, -98, -92, 18, 6, -18, 33, 50, -12, 75, -82, -63, 7, -52, -81, 102, 127, 118},
  {-21, 21, -26, -95, 61, -42, -52, 98, -10, -16, 0, 67, 44, -49, -65, -15, 69, 25, -65, 127, -99, 21, -78, 22},
  {91, 3, -13, 70, -36, -3, -51, -127, 57, 33, 14, -76, 38, 43, -21, 16, -3, -43, -2, -51, 37, 8, 29, 36},
  {58, 89, -2, -38, 20, -6, -7, -34, -70, -53, -95, -1, -86, 3, 3, -24, 38, 75, 27, -9, 127, 87, -26, -115},
  {23, -59, -24, 33, -127, 57, 21, 15, 62, -30, 24, 9, -1, 31, 16, -41, 48, -79, 2, -13, 19, 17, -25, 34},
  {-18, 65, 50, 20, 38, -49, -103, -80, -39, 48, 27, -59, 38, -3, 27, 36, -63, 23, -6, -24, -46, 52, 127, 49},
  {-3, 11, -48, -18, -59, 42, 60, -42, -11, 19, 0, 22, -28, 25, 4, 19, 36, 50, -20, -37, 67, -127, -20, 44},
  {-26, 17, -54, -90, -21, -8, -37, 16, -66, 9, 27, -37, 49, 8, -4, 52, -68, 3, -3, -62, -76, -1, -127, 61},
  {-122, 10, 56, 48, -27, -17, -29, 70, 92, 49, -66, 53, -17, -71, -4, -122, 73, 65, 64, 37, 57, -127, -6, -26},
  {64, 63, -47, 23, -46, 67, -40, -15, 39, -19, 9, -17, -12, -64, 28, -48, 127, -12, 92, -26, -49, 81, -50, -20},
  {20, -23, -108, 92, 46, 1, 51, 52, 98, 115, 72, -84, 116, -85, -117, 98, -12, 47, -105, -9, 79, -47, 127, 101},
  {-34, -55, 33, 111, 15, -43, -101, -55, 55, 38, -75, -19, -8, 34, 57, -54, -33, -27, 6, -48, -10, 21, 127, -98},
  {-19, 127, -27, 27, 33, 36, 69, 12, -16, -49, 36, -51, -39, 57, -54, 48, -51, 35, -2, -20, -51, -105, -35, 35},
  {34, -2, -12, -127, -43, 14, 59, 23, -30, -15, 38, 18, 6, -21, -14, 58, -11, -29, -46, 34, -13, -12, -112, 63},
  {-59, 124, -45, 40, -14, 46, 46, -31, 35, -29, 60, -41, -30, -6, 83, 1, -127, -19, 100, -39, 14, -61, 17, -1},
  {-12, 69, 40, -34, 127, -31, -36, -60, -87, 10, -18, -15, -7, -55, -7, 33, -35, 11, -24, -40, -45, 8, 90, -16},
  {21, 28, -84, -62, -127, 38, 16, 43, -60, -19, 80, -35, 35, 49, -1, 77, -50, -85, -43, 7, -38, -118, -70, 89},
  {-43, 19, 105, 68, -16, -70, -127, -106, 15, 24, -99, -16, -8, 28, 107, -69, -54, -86, 87, -63, -33, 72, 62, -61},
  {-120, 82, 6, 98, -115, 113, -11, 12, -58, -61, 18, -60, -16, -15, 3, -82, 114, 85, 80, -102, 119, -5, 57, -127},
  {57, -127, -31, -26, -44, 33, -2, -8, -16, -7, 11, 3, 3, 19, 27, 8, 49, 10, -9, -4, 62, 23, -25, 40},
  {15, -60, -24, 14, 22, -38, 31, 10, 21, 13, -29, 11, -3, 82, -56, 29, -100, -1, -127, 20, 49, -80, 60, 3},
  {-100, 127, -16, -3, 34, 10, 42, 65, 4, 0, 21, 23, -40, -18, -24, -41, -17, 113, 46, 40, -77, -101, -14, -68},
  {22, 53, 35, -69, -55, 42, -9, -19, -39, -27, 5, 13, -29, 75, 78, -29, 37, -29, 21, 49, -127, 48, -65, -81},
  {-52, 48, 10, 35, 27, 23, -19, 51, 67, 7, -64, 41, 17, 16, 10, -118, 32, -25, 69, 0, -109, 3, 19, -127},
  {-8, 57, 124, -47, -25, 45, -41, -25, -100, -31, 15, 19, -43, 16, 96, -10, -104, 14, 109, -54, -62, 41, -127, -43},
  {0, 127, 14, 33, -4, -55, -70, -11, -9, 36, -54, -13, -26, -37, 78, 0, 25, 93, 87, -7, -73, -46, 17, -34},
  {2, 82, 54, 22, 0, 46, 9, -124, 29, -46, -2, -81, -106, 51, 69, 89, -119, 16, 119, -103, 17, -34, 127, 4},
  {42, -10, -18, -49, 12, 19, 116, 63, -27, -42, 15, 40, -37, -32, -78, 40, 21, 127, -53, 72, 37, -16, -33, 3},
  {64, 66, -46, -47, -89, 64, 81, -20, -123, -127, 57, -48, -53, -2, 17, 116, -51, -21, -31, -31, 81, 2, 10, 37},
  {-3, 52, -25, 127, -18, -13, -47, -53, 112, -30, -60, -4, -37, 72, 45, -94, 81, -4, 73, -70, -4, 37, -27, -37},
  {25, 127, 86, 6, -44, -79, -51, 74, 21, 22, -32, 18, 62, -31, -79, -42, -99, -62, -34, 83, 15, 64, -15, -86},
  {-83, 42, 103, 19, 41, -115, -94, -127, 27, 56, -62, -12, 57, 43, 59, 10, -12, 23, 79, -57, -95, 1, 67, -96},
  {-44, -101, 10, 119, 42, -43, -85, -25, 127, 113, -34, 53, 54, 23, -27, -92, 47, -49, -39, 3, -20, 30, 70, -72},
  {-36, 60, 10, -19, 127, -28, 14, -91, -64, 40, -17, -17, -6, -15, 39, 27, -37, 76, 61, -115, -19, 11, 30, -81},
  {31, 64, -30, 24, -38, 98, 87, -76, -18, -66, 26, -61, -57, 52, 113, 69, -79, -27, 85, -127, 107, -3, 74, -33},
  {-10, 2, 7, 59, -18, 16, -32, -78, 127, 31, -16, -8, -1, 21, 43, -20, -32, -32, 68, -42, 10, 26, 27, -33},
  {-35, 67, -34, 10, -84, 84, 24, 4, 94, 32, -28, -8, 56, -11, 33, -5, -3, -36, 117, -20, 64, -127, 21, 50},
  {127, -107, -2, -44, -89, -30, -6, -6, -26, 11, -6, 32, -15, 25, 41, 27, 44, -34, -46, 7, 12, 31, 36, 94},
  {-16, -40, -30, 80, 9, 18, -1, 19, 52, 82, 8, -24, 68, 42, -67, 21, -36, 13, -87, -7, 39, -48, 127, 23},
  {-107, 32, 20, -19, 99, 6, -15, 66, 26, 62, 1, 12, 61, -35, -64, -79, -27, 51, -4, 12, -72, -5, -50, -127},
  {-20, -11, 72, 12, 50, -82, -57, 16, -103, 43, -52, 37, 7, -21, -20, -39, 5, 60, -27, 39, 20, 67, 58, -127},
  {-23, -21, -26, 29, -3, 32, 43, -114, -17, 5, -2, -37, 31, 8, -13, 43, -85, -3, 25, -66, 127, -17, 53, -23},
  {8, 85, 46, -110, 127, -18, 18, -11, -59, -73, -1, -50, -57, -123, -42, 2, 15, 24, 42, -27, 39, -13, -47, 8},
  {-27, 15, 62, -32, -85, -127, -62, 21, -8, 34, 118, -110, 84, 98, -48, 90, -98, -90, -48, -72, 33, 44, -88, 73},
  {-6, -72, -90, 39, -97, 124, 127, 46, 38, -62, 73, 15, -50, -1, -27, -70, 48, 8, -41, -71, 85, -102, -37, 93},
  {-39, -35, 2, 32, -15, 1, -7, 26, -15, -35, 13, 19, -57, 3, 14, -46, -9, 127, -25, 55, -8, 34, -26, 9},
  {-57, -6, 44, -31, -47, 5, -56, -22, -59, 52, 80, -59, 76, 7, -34, 83, -89, 1, -57, -27, 4, -10, 8, 127},
  {12, -27, 30, -14, -54, -16, 53, 23, -25, 0, -1, 40, -44, -2, 11, -70, 127, 29, -38, 15, 24, -1, -78, -30},
  {54, -118, 59, -14, -42, -75, 4, 17, -29, -75, 34, 37, -127, 27, -13, 2, 78, 86, -33, 98, -7, 27, 11, -55},
  {51, -59, -76, -7, -20, 13, 13, -127, -34, 9, -11, 7, -50, -9, 12, 95, -123, -4, 14, -43, -12, -110, 79, 57},
  {-61, -50, 106, -17, 59, -46, -18, 11, -8, 60, 66, 6, 9, -15, -44, -61, 111, 49, -42, 13, -16, 83, -127, 10},
  {8, -20, 37, 54, -71, 4, -33, -127, 39, 67, 74, -49, 33, 19, 39, 7, -98, -60, 16, -43, -121, -57, 85, 114},
  {-101, 104, 115, -51, -27, -56, -34, -25, -71, -23, -29, 62, 56, 9, 81, -43, -121, -26, 127, 90, -68, 26, -16, -34},
  {123, -22, -61, -6, -85, 0, 37, 49, 115, -33, -57, 37, -26, 13, -30, -51, 127, -105, -47, 54, -1, 33, -88, -117},
  {-19, 106, 17, -76, -45, -27, 5, 49, -6, 78, -16, 24, 44, -7, -6, -2, -48, -92, -15, 108, 127, -42, -1, -14},
  {-20, -44, 4, -88, 47, -47, -76, -27, -92, 73, 39, -76, 94, 22, -58, 102, -51, 112, -53, -127, -48, 51, -102, 78},
  {23, 5, -69, -18, -91, 70, 126, 45, 39, -73, 44, 24, -30, 35, -21, 43, 53, -127, -24, -29, 36, -118, -91, 75},
  {-84, -38, 67, -90, 55, -12, 62, 28, -70, -40, -31, 127, -39, 110, 49, 2, -57, 25, -9, 91, -5, -29, -102, 34},
  {-8, -127, -11, 15, -8, -4, 19, 7, 2, 16, -18, 24, 6, 57, -15, 4, -63, -17, -83, 9, 26, -33, 10, -21},
  {15, 16, 2, -72, -67, 56, 44, 36, -43, -44, 40, 14, 1, 94, 26, 23, -26, -25, -46, 2, -27, -50, -127, 63},
  {-10, 84, 40, 19, -39, 61, 88, -36, -50, -51, 63, -52, -20, 23, -19, 45, 17, 116, -33, -63, 127, -15, -37, -29},
  {2, -15, -19, -58, -79, 14, 7, 40, 26, -37, 31, 35, 1, 25, 7, 0, -6, -56, -3, 15, -29, -8, -127, 18},
  {-127, 16, 33, -8, 21, -30, 22, 121, -24, 95, -14, 0, 42, -43, -16, -14, 32, 24, 110, -53, 58, -15, -68, -76},
  {37, -127, -24, 53, 34, -51, 106, 84, 66, -23, -45, 23, -61, 19, -105, -83, 73, 81, -60, 89, -22, 1, -28, -94},
  {-4, 25, -98, -56, -122, 71, -37, -47, -127, 32, 90, -79, 71, 47, -1, 124, -81, -44, -9, -119, 14, -82, -16, 111},
  {-11, -6, 34, -78, -92, 13, -12, 1, -77, -60, 26, 55, -48, 127, 56, -9, -6, -21, -27, 69, -51, -11, -118, 39},
  {-11, 110, 28, -77, 127, -36, 13, 36, -38, -86, 45, -54, 3, -55, -92, 39, -21, -26, -11, -21, 93, -51, -116, 102},
  {-20, 20, 7, -61, 46, -44, 20, 33, -29, -64, -78, 65, -73, 53, -69, -44, -31, 14, -31, 90, 5, -123, -13, 127},
  {1, 2, 40, -71, -98, -12, 9, 2, -63, -47, -36, 82, -43, 54, 64, -23, 12, -14, 34, 17, -25, 8, -127, 8},
  {-47, 41, 82, 25, 15, 56, 15, 5, -107, -19, 105, -67, -9, -70, -39, -51, 52, 127, 2, -28, 47, 46, -109, -17},
  {-27, 9, 16, 6, 127, -13, 31, 1, -49, -26, -19, 39, -45, -87, -49, -7, 21, 71, 18, -44, 64, -80, -4, 51},
  {66, 28, -10, -32, -127, 25, 25, 8, 47, -70, 59, -42, -77, 7, -42, 92, -9, -108, -17, -27, -44, -40, 44, 65},
  {34, 1, 6, -49, -69, 36, 77, 44, 8, -45, -7, 29, -15, -110, 22, 16, 62, 6, 61, 26, 33, 12, -127, -91},
  {109, -58, -127, -33, 45, -66, 7, 13, -23, -27, -49, 24, -20, 76, 13, -27, -7, -17, -18, 72, -9, -10, -35, -12},
  {77, 43, -112, -18, -111, 127, 36, -44, -29, -10, 12, -61, -18, 14, -32, 63, -69, 111, -2, -61, -63, -118, 78, 102},
  {-96, 28, 73, 42, -53, -85, -56, -58, -50, 67, -73, -2, 11, 127, 54, 2, -65, 94, -110, 104, 24, -49, 100, -60},
  {-10, 103, 58, 0, -27, 37, 74, -127, -110, -103, 6, -68, -90, 43, 13, 78, -75, 25, -44, -45, 76, -105, 20, 52},
  {1, -52, 27, 23, 127, -37, -7, -16, -58, 2, 0, -27, -65, 0, -24, -2, -8, 75, -48, 13, -43, 22, 0, -17},
  {-66, -79, -42, 69, 41, 109, 81, -41, -11, -65, 48, -11, -83, 31, 86, -53, 37, 71, 26, -122, 64, 59, 6, -127},
  {-43, 49, -68, -63, -43, 127, 71, 37, 48, 25, 97, -47, 53, -87, -74, 14, -10, -82, -10, -39, 115, -99, -66, 71},
  {12, 75, 61, -43, -56, 29, 56, -80, -127, -77, 25, -42, -43, 55, 1, 90, -68, 26, -20, -77, 5, -95, 66, 68},
  {111, -41, -53, -76, -127, -67, 8, 26, 68, 19, -60, 42, -48, 73, -4, -15, 22, -69, -88, 121, -30, 26, -52, -88},
  {45, 1, -3, -10, -42, 11, -19, -81, -11, -14, 34, -25, -18, 29, 5, 92, -44, 21, -3, -12, -41, -81, 80, 127},
  {-127, -86, 31, 48, 13, -118, -77, 125, -37, -10, -2, 45, -37, -3, -20, -121, 62, 119, -59, 108, 5, -12, -110, -1},
  {-28, 14, 39, -24, -25, -10, 47, 72, -114, -4, -41, -23, 23, -38, -16, -13, -10, 3, -74, 109, 127, -9, -48, -53},
  {-44, 74, 24, -44, 31, -50, 55, 29, -104, -87, 11, 16, -17, -4, -75, 38, -51, 87, -23, 85, 68, -16, -127, -6},
  {64, 34, -28, -86, -45, -10, 6, -1, -49, -91, -18, 38, -52, -54, 70, -19, 60, -33, 99, 31, -29, 65, -127, -82},
  {3, -44, 122, -59, 3, -37, 13, 39, -62, 29, -19, 61, 127, -76, 18, -22, 113, -50, -118, 110, 58, -53, -31, -43},
  {-52, -68, 54, -34, 49, -61, -97, 24, -127, 50, -50, 29, 47, -18, 37, 55, -4, 15, 47, -51, 69, 114, 15, -68},
};

static const float kLayer1InProjScale[96] = {0.00257491274f, 0.00320149236f, 0.00128406403f, 0.00404468644f, 0.0018761371f, 0.00206606276f, 0.00248098071f, 0.00307216914f, 0.00137619488f, 0.00140433083f, 0.00338027067f, 0.0028522911f, 0.00260631554f, 0.00318157417f, 0.00277327676f, 0.00329851592f, 0.00293956487f, 0.00243104505f, 0.00183804904f, 0.00152929698f, 0.0023606224f, 0.00154866034f, 0.0034407184f, 0.00197572494f, 0.0027330392f, 0.00127596722f, 0.0043368116f, 0.00237593357f, 0.00170149084f, 0.00319940341f, 0.00365491374f, 0.000833438418f, 0.00448482251f, 0.00118462532f, 0.00281066308f, 0.00301825465f, 0.00407529436f, 0.00378718087f, 0.00239051739f, 0.00221810839f, 0.00364921964f, 0.0014834234f, 0.00313728885f, 0.00394164165f, 0.00295171258f, 0.00239232066f, 0.00188755465f, 0.00390239339f, 0.0031877656f, 0.00302188983f, 0.000876689504f, 0.0027420246f, 0.00340491394f, 0.00268871128f, 0.00222144998f, 0.0026637516f, 0.000877496437f, 0.00105996791f, 0.00238613971f, 0.00141658541f, 0.00168525835f, 0.00282853539f, 0.00196145778f, 0.00325028342f, 0.0030817939f, 0.00339794904f, 0.00192687567f, 0.00121968216f, 0.00309982523f, 0.00108373177f, 0.00261822948f, 0.00174825545f, 0.00296831364f, 0.0013460255f, 0.00296194735f, 0.00330309058f, 0.00135778787f, 0.00305490731f, 0.00300422916f, 0.00111881131f, 0.00341694592f, 0.00104235439f, 0.00133777584f, 0.00287785521f, 0.00419860613f, 0.00272164214f, 0.00200606254f, 0.00248641218f, 0.00254000816f, 0.00183855544f, 0.00159088091f, 0.00429846626f, 0.00239822222f, 0.00199058373f, 0.00133189664f, 0.00294830278f};

static const float kLayer1Conv1dWeight[48][4] = {
  {0.0879168585f, -0.223625362f, 0.259539843f, -0.134739041f},
  {0.339610338f, 0.206767693f, -0.00464880001f, 0.175228849f},
  {0.132773712f, -0.162246376f, -0.116813041f, 0.11371465f},
  {-0.254094422f, -0.288623393f, 0.446982563f, -0.016244607f},
  {0.0994152129f, 0.219966754f, 0.209565356f, -0.0773886889f},
  {-0.315106094f, -0.25425151f, -0.0183362756f, 0.0191350263f},
  {0.26609984f, -0.135468706f, 0.117587224f, -0.0817770362f},
  {-0.253020287f, 0.0869717374f, 0.249927416f, -0.277157277f},
  {-0.176158026f, 0.0814353749f, -0.113074556f, 0.0950579271f},
  {-0.141472399f, -0.0685724095f, -0.0711772889f, 0.136773795f},
  {0.333688676f, 0.236282751f, -0.32729122f, -0.0542231724f},
  {-0.30425331f, 0.13693741f, 0.086490117f, 0.0947499573f},
  {0.102710232f, -0.484642595f, -0.284188747f, -0.0790005252f},
  {-0.0236624666f, -0.010092644f, 0.216004029f, -0.147531122f},
  {0.227542147f, 0.119572058f, 0.188386485f, -0.088035956f},
  {-0.442958087f, 0.297090709f, -0.130152091f, -0.0095487861f},
  {0.328601629f, 0.2960971f, 0.202388585f, 0.0699341968f},
  {-0.501338363f, -0.267659128f, -0.216374427f, -0.230747879f},
  {0.261042953f, -0.0626523569f, 0.1044062f, -0.0333704166f},
  {-0.179431468f, 0.0277119298f, 0.00473913085f, 0.157536f},
  {0.212174162f, 0.0898624584f, 0.124216795f, -0.120107949f},
  {-0.0567497425f, -0.0576326959f, -0.0793297738f, 0.133813933f},
  {-0.402164191f, 0.38547647f, 0.245085776f, -0.00623290008f},
  {0.183186263f, 0.227250382f, 0.244970679f, -0.210241258f},
  {-0.299912721f, -0.330553859f, -0.284517407f, -0.128569767f},
  {0.112151794f, 0.0710228756f, -0.124347165f, 0.00606137468f},
  {0.246211648f, 0.101332843f, -0.105566092f, -0.220516101f},
  {0.333903402f, 0.269954443f, 0.305042684f, 0.0924815983f},
  {-0.110664338f, -0.0847558826f, -0.0164240021f, 0.11852026f},
  {0.268257648f, 0.218519494f, 0.0186097305f, -0.216710761f},
  {0.478087455f, 0.150153592f, -0.0148214232f, -0.236467496f},
  {0.0979615971f, -0.0465424396f, 0.0203607175f, 0.00316779618f},
  {-0.209583342f, -0.206035465f, 0.101085134f, 0.288564384f},
  {0.108216137f, -0.117819756f, 0.101430044f, -0.0562360883f},
  {0.323793203f, 0.107619561f, 0.176090285f, 0.144178495f},
  {0.358242989f, -0.131928533f, 0.216705814f, -0.24721615f},
  {-0.441539079f, -0.0484240726f, 0.181278095f, 0.140926361f},
  {-0.269166619f, -0.192057654f, 0.528422296f, -0.0321625024f},
  {0.272079587f, 0.157483757f, -0.0644632578f, -0.15009743f},
  {-0.21856156f, -0.0430286899f, -0.152144238f, 0.199907511f},
  {-0.409714013f, -0.0602349117f, 0.162125513f, 0.120356515f},
  {0.0826547518f, -0.106888667f, 0.221342683f, -0.196215302f},
  {0.226156637f, 0.127056941f, 0.12707448f, -0.118784636f},
  {-0.495498568f, 0.342221171f, -0.135392591f, 0.0639619008f},
  {0.293179721f, -0.059711203f, 0.0153201884f, -0.148892239f},
  {-0.160640374f, -0.193255112f, -0.210760728f, -0.187801868f},
  {-0.188210517f, 0.0247677788f, -0.0160176307f, 0.127357349f},
  {-0.149256244f, 0.546196103f, -0.148814663f, -0.0803330019f},
};

static const float kLayer1Conv1dBias[48] = {-0.037303783f, 0.0961056054f, 0.0388037972f, 0.0162340365f, -0.0251607932f, -0.115022019f, 0.0289138556f, 0.00709883589f, -0.0134588918f, 0.031506598f, -0.0646235868f, 0.0386504866f, 0.000431036053f, 0.00988577399f, 0.0798121914f, -0.0775364339f, 0.016796805f, 0.12742649f, 0.033986818f, -0.0704314038f, 0.00825795997f, 0.00563965971f, 0.0177807752f, 0.0113479774f, -0.0948667824f, 0.0133339791f, -0.0281113293f, -0.0523066334f, -0.0448950231f, 0.0540006161f, 0.0937967375f, 0.0141278757f, -0.0687942654f, -0.00493260333f, -0.0932690799f, 0.0695310235f, 0.0171902049f, 0.0351274908f, -0.0240165014f, 0.0169186387f, -0.0115011875f, -0.000217535431f, -0.0225298069f, -0.0524366908f, -0.0641342625f, -0.0102999657f, -0.00710783992f, -0.00919507258f};

static const int8_t kLayer1XProjQ[34][48] = {
  {-127, -2, 19, 58, 31, 25, -99, -8, 87, -68, 15, -85, -11, 87, -73, 74, 36, -12, 20, -48, -71, -8, 35, -34, -34, 19, -15, -19, 9, -27, -5, -7, -2, 23, -19, 60, -56, -43, 21, -25, 16, 51, 36, -84, 12, -26, 92, 106},
  {104, 6, -56, -124, -54, -65, 126, 32, -105, 113, -61, 65, -7, -119, 95, -90, -44, 29, -56, 71, 75, 57, -25, 38, 25, -29, 78, 60, 25, 7, -42, 36, 93, -40, 62, -47, 109, 107, -62, 21, 57, -86, -65, 117, -13, 60, -61, -127},
  {25, -56, -32, -12, -33, -35, -2, 28, 1, -11, -105, -82, -75, 28, 0, 52, -48, -94, -46, 29, 30, -24, 84, 53, 52, 0, 88, 29, 29, -57, -96, -31, 104, 10, 40, 69, 61, 127, -92, 22, 112, 31, -26, -9, 95, -68, 36, -58},
  {85, 5, -18, -23, 5, -49, 87, 52, -96, 63, -26, 17, -77, -34, 112, -82, -40, 59, -51, 66, 68, 33, 38, 12, -6, -92, 25, 23, -23, 69, 57, -22, 24, -58, 34, -123, 92, 127, 59, -45, 24, -93, -96, 78, 15, 25, -58, -48},
  {-49, -32, 44, 22, 11, -25, -15, -104, 56, -2, -14, 123, 75, 0, 15, 56, 47, -37, 46, -18, -22, 1, -54, -7, 40, 29, 10, -82, -32, -8, -85, 0, 127, 77, -44, 41, -12, -58, -67, 2, -89, 55, 11, 12, -101, -17, -49, -74},
  {-26, 17, 41, 88, -1, -40, -1, -127, 1, -13, -10, 51, -10, 121, 11, -79, 33, 26, -64, 18, 53, -56, -10, 38, 19, -47, -29, -31, -56, 26, -75, 18, 17, 34, -21, 39, 3, -118, -25, 49, -19, 36, -24, -72, 26, 44, -14, -56},
  {-56, -63, 21, -23, -43, -78, 37, 0, 3, 19, -4, 103, -1, 29, 35, 43, -22, -45, 25, 2, -2, -111, 1, 16, 47, 20, -37, 20, -59, -101, -86, 11, 74, 29, 3, 41, 4, -35, -16, 21, -86, 88, 23, 46, -127, -26, -93, -54},
  {11, -37, 22, 1, 8, 45, -70, 13, 45, -51, 57, 1, 127, -1, -79, -34, 51, 14, 84, -25, -23, 15, 3, -42, 13, -28, -2, -5, 4, 44, 113, -26, -22, 36, 12, -47, 9, 49, 79, -66, -31, 0, 54, -19, -26, -11, 7, 21},
