#pragma once

#define BABYMAMBA_VARIANT_CROSSOVER 1
#define BABYMAMBA_VARIANT_CHANNEL_INDEPENDENT 0
#define BABYMAMBA_DATASET_NAME "daphnet"
#define BABYMAMBA_DISPLAY_NAME "Daphnet"
#define BABYMAMBA_SEED 84507
#define BABYMAMBA_SEQ_LEN 64
#define BABYMAMBA_IN_CHANNELS 9
#define BABYMAMBA_NUM_CLASSES 2
#define BABYMAMBA_D_MODEL 26
#define BABYMAMBA_D_STATE 8
#define BABYMAMBA_D_INNER 52
#define BABYMAMBA_DT_RANK 2
#define BABYMAMBA_D_CONV 4
#define BABYMAMBA_NUM_LAYERS 4
#define BABYMAMBA_STEM_KERNEL 5
#define BABYMAMBA_PATCH_KERNEL 16
#define BABYMAMBA_PATCH_STRIDE 4
#define BABYMAMBA_PATCH_OUT_LEN 15
#define BABYMAMBA_SCAN_IMPL_FALLBACK 0
#define BABYMAMBA_USE_INT8_PROJECTIONS 1
#define BABYMAMBA_FIXTURE_LABEL 0

static const char* const kBabyMambaClassNames[BABYMAMBA_NUM_CLASSES] = {"No Freeze", "Freeze"};

static const float kStemWeight[26][9][5] = {
  {
    {-0.307193458f, -0.157212406f, -0.0565926097f, -0.260291189f, 0.12324775f},
    {0.172226325f, 0.115925871f, 0.244591027f, -0.0772248209f, -0.0298511088f},
    {0.0732760727f, 0.00898122601f, -0.260254085f, -0.122570999f, -0.041349858f},
    {-0.0658590943f, -0.332563519f, -0.0495866537f, -0.122374974f, 0.0112087801f},
    {0.189150214f, -0.177071318f, -0.0287395213f, -0.031019628f, 0.108263575f},
    {-0.023069568f, 0.194445416f, 0.0380975902f, -0.0342046022f, 0.101394348f},
    {0.0217872914f, -0.136738047f, 0.0507605374f, -0.292136878f, -0.10598316f},
    {0.0392612256f, 0.0164751951f, -0.0065400973f, 0.0118140029f, -0.230681673f},
    {-0.269857317f, 0.460811883f, 0.1275599f, -0.00723069347f, -0.0251007304f},
  },
  {
    {0.134598807f, 0.0799939707f, 0.0342278145f, -0.350786895f, 0.122683294f},
    {0.0997196734f, 0.131003737f, 0.296811104f, -0.0599261746f, -0.119111732f},
    {-0.0161018334f, 0.0480796471f, 0.396870643f, 0.0473472178f, -0.0225064456f},
    {-0.113585725f, 0.188260764f, -0.0983851999f, 0.341831416f, 0.0377218574f},
    {-0.187704504f, -0.321477413f, -0.133663714f, -0.0190362409f, 0.0137357768f},
    {-0.127000466f, 0.182470575f, -0.372606069f, -0.0480838008f, -0.165276662f},
    {0.277640939f, -0.121246472f, 0.0151188904f, 0.134087577f, -0.103753649f},
    {-0.0657555908f, -0.121052526f, -0.0282476507f, 0.041011896f, 0.0441369265f},
    {0.171369255f, -0.136907712f, -0.175604969f, -0.0022816672f, 0.0564344376f},
  },
  {
    {-0.101962812f, 0.114627101f, 0.151249319f, -0.0659377724f, 0.0883237273f},
    {0.0613884032f, -0.0772428736f, 0.0245830677f, 0.129518449f, -0.091087684f},
    {0.196983591f, -0.162824765f, 0.12766999f, -0.159789428f, 0.0487650223f},
    {-0.285513103f, 0.156248793f, -0.367471069f, -0.137373045f, -0.347586244f},
    {-0.348438025f, 0.0567665771f, -0.177834988f, -0.122721836f, -0.0587935559f},
    {-0.184319183f, -0.158587873f, 0.102191523f, -0.0444671176f, -0.0369671509f},
    {-0.161548719f, -0.0151453968f, -0.0208167657f, -0.139493421f, 0.109158643f},
    {-0.00784343667f, 0.0795270056f, 0.0549811423f, 0.137353837f, 0.0204397142f},
    {0.0467750654f, 0.072025165f, 0.161553293f, 0.0169996433f, 0.0952110291f},
  },
  {
    {-0.228320688f, 0.204000935f, -0.10462895f, -0.0610603094f, 0.0640600398f},
    {0.179929271f, -0.0835760012f, 0.0516770594f, 0.0564616807f, -0.155513361f},
    {0.41175589f, 0.0994508192f, -0.145130023f, 0.123008698f, -0.0454060547f},
    {0.16708678f, 0.200150535f, 0.235531881f, -0.0337543152f, 0.358272135f},
    {-0.1581029f, 0.0620025918f, 0.00463368883f, 0.0887117535f, 0.150000751f},
    {0.183476806f, -0.00513962749f, 0.0821692571f, -0.0141421659f, 0.0548520237f},
    {-0.0386369452f, 0.118768945f, 0.0415681712f, 0.00852019992f, -0.224027827f},
    {-0.107339025f, -0.14799045f, 0.0111542223f, -0.195328027f, -0.319837689f},
    {-0.21239385f, -0.05061296f, -0.124355204f, -0.156408116f, -0.0258840658f},
  },
  {
    {0.183403879f, 0.0361376479f, 0.171375006f, -0.123794697f, 0.119102009f},
    {0.0609575734f, -0.0249388609f, 0.073829934f, 0.0827160031f, 0.161565259f},
    {-0.0697817504f, 0.158150285f, -0.0332828611f, 0.176137611f, 0.0332088731f},
    {-0.259625822f, 0.0815449581f, -0.0542264432f, 0.0252673477f, -0.0151277175f},
    {-0.143382445f, -0.0154655287f, -0.0595228374f, 0.125192493f, 0.106312662f},
    {0.230715066f, 0.323727161f, 0.113453239f, 0.186356857f, 0.0326733887f},
    {-0.0273525529f, 0.156921223f, -0.100610673f, 0.0413081385f, 0.0707537383f},
    {0.245419607f, -0.114351466f, 0.110573135f, -0.0432248637f, 0.178932324f},
    {0.0278526489f, -0.00272253039f, 0.102996282f, 0.222335875f, 0.177984834f},
  },
  {
    {-0.0279938746f, -0.0105155194f, 0.0489230305f, 0.0785387754f, -0.000362914259f},
    {-0.252731681f, 0.0445472188f, -0.290193886f, 0.0197391547f, -0.041920796f},
    {-0.276346326f, -0.196670473f, -0.109970272f, 0.0267749988f, -0.0722232983f},
    {-0.562189579f, 0.209623158f, 0.0163021907f, -0.0435916521f, 0.181951895f},
    {-0.164753988f, -0.263770014f, 0.0955735892f, 0.0340376049f, 0.128576264f},
    {0.0233929884f, -0.176723272f, -0.0372414254f, -0.105363406f, 0.205528691f},
    {-0.230708137f, -0.15179804f, -0.348422855f, 0.252288789f, 0.383179337f},
    {0.00700321468f, -0.147689164f, -0.0907800347f, -0.2251807f, -0.143911973f},
    {-0.0702427998f, 0.118699379f, 0.254215986f, -0.173265561f, 0.0695016384f},
  },
  {
    {0.108083069f, -0.0428716503f, -0.0782980248f, 0.050871592f, -0.135529384f},
    {0.251622766f, 0.160736099f, 0.323231637f, 0.349383265f, 0.0402505323f},
    {0.113416411f, 0.00408163853f, 0.0433056988f, -0.110288784f, 0.0610761829f},
    {-0.0366588384f, 0.0712941587f, -0.0894508809f, -0.180498362f, -0.00562393526f},
    {0.0635774359f, 0.0837565139f, 0.144618422f, 0.102319926f, 0.136138454f},
    {0.164004654f, 0.0700425804f, 0.0138116544f, 0.114913829f, -0.0807738751f},
    {0.148329616f, -0.078741774f, 0.0611226559f, -0.0748281181f, -0.043967098f},
    {0.0235175341f, 0.00504121277f, 0.20899044f, 0.0561047681f, 0.107243359f},
    {-0.0602727085f, 0.080402419f, 0.0909452736f, 0.11231786f, -0.138710201f},
  },
  {
    {-0.268316388f, 0.0236126296f, -0.0187754836f, 0.144349411f, -0.106959641f},
    {-0.220305339f, -0.0631229803f, -0.115830526f, -0.068367146f, 0.0903949589f},
    {-0.0233501513f, 0.0353506282f, 0.134726822f, 0.0971067548f, -0.0188403446f},
    {-0.0878272951f, 0.0383267254f, -0.289457142f, -0.0285871942f, 0.187570959f},
    {-0.160285279f, -0.0432259552f, -0.121044189f, 0.222259834f, -0.228069529f},
    {0.273262441f, -0.0732769221f, 0.0830725282f, -0.239007264f, 0.0388493575f},
    {-0.113708876f, -0.0955953971f, 0.211462572f, 0.0693517178f, -0.0730119571f},
    {-0.128515452f, 0.00210176548f, -0.00139300688f, -0.206115261f, -0.0417230539f},
    {0.144488692f, 0.0329379626f, 0.0532334335f, 0.142890766f, -0.0572249033f},
  },
  {
    {-0.126893431f, -0.26221773f, 0.202306181f, -0.15411754f, -0.125847906f},
    {-0.0228494685f, -0.0623881556f, -0.0981228054f, -0.199107736f, -0.0361246318f},
    {-0.07500761f, 0.130098701f, 0.0614413545f, -0.0577821098f, -0.0846515447f},
    {0.0695238486f, -0.0490951613f, -0.0431123413f, 0.0144133959f, -0.0614415519f},
    {0.0260284655f, -0.179012299f, -0.0467530042f, -0.0944648162f, 0.0228139963f},
    {-0.074266538f, -0.0396153554f, 0.21774067f, 0.0732462779f, 0.0596066006f},
    {0.0301182177f, 0.0943593681f, 0.0888669118f, 0.0690687075f, -0.0289121717f},
    {-0.348243058f, -0.0357951596f, -0.00439950358f, 0.0248181876f, 0.119571574f},
    {0.0618743002f, 0.0344932303f, 0.0542912968f, -7.82894203e-05f, 0.124462828f},
  },
  {
    {-0.000712589652f, 0.104524791f, -0.00608716067f, 0.207958877f, 0.280276686f},
    {0.121223889f, -0.156743005f, -0.0586126111f, -0.0537486374f, 0.180209801f},
    {0.0207315329f, -0.0813160688f, -0.250756383f, 0.329771191f, 0.152579695f},
    {0.0884024948f, 0.118490532f, -0.0526743084f, 0.0097133508f, -0.221529841f},
    {-0.00639900425f, -0.315609306f, -0.0461414009f, -0.0877738297f, 0.223997146f},
    {0.0285667684f, -0.0886088386f, 0.20769988f, 0.191516697f, 0.106215864f},
    {-0.18469353f, -0.115225293f, 0.195092916f, 0.109092452f, -0.198002905f},
    {-0.0499043949f, -0.0870926902f, -0.090126045f, 0.0491683632f, -0.104725048f},
    {-0.00159815873f, -0.0115125822f, 0.0536060669f, 0.153035656f, 0.0401962921f},
  },
  {
    {-0.18864204f, -0.141298264f, 0.0670865327f, 0.10671138f, 0.0858504847f},
    {0.306923807f, 0.0137825171f, -0.126455188f, -0.00452091172f, 0.233241037f},
    {-0.0502255745f, 0.0720886439f, -0.0468382724f, 0.0848208368f, 0.0361743644f},
    {0.0200438928f, 0.104931608f, 0.100579895f, 0.0910381302f, -0.0238168649f},
    {-0.0892553926f, 0.0994233787f, -0.0720460266f, 0.216734275f, 0.0640827045f},
    {-0.10883747f, -0.204093516f, 0.120108843f, 0.204297334f, 0.0240922961f},
    {0.0929375514f, 0.12182954f, -0.158925787f, -0.0954729915f, 0.358334035f},
    {0.0561559834f, -0.113567054f, -0.164472923f, -0.0231982451f, 0.0337054916f},
    {0.0707185566f, 0.327458531f, 0.143205404f, -0.116925195f, -0.0199663807f},
  },
  {
    {0.133028343f, 0.0274269395f, 0.0309626311f, 0.00407318212f, -0.0148268491f},
    {-0.00179155392f, 0.154589832f, -0.00715828128f, -0.180580184f, -0.135387167f},
    {-0.0329992585f, -0.235929087f, 0.0882445127f, -0.0728165209f, -0.241961837f},
    {0.177029312f, 0.223572373f, -0.279647052f, 0.0186254755f, -0.164356157f},
    {-0.0481999628f, -0.190152973f, 0.116515338f, 0.159184217f, -0.000701588753f},
    {0.0121168606f, 0.221361771f, -0.331788301f, -0.0733243749f, -0.264150798f},
    {-0.414281398f, 0.00388616091f, -0.0881718397f, 0.167699113f, 0.0516270958f},
    {-0.00276879291f, -0.244117051f, -0.0173473246f, -0.0310452878f, -0.0629399568f},
    {0.312682599f, -0.0652471557f, 0.0893689319f, -0.17915687f, -0.159019426f},
  },
  {
    {-0.0480628982f, -0.0789177567f, -0.0733962506f, -0.0629939139f, -0.101419128f},
    {0.0220332295f, 0.1427055f, -0.0325062834f, 0.10711842f, -0.173127577f},
    {-0.245277986f, -0.199050173f, -0.383130342f, -0.0940581635f, -0.0272108465f},
    {0.0956659243f, -0.0893705636f, 0.205221817f, 0.199429423f, 0.0650959685f},
    {0.143995911f, -0.053932257f, -0.0787268505f, -0.0318731293f, -0.0744647384f},
    {0.0804718509f, -0.00483064866f, -0.0162376333f, -0.0849372819f, 0.0695273206f},
    {0.0864906907f, -0.00253667403f, 0.173952565f, 0.158880398f, 0.170204401f},
    {0.171681926f, 0.0204569884f, 0.0310730431f, -0.067755349f, -0.0975826681f},
    {0.102719799f, -0.00320488028f, -0.0365253091f, -0.153693229f, -0.189870119f},
  },
  {
    {-0.362461954f, 0.0342762657f, 0.219581604f, -0.0256052185f, 0.305086315f},
    {0.0635306984f, -0.388532192f, -0.132253408f, 0.184673771f, 0.205256671f},
    {0.0826966465f, -0.0217765216f, 0.099169232f, -0.0516303256f, 0.05501654f},
    {-0.148534328f, -0.249162287f, 0.327165633f, 0.0885548815f, 0.24768658f},
    {-0.291082531f, -0.157958567f, 0.248120695f, 0.199180245f, -0.00382726849f},
    {0.0285101049f, -0.0425576568f, 0.0269892551f, 0.143931329f, 0.193973675f},
    {-0.0279694498f, 0.104014091f, 0.0898223072f, -0.00216077617f, -0.100606062f},
    {-0.100323841f, 0.14294298f, -0.081812799f, 0.0305827111f, -0.0644581616f},
    {-0.082122162f, 0.137239352f, 0.189816803f, -0.0954103395f, 0.188183278f},
  },
  {
    {-0.0527233519f, -0.0866239816f, 0.0940314308f, -0.0854321942f, 0.0367834382f},
    {0.2044909f, -0.127908394f, -0.0900386497f, 0.137102082f, 0.13468878f},
    {0.0896030813f, -0.0614934824f, -0.0744851232f, 0.143114671f, -0.0724420622f},
    {0.07038109f, 0.0742239207f, 0.00178368844f, 0.00692865951f, -0.0522089526f},
    {0.274157465f, -0.0571972914f, 0.29941377f, 0.0814159885f, 0.141611606f},
    {0.0866382271f, 0.123577468f, -0.00292805769f, -0.00150564895f, -0.0695673823f},
    {0.405600458f, 0.197727561f, 0.0909169912f, 0.00965251494f, -0.449337751f},
    {-0.162938431f, -0.153407872f, 0.290642858f, -0.310106486f, -0.492486328f},
    {0.0512485802f, -0.051989872f, 0.00666652527f, 0.136920691f, -0.0187061708f},
  },
  {
    {-0.19805254f, 0.0126982331f, -0.0761187673f, -0.0191535559f, -0.114540122f},
    {-0.105451241f, 0.211483538f, 0.237528101f, 0.0819711089f, -0.0147130024f},
    {0.150493518f, 0.171167582f, 0.09285409f, 0.205989316f, -0.00679333648f},
    {0.0512237437f, -0.164103463f, 0.107091963f, -0.368082464f, -0.00979629811f},
    {-0.358157247f, 0.0760689229f, -0.0721462667f, 0.0266287271f, 0.367675155f},
    {0.122099042f, -0.0348262377f, 0.05156596f, -0.17857106f, 0.140470773f},
    {-0.0931644812f, -0.174857333f, 0.164186716f, 0.0713827312f, -0.00812282972f},
    {-0.218482435f, 0.0461539887f, 0.165003523f, 0.146060124f, -0.0169507973f},
    {0.104150757f, 0.0427149422f, 0.183159798f, -0.295758426f, 0.110354289f},
  },
  {
    {-0.185183227f, 0.121600546f, -0.31886822f, -0.182019919f, 0.130353525f},
    {-0.138090312f, -0.192441672f, -0.201585457f, 0.112423487f, -0.0454133563f},
    {0.0741208345f, -0.00337259774f, -0.0140427575f, -0.145246968f, -0.193472385f},
    {0.0306300502f, 0.135780022f, -0.142592579f, 0.151677579f, 0.0819300339f},
    {0.415807515f, -0.0957868993f, 0.225726336f, 0.0739395767f, 0.194911644f},
    {-0.0516347997f, -0.0349693f, -0.0312968194f, 0.126324669f, 0.00099705311f},
    {-0.0283070896f, -0.280950904f, 0.0807139426f, -0.183208629f, 0.11777395f},
    {-0.217309251f, 0.0218982715f, -0.0644675419f, 0.0287827235f, 0.181118146f},
    {0.0141871497f, 0.0973309502f, -0.0615229271f, -0.072653316f, 0.317358613f},
  },
  {
    {0.0826282054f, -0.158471465f, -0.168213069f, 0.366620213f, 0.0348942056f},
    {0.117841013f, 0.110325471f, 0.0318203717f, 0.0528632551f, 0.117405869f},
    {-0.350144595f, -0.140982643f, 0.054809276f, 0.128414601f, 0.0282264501f},
    {-0.0214756783f, 0.058780998f, -0.00657327333f, 0.0995306373f, -0.0244405419f},
    {-0.0781136528f, 0.157164022f, -0.0344768614f, 0.176249444f, 0.13155213f},
    {-0.0410084799f, -0.0330515727f, -0.263940543f, -0.0425631516f, -0.0363693647f},
    {0.0206113458f, 0.0331647731f, -0.0655791834f, -0.0221390408f, -0.247540578f},
    {0.198076546f, 0.0127946744f, -0.148333505f, -0.0554240681f, -0.252988011f},
    {0.0319818482f, 0.0426662117f, -0.00281832111f, 0.112774067f, 0.189520255f},
  },
  {
    {0.0684651211f, -0.0416952297f, 0.140607595f, 0.099070996f, -0.102751233f},
    {0.0679684505f, 0.0680138916f, -0.0527641363f, -0.133837074f, -0.203697518f},
    {0.0639989525f, 0.0138856191f, -0.11560306f, -0.125862077f, 0.157873601f},
    {-0.25066182f, -0.332759678f, 0.261762887f, 0.148976341f, -0.0784441605f},
    {0.203000024f, -0.0929426253f, 0.262532711f, 0.100855276f, 0.0897259042f},
    {-0.228961408f, 0.194838136f, 0.036040362f, 0.108546421f, -0.310545266f},
    {0.0968883038f, 0.058652468f, 0.133480966f, -0.0686527044f, 0.0839595944f},
    {0.148864239f, 0.129935279f, 0.0811984167f, 0.211392552f, -0.0329402946f},
    {-0.105449192f, -0.0756597742f, 0.0231442358f, -0.0312683396f, -0.143872768f},
  },
  {
    {0.00165574963f, -0.0138726449f, 0.0339741148f, -0.0649649426f, -0.0957832932f},
    {-0.0155763067f, 0.080240272f, -0.0246322434f, -0.00915497728f, -0.156905606f},
    {-0.31695202f, -0.0256050229f, -0.000764715311f, 0.288208365f, 0.105087064f},
    {0.153150171f, 0.0951666087f, 0.13953726f, 0.0944171846f, 0.237650871f},
    {0.124823481f, -0.00170843769f, 0.218429357f, -0.34577769f, 0.0692553446f},
    {0.0822780132f, 0.125367135f, 0.0946684107f, 0.0313786827f, 0.00819236878f},
    {-0.0433998853f, 0.0583715439f, -0.00355809624f, 0.128542945f, -0.122480355f},
    {-0.0123536f, -0.0910539553f, 0.0141248917f, -0.0789849907f, -0.0207178723f},
    {0.234036118f, 0.15362975f, -0.15126808f, 0.0212380346f, 0.207136258f},
  },
  {
    {-0.0463140532f, 0.0354241058f, -0.00151710073f, -0.0247653667f, 0.0231730621f},
    {-0.344738603f, 0.100896105f, 0.205803543f, 0.12675184f, 0.15076308f},
    {-0.0498679765f, -0.0157085136f, 0.0875158682f, 0.0203804392f, -0.0563218482f},
    {-0.0649282709f, -0.0137638561f, 0.105546758f, -0.270693392f, -0.096945636f},
    {-0.00868214667f, -0.129777148f, -0.0461083502f, 0.0636689141f, 0.262369245f},
    {-0.0363563634f, 0.0468097404f, -0.167804614f, -0.0353406258f, 0.193579569f},
    {-0.120168053f, -0.0961757749f, -0.127641857f, -0.111882336f, -0.0906343758f},
    {-0.239245564f, 0.0846703574f, -0.180098578f, -0.260422975f, 0.0602615103f},
    {0.0965666994f, 0.0469559394f, -0.261026531f, 0.032384485f, -0.0336357057f},
  },
  {
    {0.497711211f, -0.150359005f, 0.0336950831f, -0.00946331676f, -0.0961422324f},
    {-0.12430115f, -0.157638177f, -0.0595693551f, -0.0980749652f, 0.215308338f},
    {-0.0983793139f, 0.0497319773f, 0.290412724f, -0.150430426f, -0.15264672f},
    {0.058965534f, -0.0764478669f, 0.0135323107f, -0.0944572315f, 0.562779129f},
    {-0.00248197746f, -0.10748715f, -0.0854575932f, -0.00207381835f, 0.152233779f},
    {-0.166873306f, -0.118693501f, 0.272566646f, -0.445126534f, 0.0808444172f},
    {-0.162132606f, 0.0228367224f, 0.00054005807f, -0.0854892433f, -0.18542546f},
    {-0.0900788978f, 0.128882974f, -0.0353390537f, 0.20937553f, -0.301768601f},
    {-0.0194223616f, 0.146850795f, 0.135349303f, -0.0994162336f, -0.0648065433f},
  },
  {
    {0.173539311f, -0.0487504341f, 0.143589571f, 0.0531467609f, -0.029276371f},
    {-0.0111493971f, 0.0341955386f, -0.149577811f, -0.0657824427f, -0.156946421f},
    {-0.1121585f, 0.0375426859f, 0.168695927f, -0.14225705f, -0.102146544f},
    {-0.258866817f, -0.18501696f, -0.174407333f, -0.245917529f, -0.139968857f},
    {-0.247674182f, -0.0565739796f, 0.183261007f, 0.0239838883f, -0.0096602682f},
    {-0.0893286839f, -0.0755865201f, 0.0198465642f, 0.00240857643f, 0.00401437283f},
    {0.117639542f, 0.0763256699f, -0.0371329486f, 0.037522722f, 0.0709884688f},
    {-0.069619365f, -0.0121401232f, 0.0549636036f, -0.161540896f, 0.0625575706f},
    {-0.0563011728f, -0.159554243f, 0.171154991f, 0.130290166f, -0.0549813285f},
  },
  {
    {-0.0267120972f, 0.263321877f, -0.202698797f, -0.0990175158f, 0.341003776f},
    {0.217601553f, 0.0102433711f, 0.0206878204f, -0.181485698f, 0.0342174955f},
    {-0.0905295834f, 0.169522434f, 0.0692277625f, 0.118934005f, -0.222637892f},
    {-0.167708412f, 0.0361015201f, 0.161582306f, -0.00405999552f, 0.23923032f},
    {0.0640272424f, 0.149812996f, 0.0647718012f, 0.108501419f, 0.0459560901f},
    {-0.0851713642f, 0.0582832582f, -0.0566630736f, 0.0189912021f, -0.130951643f},
    {-0.316429585f, -0.0394229591f, 0.171910375f, 0.109008953f, -0.0861224607f},
    {0.316827953f, 0.0112192631f, -0.168762013f, -0.100989088f, -0.133103207f},
    {-0.140467539f, -0.264239192f, -0.197769731f, 0.269831508f, 0.239229143f},
  },
  {
    {0.0575698912f, -0.258319259f, 0.0737254098f, -0.273985893f, -0.114367254f},
    {0.249012858f, 0.0992739499f, -0.0759413689f, -0.226236194f, -0.0839393586f},
    {0.06407056f, 0.284482598f, 0.100080594f, 0.109786183f, -0.0638115108f},
    {0.206521228f, 0.119396277f, 0.0880501941f, 0.163406283f, 0.182049677f},
    {0.0955284387f, 0.122546874f, 0.0534332246f, 0.199467048f, 0.0253103487f},
    {0.0320878886f, 0.0860622153f, -0.19017671f, -0.0752646253f, 0.0572764277f},
    {0.0359451622f, 0.143416598f, 0.0868609026f, 0.120402552f, 0.0102115506f},
    {-0.0496593192f, 0.075305447f, -0.0277986042f, 0.149482563f, -0.215512395f},
    {-0.0307968147f, 0.0566594712f, -0.104681246f, -0.055316858f, -0.171290979f},
  },
  {
    {-0.131666154f, 0.122352928f, -0.0566264875f, -0.151010543f, -0.201245457f},
    {-0.311602026f, 0.0333466381f, -0.0746945292f, 0.0195997264f, 0.213940799f},
    {0.0105516538f, -0.0436580591f, -0.235001966f, 0.0230071712f, -0.185921416f},
    {-0.194041759f, -0.0153291337f, -0.0468255877f, 0.0831353664f, 0.0552979372f},
    {-0.118040219f, -0.233286753f, -0.10859663f, 0.0321907513f, -0.0752164871f},
    {0.0432259068f, 0.126425996f, -0.066065684f, -0.0640963465f, -0.205901176f},
    {0.0401149839f, -0.153660312f, -0.107916489f, 0.0446733013f, 0.211696297f},
    {0.0997116417f, 0.200468212f, 0.0790809691f, 0.218205512f, -0.0145430667f},
    {-0.0274243727f, -0.291271895f, 0.0526146591f, 0.0821486935f, 0.0404344127f},
  },
};

static const float kStemBias[26] = {0.0540441163f, 0.184801772f, 0.0767804831f, -0.107312381f, 0.114732236f, 0.0965090096f, -0.00235149637f, 0.199637726f, 0.215310961f, 0.0344017446f, 0.160169989f, -0.0611534901f, -0.0548943952f, 0.120527335f, -0.00470049679f, 0.0658494085f, -0.0990535915f, -0.0886602253f, -0.113624513f, 0.118361264f, -0.253899843f, -0.0960951746f, 0.0592413023f, -0.167976335f, -0.0545424186f, 0.152301013f};

static const float kPatchDepthwise[26][16] = {
  {0.0424274914f, 0.131490394f, -0.00369771803f, 0.023676144f, 0.03980482f, 0.00753343431f, 0.0581214726f, -0.0230696071f, 0.0972666889f, -0.0928311646f, -0.026429344f, -0.0590416752f, 0.0232934933f, 0.0435215794f, 0.0150620388f, -0.141849265f},
  {0.109805956f, 0.0766808912f, 0.0362093411f, 0.0907710642f, 0.210240468f, -0.00829023868f, 0.0529243983f, 0.0101916259f, 0.107504867f, 0.0994679853f, 0.000297293009f, 0.00128980237f, -0.0627565235f, -0.011415571f, -0.0107975844f, 0.0935162082f},
  {-0.0413725413f, 0.06863451f, 0.0243682899f, 0.00367792649f, -0.0497325063f, -0.120443054f, -0.020122325f, 0.00874043815f, -0.0319737904f, 0.0130314128f, 0.0290380437f, 0.0361016877f, 0.0298351925f, -0.0499830283f, -0.102706172f, -0.0414461233f},
  {-0.0460318625f, 0.117353685f, 0.115984738f, 0.049233783f, 0.0791446269f, 0.0160448737f, -0.00899719074f, -0.0154847875f, 0.0103836264f, -0.132002279f, 0.0169059373f, 0.0326171219f, -0.0384273343f, 0.00717663066f, 0.057690233f, -0.0773061439f},
  {0.0812432989f, 0.12564455f, 0.0890636966f, -0.107899532f, -0.174269542f, -0.103490956f, -0.0592112951f, -0.00794096757f, 0.060830649f, -0.0021920891f, 0.024918342f, 0.0916600898f, 0.00584863452f, 0.0372986384f, 0.0370236561f, 0.109257117f},
  {0.147799194f, -0.0461248197f, -0.0512094051f, -0.0366499424f, -0.0853200555f, 0.0877204016f, 0.209624395f, -0.0548833199f, -0.138197124f, -0.0390651375f, -0.00350364554f, 0.0129243275f, -0.000120139812f, 0.0493570715f, 0.0206597336f, -0.0909301341f},
  {0.0751156136f, 0.139494658f, 0.135498434f, 0.0432636365f, -0.0530702583f, 0.100302264f, 0.0446130075f, 0.084861733f, 0.0635708719f, 0.0867365077f, -0.0621983372f, -0.049571991f, 0.0155575043f, 0.0642530099f, 0.0491062701f, -0.0160059743f},
  {-0.128554985f, -0.00609274674f, 0.144788101f, -0.103992581f, -0.0416215137f, 0.0720997751f, 0.17924352f, 0.00155080308f, 0.0984259322f, -0.0295843352f, 0.00920290127f, -0.0138252294f, 0.0639526322f, 0.00195868267f, 0.0617007203f, 0.0670432672f},
  {0.0320473276f, -0.0669940636f, 0.0243325029f, 0.0591391549f, -0.0308133047f, 0.0998190865f, 0.0280266907f, 0.0523213781f, 0.0788825378f, -0.15971002f, -0.0116543761f, -0.0354892574f, 0.11702279f, -0.00343840616f, 0.13902548f, -0.077684395f},
  {0.0259440467f, 0.0655190125f, -0.0206325185f, 0.0250872876f, 0.0248778742f, -0.0397529192f, -0.0528636612f, -0.00889232103f, -0.050407242f, 0.0674098879f, -0.0530971214f, -0.081784986f, -0.0643683374f, -0.0539299063f, 0.0949632451f, 0.0125007834f},
  {0.0194179956f, -0.0588267446f, -0.0367050283f, 0.0506561771f, 0.0742766336f, 0.169560507f, -0.0545065477f, -0.116884664f, -0.03332638f, 0.0019680697f, -0.0443048067f, -0.0107742976f, 0.00977039244f, 0.0314856358f, -0.00527563831f, 0.00631822459f},
  {0.05042281f, -0.229938418f, -0.0559032485f, 0.0329569057f, 0.103886694f, 0.041595336f, -0.0705836564f, -0.0418055952f, -0.0838753805f, -0.0618117265f, -0.0243510958f, 0.154525295f, -0.0316535644f, -0.0858574435f, 0.0631323904f, 0.111750126f},
  {0.0121799363f, 0.0757888034f, 0.0147293974f, 0.0619710833f, 0.00885051582f, -0.0582128726f, -0.027301345f, 0.0181019027f, 0.0935796574f, 0.0247353408f, 0.0129797813f, -0.0203138161f, 0.134428144f, 0.0519949421f, 0.0909311026f, -0.00503620785f},
  {-0.0371584594f, 0.0546405353f, 0.052897308f, 0.00974959787f, 0.0848299041f, -0.0690047741f, 0.0359705612f, -0.098344624f, -0.0268658064f, 0.133729815f, 0.10732995f, 0.046468921f, 0.0675382316f, -0.170908064f, -0.119919233f, 0.127482831f},
  {0.0413026176f, -0.0932135507f, 0.096582979f, -0.0906629041f, -0.183492616f, -0.0920683816f, -0.0641556084f, 0.0371712372f, 0.0881462023f, 0.0159600526f, 0.124437109f, 0.109150939f, 0.0697424561f, 0.0297555197f, -0.103825301f, -0.0830230415f},
  {-0.042862203f, 0.0758069977f, -0.00799011625f, 0.0261520557f, 0.0836115032f, 0.0719852298f, -0.00992548186f, -0.0839198828f, 0.0313906223f, -0.0617834069f, 0.0179035384f, 0.0919549093f, 0.0508769825f, 0.0351996683f, -0.0855480358f, 0.0500183515f},
  {-0.0936019421f, 0.00783498492f, 0.0718050599f, 0.168973297f, 0.0298467148f, 0.064484477f, 0.0578990579f, 0.158229753f, 0.0382834114f, 0.106002763f, 0.0172399785f, 0.133082256f, 0.0332458429f, 0.0914647132f, -0.113070108f, -0.0204810668f},
  {-0.0444163755f, 0.0166448019f, 0.00853100885f, 0.0303086285f, -0.0123340702f, 0.000126353203f, 0.0738163739f, -0.0498813912f, 0.0211365484f, 0.128872812f, 0.0955646634f, -0.027096916f, 0.043068707f, 0.0031648553f, 0.0737096667f, 0.09439262f},
  {0.0334951319f, 0.113676161f, 0.006815203f, 0.00376992347f, 0.0156978015f, -0.078755483f, -0.045674134f, -0.00844058022f, 0.00571322767f, 0.077609539f, 0.120499372f, 0.063524425f, 0.0931152925f, 0.0878723636f, 0.0787032992f, 0.0207449552f},
  {-0.0229389109f, -0.113558836f, -0.132628605f, -0.00852227211f, 0.0340987258f, -0.0650211051f, 0.0848126337f, -0.156806633f, -0.0227453969f, -0.090633221f, 0.000188084392f, 0.157536447f, 0.0103711169f, 0.0121401837f, 0.0294064786f, -0.0351304784f},
  {-0.0836697444f, -0.00911243074f, -0.0297174901f, -0.00491123646f, -0.0871222988f, 0.0656095371f, 0.119943194f, -0.0828993246f, 0.00251179724f, -0.0740790144f, 0.120274469f, -0.0470276177f, -0.00528918998f, 0.0569133461f, 0.00165593275f, 0.0449573472f},
  {-0.0603862405f, -0.0460146181f, -0.0201498587f, -0.106971569f, 0.00373128289f, -0.0481578708f, -0.0840629265f, -0.102923296f, 0.0668199658f, 0.00892452244f, 0.0326557569f, -0.0310007948f, -0.0376473181f, -0.0293660872f, 0.0197976325f, 0.0102398014f},
  {-0.0118426951f, 0.0120904241f, -0.0191975888f, -0.00950287748f, 0.0219752789f, 0.025392253f, 0.0643744543f, 0.0398972258f, -0.0547658987f, -0.164480194f, -0.0836531296f, 0.0387854204f, -0.0204730034f, -0.0599779263f, 0.068540059f, 0.0372427292f},
  {-0.137107372f, 0.0121869296f, 0.0910896286f, -0.029088011f, 0.0444326662f, -0.0653769523f, -0.101343066f, 0.0825385228f, -0.010790797f, -0.0335312746f, -0.126877248f, -0.0683871657f, 0.0409530364f, 0.065599829f, -0.0709185153f, -0.0397151187f},
  {-0.0256642383f, -0.0535275042f, 0.0405326895f, -0.083043851f, 0.0423385762f, -0.063942574f, 0.0631365776f, 0.092435196f, 0.0737477913f, -0.0150043825f, 0.148022339f, 0.0199779514f, 0.0624629296f, 0.049230393f, 0.0762255862f, 0.0267741065f},
  {-0.0659228116f, 0.0145182703f, 0.0468523167f, 0.0735931844f, 0.041596666f, 0.0269399863f, 0.0152923306f, -0.115984417f, -0.0489361882f, 0.0833963156f, 0.0225582197f, -0.0246616285f, -0.0110530648f, 0.0877037346f, 0.00591914728f, -0.100458555f},
};

static const int8_t kPatchPointwiseQ[26][26] = {
  {-32, 15, -29, -43, -16, -91, 5, -91, -74, 14, -18, 30, -25, -98, 51, -15, 3, 8, 113, 127, -45, -8, -44, -2, 13, -34},
  {4, 45, -69, -57, 70, 78, -15, 98, 20, -28, 0, 64, -63, 26, -127, -10, 117, -60, 6, -86, -50, 24, -10, -42, -5, -38},
  {34, -6, -20, -37, -12, -16, 32, 6, -16, -25, 81, 22, 4, -8, 37, 25, -75, -10, -46, -15, -46, 84, 127, -60, -32, 12},
  {-17, 70, 21, -4, 98, -41, 47, 28, -68, -38, 127, 52, 4, -46, -45, -1, 20, 93, -33, 7, 41, -48, 14, 49, -39, 20},
  {-1, -57, 51, -4, 96, 44, -29, 19, 39, -8, -6, -49, 3, -95, 2, -118, 23, 127, -50, 115, 4, -34, 65, -114, -52, -115},
  {-102, 106, -13, 34, 1, 127, -85, 84, 50, 28, -51, 52, -108, -57, -72, -65, -83, -9, -89, -14, -5, -3, 89, 71, -42, -16},
  {66, -86, -7, -84, -44, -8, 93, -24, 27, 28, 26, 98, 1, 29, 93, 127, -2, 38, 37, -21, 4, -60, -53, 48, 111, 7},
  {-37, -44, -62, -42, -2, 51, 126, 49, -58, 55, -38, -127, 24, 5, -65, -65, 25, 8, 56, 20, 1, -91, -23, -12, 44, -15},
  {53, -124, -70, 27, 35, 80, 32, -12, -53, -30, -74, -100, 127, -92, -84, -97, 64, 0, -86, 19, -17, 11, -2, -21, -9, -24},
  {0, 127, -68, 50, 8, 16, -43, -23, 68, -42, -16, -27, -20, -3, 15, -31, -30, -10, 10, -55, 62, 16, -13, 41, 3, -25},
  {-51, -18, 34, 19, -27, 19, 64, -38, 0, 64, 19, -4, -33, 10, 37, -27, -100, 127, 10, -61, 17, -31, 44, -13, -78, 15},
  {-33, -14, 99, 4, -9, 83, -55, 33, -61, -91, 54, 54, -19, -63, 20, -110, -54, -36, 64, 84, 52, -127, -84, -68, -87, 113},
  {127, 47, 113, -73, 61, -82, 19, -13, -26, -25, 124, 65, 17, -48, -73, -97, 42, 4, 94, -19, -14, 43, -68, -23, -119, -66},
  {20, -6, -31, 62, 38, 66, -52, -16, 1, 45, 28, 14, -28, -45, 127, 7, -2, -10, 32, -26, -67, 36, -40, 3, -6, 31},
  {-19, 27, -41, -102, 2, -127, -61, 44, -33, -34, -56, 19, -39, 73, 4, 74, 49, -12, 44, 27, -14, -6, 14, -9, 42, 23},
  {29, -1, 127, -60, -5, -88, -59, 37, 69, 10, -79, -54, 36, -51, 77, -8, -39, 45, 35, 28, 16, 19, 76, 29, -122, 11},
  {15, 74, -39, 14, 127, 37, -25, -19, 6, 29, 59, -17, 33, -25, 8, 23, 13, -11, 27, -6, -34, -8, 4, 10, 13, 30},
  {-3, -13, -37, -34, 22, -30, -26, 44, 113, -10, -8, 27, -15, -73, 92, 110, -12, -22, -13, 14, 17, -23, -75, 68, 127, 27},
  {3, 18, 21, 17, 122, -75, -52, -56, 73, 6, -5, -64, 87, 108, 73, 82, 127, -85, 56, -59, -42, 8, -80, 46, 8, 1},
  {-44, -26, -24, 32, -5, 2, -83, -20, -38, -54, 24, 55, 11, 127, -17, 49, -5, 49, 32, -20, -46, -103, -21, 71, 58, -117},
  {-106, -48, 51, -58, 116, -13, 62, 43, 34, 39, -9, 60, -78, -78, 7, -127, -81, 20, -41, 56, -50, -73, -22, -59, -35, -30},
  {103, -15, 71, 10, 71, 48, 54, 41, 41, -119, 11, 8, 28, 40, 25, 21, 16, 41, -44, -56, 7, 4, 12, 63, -127, -13},
  {-39, 25, 18, -48, 12, 51, -21, -63, 78, 28, -20, -31, -49, 127, -93, -1, 28, 3, 47, 32, -5, -100, 16, -58, -45, 89},
  {3, -15, 43, -31, -68, 44, -8, -21, 22, -46, 34, -56, -19, -26, 12, -42, -23, -42, -23, 32, 127, -7, -70, -60, -27, 18},
  {-70, 44, 41, 47, 44, 14, 24, -53, 32, -20, -61, -62, 44, 1, 65, 1, -23, 19, -4, -127, -10, -62, 19, -36, -52, -31},
  {-6, 48, -28, 42, 47, 76, 2, 26, -127, 55, -57, 25, -8, -69, -87, -27, 33, 13, 117, -45, -10, 51, 87, -38, 75, 3},
};

static const float kPatchPointwiseScale[26] = {0.0129755503f, 0.0137761813f, 0.0230144821f, 0.0205052663f, 0.0134439897f, 0.00951450691f, 0.0140101044f, 0.0137072476f, 0.0129315509f, 0.0131448768f, 0.0227207765f, 0.0141704259f, 0.0194124524f, 0.0250676535f, 0.0195529219f, 0.0206231698f, 0.0227435678f, 0.0181415584f, 0.0147405351f, 0.0219952371f, 0.0174641646f, 0.0202856306f, 0.019866379f, 0.0254786704f, 0.0199723039f, 0.0192315243f};

static const float kPatchBias[26] = {0.0272462741f, -0.426988065f, 0.46713078f, -0.3829301f, 0.178717896f, 0.312852591f, -0.251147449f, -0.468480736f, 0.10374099f, -0.132853091f, 0.183276892f, 0.27252692f, -0.261216849f, 0.220456004f, -0.231511623f, 0.459525317f, -0.432355344f, -0.106070697f, -0.483360231f, -0.0475154072f, 0.411309987f, -0.135663167f, -0.314248681f, 0.423254758f, -0.268957883f, -0.566210449f};

static const float kPosEmbed[1][15][26] = {
  {
    {-0.0408214144f, -0.0267668888f, -0.010047297f, 0.0299544483f, -0.020589659f, -0.0666833594f, 0.0326234996f, 0.0827480629f, 0.0415348597f, 0.0431693271f, -0.0265168753f, -0.0516302288f, -0.0365345702f, -0.0435496047f, 0.00554411719f, -0.0253747944f, -0.0155972801f, 0.0119337188f, -0.0158564989f, 0.0129087642f, 0.0145759322f, 0.0101576122f, -0.0012578665f, 0.00939335488f, 0.017880341f, -0.00889912713f},
    {-0.0495263971f, 0.0156216314f, -0.0343614258f, 0.0364129655f, -0.0104341265f, -0.0658014715f, 0.0471161008f, 0.0409687236f, 0.00833173655f, -0.00739698112f, -0.00763521995f, -0.0260936134f, -0.016327193f, -0.00693253521f, 0.0544277094f, -0.0146348579f, -0.00953971408f, -0.00615599984f, -0.0250816867f, 0.0299160834f, -0.00311219832f, 0.0154855782f, 0.00136530923f, -0.0236229803f, 0.0309883542f, -0.0268317051f},
    {-0.0505577289f, -0.0056305686f, -0.0287237614f, 0.0392286144f, -0.00192466192f, -0.0293391664f, 0.0507573932f, 0.0237408038f, 0.0026376415f, -0.000337827922f, 0.0020880443f, -0.0201940499f, -0.0266790073f, -0.00253369217f, 0.0384355634f, -0.0297213774f, -0.00526243821f, 0.00272761402f, -0.0304703414f, 0.0317524038f, -0.00159754022f, 0.00930882711f, -0.00129196618f, 0.00522653898f, 0.01997949f, -0.0190989561f},
    {-0.0348179229f, -0.0216836594f, -0.013472016f, 0.0289439727f, 0.00299759069f, -0.0182574615f, 0.0315331854f, 0.0102056339f, -0.0192476064f, 0.00429979013f, -0.00747316889f, -0.0192113239f, -0.0321883038f, -0.00759332068f, 0.0329006501f, -0.0282366294f, 0.0021142459f, 0.0166595746f, -0.024800254f, 0.0168909207f, -0.0133286472f, -0.0157085061f, 0.0197142195f, 0.0312658362f, 0.00858885143f, -0.0168636777f},
    {-0.0206246469f, -0.0192433372f, -8.94729601e-05f, 0.0248470586f, 0.000960587291f, -0.0355164483f, 0.0121534662f, 0.0213235039f, -0.0425666608f, 0.000624856213f, -0.0250669215f, -0.0129169552f, -0.0059788418f, 0.0028298425f, 0.0366698802f, -0.00242136489f, 0.0149211278f, 0.0228099898f, -0.00336251804f, 0.0242071673f, -0.00999026652f, -0.028160315f, 0.0340195261f, 0.0163655039f, 0.0235108882f, -0.0122515513f},
    {-0.0081189787f, -0.0267712846f, -7.87001318e-06f, 0.0269556493f, -0.00989186205f, -0.0327376351f, 0.00365873612f, 0.0461801551f, -0.0413281992f, 0.00398025895f, -0.0292000361f, -0.0108561646f, 0.0163997412f, 0.0160215106f, 0.0316238552f, 0.0183956698f, 0.0156643204f, 0.0187325254f, 0.00897758361f, 0.0455526151f, 0.00938901212f, -0.0178981628f, 0.0226743538f, 0.0129986322f, 0.0385429114f, -0.00891202502f},
    {0.0242439527f, -0.0492626838f, -0.0161466673f, 0.0124458838f, -0.0234379265f, 0.019530708f, -0.0100990105f, 0.0294506066f, -0.028404098f, 0.0105170636f, -0.00616146345f, -0.0183804352f, -0.023394173f, 0.000596320548f, 0.0298249386f, 0.00507053453f, -0.0136113549f, 0.00615497911f, -0.0220330283f, 0.0214311387f, -0.0019373023f, -0.0159802958f, 0.0146940397f, 0.0822334141f, 0.000686822168f, -0.0314533189f},
    {0.0357814021f, 0.0075493427f, 0.0159279332f, 0.0259685535f, -0.0175600201f, 0.0119939167f, -0.0160689503f, 0.0124725439f, -0.0477509238f, 0.0167901758f, 0.0287372172f, 0.0359026864f, -0.0307698827f, 0.00692264596f, 0.00829443242f, -0.00477741659f, -0.0144576123f, -0.00740423659f, -0.0385654643f, -0.000412642432f, 0.0124100558f, -0.0219652634f, 0.0174893029f, 0.0172641091f, -0.0143232774f, -0.0231470354f},
    {0.00818940438f, -0.0033378331f, -0.00968280435f, 0.00893765315f, -0.0365156308f, 0.0381426513f, -0.032851357f, 0.00481417496f, -0.00558989542f, 0.0416431613f, 0.0245783795f, 0.0219596624f, 0.0113289654f, 0.00817840081f, -0.0152841303f, 0.0378118567f, -0.00070917065f, -0.000288320269f, -0.0034285211f, -0.000433844456f, 0.0436639786f, -0.0391914919f, -0.0271118935f, 0.0553897731f, 0.0227323789f, 0.00386271579f},
    {-0.0107998298f, 0.0114535475f, -0.000637231919f, 0.00797673222f, -0.0423874184f, 0.0307011995f, -0.0307357572f, 0.00450540381f, 0.000726382132f, 0.0598350689f, 0.0598049276f, 0.0111404955f, -0.0133634964f, -0.0148010198f, -0.018063359f, 0.00966298673f, 0.0284153465f, -0.0259468742f, 0.0122973658f, -0.0118175298f, 0.00495115388f, -0.0080658095f, -0.0130191976f, -0.00939221401f, 0.0715095773f, -0.0109069468f},
    {-0.0403437801f, -0.00658340752f, -0.0298074093f, 0.0119310934f, -0.0050079627f, 0.046006944f, -0.0302868541f, 0.0118214516f, -0.00835935399f, 0.0600786172f, 0.0513842069f, 0.0158218574f, -0.0331599936f, -0.0157710351f, 0.00231612753f, -0.0131792082f, 0.0109169139f, -0.0267791711f, 0.00789330434f, -0.00560069224f, -0.0309877992f, 0.0121883499f, 0.00277141319f, -0.0397846512f, 0.0740165636f, -0.0189706013f},
    {-0.0351985209f, -0.00456410134f, -0.0325812399f, 0.0106016379f, 0.0124055147f, 0.0398724377f, -0.00947809964f, 0.00664502289f, -0.00491885236f, 0.0591837615f, 0.0538994223f, -0.00598997856f, -0.0246643312f, -0.0170028172f, -0.0141115487f, -0.0259591397f, -0.0113698449f, -0.028665917f, -0.0132754622f, 0.000135330643f, -0.00996858999f, 0.0209954828f, -0.00216601999f, -0.0514874011f, 0.06501472f, -0.0143752815f},
    {-0.0224466398f, 0.0216955785f, -0.00532658212f, 0.0219483431f, -0.00727437763f, 0.0114100734f, 0.0121049825f, -0.00295766164f, 0.0050135632f, 0.0594568588f, 0.0660111755f, -0.0398014486f, -0.0127724484f, -0.0454463102f, -0.0414277799f, -0.014700328f, 0.00714089209f, -0.0275731236f, -0.0204167441f, -0.00182155485f, 0.0255976077f, 0.0321194269f, -0.00571634853f, -0.0553292483f, 0.0703695714f, -0.0102285119f},
    {-0.0286033135f, 0.0276026186f, -0.0102124121f, 0.052296374f, -0.0218333304f, -0.00608814089f, 0.0194754396f, 0.00296320044f, 0.00355077209f, 0.0437782742f, 0.0568034239f, -0.0360562466f, -0.0211854186f, -0.0757938772f, -0.0240760334f, 0.017045835f, 0.0371996909f, -0.0160740409f, -0.00957211666f, 0.00749311782f, 0.012227484f, 0.0366721191f, -0.00121371739f, -0.0355739146f, 0.0715259239f, -0.0239362679f},
    {0.039194271f, 0.00605119625f, -0.0665733442f, 0.0503345504f, 0.00219211308f, -0.0231706332f, 0.0742193907f, 0.0134750362f, 0.00469891634f, 0.00105968979f, 0.0768964663f, 0.00223478582f, -0.0207185317f, -0.0263461061f, -0.00867215358f, -0.00056976307f, -0.0278942138f, -0.0502944887f, -0.0528883114f, 0.0497334972f, -0.0110135758f, -0.00217791251f, -0.0497458726f, -0.00415158132f, 0.0312054139f, -0.0627235994f},
  },
};

static const float kLayer0PreNormWeight[26] = {0.965937972f, 0.972810388f, 1.05077624f, 1.0172621f, 1.04475999f, 0.947449148f, 1.09619808f, 1.10638189f, 1.09452462f, 0.990089118f, 1.08614552f, 0.982391477f, 1.09382796f, 1.11793327f, 1.06641459f, 1.04339635f, 0.984923363f, 0.990828633f, 1.04251301f, 1.10025358f, 0.983753026f, 1.03020298f, 1.09568858f, 1.01369786f, 1.0020262f, 1.08664751f};

static const float kLayer0PreNormBias[26] = {0.00516409427f, -0.0184038114f, 0.0479147658f, -0.00266898121f, 0.00344087998f, -0.0245251544f, 0.0304984115f, -0.0110764522f, -0.0148092248f, -0.0223270841f, -0.0210018251f, 4.50144444e-06f, 0.0331055857f, -0.0683827996f, 0.0105961729f, -0.00369520881f, -0.0120261628f, 0.00414621364f, -0.0176257882f, -0.0209217649f, 0.0307764038f, -0.0204102881f, -0.0438879505f, 0.0224738941f, -0.0136251524f, -0.021865854f};

static const float kLayer0PostNormWeight[26] = {0.932193637f, 0.967985213f, 0.952968895f, 0.901441455f, 0.935996294f, 0.97583884f, 0.934806347f, 0.964508712f, 0.915219069f, 0.956310451f, 0.912183702f, 0.950747192f, 0.962187171f, 0.92718935f, 0.956747472f, 0.943508327f, 0.966363251f, 0.937659442f, 0.975195944f, 0.971457362f, 0.960764408f, 0.974771321f, 1.00433695f, 0.938426137f, 0.934477091f, 0.960331559f};

static const float kLayer0PostNormBias[26] = {-0.00255832542f, -0.00499111414f, -0.0143364808f, -0.00114412315f, -0.011416005f, -0.0136212185f, 0.0155705931f, 0.0128665408f, -0.0187408961f, 0.000991303939f, 0.00803392287f, 0.0123118218f, 0.0108212065f, -0.00270573981f, 0.0177053679f, -0.00397782354f, -0.0128023438f, -0.0136532597f, -0.00385691226f, 0.00890892744f, 0.0330123305f, -0.0137623278f, 0.0206442848f, 0.010610153f, 0.0212320611f, -0.0215482805f};

static const float kLayer0ALog[52][8] = {
  {-0.0256116129f, 0.691274464f, 1.0826273f, 1.3434391f, 1.57485414f, 1.76901495f, 1.89442813f, 2.02919579f},
  {0.0385422148f, 0.703166008f, 1.0968374f, 1.37441218f, 1.59150732f, 1.76473153f, 1.9112463f, 2.0317266f},
  {-0.0423508398f, 0.620945692f, 1.01688719f, 1.29731429f, 1.51539183f, 1.69747913f, 1.85352218f, 1.98713064f},
  {0.0308075324f, 0.696197569f, 1.09100139f, 1.36947286f, 1.59308994f, 1.77189016f, 1.91383982f, 2.04392791f},
  {0.00635877997f, 0.670618236f, 1.06134582f, 1.34313643f, 1.55725622f, 1.72897196f, 1.88135529f, 2.00369024f},
  {-0.00465104496f, 0.659364343f, 1.04986572f, 1.3239038f, 1.5413816f, 1.71855688f, 1.86335886f, 1.99587178f},
  {-0.0435013957f, 0.626585662f, 1.02318847f, 1.29943907f, 1.52301562f, 1.70001948f, 1.84686744f, 1.98516309f},
  {0.0154434536f, 0.679589689f, 1.06777751f, 1.34542537f, 1.55646622f, 1.72288978f, 1.87306333f, 1.99652851f},
  {-0.00762879569f, 0.661056578f, 1.06559348f, 1.37122047f, 1.56166995f, 1.66728973f, 1.8661443f, 1.94892979f},
  {0.0267408788f, 0.684075534f, 1.07213485f, 1.34555364f, 1.56574166f, 1.74138832f, 1.88788736f, 2.01876712f},
  {0.0398354232f, 0.699844837f, 1.08791399f, 1.36580479f, 1.5799067f, 1.75184286f, 1.89849222f, 2.01902747f},
  {-0.0318212956f, 0.617430508f, 1.0137285f, 1.29498053f, 1.50344217f, 1.68837774f, 1.83640265f, 1.98330009f},
  {-0.0797274411f, 0.587909877f, 0.982189357f, 1.26191556f, 1.47977483f, 1.66452265f, 1.81430125f, 1.95167136f},
  {0.00470966287f, 0.713969588f, 1.09523356f, 1.37288141f, 1.59467816f, 1.77473295f, 1.906299f, 2.04138374f},
  {-0.0304054897f, 0.639879525f, 1.03785563f, 1.31757796f, 1.53890049f, 1.72033119f, 1.87067604f, 2.00316453f},
  {-0.0167337507f, 0.653819919f, 1.05546916f, 1.33425534f, 1.55518091f, 1.73125684f, 1.87763727f, 2.00448275f},
  {0.0423541963f, 0.706579089f, 1.11259294f, 1.39452183f, 1.62466013f, 1.80278337f, 1.94992864f, 2.07817459f},
  {-0.0406999439f, 0.627269506f, 1.01390088f, 1.28183711f, 1.50465465f, 1.67822981f, 1.83172214f, 1.9680537f},
  {-0.00524059823f, 0.679218471f, 1.07223022f, 1.3512423f, 1.57938468f, 1.76076078f, 1.90007937f, 2.02817678f},
  {0.0503326766f, 0.715621769f, 1.11229706f, 1.38614547f, 1.60216761f, 1.78066146f, 1.91962039f, 2.04315066f},
  {-0.116394825f, 0.568471193f, 0.963089287f, 1.24079537f, 1.46383274f, 1.64666104f, 1.7946161f, 1.93505061f},
  {0.0807669833f, 0.814786851f, 1.20331287f, 1.49357879f, 1.6981647f, 1.85749626f, 1.9922272f, 2.0926857f},
  {-0.0175798256f, 0.667685866f, 1.05466735f, 1.34361076f, 1.55492747f, 1.74124825f, 1.88134134f, 2.01138258f},
  {0.0268711094f, 0.705110729f, 1.08989644f, 1.37056863f, 1.59411037f, 1.77744091f, 1.91562092f, 2.04644656f},
  {-0.0283636488f, 0.681232333f, 1.06127465f, 1.309214f, 1.55087924f, 1.73433805f, 1.86539042f, 2.00246763f},
  {0.00664531626f, 0.673030794f, 1.0658685f, 1.34099531f, 1.559021f, 1.73468161f, 1.88168895f, 2.00609517f},
  {-0.00535607943f, 0.645952165f, 0.963558316f, 1.26542866f, 1.49239314f, 1.68373573f, 1.82416058f, 1.96148968f},
  {0.0372108147f, 0.712069273f, 1.10530162f, 1.37307489f, 1.59922874f, 1.77718806f, 1.91749156f, 2.04029274f},
  {-0.109240934f, 0.557046473f, 0.954538167f, 1.24209726f, 1.46578658f, 1.65276015f, 1.81105649f, 1.95114017f},
  {0.0409648232f, 0.700882852f, 1.08775198f, 1.36967444f, 1.58808064f, 1.765504f, 1.90240228f, 2.02344871f},
  {-0.00733929081f, 0.683795691f, 1.0908078f, 1.37402785f, 1.58352828f, 1.75089908f, 1.89974177f, 2.00961423f},
  {0.0117586814f, 0.683842897f, 1.07841861f, 1.3541472f, 1.58187711f, 1.7583977f, 1.90247118f, 2.03326178f},
  {0.0142754335f, 0.684980154f, 1.07022548f, 1.35072911f, 1.56748784f, 1.73702478f, 1.88471425f, 2.00709105f},
  {0.0219395682f, 0.691996217f, 1.08164966f, 1.36254311f, 1.57970858f, 1.75789058f, 1.89977717f, 2.02090311f},
  {0.0844897255f, 0.739401877f, 1.10310662f, 1.38141036f, 1.59711504f, 1.76225507f, 1.90774012f, 2.02547503f},
  {0.0485405736f, 0.718339324f, 1.11335218f, 1.38138688f, 1.60072517f, 1.77525365f, 1.91281641f, 2.03427458f},
  {-0.038388662f, 0.621822119f, 1.00478792f, 1.28587878f, 1.50825858f, 1.69978046f, 1.8469727f, 1.98690367f},
  {-0.0883060247f, 0.590878665f, 0.980475128f, 1.25874841f, 1.48603761f, 1.66728199f, 1.81711471f, 1.95901358f},
  {0.049478244f, 0.714592874f, 1.10044527f, 1.38005662f, 1.59900582f, 1.77240562f, 1.91931343f, 2.04060721f},
  {0.0257383194f, 0.693185747f, 1.08877659f, 1.36735678f, 1.58610046f, 1.76909757f, 1.91176188f, 2.04183602f},
  {-0.0289468784f, 0.662366033f, 1.07884264f, 1.34994924f, 1.57769167f, 1.74255323f, 1.90208709f, 2.02929449f},
  {0.0024838713f, 0.707510054f, 1.10692835f, 1.38800669f, 1.60765588f, 1.80004513f, 1.92972612f, 2.04918265f},
  {-0.00832179748f, 0.654687166f, 1.04826212f, 1.32520878f, 1.54685009f, 1.72503078f, 1.87032032f, 1.99880695f},
  {-0.0306602381f, 0.622441471f, 1.02118814f, 1.30448878f, 1.52189839f, 1.70639575f, 1.8593576f, 1.99331105f},
  {0.0338416994f, 0.699122608f, 1.09666479f, 1.36795986f, 1.58855784f, 1.76546216f, 1.90808666f, 2.04329419f},
  {-0.00617139507f, 0.64655757f, 1.03055406f, 1.30223405f, 1.51768911f, 1.68975937f, 1.84427607f, 1.96976316f},
  {-0.0487241074f, 0.598031044f, 0.981659651f, 1.26181138f, 1.47916555f, 1.65455842f, 1.81122267f, 1.94611943f},
  {-0.00485067023f, 0.666285217f, 1.06772447f, 1.34342349f, 1.56899369f, 1.74945712f, 1.89950502f, 2.02889013f},
  {0.0104048401f, 0.674973011f, 1.06264007f, 1.34018469f, 1.55574977f, 1.73048472f, 1.87708712f, 2.00172186f},
  {-0.0248276461f, 0.639727175f, 1.03151882f, 1.30626762f, 1.5273484f, 1.71004987f, 1.85330427f, 1.99076998f},
  {0.0371956751f, 0.738912582f, 1.12124956f, 1.40121448f, 1.61466217f, 1.7900579f, 1.91702831f, 2.03025746f},
  {0.0368719511f, 0.700312734f, 1.09497237f, 1.37410283f, 1.5819664f, 1.74456871f, 1.89448988f, 2.01299763f},
};

static const float kLayer0D[52] = {1.05592561f, 0.989802361f, 1.05243433f, 1.0051353f, 0.984950066f, 0.976807892f, 1.03493941f, 0.994253874f, 1.18260849f, 1.01049197f, 0.996479928f, 1.09704769f, 1.03258169f, 1.03691316f, 0.997754514f, 0.99341619f, 1.08841383f, 1.01415789f, 1.03213108f, 1.00426304f, 1.04656219f, 1.09644496f, 1.0795958f, 1.02929008f, 1.00654674f, 0.972433925f, 1.13158357f, 1.02311003f, 1.07825708f, 1.01680386f, 1.09551191f, 0.999865592f, 0.992566884f, 0.955859482f, 1.05718923f, 1.00742304f, 1.03525865f, 1.01884604f, 0.999072909f, 0.984880209f, 1.05389917f, 1.01903188f, 0.982615352f, 1.00085735f, 1.03394556f, 1.06966412f, 1.03133464f, 1.04239297f, 0.959035516f, 0.994589329f, 1.0351311f, 0.999035895f};

static const int8_t kLayer0InProjQ[104][26] = {
  {-2, -32, 83, 96, -89, -81, 15, 3, -94, -3, -84, -39, 61, -62, 99, -18, 127, 10, 77, 118, 2, -32, 71, -116, 6, 29},
  {-1, 9, 92, -30, -68, -24, 97, -31, -32, -7, -57, 4, 32, -21, 127, -42, -31, 60, 28, -110, 34, -2, 17, -31, -61, -45},
  {-6, -9, 25, 55, 36, -56, 73, 102, 104, -70, 109, -41, 52, -106, -127, 5, -15, -27, -21, -92, 44, 88, -72, -28, 10, -103},
  {30, -11, -26, 96, 13, 8, -77, 63, 0, -29, 127, 17, -31, -20, -120, 17, 28, -114, -78, 74, -2, -17, -67, -21, 85, 24},
  {27, 12, -73, 17, 23, -31, 52, -80, -81, -17, -75, 10, 7, 1, 127, -55, -33, 32, 29, 85, 23, -56, 121, 44, -15, -39},
  {22, 10, 10, -43, -17, -7, 104, -62, -20, -44, -127, -2, 21, 20, 94, 5, -34, 111, 80, -58, 32, 24, -1, 88, -25, -6},
  {34, -48, -50, 68, -21, 35, -127, 93, -9, 65, 83, 46, -7, -23, -84, 8, 42, -60, -17, 69, -17, -66, 44, -25, 84, 76},
  {-17, -15, 11, 0, -25, 21, -24, -18, 18, 3, 55, -9, 31, -2, -127, 56, 32, -11, 13, -47, -3, 81, -47, -23, 31, 12},
  {-56, 20, -2, 9, 8, 21, -81, 67, 20, 21, -15, -15, -30, -127, -7, -37, 18, -11, 12, -79, -4, -3, 81, 10, 41, 22},
  {10, 6, 10, 59, -19, 8, 21, 127, -2, -8, 99, 6, -8, -65, -50, -39, 2, -67, -62, 22, -2, -2, -15, -28, 38, 20},
  {-8, 20, -67, 96, 64, -40, -29, 127, 44, -34, 103, -2, -44, -29, -81, -37, -3, -89, -85, 57, -57, -19, 48, -57, 30, 79},
  {73, -5, 36, 11, 25, -17, -11, 26, -37, 14, -20, -3, -37, -9, 109, -58, 23, 29, 4, 3, -10, -127, 33, -19, 2, 63},
  {20, -38, -12, -20, -5, -18, 127, -14, 40, -53, -15, 4, 1, 5, 35, 28, 10, 5, 18, -42, 43, 63, -34, 7, -39, -54},
  {-62, 71, -15, 6, -46, 53, -15, -50, 39, 28, -7, -47, -127, 68, 17, 0, 23, 26, 29, 53, -54, 82, -4, 0, 2, -12},
  {-24, -12, 12, 74, 75, 53, -63, 61, 36, 42, 127, 27, -91, -40, -79, 32, -5, -42, -98, -20, -55, -87, -63, -37, 84, 65},
  {-9, 9, 16, -36, 21, -28, 127, -55, 11, -43, -47, -36, -7, 66, 88, -4, -22, 61, 16, -22, 6, 4, 32, 23, -38, -68},
  {23, -1, 105, -44, -29, -28, 68, -30, -48, -21, -75, 11, 62, 26, 85, -39, -4, 45, 39, -127, 30, 10, -25, 2, -17, 13},
  {34, 13, -46, 6, 21, -39, 75, -40, -17, -79, -86, -37, 63, 127, 86, 75, -22, 13, 17, 24, 7, 10, -4, -26, -57, -47},
  {5, -48, -34, 36, -8, 68, -127, -10, -75, 82, 77, 58, -12, 21, -118, 9, 74, -83, -76, 106, -40, -36, 10, 42, 68, 65},
  {-26, 24, -64, 31, 32, 71, -127, 12, 26, 27, 20, 27, -89, 13, -38, 38, 4, -52, -28, 46, -43, 12, 44, 38, 2, 34},
  {36, -9, 7, -73, 35, -29, 71, 34, 127, -14, -42, 12, -103, 58, -16, -7, -6, 0, -39, -65, 31, 29, -87, 79, -43, -79},
  {53, 7, 70, -1, -28, -35, -1, -43, -56, -24, -32, -12, 72, -127, 92, 7, -21, 26, 50, 16, 66, -63, 25, -61, -13, -3},
  {-62, 40, -16, -62, -45, -32, 24, -62, -39, 28, 43, -13, -87, 72, 15, 108, 4, -1, 66, 127, -37, 68, -12, -59, 32, -93},
  {-21, -3, 27, -56, -10, -31, 102, 14, 0, -53, -98, -54, 47, -14, 127, -35, 18, 97, 102, -98, 35, 53, 54, -29, -33, -1},
  {56, -20, -16, 49, -99, -127, 24, 50, -124, -25, -25, 9, 67, -126, 7, 2, -9, 53, 81, 87, -7, -73, -23, -98, 42, 26},
  {0, 21, 54, -6, 37, 12, -90, 45, 68, 25, 56, -25, -42, -106, -56, 87, 35, -127, 1, 5, -6, -16, 4, -8, 39, 89},
  {26, 17, 47, -31, 32, 7, -10, -15, -22, 13, -33, -47, -127, 15, 90, 2, 38, 63, -21, -65, 14, -96, -61, -44, 6, 76},
  {28, -16, -28, -14, -109, -23, -38, -8, -101, -22, -78, 74, 97, 71, -28, -127, -22, 26, 50, 49, -11, -47, 112, -41, 10, 34},
  {9, -40, -92, 38, 25, -26, -59, 94, -102, -12, 74, 27, 127, -80, -94, -62, -29, -26, 3, -40, 52, 63, 113, 14, 56, -109},
  {-4, 20, 25, 8, 12, -43, 45, 127, 50, -12, 94, -50, 9, -110, -62, 56, -26, 6, -81, -40, -20, -20, -115, -3, 8, 63},
  {-19, 25, 84, 89, 43, 10, 22, 89, 63, 20, 51, -6, 29, 11, -116, -33, 28, 24, -71, -127, -41, 81, -110, -3, 16, 7},
  {12, 0, -30, 59, 14, 59, -65, 18, 42, 25, 58, 23, -55, 15, -127, 46, 7, -62, -8, 42, -16, -19, -8, 7, 44, 30},
  {25, 11, -28, -36, 23, 2, 89, -53, -1, -50, -127, 15, -2, -25, 104, -12, -8, 73, 62, 13, 18, -32, 51, 20, -54, -22},
  {7, -12, -81, 33, -54, 31, 0, -67, -52, -7, 127, 22, -17, -41, -79, 0, 16, 21, -10, 69, -1, -18, -36, -40, 64, -14},
  {-21, 50, -125, -54, 12, -25, 7, 28, 111, -33, -127, -12, 24, -2, 124, 3, -24, 94, 119, -24, -57, 66, 30, 16, -48, -18},
  {-54, -11, 0, 81, 104, 13, -44, -42, 127, 7, 107, -20, -127, -28, -50, 79, 1, -54, -98, -22, -33, 37, -22, 41, 17, -27},
  {20, 22, 40, -46, -10, 6, 14, -43, -5, 33, -127, 7, -78, 62, 69, 24, 51, 80, 25, -10, -54, -73, -59, 29, -47, 41},
  {24, -5, -6, -73, 33, -10, 58, -111, 127, 13, -38, -26, 10, 4, -46, 109, -29, -3, 22, -20, -17, 12, -113, 14, -39, -28},
  {29, 22, -32, -102, -17, -6, 34, -39, -71, -27, -124, 57, 95, 88, 125, -29, -11, -14, 27, -127, 39, 22, 18, 41, -80, 9},
  {-3, 20, 0, -64, -38, -62, 95, -27, 14, -52, -67, -11, 21, 19, 127, 23, -12, 59, 77, -90, 56, 46, -13, -7, -41, -25},
  {-2, 28, -36, -10, -38, 16, 11, -83, -48, 24, -82, -14, -102, 127, 90, -28, 14, 73, 71, 58, -59, -10, 42, -70, -33, -21},
  {-62, 10, -24, -12, 61, 7, -9, -6, 127, -8, 57, -26, -96, -32, -79, 34, -25, 9, -8, -91, 2, 51, -26, 29, 13, -19},
  {-22, 10, -15, 35, 7, 27, -127, 26, 30, 61, 69, 25, -43, 41, -103, 17, 32, -67, -29, 6, 0, -42, -65, 47, 36, 43},
  {54, -16, -66, 24, 75, 46, -45, 8, -120, -32, -4, 33, 20, -85, 108, -29, -29, -38, -25, 55, 23, -73, 127, 16, -26, 4},
  {7, 14, 62, -68, -21, 22, 65, -127, -36, -10, -67, -32, 109, 101, 117, 15, -31, 42, 1, -45, 51, 53, -36, -17, -73, -35},
  {8, -37, 84, 17, -70, 15, -10, 64, -55, 17, 127, -8, -107, 13, -86, -20, 70, -18, -57, -74, 6, -10, -76, -23, 40, 26},
  {-2, -36, 12, 35, 27, 17, -127, 60, 106, -25, -53, 35, -10, -42, -57, 18, -29, -103, -72, -5, 127, -57, 22, 72, -56, -13},
  {-13, 38, -25, 36, -97, -48, 92, -46, -58, -19, -97, -19, 127, 15, 78, 4, -42, 72, 98, -4, 38, 38, 8, -1, -49, -9},
  {-1, -28, 40, -8, -11, 28, -90, 21, -16, 58, 127, 17, -13, 16, -81, 20, 49, -47, -24, 21, -42, -17, -27, -16, 38, 6},
  {-8, -17, -55, 20, 30, -54, 127, -83, 18, -24, -85, -8, 31, -34, 48, 10, -26, 87, 72, 29, 20, -5, 38, 25, -36, -49},
  {1, 5, 29, -14, -10, -33, 103, 104, 61, 13, 124, -59, -36, -76, -112, 33, -24, 34, -75, -22, -15, 14, -127, -26, 1, 57},
  {36, 10, 81, -48, 109, -41, 66, 77, 16, -99, 7, -55, -57, -68, 105, -119, -21, 37, -87, -81, 49, -127, 35, 80, 23, -92},
  {29, -41, -43, -20, 105, -61, 112, -121, -44, -103, -27, -13, -63, 102, 92, 45, -42, 45, 49, 46, 49, -26, 127, 5, -68, -120},
  {20, 9, -98, -26, 15, -72, 23, -82, 10, -18, -56, 18, 127, -12, 32, 46, -9, 62, 44, 8, 48, 40, 25, -6, -6, 10},
  {21, 49, 27, -33, -82, 40, -51, -119, 47, 37, -127, -11, -58, 49, 46, 19, 43, 51, 77, -20, -56, 3, -70, 18, -30, 66},
  {-9, 41, -63, 99, -10, 59, -71, 49, -57, 20, 88, -33, -127, -12, 16, -37, 10, -30, -34, 47, 11, -55, -1, -25, 74, 67},
  {28, -42, -31, 3, -7, -43, -32, -28, -68, -29, -33, 60, 127, 18, -12, 27, -2, -37, -59, 66, 3, -38, 34, 60, 3, -42},
  {3, -51, -48, -63, 30, 10, 98, -67, 49, -35, -127, 42, 107, 9, 61, 12, -8, 70, 52, -36, 26, -1, -38, 63, -30, 55},
  {-36, 68, -9, -9, -65, -62, 82, -21, -40, -49, -64, -8, 103, -17, 80, -39, -7, 37, 62, 8, 29, 89, 80, -127, -27, -44},
  {-24, 33, 54, -18, 5, -14, 29, 30, 95, -10, -7, -72, -127, 7, 57, -44, 3, 2, 9, -76, -26, -19, -78, -28, -2, 42},
  {-43, -20, -71, -96, 104, 2, -110, 52, 66, -7, 17, 127, -72, -53, -79, 15, -32, -15, -57, -65, 19, -35, 73, 117, -22, 14},
  {6, -42, 23, -50, -24, -62, 66, 3, 51, -49, -44, 20, 72, -14, 46, 84, -41, 80, 103, -127, -16, -5, 25, 74, 12, -81},
  {17, -5, -30, -28, 3, -75, 39, -12, 74, -34, -70, -10, 76, -59, 83, 44, 0, 127, 50, 13, 0, 66, 34, 39, -30, -9},
  {12, 21, 24, -11, -33, -22, 88, 2, 31, -8, -76, -35, -127, 29, 48, -86, 12, 53, 48, -46, -28, 1, -26, -10, -1, 44},
  {-64, -84, 37, 68, 100, -57, -5, 47, 25, -91, 98, 27, -127, -75, -45, -89, -95, -71, -71, 114, 42, -100, 52, 71, 45, -39},
  {-37, 12, 57, 20, -49, -9, 67, 101, 44, -6, 63, -37, 39, -87, -114, -36, -40, -32, -14, -51, 10, 69, -127, 17, 0, -5},
  {75, 28, -45, -25, -1, -127, 43, 28, -31, -33, -60, 2, 105, 93, 83, -34, 17, -39, 93, 54, 23, 114, 111, -73, -46, -105},
  {36, -50, -76, -52, 16, -18, 23, -76, 16, -29, -117, 39, 91, 127, 53, 26, -5, 12, -12, 42, 32, -7, 70, 29, -19, 21},
  {3, -41, 71, 21, -85, 19, 14, 103, -10, 26, 104, -41, -127, -39, 5, -116, 26, -36, -28, -37, -42, -22, -46, 13, 42, 75},
  {-7, 25, -74, -9, 99, 46, -37, 35, 127, 0, -2, -19, -22, 3, 30, 33, -32, -7, -45, -59, -16, -12, 1, 63, -87, 8},
  {-39, 15, 14, 28, 16, -12, 41, 127, 6, -36, 67, -12, -95, -49, 8, -49, -1, -51, -60, -8, 12, -34, 1, 8, -2, 50},
  {-4, -11, 78, 1, 20, -21, 2, 116, 42, 19, 127, 15, -46, -42, 3, 16, -8, -46, -58, -41, 15, -25, -16, -7, 1, 26},
  {-6, -43, 44, 19, 105, -26, 69, -54, -9, -75, 39, 3, -90, -21, 86, 23, -86, -50, -127, 57, 43, -51, 65, 21, -60, -73},
  {54, -35, 11, 87, -1, -80, 28, -47, 14, -46, 28, -24, 127, -95, 96, 69, -48, 1, 8, -50, 28, -36, 49, -66, -17, -14},
  {6, 2, 69, 79, 28, 18, 61, 127, 111, -18, -45, -49, 0, -94, -27, -106, -13, 28, -85, -92, 19, 36, -72, -7, -43, 15},
  {-24, 10, 18, 106, -12, 23, -16, 52, -33, 19, 127, -23, -44, -34, -57, -51, 33, -67, -23, -13, -46, -7, -1, -56, 58, 83},
  {48, -16, -25, 12, 25, 10, 22, -127, -23, -62, -47, 36, 94, 60, 112, 67, -74, 11, -54, 39, 44, -22, -8, -55, -101, -67},
  {76, -76, -127, 1, -7, -38, 21, -39, -49, -41, -29, 117, 113, 110, -62, -48, 41, 59, -15, 21, 17, 6, -21, -20, -2, -21},
  {2, 64, 59, 7, -1, -17, 42, -18, 49, -12, -76, -85, -76, 23, 63, -127, 69, 62, -24, -43, -15, -64, -13, -25, -4, 125},
  {-10, -31, -93, 1, 45, -106, 127, -77, 8, -54, 24, 29, 111, 116, 49, 33, -101, -61, -39, 118, 43, 37, 79, -3, -120, -99},
  {52, -18, 77, -78, 25, 4, -97, -74, 59, 29, -89, 68, -54, 102, 50, -76, 9, -11, -45, 10, 15, -113, -34, 69, -105, 127},
  {-47, 43, 46, 63, -103, 43, -30, -103, -44, 1, -49, -43, -40, 44, 54, -60, 84, 70, 127, -23, 32, 5, -47, -48, 23, 18},
  {16, -30, 90, 77, 17, -27, 48, 51, 5, 21, -43, 4, 103, -5, 30, -33, -34, -11, -127, -63, -34, 28, -2, 23, -85, 25},
  {-19, 7, 35, -1, -65, 35, -13, 73, 18, 72, 72, -28, -127, 43, 30, -82, 5, 1, -23, -37, -16, -57, -32, 27, 43, 41},
  {12, 52, -11, 6, -13, 11, 20, 33, 45, -36, 8, -9, -127, 27, 8, -15, 0, -1, -8, -1, -33, -37, -23, -4, 26, 61},
  {-3, -25, -102, -40, -38, -64, 18, -127, -47, -35, -117, 41, 98, -58, 57, -19, -10, 80, 71, 36, 51, -8, 40, 35, 8, -49},
  {-52, 52, -56, 127, 97, -5, 31, 23, 19, -45, 107, -68, -37, -110, -40, -24, -63, -34, -28, 114, -14, 39, -52, -36, 21, 5},
  {-12, 37, 40, -17, -57, 28, -8, 37, -21, 25, 36, -19, -62, -21, -39, -66, 17, 33, -5, -100, -11, -47, -17, 18, -1, 127},
  {7, 22, 90, -50, -83, 64, -67, -78, -5, 53, -43, -11, -126, 65, 107, -93, 28, 24, -81, 4, -105, -28, -74, -25, -5, 127},
  {-23, -34, -81, -63, 39, 8, 19, -43, -36, -4, 14, 38, -51, 119, 49, 78, -50, -9, -45, 127, 50, -92, 61, 78, -2, 39},
  {-3, 15, -48, -10, 30, -62, 9, 26, 42, -28, -63, 3, 127, -6, 0, -22, 1, 35, 47, -42, -7, 19, 47, 16, -9, -14},
  {12, -15, -8, 35, -11, 28, 8, 118, -13, 17, 127, -18, -101, -76, -32, -55, 13, -50, -98, 32, 11, -61, -18, -32, 8, 55},
  {-5, -111, 2, -37, -67, -53, 120, 6, 16, -86, 45, 45, 68, 20, -59, 31, -77, -22, -73, 33, 78, 127, -31, 52, -40, -38},
  {-12, -45, -70, -22, 87, -67, 78, -37, -104, -68, 14, 31, -19, 127, 60, 9, -24, -15, 36, 51, 77, -21, 15, -42, 18, -90},
  {55, -41, 0, -81, 24, -7, -11, -72, 59, 9, -79, 33, 50, 52, -22, 65, -4, -34, 4, 127, 4, -37, 6, -31, -7, -31},
  {75, -51, -69, -29, 71, -5, -42, -55, -92, -32, 12, 51, 1, -60, 104, -28, -49, -22, -72, 106, 66, -127, 96, 46, -25, 31},
  {-4, -16, -9, -44, 2, -79, 127, -66, 41, -4, -66, -35, 126, -52, 33, 0, -6, 71, 12, -15, 1, 65, 9, -22, -56, -61},
  {54, -63, 45, 4, -39, -20, -100, -36, -127, 6, 12, 36, 59, 38, 1, 17, 36, 9, -3, -10, 39, -53, 20, -27, 19, -18},
  {16, 24, 90, -4, -96, 2, -15, -32, -122, 34, -49, -34, 5, 79, 127, -86, 90, 18, 9, -118, -13, -8, -75, -13, -5, 77},
  {20, 17, -10, -43, -75, 39, -15, 78, -127, 61, 77, -37, -41, -64, -14, -101, 0, 36, 61, -33, -15, -24, -14, 47, 5, 61},
  {78, -62, -110, -8, -57, -8, 0, -127, -16, 9, -112, 65, 104, -2, 72, 12, -28, 11, 19, 11, 24, -59, 92, 24, -27, 6},
  {39, -127, 2, -31, 44, 47, -32, -79, 22, -5, -114, 39, -32, 107, 26, 64, -59, 19, 38, 39, 32, -81, -37, 68, -13, 13},
  {64, -94, -90, -98, 6, -99, 54, 127, -38, -6, 77, 51, 48, -3, -23, -5, 11, -31, -59, 93, 40, -50, 79, 16, 26, -46},
  {-5, 31, 103, -1, -77, -27, 127, 111, 41, -18, 120, -40, -73, -33, 53, -72, 8, 35, -6, -62, -19, 14, -98, -37, 42, -2},
};

static const float kLayer0InProjScale[104] = {0.00102982356f, 0.00101635838f, 0.00101870473f, 0.00103857392f, 0.000740475196f, 0.000993823982f, 0.00139796757f, 0.00130131922f, 0.00264361594f, 0.00136710692f, 0.000886123686f, 0.00148256531f, 0.0018015058f, 0.00139499246f, 0.000877598999f, 0.00158248609f, 0.00158215465f, 0.00113929587f, 0.00103808288f, 0.00123864366f, 0.00122794253f, 0.00146748661f, 0.00159613136f, 0.00109720556f, 0.000801022921f, 0.000873402343f, 0.00213715574f, 0.000958254735f, 0.00104428525f, 0.00105929282f, 0.00146679208f, 0.00130985084f, 0.000957343436f, 0.000780519156f, 0.000994621194f, 0.000795570784f, 0.00130636827f, 0.0010839632f, 0.0009276247f, 0.000981680234f, 0.00140791829f, 0.00127931905f, 0.00108081405f, 0.00097053533f, 0.00130506593f, 0.00143491337f, 0.00103200658f, 0.00120038225f, 0.0011217437f, 0.00107627641f, 0.00106575724f, 0.000689406937f, 0.00101897563f, 0.00106090901f, 0.00132649031f, 0.00106364931f, 0.000990616973f, 0.000839714136f, 0.00106518867f, 0.00103236397f, 0.00193050376f, 0.000841086963f, 0.000955601688f, 0.00178409694f, 0.000841402158f, 0.00118419062f, 0.000667955377f, 0.000926860783f, 0.00145004177f, 0.00122994697f, 0.00142949692f, 0.0013878363f, 0.00121322472f, 0.00142352481f, 0.00141948136f, 0.00155015662f, 0.000850714161f, 0.000641289924f, 0.00148118159f, 0.000860080996f, 0.00106580474f, 0.0010183804f, 0.00174379849f, 0.00119859236f, 0.00145668886f, 0.000735260546f, 0.00112206885f, 0.0010193733f, 0.000909497787f, 0.00098204962f, 0.00122127356f, 0.000982799218f, 0.00123161334f, 0.000965072599f, 0.000894959376f, 0.000761833391f, 0.0010577559f, 0.00152408041f, 0.00122811599f, 0.00121222774f, 0.000652838266f, 0.000784217496f, 0.000977858203f, 0.000887912349f};

static const float kLayer0Conv1dWeight[52][4] = {
  {-0.0293040555f, -0.235598683f, 0.153357908f, -0.143195778f},
  {0.146156013f, 0.0119413286f, 0.000373682095f, 0.0275468472f},
  {0.0103649469f, -0.170734718f, -0.172129273f, -0.0600483045f},
  {0.139478192f, 0.172708958f, 0.175797284f, -0.041947592f},
  {0.141236439f, 0.0716508925f, 0.113871701f, 0.154878557f},
  {0.122736849f, 0.0813777521f, 0.0143238427f, 0.0744236037f},
  {-0.271855056f, -0.0705086365f, -0.119263977f, -0.0259463023f},
  {-0.0535601787f, -0.0492568314f, -0.0845917091f, -0.149501249f},
  {0.21611318f, -0.0875339508f, -0.196284711f, 0.22551398f},
  {0.30376631f, 0.153826177f, 0.135577083f, 0.0839161351f},
  {0.137331277f, 0.0924934074f, 0.0145821283f, -0.00916758925f},
  {-0.0587591119f, 0.0885613263f, -0.185562462f, -0.148796588f},
  {0.15113391f, 0.109935425f, 0.038190484f, 0.188467383f},
  {-0.100213878f, -0.148992151f, -0.239035055f, -0.037742734f},
  {0.100300618f, 0.183777466f, -0.0747027025f, 0.0700887218f},
  {0.220596731f, -0.0707463473f, 0.0931668058f, 0.082837984f},
  {-0.212305441f, -0.109287895f, -0.00605320837f, -0.132844746f},
  {0.0205556024f, 0.0562543236f, 0.104215361f, 0.268550366f},
  {-0.151214913f, -0.0112116514f, -0.168418378f, -0.174746677f},
  {0.170709372f, 0.0944573358f, -0.0268694777f, 0.122836009f},
  {-0.00840981212f, 0.175143644f, 0.106416449f, 0.115292393f},
  {0.195382178f, -0.118683249f, -0.0825741813f, 0.284760565f},
  {0.0625230968f, -0.124590956f, -0.293368846f, 0.119868889f},
  {0.202376425f, 0.208747074f, 0.0131272981f, -0.124362811f},
  {0.0913966075f, 0.000471109233f, -0.0751228705f, -0.251755983f},
  {-0.142085835f, 0.0536585338f, 0.000778007321f, -0.220040843f},
  {-0.0929302722f, 0.347994089f, -0.141820475f, -0.123696961f},
  {0.0646430925f, -0.049500756f, 0.0117632393f, -0.207106099f},
  {-0.153100744f, -0.326000929f, -0.196063027f, -0.193111584f},
  {0.177317396f, -0.145947427f, -0.1004287f, -0.0687809736f},
  {-0.0275233686f, 0.166388333f, -0.273095161f, -0.00316868466f},
  {-0.2484878f, -0.106189057f, -0.152974606f, -0.126192585f},
  {0.105369873f, 0.0283969939f, 0.174753189f, 0.105352648f},
  {0.0358525291f, 0.117892891f, 0.0492114425f, -0.0473096967f},
  {-0.119749948f, -0.156449556f, 0.0262388252f, 0.0372518674f},
  {-0.0366217345f, 0.0680516064f, 0.0870935023f, 0.114534453f},
  {-0.224538341f, 0.159467816f, -0.0537381321f, -0.192333847f},
  {-0.0965303779f, -0.144535765f, -0.0841740221f, 0.0118573699f},
  {-0.235168874f, -0.263514072f, -0.00141392159f, -0.00901608914f},
  {0.202292204f, 0.207144797f, 0.0925294831f, 0.115881674f},
  {0.13411966f, -0.166346595f, 0.175231934f, 0.186233953f},
  {-0.0309204403f, 0.240802526f, -0.165848225f, 0.0866615027f},
  {-0.114071742f, 0.00223247171f, -0.216006964f, -0.00888666417f},
  {-0.0223028362f, 0.0947157666f, 0.135298029f, 0.171796754f},
  {0.272678465f, 0.0260308161f, 0.0642809495f, 0.0437966362f},
  {-0.320138395f, -0.0966223478f, -0.0994041413f, 0.021952454f},
  {0.0375258513f, -0.0370569043f, 0.189231217f, -0.0205802303f},
  {0.25327754f, 0.125108585f, -0.0584169887f, 0.0952435136f},
  {-0.16152288f, -0.160279512f, -0.0175036658f, -0.0501552597f},
  {0.0848517492f, -0.060224954f, -0.201509833f, -0.0665175691f},
  {-0.157559037f, 0.118838243f, 0.014392904f, 0.0784439668f},
  {-0.0348990187f, 0.107770696f, -0.030069584f, 0.135871395f},
};

static const float kLayer0Conv1dBias[52] = {-0.017954601f, 0.000942598155f, 0.0512790047f, -0.00736523326f, 0.0158708133f, 0.0136338966f, 0.0101366034f, 0.0168558955f, 0.0526974611f, -0.00251358678f, 0.00751292193f, -0.0553321019f, -0.0318833925f, 0.0683388039f, -0.0219735913f, 0.0159850065f, -0.0581711158f, 0.00598255033f, 0.0385138392f, -0.0344886631f, -0.0339109153f, 0.0198479947f, 0.0873157531f, 0.0339214131f, -0.0318439677f, -0.0016317314f, -0.0332833417f, -0.0315345377f, -0.0221985374f, 0.024485454f, 0.0214185771f, 0.031591516f, 0.0158528816f, 0.0021898367f, -0.0406373255f, -0.0348846987f, -0.0161195137f, 0.0410712846f, 0.00224525551f, 0.0308267009f, 0.00746306218f, -0.017223699f, 0.0212544166f, 0.0228333026f, -0.0043572369f, 0.0340207256f, -0.0520301349f, 0.0616202243f, 0.0158407483f, -0.0254279878f, -0.0252480451f, 0.0511570014f};

static const int8_t kLayer0XProjQ[18][52] = {
  {-91, -62, -3, 92, -54, -81, -127, -52, -10, 82, 63, 14, -92, -7, 59, -112, 77, -84, -106, 71, -54, -28, -11, -88, -45, -62, 52, -27, -33, -48, -114, -100, -67, 43, 97, 32, 51, 31, 76, -87, -77, -57, -109, 40, -104, -105, 71, -79, -83, 81, -4, -59},
  {-92, -58, -4, 92, -42, -69, -119, -47, -20, 80, 42, 4, -88, -10, 68, -102, 65, -70, -84, 69, -50, -16, -4, -86, -70, -51, 50, -23, -44, -40, -106, -77, -77, 58, 73, 27, 52, 47, 68, -82, -59, -64, -127, 19, -90, -100, 57, -80, -70, 84, 9, -51},
  {53, 27, 0, -55, 54, 27, 75, 25, -18, -43, -21, -12, 43, -5, -27, 69, -16, 51, 0, -35, 6, -11, 4, 44, 19, 39, -43, 36, -20, 19, 127, 48, 30, -35, -42, 3, -29, -15, -42, 49, 69, 64, 56, 19, 44, 95, -50, 48, 46, -42, -16, 32},
  {33, 21, -2, -29, 28, 32, 72, 32, -46, -51, -19, -18, 57, -6, -52, 59, -41, 53, 44, -31, 5, 33, 9, 46, 0, 44, -73, 17, 6, 35, 127, 60, 26, -47, -30, -21, -45, 13, -32, 12, 68, 40, 91, 14, 51, 56, -76, 65, 33, -27, 13, 20},
  {47, 40, 7, -54, 33, 36, 56, 29, 12, -34, -18, -23, 47, 8, -22, 56, -24, 27, 38, -21, -11, 11, 9, 48, 2, 36, -49, 13, 0, 0, 127, 48, 17, -40, -51, -18, -36, -4, -32, 40, 55, 72, 75, 14, 46, 76, -54, 46, 50, -29, 18, 20},
  {-61, -45, -15, 43, -34, -31, -60, -29, -29, 46, 27, 27, -39, -5, 14, -33, 23, -39, -34, 41, 10, -20, -5, -41, 9, -32, 45, -1, -22, -14, -127, -46, -45, 24, 51, 11, 47, 3, 15, -32, -62, -63, -73, -8, -41, -78, 80, -71, -56, 40, -29, -21},
  {-28, -60, -22, 53, -30, -15, -84, -25, -19, 35, 20, 41, -51, 5, 36, -55, 42, -33, -60, 38, 5, -10, -23, -39, -10, -41, 78, -13, -4, -6, -127, -44, -42, 41, 32, 36, 34, -5, 44, -26, -77, -53, -69, -1, -64, -77, 68, -66, -35, 25, -9, -11},
  {52, 45, -24, -47, 40, 40, 65, 15, -29, -29, -20, -42, 31, 2, -22, 75, -24, 39, 39, -38, -6, 12, 20, 59, 5, 51, -73, 1, 9, 15, 127, 42, 33, -24, -42, -20, -65, -19, -39, 36, 79, 56, 65, 2, 69, 55, -69, 58, 40, -20, 45, 29},
  {31, 32, -4, -71, 42, 48, 69, 18, 11, -47, -31, -23, 28, -11, -48, 65, -35, 32, 64, -36, 5, 22, -3, 43, 9, 32, -65, 5, 11, 9, 127, 50, 38, -28, -50, -21, -44, -14, -30, 31, 74, 47, 62, 24, 49, 61, -75, 68, 45, -40, 7, 17},
  {-23, -33, -14, 43, -38, -45, -62, -32, 25, 33, 32, 54, -37, 19, 10, -78, 32, -40, -55, 28, 8, -18, -29, -61, -1, -46, 75, -5, -14, -24, -127, -35, -8, 32, 64, 22, 62, -11, 43, -32, -70, -47, -57, -4, -33, -66, 72, -56, -51, 11, -14, -37},
  {-7, 29, 4, -49, 39, 27, 58, 45, 29, -37, -37, -16, 26, -23, -12, 48, -15, 39, 45, -34, -2, -10, 0, 60, 6, 27, -16, -3, 9, 30, 127, 26, 21, -16, -58, -30, -31, 2, -24, 9, 40, 30, 59, 29, 26, 68, -41, 55, 37, -45, -23, 32},
  {41, 48, 16, -54, 45, 41, 64, 39, -9, -25, -35, -21, 42, -32, -29, 42, -42, 46, 46, -50, -22, 10, 6, 87, -16, 32, -51, -23, 9, 20, 127, 32, 32, -48, -43, -36, -58, 13, -28, 51, 80, 11, 68, -4, 34, 56, -96, 60, 15, -50, -11, 17},
  {26, 33, 10, -58, 21, 39, 50, 35, 35, -41, -33, -37, 39, -5, -27, 53, -46, 34, 25, -24, -15, 11, 11, 48, -11, 13, -43, 0, -8, 9, 127, 49, 43, -25, -48, -17, -42, -1, -27, 30, 61, 53, 81, -3, 27, 69, -71, 55, 24, -34, 13, 1},
  {-47, -41, 2, 43, -35, -38, -65, -15, -16, 35, 24, 36, -61, 4, 24, -60, 20, -32, -44, 51, 4, -25, -8, -57, -7, -37, 68, -23, -3, -5, -127, -44, -24, 41, 51, 4, 36, 1, 16, -45, -59, -69, -52, -2, -45, -79, 77, -49, -49, 24, -16, -31},
  {-20, -27, -19, 43, -29, -22, -80, -35, -22, 44, 31, 37, -47, 19, 27, -70, 36, -36, -46, 30, 12, -24, -22, -51, 3, -24, 50, 8, -24, -4, -127, -44, -22, 30, 47, 20, 51, 12, 37, -46, -69, -63, -67, -3, -47, -68, 95, -60, -47, 44, -1, -20},
  {20, 31, 16, -50, 11, 28, 54, 13, 6, -36, -30, -36, 31, -4, -24, 43, -36, 34, 44, -17, -8, 11, -8, 48, -19, 36, -51, -11, 11, -2, 127, 48, 29, -20, -49, -20, -30, 14, -24, 29, 85, 56, 65, -3, 32, 70, -83, 53, 25, -24, -5, 16},
  {24, 35, 13, -39, 39, 37, 69, 33, 7, -42, -34, -16, 47, -13, -29, 71, -19, 38, 47, -16, 4, 9, 8, 69, 15, 24, -60, -7, -2, 11, 127, 57, 36, -28, -66, -13, -39, -16, -21, 29, 54, 44, 52, -1, 39, 80, -64, 58, 34, -20, 22, 19},
  {-7, -38, -13, 55, -44, -38, -68, -27, 3, 41, 28, 56, -35, 19, 36, -68, 26, -24, -35, 28, 12, -11, -5, -43, 21, -32, 55, 10, -5, -29, -127, -42, -27, 29, 58, 44, 64, -4, 29, -27, -79, -46, -63, -9, -61, -82, 87, -50, -40, 36, -13, -8},
};

static const float kLayer0XProjScale[18] = {0.00243391842f, 0.00279719918f, 0.00149973808f, 0.001859974f, 0.0020606867f, 0.00218455773f, 0.00197498454f, 0.00215934264f, 0.00198800932f, 0.00213776389f, 0.00190356211f, 0.00176109374f, 0.00215835497f, 0.00221305783f, 0.00196019677f, 0.00237869471f, 0.0021837838f, 0.0020321086f};

static const int8_t kLayer0DtProjWeightQ[52][2] = {
  {-116, -127},
  {89, 127},
  {-127, -123},
  {127, 87},
  {102, 127},
  {127, 117},
  {-127, 13},
  {123, 127},
  {-83, -127},
  {127, 102},
  {127, 125},
  {-100, -127},
  {-127, -111},
  {-24, -127},
  {127, 98},
  {-21, -127},
  {91, 127},
  {-127, -100},
  {11, 127},
  {93, 127},
  {-126, -127},
  {-60, 127},
  {-127, -118},
  {127, 97},
  {-127, -104},
  {127, 59},
  {-110, -127},
  {-127, -79},
  {-127, -92},
  {-123, -127},
  {-127, -74},
  {104, 127},
  {79, 127},
  {59, 127},
  {71, 127},
  {28, -127},
  {41, -127},
  {-127, -125},
  {121, 127},
  {111, 127},
  {-127, 2},
  {-127, -122},
  {17, 127},
  {-48, -127},
  {93, 127},
  {-127, 0},
  {-31, -127},
  {16, 127},
  {-34, 127},
  {-127, -54},
  {-127, -120},
  {-6, 127},
};

static const float kLayer0DtProjWeightScale[52] = {0.00226857932f, 0.000975442934f, 0.000779090449f, 0.000972442562f, 0.000574750651f, 3.55558332e-05f, 0.000259135355f, 0.000287586794f, 0.000945476f, 0.000576523016f, 0.000608322385f, 0.000756764493f, 0.0012373511f, 0.000343143503f, 0.000221740629f, 0.00022182666f, 0.00069702958f, 0.000567091105f, 0.000218519854f, 0.000733569264f, 0.00155029329f, 0.000122221187f, 0.00153379678f, 0.000549928576f, 0.0011882399f, 0.000233433355f, 0.0011676643f, 0.00109674758f, 0.00131816557f, 0.00076741504f, 0.000690679532f, 0.000330122595f, 0.000526608317f, 0.000996407238f, 0.00138478051f, 0.000240368958f, 0.000245663687f, 0.00145481341f, 0.000869496609f, 0.000714281632f, 0.000435390306f, 0.00084875332f, 0.000475863053f, 0.000370497524f, 0.000618924096f, 8.62342349e-05f, 0.000528728997f, 0.000408642663f, 0.000193870292f, 0.000153629153f, 0.00155923318f, 0.000152180262f};

static const float kLayer0DtProjBias[52] = {0.126705453f, -0.0524049327f, 0.0979296863f, -0.00369900116f, -0.00926972274f, 0.0194748323f, 0.0412387475f, -0.0254782047f, 0.167469278f, 0.00186103454f, -0.0162008163f, 0.0960337147f, 0.133858904f, 0.00301064597f, 0.014118948f, 0.0340805687f, -0.0100349337f, 0.0471447483f, -0.00403818302f, -0.052253291f, 0.136736393f, 0.0322903916f, 0.183410436f, -0.0138763459f, 0.0333829187f, 0.0100108394f, 0.114878945f, 0.0559677072f, 0.121877246f, 0.0782759637f, 0.133703277f, -0.00864375196f, 0.0119828321f, -0.0279301312f, -0.0267244801f, -0.029402975f, 0.0419129804f, 0.0819327533f, -0.0536223985f, -0.0130675817f, 0.109767377f, 0.0827278346f, -0.00693101063f, 0.0391588286f, -0.00621483615f, 0.0647573844f, 0.0816353559f, 0.0336928144f, 0.000394376199f, 0.0325943902f, 0.138737142f, -0.0401262306f};

static const int8_t kLayer0OutProjQ[26][52] = {
  {-5, 17, 23, -66, -70, -11, -65, 64, -117, 79, 16, -48, -2, 29, 57, -25, 23, 55, 34, -43, 1, 58, 82, 2, -32, -14, 33, 5, -35, 64, -127, 50, 57, 17, -33, 4, 5, 14, 50, 18, 14, 53, 6, -101, -23, 25, 73, -96, -11, 15, 94, 55},
  {64, -68, 58, 0, -29, -29, -33, 34, -35, 1, 54, -93, 76, 80, 3, 27, -62, 39, 54, -61, 86, -70, 127, 75, 24, -37, -110, 29, 86, 19, -36, -6, 19, -11, -81, -51, -42, -55, 19, 30, -105, 39, -15, 20, -6, -60, -39, -10, 12, -14, 42, 27},
  {47, -7, 82, -16, -14, 2, -12, 39, -69, 34, 39, -98, 45, 85, 15, -46, -50, 21, 31, -49, 76, 55, 114, 20, 8, 8, -127, 30, 35, 26, -122, 11, 12, 8, -7, -51, -38, -30, -10, 21, -76, 55, -44, -54, -18, -47, -76, 60, 25, 0, 83, 39},
  {-7, -1, -88, 40, 34, 24, 16, -56, 127, -35, -13, 54, -55, -54, -15, 1, 11, -12, -35, 33, -23, 21, -54, -27, -7, -15, 20, -44, -13, -48, 31, -5, -29, -22, 76, 10, 38, 40, -24, -8, 66, -3, -28, 41, 36, 66, 2, 30, 6, -22, -31, -24},
  {6, 37, -67, 34, 34, 34, 33, -35, -33, -25, -36, 85, -30, -23, -5, 72, 110, 42, -34, 16, -54, -37, -91, -26, 24, 35, 121, -8, -82, -43, 127, -40, -22, -19, 28, 28, 67, 46, -26, -8, 64, -44, 62, 21, 10, -7, 49, -77, -4, -40, -40, -37},
  {-46, -32, 61, -25, 3, 12, -1, -22, -59, 28, -3, -85, 49, 127, -6, 9, -13, 20, 17, -63, 51, -47, 114, 10, -7, 3, -27, -4, 76, 48, -57, -57, 1, -10, -34, 15, -65, -41, -18, 1, -82, 1, 10, -25, 21, -26, -61, -39, 29, 5, 35, 38},
  {20, 8, -84, 24, 51, -4, 12, -36, 71, -13, -16, 48, -74, -98, 12, -57, -53, -68, -11, 52, 0, 127, -73, -25, -29, 23, -17, 15, -73, -26, -45, 25, -22, -10, 63, -19, 81, 4, -26, -8, 32, 50, 27, 36, -36, 86, 74, 54, -24, -14, 28, -31},
  {-26, 36, -87, 27, 41, 21, 42, -69, 114, -84, -31, 13, -83, -70, -28, -25, -38, -80, -85, 70, -37, 127, -74, -48, -40, 18, 35, 12, -76, -59, 38, -32, -52, -50, 93, -14, 79, 17, -2, -42, 43, -13, -13, 77, 63, 110, 62, -8, 4, -45, 2, -84},
  {53, -21, 32, -2, -1, 19, -27, 14, -127, -18, -16, -34, 36, -6, 39, 16, -29, 40, -10, -19, 48, -29, 54, 22, 48, 9, -51, 58, 19, 10, 49, -8, 0, 1, 2, -43, -16, -18, 0, 5, -27, 31, 19, -23, 10, -19, 0, 21, 18, -29, 20, -10},
  {0, -25, 71, 7, 29, 11, -16, -30, -69, 2, 3, -56, 71, 57, 17, 2, -54, 29, 20, -19, 75, -86, 79, 49, 13, -19, -28, 37, 107, 8, -27, -21, -14, 39, -44, -37, -57, -22, -26, 18, -127, 37, -25, -14, 65, -52, -50, 5, -19, 29, 7, -33},
  {-19, 68, -47, 77, 65, 54, 32, -31, -111, -82, -106, 2, 24, -53, -22, 68, 16, -11, -117, 65, 33, 47, -34, -92, -14, 46, 19, -48, -58, -57, 18, -53, -8, -33, 127, 38, 79, 27, -94, -93, 39, -26, 64, 73, 92, 95, 65, -60, 69, -78, -17, -48},
  {-75, -17, -57, -22, -23, -70, 9, 38, 40, 25, 22, 66, -5, 32, 35, -21, 72, -4, 1, -45, -63, 0, -32, 7, -35, -22, 127, -15, -73, -10, 30, -24, 12, 30, -41, 35, 20, 29, 24, 11, 38, -70, 28, -11, 9, -44, 56, -64, -5, 18, -16, 7},
  {59, -81, -64, -100, 8, -52, -115, 27, 3, 1, 10, 20, -20, -62, 82, -23, -41, 65, 18, 30, 13, -119, -29, 114, 57, 18, -55, -66, -73, -4, 103, 97, 69, 44, -40, -23, 45, 10, 63, 49, 18, 5, -40, -3, -127, -48, 50, 104, -38, 11, -38, 6},
  {-95, -6, -7, -13, 1, -31, 66, 10, 127, 52, -24, 46, -10, -12, -43, -62, 38, -26, 52, -1, -89, 47, -37, -40, -26, -31, 64, -37, -22, 11, -30, -15, -10, -6, -24, 46, -3, 3, 39, 5, 1, -20, -30, -29, -43, 2, -24, 8, -5, 71, 21, 16},
  {-90, 29, -23, 25, 6, -37, 70, -33, 127, -5, -7, 52, -34, -20, -35, -6, 63, -34, 29, 21, -57, 46, -50, -22, -22, 8, 64, -49, -33, -21, -5, -16, -11, -20, 9, 49, 9, 27, -24, 7, 25, -52, 4, 14, 4, 23, 2, -21, -1, -2, -28, -3},
  {-26, 5, -65, 22, 35, 8, 1, -18, -35, 8, 15, 102, -41, -42, 2, 34, 127, 4, 9, 11, -43, -80, -87, -54, 22, 21, 74, -14, -52, -36, 63, 2, 6, 3, 19, 27, 27, 70, -35, -10, 74, -57, 15, 22, -26, 4, 11, -30, 0, 19, -92, -26},
  {50, -37, 65, -4, -34, -9, -43, 23, -38, 34, 44, -127, 72, 63, 26, -3, -87, 58, 68, -48, 78, -32, 86, 55, 54, -61, -87, 71, 85, 42, -71, 34, 48, 8, -32, -29, -52, -76, 34, 38, -92, 54, -47, -32, -27, -87, -50, 40, -11, 13, 59, 24},
  {30, -34, 95, -53, -17, -20, -20, 23, 7, 68, 64, -44, 89, 59, -9, -34, -49, -8, 49, -44, 42, 2, 79, 19, 25, -36, -58, 32, 38, 52, -127, 25, 11, 27, -57, -18, -43, -88, 42, 42, -90, 45, -27, -44, -68, -71, -66, 52, -1, 56, 60, 43},
  {80, -17, 84, -83, -29, -34, -43, 15, -124, 36, 44, -80, 127, 19, 19, 14, -47, 67, 48, -38, 76, -103, 49, 72, 65, 15, -74, 53, 70, 42, -35, 36, 34, 14, -56, -56, -60, -59, 31, 16, -75, 44, -9, -1, -74, -78, -89, 51, -9, 18, 28, 23},
  {-14, 33, -11, 56, 41, 43, 75, 0, 55, -20, -33, 72, 38, -54, -72, 56, 127, 8, 3, 32, -9, -30, -53, -56, 3, 16, 87, -68, -75, -75, 77, -15, -28, -24, 28, 38, 37, 18, -54, -23, 47, -59, 8, -11, 59, -14, -58, -58, 3, 13, -70, -47},
  {-47, -16, -78, 0, -50, 10, -29, 60, 112, 0, 1, 98, -51, 45, 41, -31, 40, 3, 15, -27, -66, 118, 9, 33, -70, -10, 115, -50, -117, 9, -127, 60, 41, 5, -28, 35, 52, 47, 34, 12, 64, 9, 32, -47, -20, 40, 81, -19, -36, 18, 34, 35},
  {117, -39, 27, -18, -35, 19, -65, 9, -127, -25, 21, -59, 27, 8, 38, 20, -109, 8, 33, 11, 103, -62, 88, 96, 26, -2, -127, 33, 54, 35, -27, 67, 38, 39, -26, -11, -14, -37, 69, -1, -28, 78, 29, 33, -57, -6, -47, 35, 10, -20, 2, 43},
  {-54, 13, -50, 19, 11, -1, 25, -25, 127, -13, 2, 27, -37, -34, -46, -10, 75, -22, -41, 40, -46, 1, -60, -30, -35, 20, 64, -42, -44, -26, 32, -27, -9, -29, 29, 22, 0, 15, -25, -16, 32, -47, -4, -4, 4, 6, 35, -41, 13, -9, -70, -6},
  {-25, 24, -29, 21, -3, 21, -25, -3, 8, -29, -38, 37, -40, -41, 17, -46, 53, 4, -16, 16, -84, 47, -90, -20, -54, -6, 127, -18, -49, -33, 68, -43, -43, 1, 5, 45, 51, 27, -42, 2, 55, -75, 27, -68, 7, 34, 66, -61, 16, -23, -16, -41},
  {14, 17, -16, -7, -8, 13, 83, 1, 47, -42, -4, -40, 15, -6, -12, 27, -96, -77, -23, 33, 11, -12, -24, -19, 21, 18, -127, 13, 107, 12, 18, 38, 21, -6, 46, 28, -79, -33, -38, -27, 0, -21, 27, 82, 62, 50, 4, 78, 7, -44, -39, -15},
  {40, -26, 63, -7, -9, 2, 28, 14, -12, -15, -7, -110, 50, 26, 17, 0, -82, 17, -15, -17, 67, 31, 67, 4, 36, 4, -127, 31, 54, 44, -59, 19, -27, -4, -16, -41, -82, -46, -20, -6, -69, 49, -21, -49, 2, 7, -82, 54, -22, 8, 81, 58},
};

static const float kLayer0OutProjScale[26] = {0.000949542737f, 0.00108144665f, 0.00116527663f, 0.00184902502f, 0.00132760266f, 0.00133008184f, 0.00114148203f, 0.00120010437f, 0.00208101305f, 0.00103267469f, 0.00108605868f, 0.00142412598f, 0.000871718104f, 0.00129066315f, 0.00184662687f, 0.00137034245f, 0.00119849201f, 0.00141390471f, 0.00138520123f, 0.00120561663f, 0.00100477005f, 0.0010609224f, 0.00156104914f, 0.00135795341f, 0.000808458077f, 0.00139702752f};

static const float kLayer1PreNormWeight[26] = {0.989620388f, 1.0018841f, 1.10886574f, 1.00086987f, 1.13228095f, 1.04807973f, 1.04914784f, 1.10164547f, 1.11795986f, 1.04756653f, 1.04738271f, 1.03089821f, 1.07634282f, 1.08870363f, 1.08725202f, 1.08149529f, 1.02589297f, 1.04681635f, 1.05012345f, 1.1027987f, 1.01659274f, 1.02296889f, 1.06428277f, 0.996575177f, 0.999432564f, 1.05236304f};

static const float kLayer1PreNormBias[26] = {0.0420379192f, -0.0563497879f, 0.0826326981f, -0.0030343167f, -0.073021695f, -0.0550163835f, 0.0391580015f, -0.0631454587f, -0.0806192383f, -0.0430962406f, -0.0752197579f, 0.0241521969f, 0.0151903974f, 0.0406332128f, 0.104788527f, 0.0111712851f, -0.0259359442f, 0.0566260703f, -0.0278179944f, 0.0380585492f, 0.052496776f, -0.0666272491f, -0.0190598462f, 0.0251946412f, -0.0651978776f, -0.0241696294f};

static const float kLayer1PostNormWeight[26] = {0.956032276f, 0.975348115f, 0.962171793f, 0.904786229f, 0.873660922f, 0.996233106f, 0.937365592f, 0.963450253f, 0.890535414f, 0.974901557f, 0.905304134f, 0.978783965f, 0.972323596f, 0.911720037f, 0.949430883f, 0.938846946f, 0.971414268f, 0.930145383f, 0.967185378f, 0.913567126f, 0.985082805f, 0.978096604f, 1.01868951f, 0.946450591f, 0.958909035f, 0.957426727f};

static const float kLayer1PostNormBias[26] = {0.000316510705f, -0.00538726989f, -0.00945688877f, -0.0201866105f, -0.0251687001f, -0.00388613623f, 0.00775444694f, -0.00800171867f, -0.0190213323f, 0.0131475655f, -0.00938383117f, 0.011710126f, 0.00382650713f, 0.00972744357f, 0.0198846478f, -0.0124300271f, -0.0112946006f, 0.00271591102f, -0.000908036774f, 0.00896136463f, 0.0271910131f, -0.0170159787f, 0.0200731363f, 0.0115500223f, 0.0214612782f, -0.0195450447f};

static const float kLayer1ALog[52][8] = {
  {0.0221195091f, 0.692093194f, 1.08935773f, 1.3724184f, 1.58491004f, 1.76126111f, 1.90718257f, 2.03366256f},
  {0.00795815047f, 0.67993778f, 1.07888782f, 1.36288929f, 1.58009005f, 1.75676835f, 1.90605748f, 2.03475285f},
  {-0.0412289575f, 0.63233912f, 1.02910316f, 1.31194496f, 1.53116488f, 1.71376979f, 1.86755931f, 2.00167751f},
  {-0.0228723288f, 0.657597721f, 1.05269861f, 1.33436763f, 1.54901779f, 1.72831583f, 1.88127244f, 2.00995493f},
  {-0.0495993011f, 0.620450795f, 1.01296329f, 1.289343f, 1.50821137f, 1.68815279f, 1.8473134f, 1.98248708f},
  {0.0120813176f, 0.688134849f, 1.09092939f, 1.380476f, 1.59763205f, 1.77427125f, 1.92477572f, 2.0460856f},
  {-0.0574529096f, 0.584606767f, 0.960342586f, 1.21754479f, 1.43840837f, 1.61561716f, 1.7722168f, 1.91337883f},
  {-0.0735365525f, 0.604229391f, 1.00365245f, 1.29385602f, 1.51547265f, 1.69779789f, 1.85506916f, 1.98290217f},
  {-0.0454009883f, 0.618187129f, 1.01777267f, 1.3021636f, 1.52470672f, 1.71007323f, 1.87203026f, 2.01349282f},
  {-0.0238216836f, 0.656998158f, 1.05052817f, 1.34099054f, 1.54152274f, 1.72148728f, 1.866732f, 1.99032199f},
  {-0.0273868386f, 0.645053029f, 1.04613912f, 1.33366835f, 1.55379736f, 1.73358846f, 1.88740921f, 2.01724553f},
  {-0.0462069698f, 0.61621511f, 1.01212561f, 1.28790522f, 1.50975502f, 1.68770087f, 1.846977f, 1.98660457f},
  {-0.0175337791f, 0.625965595f, 1.01759756f, 1.28662443f, 1.50751662f, 1.68109632f, 1.83386731f, 1.96466541f},
  {0.003886953f, 0.669371009f, 1.06895769f, 1.34973633f, 1.57205069f, 1.75206876f, 1.90240538f, 2.03311586f},
  {-0.0313555822f, 0.629777789f, 1.02544951f, 1.3043673f, 1.52416718f, 1.70273209f, 1.86243165f, 2.00142384f},
  {-0.0412811972f, 0.635355532f, 1.03122425f, 1.32225764f, 1.53200257f, 1.71376944f, 1.86686659f, 1.99257636f},
  {-0.00857456587f, 0.658315897f, 1.05343843f, 1.33451283f, 1.55181265f, 1.72924376f, 1.88031423f, 2.00929713f},
  {-0.017427342f, 0.645475984f, 1.05233121f, 1.32150114f, 1.55102158f, 1.72404957f, 1.88484132f, 2.02505302f},
  {-0.0640497729f, 0.614739239f, 1.01744545f, 1.29613066f, 1.52369773f, 1.70282233f, 1.85787678f, 2.00318098f},
  {-0.024518298f, 0.64548409f, 1.04241669f, 1.32438946f, 1.54361594f, 1.72311687f, 1.87547541f, 2.0067358f},
  {-0.078528598f, 0.585638642f, 0.983608544f, 1.26753473f, 1.49197268f, 1.6790638f, 1.83971846f, 1.98115206f},
  {0.00470526842f, 0.659192622f, 1.04828072f, 1.32265365f, 1.53619111f, 1.70922863f, 1.85599184f, 1.98297393f},
  {-0.0602360368f, 0.609192252f, 1.00561655f, 1.28611052f, 1.50731289f, 1.68827653f, 1.84260154f, 1.97815049f},
  {-0.0859676078f, 0.587502718f, 0.987894177f, 1.28142178f, 1.50203252f, 1.69248009f, 1.85392118f, 1.99212444f},
  {-0.0101362728f, 0.669161379f, 1.07172537f, 1.35999644f, 1.58011353f, 1.7617296f, 1.91238904f, 2.04395628f},
  {-0.0672422796f, 0.611227751f, 1.01710522f, 1.29382598f, 1.51718938f, 1.69060874f, 1.84028304f, 1.97125077f},
  {0.0159492102f, 0.687645376f, 1.08940172f, 1.37144637f, 1.59125292f, 1.76922262f, 1.91586435f, 2.04241467f},
  {-0.00184672547f, 0.663386703f, 1.06212544f, 1.34732068f, 1.56377959f, 1.74284899f, 1.89141417f, 2.02130103f},
  {0.0121784061f, 0.684450328f, 1.08926558f, 1.37134671f, 1.6015867f, 1.78380537f, 1.93986464f, 2.07314992f},
  {-0.0442848019f, 0.622092426f, 1.02202022f, 1.30585206f, 1.52846754f, 1.71023524f, 1.86625016f, 2.00041294f},
  {-0.0169165265f, 0.657797277f, 1.06193686f, 1.34995186f, 1.5720098f, 1.75767422f, 1.91473067f, 2.04659438f},
  {-0.0149502652f, 0.662798762f, 1.05958879f, 1.34505165f, 1.56543195f, 1.74810576f, 1.90225673f, 2.03732061f},
  {-0.0195846707f, 0.668753028f, 1.07213664f, 1.3572849f, 1.57048595f, 1.75180089f, 1.89983225f, 2.02329373f},
  {-0.0457671694f, 0.628129005f, 1.02918851f, 1.31778777f, 1.53055501f, 1.71328187f, 1.8668673f, 1.99850309f},
  {-0.037065547f, 0.613093317f, 1.00062168f, 1.27733028f, 1.49425602f, 1.67246878f, 1.82495213f, 1.95692015f},
  {0.0147126829f, 0.686554611f, 1.08554733f, 1.37032688f, 1.58433986f, 1.76024306f, 1.90891123f, 2.03486919f},
  {-8.23196897e-05f, 0.650155544f, 1.04071903f, 1.31637728f, 1.53119922f, 1.70494962f, 1.85125935f, 1.9812851f},
  {-0.0154894646f, 0.654931188f, 1.05489194f, 1.34461057f, 1.56113112f, 1.7420944f, 1.89271545f, 2.02161384f},
  {-0.0587198511f, 0.604208112f, 1.00345707f, 1.28839636f, 1.50768435f, 1.69231486f, 1.85475028f, 1.98987126f},
  {-0.0261180904f, 0.644693792f, 1.04739285f, 1.33361292f, 1.55166769f, 1.72900891f, 1.87942302f, 2.00658989f},
  {-0.041265294f, 0.636515796f, 1.04046488f, 1.327335f, 1.54986584f, 1.73067474f, 1.88557088f, 2.01827359f},
  {-0.0858532488f, 0.588946283f, 0.993380547f, 1.27130604f, 1.50448704f, 1.68292665f, 1.84208441f, 1.98190033f},
  {-0.0234831981f, 0.655381203f, 1.06660151f, 1.35131252f, 1.57442319f, 1.75064135f, 1.89814007f, 2.02559042f},
  {-0.0316517651f, 0.637670994f, 1.04205406f, 1.32243395f, 1.54704523f, 1.72715902f, 1.88390958f, 2.01930332f},
  {-0.0348001756f, 0.63018477f, 1.02934635f, 1.30865848f, 1.53692365f, 1.72028077f, 1.87829888f, 2.01700449f},
  {-0.154833823f, 0.508018434f, 0.907598794f, 1.19282556f, 1.41946447f, 1.60521948f, 1.76965475f, 1.9099437f},
  {-0.060221374f, 0.610627413f, 1.00264406f, 1.28991508f, 1.50521934f, 1.68817878f, 1.83979523f, 1.97143769f},
  {-0.110260293f, 0.563502729f, 0.968865156f, 1.25115979f, 1.47577822f, 1.65551782f, 1.81262684f, 1.94704354f},
  {-0.0292412918f, 0.651154578f, 1.05671692f, 1.3444804f, 1.56378627f, 1.74378884f, 1.896963f, 2.02853727f},
  {-0.023457516f, 0.637648761f, 1.04686582f, 1.30255401f, 1.53994656f, 1.70444119f, 1.85476553f, 1.98427832f},
  {-0.0813202113f, 0.587189436f, 0.98091507f, 1.27169061f, 1.4877106f, 1.67459261f, 1.83196819f, 1.96792197f},
  {-0.0749529377f, 0.580491424f, 0.968285263f, 1.25250673f, 1.4648031f, 1.64822435f, 1.80382514f, 1.93845654f},
};

static const float kLayer1D[52] = {0.979890227f, 1.01859999f, 1.03448164f, 1.08369458f, 1.03586388f, 1.05593657f, 1.16742408f, 1.01246667f, 1.08207321f, 0.987576425f, 0.999838233f, 1.06410038f, 1.02940679f, 1.01925266f, 1.11137509f, 1.04282928f, 1.01623678f, 1.05380082f, 1.10842252f, 0.970770538f, 1.06709802f, 1.03827202f, 1.09579897f, 1.09666693f, 1.05381405f, 1.01689136f, 1.0025599f, 1.03333735f, 1.07167518f, 1.0237298f, 0.978856683f, 1.02062082f, 1.04680753f, 0.989717782f, 1.04849279f, 1.00637925f, 1.01731837f, 1.00025177f, 1.0277437f, 0.974169612f, 0.992230773f, 1.05789971f, 0.982900143f, 1.00721729f, 1.13034141f, 1.08846009f, 1.00202692f, 1.05108023f, 1.01059818f, 1.08425367f, 1.06449616f, 1.0214026f};

static const int8_t kLayer1InProjQ[104][26] = {
  {-50, 8, -20, 10, 17, 26, -19, 124, 79, 31, 70, -42, -105, 3, -127, -14, 16, -106, -33, 98, -32, 63, -33, -59, 45, 44},
  {57, -27, 47, -2, -101, -43, 18, 50, -125, -24, -76, 9, 62, 21, 127, -4, 7, 90, -22, -75, 44, -66, 43, 18, -36, -8},
  {5, 1, -127, -31, 65, 14, -42, 15, 88, 2, 30, 29, -30, -44, -89, 14, -32, -49, -16, 23, -20, 4, 3, 38, 9, -21},
  {-43, 54, -127, 24, 109, 22, -38, 39, 93, -7, 53, 12, 9, -69, -81, 4, -33, -69, -12, 52, -56, 52, 43, 36, 52, 3},
  {65, -82, -3, 43, 79, -89, -9, 68, 127, -66, 36, 90, 59, -56, -95, 30, -44, -43, -58, -71, 121, 14, -23, 36, -33, -34},
  {26, 13, 127, -10, -80, -9, 36, -24, -76, -3, -25, -9, -26, 34, 69, -39, -5, 25, 4, 27, 40, -51, -25, 6, -11, -1},
  {18, -44, 7, -26, -73, 127, -42, -85, -66, 86, 42, 43, -70, 100, -62, 105, -6, 6, 82, 90, -44, 30, -71, 21, 52, -81},
  {0, 56, -33, 17, 35, 52, -19, -117, 3, 54, 87, 16, -5, 41, -81, 20, 87, -40, 76, 84, -99, 68, -127, -47, 42, -11},
  {24, -14, -92, 71, 81, -46, 42, 42, 118, -63, 81, 36, 68, -127, -116, 85, -45, -52, 22, 59, 30, 108, 49, 48, 56, -59},
  {-52, 29, -7, -22, 105, 16, -17, 36, 127, 53, 94, -18, -24, -67, -107, 12, -41, -80, -27, -101, 0, 48, 31, 90, 29, -10},
  {21, -47, 66, -58, -56, -24, 68, 66, -127, -49, -63, 28, 39, 76, 58, -6, -20, 47, 30, -112, 92, -68, 10, -1, -43, -16},
  {-48, 60, 22, 1, -101, 48, -75, -24, -103, 77, -45, -71, -40, 28, 84, 63, 77, 56, -3, 21, -127, -59, -94, -77, -12, 94},
  {-54, 38, -79, 40, 72, 57, -32, -35, 34, 74, 27, -2, -91, -6, -68, 29, 24, -64, -21, 127, -76, 31, 28, -16, 32, -42},
  {-8, 40, -83, 50, -7, 25, 33, -74, 13, 10, -21, 7, -1, -113, -18, 127, 4, -58, 30, 93, -33, 44, 8, -34, -6, -50},
  {57, -37, -20, -26, 70, -76, 50, 122, 100, -47, 71, 22, 38, -72, -127, -5, -69, -92, -17, -33, -10, 76, 31, 80, 26, -26},
  {3, -39, 58, 51, -70, -34, 104, -89, -108, -55, -32, 21, 101, 108, 127, 18, 40, 78, 44, 102, 33, -73, -120, -108, 20, -32},
  {-13, 6, -115, 34, 90, 19, -54, -12, 127, 6, 48, -15, -36, -49, -85, 15, 2, -59, -37, 19, -52, 24, -29, 9, 12, -28},
  {-29, -24, -83, 36, 72, -65, 66, 94, 115, -58, 127, 10, 37, -61, -72, -38, -38, -91, -35, 70, 37, 100, -36, 35, 4, -6},
  {97, 3, -14, -45, 25, 15, 77, -123, 77, -3, -2, -3, 46, 17, -59, 98, 4, 5, 43, -19, 34, 57, -127, -4, -26, -89},
  {-5, 18, -8, 32, 39, 95, -28, -68, 112, 10, 80, -6, -43, -56, -127, 20, -6, -23, -8, -12, -51, 25, -92, -38, -30, -41},
  {-9, 40, -92, 48, 91, 15, -12, 73, 121, -19, 79, 37, -23, -127, -117, 34, -24, -72, -95, -2, -9, 23, 34, 47, -34, 40},
  {-81, 73, -93, 71, 127, 33, -82, -66, 75, 55, 9, -8, -85, -40, -50, 26, 26, -100, 14, 125, -85, 24, -1, -27, 43, -32},
  {-9, 16, -127, 27, 90, 14, -57, 12, 97, 26, 48, -40, -32, -53, -58, 50, -24, -62, 1, 64, -39, 34, -3, 12, 19, 4},
  {45, -35, 121, 27, -92, -37, 97, 2, -98, -40, -18, -44, -2, 76, 127, -5, -8, 63, -30, -13, 43, -51, -18, -11, -46, 32},
  {-4, -26, 88, 15, -101, -25, 112, -45, -127, -13, -45, 10, -31, 84, 123, -20, -32, 104, -40, 8, 28, -48, 18, 0, -28, 1},
  {75, -87, -3, -12, 85, -14, 8, 16, 96, 14, 8, 58, 16, 2, -127, 10, -14, -26, -32, -62, 70, -8, -54, 60, -61, -54},
  {54, -43, 36, -22, -56, -52, 71, 94, -127, -34, -49, 66, 93, 44, 45, 3, -75, 38, -53, -52, 41, -81, 45, 10, -11, 4},
  {10, -33, -96, -78, -104, -58, 55, 66, -123, -26, -58, 59, 68, 17, 103, 18, -43, -13, 49, 95, 17, -85, 127, 11, 20, 25},
  {43, -34, 96, -11, -30, -5, 37, 21, -127, -26, -43, 13, 25, 79, 107, -85, 26, 13, -80, -69, 66, -97, 30, 10, -22, 7},
  {0, -2, 72, 43, -120, 9, 77, -17, -114, -24, 50, -71, -22, 101, 127, -15, -23, 81, 23, 32, -3, -67, -40, -87, 10, 27},
  {-2, 31, 57, -52, -91, 19, 35, 6, -127, 25, -62, 64, -9, 94, 67, -27, -17, 70, 12, 80, -24, -65, -1, 9, -22, 2},
  {-12, -5, 51, -12, -11, -55, 64, 29, -127, -21, -67, 4, 69, 62, 68, -40, -8, 32, -13, -64, 43, -24, 91, 30, -5, 22},
  {-85, -39, -58, -53, 106, -28, -38, 74, 118, -60, 10, -44, -41, -127, -95, 21, -107, -52, -45, -121, -37, 73, 110, 111, 24, -18},
  {-63, -12, -35, -16, 69, 13, 31, 75, 126, -24, 78, -8, 27, -53, -127, -39, -4, -16, -15, -84, -41, 95, -71, 31, 57, 19},
  {-63, 58, -81, 58, 116, 59, -100, -32, 88, 71, 35, -11, -55, -50, -67, 44, 33, -56, 5, 127, -64, 45, 28, 7, 28, -61},
  {16, -24, 6, -42, -89, -37, 42, 18, -105, -10, -43, 21, 41, 8, 127, 11, -1, 78, 8, -13, 26, -63, 34, 24, -42, -6},
  {-118, 29, -56, 43, 127, 85, -96, -105, 65, 7, 14, -8, 12, -36, -84, 83, 10, -122, 42, 121, -52, 58, 32, -35, 22, -18},
  {-27, 66, -38, 102, 88, 12, -23, -5, 74, 10, 81, -70, -87, -105, -127, 8, 35, -74, -51, 32, -37, 104, -31, -21, 0, 26},
  {-27, 94, 1, -39, -82, 74, -80, -63, -127, 32, -21, 50, -78, 106, 103, -78, 9, 47, -1, 18, -7, -35, 37, -27, 50, 70},
  {38, -28, 31, -36, -125, -54, 83, 39, -127, -76, 24, 61, 69, -40, 38, 4, -58, 90, -11, 67, 89, -70, 4, 63, -24, -6},
  {-22, 7, 36, 61, 44, 14, 25, 5, 127, 7, 87, -59, -57, -26, -86, -4, 14, -54, 1, -43, -23, 54, -82, -37, 41, 39},
  {78, -82, 40, -61, 47, -69, 54, -18, 127, -8, -32, 16, 68, 40, -35, 71, 40, 38, 68, -94, 73, 10, -83, 91, -43, -31},
  {34, 29, -68, -82, -67, 56, 74, 119, 84, 12, 11, 29, 42, -42, -127, -28, -18, -61, -21, 75, -108, 40, -55, 7, 8, 39},
  {-12, -8, -71, 30, 79, -10, 22, 58, 127, -13, 70, -21, 16, -26, -111, 6, -8, -84, -39, -29, -30, 65, -40, 19, -18, -14},
  {44, 7, 96, -13, -34, -41, 91, -20, -113, -12, -51, 20, 4, 84, 87, -127, -18, 97, -18, -102, 25, -86, 40, 23, -28, 55},
  {-46, 57, -127, -10, 105, 80, -64, -21, 88, 46, -39, 36, -16, -20, -55, 44, 18, -33, 38, 32, -52, 25, 33, 17, 26, -36},
  {-40, -19, -96, 58, -1, -16, 13, -14, -127, -15, 7, -22, 21, 56, 93, 34, -48, 13, -50, 84, 5, -27, 59, -63, 22, 28},
  {87, -35, 2, -105, 81, -50, 97, -9, 93, -32, 76, -4, -47, 30, -92, 9, -69, -6, -8, -66, 32, 18, -127, 92, -13, -94},
  {-51, -12, -21, 47, 56, 15, 8, 127, 120, 21, 28, -46, -26, -84, -104, -122, 11, -97, -13, -60, -1, 109, -75, 59, 46, -8},
  {-42, 73, -8, 73, -107, 96, 1, 8, -127, 84, 38, -32, -31, -76, 2, -52, 32, -54, -36, 82, -50, 26, -26, -55, 77, 120},
  {-34, 35, -104, 30, 127, 41, -70, -14, 115, 23, 36, 14, 20, -59, -72, 30, -16, -56, -23, 32, -58, 75, 12, -16, 36, -3},
  {-48, 71, -25, -26, -92, 58, 37, -63, -88, 44, -103, 71, -9, 127, 103, -100, -22, 90, 21, 52, -56, -62, 94, -32, -58, 27},
  {48, -51, -28, -48, 44, -55, 66, -8, 67, -79, -127, 72, 118, -24, 68, 92, -118, 20, 21, -29, 50, -112, 94, 64, -108, -40},
  {14, -64, -53, -48, 75, -7, -20, 5, 83, -25, -90, 12, 51, 43, 31, 127, -54, -57, 23, 62, 21, -13, 7, 56, -15, -97},
  {-7, -26, -54, 26, 115, -31, -18, -82, -17, -47, 10, 69, 53, 24, 14, 127, -39, -38, -2, 99, 37, -47, 22, -2, -39, -42},
  {-15, -25, 93, 18, -60, 47, 52, 99, -7, 41, 103, -127, -116, -29, 8, -126, 40, -25, -89, -87, -50, 28, 47, -12, 20, 66},
  {-28, 55, 39, -51, -4, 61, -59, -123, -35, 119, -97, -1, -62, 101, 24, 7, 99, 101, 94, -127, -46, -47, -90, -9, 38, 9},
  {7, -8, -64, 51, 30, -25, 3, -80, -47, -11, -17, 49, 127, 56, 19, 76, -19, 30, 64, 88, 29, -8, 1, 26, 12, -28},
  {-4, -9, -32, 16, 105, -37, -127, -39, 64, -25, 22, 72, 62, -83, 18, 10, -52, -74, -71, 99, 41, -68, 60, 17, -67, 29},
  {7, -80, -78, -37, 11, -48, 48, -76, -81, -41, -126, 32, 30, 127, 111, 105, -17, 82, 61, 67, 11, -54, -16, -27, -56, -94},
  {13, 14, 96, -19, -105, 80, 29, -84, -5, 86, -101, -70, -127, 62, 72, -96, 51, 80, 17, -32, -90, -46, -93, -41, -26, 92},
  {-37, -48, -25, 47, -46, -79, 75, -43, -18, -82, 2, 25, 71, -12, 50, 65, -47, -36, -25, 127, 46, -66, -19, -46, -79, -104},
  {55, -24, -69, -22, 55, -62, -27, -74, -48, -44, -127, 72, 49, 108, 22, 69, -30, 32, 57, 6, 17, -25, 15, -2, -42, -53},
  {-10, 75, 68, -34, -54, 97, -105, -118, -58, 127, -108, -22, -31, 113, 39, -49, 96, 41, 35, -67, -51, -34, -64, -14, -13, 37},
  {-62, 25, 88, 101, -78, -38, 82, 84, 11, -14, 127, -99, 57, -73, -124, -110, -13, -73, -65, -87, 1, 83, -54, -25, 36, 68},
  {-14, -32, -86, -9, 79, -80, -127, 34, 4, -27, 15, 23, -22, 101, -60, 13, -12, -33, -16, 13, 22, -65, 69, 13, -1, -91},
  {4, 68, 39, 14, -45, 72, -72, -100, -40, 93, -127, -76, -30, 31, 72, -43, 117, 61, 74, -52, -67, -29, -58, -54, -38, 34},
  {66, -13, -25, 112, 33, -44, 22, -48, -81, -72, -42, 29, 127, 56, 106, 48, -21, 24, -41, 112, 55, -116, -19, -88, -79, -73},
  {53, -24, -102, 2, 101, -29, 8, -127, -48, -93, -42, 54, 48, 69, 49, 97, -16, -27, 24, 89, 13, -40, 56, -14, -18, -78},
  {-39, 112, 86, 48, -27, 109, -51, -46, -51, 127, 33, -84, -80, 106, 60, -29, 118, -41, -40, -35, -91, -30, -5, -35, -7, 15},
  {-88, -30, -93, 38, 127, -14, -95, 28, 66, -55, 42, 35, -90, -15, -80, 30, -29, -37, -37, 100, 2, 20, 57, 65, 60, -80},
  {-24, -27, -93, -45, 34, -20, 4, -52, -80, -55, -103, 18, -38, 11, 71, 72, 5, 36, -32, 127, 47, -59, 60, 46, -55, -72},
  {-47, 31, 79, -1, -91, 15, 63, -62, -26, 61, -59, -95, -30, 13, 28, -127, 57, 69, 86, -87, -66, 55, -66, -34, 39, 50},
  {-25, -7, 36, 38, -114, -15, 37, 127, -16, -14, 115, -25, 33, -85, -66, -123, 28, -25, -42, -52, -14, 61, -33, -35, 33, 113},
  {-25, -29, 67, 45, -70, -26, 16, 97, -51, 16, 64, -56, -38, -25, 15, -127, 60, -9, -46, -73, -2, 9, -31, -19, 16, 71},
  {17, -28, 84, -34, -66, 19, 43, 72, 22, 47, 19, -73, -123, -16, 10, -127, 40, 38, -60, -82, -44, 3, -19, 13, -22, 86},
  {-44, 32, 84, -39, -45, 7, 28, -4, 3, 76, -22, -47, -91, -17, 9, -127, 61, 56, 46, -64, -48, -6, -18, -18, 51, 60},
  {-9, -29, -40, 33, -6, -58, 43, -31, -37, -98, 68, -19, -69, -54, 69, 55, -57, -47, -38, 127, -33, -51, 67, -20, -22, -55},
  {19, -41, -87, -44, 63, -14, 7, -17, -2, -28, -55, 9, 18, 26, 67, 10, -5, -11, 35, 85, 16, -22, 127, 25, -52, -78},
  {-3, -23, -29, 31, 127, -49, -34, 40, 40, -36, -20, 62, 5, 87, 93, 30, -47, 1, -82, 5, 22, -60, 118, 64, -67, -17},
  {3, 23, 70, 27, -91, 11, 25, 12, -1, 39, 32, -62, -114, -1, 39, -127, 42, 32, -11, -36, 2, -2, -24, -35, -2, 33},
  {15, 25, 64, -29, -29, 16, 15, 18, 10, 51, -72, -22, -52, 35, 13, -127, 54, 71, 32, -61, -67, 20, -5, 18, -9, 49},
  {-8, 40, 57, -40, -70, 105, -9, -74, 14, 103, -46, -47, -127, 13, 40, -48, 65, 85, 49, -65, -82, -20, -62, -10, -21, 57},
  {-15, -3, -100, -42, 94, -39, -43, -67, -1, -31, -118, 49, 51, 74, 83, 127, -65, -40, -48, 97, 60, -24, 68, -2, -51, -88},
  {25, -7, -35, 57, 39, -36, 51, -75, -101, -62, 30, 33, 50, 51, -8, 58, -21, 26, -38, 127, 39, -59, -16, -97, -59, -75},
  {-14, -99, -58, 40, 13, -95, 106, 86, -14, -127, -45, -126, 97, -23, 86, 75, -31, 16, 26, 88, 102, -32, 0, -21, -44, -104},
  {-20, -53, 107, 77, -100, 1, 62, 121, 11, -14, 100, -95, -21, -87, -57, -127, -9, -34, -38, -47, 4, 76, -80, -48, 62, 121},
  {15, -41, -29, 55, 110, -86, 47, 34, 93, -104, -93, 37, 42, -35, 102, 127, -27, 27, -53, 37, -7, -13, 31, 33, -87, -80},
  {-19, 35, 64, 19, -49, 6, 88, 15, 30, 19, 84, -50, 62, -60, -21, -117, -13, 5, -42, -87, -35, 16, -39, -28, -4, 127},
  {62, -20, -70, -59, 106, -89, 3, 127, 103, -101, -104, 70, 81, -27, 90, 83, -54, 15, 15, 20, 32, -43, 117, -40, -109, -82},
  {2, 65, 45, -68, -75, 82, -54, -89, 14, 93, -127, -47, -82, 45, 27, -23, 53, 55, 89, -63, -111, 18, -42, -37, -24, 20},
  {58, -27, -29, 77, 42, -37, -3, -72, -47, -20, -99, 35, 9, 25, 127, 49, -21, -2, -25, 96, 5, -36, 46, -6, -19, -88},
  {4, -43, -37, 31, 127, -86, 70, 92, 84, -91, -93, 28, 22, 93, 126, 65, -105, 12, -4, 0, 34, -112, 69, 16, -28, -15},
  {-42, -37, -89, 49, 103, -7, 51, 49, -7, -64, 122, 8, -127, -61, -68, 13, -120, -63, -70, 124, 0, 49, 53, -6, 16, -27},
  {24, -68, -125, -9, 83, -16, -14, 25, -77, -73, 68, 61, -29, 92, 50, 127, -14, -35, -40, 57, 77, -94, -9, 62, -41, -67},
  {-50, 53, 67, -73, -90, 79, -15, -44, -6, 104, -46, -77, -127, 60, 1, -122, 86, 49, 60, -59, -81, 34, -65, -47, 6, 116},
  {-1, 1, 90, 36, -84, 14, 49, 27, -24, 17, -55, -71, -60, -24, 8, -127, 8, 87, 30, -72, 15, 13, -48, -23, -13, 123},
  {5, -17, 64, 7, -85, -18, 56, 127, 20, -28, -22, -70, -46, -36, 13, -121, 23, -15, -68, -102, 0, 10, -54, -2, -8, 90},
  {-104, -50, 33, 107, 89, -55, 20, 3, -66, -49, 30, -58, -67, 31, 102, 12, -101, -41, -127, 104, 43, -4, 54, -24, -15, -70},
  {-18, -41, -65, 18, 127, -27, 16, 14, 63, -46, 65, 59, -55, -46, 46, 46, -50, -44, -61, 93, 44, -52, 59, 65, -55, -84},
  {28, -100, 7, 93, 97, -80, 88, 27, 69, -100, -59, -1, 94, -56, 114, 41, -90, 53, -98, -42, 127, -38, 30, 73, -85, -86},
  {-68, 10, -52, 79, -24, -39, 38, -62, -8, -61, 105, -90, -15, -84, -43, 2, -10, -28, -34, 125, 3, 127, -62, -64, 101, -35},
  {-23, -14, 102, 11, -56, 9, 35, 103, 12, 31, 58, -76, -84, -28, 8, -127, 6, 23, -66, -97, -10, 18, -73, -3, -4, 103},
  {-37, -55, -45, 34, 37, -58, 77, 90, 23, -45, 30, 65, 44, 41, -6, 7, -94, -78, -74, 127, 57, 25, 47, 82, -53, -42},
};

