#pragma once

#define BABYMAMBA_VARIANT_CROSSOVER 0
#define BABYMAMBA_VARIANT_CHANNEL_INDEPENDENT 1
#define BABYMAMBA_DATASET_NAME "unimib"
#define BABYMAMBA_DISPLAY_NAME "UniMiB-SHAR"
#define BABYMAMBA_SEED 29
#define BABYMAMBA_SEQ_LEN 128
#define BABYMAMBA_IN_CHANNELS 3
#define BABYMAMBA_NUM_CLASSES 9
#define BABYMAMBA_D_MODEL 24
#define BABYMAMBA_D_STATE 16
#define BABYMAMBA_D_INNER 48
#define BABYMAMBA_DT_RANK 2
#define BABYMAMBA_D_CONV 4
#define BABYMAMBA_NUM_LAYERS 4
#define BABYMAMBA_STEM_KERNEL 5
#define BABYMAMBA_PATCH_KERNEL 16
#define BABYMAMBA_PATCH_STRIDE 4
#define BABYMAMBA_PATCH_OUT_LEN 31
#define BABYMAMBA_SCAN_IMPL_FALLBACK 0
#define BABYMAMBA_FIXTURE_LABEL 0

static const char* const kBabyMambaClassNames[BABYMAMBA_NUM_CLASSES] = {"Activity_0", "Activity_1", "Activity_2", "Activity_3", "Activity_4", "Activity_5", "Activity_6", "Activity_7", "Activity_8"};

static const float kStemWeight[24][1][5] = {
  {
    {0.659120142f, 0.552185893f, 0.0885400698f, -0.911881685f, -0.500550747f},
  },
  {
    {0.651230991f, 0.564639509f, 0.261061579f, -0.356887192f, -0.291747868f},
  },
  {
    {0.459883362f, 0.688468575f, 0.336381644f, -0.513845563f, -0.87353301f},
  },
  {
    {-0.293484211f, -0.415557772f, -0.315125227f, -0.257097423f, -0.0185540505f},
  },
  {
    {0.0208733827f, -0.0733455643f, 0.289010078f, 0.330923617f, 0.587159455f},
  },
  {
    {0.243448064f, 1.22144508f, -0.444626361f, -0.907344282f, 0.0526892915f},
  },
  {
    {0.0866005346f, 0.0365175828f, -0.312827677f, -0.150806293f, 0.981015205f},
  },
  {
    {-0.606127679f, -0.396727741f, 0.0416599438f, 0.334263146f, 0.760024607f},
  },
  {
    {-0.789170623f, -0.00199278514f, 0.391084701f, 0.791609049f, 0.165806547f},
  },
  {
    {-0.390622258f, -0.764313757f, -0.454751492f, 0.807702482f, 0.767878056f},
  },
  {
    {0.698822021f, -0.205440536f, -0.290282547f, -0.45257768f, -0.59762466f},
  },
  {
    {-0.201376691f, 0.443517983f, -0.0678584799f, -4.75432498e-05f, 0.340721577f},
  },
  {
    {0.877292335f, -1.21189213f, 0.0711036101f, 0.163492531f, 0.0930438563f},
  },
  {
    {0.544663489f, 0.674152493f, -0.834192932f, -0.74360764f, 0.567646801f},
  },
  {
    {-0.741913497f, -0.222283468f, 0.231987074f, 0.770822465f, 0.31154561f},
  },
  {
    {-0.296760857f, -0.470603764f, 0.259363234f, 1.09643078f, 0.00522128679f},
  },
  {
    {-0.814221561f, 0.904427528f, -0.495159358f, 1.31274736f, -0.819411993f},
  },
  {
    {0.237634391f, -0.325495631f, -0.614469945f, 1.61422527f, -0.580704033f},
  },
  {
    {-0.16211392f, 0.0274627991f, 1.17466152f, -0.581147015f, -0.0488936603f},
  },
  {
    {-0.193340525f, -0.424115777f, -0.624135971f, -0.391595513f, 0.987244904f},
  },
  {
    {-0.0984914973f, 0.10467799f, 0.544855595f, 0.226893663f, 0.250947654f},
  },
  {
    {-0.127555192f, -0.149072945f, -0.237552553f, -0.276830971f, -0.143827692f},
  },
  {
    {0.158513486f, 0.557934582f, 0.249055639f, -0.508178115f, -0.830784798f},
  },
  {
    {-0.943087459f, -0.159272194f, 0.0908994749f, 0.526980579f, 0.0453552678f},
  },
};

static const float kStemBias[24] = {-0.0282919817f, -0.380549371f, -0.492073596f, -0.144965559f, -0.0990931019f, 0.144588768f, -0.229034111f, 0.0148935812f, -0.222950459f, -0.0068365233f, -0.147670507f, -0.198424339f, -0.287461877f, -0.0888473392f, 0.154870629f, -0.315417737f, -0.39916718f, -0.114710696f, -0.0905661955f, -0.00854287762f, -0.0192714985f, -0.172265619f, 0.0674565285f, -0.22035569f};

static const float kPatchDepthwise[24][16] = {
  {0.219774023f, 0.165805325f, 0.144089624f, 0.18447645f, -0.029147489f, -0.0826920122f, -0.0320103057f, -0.102649637f, -0.0252899677f, -0.122344665f, -0.20334211f, -0.194834411f, -0.0396314934f, 0.0470017307f, 0.0808278769f, -0.0459166355f},
  {-0.0937858522f, -0.0474916101f, -0.00348622468f, 0.0549661182f, 0.112667918f, 0.000686351385f, -0.0239239689f, -0.192120776f, -0.210430831f, -0.241238967f, -0.0223968979f, -0.0460208431f, 0.143937021f, 0.115327328f, 0.0311208013f, 0.0371558145f},
  {0.0481243096f, 0.152075022f, 0.257830054f, 0.28215152f, 0.0759663656f, 0.18982242f, 0.0695419163f, 0.0875544846f, 0.161860183f, 0.148529664f, 0.151780412f, 0.214245945f, 0.117551349f, 0.0934126228f, 0.0633481219f, -0.0315683186f},
  {0.160516247f, 0.296232969f, 0.0423431434f, 0.0675647408f, 0.181039214f, 0.173250616f, 0.16987054f, 0.133283168f, 0.034712512f, 0.047946468f, -0.0954327509f, -0.0842682496f, -0.168112874f, -0.162235647f, -0.20879285f, -0.237048283f},
  {-0.147010848f, -0.206521466f, -0.191578984f, -0.107774995f, -0.0940346792f, 0.0532809086f, 0.0135125592f, 0.185106009f, 0.288190514f, 0.194578722f, 0.16350539f, 0.0856890455f, 0.00163153291f, 0.0366188921f, 0.0636372417f, -0.182438537f},
  {0.143039763f, -0.0589150339f, -0.0395857543f, -0.0501681045f, -0.0858680084f, -0.239915848f, -0.124495767f, 0.0272842329f, 0.175753057f, 0.113095321f, -0.0253999121f, -0.0314167179f, -0.0840193704f, 0.238460124f, 0.152664676f, -0.143193945f},
  {0.0272451267f, 0.0322218835f, 0.154252127f, -0.003176898f, 0.0462661125f, 0.0877376273f, -0.0387892574f, -0.165204525f, -0.013242363f, 0.0739613026f, 0.0799772143f, -0.0675724f, -0.0984140262f, -0.0888381079f, -0.20998913f, -0.169713303f},
  {-0.0345924646f, 0.0337721668f, 0.138036564f, 0.0902289301f, 0.144961804f, 0.0451518036f, -0.0821294859f, -0.161860853f, -0.140392825f, 0.0272613131f, -0.0583790243f, 0.0528809614f, -0.190444574f, 0.0381672271f, 0.0529465638f, 0.201922506f},
  {-0.0556809641f, 0.0590987541f, 0.0212807879f, 0.118237257f, 0.0613293275f, 0.0182009228f, 0.00130789168f, 0.0538164154f, 0.255365372f, -0.135221258f, -0.11102587f, -0.121913679f, -0.0959326997f, -0.064068228f, -0.142914042f, -0.0708938017f},
  {0.127464071f, 0.0281094015f, 0.00255005667f, 0.0432739742f, -0.120479703f, 0.00824509468f, -0.153057396f, -0.158372745f, -0.0846221969f, -0.255377471f, -0.0723038167f, 0.179962322f, 0.12838693f, 0.210699365f, 0.127442762f, 0.0521230362f},
  {-0.0915778279f, -0.0717212409f, 0.0371179506f, -0.0734813884f, -0.196336076f, -0.228958607f, -0.126231179f, 0.0697115883f, 0.0906011462f, 0.127225965f, 0.130563259f, -0.0375217535f, -0.029069908f, -0.0369694307f, 0.0529911593f, 0.143112406f},
  {0.0865913108f, 0.0361235887f, 0.022912804f, 0.0494010597f, 0.171134129f, -0.0874635577f, 0.015246259f, -0.0280123055f, 0.122960269f, -0.0680794567f, -0.0439661704f, 0.0369846709f, -0.0428305902f, -0.0980802402f, -0.0867490694f, -0.0793994889f},
  {-0.0267964695f, -0.0727667734f, -0.0643292218f, 0.0124816839f, -0.027775906f, -0.0698025748f, -0.0439064465f, 0.0507000908f, 0.0409757458f, -0.0273975208f, 0.00352117f, 0.0823039711f, 0.0638901293f, 0.0195692927f, 0.063149333f, 0.00762623176f},
  {-0.138636753f, -0.039568346f, 0.091520384f, 0.184417993f, 0.0040564402f, -0.0137240021f, -0.0669016466f, 0.0413041636f, -0.0160167385f, -0.00456392067f, 0.0583896115f, 0.0448808447f, 0.104476653f, -0.0411058404f, -0.248984292f, -0.225180581f},
  {0.198014587f, -0.071856685f, 0.0455527119f, 0.0172315892f, 0.19203347f, 0.016799299f, 0.0477419645f, 0.0359840654f, 0.119618535f, -0.0306057837f, -0.0812168792f, -0.22592172f, -0.149210945f, -0.123278938f, -0.127940252f, -0.131268933f},
  {0.0175911654f, -0.0960374922f, -0.111699462f, -0.18035154f, -0.18168214f, 0.0839144439f, 0.0639392659f, 0.0132031087f, 0.0307157021f, 0.221616909f, 0.135780424f, 0.146922901f, 0.018693395f, -0.0227371361f, -0.0609622374f, -0.0486750305f},
  {-0.121745892f, -0.160860404f, -0.0523988754f, 0.0524326377f, -0.147835493f, 0.0671993643f, 0.00228870264f, -0.0474623628f, -0.110008992f, -0.183232874f, -0.0962953046f, -0.0751728117f, 0.0730688944f, 0.0444450416f, -0.147884175f, -0.140369251f},
  {0.0650217086f, -0.0378501825f, 0.0628016666f, 0.0547197424f, -0.0601304993f, 0.208697677f, -0.032351613f, -0.0675033107f, 0.0426089317f, -0.227052674f, -0.183336809f, -0.116873503f, 0.0648016483f, -0.0354799442f, 0.0309938397f, 0.151111633f},
  {-0.0962129086f, 0.00129621127f, -0.0766026974f, -0.0776330605f, -0.0516362749f, 0.12319427f, -0.0222176127f, -0.170285061f, -0.11353606f, 0.0403546356f, 0.135645702f, 0.118056022f, 0.0199640077f, -0.0214230232f, 0.089185074f, 0.0507990159f},
  {-0.0322101302f, 0.205086291f, 0.104622386f, 0.204952419f, -0.0456884354f, -0.13444525f, -0.157840252f, -0.181709826f, -0.00522828568f, -0.0456425957f, -0.0754028708f, -0.0210485049f, 0.190442562f, 0.115737952f, 0.0897185653f, 0.113695577f},
  {0.0647395402f, 0.0792895183f, 0.0318145677f, 0.0516584292f, 0.0939321145f, 0.211705044f, 0.132667989f, 0.0413828678f, 0.0331564136f, 0.10929957f, -0.0493943579f, -0.130277589f, -0.123684794f, -0.240656242f, -0.244842812f, -0.10976284f},
  {-0.0275460072f, -0.0660161301f, -0.0616124347f, -0.0210188478f, -0.00443962729f, -0.0264511742f, -0.043681141f, -0.0134578217f, 0.0116847754f, -0.0025095623f, 0.0808213875f, 0.0722220838f, 0.113878317f, 0.143951982f, 0.0949969962f, 0.16494517f},
  {0.0958016813f, -0.000730502594f, -0.0484592654f, -0.0501589887f, -0.0510520525f, 0.143409669f, -0.0709444731f, 0.026606679f, 0.147031248f, 0.0662195832f, 0.123112217f, 0.202460587f, -0.0397278033f, -0.173021451f, -0.235103771f, -0.159242675f},
  {0.15672937f, 0.142980039f, -0.12121927f, 0.0127684362f, 0.0272559002f, -0.0840783715f, -0.0743658021f, -0.152018905f, -0.0637648627f, -0.035229817f, 0.0864170715f, -0.00359519338f, -0.00547849247f, -0.0310715232f, 0.110589705f, 0.0182387419f},
};

static const float kPatchPointwise[24][24] = {
  {-0.549239099f, 1.16951525f, -0.273195416f, 0.978507876f, -0.16255258f, 0.194395453f, 0.103065297f, -0.401589423f, 0.754374087f, -0.14578189f, 0.0626877174f, 0.0168491099f, -0.0861179531f, 0.713620782f, 0.62534982f, -0.0736214221f, -0.360304564f, 0.316800773f, 0.902088881f, 0.428243399f, -0.0938618109f, 1.04475248f, 0.0821934417f, 0.655834675f},
  {-0.884570479f, -0.0177275259f, 0.530301094f, 0.490924239f, 0.190127745f, -0.107624128f, 0.190834939f, 0.706292391f, -0.786554933f, 0.740597367f, -0.28323701f, -0.656994045f, 0.380395412f, -0.124662891f, -0.726995826f, -0.208664164f, 0.620154858f, 0.132909998f, 0.335091114f, 0.705320895f, -1.7195096f, -0.755670607f, 0.362145096f, -0.428412139f},
  {-1.64514351f, -0.631672621f, -0.592803657f, 1.23145342f, 0.289025873f, 0.977271736f, -0.364306003f, -0.0949344039f, 0.0437183119f, 0.0861135051f, 0.908005893f, 0.114195317f, 0.30586952f, -0.59467864f, -0.0765549615f, 0.00549672032f, 0.373731047f, -0.330113947f, -0.264332831f, -0.622536957f, 0.745297849f, -1.20515728f, 0.338407516f, 1.08158183f},
  {-0.483718753f, -1.64231122f, 0.327771693f, 0.465631068f, 0.671458066f, -0.0520323962f, -0.781613469f, 0.614881933f, 0.100090437f, 0.0796316862f, -1.37388682f, 0.547636032f, -0.224168703f, 0.470951855f, -0.353009969f, -0.11611934f, -0.547190249f, 0.32376197f, -0.110845678f, -0.0463029705f, -0.439484447f, 0.299272031f, -0.00135138037f, -0.279133767f},
  {0.901772857f, 0.229830593f, 0.25939554f, 0.400930315f, -0.0924022272f, 0.399251223f, 0.488013357f, -0.559545696f, -0.405403286f, -0.0468948334f, 0.312329322f, 0.0230556186f, -0.318745375f, 0.148139015f, -0.507867396f, 0.863542795f, -0.0601924323f, 1.00902665f, -1.26133811f, 0.446461767f, -0.628468215f, -0.14119105f, -0.997429371f, 0.584679425f},
  {0.0111123193f, -0.0636253729f, -0.996083081f, 0.0951553509f, -0.169391528f, 1.07499981f, 0.61893034f, 0.442466706f, 0.0643802509f, -0.775945663f, 0.665414274f, -0.354600072f, 0.643266857f, 1.34268796f, 0.52988261f, 0.776339591f, 0.0240232348f, 0.0708333701f, 0.135640591f, -0.191668198f, 0.345930338f, 0.366115093f, 0.0261807628f, -0.216215238f},
  {-0.311579943f, 0.47858277f, 1.05426908f, -0.686293304f, 1.60190153f, -0.32154879f, 0.32605809f, -0.0729808733f, -0.463595569f, 0.270311147f, 1.23851347f, 0.36895594f, -0.567663372f, 0.877272308f, 0.204344556f, 0.490240276f, 0.528913617f, 0.0623096302f, 0.416852385f, 1.19441986f, 0.36697346f, -0.233880252f, 0.102054156f, -0.0256175529f},
  {-0.843509972f, 0.22915554f, -0.104443975f, 0.140925497f, 0.0451420508f, -0.751566708f, -0.827006221f, -0.664996147f, -0.163837358f, 0.597874343f, -0.207704514f, -0.297922015f, 0.541757405f, -0.0214605723f, 0.772911012f, -0.0639639944f, -1.24465466f, 0.143108591f, 0.790354848f, -0.682451844f, -0.153188974f, 0.501296103f, 0.264037848f, 0.931456685f},
  {0.287018985f, -0.304531187f, -0.362403095f, 0.137435973f, -0.24271892f, 1.15547514f, 0.21113655f, -0.160486147f, 0.398295611f, -0.055261191f, 0.407220364f, -0.10146974f, 0.184871629f, -0.47592175f, -0.131764814f, 0.14436841f, 0.00373281422f, -0.175919846f, -0.255912125f, -0.24808836f, -0.264048874f, -0.363138735f, -0.688629806f, -0.174732238f},
  {0.16102916f, 0.399922758f, -0.0577999465f, 1.00680637f, 0.569359422f, -0.0367513299f, -0.0441772342f, 0.0077642533f, 0.353356868f, -0.440921754f, -0.506509781f, -0.396335989f, 0.345927864f, 0.24175404f, 0.0145012485f, -0.0443814471f, 0.486241668f, 0.155530527f, -0.134321257f, -0.103284679f, -1.10869169f, -1.47859347f, -0.0219065733f, -0.524320602f},
  {-0.0771282986f, 0.166666985f, -0.768131554f, 0.724378884f, -1.1797055f, -0.392061114f, -0.460922241f, -0.0232805721f, -0.463829488f, 0.561801612f, 0.554722607f, -0.0961698294f, 0.0417298265f, 0.23850745f, -0.856001556f, -0.192940339f, -0.111457832f, 0.674506187f, 0.274821848f, 0.426004797f, -0.833035111f, -0.350743324f, -0.283157647f, -0.114371523f},
  {0.0992223024f, 0.556620955f, -0.536800206f, 0.102434024f, 0.545850694f, -0.00574539788f, -0.652327895f, 0.17355077f, -0.115396924f, -0.89830631f, 0.728815317f, 0.897704422f, -0.275215685f, -0.680983603f, -0.175952196f, 0.144487515f, -0.049230177f, -0.708311617f, 0.227681577f, 0.528927505f, -0.356014371f, -0.709607661f, 0.0686527342f, 0.493605256f},
  {0.873219967f, -0.588130891f, 0.332781792f, -0.0208648201f, -0.0802072063f, -1.10420275f, 0.786517859f, -0.337586313f, 0.551062465f, -1.06817722f, -0.110702284f, -0.267010838f, 0.324242473f, 0.281651586f, -0.841169417f, -1.27152169f, 0.432780266f, -2.61956668f, 0.0743803829f, -0.162626907f, -0.173423842f, 0.17043753f, 0.634442627f, -0.208087161f},
  {1.10781574f, -0.579265416f, -0.706678212f, -0.177179277f, 0.624165118f, 0.800267637f, -0.334249318f, 0.0123460926f, 1.29503191f, 0.177672803f, -0.678614855f, -0.728962839f, -0.338812411f, -0.0432364754f, 0.0894171894f, -0.199233383f, 0.132430837f, 0.614535391f, -0.798378885f, -0.0178200006f, 0.0653302297f, 0.860357583f, 1.86030221f, 0.406204879f},
  {-0.757453561f, -0.206573993f, 0.71011281f, -0.372497618f, -0.957384884f, 0.0774625316f, 0.273265809f, 0.491821676f, 0.182518959f, 0.156483173f, 0.0459550396f, 0.439176112f, 0.148417756f, -0.344795942f, 0.176791772f, -0.533199966f, 0.24576427f, 0.418488055f, -0.265619099f, 0.643999219f, 0.765097618f, 0.113374382f, 0.226854444f, 0.609192908f},
  {0.00411753124f, 0.431952626f, -0.158369198f, -0.755325854f, 0.652610242f, 0.0508888811f, 0.458845139f, -0.803064942f, 0.0358431041f, -0.732678831f, 0.133280516f, 0.724492133f, -0.358623266f, -0.388500065f, 1.26265562f, 0.52924031f, 0.437978297f, -0.00755654415f, 0.0156430937f, 0.109020755f, 0.896138787f, 0.433609039f, -0.422941118f, 0.366554528f},
  {1.44788873f, -0.601287603f, 0.258857816f, 0.106699556f, 0.151723623f, -0.157663688f, 0.0830155462f, -1.13068926f, 0.247463986f, 0.269316137f, 1.73927784f, -0.373901218f, -0.43215239f, 0.643703222f, 0.267795831f, 0.424102306f, -0.344432056f, 0.581220686f, -1.01053417f, -0.607995212f, -0.179056704f, -0.799076855f, 0.0322476774f, 0.616512597f},
  {0.713750005f, -0.504988432f, -0.597217679f, 0.538511693f, 0.256609142f, -1.05512023f, -0.331399202f, 0.565866888f, 0.825302362f, 0.635266304f, -0.625854552f, -0.193761528f, -1.10270965f, 0.863092721f, 1.10651219f, -0.664813161f, -0.634014726f, 1.24407542f, -0.986056864f, -0.104054712f, 1.41135335f, -0.56014055f, -0.835014164f, 0.478601694f},
  {0.396827102f, 1.04737401f, 0.461314976f, 1.08013737f, 0.36140725f, -0.832468033f, -0.542513549f, 0.554317951f, -0.298516929f, -0.124238223f, -0.351139486f, -0.424526572f, -0.0141920093f, 0.351005644f, -0.00210902141f, 0.076511614f, -0.0889688209f, 0.653460741f, 0.30380249f, 0.74482429f, -1.43945944f, -0.993905902f, 0.297147542f, 0.441927284f},
  {-0.458464324f, -0.467726409f, 0.0944098756f, -0.0265136566f, -0.780659437f, -1.14367676f, 0.34054479f, -0.80936271f, 0.375564575f, -0.273938715f, -0.802367508f, -0.0612945259f, 0.320085108f, 0.32490319f, 0.638885736f, -0.198383838f, -0.171825707f, 0.0243091099f, 0.311289161f, -0.780308008f, -0.39091754f, -0.834786654f, 0.167748675f, -0.448849171f},
  {1.56032169f, -1.33113408f, -0.586214244f, 0.119190522f, 0.290041506f, 0.0665748715f, -0.780159831f, 0.975217998f, -0.198506817f, -0.492626667f, -1.58163738f, -0.171349674f, -0.967918456f, -0.568501949f, 0.000749492203f, -0.178456962f, -0.516168177f, -0.316315532f, -0.778719842f, 0.764438331f, 0.435310274f, 0.189584777f, -0.696994901f, 0.109766178f},
  {0.546266973f, -0.325954199f, -1.47629702f, -0.0796408057f, 1.32224417f, -0.553601265f, -0.20979178f, -0.339353919f, 0.00589399785f, 0.674844205f, -0.167172611f, 0.00610351237f, -0.474529058f, 0.100680046f, -0.278913558f, 0.422001839f, 0.497123569f, 0.27083379f, 0.601951182f, 0.287120283f, -0.329664916f, 0.672842681f, 0.329701036f, 0.0439204872f},
  {0.121722795f, -0.372359157f, 0.0604834855f, 0.705590546f, -0.196102679f, 0.0791674033f, -0.377148807f, 0.420869261f, -0.608908892f, -0.615904629f, -0.345067918f, -0.269185305f, 0.00578630669f, 0.519798338f, 0.434185982f, 0.567699671f, -0.828585625f, -0.707542777f, 0.417773247f, 0.964263976f, -0.0534585081f, -0.199879318f, 0.771364927f, 0.583959281f},
  {0.0303037278f, 0.0883793086f, 2.32641768f, 0.0301805194f, -0.271995008f, 0.600419164f, 0.452032059f, -0.0466774926f, 0.213115886f, -0.242011145f, 0.234715089f, 0.0371514335f, 0.597449481f, 0.0779481232f, 0.130148008f, 0.393564552f, -0.0334966443f, -0.214114532f, -0.398740709f, 0.0402242318f, -0.561942935f, -0.615799427f, 0.255268276f, -0.763314128f},
};

static const float kPatchBias[24] = {-0.0877256319f, -0.212331742f, -0.139516339f, -0.256916672f, -0.00526138209f, 0.0326506943f, 0.0103159659f, 0.025359638f, 0.0505908132f, -0.0233092885f, -0.19668816f, -0.0444580019f, 0.0308904443f, -0.111843154f, -0.0766937286f, 0.115432061f, 0.150265366f, 0.0772636458f, -0.0796233341f, 0.197824687f, -0.190028369f, -0.176235288f, -0.0912426487f, 0.0693695471f};

static const float kPosEmbed[1][31][24] = {
  {
    {-0.0140094021f, -0.127175197f, 0.0597538948f, -0.25107339f, -0.0998314396f, 0.0964772776f, -0.115486674f, -0.0366753154f, 0.237613276f, 0.0580096357f, -0.0838815942f, -0.00842956826f, 0.311456949f, -0.0781808943f, -0.0708748177f, -0.0853507742f, -0.127378613f, 0.127895728f, 0.0918912813f, 0.252124816f, 0.015793521f, -0.140512198f, -0.0093393242f, -0.0748243183f},
    {-0.0070036035f, 0.00265653641f, -0.0953095406f, -0.0521961898f, 0.0589091405f, -0.00207357132f, -0.11794436f, -0.03345301f, 0.104736164f, 0.107711107f, -0.103405215f, -0.0406316929f, 0.133689567f, -0.0851844698f, -0.138714924f, 0.0162977036f, 0.114766188f, 0.130235434f, -0.0105875265f, 0.0835743845f, 0.0695879385f, -4.57760943e-05f, 0.0180437043f, -0.0589876361f},
    {-0.0485475175f, 0.0806741267f, -0.048720967f, -0.0777309537f, -0.0149518689f, 0.00730192522f, -0.109082252f, -0.120972216f, 0.0898875222f, 0.0412786342f, -0.212155238f, 0.0658495426f, 0.210703835f, 0.0666116476f, -0.0948116481f, 0.0799818039f, -0.0246505551f, 0.0868754908f, -0.208576798f, 0.132147223f, 0.193594337f, -0.00119865383f, 0.051356893f, -0.118140377f},
    {-0.0636870191f, 0.164903536f, -0.132570297f, -0.26042071f, 0.0463520437f, -0.0228671115f, -0.106144957f, -0.149338886f, 0.177014619f, 0.0147729805f, -0.101558059f, 0.0203277413f, 0.146949932f, 0.061419934f, 0.0018288478f, -0.0425711013f, 0.0144898463f, 0.162929341f, -0.226658359f, 0.0214392226f, 0.251129121f, -0.0670478046f, -0.0327397883f, -0.0705073848f},
    {0.134529263f, 0.0631034374f, -0.135147452f, -0.304079741f, 0.071547389f, 0.224859461f, -0.168423504f, -0.127537996f, 0.111135468f, 0.101668559f, 0.0162502956f, -0.0466925353f, 0.141547173f, 0.00786467735f, -0.0211954415f, -0.123888314f, -0.0871306658f, 0.123690262f, -0.0292625036f, 0.0832797587f, 0.00814820174f, -0.0184963886f, -0.0205007885f, -0.00415985612f},
    {0.103637256f, -0.0520575605f, -0.173076972f, -0.306867391f, -0.0572965369f, 0.219542444f, -0.0829838589f, -0.0027103154f, 0.10032519f, 0.0480137728f, -0.103707552f, 0.10042391f, 0.177137479f, -0.115864038f, -0.115493529f, -0.116507322f, -0.0451726541f, 0.0869554356f, 0.00412295107f, 0.18448174f, 0.0350565761f, -0.0607650541f, 0.0943550393f, 0.0874641016f},
    {0.139248326f, -0.0255034901f, -0.320302427f, -0.287048608f, -0.0627722964f, 0.0853051692f, 0.0104385167f, 0.106594302f, 0.165817738f, 0.0269664712f, -0.16154623f, 0.135697365f, 0.13204886f, -0.117155202f, -0.0972513035f, -0.105827212f, 0.0132886749f, -0.0662108362f, 0.0130036008f, 0.103984475f, 0.112544328f, -0.0135192694f, 0.0631133243f, 0.0620271266f},
    {0.00490416447f, 0.0312570892f, -0.177164719f, -0.288351923f, 0.00247620069f, 0.0156006729f, -0.0531215258f, 0.0719636157f, 0.182117939f, 0.114875488f, -0.0812410787f, 0.0920014679f, 0.167882174f, 0.0325252861f, -0.0798046291f, -0.0484972559f, 0.0189327747f, -0.134743556f, 0.0114744762f, 0.0464255884f, 0.0528929643f, 0.0733099654f, -0.0723151714f, -0.0337214582f},
    {-0.205367088f, 0.0720107555f, 0.0584448166f, -0.259803981f, 0.104804136f, -0.00481757428f, -0.184083059f, -0.0656999201f, 0.159605458f, 0.0961515084f, 0.0417161621f, 0.0518934987f, 0.275351733f, 0.0777824f, -0.0612920001f, 0.0690661073f, -0.0318656005f, -0.0481825918f, -0.0415359251f, 0.0580205284f, -0.0142113687f, -0.0124603519f, -0.108863413f, -0.0825997368f},
    {-0.0671841353f, 0.0424761027f, 0.00893089082f, -0.244136944f, 0.197861955f, 0.0246763639f, -0.236578301f, -0.177841306f, 0.16564633f, 0.0548899323f, 0.0832052007f, -0.0200628564f, 0.269462496f, -0.0577278137f, -0.0178295448f, 0.120727964f, -0.119109146f, 0.00171858014f, 0.0730792731f, 0.0172123946f, -0.0372165293f, -0.141561687f, -0.076141499f, -0.10297206f},
    {0.0793744847f, -0.127865925f, -0.12171223f, -0.299419284f, 0.116028525f, 0.0709196925f, -0.154145196f, -0.211421445f, 0.251396328f, 0.236948848f, -0.0364722535f, -0.123786375f, 0.112228923f, -0.175514787f, 0.0290998835f, 0.118038073f, -0.109792739f, 0.0499715544f, 0.326159954f, 0.0130686788f, -0.0926176459f, -0.0996599793f, -0.152952075f, -0.137801677f},
    {-0.11516922f, -0.24214758f, -0.12497057f, -0.300541162f, -0.0601094291f, 0.0607883073f, 0.00447260216f, -0.158136293f, 0.354107976f, 0.468874663f, -0.139617205f, -0.214713186f, -0.0394616276f, -0.196811005f, 0.0984049886f, 0.153348744f, -0.0252358001f, 0.154539481f, 0.369053841f, 0.0772559196f, -0.183346242f, 0.0430790894f, -0.230107933f, -0.180721834f},
    {0.0344092697f, -0.14500387f, -0.0766661018f, -0.304682761f, -0.105944268f, 0.0550110117f, 0.0337905958f, -0.00823840126f, 0.182889193f, 0.495624632f, -0.0824541226f, -0.0730473697f, 0.0275151934f, -0.163487256f, -0.0829111785f, 0.0597245581f, -0.080644384f, 0.0519374274f, 0.317263305f, 0.0409462899f, -0.156861275f, 0.199541658f, -0.0385861769f, -0.215489402f},
    {0.270179808f, -0.00856385566f, -0.177172378f, -0.110574737f, 0.194651499f, -0.0839309916f, 0.00796070974f, 0.0223664083f, -0.0336223654f, 0.0775280446f, -0.0922979861f, 0.0372382514f, -0.0247759167f, -0.0507076085f, -0.146022826f, 0.102324016f, -0.0652548745f, 0.0661720037f, -0.0405042581f, 0.0773781314f, 0.198113099f, 0.0568976104f, 0.0274037793f, -0.0583126396f},
    {0.117777593f, 0.223698765f, -0.0398199037f, 0.0432571918f, 0.16692777f, -0.0558481105f, -0.115551434f, -0.010295257f, -0.236250743f, -0.110184878f, 0.0513482839f, -0.103365026f, -0.156205907f, 0.0727172643f, 0.0375251025f, 0.0472437516f, -0.0291954651f, 0.0623462684f, -0.307819396f, 0.10936971f, 0.120181553f, 0.0731870309f, 0.128871381f, -0.0750035793f},
    {-0.072590977f, 0.176583514f, 0.0773613304f, 0.119158879f, -0.0869997293f, -0.0377225764f, 0.00385919842f, 0.111271001f, -0.450060159f, -0.118309349f, 0.0673965961f, 0.0359826908f, -0.0997869372f, 0.231247485f, -0.162133694f, 0.0601851046f, -0.00813682191f, 0.120814905f, -0.223416194f, 0.326148689f, 0.149649769f, -0.0260491576f, 0.170358464f, -0.029188646f},
    {-0.0881567299f, -0.186553821f, 0.226555169f, 0.571215093f, 0.0271781608f, -0.0384544171f, 0.0439995192f, 0.0546452627f, -0.40716362f, -0.297876179f, 0.165710106f, 0.0171249472f, -0.00482742535f, 0.146385849f, -0.0989969596f, -0.0707481131f, 0.0171429981f, -0.0715330318f, -0.00916217826f, -0.0130071659f, 0.027073238f, -0.0280063432f, 0.0862810016f, 0.147527993f},
    {0.0585880317f, -0.0284960214f, 0.128921717f, 0.356496781f, -0.0374737941f, -0.0275988895f, -0.0714290291f, -0.0449228808f, -0.238978684f, -0.244423598f, 0.0812690407f, 0.0128030982f, 0.0949293002f, 0.0579190068f, -0.104436435f, 0.0101366937f, -0.0109794522f, -0.0699474812f, -0.12699157f, 0.0482967198f, -0.00650219852f, 0.102294512f, 0.168468639f, 0.0797189847f},
    {0.0337229595f, -0.0227546822f, 0.0165787507f, 0.270620167f, -0.16603224f, -0.0343088284f, -0.13768582f, 0.094462201f, 0.10065677f, -0.179488957f, 0.106145643f, -0.113660075f, 0.0960649475f, -0.00588362105f, -0.103145547f, 0.0478083119f, 0.141092703f, 0.066921629f, -0.23226054f, -0.0219835825f, 0.0692956373f, -0.193274662f, 0.111383744f, 0.161854967f},
    {-0.134167761f, 0.08623638f, -0.0912545994f, 0.274264544f, 0.0253575798f, -0.0609674491f, -0.0504238792f, 0.0886635631f, -0.139913678f, -0.203577563f, 0.187310964f, -0.145449623f, 0.115426719f, 0.138273478f, -0.0313182548f, 0.0888624862f, 0.0360344388f, -0.0593123473f, -0.196565941f, 0.0387742519f, 0.0747918561f, -0.152283981f, 0.0839934275f, 0.102984831f},
    {-0.0184790846f, 0.0814569369f, 0.0812162384f, 0.227244258f, 0.288869739f, -0.00196282216f, -0.0114293601f, 0.0109647159f, -0.378668338f, -0.255950063f, 0.0401299782f, 0.00911519397f, 0.141386002f, 0.193390548f, -0.0832232535f, 0.0252856631f, 0.00524323899f, -0.0760030374f, -0.155176193f, 0.0924730375f, 0.104593478f, -0.109723531f, 0.166218802f, 0.014020416f},
    {0.0933050364f, -0.0176313426f, 0.129985094f, 0.0698837563f, 0.123457417f, 0.100597613f, -0.0662322491f, 0.00600005314f, -0.165337414f, -0.159496263f, 0.0268799569f, 0.0732708499f, 0.153091818f, 0.251044333f, -0.110003427f, -0.0222442914f, -0.101241492f, -0.112079568f, -0.0524979085f, 0.131524667f, 0.0710310563f, -0.136153489f, 0.118040293f, -0.0417229272f},
    {0.165839195f, -0.082349889f, 0.0826110318f, -0.0303415414f, 0.107129179f, 0.107230231f, -0.0095141679f, 0.0448250733f, 0.031610664f, -0.0361019783f, 0.0453469828f, -0.00258137821f, 0.0182126015f, 0.168401673f, -0.0759766027f, 0.0106078181f, -0.172083661f, -0.0951167271f, 0.0465697087f, 0.170021608f, -0.200196028f, -0.166747808f, 0.00695260055f, 0.0195292607f},
    {0.170120314f, -0.168881238f, -0.10962145f, -0.220290944f, 0.101395763f, 0.0865829065f, 0.264567465f, -0.00862677768f, 0.133223712f, 0.17260401f, -0.169322595f, -0.110328816f, -0.0236436762f, -0.0831377283f, 0.0626384467f, 0.17134048f, -0.137763336f, 0.0494493544f, 0.192651495f, 0.128789797f, -0.373411089f, -0.111270376f, -0.139060155f, 0.0513474047f},
    {0.0409119613f, -0.18970716f, -0.309761733f, -0.381475121f, -0.00257431972f, 0.00355028943f, 0.405987144f, 0.0289589576f, 0.322881252f, 0.334019333f, -0.287106097f, -0.085645251f, 0.0577117428f, -0.300573081f, 0.078591913f, 0.29385072f, -0.0324271657f, 0.0362123922f, 0.293566853f, 0.0434425548f, -0.254620939f, -0.0234690011f, -0.254118502f, -0.021615671f},
    {-0.0946800634f, -0.0956582427f, -0.253551871f, -0.357627451f, 0.0409824103f, -0.13650392f, 0.25181213f, 0.24201186f, 0.496795654f, 0.260677963f, -0.102653854f, 0.091812931f, 0.0337079428f, -0.392104685f, -0.101776667f, 0.217130646f, 0.0919205844f, -0.206815988f, 0.258085191f, 0.00540794339f, -0.143664837f, 0.0357676111f, -0.240895107f, -0.068422243f},
    {-0.124955021f, -0.139774248f, -0.119620681f, -0.453061074f, 0.0743947774f, -0.122097351f, 0.0499098115f, 0.311643511f, 0.537444472f, 0.17287083f, -0.00347765279f, 0.233695865f, 0.0159022976f, -0.336308181f, -0.190813556f, 0.0830823854f, 0.132059157f, -0.312387764f, 0.24392204f, 0.0246139299f, -0.164377734f, 0.135002613f, -0.197491467f, -0.0426680036f},
    {-0.111874469f, -0.285586387f, -0.106815636f, -0.569105685f, 0.101967342f, -0.0183507595f, -0.161649883f, 0.188987121f, 0.440985233f, 0.174628019f, -0.0372111611f, 0.26676771f, 0.111307323f, -0.118072845f, -0.241348118f, -0.0248108655f, 0.0991216972f, -0.207287773f, 0.223035574f, 0.0756598786f, -0.111088917f, 0.191899419f, -0.130832106f, -0.00971267f},
    {-0.0271775965f, -0.198696047f, -0.104498364f, -0.347219855f, -0.0450202636f, 0.0689744651f, -0.0576002374f, 0.031437479f, 0.258004665f, 0.14161323f, -0.071365431f, 0.250406265f, 0.0939323753f, -0.117602661f, -0.148556352f, -0.137708485f, 0.0313595012f, -0.0731071606f, 0.1382664f, -0.0237378236f, -0.0355838165f, 0.101476774f, 0.0993524045f, -0.0137456832f},
    {0.0322940461f, -0.145349637f, -0.0786548257f, -0.224376276f, -0.105765656f, 0.0511367768f, 0.0414303057f, 0.137917191f, 0.205279723f, 0.0957801268f, -0.156223878f, 0.270589709f, 0.055707179f, -0.196512595f, -0.127864063f, -0.0739684477f, -0.0757800788f, -0.0062781712f, 0.16312395f, -0.0613690391f, -0.0711178556f, 0.108043559f, 0.112719156f, 0.0107981469f},
    {-0.103129379f, 0.13525115f, -0.060827814f, -0.188732147f, -0.0287630241f, -0.0383631214f, -0.0179218762f, 0.000658234349f, 0.282004535f, 0.169120029f, -0.248920292f, 0.0378438346f, -0.0571382195f, -0.213361621f, -0.0388160236f, -0.0955154896f, 0.128556356f, 0.10382323f, 0.0922476053f, -0.0579247139f, 0.00932463259f, 0.116647176f, -0.066538237f, -0.0643989816f},
  },
};

static const float kLayer0PreNormWeight[24] = {1.0122534f, 0.909469962f, 0.986668825f, 0.792745292f, 0.885046899f, 0.795760691f, 0.992523491f, 0.906217813f, 0.913411558f, 0.916689754f, 0.842107475f, 0.864562094f, 0.993548334f, 0.88681072f, 0.978166819f, 1.00191259f, 0.923062325f, 1.08589411f, 0.948654652f, 1.03615272f, 1.00125039f, 0.870070219f, 0.905488491f, 0.776660919f};

static const float kLayer0PreNormBias[24] = {-0.0202660207f, 0.144964859f, -0.0663873553f, 0.039202068f, 0.021127671f, -0.0391803011f, 0.0291530881f, -0.0144753708f, 0.087511383f, 0.0419939607f, -0.0250688326f, 0.0143029075f, 0.0554034673f, -0.0517133698f, 0.118100002f, -0.0193458945f, -0.0241588969f, -0.102422297f, 0.0345694944f, 0.0107758548f, -0.071339421f, 0.0111870915f, -0.00962042715f, 0.125323668f};

static const float kLayer0PostNormWeight[24] = {0.715251029f, 0.852335513f, 0.801221132f, 0.955672681f, 1.00010169f, 0.839841485f, 0.799891412f, 0.787079453f, 1.04217947f, 1.0566504f, 0.86403048f, 0.835648239f, 0.859845042f, 0.801574767f, 1.06632125f, 0.916105211f, 0.880384862f, 0.949926674f, 0.948958278f, 0.867812037f, 0.826255858f, 0.913345754f, 0.756679595f, 0.93820709f};

static const float kLayer0PostNormBias[24] = {-0.0436789729f, 0.0482917801f, -0.0405779667f, -0.100725025f, 0.0568754263f, -0.0336893909f, -0.0401113033f, -0.0107828844f, 0.04505587f, 0.026920516f, 0.00562029704f, 0.00309876329f, -0.00357774342f, 0.00031749389f, -0.0276370067f, -0.035603188f, 0.0101511059f, -0.0324906111f, 0.0602456592f, 0.0243787225f, 0.0237479266f, -0.0164599866f, -0.00963980053f, -0.00726013631f};

static const float kLayer0ALog[48][16] = {
  {0.301923096f, 0.795909703f, 0.92369318f, 1.39112592f, 1.47272944f, 1.7209599f, 1.66014659f, 1.74355304f, 2.04572558f, 2.20953321f, 2.08759236f, 2.18378305f, 2.3664217f, 2.27753067f, 2.36049247f, 2.53037119f},
  {0.0626646355f, 0.543015122f, 1.09285915f, 1.2842896f, 1.56218946f, 1.56533587f, 1.88994217f, 2.00643992f, 2.13653207f, 2.06355262f, 2.21978068f, 2.27999878f, 2.20161724f, 2.37151241f, 2.43375421f, 2.43062425f},
  {-0.0647795349f, 0.617143631f, 0.921618462f, 1.17409694f, 1.37228262f, 1.62372971f, 1.62230062f, 1.8688668f, 1.800017f, 2.09292579f, 2.09022284f, 2.14788651f, 2.22187662f, 2.29443192f, 2.36624098f, 2.4087553f},
  {-0.185741171f, 0.444241196f, 1.05559814f, 1.12417531f, 1.38153398f, 1.52218628f, 1.93640399f, 2.18972373f, 2.1210928f, 2.09946227f, 2.16552758f, 2.19074512f, 2.31750321f, 2.48693323f, 2.45427084f, 2.45135546f},
  {0.480526239f, 0.766667724f, 1.17665339f, 1.69626617f, 1.46340728f, 1.92300606f, 1.96943223f, 1.65703225f, 2.23768854f, 2.13731194f, 2.32840037f, 2.33196712f, 2.20941901f, 2.30565047f, 2.30323672f, 2.61371779f},
  {0.0856301785f, 0.558399916f, 1.12515748f, 1.40797508f, 1.52954531f, 1.60045123f, 1.85607266f, 1.96952176f, 2.10506105f, 2.06730008f, 2.25372171f, 2.21433806f, 2.35274553f, 2.4252913f, 2.43535757f, 2.51592898f},
  {0.259741366f, 0.47451061f, 1.05888999f, 1.15806532f, 1.48101807f, 1.46204412f, 1.82026672f, 1.62230611f, 2.03952527f, 2.06983304f, 2.24281573f, 2.39039421f, 2.17452621f, 2.36484551f, 2.38638783f, 2.50414252f},
  {0.185277343f, 0.789163828f, 0.886057913f, 1.41533184f, 1.44146287f, 1.77292037f, 1.82863569f, 1.88148212f, 2.03855181f, 2.04074049f, 2.23061204f, 2.14403534f, 2.33223319f, 2.37851691f, 2.42411184f, 2.51414037f},
  {-0.317598432f, 0.68358624f, 0.896529555f, 1.17191494f, 1.25357223f, 1.40548193f, 1.84246278f, 1.56059122f, 2.24793029f, 2.02275562f, 1.9511621f, 2.04067731f, 2.10732985f, 2.38681364f, 2.42019391f, 2.42702556f},
  {0.0828300342f, 0.903933764f, 1.1149621f, 1.07488489f, 1.5510118f, 1.4476732f, 1.66805649f, 2.05252981f, 1.98810172f, 2.24381995f, 2.08621264f, 2.17352939f, 2.29038787f, 2.38404536f, 2.41517401f, 2.30347013f},
  {-0.0112756575f, 0.415290773f, 1.03021753f, 1.32116985f, 1.52339542f, 1.57361126f, 1.92456067f, 1.92221642f, 1.8565433f, 1.914572f, 2.44312072f, 2.4492681f, 2.48719263f, 2.47920752f, 2.4655962f, 2.69566536f},
  {0.0261200853f, 0.712767959f, 0.969981849f, 1.39606416f, 1.51169181f, 1.9337647f, 1.43111372f, 1.72692251f, 1.81969345f, 2.02541637f, 2.13565779f, 2.1354363f, 2.28620911f, 2.20662665f, 2.32317924f, 2.46396971f},
  {-0.0594474562f, 0.799708962f, 1.03480673f, 1.32594419f, 1.49703491f, 1.73275864f, 1.57568383f, 1.65476477f, 1.93338966f, 2.19628f, 2.26436949f, 2.2274332f, 2.27708387f, 2.28616214f, 2.35082388f, 2.52971029f},
  {0.02969121f, 0.419477046f, 0.958880663f, 1.31489837f, 1.597188f, 1.51787448f, 1.59366143f, 1.45598245f, 1.75572908f, 1.90859079f, 2.23604012f, 2.18435836f, 2.3163352f, 2.33947015f, 2.36910534f, 2.54899096f},
  {0.101148456f, 0.812765419f, 1.20605612f, 1.25138342f, 1.46578586f, 1.66650677f, 1.42465556f, 2.13382673f, 1.87348866f, 1.93434489f, 2.08891225f, 1.84580624f, 2.27516317f, 2.31687307f, 2.41571808f, 2.50564742f},
  {-0.00684250752f, 0.563734591f, 1.01383734f, 1.28153956f, 1.44510591f, 1.58476615f, 1.76499343f, 1.92450166f, 1.95050204f, 1.97924113f, 2.13971257f, 2.24714184f, 2.29951072f, 2.33768916f, 2.38869977f, 2.46333194f},
  {0.155319661f, 0.747492969f, 0.849267304f, 1.03298414f, 1.18594682f, 1.63771784f, 1.79485762f, 1.63986075f, 1.76593208f, 1.50505185f, 2.28762722f, 2.3070538f, 2.17581701f, 2.17320633f, 2.32609582f, 2.39445257f},
  {-0.00748398295f, 0.537312388f, 0.944916427f, 1.15243256f, 1.40785372f, 1.5690217f, 1.72239673f, 1.78501093f, 1.90393579f, 2.01967001f, 2.16021395f, 2.21616602f, 2.26849627f, 2.30726027f, 2.39121294f, 2.44163799f},
  {0.0238408633f, 0.56897831f, 1.00385964f, 1.33856654f, 1.47294176f, 1.64441478f, 1.81794691f, 1.92993844f, 2.13034534f, 2.14185667f, 2.19879055f, 2.23492789f, 2.31011343f, 2.37317991f, 2.39972377f, 2.45000625f},
  {-0.0521936081f, 0.458219707f, 0.940703869f, 1.26228857f, 1.44472468f, 1.47864342f, 1.24571788f, 1.75533342f, 1.68923044f, 2.04504275f, 1.90529335f, 1.75199986f, 2.3675673f, 2.29406404f, 2.41360927f, 2.54395556f},
  {0.0879271775f, 0.663247466f, 1.06916404f, 1.13872135f, 1.48203671f, 1.64575922f, 1.82642186f, 2.02677011f, 2.05801702f, 2.20089006f, 2.25888824f, 2.28021264f, 2.21159935f, 2.34654522f, 2.41350889f, 2.45443535f},
  {0.251628995f, 0.757112741f, 1.19447184f, 1.22748923f, 1.48128319f, 1.59902918f, 1.88618219f, 2.06197762f, 1.95817482f, 2.34586859f, 1.92848194f, 2.26415896f, 2.28118634f, 2.35708022f, 2.391361f, 2.39556432f},
  {0.118194699f, 0.812237561f, 1.31218159f, 1.24137723f, 1.24340475f, 1.71790004f, 2.06860042f, 1.9214747f, 2.12423038f, 2.07483292f, 2.40120363f, 2.40518475f, 2.35529208f, 2.5330658f, 2.4812448f, 2.43574429f},
  {0.0811098516f, 0.663728237f, 1.2964443f, 1.32650304f, 1.74556899f, 1.84785247f, 1.74932218f, 2.09751248f, 2.3067317f, 2.23615146f, 2.10721755f, 2.2075727f, 2.18524742f, 2.4367559f, 2.4806726f, 2.18951869f},
  {0.0471354648f, 0.663507044f, 0.88286978f, 1.15685177f, 1.34444511f, 1.57736361f, 1.77434683f, 1.56195211f, 1.98949063f, 1.81810093f, 2.12259793f, 2.2832911f, 2.20196104f, 2.32085752f, 2.37959647f, 2.42035985f},
  {-0.0666009784f, 0.507312715f, 1.05151248f, 1.24913692f, 1.50705719f, 1.53748071f, 1.92238986f, 2.05747604f, 1.9541446f, 2.06482482f, 2.20003295f, 2.20089412f, 2.2578609f, 2.35232711f, 2.37550998f, 2.39074755f},
  {0.235534549f, 0.64391166f, 1.36992455f, 1.58483303f, 1.58086944f, 1.58285904f, 2.09746075f, 2.05330515f, 1.96903801f, 2.20493245f, 2.38650918f, 2.34499407f, 2.38328838f, 2.52079868f, 2.45353341f, 2.63399243f},
  {-0.0658540949f, 0.885467589f, 1.35317194f, 1.41613042f, 1.61365139f, 1.60682368f, 2.24319053f, 2.05406904f, 2.00054359f, 2.41765594f, 2.52820635f, 2.48017621f, 2.45418072f, 2.3971734f, 2.35403609f, 2.57595444f},
  {0.352503747f, 0.952154815f, 1.19338632f, 1.57745671f, 1.60834515f, 1.65269101f, 1.41716897f, 2.10904264f, 2.25929642f, 2.39800215f, 1.89372087f, 1.64120841f, 2.42740107f, 2.48381376f, 2.4205358f, 2.47735834f},
  {0.272203654f, 0.771346927f, 1.02894902f, 1.47403526f, 1.53459978f, 1.72580481f, 1.67631936f, 2.04547167f, 2.1018188f, 2.28260112f, 2.22369671f, 2.17464066f, 2.3330636f, 2.45223379f, 2.41428328f, 2.52345753f},
  {0.256698698f, 0.800093472f, 1.07582057f, 1.24373293f, 1.64323521f, 1.74707079f, 1.85670185f, 1.76049566f, 1.97533822f, 2.30108714f, 2.30189991f, 2.461761f, 2.22649813f, 2.28058505f, 2.37658906f, 2.49351597f},
  {-0.152214929f, 0.434621066f, 0.951931357f, 0.948831201f, 1.44474518f, 1.47154474f, 1.49689305f, 1.78150535f, 1.73495686f, 1.53608727f, 1.83472252f, 2.04642987f, 2.1614852f, 2.29025626f, 2.37953901f, 2.23561478f},
  {0.222252578f, 0.810631514f, 1.22969568f, 1.31052446f, 1.30830097f, 1.77383411f, 1.66199517f, 2.07832503f, 1.7124629f, 1.73879778f, 2.11474729f, 2.18404198f, 2.16493821f, 2.01325226f, 2.2966361f, 2.58211231f},
  {-0.14533478f, 0.780737936f, 1.08282077f, 1.24711025f, 1.64318657f, 1.57413018f, 1.51343155f, 2.00899553f, 1.84722948f, 1.94005227f, 1.85689902f, 1.95616639f, 2.30961943f, 2.22733521f, 2.44262481f, 2.4374969f},
  {0.00424674805f, 0.533650756f, 0.924726903f, 1.16677868f, 1.57524884f, 1.47089207f, 1.77295089f, 1.82748926f, 1.95018196f, 2.17973089f, 2.15955806f, 2.4235301f, 2.10451245f, 2.37948608f, 2.40004849f, 2.29213214f},
  {-0.00867005717f, 0.520978451f, 1.01937068f, 1.21036708f, 1.48788929f, 1.60742593f, 1.63142896f, 1.8795718f, 1.71629691f, 1.99436271f, 2.08271313f, 2.20234728f, 2.25970268f, 2.31338358f, 2.38713121f, 2.44737267f},
  {-0.0356257223f, 0.550386012f, 0.898639858f, 1.15733325f, 1.39715409f, 1.52833617f, 1.59125316f, 1.82474589f, 1.75782919f, 2.05801964f, 2.09507561f, 2.12684155f, 2.29220963f, 2.33484221f, 2.38954997f, 2.45982289f},
  {0.155023947f, 0.746372521f, 1.26596451f, 1.39501774f, 1.56807995f, 1.81276834f, 1.46937799f, 1.8397243f, 2.10613966f, 1.8695848f, 1.9202987f, 1.89594531f, 2.0666151f, 2.3693738f, 2.38204503f, 2.32476997f},
  {-0.15160574f, 0.711963892f, 0.849072099f, 0.800670445f, 1.20227027f, 1.27245033f, 1.60463476f, 1.69790816f, 1.5972122f, 1.92587137f, 1.97006118f, 2.35776567f, 2.09118271f, 1.84033227f, 2.10646319f, 2.47976923f},
  {0.123800248f, 0.890225232f, 0.809341788f, 1.38634574f, 1.49528015f, 1.74821055f, 1.85350335f, 1.79278064f, 2.02035785f, 2.27838302f, 2.01472139f, 2.29999638f, 2.16759348f, 2.28645754f, 2.37965298f, 2.40707254f},
  {0.0421826318f, 0.632837117f, 0.861619651f, 1.25940478f, 1.37001371f, 1.56167543f, 1.91965187f, 1.97610128f, 2.15074658f, 2.29863071f, 2.24840903f, 2.31627965f, 2.41336942f, 2.52290082f, 2.54298043f, 2.60674858f},
  {0.105425194f, 0.5460006f, 1.07196331f, 0.827064395f, 1.3663671f, 1.22379839f, 1.74676764f, 2.07500672f, 1.976601f, 2.20179725f, 2.03012276f, 2.25040412f, 2.17673302f, 2.44877982f, 2.48158884f, 2.28833103f},
  {0.0971864238f, 0.504269958f, 0.893135607f, 1.15657616f, 1.4350189f, 1.38519943f, 1.73686767f, 1.88083422f, 1.86880863f, 1.92617166f, 2.15476394f, 2.29931521f, 2.28470349f, 2.33445001f, 2.35990286f, 2.41275764f},
  {0.0623429269f, 0.633514225f, 1.00683844f, 1.21944463f, 1.44663894f, 1.596542f, 1.63983345f, 1.91991723f, 1.90768051f, 2.05012846f, 2.05637455f, 2.15579891f, 2.27892423f, 2.32534242f, 2.39831901f, 2.44013429f},
  {0.0725867599f, 0.908498406f, 1.14510012f, 1.25938702f, 1.58601356f, 1.77518964f, 1.79299927f, 2.16645265f, 2.12834358f, 2.08955717f, 2.06841421f, 2.24161196f, 2.30295753f, 2.39929461f, 2.4440155f, 2.27045512f},
  {0.0877109468f, 0.393371969f, 0.988058865f, 1.44651401f, 1.65972507f, 1.72605681f, 1.915151f, 1.62235606f, 2.12088656f, 2.05589914f, 2.21795368f, 2.18802667f, 2.35683846f, 2.44661045f, 2.41554928f, 2.42992926f},
  {0.0394136682f, 0.677008331f, 1.0018934f, 1.31847143f, 1.47479963f, 1.70248497f, 1.8409512f, 1.82670009f, 2.0178194f, 2.11997628f, 2.21356559f, 2.25713015f, 2.33376074f, 2.43139124f, 2.42952776f, 2.48836493f},
  {0.00903350208f, 0.631297529f, 1.00958657f, 1.24604058f, 1.4508642f, 1.62475526f, 1.75902748f, 1.89505029f, 1.92577136f, 2.04600739f, 2.13188696f, 2.20329714f, 2.27168322f, 2.33478761f, 2.39164066f, 2.4413023f},
};

static const float kLayer0D[48] = {1.04414999f, 0.751880944f, 0.942428231f, 0.850441873f, 0.95209831f, 0.741256416f, 1.09032941f, 1.05517209f, 0.971281409f, 0.945599377f, 1.00123739f, 0.946211517f, 1.06375527f, 0.974306822f, 0.903175294f, 0.884686828f, 0.809077621f, 0.897529662f, 0.830542505f, 1.3253628f, 0.908303261f, 0.716009736f, 1.08245969f, 1.09797323f, 0.916650236f, 0.967347205f, 0.983655512f, 0.787614465f, 1.04660892f, 0.967363656f, 1.10390759f, 0.858487427f, 0.819983661f, 0.940543771f, 1.03648818f, 0.836953759f, 0.78157711f, 0.96672982f, 1.12867129f, 0.995838225f, 1.03139186f, 0.972422242f, 0.990891278f, 0.828706384f, 0.913822651f, 0.907175601f, 0.983843863f, 0.865442574f};

static const float kLayer0InProj[96][24] = {
  {-0.461121559f, -0.10281565f, -0.0300383251f, 0.0485908054f, 0.0962925553f, -0.190658212f, -0.193998307f, -0.00296544051f, 0.356908888f, -0.0353516415f, 0.0135752046f, -0.109999873f, 0.287689805f, -0.156301826f, 0.129148632f, -0.111583598f, 0.213589743f, 0.117242172f, -0.067913264f, 0.161375672f, 0.12088865f, -0.365032285f, -0.107426934f, 0.0728047416f},
  {-0.00607439596f, 0.00156407175f, -0.01622729f, -0.0375814401f, 0.070020631f, 0.0793448761f, -0.168712452f, 0.0249016993f, -0.0309959464f, -0.243315309f, 0.196451753f, 0.0385404527f, 0.036491029f, 0.0688727275f, -0.0104409689f, -0.0123827849f, 0.0409545563f, 0.0843426958f, -0.3469446f, 0.195524424f, -0.0147074908f, 0.0677025095f, -0.0039784126f, -0.0195298791f},
  {0.0626853928f, -0.0409186929f, 0.0139477514f, 0.0266377125f, -0.0794608667f, 0.127596751f, 0.016436303f, -0.153757945f, -0.200734347f, 0.0528756715f, 0.099711448f, -0.0587558337f, -0.0981309339f, 0.0494400077f, 0.05329163f, 0.0356204808f, -0.0544281714f, 0.208480582f, -0.0631231442f, 0.00700409664f, -0.130478337f, 0.17017813f, -0.0653209686f, -0.081601426f},
  {-0.133317664f, -0.315968394f, -0.00809093006f, 0.0795177668f, 0.067164056f, 0.0287748612f, 0.245803207f, -0.042284511f, -0.0449879058f, 0.225194275f, -0.35125947f, 0.159983128f, 0.221040606f, -0.0949142575f, -0.0286683198f, 0.00757914688f, 0.0365321487f, 0.037592303f, 0.0537940413f, 0.231963992f, -0.0325628035f, -0.0512480587f, 0.0672854111f, -0.0521330722f},
  {-0.178901359f, -0.00643121777f, 0.0796789303f, 0.10306225f, 0.0406743735f, -0.0110233687f, -0.0492530204f, 0.0362857468f, 0.00216783187f, -0.0922944173f, -0.069876872f, -0.120804101f, 0.244241998f, 0.0166290924f, 0.14068f, 0.0558432862f, -0.2366274f, -0.275796205f, -0.388030022f, 0.459536731f, -0.000578768551f, -0.155456588f, 0.0956633091f, -0.00407150434f},
  {-0.0638282597f, 0.257185549f, -0.120101839f, 0.167525157f, -0.131137997f, -0.27223137f, 0.00741775846f, 0.178847775f, -0.152926236f, 0.0668464527f, -0.0021651797f, -0.102090493f, -0.00351088191f, 0.0338296294f, 0.0444919728f, -0.112337679f, -0.0120822359f, -0.285541654f, 0.0838738084f, 0.0392387509f, -0.101160064f, 0.0556017421f, -0.0541194528f, 0.179641411f},
  {0.282556504f, -0.0413587764f, 0.0182277504f, -0.22891818f, -0.249507427f, 0.0880153477f, -0.336072475f, 0.0673296303f, 0.337781489f, -0.126477003f, -0.176408276f, 0.0934967697f, 0.236416787f, 0.0564120673f, -0.00314867962f, 0.165795311f, 0.141394585f, 0.0293715484f, -0.173780456f, 0.397566348f, -0.164856255f, -0.083762154f, -0.22589317f, -0.029902067f},
  {0.074840501f, -0.160572678f, 0.146927759f, -0.0697956011f, -0.147520795f, 0.10415443f, -0.139849037f, 0.0919062048f, 0.2144458f, -0.275369883f, -0.102278896f, 0.0934276879f, 0.232773438f, 0.103226475f, -0.0857455283f, -0.206108868f, 0.0506587401f, -0.187914938f, -0.316429377f, 0.116247624f, 0.0138629843f, -0.219089791f, 0.152272448f, 0.172380567f},
  {0.148368195f, -0.478342891f, -0.0927382633f, -0.0483934507f, -0.212514579f, 0.154003263f, 0.158882275f, 0.203066707f, -0.0107252486f, -0.0403419808f, -0.247891545f, 0.161270574f, -0.0402441509f, 0.0656674579f, -0.0138453227f, 0.0550627373f, 0.167315662f, -0.157358021f, -0.0630074665f, 0.0171804354f, 0.0555945039f, -0.148536637f, 0.166809365f, 0.17013301f},
  {0.164821342f, -0.0212174505f, -0.0536249876f, -0.0368598513f, 0.0892185122f, -0.101498239f, -0.0635332912f, -0.185605377f, -0.144967631f, 0.148900032f, 0.0574198551f, -0.0532187931f, 0.202387854f, -0.0334364176f, -0.0876529962f, -0.22463645f, -0.048594296f, 0.126324624f, 0.135916457f, 0.178154528f, 0.0811391696f, -0.253113061f, 0.240723103f, -0.0317084901f},
  {0.00709779328f, -0.00667840615f, 0.390268356f, -0.05246884f, -0.0433550589f, 0.270129621f, 0.05497282f, -0.230717704f, 0.0704935864f, 0.168068498f, -0.015271767f, -0.100011028f, -0.249820098f, -0.0318077318f, 0.0632531419f, -0.0498770699f, 0.0237832572f, 0.271674991f, 0.108191401f, -0.37687102f, -0.198866665f, 0.0345192887f, 0.0617047511f, -0.165097713f},
  {-0.139291659f, 0.316698104f, 0.0602417253f, 0.173298255f, 0.0676939934f, -0.239447102f, 0.172388554f, 0.137224391f, -0.120926626f, -0.182165593f, 0.089265205f, -0.0766179487f, -0.109880783f, 0.0117135318f, -0.060117621f, -0.336064577f, 0.0101640783f, -0.283762842f, 0.0726858154f, -0.100622691f, 0.10809157f, -0.163098499f, 0.15465644f, 0.134948745f},
  {-0.0320357978f, -0.00837008562f, 0.205307603f, -0.176681727f, -0.103216276f, 0.0134051349f, 0.0357741304f, 0.250567079f, 0.0408352166f, 0.177262276f, 0.0569156818f, 0.0593991987f, -0.250574738f, -0.0275866427f, 0.301527828f, 0.316914558f, -0.169002712f, -0.0443448126f, 0.00264321361f, 0.273308188f, -0.269176245f, 0.0432077423f, -0.163882777f, -0.29362312f},
  {-0.208376259f, 0.276412994f, -0.0391681269f, -0.080824174f, 0.023741832f, 0.0828579068f, -0.0258507635f, -0.093429625f, 0.159408808f, -0.179342523f, -0.15740639f, 0.233385548f, 0.11338792f, 0.0275338329f, 0.0365420729f, 0.1184403f, 0.166028485f, -0.39795655f, -0.145617604f, -0.233206198f, 0.0430971496f, -0.0141295753f, -0.0481922887f, 0.132562593f},
  {0.119207405f, -0.0217631627f, -0.0247537028f, -0.0246036462f, -0.0292083528f, -0.00973831955f, 0.0515953116f, 0.0777449906f, 0.0452256799f, -0.256997883f, -0.023332214f, -0.0615772903f, 0.0498589985f, -0.060251303f, 0.039465826f, 0.0108134551f, 0.0168872289f, 0.00497715455f, -0.16433911f, 0.0695267022f, 0.145086154f, -0.0858780742f, 0.191487893f, 0.0585971661f},
  {0.0286406372f, 0.0201816391f, -0.0481808856f, -0.0325687416f, -0.120176002f, 0.094308123f, -0.0137895336f, 0.130989015f, -0.140338838f, -0.147912711f, -0.0389537029f, 0.0742278993f, 0.0273270663f, 0.0867270976f, -0.00169543142f, -0.131507009f, -0.120655797f, -0.131047636f, -0.0277705211f, 0.0467339605f, 0.0527210347f, 0.0109112961f, 0.149284318f, 0.0540419221f},
  {0.0796244368f, -0.144506991f, -0.18842788f, -0.0216799825f, -0.188384861f, 0.241314963f, -0.318207145f, -0.147584617f, 0.0580245778f, -0.136999965f, -0.0117681837f, 0.0236169044f, 0.290722311f, 0.0649503097f, -0.0265901946f, -0.0082297381f, -0.0609371215f, 0.118491091f, -0.103499092f, 0.31790778f, 0.13098301f, -0.194629744f, 0.176503822f, 0.113606252f},
  {-0.036948543f, -0.0730326846f, 0.0713171512f, -0.00583620649f, -0.0903661326f, -0.0698697791f, -0.00134516379f, 0.0523177758f, 0.0966091752f, 0.186789587f, -0.125001132f, -0.0862714648f, -0.0125146694f, 0.133434922f, -0.0244935844f, 0.0524146818f, 0.107257858f, 0.12279322f, -0.0472729988f, 0.0409034602f, 0.0317672715f, -0.00516411383f, -0.0597857088f, -0.0233697128f},
  {-0.160907447f, 0.108286798f, 0.0189792309f, 0.0781099796f, 0.0773174316f, -0.0441030078f, -0.0820246711f, -0.0212550126f, 0.0922940597f, -0.0343709588f, 0.203929693f, -0.0920325518f, 0.0457183607f, 0.0991742313f, -0.060934756f, -0.109391592f, 0.011481585f, -0.0299731568f, -0.21581617f, 0.076798588f, 0.00891145412f, 0.0441934392f, -0.0145321656f, -0.11508403f},
  {0.106048696f, 0.110476129f, 0.37821874f, -0.103238627f, -0.0102143027f, 0.101502739f, 0.0831146911f, -0.249178007f, -0.0783592984f, 0.103149801f, 0.33026287f, -0.0321962088f, -0.129546881f, 0.0966529325f, 0.232765809f, -0.0170840994f, -0.433777422f, 0.332565367f, 0.0680537522f, -0.252539277f, -0.327762306f, 0.0567710437f, -0.0523575321f, -0.266330898f},
  {0.0994528383f, -0.133691192f, -0.171513423f, 0.0090329228f, 0.105645582f, 0.14639166f, 0.0367124751f, 0.0217154399f, -0.15847072f, -0.126593277f, -0.132422313f, 0.0802493915f, 0.12820363f, -0.137384221f, -0.0634983107f, -0.0296884663f, 0.0306703858f, 0.100363001f, 0.0945576206f, 0.218155682f, -0.0131307151f, 0.0273700561f, 0.0988946557f, -0.0407439545f},
  {-0.186317995f, -0.111233488f, 0.114632487f, 0.0407237746f, 0.0368582979f, 0.168910354f, 0.0080416752f, -0.223894998f, 0.131401017f, 0.186473846f, -0.151413843f, -0.0271525756f, 0.426834792f, -0.1916098f, 0.0360546783f, -0.0554496162f, -0.12271896f, -0.0154915517f, -0.034695521f, 0.0883272588f, -0.100108236f, 0.0364078619f, 0.168996841f, -0.198216006f},
  {0.230035856f, 0.0812754557f, 0.304248661f, -0.135878414f, -0.232674032f, -0.0838556141f, 0.19433938f, 0.0662941411f, -0.209863365f, 0.054881271f, -0.332782477f, 0.290914237f, 0.208833203f, -0.0493668579f, 0.0938089862f, -0.108790047f, -0.150375023f, -0.365281552f, 0.108162746f, -0.107152477f, -0.0584695861f, 0.0474252813f, 0.193789274f, 0.0918274149f},
  {0.0378874615f, 0.0721701756f, 0.0101137785f, 0.211711958f, -0.102012172f, 0.132689267f, -0.263176262f, -0.128302082f, -0.33074671f, -0.2473142f, 0.149453893f, -0.0723558366f, 0.126983806f, 0.52605319f, -0.149753541f, 0.0349196009f, -0.332343996f, 0.198016778f, -0.388491482f, 0.0793693513f, 0.278710723f, 0.038235981f, 0.0976454243f, -0.145996734f},
  {0.0687318891f, 0.0474073961f, -0.078211166f, -0.213229716f, -0.12283852f, 0.0958757102f, -0.134495124f, 0.0725473613f, -0.0448309183f, -0.119876459f, 0.00584402913f, 0.0302395467f, 0.193246663f, -0.0819798857f, -0.0775912777f, 0.00430958532f, 0.0934102014f, -0.0906879455f, 0.0482446402f, 0.219779f, 0.105512328f, -0.127424061f, 0.0744820014f, 0.00336566567f},
  {-0.0505129173f, 0.074860394f, -0.174690977f, 0.0958708897f, 0.091687426f, -0.0257420074f, 0.258097708f, -0.0101580629f, -0.197838843f, -0.0254941061f, -0.0526747778f, 0.0644309074f, -0.122585922f, 0.163128525f, -0.136195898f, 0.142778456f, -0.103113443f, -0.152422607f, 0.0188118778f, -0.0495545156f, 0.016486628f, 0.343140274f, -0.068267867f, -0.109242365f},
  {0.0902402028f, -0.0919830352f, 0.0862356052f, 0.0502147973f, -0.0920244306f, -0.0187450945f, 0.247320712f, 0.171220958f, -0.325761437f, -0.206886366f, 0.241419822f, 0.0965837687f, -0.31932205f, -0.107242025f, -0.244808212f, 0.0856742114f, 0.0620197803f, 0.483246207f, -0.0630119219f, 0.045565296f, -0.281779468f, -0.0378051549f, 0.0549167134f, 0.005122378f},
  {0.0932536274f, -0.160258651f, 0.199924543f, -0.0263067707f, -0.260459721f, 0.0402675793f, 0.127941653f, 0.120050631f, -0.143991306f, -0.0428444147f, -0.0655796751f, 0.0613331608f, 0.0376993529f, -0.0849059895f, 0.102917559f, 0.139355436f, -0.346002072f, 0.292930871f, -0.0905853063f, 0.118678324f, -0.142838806f, -0.145962119f, 0.0259621292f, -0.0425694585f},
  {0.0289579015f, -0.254038006f, -0.142304972f, -0.0254625659f, 0.142699167f, 0.187421992f, 0.014125118f, 0.0496711954f, 0.208866328f, -0.0227292608f, -0.167672724f, -0.0976848751f, 0.256268084f, 0.0367758349f, 0.0254111681f, 0.175715297f, -0.0611801818f, 0.276611388f, -0.381830573f, 0.357777983f, 0.00475822063f, -0.0762734115f, -0.151186407f, -0.174926996f},
  {0.185623869f, -0.105289191f, -0.137292743f, 0.0234765727f, 0.0232758839f, -0.000133410998f, 0.0369027629f, 0.0916588381f, -0.0911465138f, 0.135352194f, 0.0398310721f, -0.207319304f, -0.136967927f, -0.0269865915f, -0.024778707f, 0.00950835645f, 0.0394739099f, 0.243158504f, 0.114910699f, -0.0364877172f, 0.00918804575f, 0.0382739678f, -0.00238419091f, 0.0567655116f},
  {-0.304750651f, 0.0235261694f, -0.134705156f, -0.00220836257f, -0.00363018713f, -0.254667372f, -0.196499944f, -0.11623048f, 0.154098004f, -0.0121895727f, 0.0690027773f, -0.0129272742f, 0.365104079f, 0.122048527f, 0.0756043047f, -0.117601201f, 0.212051988f, -0.046119675f, -0.173598245f, -0.0906725898f, 0.433178961f, 0.0211397968f, -0.048463732f, 0.148412585f},
  {0.00166838267f, 0.11901506f, 0.0414880849f, 0.115148984f, -0.0980962515f, -0.107932106f, 0.128692612f, 0.000517655688f, 0.042816706f, 0.0683756322f, 0.019787848f, -0.0789492801f, 0.0429001302f, -0.0532991774f, 0.18072921f, 0.00799720827f, -0.145248443f, -0.293680727f, 0.228860676f, -0.269156754f, -0.0439604409f, -0.0386741273f, -0.0945510119f, 0.100058675f},
  {-0.0137794893f, 0.154206261f, -0.183433875f, 0.242398679f, -0.245827436f, -0.243731886f, 0.0349072143f, 0.195168227f, 0.155610725f, 0.0920079499f, 0.0439808704f, -0.110989742f, -0.164130554f, -0.0182040725f, -0.156253234f, -0.0650148615f, -0.0184392743f, -0.24654685f, 0.223604992f, -0.12329255f, 0.134607479f, 0.192849129f, -0.0232657641f, 0.180504531f},
  {0.146919444f, -0.178686887f, 0.080521889f, -0.0785391778f, -0.0727697089f, 0.128849909f, 0.234408334f, -0.0762416199f, 0.0841018558f, -0.2147789f, 0.0191218369f, -0.0569069684f, 0.076555863f, -0.00771161541f, 0.0733399242f, 0.178506702f, 0.10023763f, 0.302090883f, -0.168705732f, -0.0282058045f, -0.102772348f, -0.182802096f, -0.0318152159f, 0.0763253123f},
  {-0.127432182f, 0.00496884389f, 0.120134652f, -0.185091585f, -0.174165264f, 0.161596984f, 0.151276454f, 0.160057411f, -0.185043156f, -0.0446311012f, -0.0273661222f, 0.174648538f, -0.0153734917f, -0.0181939881f, -0.0611647852f, 0.115796924f, 0.0224679355f, 0.0355994031f, 0.06828814f, 0.215049416f, -0.344408095f, 0.0935462639f, 0.13208425f, -0.172935352f},
  {0.0362371095f, 0.00406313455f, -0.0788349733f, -0.00826929789f, 0.0510749072f, 0.0260880403f, -0.0635697544f, 0.106746651f, 0.152091488f, -0.100737087f, 0.0209281612f, 0.0166406911f, 0.0434869491f, -0.0229594894f, 0.00640613865f, -0.100454323f, 0.0219982471f, 0.0067275255f, -0.086862959f, 0.104025379f, 0.0857004449f, 0.0405627005f, -0.00194804231f, 0.045888599f},
  {-0.0448326394f, 0.0534313023f, 0.0321849808f, 0.0612640232f, 0.00419256138f, -0.129039973f, 0.153347179f, 0.062255498f, -0.0285070669f, 0.127463549f, -0.0239243601f, 0.0302133597f, -0.167061433f, -0.0923128799f, 0.0485152453f, 0.0485603735f, 0.0222620219f, 0.120863475f, 0.0179373715f, -0.0950383767f, -0.000398746051f, -0.00712519744f, -0.095316045f, -0.00905563962f},
  {-0.089607358f, -0.313435346f, 0.0507751927f, 0.0333026089f, 0.0502130203f, 0.0426141471f, -0.176012814f, -0.207498267f, -0.0100842034f, 0.1317866f, -0.122750394f, 0.0419375114f, 0.259690523f, 0.120058455f, 0.232729197f, -0.390736818f, -0.153661877f, -0.14513059f, 0.0467696376f, 0.339758784f, -0.072088778f, -0.201010153f, 0.0108348327f, 0.0687346905f},
  {0.195304781f, -0.114797108f, 0.153601199f, -0.265411705f, -0.222586885f, 0.0112956334f, -0.155067056f, 0.00459934259f, 0.207047373f, 0.00297873211f, 0.0757243186f, 0.0347215161f, -0.0723000392f, 0.436766386f, 0.0597113147f, 0.195788816f, -0.15487273f, -0.0802623034f, -0.324650913f, -0.106242023f, -0.0485296845f, 0.210281938f, -0.215024859f, -0.0777435228f},
  {-0.0838320479f, 0.0267049205f, -0.133554339f, 0.152463511f, 0.0562605821f, -0.357703954f, 0.156153828f, 0.0435817502f, -0.285562605f, 0.140710503f, 0.015391429f, -0.142095804f, -0.113573909f, 0.0860429034f, -0.0124909319f, -0.121348418f, 0.155023456f, 0.262394249f, 0.296719909f, -0.0711550489f, 0.0344449356f, -0.118790798f, 0.0156572368f, 0.142002046f},
  {-0.160260022f, -0.246294692f, 0.215210289f, 0.28880313f, -0.0790038705f, 0.00660329405f, -0.100367367f, -0.262994438f, 0.110030279f, -0.264220357f, 0.0627028942f, -0.203459278f, -0.00439695129f, 0.352173269f, 0.0363637246f, 0.060841199f, 0.0894332379f, -0.198898777f, -0.176064625f, -0.23125422f, 0.445428371f, -0.149577796f, 0.134086162f, 0.106458291f},
  {0.0854636729f, 0.165170133f, -0.282669634f, 0.200446367f, -0.344742507f, -0.186667576f, 0.0738097653f, 0.0775205046f, -0.245067388f, -0.306305975f, -0.105056658f, -0.0675777569f, -0.0614367984f, 0.252393901f, 0.320691675f, 0.0250416119f, -0.0704823807f, 0.00728552043f, -0.015888283f, -0.0208439883f, 0.32575354f, -0.110199369f, 0.0997422934f, -0.0273396466f},
  {0.0559642464f, -0.0778805912f, -0.20358555f, 0.254467249f, 0.192117736f, 0.0503318682f, -0.111032777f, -0.024735976f, -0.0824816301f, 0.0825387537f, 0.0529403687f, -0.241765857f, -0.117561728f, 0.157259345f, -0.165326178f, -0.0838623568f, 0.208488137f, 0.164610833f, -0.0250784568f, -0.113744587f, 0.174226925f, 0.149544746f, 0.073308751f, 0.158700272f},
  {0.0357024334f, -0.0299890488f, -0.0110149598f, 0.0157118645f, -0.0468160957f, -0.0381142981f, 0.0325635783f, -0.0169084966f, 0.0128220618f, 0.105629057f, 0.0201783776f, -0.0400385484f, -0.0666292533f, -0.0854333863f, -0.0310744531f, -0.0101704635f, -0.00344445114f, 0.0784250423f, 0.0850145146f, -0.0609765165f, -0.052392628f, 0.0160980932f, -0.0864480436f, 0.0604735352f},
  {0.0408408381f, -0.00685438374f, 0.0151051404f, 0.0104836365f, -0.126875773f, -0.228217691f, -0.0569007993f, 0.173701704f, -0.00168511539f, -0.210902363f, -0.0501704849f, 0.085885562f, 0.125770688f, 0.0278648585f, 0.106060378f, -0.0124308709f, 0.107058845f, -0.175571024f, -0.107089199f, -0.0305615868f, -0.0280226655f, -0.107792027f, 0.0402938165f, 0.122918069f},
  {-0.221357569f, 0.148920447f, -0.0737371668f, 0.156644002f, 0.111473858f, -0.239930868f, -0.049871102f, 0.143741384f, -0.157609195f, -0.0215313062f, 0.203648597f, -0.12386594f, -0.00774544198f, 0.0142025277f, 0.104955487f, -0.147168264f, 0.0608334169f, 0.0824295953f, -0.155315965f, 0.178641915f, -0.249329835f, 0.268953264f, -0.141777545f, -0.061320968f},
  {0.0221543033f, -0.112698652f, -0.0112967966f, 0.0158662833f, -0.105380945f, 0.0114729479f, -0.112593234f, 0.103177838f, 0.105220884f, -0.168253094f, -0.075905852f, 0.131917253f, 0.145917296f, -0.105633348f, -0.160283044f, -0.180068702f, 0.132589966f, -0.0899056122f, -0.148826838f, 0.102337673f, 0.0686834827f, -0.138064474f, 0.118064821f, 0.174402967f},
  {0.00338263228f, 0.0841479301f, -0.054909613f, 0.0513368994f, -0.044923f, -0.0486268289f, -0.00367533532f, 0.0639024898f, 0.00850639679f, -0.00689860387f, 0.113142885f, -0.0270010997f, -0.0200136062f, -0.067701973f, 0.0441058613f, 0.00537535269f, -0.0894394815f, -0.0198663864f, 0.107691653f, -0.0445000939f, -0.0128775602f, 0.00614951598f, -0.0617508888f, 0.0162274465f},
  {0.0027616627f, -0.138999924f, -0.0928285867f, -0.00770247681f, -0.11914245f, 0.016485529f, -0.0126189385f, 0.13671127f, 0.275184005f, 0.0293519925f, -0.214898378f, -0.244336665f, 0.326621056f, -0.242470235f, 0.236787617f, 0.212129399f, -0.163258255f, -0.171341732f, -0.0183828566f, 0.141319916f, -0.0861096159f, -0.342591524f, -0.0890704989f, 0.132173359f},
  {-0.0351156965f, -0.0296521168f, -0.021932492f, 0.11015524f, -0.116706677f, -0.0518543757f, -0.0310138781f, 0.0451520905f, -0.015041572f, -0.116828553f, -0.0388460942f, -0.122581288f, -0.00181646412f, 0.203015268f, -0.195085615f, -0.241374999f, 0.146315396f, 0.0432615317f, -0.041683428f, -0.0890522525f, 0.0987807736f, 0.179362074f, -0.103080727f, -0.0237337053f},
  {0.253580391f, 0.0112814913f, -0.181663275f, 0.00808632188f, -0.0734566003f, 0.0918071717f, 0.00745824398f, -0.0232240651f, 0.121044688f, -0.0535607971f, 0.0279494934f, 0.0388934761f, -0.105297342f, -0.116891898f, -0.0268617012f, -0.0999287814f, 0.0294416677f, -0.0711178705f, -0.0161654186f, -0.0564096458f, 0.043789994f, 0.101529174f, -0.098546885f, 0.0660107881f},
  {-0.0850119144f, -0.0656026676f, 0.0419636257f, 0.0867723078f, -0.0131209567f, -0.0201867037f, 0.113514192f, 0.0529686846f, -0.177948996f, -0.196542785f, 0.0453885645f, -0.231454402f, 0.179799989f, 0.0394483469f, 0.31123665f, 0.121869989f, -0.0545807406f, -0.0171610862f, -0.0622291341f, -0.0359636024f, 0.0194175262f, -0.115599222f, -0.164575428f, -0.0164181162f},
  {0.205207497f, -0.0663691238f, 0.00966131408f, -0.0937443003f, 0.0713412315f, 0.113201365f, 0.244786084f, -0.1781196f, -0.0239182636f, 0.0946121886f, -0.00568952737f, -0.129900888f, -0.306768596f, 0.0652317554f, -0.0890337303f, 0.227530956f, -0.0441579968f, 0.191389963f, 0.152663127f, -0.0742987245f, -0.0785278678f, 0.0230850112f, 0.11135903f, -0.188644171f},
  {-0.119946197f, -0.0149561726f, 0.212334916f, 0.214957774f, -0.0917831436f, -0.0888575092f, -0.141061783f, 0.0485841408f, -0.132645607f, -8.31587095e-05f, 0.0363488011f, 0.120149657f, -0.20957762f, 0.0911218673f, 0.00898366049f, 0.0772564784f, -0.0255111884f, 0.0304327924f, -0.0337838568f, 0.0715094358f, 0.0646309555f, -0.0292871352f, -0.0417808816f, -0.00372574409f},
  {0.147314012f, 0.00245568319f, -0.189995795f, -0.12872614f, -0.170045078f, -0.0727174655f, -0.211780339f, 0.35297212f, -0.0336970761f, 0.0853257403f, 0.204213515f, -0.00726263365f, -0.143425837f, -0.191985965f, -0.0720126331f, -0.15515177f, -0.103686042f, 0.244290531f, 0.207809016f, 0.276153982f, -0.0424759835f, -0.197983876f, 0.135327071f, -0.0120208878f},
  {-0.0641981512f, -0.105459504f, -0.0198109988f, 0.00643621525f, 0.150432527f, 0.125683695f, -0.0381234214f, -0.166835606f, -0.208834618f, 0.34072873f, 0.139041573f, -0.0230676085f, -0.280703247f, 0.0785604641f, -0.393182069f, 0.0451649167f, 0.0433215834f, 0.157508999f, 0.115806714f, 0.107340842f, 0.134391651f, 0.411061436f, -0.0635778978f, -0.234847382f},
  {-0.14588812f, -0.00668700691f, -0.372668415f, 0.0218377504f, -0.141276821f, -0.177836761f, 0.231852978f, -0.07530085f, -0.190261021f, -0.177316844f, -0.259387046f, 0.0515993014f, -0.030870663f, 0.0885752961f, 0.188324541f, 0.071808055f, 0.0222907774f, -0.0201131869f, -0.117453098f, -0.331620246f, 0.283468097f, 0.00353306788f, 0.0444127358f, 0.187709123f},
  {0.107380413f, 0.0229583476f, -0.109358251f, 0.107404143f, 0.243626028f, -0.00172198901f, -0.19903326f, 0.00447085826f, 0.135272712f, -0.0845992714f, 0.0456881411f, -0.0608087294f, 0.0372341163f, -0.0755862892f, -0.0170446169f, -0.295490712f, 0.00444701267f, 0.0870750174f, 0.0529961027f, -0.154289782f, 0.20483695f, -0.124715053f, 0.118389055f, -0.0602950826f},
  {-0.277506351f, -0.171054184f, 0.284732372f, 0.0693420693f, 0.17454122f, -0.0182272531f, -0.122519754f, -0.00621581357f, -0.109034106f, -0.0695044994f, -0.0772595853f, -0.12485534f, 0.123844951f, 0.113999225f, -0.03882486f, 0.170246437f, -0.0774504691f, 0.0980829522f, -0.176000252f, 0.22543253f, 0.032191176f, -0.0766492113f, -0.0796816424f, -0.132369787f},
  {-0.295521468f, -0.0517162494f, 0.258060426f, 0.245405376f, 0.0894625783f, 0.0379805081f, 0.109240316f, -0.125805095f, -0.20112583f, -0.209519252f, 0.0555789135f, 0.265184939f, -0.220283747f, 0.14960359f, -0.165658846f, -0.0445742346f, -0.0775037929f, -0.192396358f, -0.182166919f, 0.00777457422f, -0.0799283832f, 0.00636658026f, 0.107569896f, -0.0692795441f},
  {0.0249949321f, -0.0404037796f, -0.270355433f, -0.137243524f, 0.0242914166f, -0.048737783f, 0.443013817f, 0.242703602f, 0.0642655119f, -0.165580228f, -0.210895881f, 0.31284973f, -0.0322274566f, -0.181895137f, -0.256244361f, 0.0838356018f, 0.254001379f, -0.336521268f, 0.0532131493f, -0.25881052f, 0.0113008516f, 0.0815548524f, 0.00535883149f, 0.219050765f},
  {-0.253164828f, 0.116786383f, 0.223002926f, 0.0867149532f, -0.180687517f, 0.0128528699f, 0.172752813f, -0.146927431f, -0.110200599f, -0.0347567983f, -0.0219356995f, 0.120210707f, 0.123406567f, 0.112244181f, 0.0325674787f, -0.197140142f, -0.0692649186f, -0.314002246f, -0.0887314901f, -0.140303656f, -0.0425576121f, 0.00902093947f, -0.000520137604f, 0.0599796064f},
  {0.03193371f, -0.169994667f, -0.0163374078f, -0.00712967431f, 0.166202024f, 0.0864563435f, -0.1767243f, 0.0033245841f, 0.00125982985f, -0.0749247149f, 0.16959931f, 0.0186012033f, 0.0680905282f, 0.143348858f, -0.180960163f, -0.17950505f, -0.109083228f, 0.00522419997f, 0.00491297152f, 0.0790173709f, 0.0319996402f, 0.0038269246f, 0.0244132057f, 0.0670788884f},
  {0.0128942886f, 0.0467935279f, 0.01963792f, -0.138688087f, -0.157195479f, 0.13132906f, -0.109950222f, 0.0540267527f, 0.118030027f, 0.0489399768f, -0.100657374f, 0.14736186f, 0.0392582193f, -0.0510097742f, 0.0262853839f, -0.164767891f, -0.0382612161f, -0.0928397477f, 0.0324761644f, 0.0249922425f, -0.00969661586f, -0.0624263398f, 0.0557630621f, -0.0375806056f},
  {-0.0578646958f, -0.168892756f, 0.0111897234f, -0.00667443359f, -0.238466293f, 0.0404461324f, -0.0207579434f, -0.0456876531f, 0.104104705f, -0.0936690718f, -0.212591991f, 0.0024689401f, -0.173472241f, 0.199589714f, 0.110275306f, -0.0831191689f, 0.0925859511f, 0.223315969f, -0.0433780439f, -0.104389645f, 0.175722227f, -0.139208674f, 0.109054439f, 0.0077734841f},
  {-0.0610978119f, 0.0597873479f, 0.118640326f, -0.0489951894f, -0.0988177061f, -0.053499043f, 0.136894256f, 0.0446337797f, -0.0381462015f, 0.0548409596f, -0.10047479f, 0.0150089907f, -0.184087545f, 0.0679394379f, 0.0924596563f, 0.0770892501f, 0.0808954686f, 0.0344781727f, -0.00767906336f, -0.066788964f, -0.0595136322f, -0.0359623544f, -0.0899516568f, -0.0289318804f},
  {-0.0219337344f, 0.0192507282f, -0.132941395f, -0.0523876138f, -0.0305532813f, -0.0603645407f, 0.120553777f, 0.0963277742f, -0.159840807f, 0.0480399244f, -0.0421320125f, 0.114713237f, 0.071176298f, 0.0505202934f, 0.0195882898f, 0.109625265f, 0.05005854f, -0.172221035f, 0.163416564f, -0.0224772394f, -0.0191040467f, -0.048132807f, -0.0265869144f, 0.100570433f},
  {0.444383919f, -0.103289336f, -0.253771842f, -0.00487674214f, 0.078745231f, 0.011097772f, -0.0646722019f, 0.181938723f, 0.0361866914f, 0.082132332f, -0.297517449f, 0.0116125783f, -0.149993703f, -0.112392813f, -0.105449669f, -0.106052473f, 0.206724644f, -0.140662521f, 0.112266533f, -0.0391446315f, 0.1046777f, 2.69814736e-05f, 0.0369547196f, 0.132003278f},
  {0.150824353f, -0.140376806f, -0.0650258809f, -0.0103087602f, 0.0179304238f, 0.070659481f, -0.0171255898f, -0.0402228422f, -0.0909351557f, -0.0321457982f, -0.150136173f, 0.0320031084f, 0.033630807f, -0.163943201f, -0.137107924f, -0.100951515f, -0.0565359108f, 0.0652239248f, 0.186638191f, 0.106878296f, 0.0724731907f, 0.0502356105f, 0.109111801f, -0.0402505137f},
  {0.084071137f, -0.259445846f, 0.0920410678f, -0.0577588417f, 0.212429821f, -0.191456735f, -0.12519978f, 0.244521558f, 0.147633553f, 0.0429054983f, 0.130984738f, -0.0475778058f, -0.176738933f, 0.0364607573f, -0.226552874f, -0.222626999f, 0.0593676791f, 0.142329916f, 0.0446144044f, 0.0374785177f, 0.168912053f, -0.0787273124f, -0.0492483266f, -0.0139564993f},
  {-0.0597969517f, 0.131599262f, 0.0893623009f, -0.0853808746f, 0.251089215f, -0.0834809393f, 0.123897746f, 0.101692282f, 0.0614899136f, 0.226157621f, 0.0190041866f, -0.0201449599f, -0.422502667f, 0.101346396f, 0.0654594526f, -0.196893275f, 0.331423402f, -0.25199911f, 0.177203968f, -0.0518386513f, -0.270186275f, 0.264470488f, -0.387973368f, 0.10748709f},
  {-0.153457478f, -0.0750974342f, 0.00205778843f, -0.141658798f, -0.160612836f, 0.0952401683f, 0.432999671f, 0.0244272985f, 0.0756255984f, -0.00999212824f, -0.064693287f, -0.312102854f, -0.13780579f, 0.105528779f, 0.453100294f, 0.126006514f, -0.0477225594f, 0.0169842504f, 0.0915160924f, -0.286432117f, -0.253517717f, -0.0452650003f, -0.0661014467f, 0.00333665148f},
  {0.0650656447f, 0.0394938923f, -0.116300695f, -0.138626754f, -0.192928091f, 0.0149331726f, -0.00393458828f, 0.163264468f, 0.0226285812f, 0.0163691547f, -0.0443409607f, 0.0792480484f, 0.119317144f, -0.103230223f, -0.1073737f, -0.145272046f, 0.0259114057f, -0.170413658f, 0.136612862f, 0.097317785f, 0.0286891852f, -0.0662809536f, 0.0938127413f, 0.0316509418f},
  {-0.0979354754f, 0.029983772f, 0.104951508f, 0.0357811488f, -0.180694625f, -0.029760303f, -0.0111835105f, -0.0164908562f, 0.198323771f, -0.0315883122f, -0.042913381f, 0.142896518f, 0.162893414f, -0.00893442892f, 0.0147422114f, -0.228986457f, -0.110404074f, -0.0386405997f, -0.11798086f, 0.000610591203f, 0.102838434f, -0.176908463f, 0.0919041783f, 0.0773070008f},
  {0.33991617f, -0.143028468f, 0.136737108f, 0.041213084f, 0.0457231738f, -0.0957941636f, 0.0563851632f, 0.263586581f, -0.119224109f, 0.125396654f, -0.183829382f, 0.0745265782f, -0.193325207f, -0.0328875631f, -0.268466383f, -0.200454026f, 0.132325634f, -0.000572808378f, 0.221680671f, 0.104497708f, -0.109260671f, -0.143805861f, -0.0779869705f, 0.103317343f},
  {-0.0805742964f, -0.0945715085f, 0.231317863f, 0.294447243f, -0.190762267f, 0.00663281698f, 0.135231972f, -0.136121482f, 0.0734984428f, 0.137541667f, -0.416151553f, 0.241505727f, -0.0848049968f, -0.0453595109f, -0.101911157f, -0.0894797742f, 0.244711354f, -0.0258167703f, -0.119981363f, -0.131566182f, -0.0624649525f, 0.168110192f, 0.0649296194f, 0.0879565328f},
  {0.278745145f, 0.0302593224f, -0.247435018f, -0.121561535f, -0.298934102f, 0.0947060138f, 0.0262397565f, -0.0665912628f, -0.0630546063f, 0.205615237f, -0.0894607827f, 0.205065772f, 0.0337239429f, 0.0655641556f, -0.127424449f, -0.4076626f, -0.104580075f, -0.0876266211f, 0.216520876f, -0.131110072f, -0.0140756425f, 0.289182156f, 0.244564623f, 0.0290792808f},
  {-0.0766784623f, 0.245486051f, 0.0321775898f, -0.045488324f, -0.255820066f, -0.0966403186f, -0.0216144808f, -0.0613044538f, 0.0747412667f, -0.025632618f, 0.075721927f, 0.108932361f, 0.0487282388f, 0.114253245f, 0.048422005f, -0.253221005f, -0.207457542f, -0.232036754f, 0.0564202629f, -0.00998921786f, 0.0796153396f, -0.0288367104f, 0.122706659f, -0.0120574608f},
  {0.00774210924f, 0.0676966608f, 0.152078182f, 0.188360646f, -0.229321584f, -0.191300437f, -0.0106276842f, 0.151143074f, -0.105818406f, 0.0692021251f, 0.0450918674f, -0.161440149f, -0.14575319f, -0.00683439104f, 0.0122774504f, -0.378056973f, -0.124454789f, 0.338612467f, 0.0544718541f, 0.0866493583f, 0.0925228f, -0.257303476f, 0.126956627f, -0.0438987464f},
  {-0.120444f, 0.104764692f, 0.0034047938f, 0.0280288886f, 0.128552467f, -0.0342442393f, -0.102212958f, -0.0451459624f, 0.0111997798f, 0.0493701734f, 0.106491745f, 0.0108313803f, 0.0607460849f, -0.193755299f, 0.169624209f, 0.108112484f, 0.0664119795f, 0.031758409f, 0.0341505259f, 0.105650902f, -0.0596755594f, -0.180662364f, -0.057393115f, 0.119716331f},
  {-0.124307603f, -0.278847039f, 0.141767636f, 0.14608416f, -0.158975333f, -0.0122531485f, -0.23574312f, -0.0627991632f, -0.164405197f, -0.0907945037f, 0.03825536f, -0.11762511f, 0.22851187f, 0.151642844f, -0.0114112347f, 0.000964585401f, 0.0307892207f, 0.194793537f, -0.111358836f, 0.209393978f, 0.110943735f, 0.0855895653f, -0.0172286704f, -0.0323561467f},
  {-0.102325872f, 0.181357116f, 0.0522250719f, -0.0636058077f, -0.14576754f, 0.0731087178f, -0.152641803f, -0.0177967865f, -0.089016743f, 0.159245402f, -0.0255956501f, 0.0543133803f, -0.0720440447f, 0.0358069576f, -0.091989316f, -0.319974929f, 0.0162493791f, -0.272814393f, 0.177166596f, -0.110563166f, 0.0131633393f, 0.0971611366f, 0.200384885f, 0.0458307751f},
  {0.0954106748f, 0.196395382f, 0.03967252f, 0.0125451861f, -0.0683557466f, -0.1919792f, -0.108378522f, 0.154742613f, 0.0862390324f, -0.0253426488f, 0.0806208104f, -0.0119118495f, 0.120917797f, -0.213919401f, 0.0814921409f, -0.274835825f, -0.189650103f, 0.155214652f, 0.0915196016f, 0.145514995f, 0.0777581409f, -0.155902505f, -0.0830113143f, -0.0868687481f},
  {0.0459110737f, 0.0876536518f, -0.0671776012f, 0.0710880309f, 0.00399912801f, -0.0555551648f, 0.0568683334f, -0.00292074657f, -0.11923708f, 0.0473782085f, -0.0490442887f, -0.0137596242f, -0.129076019f, -0.0382775515f, 0.0358750969f, 0.0565898381f, 0.0639401823f, -0.0483169891f, 0.043037165f, -0.0446080156f, 0.0358999223f, -0.0720839277f, -0.012037985f, 0.0337226354f},
  {-0.00387043576f, 0.0504181758f, 0.00697777327f, 0.0123476218f, -0.213529348f, -0.0108389603f, 0.164721206f, 0.0613067597f, -0.11214418f, 0.068589136f, -0.0531068593f, 0.0711681247f, 0.104442306f, 0.130484089f, 0.0180111025f, 0.111418679f, 0.0492164008f, -0.0210296232f, -0.0307899155f, -0.0471637957f, -0.063726306f, 0.0530213825f, 0.0168666653f, -0.049862843f},
  {0.00957043096f, 0.0364518985f, -0.251264244f, -0.0927258506f, 0.141086847f, 0.0353631489f, 0.200467363f, -0.147712454f, -0.0542586222f, -0.0858073533f, -0.0522695817f, -0.278322399f, 0.157160386f, 0.136170194f, 0.455285817f, 0.118959397f, -0.0804713964f, -0.171873331f, -0.168863803f, -0.336297154f, -0.0685646087f, 0.0773069635f, 0.0545533523f, 0.130372167f},
  {-0.12307927f, 0.337122411f, 0.0583099909f, -0.0811297894f, 0.114755169f, -0.250229567f, -0.270759374f, 0.0696875826f, 0.276602238f, 0.282682806f, 0.153979808f, -0.0329603516f, -0.128484949f, -0.0886886641f, 0.0326460935f, -0.118737556f, -0.0980531573f, -0.0326981768f, 0.0669140592f, -0.10059499f, -0.0788767636f, -0.093201898f, -0.212742388f, -0.00452206004f},
  {0.250870049f, 0.0528226271f, 0.226023197f, -0.00879512262f, -0.039873004f, 0.107398465f, -0.063174352f, -0.0168041848f, 0.149756968f, 0.0468099304f, -0.0412736572f, -0.0115448665f, -0.0729652718f, -0.0736985877f, 0.00664198818f, -0.12810567f, -0.216404274f, -0.279782742f, -0.0658246875f, -0.108555004f, 0.0482179336f, -0.229846627f, 0.221899047f, 0.0239173286f},
  {-0.132279709f, -0.193024248f, -0.0895394757f, -0.00705186138f, -0.0190251246f, 0.0455581024f, 0.19906503f, 0.185846418f, 0.0170889422f, -0.124223866f, -0.275486916f, -0.0637252256f, 0.187285706f, -0.195165619f, 0.121669523f, 0.340682477f, 0.134527341f, -0.123478651f, -0.159559131f, 0.120199949f, 0.0130092567f, -0.136547357f, -0.000399058859f, 0.00982270297f},
  {0.189478219f, -0.0428942069f, -0.0446825922f, 0.169343859f, -0.0384042747f, -0.0264261886f, -0.209117532f, 0.0295537431f, -0.0367275104f, -0.246604741f, -0.134522215f, -0.30424875f, 0.0105223069f, 0.180098563f, 0.0620185062f, 0.190668479f, 0.0649794564f, -0.00218159263f, -0.119443245f, 0.115163036f, -0.0716325268f, -0.0715759844f, -0.171113342f, 0.0487658717f},
  {-0.264575064f, 0.081342116f, 0.161974281f, -0.0681589842f, -0.149962395f, -0.0809149593f, -0.0311726965f, -0.00574895414f, 0.0624458231f, -0.054063309f, 0.144178241f, 0.0177616421f, 0.0669876412f, 0.0739149824f, 0.0815241262f, -0.308474511f, -0.0660554171f, 0.0335361622f, 0.0547946058f, 0.00674710236f, 0.0427127406f, -0.252354562f, 0.138288289f, -0.047008872f},
  {0.0440915711f, -0.0514264405f, 0.0576570332f, -0.0328245424f, -0.0375124514f, 0.0538919009f, -0.0805632994f, 0.0340548158f, 0.122736819f, -0.0199821144f, 0.0100115323f, 0.0500703566f, 0.0551936068f, -0.0603723489f, -0.0054503493f, -0.202102885f, -0.0135496622f, 0.0216446761f, -0.0188142862f, 0.0645491704f, -0.0260275248f, 0.00809224136f, 0.109947048f, -0.0333802924f},
  {0.0958995745f, -0.0222818516f, 0.225122064f, -0.00827349629f, -0.0939670354f, -0.145174667f, -0.135783255f, 0.0783840492f, 0.107945383f, 0.0696268082f, -0.048554711f, 0.0448676012f, 0.101548888f, -0.00557004474f, -0.267569453f, -0.0732302219f, 0.105304085f, -0.191693336f, 0.068530269f, 0.0721745118f, -0.050248079f, -0.035494823f, 0.0713046566f, 0.0393654816f},
  {-0.147702083f, -0.183189914f, 0.0154142939f, 0.175283089f, 0.16694136f, -0.152012005f, 0.0800959244f, 0.123206377f, -0.103837937f, 0.0197090115f, 0.0503684543f, -0.279430419f, 0.059384197f, 0.172589585f, -0.0961079076f, -0.190851897f, 0.10908325f, 0.188957185f, 0.0119678034f, 0.142170712f, -0.14850527f, -0.00621716119f, -0.287718713f, 0.214625657f},
  {-0.0612319522f, -0.0801930651f, 0.0420127772f, 0.00250865892f, 0.214504749f, -0.0175453164f, 0.0801310018f, -0.204452366f, -0.0736804381f, 0.168509409f, 0.155782729f, -0.0858083665f, -0.104850352f, 0.161032692f, -0.25943929f, 0.114382572f, 0.101577103f, 0.159258604f, 0.0653287992f, -0.124919459f, 0.050647065f, 0.0885366574f, -0.137249604f, -0.0778312758f},
  {0.0375104882f, -0.0356697626f, -0.0217369348f, -0.0163556915f, -0.0042098402f, 0.0254242718f, -0.0204591602f, 0.0156522635f, 0.121505685f, -0.0100686131f, -0.0286292825f, 0.0536249727f, 0.016263932f, 0.0174429435f, -0.125040621f, -0.103460878f, 0.096535556f, -0.0347575955f, -0.0635700151f, -0.0411433466f, 0.00940325484f, -0.0039414335f, 0.0491294824f, 0.0140348971f},
};

static const float kLayer0Conv1dWeight[48][4] = {
  {0.32492581f, -0.214911461f, -0.253394693f, 0.0118953222f},
  {0.0898401588f, 0.173040986f, 0.054231368f, -0.055768799f},
  {0.143793821f, 0.110090032f, 0.0137750041f, 0.0362976938f},
  {0.14151305f, 0.237640291f, -0.13706322f, -0.131069139f},
  {0.303608f, 0.00954161864f, -0.266284436f, 0.0951949209f},
  {-0.270825058f, -0.0229743458f, 0.0191524029f, 0.199500382f},
  {-0.0699670687f, -0.190266475f, 0.400719494f, 0.155091271f},
  {0.0923415944f, 0.220353067f, 0.254461646f, -0.273499936f},
  {-0.181699872f, 0.161058679f, -0.340684116f, 0.0476530641f},
  {0.311488688f, 0.0669474527f, 0.0574465953f, -0.0488407575f},
  {0.205220699f, 0.141560465f, 0.294874281f, -0.20976533f},
  {-0.303254545f, -0.23132354f, -0.0389051847f, -0.0908050016f},
  {0.180521131f, 0.217403159f, 0.381136984f, -0.124352299f},
  {-0.0157921463f, 0.360798776f, 0.0636441484f, 0.134449109f},
  {-0.132936537f, -0.0971864089f, -0.199818283f, -0.0300506912f},
  {-0.120187394f, 0.0932457f, -0.161450639f, 0.0968025997f},
  {-0.0362524576f, -0.202380672f, 0.194654077f, 0.025709508f},
  {-0.215350032f, 0.104965501f, -0.108690828f, -0.162247166f},
  {0.176003307f, -0.141429678f, -0.0597260892f, 0.0725003183f},
  {-0.395428538f, -0.117812052f, -0.202586785f, 0.113229714f},
  {-0.0590758771f, 0.178264603f, 0.0759356022f, 0.215531781f},
  {0.000856332248f, -0.12589328f, -0.00844642799f, 0.254524738f},
  {-0.11641559f, 0.450025976f, 0.0225480944f, -0.24366869f},
  {0.140175223f, 0.129619256f, -0.4698627f, -0.069455035f},
  {0.00923829805f, -0.0720142797f, 0.0464449152f, 0.168413356f},
  {0.0930796415f, 0.0788333118f, -0.265236348f, 0.0265601836f},
  {0.0641591325f, -0.0575818941f, 0.367489219f, 0.0116580473f},
  {-0.00275514321f, -0.315312117f, -0.190745592f, 0.0632397383f},
  {0.0994880944f, -0.253509611f, -0.339398354f, 0.0838028193f},
  {-0.000935919699f, -0.068853654f, -0.100620314f, -0.261298209f},
  {0.169736937f, 0.269043386f, -0.353058457f, -0.140807047f},
  {-0.126076207f, -0.221099913f, -0.0813416392f, 0.146269396f},
  {0.354548842f, -0.082260035f, -0.164252445f, -0.0122708119f},
  {0.137964249f, -0.283997148f, -0.233100086f, -0.110298611f},
  {-0.104121983f, 0.0440696776f, -0.311719865f, 0.0909087881f},
  {0.015079747f, 0.0277355537f, 0.0708183348f, -0.078615129f},
  {-0.134485424f, 0.0861058682f, -0.0853790939f, -0.0535976961f},
  {-0.18773213f, -0.493397057f, 0.0773399323f, 0.121292613f},
  {-0.274642259f, -0.296781272f, 0.198949635f, 0.215089187f},
  {-0.363230348f, 0.121693932f, -0.189388424f, 0.188913196f},
  {0.232468843f, -0.159062922f, -0.32668674f, 0.0014567296f},
  {0.0162099246f, 0.465241492f, -0.225707933f, -0.0510207526f},
  {0.173553184f, 0.00659451028f, -0.189081132f, -0.131398678f},
  {0.00854150299f, 0.0391487367f, 0.105577387f, 0.0617149845f},
  {-0.00479457388f, 0.0194467548f, 0.0382278413f, -0.141585276f},
  {-0.246967122f, -0.272965699f, 0.198729083f, -0.158590734f},
  {0.0138903689f, -0.0881238058f, -0.202239126f, 0.184971049f},
  {-0.0381386913f, -0.0825334713f, 0.0565408617f, 0.0240969285f},
};

static const float kLayer0Conv1dBias[48] = {-0.0388929322f, 0.0453647859f, -0.0397994742f, -0.111566901f, 0.00339276437f, -0.0252869651f, 0.0466116071f, -0.0629549846f, 0.0160382204f, 0.0156823751f, 0.021767728f, -0.0788871199f, 0.0736599043f, 0.0327299722f, -0.007219953f, -0.0135666337f, -0.0799092352f, -0.0326997377f, -0.0114280237f, -0.0466287695f, -0.0230399519f, -0.107960947f, -0.0065341075f, 0.037402153f, 0.0102295848f, -0.0525056645f, -0.0280450713f, -0.0862418786f, -0.105508365f, 0.0728018135f, 0.0620345324f, -0.00841457862f, -0.125069797f, 0.0454879329f, -0.089353539f, -0.0494721197f, -0.00210027257f, -0.0578509346f, 0.0228451751f, -0.0927516222f, 0.0384396836f, -0.023573624f, 0.101552419f, -0.00187124161f, -0.038089294f, -0.0505642779f, -0.0150197307f, -0.0130599448f};

static const float kLayer0XProj[34][48] = {
  {-0.0873974562f, 0.321937203f, 0.0537430793f, -0.00250918465f, -0.0886807367f, -0.028000202f, 0.0419741906f, 0.176629618f, 0.0910664499f, -0.099333033f, 0.0613410436f, 0.138014182f, 0.287482381f, 0.179449499f, -0.0914944932f, -0.105613902f, -0.0625199825f, 0.0298939906f, 0.0942744017f, 0.143617958f, -0.156483307f, 0.0943569988f, 0.0803762972f, -0.0198433492f, 0.0212343037f, -0.126266032f, -0.106940553f, -0.173409417f, -0.110160068f, 0.188939378f, 0.199200481f, 0.0511447266f, -0.0675146878f, -0.0188836772f, -0.301771253f, 0.010667624f, 0.140673563f, -0.180254474f, 0.133822963f, 0.097125113f, -0.0808971897f, 0.00278185611f, 0.311803907f, -0.136291608f, 0.0359884351f, -0.130366609f, 0.0827872753f, 0.078076534f},
  {0.0163297709f, -0.0197134651f, -0.179978162f, -0.210837126f, 0.24550949f, 0.159414738f, 0.0467143543f, -0.0229224078f, 0.00210126676f, -0.00592706073f, -0.135660708f, -0.189444259f, -0.412929744f, 0.0907765031f, -0.0652061328f, 0.12505497f, -0.125160351f, 0.00254620309f, -0.149906263f, -0.0739784241f, -0.00822782144f, -0.246450424f, 0.127993479f, -0.150621951f, -0.0909689888f, -0.0839535147f, 0.0160640534f, 0.290970922f, 0.157209933f, -0.0559722558f, 0.030314127f, -0.0915395319f, 0.155425742f, -0.0190067627f, 0.202861384f, 0.00365499104f, 0.087213695f, 0.454616547f, -0.129207417f, -0.247046217f, 0.0206506271f, -0.0201852992f, -0.131088451f, -0.00642864034f, -0.230213746f, 0.217253447f, -0.0245591402f, -0.0360164233f},
  {0.0543773957f, -0.0808758289f, -0.0224362276f, -0.270773202f, 0.178108349f, -0.0924744084f, 0.055489134f, -0.0805038437f, -0.283225447f, -0.0945644155f, -0.0654516518f, 0.100701198f, -0.0765612274f, 0.146542013f, 0.238483518f, -0.0219429992f, 0.238815695f, -0.177657887f, 0.00201740791f, -0.0342721604f, -0.0220114347f, 0.188651413f, 0.0193050951f, 0.208420172f, -0.0147280544f, -0.0831861347f, 0.0508045442f, 0.354724318f, 0.121115245f, -0.0574632883f, 0.214193165f, -0.186090782f, 0.0985709578f, 0.0888969377f, -0.0267104879f, -0.0242896657f, -0.0275242142f, 0.237012655f, -0.236563191f, 0.0805523023f, -0.103010558f, -0.159657836f, 0.00323965959f, 0.0563135967f, 0.0912083909f, -0.0213014726f, 0.121122815f, -0.0261259563f},
  {-0.0287113432f, 0.0759936124f, 0.095687367f, 0.0792017207f, -0.0414375588f, -0.0185561683f, -0.0641587302f, 0.157521904f, -0.077952072f, 0.153365165f, 0.0237134676f, -0.0313085131f, 0.0131904213f, 0.00836114679f, -0.11312753f, -0.161454529f, -0.162855536f, 0.129934296f, 0.00804074202f, 0.00471920753f, -0.112536229f, -0.0334834009f, -0.0745302811f, -0.230779961f, -0.143952504f, -0.00408444228f, 0.0945061147f, -0.216281548f, 0.00773150939f, 0.008919972f, -0.157133147f, 0.179351792f, -0.18450281f, 0.0339765623f, -0.114927344f, 0.0530260317f, 0.0120697794f, -0.185572356f, 0.103109904f, -0.235586837f, 0.0152024282f, -0.066543296f, -0.00727785472f, -0.0141390776f, -0.0685358942f, 0.0394233093f, -0.150072485f, 0.031904541f},
  {0.04133448f, 0.166565552f, 0.0124627389f, -0.0558640882f, 0.0581911318f, 0.0338186622f, -0.120722435f, -0.027469879f, 0.174783722f, -0.0253156926f, -0.0773789883f, 0.00856623799f, -0.0505693778f, -0.0509366207f, 0.0937513858f, 0.106402114f, 0.0145041058f, -0.0392122753f, -0.134987101f, 0.0240313392f, 0.0811523572f, -0.0167568587f, -0.10780932f, -0.0839217454f, -0.0697618946f, 0.143912688f, 0.232578874f, 0.00417528208f, -0.0916373059f, -0.0391388163f, 0.163207695f, 0.0162000768f, 0.0606069304f, -0.0742985085f, 0.042261783f, 0.0223225411f, -0.0368005335f, 0.00343339308f, -0.15479593f, -0.0419604629f, -0.0792578906f, 0.0507640764f, -0.00856008008f, 0.00753477309f, 0.09330111f, 0.0513830967f, -0.0445512086f, 0.0206106305f},
  {0.127201661f, 0.036081221f, -0.00253968942f, -0.147912651f, 0.355964988f, -0.197484702f, 0.123131759f, -0.00259925216f, -0.181107953f, -0.0526183434f, -0.0607503951f, -0.127649114f, -0.0366993062f, 0.0538328476f, 0.0126608731f, 0.0215591956f, 0.160158724f, -0.0664629266f, 0.0343942828f, 0.00598584954f, 0.0122913346f, 0.183708921f, 0.0904959813f, 0.0869636759f, -0.0342027918f, 0.0128870588f, 0.100711614f, -0.00160536659f, 0.123750314f, -0.0592534766f, 0.11896576f, -0.183459178f, -0.102020212f, -0.0527083874f, 0.0125876861f, 0.00127612322f, 0.0204388741f, -0.0128705073f, -0.126606494f, -0.0356864184f, -0.0330120958f, -0.0352125168f, -0.126010388f, 0.0343712196f, 0.0696161464f, -0.0206231046f, 0.0208139215f, -0.041710563f},
  {-0.101208478f, 0.0911736116f, -0.0258957241f, 0.0288351979f, 0.0285102855f, 0.0231064241f, 0.0266448092f, 0.0403518789f, 0.0638232827f, 0.0871496499f, 0.0109187225f, -0.0471376702f, -0.0488349199f, -0.0470175408f, -0.00548450463f, 0.0598635972f, -0.007528116f, -0.00172020192f, -0.10027387f, -0.0455481373f, 0.0446228348f, 0.0867123976f, 0.0157257505f, 0.0360963866f, -0.0244916528f, 0.123786822f, -0.0408120677f, -0.0752373934f, -0.0399376824f, 0.0295011457f, 0.0733649656f, -0.0386144854f, 0.0212366916f, -0.0376363024f, 0.0905146077f, 0.0466889776f, 0.010077606f, -0.0229473282f, -0.052556213f, 0.0672854036f, -0.0225978587f, 0.133029059f, -0.0451077409f, 0.0563496687f, 0.0973520577f, 0.107359357f, -0.0408166759f, 0.0107867001f},
  {0.0801470876f, 0.03151723f, -0.0430514775f, -0.098240599f, 0.105958752f, -0.091427587f, 0.0613586977f, -0.0588551685f, -0.0351970643f, -0.0118626719f, -0.0417864211f, -0.10397996f, 0.0406271406f, 0.0741638467f, 0.0775378719f, 0.0939465016f, 0.0943647474f, -0.0557812415f, -0.032188125f, -0.0651003793f, 0.0572803915f, 0.082735464f, 0.0203373712f, 0.0733013302f, 0.00715952972f, -0.0307944734f, 0.184216842f, 0.119135998f, 0.0438598432f, -0.0214145295f, 0.15861471f, -0.0610663369f, -0.0138849877f, -0.0509570315f, -0.0144262239f, -0.0313255414f, 0.00979190413f, -0.0305479188f, -0.0935637578f, 0.142051607f, -0.0283227265f, -0.0581545755f, -0.0717924312f, 0.0597101897f, 0.060517773f, 0.0386586301f, 0.0656041503f, -0.00810371432f},
  {0.14604497f, 0.120988287f, 0.0534336157f, -0.0947871506f, 0.226549745f, -0.0246311054f, 0.0490752347f, 0.0846399665f, -0.179534897f, 0.00695138983f, -0.14112927f, -0.0230578724f, 0.0209047198f, -0.0202702489f, -0.149340659f, -0.0835273489f, 0.0274397563f, 0.0471224971f, 0.101055101f, -0.0685315877f, -0.0509858839f, 0.264191866f, -0.014610149f, -0.0623694211f, -0.0647241622f, 0.104105234f, -0.0220713317f, -0.167170778f, 0.0934235752f, 0.00342611386f, 0.102457888f, -0.030102659f, -0.146725357f, -0.126753852f, 0.0142119648f, 0.0620511398f, 0.109173484f, -0.0116473446f, -0.0184908099f, -0.140175268f, -0.0278399494f, 0.339458197f, -0.04939631f, 0.0490143783f, 0.0552511252f, -0.0803212598f, -0.117131621f, -0.0588396676f},
  {-0.174269363f, -0.202568233f, -0.0851419568f, 0.125729308f, -0.271516263f, -0.0139726512f, 0.111065894f, 0.0653277636f, -0.0143629331f, -0.0603975542f, 0.245069772f, -0.0142950499f, 0.0278529171f, 9.63154598e-05f, 0.0589799173f, -0.0973440409f, 0.114709906f, -0.0770750642f, 0.0999367386f, -0.0258994028f, 0.0379899032f, -0.011211778f, 0.141738936f, 0.112824507f, 0.0606029369f, -0.00779026793f, -0.305352867f, -0.0808065012f, 0.0116740428f, 0.0416502729f, -0.211077809f, -0.197604418f, -0.0141299283f, 0.203805059f, 0.0328888446f, -0.00858373102f, 0.118262254f, 0.0737509578f, 0.0231970381f, 0.15208143f, 0.0916174501f, -0.0572518222f, 0.061069943f, -0.000138597505f, -0.0243541729f, 0.0265365131f, 0.0994818583f, -0.0528599694f},
  {0.128799543f, 0.106004931f, 0.00124864245f, -0.164663479f, 0.269140095f, -0.172313243f, 0.138438061f, -0.0395960547f, -0.0801785216f, -0.0442631915f, -0.245470494f, -0.120278835f, 0.0239595119f, 0.0388358831f, -0.063050501f, 0.0905769318f, 0.142913252f, -0.00464709057f, -0.00690560881f, -0.0685126111f, 0.105743721f, 0.22146517f, 0.0200600587f, 0.0385600924f, -0.0353108048f, -0.015391021f, 0.217275918f, 0.0557568148f, 0.0565139204f, -0.0733919591f, 0.257768124f, -0.184188217f, -0.0250947084f, -0.137700677f, -0.0163813774f, 0.0118054384f, 0.0135993697f, 0.0480828062f, -0.051726874f, -0.0405830033f, -0.129523486f, 0.14870581f, -0.0731894523f, 0.0247506816f, 0.164520681f, -0.0474901572f, 0.0290398672f, -0.0241109934f},
  {0.0555058196f, 0.0455697998f, 0.0525187515f, 0.102996022f, -0.16793412f, 0.136304647f, -0.197741181f, 0.0085681444f, 0.00598434778f, 0.0836714208f, 0.0560284257f, 0.128526405f, 0.0774666518f, 0.0140858637f, 0.0207361709f, -0.0663770661f, -0.102894053f, 0.0376159735f, -0.117069751f, 0.0533137843f, -0.134166539f, -0.239286095f, -0.18575938f, -0.177150756f, -0.0580458865f, -0.0615493171f, 0.213046685f, 0.0639030412f, -0.0332697742f, -0.00409844331f, -0.0419107042f, 0.125198066f, -0.0427294336f, 0.0618171692f, -0.131074056f, -0.0279284474f, -0.0979649797f, -0.078403838f, 0.0824058428f, -0.102814652f, 0.0434938371f, -0.338109493f, 0.10409461f, -0.05988786f, -0.165844366f, 0.00355956424f, -0.0288627986f, 0.0209931321f},
  {-0.165604666f, 0.06291271f, 0.010842788f, 0.0383577831f, -0.250022858f, 0.167219967f, -0.0663844496f, -0.136007994f, 0.229351476f, -0.119631492f, 0.0786123574f, 0.05001029f, 0.0226676241f, 0.0878272355f, 0.0645274147f, 0.194984168f, -0.140021622f, -0.0384232253f, -0.246767521f, 0.0843551382f, 0.140464485f, -0.250439286f, -0.0844387487f, 0.0635232106f, 0.0960062817f, -0.106066324f, 0.0939076319f, 0.215691596f, -0.183161616f, 0.0332255438f, -0.0427519567f, 0.12955232f, 0.236513272f, 0.0178148448f, 0.0450897478f, 0.0192454737f, -0.0215061419f, -0.00284104887f, -0.0157036856f, 0.24265191f, -0.0795846358f, -0.192731857f, 0.0475288406f, -0.094340764f, -0.0483951457f, 0.16454722f, 0.166198388f, 0.135479182f},
  {-0.00268033915f, 0.0242045783f, -0.0164393429f, -0.0669811815f, 0.0714207068f, -0.0228973292f, 0.0268635415f, 0.245148018f, -0.0602277666f, 0.0343418792f, -0.0279474445f, 0.009588168f, 0.0291747954f, -0.0380916297f, -0.128297821f, -0.163557291f, 0.139225528f, 0.0597459227f, 0.168448359f, -0.0791314915f, -0.0230359938f, 0.206689581f, 0.037996877f, 0.0043947571f, -0.0466544367f, 0.084887661f, -0.092005536f, -0.217352867f, 0.0155243259f, 0.0603689961f, -0.0156099917f, -0.0456414558f, -0.145878226f, -0.0671301857f, -0.0207416732f, -0.00134880457f, 0.0532946214f, 0.000563912268f, 0.0158190522f, -0.0318372585f, -0.0215021949f, 0.423036605f, -0.0353859589f, 0.0110244062f, 0.053107433f, 0.0156085212f, -0.0277918261f, -0.0292667989f},
  {-0.132935986f, 0.0184690431f, 0.00391189475f, 0.162928924f, -0.224242628f, 0.125762478f, -0.231233612f, 0.0862858519f, 0.0789448172f, 0.0217959322f, 0.042803105f, 0.0409455411f, 0.0358598493f, 0.0733570158f, -0.0485594496f, -0.15215221f, 0.0417541377f, 0.0292293988f, -0.0472909734f, -0.0271835905f, 0.0157491621f, -0.152202204f, -0.178860724f, -0.0478893891f, -0.0156949982f, -0.0836071521f, 0.103120357f, -0.0206133798f, -0.0296769291f, 0.143004447f, -0.0454720333f, 0.0932435021f, -0.112679198f, 0.077320233f, -0.141538575f, -0.00381184625f, -0.00527856126f, -0.0201241914f, -0.0427854471f, -0.0214438681f, -0.138029307f, 0.0426804721f, 0.135210603f, -0.0997195914f, -0.0911843404f, 0.0324532576f, 0.0676741898f, 0.0192879401f},
  {-0.08295203f, -0.106994331f, -0.0546148755f, 0.0995265916f, -0.309583455f, 0.0648323596f, -0.0817145929f, -0.036159236f, 0.00994929206f, -0.0252973288f, 0.131066367f, 0.0410897098f, 0.0390210226f, 0.00432083895f, 0.107064545f, -0.0474072061f, -0.0294224583f, -0.0110871177f, -0.0121779498f, -0.0334949829f, -0.0367167629f, -0.0955580622f, -0.00892749894f, 0.00490484945f, 0.0605734736f, -0.0481775366f, -0.11239472f, 0.0183699969f, -0.0226585642f, 0.0267611966f, -0.079615131f, 0.0352616757f, 0.0356566682f, 0.149274945f, -0.0896057859f, 0.00862323493f, -0.00138963293f, -0.00485240761f, 0.0378855839f, 0.0859412923f, 0.0577384681f, -0.11961142f, 0.0932911485f, -0.0400497466f, 0.00235509966f, 0.0303478446f, 0.0777624846f, 0.0340339318f},
  {-0.0759948716f, -0.045880802f, -0.0393240787f, 0.0749059096f, -0.0897125974f, 0.0204285476f, -0.0718029216f, 0.0418777987f, -0.0781703368f, -0.0290149041f, 0.100803815f, -0.0316340365f, 0.00605415879f, 0.060490068f, 0.017123336f, -0.0742908269f, 0.0086545134f, 0.0407527052f, 0.0894137546f, 0.0215808749f, -0.0442831069f, -0.046975866f, -0.0182067137f, 0.0107259285f, 0.0316931047f, -0.102914326f, -0.201401815f, -0.0147515899f, 0.019385213f, 0.074317947f, -0.143297449f, 0.0161376316f, -0.0575479046f, 0.116272815f, -0.0407021046f, 0.0190209765f, 0.0237352885f, -0.066540502f, 0.0395708382f, 0.0190731511f, 0.0273800716f, -0.0904282108f, 0.0526545756f, -0.0388159938f, -0.125306606f, 0.00541705126f, 0.0646459013f, 0.0272530001f},
  {-0.109771743f, 0.0883395299f, -0.0170485191f, 0.0954412222f, -0.370027721f, 0.234450519f, -0.0954517424f, -0.0454021618f, 0.285898715f, 0.0789101645f, -0.0261224173f, 0.107003212f, 0.0145464092f, -0.0535539761f, -0.0145539017f, 0.0835748613f, -0.18650946f, 0.0918809474f, -0.157508031f, 0.0484775901f, 0.123859972f, -0.164139822f, -0.106145181f, -0.149124354f, 0.0727232397f, -0.0372413807f, 0.131408587f, 0.0810483992f, -0.223299071f, 0.0545084029f, -0.0294044483f, 0.247608081f, 0.174390227f, 0.0150915887f, 0.0181247368f, 0.0302237291f, -0.0345295705f, -0.0540936477f, 0.037990272f, 0.065387316f, -0.0413299091f, -0.0513611734f, 0.0764017776f, -0.0542283729f, -0.0627599433f, 0.170925483f, -0.0131242331f, 0.0716005489f},
  {0.0838100091f, 0.160502687f, 0.0110656684f, 0.0808643624f, 0.234332204f, 0.103064202f, -0.293383211f, 0.151724309f, 0.100869477f, 0.00776205212f, 0.0314655192f, -0.000120453784f, -0.00374051533f, -0.0509542152f, -0.122163661f, -0.0219116826f, -0.143413633f, 0.076278083f, -0.0865948424f, 0.00534175383f, -0.00355834328f, 0.0358239487f, -0.154065147f, -0.0110305827f, -0.0379283875f, -0.0654635504f, -0.152551576f, -0.0506208912f, 0.0690927505f, 0.0761409998f, -0.0691352934f, 0.110323802f, -0.104904652f, -0.0817251801f, 0.175724953f, 0.0855462328f, -0.0589713193f, -0.232943535f, -0.093015112f, 0.0547219217f, -0.122568682f, 0.472655267f, -0.158468619f, -0.00871803705f, -0.0172266252f, -0.0476950407f, -0.0531752408f, 0.046734374f},
  {-0.0500719063f, -0.241253063f, -0.0884382203f, 0.0459991507f, -0.333104342f, -0.0626438707f, 0.138672397f, -0.0897270069f, 0.195074543f, -0.0162912589f, 0.0553774573f, -0.0810820758f, -0.048381649f, -0.0671206266f, 0.102842838f, 0.0628176257f, 0.212213039f, -0.100876495f, 0.145624906f, -0.0136696855f, 0.127033874f, -0.0540290363f, 0.0746895149f, 0.114836238f, 0.062393643f, -0.0726881325f, 0.0612187162f, -0.101184987f, -0.0685510039f, -0.0309506003f, 0.000183710785f, -0.168273017f, 0.0851900727f, 0.138758779f, -0.036229495f, -0.0340735354f, 0.021438675f, 0.104835533f, 0.0265403222f, -0.0260974895f, 0.0228269286f, -0.0208018105f, 0.164651826f, -0.016697228f, 0.0253942292f, 0.0233117733f, 0.159374014f, -0.0471994169f},
  {-0.074895151f, -0.00942229852f, -0.0515375696f, -0.000254056969f, 0.175838411f, -0.115773559f, 0.145072579f, 0.056409128f, -0.148264706f, 0.13006337f, 0.0435462408f, 0.00136650784f, -0.079687126f, 0.0017416043f, -0.0655423254f, -0.0610130318f, 0.0174326245f, -0.00443343958f, -0.00154706556f, -0.0374212973f, -0.0366519056f, 0.0496339798f, 0.138657078f, 0.100861385f, -0.0157882813f, 0.0352005139f, -0.24231267f, -0.00283768377f, 0.147236347f, 0.0140816849f, -0.0391409658f, -0.114344776f, -0.00405209791f, 0.0574965179f, 0.0597908087f, -0.0220492911f, -0.00514097698f, -0.0507495366f, 0.0369875282f, -0.0367700458f, -0.00916728005f, -0.000431372813f, -0.0538631156f, 0.0551938452f, -0.0276946034f, 0.00112741743f, -0.0274280086f, 0.0075123175f},
  {-0.0122239403f, 0.144817531f, 0.0441760905f, -0.0797438622f, 0.219476402f, 0.0655685514f, 0.00545578171f, 0.0217656456f, 0.0727719814f, -0.0407551676f, -0.111643188f, 0.00170753512f, -0.0897989348f, -0.0848709494f, -0.138044834f, 0.0701019689f, -0.104503445f, 0.0337787643f, -0.107197076f, 0.0648425892f, 0.0857716873f, 0.0189270247f, -0.0568513125f, 0.0110158175f, 0.0248148274f, 0.115133397f, -0.0728382096f, -0.0671049505f, -0.0525873117f, 0.00852257665f, 0.0160583314f, 0.0321110487f, 0.0818738565f, -0.185174793f, 0.163177639f, 0.0292362925f, 0.0217844266f, 0.00442781253f, -0.0356017351f, -0.0328650251f, -0.0894047096f, 0.380093306f, -0.0986788571f, -0.0439685471f, 0.0644554272f, 0.0288334992f, -0.102966584f, 0.0527470931f},
  {0.0880109891f, 0.0694703534f, 0.0792997852f, -0.10022781f, 0.170151427f, -0.0837003812f, 0.0376512259f, -0.0326690227f, -0.0442331955f, 0.0505490527f, -0.0424240381f, 0.0581823178f, -0.0370377898f, -0.0149361044f, -0.00382793508f, -0.0167622622f, -0.0221914351f, -0.00579210976f, -0.0656972751f, -0.031675797f, -0.0637753531f, -0.00774079468f, 0.0174848512f, 0.0197465606f, -0.0587791428f, 0.0935522765f, 0.0779767111f, 0.0565042794f, 0.104872487f, -0.0735635385f, 0.111849315f, -0.0167416576f, -0.018033836f, -0.0203567911f, -0.0105970548f, -0.00945855957f, -0.00534958625f, 0.0162778534f, -0.0581429005f, -0.0239422992f, -0.0251393393f, -0.0640146807f, -0.0194829758f, 0.0322384574f, 0.015452466f, -0.0630351156f, -0.0488946028f, -0.016807124f},
  {-0.0624158867f, 0.140771404f, 0.0373046547f, -0.0598315597f, 0.17256999f, 0.0548960045f, 0.00190440821f, 0.0323459581f, 0.0081656659f, 0.0222528558f, -0.0429079235f, 0.10321451f, -0.0451155342f, -0.125129476f, -0.0794778764f, -0.036705479f, -0.141509131f, 0.0670194253f, -0.0421630442f, 0.0415986814f, -0.110643066f, 0.101058528f, 0.036617022f, 0.0284735318f, -0.0160427112f, 0.184415027f, -0.179638252f, -0.063061364f, 0.0145572359f, 0.00307565602f, -0.00505786575f, 0.0374090597f, 0.011363023f, -0.0907473415f, 0.0807193369f, -0.00172661222f, -0.00620783307f, 0.0284920633f, 0.0159220845f, -0.016659094f, -0.0368651822f, 0.197718516f, -0.0626484379f, -0.0267022792f, 0.0271244701f, 0.00146817393f, -0.143979937f, 0.0266024768f},
  {0.0678007379f, -0.0457512513f, -0.0771414936f, -0.0942110047f, 0.0740671903f, -0.10111282f, 0.183562234f, -0.000812796585f, -0.0511527583f, -0.0723185167f, -0.164212704f, -0.0985769778f, 0.00248366012f, 0.0559966378f, -0.102681406f, 0.0595665015f, 0.182024494f, -0.0462318435f, 0.0604165718f, -0.0979824588f, 0.126925364f, 0.210766569f, 0.0655752942f, 0.096629113f, 0.0631752461f, -0.0355365425f, 0.0500068925f, 0.0201245658f, 0.00624271529f, 0.0331004038f, 0.171914399f, -0.176027924f, 0.00945928227f, -0.125267506f, -0.0186333768f, 0.0228202809f, 0.0171291996f, 0.050967291f, -0.00821359921f, 0.0833780169f, -0.133876204f, 0.296693295f, -0.0440975316f, 0.0383403376f, 0.118654504f, 0.019974988f, 0.046300292f, -0.0706577897f},
