#pragma once

#define BABYMAMBA_VARIANT_CROSSOVER 0
#define BABYMAMBA_VARIANT_CHANNEL_INDEPENDENT 1
#define BABYMAMBA_DATASET_NAME "wisdm"
#define BABYMAMBA_DISPLAY_NAME "WISDM"
#define BABYMAMBA_SEED 29
#define BABYMAMBA_SEQ_LEN 128
#define BABYMAMBA_IN_CHANNELS 3
#define BABYMAMBA_NUM_CLASSES 6
#define BABYMAMBA_D_MODEL 24
#define BABYMAMBA_D_STATE 16
#define BABYMAMBA_D_INNER 48
#define BABYMAMBA_DT_RANK 2
#define BABYMAMBA_D_CONV 4
#define BABYMAMBA_NUM_LAYERS 4
#define BABYMAMBA_STEM_KERNEL 5
#define BABYMAMBA_PATCH_KERNEL 16
#define BABYMAMBA_PATCH_STRIDE 4
#define BABYMAMBA_PATCH_OUT_LEN 31
#define BABYMAMBA_SCAN_IMPL_FALLBACK 1
#define BABYMAMBA_FIXTURE_LABEL 1

static const char* const kBabyMambaClassNames[BABYMAMBA_NUM_CLASSES] = {"Walking", "Jogging", "Upstairs", "Downstairs", "Sitting", "Standing"};

static const float kStemWeight[24][1][5] = {
  {
    {-0.497670501f, -0.198713422f, -0.539254725f, 0.641162097f, 0.287485123f},
  },
  {
    {0.220494837f, 0.0658124462f, -0.548944473f, -0.279110163f, 0.8399266f},
  },
  {
    {-1.00148094f, 0.0705740601f, 0.761990368f, -0.28352049f, 0.346456885f},
  },
  {
    {0.126167193f, 0.237428129f, -1.06960857f, -0.155492112f, 0.443102539f},
  },
  {
    {-0.317789048f, -0.101469234f, 0.0265979003f, 0.952465415f, -0.51245755f},
  },
  {
    {0.132198468f, 0.364747286f, 0.264603764f, 0.260534197f, 0.0327968784f},
  },
  {
    {0.283309013f, 0.117275536f, 0.608443797f, 0.0692386106f, 0.19043915f},
  },
  {
    {0.02368089f, -0.61858511f, 0.412386268f, 0.96107626f, -0.960323036f},
  },
  {
    {-0.128496036f, -0.251535922f, 0.0410606712f, -0.0872428939f, -0.817294359f},
  },
  {
    {-0.498503059f, -0.574619293f, 0.0618986934f, 0.0060862652f, 0.447465152f},
  },
  {
    {0.569802403f, 0.000931359711f, -0.21964407f, -0.208203867f, -0.812743247f},
  },
  {
    {0.499877781f, 0.0415050834f, -0.902438521f, 0.0737230852f, -0.317736208f},
  },
  {
    {0.789212346f, 0.154711396f, -0.632163882f, 0.630723298f, -0.652974725f},
  },
  {
    {0.182380289f, 0.544693828f, 0.180542797f, -1.00398314f, 0.251431912f},
  },
  {
    {0.0781328753f, -0.537079751f, 0.029787546f, -0.19524464f, 0.900878906f},
  },
  {
    {0.290122896f, 0.511765063f, 0.219983414f, -0.0782711431f, -0.0326629728f},
  },
  {
    {0.31546253f, 0.279374272f, 0.125944734f, 0.154995576f, 0.194304198f},
  },
  {
    {0.194237843f, -0.0578350052f, 0.933732927f, -0.266093284f, -0.243605718f},
  },
  {
    {-0.263494939f, 0.35801053f, 0.708949804f, -0.619250953f, -0.643762112f},
  },
  {
    {-0.341065198f, -0.693244338f, 0.00304523134f, -0.0996179655f, 0.209579602f},
  },
  {
    {-0.133751273f, 0.444890976f, 0.509994447f, -0.992158711f, 0.182898745f},
  },
  {
    {0.154207975f, -0.391066343f, 0.028237557f, 0.443406969f, 0.520385444f},
  },
  {
    {-0.352776408f, -0.270237654f, -0.275143415f, -0.369983703f, 0.776068807f},
  },
  {
    {0.104192019f, 0.199057937f, 0.369453758f, 0.249423593f, 0.0457060896f},
  },
};

static const float kStemBias[24] = {0.150365815f, 0.0524539873f, 0.219927952f, -0.0229708496f, 0.0190913808f, -0.20126982f, -0.0359969363f, -0.216637254f, 0.29194954f, 0.145764723f, 0.179518133f, -0.0783606395f, -0.252338648f, 0.102688879f, -0.142153293f, -0.0884192288f, 0.0673408732f, -0.113170013f, 0.188252911f, 0.0262978282f, -0.0790255368f, 0.0766831264f, 0.106781028f, -0.0293414127f};

static const float kPatchDepthwise[24][16] = {
  {-0.182661623f, 0.0383662134f, 0.107406832f, 0.150981292f, 0.122669525f, 0.1114498f, -0.097436823f, -0.0580671206f, -0.0337838531f, -0.000383727893f, 0.0750222132f, 0.15013741f, 0.167008892f, -0.0534894541f, -0.0957845896f, -0.196505219f},
  {0.0853829831f, 0.0237016492f, -0.126556486f, -0.202830732f, 0.0548968464f, -0.0222364645f, 0.0885056406f, -0.0582767799f, 0.00866670348f, -0.000303819543f, 0.0674190149f, 0.013844762f, -0.111887507f, -0.0200315211f, -0.0280375872f, 0.19418633f},
  {-0.187740028f, 0.214359388f, 0.0799309462f, 0.142721057f, -0.00534861255f, -0.192644283f, 0.147592425f, 0.0509796664f, -0.0435327441f, -0.0280308928f, 0.00337549997f, -0.168560296f, 0.165166005f, -0.0250344481f, -0.124711573f, -0.109993488f},
  {0.137760863f, -0.164755344f, -0.141609594f, -0.134438649f, -0.121041261f, 0.0327178501f, 0.109321132f, 0.057975769f, 0.0566206835f, -0.0255333986f, -0.117562488f, -0.0718116388f, 0.0125790089f, 0.127077103f, 0.120328307f, -0.0280213449f},
  {0.0729299486f, 0.0143547617f, 0.0593107827f, -0.15129827f, -0.0961726308f, 0.0234060939f, -0.00315003912f, 0.0732375309f, 0.00545262033f, -0.0558575131f, -0.0505278707f, -0.0114815757f, 0.189030379f, 0.0446712002f, -0.0370185673f, -0.136033416f},
  {0.0625269562f, 0.107903719f, -0.0273457225f, -0.0307942741f, -0.0425366685f, 0.0945373029f, -0.0272082705f, 0.139258757f, 0.0250139963f, 0.0540293641f, -0.122376218f, -0.0454178043f, 0.00615987647f, -0.00176470936f, 0.233588547f, 0.0501626544f},
  {0.0448550954f, 0.141101122f, 0.0288458616f, 0.0982396752f, 0.13062875f, 0.129826218f, 0.0606270656f, 0.059533976f, 0.0169988759f, -0.058394935f, -0.0439521521f, -0.200007051f, -0.153676614f, -0.0998512506f, -0.174372435f, -0.107887961f},
  {0.0850244313f, -0.0500914976f, -0.0495559387f, -0.0389385521f, -0.0498608872f, -0.00987742655f, -0.0858375281f, -0.0435960516f, -0.0452384129f, 0.108923607f, 0.175383583f, 0.0475772321f, -0.0367697552f, -0.28540495f, -0.175874397f, -0.15658094f},
  {0.164758176f, 0.201741621f, 0.155191794f, 0.130231231f, 0.0765512362f, 0.0669303685f, 0.0975927785f, -0.0317518823f, -0.0915971622f, -0.10698247f, -0.226603732f, -0.0374452621f, 0.0248193815f, -0.103669412f, -0.0789679214f, -0.162276432f},
  {0.00625381479f, -0.0420352519f, 0.107820466f, 0.00950958394f, -0.0608238056f, 0.112235576f, 0.147456422f, 0.224377841f, 0.140111089f, 0.174416915f, -0.134816006f, -0.0766927302f, -0.0475046039f, 0.0428893603f, -0.00836778432f, -0.190086916f},
  {-0.263834953f, -0.0820384622f, -0.0416366607f, -0.0285014659f, -0.0440830328f, -0.030174939f, 0.0589393228f, -0.106341191f, 0.261285871f, 0.183171868f, -0.0144176492f, 0.0308162998f, -0.0305984113f, -0.0243992209f, 0.0142387087f, 0.0189647358f},
  {0.125691712f, -0.100068562f, -0.06836164f, -0.162740141f, 0.0415298156f, 0.0145702055f, 0.129923806f, 0.179818586f, -0.0338996574f, -0.0540287159f, 0.0697389171f, -0.0670803487f, -0.104651175f, -0.187855169f, -0.114518933f, -0.0131452978f},
  {0.0293525551f, 0.00837424584f, 0.0189311858f, 0.140636459f, 0.0546472482f, 0.118327886f, -0.0252573062f, -0.0484997295f, 0.128415048f, 0.0620506182f, 0.115565106f, 0.131933972f, 0.0841199756f, -0.0135710584f, -0.1673453f, -0.202609643f},
  {0.0218177326f, -0.0854653493f, -0.0344146341f, 0.117536291f, 0.0178140178f, 0.0901382789f, 0.124965288f, -0.210116997f, 0.0783143193f, -0.0089903539f, 0.186167523f, 0.0651233718f, -0.0840608329f, -0.0412887707f, -0.178790838f, -0.140316799f},
  {0.0373202115f, -0.0997980088f, -0.0107459975f, -0.0278887916f, 0.0418332666f, 0.123106785f, 0.00822404958f, 0.0642601475f, 0.0566969626f, 0.049741108f, -0.0274476558f, -0.0776280239f, -0.148687497f, -0.243592039f, -0.0934571624f, -0.115300126f},
  {-0.242225602f, -0.158431634f, -0.0341114588f, -0.077249974f, -0.0162529629f, 0.042801097f, 0.0731690675f, 0.126374856f, 0.0380017124f, 0.0775466487f, 0.103735678f, 0.0282787327f, -0.0138237821f, 0.0202325583f, 0.160597637f, 0.0206985995f},
  {-0.106832393f, -0.0854168609f, -0.0936833099f, -0.128742859f, -0.16434963f, -0.0562994778f, -0.0645887181f, -0.174941957f, 0.0255663786f, 0.0250948854f, -0.00424954668f, 0.0483753048f, -0.0129882898f, 0.0483809412f, 0.069965899f, 0.0446882099f},
  {-0.155367211f, -0.134603903f, 0.0883316845f, -0.025553083f, 0.0597865544f, -0.0344420411f, -0.00116609689f, 0.0305890162f, -0.154490188f, -0.0349487551f, -0.056681864f, -0.00444021262f, -0.0570288859f, 0.163541317f, 0.0701520815f, 0.0387389772f},
  {-0.0673059225f, 0.119255267f, 0.202864707f, 0.173261508f, 0.136206388f, 0.102358505f, -0.0610768497f, -0.0185580384f, 0.00801294763f, -0.157441616f, -0.204141378f, -0.086865969f, 0.0754233003f, 0.05432982f, -0.0910159722f, 0.0042338362f},
  {0.201817423f, 0.116701543f, 0.0981811732f, 0.00928243063f, -0.152277842f, -0.0898166969f, -0.130765229f, 0.123371698f, 0.0288570952f, 0.0264054779f, 9.59621248e-05f, -0.0114216227f, -0.0741112754f, -0.0541258305f, -0.0172564946f, -0.1498923f},
  {0.0271647219f, 0.157041997f, 0.0416673645f, 0.0288145617f, 0.0965742469f, -0.0490376465f, -0.00792362541f, 0.0920512304f, -0.148396924f, -0.0995188728f, -0.0594543852f, 0.102912799f, -0.0787252486f, 0.0303408001f, 0.0790828988f, -0.0721926689f},
  {0.109942034f, -0.0877466798f, 0.0187768172f, -0.0093049258f, -0.0734241605f, 0.0559516959f, 0.00952157378f, 0.00681707822f, -0.0637795776f, -0.204439446f, -0.194145128f, 0.0625680014f, 0.0337592438f, 0.0863524601f, 0.160093889f, 0.00339816813f},
  {0.16614978f, -0.103943147f, -0.122775815f, -0.0129734976f, 0.0772343725f, 0.221679106f, -0.0177568719f, 0.00750289625f, 0.161762461f, 0.107125506f, 0.111486353f, -0.0380533785f, -0.135506064f, -0.0689120516f, -0.00926166028f, 0.133698151f},
  {0.144348338f, -0.0107470835f, -0.0354184806f, 0.014807974f, -0.101075985f, -0.193513185f, -0.13346079f, -0.185886949f, -0.00961007737f, 0.0164257288f, 0.146854252f, 0.125490725f, 0.0193252694f, 0.105510637f, -0.00976228062f, -0.00376591762f},
};

static const float kPatchPointwise[24][24] = {
  {-0.87103802f, -0.459556043f, 0.365026712f, 0.951382637f, -0.086238943f, 1.16042387f, -1.67643023f, 0.539980054f, 0.711018443f, 0.295140207f, -0.448383987f, 0.481164932f, -0.0885589421f, 0.283444107f, -0.170198247f, 0.645913124f, 1.1002084f, 0.539810479f, -0.335962176f, 1.19634652f, -0.347370118f, 0.138853446f, 0.289263874f, -0.00158736063f},
  {-1.19143629f, -1.21122706f, 0.00176055019f, 0.84270823f, 0.563687325f, 0.942815006f, 1.38199198f, -0.15221931f, 0.270292997f, -0.122061677f, 0.0688502714f, 1.46596885f, -0.157347783f, -0.187659502f, 0.0477195792f, 0.0624406412f, 0.759173691f, 0.388934255f, 1.22307384f, 1.25704443f, 1.15680885f, 0.802312016f, 0.39324528f, -0.156094462f},
  {0.515894413f, -0.634209514f, -0.164348796f, 0.117938161f, -0.0988507122f, 0.0702497587f, 0.532737494f, -0.324788183f, -1.06508732f, -0.576735914f, -0.0441988222f, 0.0637683123f, -1.03783798f, -0.302203327f, 0.421281993f, -0.196410224f, -0.774171352f, -0.0241822787f, -0.7599805f, 0.0689786077f, -0.0421429724f, -0.395461321f, -0.51000458f, -0.04671387f},
  {-0.833723426f, 0.646647096f, -0.551583827f, -0.203271657f, -1.28809428f, 0.611583769f, -0.482593238f, 0.286565065f, -0.0509502888f, 0.398412913f, -0.550427496f, 0.312667876f, -0.0857107192f, 1.11846113f, 1.42024064f, 0.464175463f, 0.69495523f, 0.561434448f, -0.585658193f, -0.355375141f, -0.319245309f, -0.625610471f, 0.347960234f, 0.493182272f},
  {2.11385107f, -0.0279355887f, -0.0358815342f, -1.08231807f, -1.18416095f, 0.143149823f, -0.468170792f, -0.0212276354f, -0.578184545f, 1.01725185f, 0.197956815f, 1.08589506f, 1.5720588f, 0.38582769f, 0.329746544f, -1.72927415f, -0.910752535f, -0.543121517f, 0.00389115559f, 1.09811282f, 0.145799905f, 0.40884167f, 0.140570819f, 0.814224839f},
  {-1.06682432f, -0.0679143295f, -0.895529091f, -0.0371156819f, 0.101042345f, -0.0715357736f, -0.305932969f, -0.621120512f, 1.10821426f, -0.362911284f, -0.0194580872f, -0.578767717f, 0.551471412f, 0.040477369f, -0.0277670883f, -0.116991751f, -0.528702199f, -0.090447031f, -0.201958299f, -0.226236925f, 0.0547067225f, 0.167584434f, 1.36458564f, 0.220682487f},
  {-1.04034173f, 0.371197373f, 1.85080612f, -1.04174721f, 0.186937585f, 0.422418416f, -0.187252223f, -0.12607725f, -0.233858079f, -0.336856693f, 0.710300803f, -0.130802274f, 1.02284896f, 0.0125324931f, -0.250889719f, 0.168331772f, 0.222974673f, -0.101036608f, 0.669759214f, -0.453962594f, 0.522630572f, 0.345227808f, 1.13451767f, 0.598285973f},
  {0.823245883f, -0.383797884f, -0.265429735f, -1.9377712f, 0.567266464f, 1.99133515f, 1.30915046f, 1.63392687f, -0.208653793f, 1.01557803f, -0.866488397f, -0.10342703f, 0.658999503f, 1.06670189f, 0.401052326f, 0.579531312f, 1.24677956f, -0.982220411f, 0.859229267f, 1.41105258f, -0.0760658383f, 0.388339281f, 2.9168129f, -2.0821557f},
  {-0.233356223f, -0.491390556f, 0.524730146f, -0.176351145f, -1.7866143f, -0.829463959f, -0.469142824f, -0.377830207f, 1.96132028f, 0.262318879f, 0.859597862f, 0.11059837f, -0.697694302f, -0.00420487067f, -0.482256919f, -0.263546824f, 1.8256005f, 0.490591615f, 0.164946616f, 0.151964128f, -0.560166299f, 0.579202294f, 0.92778933f, -0.0988311991f},
  {1.23195302f, 0.343786538f, -0.208209872f, 0.0191216022f, 0.446000159f, -0.351462662f, 0.479261577f, -0.556324244f, -1.25661802f, -0.41244933f, -1.09450281f, -1.27385175f, 0.392540634f, -0.517882407f, 0.0956029966f, -1.24465775f, 1.35463166f, 0.557824492f, -0.702047169f, -0.499348313f, 0.219957694f, 0.3521052f, -0.65212971f, 0.560826123f},
  {-0.414394259f, -0.164203748f, -0.195191056f, -0.107399091f, -1.15971565f, -1.18874931f, 0.0278496016f, -1.03976107f, -0.285527736f, -0.266705126f, -0.976141036f, -1.92824042f, 0.977929533f, -1.73692751f, -0.066193603f, 1.16259289f, -0.256990045f, 0.934167147f, -0.223929465f, -0.750107408f, 0.219507992f, -0.77830267f, 0.86459595f, 1.12977374f},
  {0.940941036f, 0.613019407f, 1.07688284f, -1.27224803f, 1.4997375f, -0.0520413741f, 0.0539803915f, -0.0812396556f, 0.667137742f, 0.051072605f, -0.37625128f, 0.482088059f, -0.797233105f, -0.541760683f, -0.820058465f, -0.717923045f, -0.224901378f, 0.0565700792f, 0.139937133f, -0.000110770015f, -0.720723033f, 0.343704522f, 1.31560326f, 0.329163641f},
  {-0.0612547956f, -1.10401261f, -0.540043116f, -0.946495295f, 0.123217754f, 0.723590791f, 0.390153527f, -0.0132922297f, 0.621682227f, 0.0332585387f, -0.203222662f, -0.949165046f, 0.616439998f, 0.450475067f, 0.343537629f, -0.205813944f, 0.380298078f, -0.644373298f, -0.119465314f, -0.204740539f, -0.417071849f, 1.71069479f, -0.413716763f, -0.607650638f},
  {-1.87818754f, 0.634303212f, -1.00011337f, 0.287052155f, 0.211072609f, -0.930524886f, -0.0704761371f, -1.8352915f, -0.145811424f, -2.04073596f, -0.494971544f, 1.57408082f, -0.215233281f, -0.335408628f, -2.37852812f, -0.199415207f, 0.669062495f, -0.754863083f, -0.198889747f, 0.271933734f, -1.13656807f, -0.694473743f, 1.72204602f, -0.768112421f},
  {-0.581195772f, -0.653878868f, -0.378649235f, 0.297173589f, -0.054444842f, 0.931715608f, 0.387566149f, -0.205539539f, 0.0805579349f, -0.939109683f, -0.198504388f, -0.0690665171f, 0.030637823f, -0.902851343f, 0.353923619f, 0.227729008f, -0.935100317f, -0.165698022f, -0.606544256f, 0.41151616f, 0.189600348f, -0.36390996f, 0.267774135f, -1.25845075f},
  {-1.03603137f, 0.233486533f, 1.03821826f, -0.199932277f, -0.693721116f, -0.270711511f, 0.344619364f, 0.0768803656f, -1.24507511f, 0.676337242f, -0.475569606f, 0.206381842f, 1.28534412f, 0.0870246217f, 0.314061373f, 0.282729805f, 0.199636593f, -0.733363628f, -1.48754549f, -0.293507338f, -0.0645062178f, 0.105352022f, -0.104136862f, 0.088698037f},
  {-0.00476841489f, 0.667467117f, 0.179753497f, -0.602121055f, 0.0151458932f, -0.826101422f, -1.20687723f, 0.678163826f, 0.767847836f, -0.497065544f, -0.271010309f, -0.211122051f, -0.657684207f, -0.66788584f, 0.987188458f, 0.540496051f, 0.385101616f, -0.45106113f, -0.0105342008f, -0.723928154f, -0.134338304f, -0.67291981f, -0.0335541368f, -0.0443637706f},
  {0.784760416f, 1.06680834f, 0.405446768f, -1.5687604f, 0.58085227f, -0.280562401f, 0.497456372f, -0.447179854f, 0.220137224f, 0.266735196f, 0.706385493f, 0.633357286f, -0.616035879f, -1.02266753f, -0.0541878529f, -0.121222258f, -0.303045779f, 0.0205211677f, -0.506102026f, 0.095890969f, 0.524843931f, 0.11464943f, -0.0713027194f, -0.332113147f},
  {-0.152991146f, 0.516832352f, 1.31959593f, 0.198294908f, -0.602160513f, -0.892651796f, 0.043341618f, 0.347084254f, 1.1746757f, 0.180782512f, -1.79774737f, 0.400100887f, 0.0378390886f, 0.220818967f, -0.0562887676f, 0.285026193f, -0.714186907f, 1.84382629f, 0.317573577f, 0.858241737f, -0.505420268f, 1.00026131f, -0.268505305f, -0.706663072f},
  {0.556588352f, -0.783249497f, 0.098048158f, -0.821279049f, 0.353518963f, -0.565948427f, -0.423226893f, -1.23933923f, -0.336659461f, 0.885375381f, -1.77670324f, -0.289127082f, -0.440604478f, -0.570364416f, -1.00817895f, 1.26593304f, 0.813263714f, 0.488908261f, 1.0022223f, -0.554836154f, 1.03391802f, -0.390873879f, 0.853313684f, 0.351432979f},
  {-0.878677964f, -0.0439157747f, 0.678640723f, -0.998207808f, 0.957705498f, 0.353162766f, 0.095611155f, 1.20897686f, -0.786197126f, -0.745514274f, 0.289441556f, -0.521317959f, -0.109434344f, -0.411633432f, 0.841935813f, -0.779595137f, 1.10989475f, 0.52864778f, -0.187763005f, -1.85984397f, -0.0569186732f, -0.862958014f, 0.200070515f, 0.0601503514f},
  {-0.0581333824f, -0.523709834f, 0.00122939423f, -0.214020118f, -0.136886835f, 0.35907656f, -0.577661872f, 0.411189497f, -0.600645304f, -0.709912181f, 0.792456627f, 0.0477403738f, 0.391850412f, 0.177309066f, -0.31983602f, 1.02392101f, 0.152961478f, 0.32517764f, -0.226408616f, 1.07210541f, -1.08603537f, 0.030843731f, -1.46531212f, -0.0759480447f},
  {-1.15655077f, 0.186575949f, 0.115015417f, 0.415274441f, 1.14799261f, 0.1357878f, -0.0353966914f, -0.62910372f, -1.42580521f, 1.07224941f, -0.363842338f, 0.698919177f, -0.0879255384f, -0.216836959f, 1.30570388f, -0.318307698f, 0.469512969f, 0.517450213f, 0.0260950997f, 0.760527074f, -0.260038286f, 0.343342096f, 0.513739884f, 0.278905511f},
  {-0.739329875f, 0.280753702f, -0.216845244f, -0.279288381f, -0.459815413f, -0.688404024f, 1.53593278f, -1.48523855f, -0.528049409f, -0.207408652f, 0.883464217f, -1.29020524f, -0.270895958f, 1.08574307f, -0.42658788f, 0.940374315f, -0.466742933f, 0.223517254f, 0.932991087f, -0.689292669f, -0.670521975f, -0.291713893f, 0.00217783172f, -0.640586555f},
};

static const float kPatchBias[24] = {0.0908023342f, 0.104419418f, 0.0786057115f, 0.0820134655f, -0.259578258f, -0.178219974f, -0.0492466502f, -0.396126509f, 0.0287784301f, 0.227351457f, -0.241033912f, -0.20130232f, -0.00680088997f, 0.129758984f, -0.109862156f, 0.178046197f, 0.10381671f, 0.00705670193f, -0.0836845264f, -0.370678127f, 0.303157777f, 0.297216713f, 0.063145116f, -0.092358619f};

static const float kPosEmbed[1][31][24] = {
  {
    {-0.172906145f, 0.00738901878f, -0.0143076926f, -0.0422777571f, -0.0456687324f, 0.0369776748f, 0.173532188f, 0.0926010609f, -0.337488115f, -0.0458512269f, -0.0837355927f, 0.0516624786f, -0.16959922f, 0.0145624997f, 0.101341926f, 0.0589658432f, -0.169705391f, 0.233444855f, 0.107837491f, 0.118817657f, -0.123440064f, -0.112035729f, -0.00926683843f, 0.196938396f},
    {-0.0268332344f, -0.0708498657f, -0.0257028211f, 0.00690479018f, 0.100256898f, 0.0928357765f, 0.0121658696f, 0.060156405f, -0.0494003408f, 0.048724696f, 0.0537482314f, -0.00435548695f, -0.00965683069f, -0.0325653329f, 0.0416903384f, -0.00845716242f, -0.0415042713f, -0.0474889167f, 0.112092614f, -0.00658473792f, -0.0305097513f, -0.0919354036f, 0.00420725625f, -0.000541688234f},
    {-0.0471010581f, -0.0696567819f, -0.0383019187f, 0.0533087626f, 0.00786447525f, 0.0410186909f, -0.00707843807f, 0.0221229047f, -0.107673571f, 0.0143659357f, -0.0221222844f, -0.0243100226f, 0.0138178235f, 0.0546616986f, 0.0379628502f, 0.103493787f, 0.081275411f, 0.0381704047f, -0.0109146703f, 0.00686170114f, -0.0214465093f, -0.092835702f, 0.0154935131f, 0.0588182546f},
    {-0.00885708816f, -0.0177640468f, 0.0148273129f, 0.00683826534f, 0.00684589427f, 0.0135270637f, -0.0320983641f, 0.0575496592f, -0.134527162f, 0.0961102322f, 0.0226529147f, -0.0628221333f, 0.0889965221f, -0.0232911464f, 0.0075863041f, 0.0699032843f, 0.0686539486f, -0.0306149069f, -0.0990912989f, 0.0362194255f, -0.0407770015f, -0.00197440106f, -0.064026922f, 0.00301463273f},
    {-0.0085733477f, 0.0175974388f, -0.0378018394f, -0.090836376f, 0.127103671f, -0.00228520087f, 0.0403658599f, -0.0162594672f, -0.0902124867f, 0.120953202f, 0.000405933562f, -0.0437379256f, 0.116834298f, 0.0162850972f, -0.0423246957f, 0.024920756f, 0.0823850781f, 0.0323194228f, -0.0689916536f, -0.0630589873f, -0.0130664539f, 0.0226780418f, -0.0254893042f, -0.0418442786f},
    {-0.0220861901f, 0.01138914f, -0.0707528591f, -0.0864558443f, 0.0638640597f, 0.0346415006f, 0.0349442661f, -0.0397492386f, -0.0315783508f, 0.0506291352f, 0.0194866378f, -0.00589652872f, 0.0157655291f, 0.0583436824f, -0.0527964719f, -0.0780828521f, 0.0340956859f, 0.0549775511f, 0.0305634458f, -0.0466709472f, 0.0163883306f, -0.0215654969f, -0.0171020888f, 0.0455555432f},
    {-0.0375384577f, -0.0724991709f, -0.0581615232f, -0.0181071665f, -0.0384103321f, 0.0852010325f, 0.0289798491f, -0.00246240594f, -0.0377059579f, -0.00331379496f, 0.0382744782f, 0.0386513546f, -0.0130520882f, -0.00129646168f, 0.0191401578f, -0.00188387686f, -0.0146864541f, 0.0427942276f, -0.00822611433f, -0.0356788896f, 0.00847926084f, -0.0111698005f, -0.0736884475f, 0.0868359655f},
    {-0.0135367978f, -0.14720653f, -0.020517908f, 0.008236208f, 0.00147918484f, 0.0152435703f, 0.029050298f, -0.0179995298f, -0.0117716035f, 0.00923248753f, 0.0261998028f, 0.104932047f, -0.0372905731f, -0.0345839374f, 0.044478748f, 0.0534589589f, 0.0109617403f, -0.00524219871f, -0.0314691663f, -0.0822990909f, 0.0531416424f, 0.0377571471f, -0.0475690812f, 0.0387244746f},
    {0.000155047717f, -0.100460626f, 0.0210447963f, -0.0308129098f, 0.0727884993f, -0.0218771864f, -0.00812162459f, -0.0585850254f, 0.0164845679f, 0.0261831917f, 0.0320980549f, 0.071465008f, -0.0161791593f, 0.0404089615f, 0.0207878929f, 0.0188618898f, -0.0217628088f, -0.0318772271f, -0.0115287229f, -0.0802150443f, 0.0194572378f, 0.0394129753f, -0.0195938256f, 0.0184212532f},
    {-0.0433314443f, -0.034119945f, 0.0443164855f, -0.0560843125f, 0.0681169704f, 0.0129999248f, -0.0449454226f, -0.0554233491f, -0.0107326061f, -0.00455319695f, 0.0636682361f, -0.00621612044f, 0.00855095778f, 0.0919459686f, 0.033681348f, 0.00354379229f, -0.0725732222f, 0.0114339925f, 0.0348429345f, -0.0587962829f, -0.0533394255f, -0.00102289312f, -0.0578680709f, 0.0469395556f},
    {-0.0539757535f, -0.0273512565f, 0.0134350862f, -0.064246662f, 0.0272745248f, 0.000271716184f, -0.02665543f, -0.016480539f, -0.013893324f, -0.0246474147f, 0.0749377906f, 0.0448567607f, -0.0617499202f, 0.0224971473f, 0.071775876f, -0.0198319145f, -0.012628098f, 0.0692147315f, 0.117634244f, -0.0672381893f, -0.0150545677f, -0.00451563159f, -0.0893075541f, 0.0678532198f},
    {0.0201177225f, 0.0547544286f, -0.0417015813f, -0.118848406f, -0.0104140462f, 0.0356524475f, -0.00460978551f, 0.00965124369f, 0.0163267981f, 0.0158334188f, 0.0505546406f, 0.0821522698f, -0.00699769519f, -0.0445404872f, 0.0830469429f, -0.00863936916f, 0.00650380319f, 0.088242203f, 0.0468461961f, 0.0024767092f, -0.0520955771f, 0.0397884883f, -0.129483879f, 0.0321534872f},
    {0.0562135614f, 0.107880101f, 0.00666885218f, -0.0776972845f, 0.0309105888f, 0.00428551203f, -0.0802963823f, -0.067775093f, 0.0289594401f, 0.0377668887f, 0.0278340243f, 0.0282903947f, 0.0646050423f, -0.0373940095f, -0.00796583854f, 0.0124512864f, -0.00251522521f, 0.0375017151f, -0.042071823f, 0.103621706f, -0.0772716701f, 0.0409952141f, -0.0708838031f, -0.093265824f},
    {-0.010011713f, 0.0373850279f, -0.02125852f, 0.0228409357f, 0.0701040998f, 0.0267608222f, -0.0462008342f, -0.0862273425f, -0.00240660738f, 0.0948955864f, 0.0489164069f, 0.079223372f, -0.000436425908f, -0.0763840899f, -0.110896215f, -0.0601169318f, -0.0464579612f, 0.0752713829f, -0.0118729342f, 0.111929931f, -0.0662775785f, 0.0210097525f, 0.00986996945f, 0.00145830982f},
    {-0.0719944611f, 0.0239007585f, 0.0529913418f, 0.0220289528f, -0.0416834317f, 0.0314403325f, -0.0552606471f, -0.00532524008f, -0.0530823246f, 0.0344740748f, -0.014750124f, -0.105441377f, 0.0278439093f, -0.0352334157f, 0.0118757868f, -0.092665419f, -0.0975459814f, 0.113651335f, -0.0147626968f, 0.0573937446f, -0.015659567f, 0.0166456923f, -0.00675879186f, -0.00225221016f},
    {-0.0212884918f, 0.0429757573f, 0.0212862883f, -0.022848703f, -0.0255386159f, 0.0628271922f, -0.0436691865f, -0.0110356798f, -0.0143486299f, -0.0442759208f, -0.0421755314f, -0.0786898807f, 0.137583137f, 0.0825120062f, 0.000284713809f, 0.051560387f, 0.0310809817f, 0.0339946821f, -0.232220754f, 0.100092173f, -0.0649096221f, 0.0549847595f, -0.0739113241f, -0.0148500167f},
    {-0.0465105362f, 0.00151353737f, 0.00711026136f, 0.00105440535f, -0.00894753449f, 0.107497357f, 0.0732700452f, -0.00762868347f, 0.0308379065f, -0.0132462904f, -0.0838040486f, -0.098826386f, 0.0633812845f, 0.0161954667f, -0.101325616f, 0.0287185349f, -0.0756726041f, 0.0608377419f, -0.14475821f, -0.0423071086f, 0.0449715108f, 0.122984149f, -0.042455662f, 0.0199864637f},
    {-0.102195993f, 0.055679027f, 0.0499968529f, -0.00378990592f, -0.0463910736f, 0.0705947354f, 0.00673190411f, -0.0396956876f, -0.0727175623f, 0.0614056475f, 0.0362089686f, -0.0805641711f, 0.0648348331f, -0.132883862f, -0.0390192382f, 0.0268343054f, -0.177614391f, 0.0218670145f, -0.0858214423f, -0.00216303999f, 0.0561805665f, 0.0538956895f, 0.0262575168f, 0.108260073f},
    {-0.0465867892f, 0.0760199204f, -0.00320380111f, -0.00983661506f, 0.0346842632f, 0.0226620734f, 0.0358029529f, 0.0435921513f, -0.145307884f, 0.0584329963f, -0.00764707616f, -0.0407860242f, 0.0721393004f, 0.0332356058f, 0.000549856632f, 0.0266147424f, -0.0501769334f, -0.00748721324f, -0.151691198f, -0.0152685288f, 0.0504300818f, -0.025091799f, 0.0283173043f, 0.0269151926f},
    {-0.0373631045f, 0.0137946149f, -0.012562301f, -0.0572794341f, 0.0635836348f, 0.041266717f, 0.0138029614f, 0.00104099605f, -0.167492032f, 0.0507232025f, -0.0317556113f, -0.0311393961f, 0.0658820122f, 0.0618439652f, -0.00880591758f, 0.0420704447f, -0.00942038838f, 0.0192126557f, -0.0254211482f, -0.0128673725f, -0.0325509496f, 0.0392788313f, -0.00101393694f, -0.0360586643f},
    {-0.00848629232f, 0.0263966955f, 0.00345026539f, -0.0595274121f, 0.0831896961f, 0.0115215816f, 0.0286565218f, -0.0457298383f, -0.112179503f, 0.0450260155f, 0.0185168739f, -0.0272164699f, 0.0470966212f, 0.0850754231f, -0.0437998809f, 0.0166851413f, 0.0413900092f, 0.0151414666f, 0.021487467f, -0.0870720148f, 0.00404381892f, 0.0667023435f, 0.0373286083f, -0.0690748319f},
    {-0.0185108185f, 0.0274044219f, 0.0077651185f, -0.0615035146f, 0.0678340197f, 0.00216810685f, -0.00482456014f, -0.0384158157f, -0.0178160258f, 0.0263546295f, 0.0337769687f, 0.00724308938f, -0.0262678899f, 0.0525486693f, -0.0104829455f, -0.0256440565f, 0.0301849991f, 0.0200328603f, 0.0399690531f, -0.055344563f, -0.00637451187f, -0.0013459411f, 0.0640136003f, -0.0410945155f},
    {-0.0430371948f, -0.034678068f, -0.00153535197f, -0.0575386994f, -0.00367156975f, -0.00101449597f, 0.035286881f, 0.00181870582f, -0.0191012956f, 0.0117887296f, 0.0674791858f, 0.0926093608f, -0.0353752896f, -0.00954773929f, 0.0221781395f, -0.0309525859f, -0.0142253134f, 0.0550629795f, 0.0467844233f, -0.105755322f, 0.0178454258f, -0.0288442709f, -0.000823803071f, 0.00416683732f},
    {-0.0358032137f, -0.103977673f, -0.0234037638f, -0.0240498148f, -0.022880204f, -0.0412995256f, 0.0739264116f, 0.0153792985f, -0.0147130843f, 0.0246753506f, 0.0651518926f, 0.109066278f, -0.0212406293f, 0.0217744932f, -0.0135055901f, 0.00959708821f, -0.0122407991f, 0.053226009f, 0.0432096794f, -0.141619399f, 0.0767140463f, 0.012008355f, -0.0167128611f, -0.0100783333f},
    {-0.0263413489f, -0.0758510232f, -0.0131756067f, -0.0189738702f, 0.0257569179f, -0.0583596639f, 0.0396009646f, -0.0147976819f, 0.00817050785f, 0.0328852311f, 0.0237390213f, 0.0231891945f, 0.00524885207f, 0.0956733376f, -0.0223130845f, 0.0374465734f, -0.000763528165f, 0.0374089777f, 0.041168306f, -0.0889733657f, 0.0221259743f, 0.0233548954f, 0.00379327429f, -0.0313036479f},
    {-0.0367192402f, -0.0180956107f, 0.0221145991f, -0.0792545527f, 0.0483518429f, -0.0243206639f, 0.00447053881f, -0.0188725628f, -0.0189571269f, 0.00419756118f, 0.0178309958f, -0.00573669327f, 0.0403291099f, 0.0970314443f, 0.0282532182f, 0.0131411105f, -0.00280489144f, 0.0450088941f, 0.0292116124f, -0.0403481349f, -0.0765867755f, 0.0035939801f, -0.0372937247f, 0.0134928804f},
    {-0.0303931832f, -0.0430284627f, 0.0103621492f, -0.109233789f, 0.0422612354f, 0.00829221774f, -0.020687148f, 0.035398066f, -0.0225725807f, -0.005880713f, 0.0164676774f, 0.0696003959f, -0.0164010189f, 0.0250188038f, 0.0476253591f, -0.0333684199f, 0.0292166695f, 0.0465218499f, 0.0117163528f, 0.0254439693f, -0.0674307942f, -0.00615781313f, -0.0631882921f, 0.0591742992f},
    {-0.00210222928f, 0.00528170262f, -0.0228945278f, -0.0454812646f, 0.0228403807f, 0.043439351f, -0.020615913f, 0.0507675149f, -0.00757413451f, 0.0151060438f, 0.0164818224f, 0.0520256013f, -0.0545964949f, -0.0618164726f, 0.0619488955f, -0.0492331982f, 0.0421572924f, 0.0735545903f, -0.025450673f, 0.0443581976f, -0.0814770311f, -0.0335140228f, -0.0855727121f, 0.0646698177f},
    {0.0287236553f, 0.0619611964f, -0.0566693656f, -0.0275906194f, -0.0442025922f, 0.0164234079f, -0.031381201f, -0.00817911793f, 0.0765018314f, -0.0662641674f, 0.0119033922f, -0.0572281666f, -0.00910275057f, 0.0195012297f, 0.0252217334f, 0.00110419828f, 0.0187385064f, 0.0452765524f, -0.101516888f, 0.102746792f, -0.148284703f, 0.0484503135f, -0.0994166061f, 0.0819237605f},
    {0.111986637f, -0.00221170625f, 0.000545107934f, -0.051956512f, 0.00207689917f, -0.0670474842f, -0.0213158783f, -0.0703486949f, 0.0406501889f, -0.0382113494f, -0.00351601816f, 0.146953166f, 0.0236793198f, 0.00983047206f, -0.0838241875f, -0.0665750876f, 0.0603950359f, -0.00507398881f, -0.0204240121f, 0.0355403423f, -0.0437067673f, 0.0409390368f, -0.0298862532f, -0.0319577791f},
    {0.0512135625f, -0.069957383f, 0.112539604f, 0.0247671921f, -0.0898644626f, -0.0152546763f, 0.11673376f, 0.0159382671f, -0.113884464f, -0.162736148f, 0.0138851888f, 0.110794134f, -0.038059894f, -0.0910138115f, 0.0976288393f, -0.0122309439f, 0.0961802155f, 3.93736045e-05f, -0.071794346f, -0.0278458111f, 0.0367649198f, 0.0472088829f, -0.115194485f, 0.0191184115f},
  },
};

static const float kLayer0PreNormWeight[24] = {1.08094966f, 1.04917359f, 1.00882256f, 0.996897936f, 1.00935721f, 0.940142632f, 0.960261941f, 1.01060843f, 1.07569623f, 1.00584304f, 0.978598595f, 0.922539234f, 1.12643635f, 1.02858829f, 0.972682834f, 1.24761164f, 1.10585392f, 1.06672573f, 0.993425131f, 1.08640742f, 0.979518592f, 0.986783445f, 1.09890473f, 1.06533873f};

static const float kLayer0PreNormBias[24] = {-0.0675901249f, -0.0731855929f, 0.00206313399f, -0.0381640717f, 0.0510005765f, 0.0258535612f, 0.0559375957f, 0.0657699108f, 0.0483483002f, 0.0326208249f, 0.0282244533f, 0.0586205609f, 0.0772567317f, 0.0557191893f, 0.0178659055f, -0.0297766235f, -0.0526132025f, 0.0108929407f, -0.0186825097f, 0.123450913f, -0.0382685848f, -0.00645709364f, -0.0215626173f, 0.0963773802f};

static const float kLayer0PostNormWeight[24] = {0.87656033f, 0.785086989f, 0.846471846f, 0.909531832f, 0.83290416f, 0.83206141f, 0.948723912f, 0.922731459f, 1.00943112f, 0.896827638f, 0.838037848f, 0.88714391f, 0.803272188f, 0.958234549f, 0.766364038f, 0.860423446f, 0.830082715f, 0.823458552f, 0.865920126f, 0.959709346f, 0.950013041f, 0.924715638f, 0.920515537f, 0.932762325f};

static const float kLayer0PostNormBias[24] = {0.0134075815f, 0.00336971018f, -0.0150718642f, -0.0128459698f, -0.013520211f, 0.00204396108f, 0.00980248488f, 0.0134192603f, 0.0378106125f, -0.00888424087f, 0.00978002325f, 0.0449883901f, -0.000639991427f, 0.000104490544f, 0.00362679316f, -0.0286394507f, -0.0317601413f, -0.032891158f, 0.0051269345f, 0.0710171163f, -0.0387763828f, -0.0224787015f, -0.0208826046f, -0.00278353691f};

static const float kLayer0ALog[48][16] = {
  {0.0921433717f, 0.40963906f, 1.0509243f, 1.36183691f, 1.33169842f, 1.50888455f, 1.73983812f, 1.89945531f, 1.91082585f, 2.06204462f, 2.33274269f, 2.14938998f, 2.39134741f, 2.42791653f, 2.43774843f, 2.50273681f},
  {0.0664828718f, 0.507880628f, 1.02343655f, 1.53401935f, 1.48986781f, 1.75590944f, 1.83142889f, 1.95385242f, 2.04043269f, 2.30845404f, 2.3227942f, 2.41962099f, 2.27721953f, 2.46931601f, 2.41275954f, 2.71993351f},
  {0.0301224068f, 0.615375638f, 1.11647868f, 1.30757475f, 1.66598165f, 1.66173744f, 1.92217803f, 1.8996613f, 1.97025239f, 1.89665461f, 2.22889376f, 2.21407938f, 2.25951457f, 2.23949718f, 2.37454224f, 2.55417585f},
  {0.0593965203f, 0.64172703f, 1.10342026f, 1.10058773f, 1.54002166f, 1.52998555f, 1.82095277f, 1.98081505f, 2.10389447f, 2.17392921f, 2.34093571f, 2.29613328f, 2.49531221f, 2.47797418f, 2.48116112f, 2.50564098f},
  {0.0748521462f, 0.686685503f, 1.0567261f, 1.3745091f, 1.52506876f, 1.64221835f, 1.87465501f, 1.83770573f, 1.87742078f, 1.9312278f, 2.12658978f, 2.07696104f, 2.20170212f, 2.14809394f, 2.12474203f, 2.39559793f},
  {-0.177075073f, 0.5409289f, 0.93063736f, 1.09364069f, 1.08848119f, 1.49629498f, 1.85399044f, 2.00021887f, 2.1551888f, 2.12975574f, 2.10028291f, 2.51149988f, 2.52457881f, 2.49202204f, 2.53510547f, 2.70699763f},
  {-0.119588234f, 0.539892912f, 0.842692971f, 1.37134194f, 1.43540478f, 1.8518548f, 1.66270995f, 1.68424654f, 1.66166735f, 1.74951482f, 2.27332163f, 2.19186211f, 2.2555759f, 2.23935533f, 2.25661278f, 2.23921847f},
  {-0.250926733f, 0.748299658f, 0.800323129f, 1.20448399f, 1.47021818f, 1.65342009f, 1.64784086f, 1.81656408f, 1.94343412f, 2.35434842f, 2.15187764f, 2.13339734f, 2.25827622f, 2.23923159f, 2.10429168f, 2.44595981f},
  {-0.0372212045f, 0.704970777f, 0.986634791f, 1.22617793f, 1.5003767f, 1.74126863f, 1.6716702f, 1.71549225f, 1.72057021f, 1.96719992f, 1.89377964f, 2.11386681f, 2.17377782f, 2.27979064f, 2.28297639f, 2.21405673f},
  {0.0664054006f, 0.406897545f, 1.05504954f, 1.21687257f, 1.24965882f, 1.62232578f, 1.68071938f, 1.92621398f, 1.98258972f, 2.01710105f, 2.28060269f, 2.23860383f, 2.41147566f, 2.37521005f, 2.56910419f, 2.66050959f},
  {-0.0991562381f, 0.77780503f, 1.05970693f, 1.25874853f, 1.299178f, 1.68539524f, 1.69874883f, 1.72638905f, 1.78455937f, 2.32748985f, 2.04306269f, 2.41858864f, 2.44890952f, 2.40360856f, 2.79268956f, 2.51433539f},
  {-0.123175636f, 0.568021059f, 0.918188453f, 1.15610719f, 1.36481512f, 1.55930614f, 1.52676606f, 1.99419773f, 2.0079124f, 2.16892028f, 2.21582508f, 2.10335398f, 2.06612802f, 2.35204887f, 2.07376337f, 2.33586693f},
  {0.0179247428f, 0.752117634f, 0.705112875f, 1.29851806f, 1.30746889f, 1.83032429f, 1.85062313f, 1.74326146f, 1.83340967f, 2.37698603f, 2.36330009f, 2.39446974f, 2.18269753f, 2.35232878f, 2.29027343f, 2.41407299f},
  {-0.353342414f, 0.171541899f, 0.856858969f, 1.35883129f, 1.44481385f, 1.44836569f, 1.85994959f, 1.81908596f, 2.33198333f, 2.33972907f, 2.2686646f, 2.01668358f, 2.09093761f, 2.54738259f, 2.7283864f, 2.16178918f},
  {0.00705810916f, 0.575574934f, 0.996621192f, 1.15641558f, 1.42993474f, 1.4749037f, 1.62890613f, 1.81887031f, 1.78762472f, 2.07522655f, 1.96911395f, 2.02566695f, 2.06262398f, 2.52977395f, 2.4733119f, 2.4896605f},
  {0.109785601f, 0.536376953f, 1.18653023f, 1.18090546f, 1.62649274f, 1.63051391f, 1.48337483f, 2.01537204f, 2.03493285f, 2.01344943f, 2.35105801f, 1.87682652f, 1.97676897f, 2.34166956f, 2.47795725f, 2.50255227f},
  {-0.104521379f, 0.513050139f, 0.865828872f, 1.15534508f, 1.24859321f, 1.41569829f, 1.96728289f, 1.90189064f, 2.22760439f, 2.10145593f, 2.18070388f, 2.14790654f, 2.27179337f, 2.01843381f, 2.27873206f, 2.21562171f},
  {-0.0514607839f, 0.554994702f, 0.947887719f, 0.940964878f, 1.22657776f, 1.58979154f, 1.63105404f, 1.60761547f, 1.69806349f, 1.81563282f, 2.16659522f, 2.11503911f, 2.06859732f, 2.07981873f, 2.50002193f, 2.50702119f},
  {-0.0822210759f, 0.519462228f, 0.796690166f, 1.05917382f, 1.27908587f, 1.47842276f, 1.60422432f, 1.92663252f, 1.66892612f, 2.08430123f, 1.95386708f, 2.10526395f, 2.1606102f, 2.24408722f, 2.6513288f, 2.26281667f},
  {0.0513518229f, 0.77568841f, 0.86264348f, 1.10829866f, 1.31205499f, 1.08019292f, 1.65021312f, 1.8050555f, 1.93002009f, 2.12940335f, 2.14757609f, 2.13684773f, 2.02351379f, 2.03991389f, 2.43018866f, 2.49350548f},
  {0.169208512f, 0.57986629f, 1.21042526f, 1.30666149f, 1.60620236f, 1.59167767f, 1.96545053f, 1.91916883f, 2.26759028f, 2.28899097f, 1.93125224f, 2.14607739f, 2.13227296f, 2.24100614f, 2.50239134f, 2.67298412f},
  {-0.0216277726f, 0.451540619f, 1.0362345f, 1.15951848f, 1.47011566f, 1.5368005f, 1.86959445f, 2.00433064f, 1.93489718f, 2.04123735f, 2.0525434f, 2.4301312f, 2.04043818f, 2.47162127f, 2.41383386f, 2.66488886f},
  {-0.0624304265f, 0.672781885f, 0.996175885f, 1.21930611f, 1.42670107f, 1.49767828f, 1.98094261f, 1.81292868f, 2.1377039f, 2.14256501f, 2.38591099f, 2.35487199f, 2.49979424f, 2.35972285f, 2.42430472f, 2.41543937f},
  {0.0203376431f, 0.772562504f, 0.857342064f, 1.30497074f, 1.32343531f, 1.64960039f, 1.62587106f, 1.79847395f, 2.16293097f, 2.15177608f, 2.34559178f, 2.24780822f, 2.29906583f, 2.32787561f, 2.16340613f, 2.23268437f},
  {-0.0893045068f, 0.563553989f, 1.1068753f, 1.34392858f, 1.33874595f, 1.34354722f, 1.67618489f, 1.80019832f, 2.07735729f, 2.08041668f, 2.18359065f, 2.16874194f, 2.19143414f, 2.22840047f, 2.29303646f, 2.52811909f},
  {-0.0489636622f, 0.266620487f, 0.789564252f, 1.11931431f, 1.40387857f, 1.68488979f, 1.55964613f, 1.91195142f, 1.89357448f, 1.92262566f, 2.24465895f, 2.26674104f, 2.37015724f, 2.2321794f, 2.39569688f, 2.46883559f},
  {0.0893499851f, 0.606316745f, 0.962290406f, 1.20729446f, 1.34606493f, 1.72302496f, 1.59060228f, 1.76065791f, 2.16191006f, 2.06209874f, 2.00661421f, 1.99919569f, 2.00533056f, 2.34743738f, 1.98810565f, 2.38530898f},
  {-0.0765355378f, 0.696423233f, 0.702687919f, 1.21902061f, 1.52837002f, 1.56897211f, 1.77597058f, 1.77810013f, 1.75920558f, 1.85715508f, 2.16900778f, 2.06429577f, 2.43714571f, 2.59619641f, 2.58710289f, 2.47903776f},
  {0.0646555722f, 0.526181459f, 0.803805172f, 1.19779885f, 1.18508303f, 1.30452669f, 1.47275758f, 1.81689799f, 1.88917029f, 2.02734733f, 2.09836435f, 2.10477328f, 2.36287451f, 1.99102938f, 2.40171123f, 2.36429811f},
  {0.0961405858f, 0.653547227f, 1.00145376f, 1.18954241f, 1.19965494f, 1.73190022f, 1.87428319f, 1.84622788f, 1.9242748f, 1.98499417f, 2.0882957f, 2.05957294f, 2.13920116f, 2.11715579f, 2.04532075f, 2.12881875f},
  {0.000626869441f, 0.677891314f, 0.798526585f, 1.21062768f, 1.59801114f, 1.73401368f, 1.74130642f, 1.81325614f, 1.96524751f, 2.13551688f, 2.16971874f, 2.36600661f, 2.44561768f, 2.26422095f, 2.50170064f, 2.59015822f},
  {-0.0224513821f, 0.652673841f, 1.13794434f, 1.38607359f, 1.40589738f, 1.49249709f, 1.83039737f, 2.02656555f, 2.11272025f, 2.30494976f, 2.05387187f, 1.89855671f, 2.44096112f, 2.10893536f, 2.34783244f, 2.67202878f},
  {-0.0808018297f, 0.570563734f, 0.891903281f, 1.17485642f, 1.57068324f, 1.57463861f, 1.66156507f, 1.92894614f, 1.92914963f, 1.8774749f, 2.43387198f, 2.19375587f, 2.283427f, 2.49155831f, 2.47706962f, 2.22279358f},
  {0.00257495837f, 0.651123524f, 1.00689995f, 1.28992486f, 1.47826338f, 1.67162991f, 1.75641084f, 1.58641493f, 1.95697927f, 2.04683471f, 2.05883503f, 2.34063435f, 2.39500022f, 2.40175009f, 2.40586019f, 2.65036917f},
  {-0.225566313f, 0.68907851f, 1.04025972f, 1.25026762f, 1.39524007f, 1.54816782f, 1.86866522f, 1.9750514f, 2.08062935f, 2.03225136f, 2.35443473f, 2.19101739f, 2.38911319f, 2.71407151f, 2.64892077f, 2.68420625f},
  {0.0322012641f, 0.495937675f, 0.851647079f, 1.17164433f, 1.33389962f, 1.57727897f, 1.69578362f, 1.91572297f, 2.07001019f, 2.03966951f, 2.12863994f, 2.1440587f, 2.40928841f, 2.21911716f, 2.12152648f, 2.37326145f},
  {0.0494846329f, 0.759971082f, 1.0086329f, 1.35748577f, 1.6607374f, 1.72756195f, 1.7115624f, 1.90736425f, 2.03249788f, 1.98957551f, 1.97478807f, 2.33090973f, 2.40456939f, 2.57564759f, 2.35423803f, 2.58835864f},
  {0.0984775946f, 0.758605182f, 0.818830073f, 1.196298f, 1.66885245f, 1.65841532f, 1.74076629f, 1.96014798f, 2.04036832f, 2.04334927f, 2.09823418f, 1.95734847f, 2.07796764f, 2.19341302f, 2.07068038f, 2.37479639f},
  {0.193630815f, 0.82668823f, 0.969594836f, 1.54908466f, 1.58644164f, 1.61355436f, 1.83794272f, 1.75584519f, 1.92499125f, 1.93380165f, 2.09577107f, 1.91848683f, 2.38679123f, 2.20527482f, 2.34459305f, 2.16751242f},
  {-0.0309418403f, 0.6345312f, 0.8077721f, 1.20652592f, 1.19093716f, 1.35090649f, 1.67942059f, 1.98292732f, 2.06452155f, 2.03941512f, 2.25836182f, 1.96828556f, 2.18719053f, 1.99145234f, 2.11578274f, 2.30855393f},
  {-0.00279579638f, 0.533472657f, 0.831740022f, 0.903856695f, 1.39364278f, 1.41214371f, 1.81510425f, 1.80488706f, 1.88711798f, 1.75520921f, 2.12645817f, 2.24951911f, 2.02474165f, 2.24964356f, 2.39962959f, 2.45169091f},
  {-0.0205492955f, 0.370732039f, 0.993194401f, 1.23341036f, 1.33415759f, 1.76447928f, 1.41144431f, 1.6135323f, 2.15505385f, 2.14795494f, 2.21271133f, 2.08074331f, 2.19608879f, 2.45789361f, 2.14840937f, 2.62048697f},
  {-0.0830654278f, 0.651620686f, 0.746643484f, 1.2137984f, 1.28989923f, 1.52869654f, 1.61942875f, 1.82984293f, 2.11449313f, 2.19904804f, 2.04106855f, 2.42538404f, 2.1383698f, 2.48182988f, 2.21082973f, 2.46368551f},
  {0.0788387507f, 0.585850954f, 1.01898801f, 1.28565526f, 1.65819669f, 1.62387633f, 1.84377754f, 1.95883012f, 2.04962993f, 2.05190873f, 2.09705496f, 2.29473877f, 2.32081342f, 2.33112955f, 2.61213684f, 2.78899693f},
  {0.316206068f, 0.753783643f, 1.0557797f, 1.04182291f, 1.66544437f, 1.64264274f, 1.95368731f, 1.87124825f, 2.05901504f, 2.18323898f, 2.04615521f, 1.95378149f, 2.63635468f, 2.24407339f, 2.48294616f, 2.49845147f},
  {0.093913801f, 0.574174523f, 1.09032393f, 1.25581563f, 1.49063957f, 1.2802788f, 1.57906926f, 1.76216769f, 1.83652449f, 1.77737904f, 2.21337962f, 2.45323539f, 2.49858069f, 2.50944161f, 2.73980212f, 2.48012543f},
  {-0.0397341736f, 0.636653304f, 0.809481502f, 1.20702875f, 1.47691f, 1.50114107f, 1.90750587f, 1.81778657f, 1.79643548f, 1.99174964f, 2.25285697f, 2.01365566f, 2.19639802f, 2.23897672f, 2.55409408f, 2.65015769f},
  {-0.39377746f, 0.406119466f, 0.674152195f, 1.46284008f, 1.41824389f, 1.58268416f, 1.79005003f, 1.81382596f, 2.12719369f, 2.12738466f, 2.06995392f, 2.05165577f, 2.41116714f, 2.68543053f, 2.50438428f, 2.46228099f},
};

static const float kLayer0D[48] = {0.929240227f, 0.937044442f, 0.945200264f, 1.0222429f, 0.938952029f, 0.909195065f, 0.97486794f, 1.01452804f, 0.867933035f, 0.956350625f, 0.878754854f, 1.08233714f, 0.973540843f, 0.989878714f, 1.1781776f, 1.0472964f, 1.00038397f, 1.0098536f, 1.01200092f, 1.04524875f, 1.05554914f, 0.942459285f, 0.978993475f, 0.927811325f, 1.00343609f, 1.03501427f, 1.01272142f, 0.993673146f, 1.02378285f, 0.962359369f, 0.877848208f, 1.02638602f, 0.909591615f, 0.961284757f, 1.02333415f, 1.02850831f, 0.839728534f, 0.75281179f, 0.925064206f, 0.989891469f, 1.07350779f, 1.1318512f, 1.06783199f, 0.915901244f, 0.951286495f, 0.926346481f, 0.979643703f, 0.944912672f};

static const float kLayer0InProj[96][24] = {
  {0.0570978001f, -0.0234453958f, 0.0367629305f, 0.123931482f, 0.0160349477f, -0.0148878722f, 0.104924798f, -0.126604155f, -0.15739727f, -0.0940781161f, -0.0503012612f, -0.0579450093f, -0.273125976f, 0.0603738166f, 0.0379081853f, 0.255921692f, 0.0315566435f, -0.102789611f, 0.0233004875f, -0.0778823569f, -0.00964377634f, 0.0357576199f, 0.125696763f, -0.127108499f},
  {0.0189583395f, -0.105549753f, 0.111323729f, -0.0491899177f, 0.0426723659f, 0.0677084327f, 0.0583973005f, -0.124355733f, -0.132138878f, -0.0999377221f, 0.108779393f, 0.0783686489f, -0.100914203f, 0.107207753f, 0.132745534f, -0.000283369853f, -0.0859520733f, -0.0327022113f, 0.051181715f, 0.0128626516f, -0.0525810942f, 0.193421051f, -0.039744895f, 0.0463546999f},
  {-0.202390566f, 0.064320989f, 0.022654051f, 0.0514845252f, -0.107261144f, -0.0977151245f, -0.0635881796f, 0.0401267f, 0.0710791126f, 0.0893465877f, -0.0856448784f, -0.092423372f, 0.0515491031f, -0.0689519346f, -0.132572293f, 0.0411107056f, 0.0219316389f, 0.00500676688f, -0.0295000784f, -0.0754291639f, 0.138691485f, 0.027639566f, 0.0916746631f, 0.0443981476f},
  {-0.11386057f, 0.162259206f, 0.0425822437f, 0.136870503f, -0.132695392f, -0.0784176439f, -0.0321363434f, -0.123527072f, -0.0231083706f, 0.0734657422f, -0.057067927f, -0.194107935f, 0.536493063f, -0.158313587f, -0.0901037157f, 0.0592339337f, 0.175720528f, -0.0819466636f, -0.0222764723f, -0.160539865f, 0.137787491f, 0.162443072f, 0.0841412917f, -0.175572425f},
  {0.205114856f, 0.030389186f, -0.05697456f, -0.0729993582f, 0.107004836f, 0.0390101783f, 0.0505124331f, 0.0606781021f, -0.00852040201f, -0.151349917f, 0.0290674306f, 0.0994872004f, 0.071328491f, -0.00388080184f, 0.0226854235f, 0.0494092219f, -0.0509148128f, 0.023586968f, 0.0607844032f, 0.0905341953f, -0.134118006f, 0.0275611356f, -0.0976269245f, 0.0186192486f},
  {-0.109963834f, 0.206037596f, -0.116454653f, -0.00826927554f, 0.140099868f, -0.0729152784f, 0.169109359f, 0.0555819869f, 0.0553720072f, 0.0490439199f, 0.132661298f, -0.0731861144f, 0.518699944f, -0.18848674f, -0.135458484f, 0.219130844f, -0.0686812699f, -0.0436830893f, -0.0629317537f, 0.0319305435f, 0.100704327f, 0.0218037944f, 0.0811238885f, -0.18217136f},
  {-0.103216365f, 0.233992741f, 0.222925827f, -0.0494696945f, -0.0541529097f, -0.148418978f, -0.0417776778f, -0.266856939f, -0.160874858f, 0.0606079698f, -0.160241917f, -0.0460745096f, 0.00453159306f, -0.0414237864f, -0.00358819542f, 0.161835164f, -0.0205519181f, 0.031601768f, 0.218966082f, -0.218589112f, 0.0457294136f, 0.17586492f, 0.157497346f, -0.0980617106f},
  {-0.273476779f, -0.0687614977f, -0.13609013f, -0.0869694874f, 0.0290875919f, 0.113251187f, 0.133226603f, 0.0569967665f, -0.0757249147f, 0.105049036f, 0.0872984305f, 0.0796560347f, 0.381735027f, 0.139463171f, -0.0979196206f, 0.292714328f, -0.163949668f, -0.0688989237f, -0.0129252337f, 0.0478814021f, 0.0424415804f, -0.153650612f, 0.0237540081f, 0.0928202942f},
  {0.127643809f, -0.112865157f, 0.0655410811f, 0.0796302184f, -0.0939339697f, -0.1335271f, -0.0135574127f, -0.0890748724f, -0.154039428f, -0.0649899319f, -0.0219657868f, -0.00202299585f, -0.19629693f, -0.0622142255f, 0.00968615431f, 0.178747758f, 0.125941247f, 0.0250446629f, 0.0227771383f, -0.104161523f, 0.0826962367f, -0.0607091486f, -0.0547966398f, 0.0309458375f},
  {0.0123865977f, 0.271190107f, 0.292603612f, -0.0571363047f, -0.106374204f, -0.0385871865f, -0.202766284f, -0.135166213f, -0.0583266318f, -0.118730858f, -0.0223407913f, -0.122102052f, -0.119361386f, 0.00580504211f, 0.0982338339f, -0.0570288301f, -0.0132454373f, 0.149610221f, -0.0175032392f, -0.170034602f, -0.0512807108f, 0.0280090403f, 0.146327734f, -0.0229925755f},
  {-0.115985304f, 0.0242251363f, 0.0611001179f, -0.101191983f, -0.245976493f, -0.00773033872f, -0.0444211438f, -0.0837522447f, 0.126502201f, 0.156043142f, -0.00503381435f, -0.0490195602f, 0.047783751f, 0.283089936f, 0.167566344f, -0.134924516f, 0.00149360753f, -0.0361692645f, 0.135758221f, 0.139537334f, -0.0844160914f, -0.00604668027f, -0.225532457f, -0.112255938f},
  {-0.219316453f, -0.0563290156f, 0.153206199f, 0.0901763216f, 0.0229956899f, -0.150180772f, -0.2662673f, -0.005572611f, -0.0587587096f, -0.0546324365f, -0.0399982594f, -0.191089854f, -0.0355961882f, 0.226097897f, 0.142095685f, 0.156592652f, -0.0555236638f, -0.0169158466f, -0.0758655071f, 0.0178193748f, -0.18019712f, -0.129205227f, -0.0631201044f, 0.456535101f},
  {0.0489703193f, -0.000999127631f, -0.0752120614f, -0.0929239318f, -0.204049438f, -0.0386625417f, 0.0600202046f, -0.03084521f, 0.0392753296f, -0.0810097307f, 0.135523513f, -0.28194508f, 0.0302602854f, 0.275428832f, 0.0292431172f, 0.332634419f, 0.00654490571f, -0.294989586f, 0.0368049331f, -0.00559178414f, -0.0064131231f, 0.102530196f, 0.0518252365f, 0.162330136f},
  {0.13423571f, 0.289871365f, -0.287739933f, -0.109972365f, -0.180068225f, 0.115181953f, 0.320197582f, -0.309340954f, 0.0381230488f, -0.0889213905f, 0.192933127f, 0.0536489673f, -0.250592411f, 0.297531664f, 0.0315365493f, 0.00319221336f, 0.0737662166f, -0.236104652f, -0.0897103995f, -0.149518818f, 0.165789649f, 0.0424988233f, 0.176745549f, -0.131520361f},
  {-0.113024428f, 0.201969072f, -0.124352083f, 0.136444092f, 0.0378950574f, 0.279764086f, 0.118430048f, 0.228168532f, -0.142233893f, -0.136063457f, -0.0567719676f, 0.0253976341f, -0.0346821956f, -0.415844917f, -0.040677242f, 0.0581413582f, -0.214854181f, 0.0605794936f, -0.0134205623f, -0.258102179f, 0.0531506017f, -0.0756101534f, 0.320545703f, 0.083596155f},
  {0.0368418172f, 0.00996071193f, 0.0670522079f, -0.247216389f, 0.0655841455f, -0.0122659234f, -0.0436679646f, -0.0148689309f, -0.00317446818f, 0.182510078f, -0.265233725f, 0.0914324075f, 0.254537582f, 0.0494682454f, 0.0409960523f, 0.0179302543f, -0.132329896f, 0.205899209f, -0.0138762668f, -0.0407082699f, -0.10829509f, 0.0556292571f, -0.061482735f, -0.108765751f},
  {0.0296329353f, -0.00823250413f, 0.0576868914f, -0.174331203f, 0.0553610176f, 0.0502969325f, -0.0973410159f, -0.102511175f, 0.0992127433f, -0.0690125152f, -0.177615568f, -0.148028299f, 0.219125733f, -0.087688677f, 0.166683063f, -0.0505772941f, 0.0426027998f, -0.0381542407f, -0.00629909523f, -0.174795926f, -0.0201309584f, 0.316700846f, -0.267502785f, 0.06812644f},
  {-0.205900297f, 0.274526834f, 0.0928153247f, -0.219988525f, -0.0207990967f, -0.0268871598f, 0.127876863f, 0.0235492233f, 0.123381443f, -0.127664879f, -0.0284849927f, 0.13776195f, -0.207202986f, 0.162161469f, 0.102358252f, -0.0243256222f, -0.215059638f, 0.0142649254f, 0.222494751f, 0.0440742336f, -0.0936947763f, 0.00829781126f, -0.166414574f, 0.175451145f},
  {0.0278255213f, 0.166217044f, 0.259933352f, -0.121673703f, 0.21416755f, -0.0495619811f, -0.176695317f, -0.0179351922f, 0.116069935f, -0.0705030188f, -0.0410144739f, -0.147440732f, -0.0765936896f, 0.0736964196f, 0.219145522f, -0.213271126f, -0.0486822613f, -0.0173317548f, -0.0407992825f, 0.37814641f, -0.216380849f, 0.0112842415f, -0.193173036f, -0.0741991624f},
  {0.207321867f, 0.225389227f, -0.212496504f, 0.138987914f, -0.163425237f, 0.260887146f, 0.13694936f, 0.0268443804f, 0.0508159101f, -0.224061385f, 0.152386963f, -0.105753891f, -0.0174045675f, 0.0842181742f, -0.00851033349f, 0.110023052f, -0.0366706215f, -0.348777473f, 0.0563132986f, -0.0812363848f, -0.00417256914f, -0.109347403f, 0.12133915f, 0.0716554224f},
  {-0.0964113921f, -0.0225741249f, -0.024146121f, 0.240817025f, -0.217720956f, 0.0100860167f, -0.0242358763f, -0.0279302876f, 0.100096405f, 0.0561385937f, 0.0777199417f, 0.0609355047f, 0.216672868f, -0.207572475f, -0.126462996f, 0.131303489f, 0.179434374f, -0.117054358f, -0.124636292f, -0.0323253199f, 0.251692414f, -0.162225053f, 0.29432708f, 0.0569934584f},
  {-0.175409093f, 0.117349707f, -0.159675509f, -0.0939969793f, 0.105949096f, 0.110762112f, 0.213258162f, 0.107699014f, -0.0375563465f, 0.00872252882f, 0.122762248f, 0.101252884f, 0.152561992f, 0.197649479f, -0.0886233449f, 0.0126857283f, -0.234669447f, 0.114751376f, 0.0515313037f, 0.221497402f, -0.113758095f, -0.147692516f, 0.0700279772f, -0.05070832f},
  {-0.0335244574f, 0.194104061f, 0.0469966605f, 0.109269813f, -0.138338625f, -0.0835916847f, -0.0575503297f, -0.147291943f, -0.064791739f, 0.042709019f, -0.144379288f, -0.0949601755f, -0.106393121f, -0.128481403f, -0.0228589047f, 0.0810315609f, 0.221524298f, 0.109016597f, 0.119892903f, -0.224149659f, 0.225348204f, 0.0701717734f, 0.00346467202f, -0.0467427596f},
  {0.131526172f, 0.0132820196f, 0.0935633853f, -0.0416099094f, 0.164439142f, -0.106608741f, -0.122696221f, -0.0472399518f, 0.0292844642f, -0.127870709f, -0.0491599925f, -0.0357852727f, -0.229210094f, -0.104093365f, 0.0687352568f, -0.0126891788f, 0.0299122371f, 0.103097975f, 0.140805155f, 0.0188347008f, -0.0781027377f, 0.0789164379f, -0.0457835421f, -0.141686291f},
  {-0.128054038f, 0.186343223f, -0.175862536f, -0.0988174379f, -0.0045958655f, 0.0856413469f, 0.206660956f, -0.0998132899f, -0.0285252146f, 0.0729653761f, -0.0202276669f, 0.0451562218f, 0.415168345f, 0.144003168f, -0.125625834f, 0.279941022f, -0.196788445f, -0.0198080633f, 0.101881526f, 0.0455518551f, -0.0138637898f, -0.0754028037f, 0.138104767f, 0.0518492572f},
  {-0.205840528f, 0.0182118993f, -0.21727708f, 0.135007411f, -0.14006412f, 0.154291943f, 0.0825865418f, 0.0664062798f, -0.214035153f, 0.102641188f, 0.0421449356f, -0.238168105f, 0.173916623f, -0.0942379534f, 0.0749596804f, 0.365275681f, 0.0648935959f, 0.118791491f, -0.272010803f, -0.453619152f, 0.12851952f, -0.112864137f, 0.0748767257f, 0.117615089f},
  {0.196095645f, 0.161033422f, 0.0369182155f, 0.0542108268f, -0.0655515715f, 0.0923814327f, -0.199812755f, -0.144685432f, 0.0696175992f, -0.0903763995f, -0.077844061f, -0.138790831f, 0.028262537f, 0.15140067f, 0.0264434088f, -0.070577763f, -0.0224591717f, -0.123605125f, -0.0195138231f, -0.0510490872f, -0.142398119f, 0.0720824301f, 0.139029667f, 0.194225401f},
  {0.0892720148f, 0.113578387f, 0.045934692f, 0.157728031f, -0.0163986757f, -0.0108625507f, -0.181030259f, 0.306437045f, -0.0500297546f, -0.137022734f, -0.017880436f, 0.0790026113f, -0.116627321f, -0.174171254f, 0.0616178922f, -0.187772334f, 0.0543735623f, -0.160846472f, 0.213047832f, 0.19221127f, -0.0429341644f, -0.169200405f, 0.0551188365f, 0.00594494119f},
  {-0.24006407f, 0.1751035f, -0.0897762924f, -0.113138884f, 0.140210137f, 0.124422178f, 0.134682074f, 0.234915003f, -0.0454914272f, 0.000921003753f, -0.0119736139f, -0.0428891443f, 0.0707776621f, -0.0287494231f, 0.0676763058f, -0.0160845891f, -0.324444771f, 0.0200701505f, 0.118544482f, -0.0446247533f, -0.263772696f, -0.153979018f, 0.0630526543f, 0.244301796f},
  {-0.097289525f, 0.0336657166f, 0.040687345f, -0.015491874f, -0.123467244f, -0.161509022f, 0.0793124959f, -0.0422988161f, -0.11778596f, 0.217256829f, 0.0959939659f, 0.0468636863f, 0.142371312f, -0.146127895f, -0.065782629f, -0.0833700672f, 0.124451585f, 0.168023899f, -0.150342152f, 0.106473319f, 0.109057806f, -0.123828024f, 0.0924858972f, 0.0158414952f},
  {0.165092319f, 0.225145698f, -0.0425999835f, 0.0443310961f, 0.0161874313f, 0.0318719335f, -0.049183365f, -0.123905428f, 0.0373214297f, -0.103349112f, 0.0550353564f, -0.0765066966f, -0.0656134784f, 0.0251421854f, -0.0989200026f, -0.0361203365f, -0.165344775f, -0.0421048105f, 0.186244592f, 0.0373747312f, -0.0608436726f, 0.0967106f, 0.163867816f, -0.100335911f},
  {-0.123504706f, 0.0269077383f, 0.0571132153f, 0.112331331f, 0.394266546f, -0.0317557491f, -0.00999412127f, 0.0783903152f, -0.111529738f, 0.0295222476f, -0.0434963927f, 0.0113663711f, 0.317734689f, -0.0555411093f, -0.148079664f, 0.179199219f, -0.181398183f, -0.102751613f, -0.118950993f, 0.0686981529f, -0.0760885105f, 0.0195422173f, 0.12478815f, 0.00787719805f},
  {-0.0902276039f, -0.0173252914f, -0.0443891138f, 0.0781979859f, 0.121179938f, 0.176077455f, 0.0104324995f, 0.0503820702f, -0.0432461388f, 0.0334880278f, 0.176429138f, -0.109198079f, 0.237792149f, 0.0157065615f, -0.0565684624f, -0.0378266163f, -0.109213784f, -0.140973032f, -0.203044802f, 0.122694157f, -0.0109031163f, -0.017169401f, -0.0699072331f, 0.178609461f},
  {0.116612129f, 0.0388181247f, -0.0247188825f, -0.0909465402f, -0.0634924099f, -0.0189973805f, -0.0232192241f, -0.0182822887f, 0.0650961995f, -0.0490673371f, -0.0219641887f, 0.0992026031f, -0.366580069f, 0.0608059019f, 0.0436589308f, -0.0695924014f, 0.123362824f, 0.0490483828f, 0.101473615f, -0.11733643f, 0.0975278392f, 0.0155107891f, -0.03283225f, -0.116194442f},
  {0.260825217f, -0.23200509f, 0.199092686f, 0.0944836438f, 0.0431763455f, 0.108030356f, -0.0524008647f, 0.172182634f, 0.348568201f, -0.0482129119f, 0.0413802043f, -0.101877622f, 0.167887151f, -0.108185083f, 0.107413851f, -0.250849903f, -0.0141175603f, -0.0901294351f, 0.000110545523f, 0.0756940991f, -0.118952803f, 0.0553454198f, -0.426469028f, -0.333525419f},
  {0.0832341015f, -0.113533512f, -0.202312082f, 0.138723224f, 0.0822775736f, -0.0389216505f, 0.173218668f, -0.282192528f, 0.0921681002f, 0.128920183f, -0.0358238854f, 0.0851947889f, 0.141359791f, -0.148006141f, -0.499656439f, 0.0687390789f, 0.0128467279f, -0.0884034336f, -0.0459967442f, -0.0410781652f, -0.0017573454f, -0.0979515985f, 0.357120603f, -0.0472932123f},
  {0.0386185981f, 0.164272934f, 0.0688162968f, -0.147271439f, 0.0284344573f, -0.0529080592f, 0.0286472421f, -0.00771954469f, 0.0560215823f, -0.0503832363f, -0.017127268f, 0.0277264733f, -0.136949793f, -0.0227290038f, -0.025535075f, -0.187466502f, 0.0828760564f, 0.127195448f, 0.111155197f, -0.0954446122f, -0.0732478276f, 0.0548505895f, 0.0673036873f, 0.0439253151f},
  {0.0421675146f, 0.07977961f, 0.0420326181f, 0.0948068351f, 0.119610257f, -0.0941215754f, -0.0899674222f, -0.0439625829f, 0.0130290221f, -0.0847752616f, -0.0319897309f, -0.0562155955f, -0.0785825998f, -0.0471124984f, -0.0778976604f, -0.0777774602f, 0.0010097113f, -0.0269197058f, 0.222694993f, -0.128944144f, -0.0919969901f, 0.264671862f, 0.0495238006f, -0.13588348f},
  {0.132106677f, 0.0140550965f, 0.0185165871f, -0.0517290942f, 0.0624920987f, 0.0570281781f, 0.0130197667f, -0.276239395f, -0.0258797035f, -0.048250705f, -0.00242711743f, -0.00232432829f, 0.0232275892f, 0.112811998f, 0.0411153771f, -0.041164171f, -0.0230653528f, 0.053773243f, -0.0360054262f, -0.266377866f, -0.0480375588f, 0.131185383f, 0.00866121706f, -0.121046424f},
  {0.21767509f, -0.0431049503f, -0.00435497239f, 0.0279954374f, 0.145477012f, -0.0115116574f, 0.0546531081f, 0.0281663984f, -0.00536155282f, -0.0777287632f, -0.0740484446f, 0.0877001584f, -0.278904736f, -0.111171812f, -0.02911596f, -0.326087415f, 0.0593395792f, -0.0297019761f, 0.318211585f, 0.0667664111f, -0.208655849f, 0.025042804f, -0.0201854277f, -0.0697903484f},
  {-0.0527061485f, -0.120311491f, 0.17351684f, -0.0564078353f, 0.069503054f, -0.0971173719f, -0.0505906194f, 0.054386884f, -0.217985868f, 0.0814851969f, -0.143296182f, -0.0548045039f, 0.282891899f, 0.011304561f, 0.171011865f, 0.201283559f, -0.116459019f, 0.0354177505f, -0.173454881f, -0.126867816f, -0.091575928f, 0.241699323f, -0.189924374f, 0.193545163f},
  {0.278785527f, -0.028022781f, -0.247599155f, 0.192984164f, 0.0625832826f, 0.0755727366f, 0.0682971478f, 0.00162249466f, -0.117953144f, -0.0621933714f, 0.0513028651f, 0.00471725455f, -0.106435858f, -0.0478348359f, -0.0171297342f, 0.0472533256f, 0.123182774f, -0.180144027f, 0.489236355f, -0.0563304313f, -0.0684939846f, -0.226851165f, 0.0899083912f, -0.311769843f},
  {0.0712257028f, 0.0681635067f, 0.169356495f, -0.146711141f, 0.0940599144f, -0.222457841f, -0.153403491f, 0.0803212151f, 0.0389479399f, -0.075161092f, -0.271903604f, 0.0812446922f, -0.183071166f, -0.0419366993f, 0.123331249f, -0.0965114608f, -0.0474043489f, 0.208419085f, 0.124177821f, -0.168425575f, -0.0589646399f, 0.288670212f, -0.197552502f, -0.037096221f},
  {-0.0181450881f, 0.142189398f, -0.0751273036f, 0.108504005f, -0.0638445318f, -0.124306723f, 0.0352139622f, 0.140363559f, 0.0548210964f, 0.0528312549f, 0.0604396909f, -0.0225610547f, 0.166558877f, -0.0688876212f, -0.266813457f, -0.0688165724f, -0.146932483f, -0.14559336f, 0.0380094834f, 0.0969538167f, 0.0293106623f, -0.0860595107f, 0.186729103f, 0.0288820844f},
  {0.250968665f, -0.0204151813f, 0.0405524261f, -0.0577974617f, -0.0338787064f, 0.0276114251f, -0.259991139f, -0.271610528f, 0.129796788f, 0.193793386f, 0.0926132351f, -0.169495448f, 0.014065681f, 0.13618587f, 0.0421606898f, -0.088063702f, 0.0104709389f, 0.134212762f, 0.0266865436f, -0.149411708f, -0.073872f, 0.0115751391f, -0.0148086157f, -0.207421005f},
  {0.0418730453f, 0.0261094775f, -0.131042913f, 0.0513256714f, 0.00798661914f, 0.0951798931f, 0.268772215f, 0.121826537f, -0.0568806566f, 0.116793558f, -0.0163285658f, 0.0574596263f, 0.114835136f, 0.0829205438f, -0.048013676f, 0.137418702f, -0.18585141f, -0.19318755f, 0.00427714409f, 0.092524834f, -0.0332701579f, -0.117367484f, 0.169292733f, -0.0881055743f},
  {0.276970357f, -0.0328898355f, -0.0971406773f, 0.0580139793f, -0.0403286479f, 0.0332380384f, -0.00456482079f, -0.0413714983f, -0.00796659756f, -0.0525151454f, 0.108330242f, 0.159138918f, -0.182081729f, -0.0227845833f, -0.0355152525f, -0.0467924178f, 5.92114775e-05f, -0.168181136f, 0.240461901f, -0.0458885543f, 0.0112483595f, -0.126226187f, 0.03753848f, -0.176701754f},
  {0.0621550083f, 0.0876423493f, 0.0963996127f, -0.0961883068f, -0.0909962207f, -0.160908297f, 0.0152319791f, -0.164928719f, -0.0454006121f, 0.0164540969f, -0.137336463f, -0.0416019335f, 0.0617998205f, -0.0766713023f, 0.083140865f, 0.111272968f, -0.154592469f, 0.0728477389f, 0.279868037f, 0.177443102f, -0.227317333f, 0.163360924f, -0.0726329237f, -0.104206331f},
  {-0.105821863f, -0.193498194f, 0.131328955f, -0.146252871f, 0.158117682f, 0.0370201208f, -0.129187733f, -0.0422074161f, -0.0953336135f, 0.0303423442f, 0.211994067f, 0.0203612223f, 0.157421887f, -0.0604595877f, 0.112441055f, -0.0785635561f, -0.0894416571f, 0.0241467152f, -0.151521325f, 0.185555696f, -0.106309451f, -0.0899748355f, -0.154780701f, -0.165578917f},
  {0.146532118f, 0.198780641f, -0.0788755193f, 0.129449949f, -0.0867429674f, -0.0261697974f, -0.115479477f, 0.00254278234f, 0.0951124653f, 0.000563496433f, -0.177455708f, -0.115290686f, 0.0346261337f, -0.0661356524f, -0.0403931439f, -0.051999215f, 0.0783317313f, -0.153244704f, 0.0212238431f, -0.0566358902f, 0.0336283334f, -0.0644888058f, 0.106046885f, -0.0979189053f},
  {0.00405440666f, 0.16340284f, -0.0255858768f, 0.0780459866f, -0.0940109119f, -0.0520746335f, -0.0681472719f, 0.0377087705f, 0.11161378f, -0.0265614837f, -0.13849169f, -0.0740191117f, 0.00209753355f, -0.0535049587f, -0.0307971518f, -0.0836174712f, 0.115597971f, -0.0485518947f, 0.0775482357f, -0.0941242129f, 0.0770948827f, 0.0646802858f, -0.021880798f, -0.071557492f},
  {-0.0205665454f, 0.160661936f, -0.0956882238f, -0.183468118f, -0.250109494f, -0.0353841782f, 0.382278472f, 0.0804463401f, -0.021607792f, -0.138836533f, -0.046746403f, 0.166263923f, -0.0350755192f, -0.049694024f, -0.025226647f, -0.115852378f, -0.0621138774f, 0.0587030277f, 0.0696899965f, -0.0835838243f, 0.0973510146f, 0.0087178275f, -0.0749998689f, 0.125034481f},
  {0.117287427f, 0.105441883f, -0.0147122778f, 0.0742230341f, -0.148411706f, -0.0443965718f, 0.00987824146f, 0.0313137695f, 0.0867053419f, 0.00404899381f, -0.13591288f, -0.094480522f, -0.0402885303f, -0.0415524803f, -0.0424320102f, -0.0569360517f, 0.0876774117f, -0.0502343401f, 0.0408620276f, -0.105563179f, 0.0574912056f, 0.0524087511f, 0.0561917908f, -0.100222714f},
  {0.148009554f, 0.04325651f, -0.141253456f, 0.132660285f, -0.0566287935f, 0.237617612f, 0.107418731f, 0.0604966655f, 0.0529648624f, -0.100640155f, -0.187678799f, -0.102530338f, 0.0161468294f, 0.287462801f, -0.0430458114f, 0.224182665f, -0.0110912258f, -0.241520151f, 0.0851254314f, -0.0946512371f, -0.17234689f, 0.0970316604f, 0.0883757919f, 0.0403984673f},
  {0.0979743302f, -0.0591845736f, -0.141578302f, 0.0352027565f, -0.202107385f, 0.0735709891f, 0.309335172f, 0.146286502f, 0.0235884283f, -0.305977166f, 0.0729138553f, 0.22076641f, -0.115469947f, 0.0357947983f, -0.0169878807f, -0.353363216f, 0.121601485f, 0.128550619f, -0.0937024653f, 0.112461947f, -0.00941111799f, -0.0525650643f, -0.110747896f, 0.0759887695f},
  {-0.0587055422f, 0.0282089897f, 0.0688255131f, -0.213088661f, 0.165449947f, 0.00545036606f, 0.0670785457f, 0.0163269043f, -0.00408217125f, -0.146154433f, 0.10337472f, -0.108204789f, -0.143259287f, 0.224567175f, 0.102102518f, -0.103352182f, -0.304061264f, -0.159624696f, 0.155340597f, 0.0138854347f, -0.137141451f, 0.0863277838f, -0.102686226f, -0.183874503f},
  {-0.0846656263f, -0.0717277974f, -0.00545665296f, -0.135680348f, 0.0752768144f, 0.0270517357f, 0.103379011f, -0.126904845f, -0.0817039683f, 0.208290413f, 0.0745292157f, 0.112611003f, 0.0183267966f, 0.160439104f, 0.00419774093f, -0.10468626f, -0.0191938747f, 0.0831749961f, 0.0129390229f, 0.0428355187f, -0.0493531302f, -0.0234562866f, -0.107159548f, -0.0830135196f},
  {-0.17705825f, -0.160521418f, 0.049812112f, 0.113616556f, 0.0329991281f, 0.0748154595f, -0.140377328f, 0.0559538864f, -0.0552114286f, -0.0301376637f, 0.183123171f, -0.0729583502f, -0.163320065f, -0.191723049f, 0.0787040293f, -0.125405565f, 0.0576473065f, -0.0815115497f, 0.0546410047f, 0.0724059865f, 0.088891387f, -0.247602701f, 0.122858666f, 0.0375003219f},
  {0.00404709764f, -0.291231483f, -0.115015909f, 0.0711854547f, -0.0692509785f, 0.116566345f, 0.197217405f, -0.00426268065f, -0.00307865557f, -0.0137459645f, 0.0653508827f, 0.102884188f, 0.0300407484f, 0.102298759f, 0.026327787f, 0.0913942009f, 0.140464351f, -0.0313038602f, -0.198462814f, -0.182424322f, 0.0940465853f, -0.0433263145f, -0.14999707f, 0.0359345339f},
  {-0.260969549f, 0.142459095f, 0.0251046233f, -0.235972852f, 0.0646738634f, -0.149721041f, -0.00967945624f, 0.296880454f, -0.0326596387f, -0.0874116719f, 0.1049935f, 0.0355892777f, -0.0679914579f, -0.00213015988f, 0.201837838f, -0.115981668f, -0.296464562f, -0.0103576388f, 0.0903276727f, 0.000469755207f, -0.280890584f, -0.11958643f, -0.0920463949f, 0.367785484f},
  {0.177348927f, -0.0614890195f, 0.12230888f, 0.134028196f, -0.314993173f, -0.127123833f, -0.177231535f, 0.0285547096f, 0.0270095915f, -0.00761682447f, 0.125667572f, -0.0273051541f, -0.106852949f, -0.124032937f, 0.170165062f, 0.0670468062f, 0.246919006f, 0.177070856f, -0.141840667f, -0.0736532509f, 0.0851654932f, 0.0910795927f, -0.381110042f, -0.0705760345f},
  {0.146273002f, 0.00312891509f, -0.128302082f, 0.00859215111f, -0.0171230864f, -0.118753567f, 0.0753593966f, -0.0186602119f, 0.277909487f, -0.0169720929f, 0.108046658f, -0.132282913f, -0.18962872f, 0.214523852f, -0.0819693133f, 0.00370965339f, -0.196129844f, -0.0396927893f, 0.246887848f, -0.14406243f, -0.135643616f, -0.0199571438f, 0.0122800674f, 0.250209361f},
  {-0.422980994f, 0.150528923f, -0.151473209f, -0.00459497143f, 0.167023033f, 0.190128028f, 0.203465015f, 0.0908815339f, 0.021928994f, 0.116233915f, 0.183154166f, -0.100620225f, 0.191416815f, -0.186579317f, -0.310766757f, -0.0316438042f, -0.464700133f, -0.124896519f, 0.0116489837f, -0.0150373727f, -0.0570238531f, -0.252523899f, 0.206169024f, 0.11244709f},
  {-0.16238068f, -0.0680543706f, -0.0153031349f, -0.144712061f, -0.18183063f, 0.0251219012f, -0.197771654f, -0.253550351f, 0.127086535f, 0.100249641f, 0.115101956f, 0.00405842764f, 0.112706907f, 0.0318827182f, 0.093358323f, 0.0770337433f, -0.00934260152f, 0.0280152094f, 0.252599597f, 0.0094629582f, -0.170910642f, -0.0662415326f, 0.0657336861f, 0.0752525926f},
  {-0.086461097f, 0.0799755305f, -0.0314420015f, 0.00449871551f, 0.0200916752f, 0.140625134f, 0.0583375655f, -0.114583045f, -0.00209586346f, 0.0832403377f, -0.167033806f, -0.0814799368f, 0.132971421f, 0.324279726f, -0.0610620268f, 0.353423417f, -0.329845786f, -0.0777824447f, 0.117744654f, -0.118140176f, 0.0214603376f, -0.0446087383f, 0.0469091088f, 0.0231069941f},
  {-0.108497038f, -0.0478528254f, -0.0854699835f, 0.000390607223f, -0.205803245f, -0.0818978027f, 0.182130709f, 0.204472765f, 0.038460955f, -0.141993687f, -0.0768944845f, 0.0956372917f, -0.0640410036f, 0.226531714f, -0.0743375421f, -0.109262615f, -0.0731661543f, 0.0578327738f, -0.199492261f, 0.078497991f, 0.10210228f, -0.0967745855f, 0.0602086298f, 0.267374814f},
  {0.125200614f, 0.113968909f, 0.157574385f, -0.129869759f, 0.300539851f, -0.0284629092f, -0.139996618f, -0.0454257019f, 0.155603707f, -0.270239145f, -0.0323185734f, -0.129866689f, -0.0543415323f, -0.0415435061f, 0.152939841f, -0.226978928f, -0.141990066f, -0.0314172469f, -0.0766095072f, 0.113816664f, -0.135192394f, 0.075023897f, 0.00441858359f, -0.0949190855f},
  {0.00246947957f, 0.0267408714f, -0.191207469f, 0.212017849f, -0.172036633f, -0.120788619f, -0.0818069354f, 0.18959859f, 0.255253971f, 0.109830551f, -0.183942944f, 0.00341481669f, -0.0852336735f, -0.152366504f, -0.0634354353f, -0.144288272f, 0.25632f, -0.0692185983f, 0.0206206609f, -0.191296682f, 0.200250864f, -0.0133094545f, -0.00453648297f, -0.117094733f},
  {-0.141311705f, -0.171772942f, -0.158613205f, 0.0459521562f, -0.0117557142f, 0.239736229f, 0.140176326f, 0.405050218f, 0.0426348783f, -0.0294879451f, 0.0570468158f, 0.194101185f, 0.151746854f, -0.0287699569f, -0.0371350199f, 0.00373352389f, -0.0718163773f, -0.0693959668f, 0.111059316f, 0.404046595f, -0.0270349197f, -0.302192986f, -0.0722035691f, 0.00126871991f},
  {0.0663494915f, 0.0476596989f, -0.176603153f, 0.129205808f, -0.135313123f, -0.0294931885f, -0.0895819291f, 0.0106723728f, 0.0589020438f, 0.109230347f, 0.0684978068f, -0.0167443566f, 0.0901867151f, -0.00264333305f, -0.228225783f, 0.15517886f, 0.0932986736f, 0.0512642711f, -0.120084666f, 0.0956724212f, 0.0567674227f, -0.0928390473f, -0.00721681165f, -0.108726285f},
  {-0.00205014739f, 0.0786523297f, 0.0919394717f, -0.161559418f, 0.0046163518f, -0.0596862435f, 0.0634675324f, -0.102104813f, -0.328216344f, -0.199946597f, -0.137212664f, -0.0419648364f, 0.0122377332f, -0.00534834107f, 0.121376172f, 0.130436435f, 0.0267451629f, 0.120848909f, 0.0228920579f, -0.122761659f, -0.0569190867f, 0.144137233f, -0.171086699f, 0.0777082071f},
  {-0.0941532627f, 0.122546569f, 0.000874181045f, -0.188621819f, 0.179756805f, -0.15276143f, 0.164203539f, 0.0493896827f, -0.0183925498f, 0.0311352648f, -0.0976718068f, 0.033076752f, -0.0617087483f, 0.014308814f, -0.0318500213f, -0.0664038137f, -0.0779296756f, 0.095509246f, 0.0714453459f, -0.140841708f, 0.0290660113f, 0.0544720292f, 0.122281432f, -0.0896505415f},
  {-0.0961257294f, -0.119164847f, 0.0773161724f, -0.174707592f, 0.227486208f, 0.119424753f, -0.0995246097f, 0.0637119859f, 0.0225722529f, -0.0776518881f, 0.0884160772f, -0.0571074709f, 0.0533107296f, 0.0403785594f, 0.161493137f, -0.179052949f, -0.151145414f, -0.197175011f, -0.0499934517f, -0.039540112f, -0.0858667046f, 0.0524559952f, -0.104736485f, -0.0768854395f},
  {0.0146282967f, 0.152768955f, 0.089859724f, -0.0645529479f, -0.00319431024f, 0.0814154148f, -0.108131193f, 0.196376532f, 0.0896746665f, -0.282949477f, -0.0401068628f, -0.209908932f, -0.024415521f, 0.0563443899f, 0.163760096f, -0.0359333903f, -0.2291632f, 0.157952294f, -0.0477844551f, 0.0935350657f, -0.42126146f, 0.237896517f, -0.222538382f, -0.0372883007f},
  {0.151599973f, -0.221259639f, -0.018442886f, 0.108776495f, 0.0613974556f, -0.0905312449f, -0.107167251f, -0.123355672f, 0.208938181f, 0.0811014101f, -0.0526245944f, -0.0758317336f, 0.0535253398f, -0.122249529f, -0.0439495929f, 0.25448373f, -0.0310085975f, -0.139463276f, 0.257350087f, 0.0956832096f, -0.0953846052f, 0.00966680329f, -0.0980884731f, 0.0524123535f},
  {-0.0471233726f, -0.0229039397f, -0.0796815753f, 0.0549189746f, -0.11115893f, 0.00354207191f, 0.029553391f, -0.0867820308f, 0.203573421f, 0.180132702f, -0.000496989291f, 0.00142324134f, 0.180014729f, -0.0623831898f, -0.113449693f, 0.0754648894f, 0.00462610787f, -0.0534066372f, -0.169010684f, -0.086499989f, 0.108972833f, -0.07875029f, -0.0834772363f, -0.0999798477f},
  {0.00481412187f, 0.120444879f, 0.00663064653f, -0.0506012365f, 0.353111416f, 0.113194607f, -0.0341943689f, 0.0943259671f, -0.228572518f, 0.0391188897f, 0.143368497f, 0.021699857f, 0.0312115606f, -0.151590899f, -0.00345083023f, -0.0496088304f, 0.016980825f, -0.301537633f, -0.19692193f, -0.0252818782f, -0.06118045f, -0.285480469f, 0.203006074f, -0.0790325329f},
  {0.026078023f, -0.0117178569f, -0.132090762f, 0.210935697f, 0.00299782725f, 0.0837718248f, -0.0449072756f, 0.150084019f, -0.150972471f, 0.0272893291f, -0.0173568595f, -0.0347513705f, 0.0563052967f, -0.0619478039f, -0.0531505942f, 0.229487225f, -0.024049392f, -0.0979715958f, -0.0160918031f, 0.220656112f, -0.0473590605f, -0.0639188737f, 0.236844853f, -0.0801660493f},
  {-0.0796809494f, -0.0306324493f, -0.00324085238f, -0.0888878554f, 0.0240442548f, -0.0158574488f, 0.245357752f, 0.0621082559f, 0.0825898424f, -0.040793743f, -0.109449662f, 0.161034852f, -0.000705798506f, -0.0647830442f, -0.0482046604f, 0.0127592534f, -0.00129817764f, 0.172254205f, -0.059757717f, 0.0487210564f, -0.0202163942f, -0.0632736459f, -0.0392121524f, -0.0144302212f},
  {-0.109285094f, -0.193655729f, 0.00935382769f, -0.11092066f, 0.132877618f, -0.136588275f, -0.0474960841f, -0.117045261f, -0.0387794673f, 0.00479107955f, -0.00291289389f, 0.225719839f, -0.104056083f, 0.0343070105f, 0.00278557255f, -0.154981092f, -0.0525218397f, 0.214307308f, 0.138752475f, 0.0484548397f, 0.0325543992f, -0.266612709f, 0.133213311f, 0.0217977818f},
  {-0.115415491f, -0.116296098f, 0.0249658115f, -0.24198547f, 0.245250806f, -0.00462505547f, 0.0904843509f, -0.000695892377f, -0.128704056f, -0.027725894f, 0.0357541181f, 0.167770654f, 0.053914763f, -0.144916579f, 0.0955327749f, -0.0925875381f, -0.0390499309f, 0.0408865921f, -0.0319861546f, -0.0616266131f, 0.0175069366f, -0.0949007794f, 0.0986677334f, -0.162119523f},
  {0.100783966f, -0.107530162f, 0.0341520905f, 0.0938355476f, -0.196800694f, 0.0794909969f, 0.099948667f, -0.0100338142f, 0.0548181459f, -0.0102885189f, 0.047242783f, -0.0157845225f, -0.0569161549f, 0.0962972268f, -0.0332964547f, 0.229056939f, -0.0403125174f, -0.202668741f, -0.269381106f, 0.057890974f, 0.0412116051f, 0.0632039234f, -0.0333903916f, 0.128619283f},
  {0.0621670038f, -0.181269109f, 0.167026907f, -0.20567596f, 0.112144403f, 0.161149189f, -0.0405537374f, -0.135185257f, -0.110219613f, -0.0199977309f, -0.167290851f, 0.0557889827f, 0.26290673f, 0.161296338f, 0.117899723f, -0.0308578331f, -0.138218477f, 0.138246492f, -0.064600043f, -0.129790872f, -0.119930983f, 0.048775956f, -0.105092339f, -0.193678558f},
  {-0.135425463f, 0.0515360795f, 0.0659309253f, 0.171703115f, -0.090749383f, 0.126836523f, 0.0384577475f, -0.17002295f, -0.295059115f, 0.105439641f, 0.04232876f, -0.212448508f, 0.251702547f, -0.014413693f, -0.111010469f, 0.271623373f, -0.0631797463f, -0.0992445573f, -0.160576746f, -0.173443496f, 0.0833619237f, -0.0791354328f, 0.107738011f, 0.0523647331f},
  {-0.0910208598f, 0.126109809f, -0.0329304524f, -0.0244471859f, -0.109541982f, 0.00587151572f, 0.0881654546f, -0.0128861181f, 0.017296616f, -0.0440362468f, -0.0588249303f, 0.000741019612f, 0.0187476128f, 0.00108307158f, -0.0834172443f, 0.245422915f, -0.087838687f, -0.0592881963f, -0.0210929271f, 0.0344546549f, 0.0700818524f, -0.00433536293f, 0.0285267998f, 0.0893158317f},
  {0.215430349f, -0.00947987568f, -0.0526135676f, 0.0640878454f, -0.0477484167f, 0.0320250914f, -0.05619267f, -0.0119004594f, 0.0393642783f, -0.12968263f, -0.0464745834f, 0.0869328082f, -0.0342489816f, -0.0962942317f, -0.0584829599f, -0.0306926388f, 0.117053874f, 0.0446087122f, 0.0412059724f, 0.0148856714f, -0.0612558685f, -0.0152656054f, -0.00228461856f, -0.0295451134f},
  {-0.0692638457f, 0.0896142125f, 0.0394406281f, -0.191349104f, 0.230422512f, 0.00620423537f, 0.00781893544f, -0.0544110388f, 0.0635189563f, 0.0290454645f, -0.0790517926f, 0.126755774f, 0.232921988f, 0.128200486f, -0.0609143414f, -0.0385684855f, -0.327869415f, 0.101420254f, -0.0323578641f, -0.0512389205f, -0.151805118f, 0.0510092378f, -0.0296289641f, -0.0455128513f},
  {-0.133810878f, -0.0545322001f, -0.0291614216f, -0.18276149f, 0.0971957147f, 0.175570071f, 0.211891755f, -0.14417392f, 0.056623213f, -0.0720905438f, 0.145097524f, -0.0210418012f, 0.0293773189f, 0.0679171756f, 0.091888018f, 0.00775579223f, -0.203736842f, -0.0129170865f, 0.0607053488f, 0.0757826343f, -0.0580889843f, 0.0293468852f, -0.116094165f, 0.0668388158f},
  {0.197276533f, 0.19808042f, -0.228955314f, -0.0990037695f, -0.0866309032f, -0.08939825f, -0.0313226841f, 0.0178654734f, 0.286562532f, -0.0805869848f, -0.172249928f, 0.0276187509f, -0.255046606f, 0.00286720321f, -0.133012295f, -0.488523275f, 0.124990821f, 0.106528156f, 0.216245696f, 0.312297702f, -0.031394355f, 0.0103725819f, 0.0403874777f, -0.0683028176f},
  {-0.0894117579f, -0.0879247561f, 0.023795506f, -0.197876975f, 0.0554837175f, -0.110987939f, -0.0790310726f, 0.0674596801f, 0.144510239f, 0.109854624f, -0.292958915f, -0.00317542325f, 0.178825393f, -0.210258782f, 0.0110135972f, -0.261577606f, -0.0882678926f, 0.293533653f, -0.0499904938f, 0.0475596823f, -0.0241681281f, 0.281386524f, -0.25174275f, 0.0222028065f},
  {0.045504611f, -0.160360828f, -0.173089653f, 0.21904619f, -0.101663925f, 0.0810396001f, -0.0520942099f, 0.106682487f, -0.250411689f, 0.0467758179f, 0.0779314488f, -0.139028683f, -0.0847258195f, -0.131869823f, -0.0741512105f, 0.278662562f, 0.15219298f, -0.261694461f, 0.0162505135f, -0.0106278043f, 0.120106183f, -0.0912946537f, -0.0758626536f, 0.00976782572f},
  {0.120761573f, 0.214821592f, -0.0181571841f, -0.0433818884f, 0.054405205f, -0.0198272988f, 0.0768243223f, -0.0619120076f, 0.00131444423f, -0.00146128959f, -0.245283768f, -0.142034709f, 0.176248699f, 0.161305189f, -0.0931789055f, 0.197754681f, -0.103987552f, -0.0927636474f, 0.0723323748f, -0.154625967f, -0.0232794937f, 0.120409958f, 0.0842918232f, 0.00334143103f},
  {0.0254306309f, 0.0631013364f, -0.0185397025f, -0.212517664f, 0.0219747797f, 0.177903116f, -0.00248911092f, -0.0543276407f, -0.00428289268f, 0.0103018647f, 0.0740856305f, -0.104242414f, 0.339621395f, 0.302486807f, -0.080320023f, -0.0467322096f, -0.274463832f, 0.173272476f, -0.0836660638f, -0.0479029454f, -0.224223182f, 0.00139397371f, 0.0900553167f, 0.00375818508f},
  {-0.151111498f, -0.272293508f, 0.0959316492f, -0.2648426f, 0.173101529f, -0.219022855f, -0.137563065f, -0.0750437677f, 0.0562955104f, 0.106266692f, 0.0334660113f, 0.036480967f, 0.100904413f, -0.0237890538f, 0.0155004337f, -0.0759901032f, -0.0925668702f, 0.216198459f, -0.0142349703f, 0.0548767783f, -0.00382280885f, 0.0201482456f, -0.0975600705f, 0.0254202411f},
  {-0.108724378f, 0.077055037f, 0.185403913f, -0.0438005514f, 0.0124649331f, 0.00184565131f, -0.088233538f, 0.000916804885f, 0.0397481434f, 0.0631654039f, -0.0300858598f, -0.0203700699f, 0.0531994142f, -0.0652867109f, -0.0542124957f, -0.219831496f, 0.000831291894f, 0.0531187952f, -0.209817365f, 0.178870082f, 0.0937644392f, -0.00573504902f, 0.000175496971f, 0.0356786847f},
  {0.0673178881f, 0.104673967f, -0.178394139f, 0.14624989f, 0.097229071f, 0.138847694f, 0.15961118f, -0.079956606f, -0.00217502564f, -0.0961747691f, -0.0698962808f, -0.0492391996f, -0.132481918f, -0.032782685f, -0.0951075479f, 0.330247194f, -0.0846977606f, -0.0876910016f, 0.0260797311f, -0.160302967f, 0.00101364183f, 0.00297613838f, 0.229013413f, 0.0471471101f},
};

static const float kLayer0Conv1dWeight[48][4] = {
  {-0.030661488f, 0.221771479f, 0.00223049405f, -0.100459777f},
  {-0.041748967f, -0.0482902415f, -0.182654366f, -0.227045491f},
  {0.0524262153f, 0.243974924f, -0.0165132657f, -0.00531531218f},
  {-0.128805906f, -0.300804198f, -0.223953381f, -0.159888357f},
  {-0.180236191f, -0.0744306147f, 0.0307486821f, 0.0292373914f},
  {-0.128045738f, -0.262329161f, -0.0977717713f, -0.0295271054f},
  {0.376696467f, 0.173155814f, 0.0507916585f, -0.00936209876f},
  {-0.311846018f, -0.179313958f, 0.126782909f, -0.071064204f},
  {0.0981641114f, 0.116368808f, -0.133876726f, -0.0173786674f},
  {0.0320096202f, -0.0624471381f, -0.428531229f, -0.111162156f},
  {0.0720981956f, -0.328637987f, 0.0273904391f, 0.0687429756f},
  {0.336014956f, 0.368487507f, -0.249004185f, -0.10531076f},
  {-0.253995627f, 0.152589515f, 0.0663713068f, -0.0166676641f},
  {0.410331905f, -0.155607119f, -0.10219083f, -0.0855016261f},
  {0.393858701f, 0.230191201f, -0.168698743f, -0.14919351f},
  {0.10500107f, -0.12509194f, 0.310009003f, -0.180043653f},
  {-0.13091661f, -0.179500014f, -0.0955201909f, -0.357452542f},
  {0.24386254f, -0.27158609f, -0.0711804181f, -0.0714821517f},
  {0.0950831771f, -0.388740629f, -0.263100713f, 0.230846301f},
  {0.193517029f, -0.151740015f, 0.302050889f, -0.287562698f},
  {0.252824277f, 0.174607992f, -0.17240271f, 0.155049831f},
  {0.170519441f, 0.323157161f, 0.372157395f, 0.0999795273f},
  {0.165808156f, 0.156174257f, 0.132073864f, 0.115233168f},
  {-0.252335668f, 0.0155475326f, -0.0382344723f, -0.0142219476f},
  {-0.195602909f, -0.120887242f, 0.158020437f, -0.215144187f},
  {0.181300774f, -0.223990083f, -0.44939959f, 0.212064087f},
  {-0.127375126f, 0.274632871f, -0.234048948f, 0.182570219f},
  {0.0584841259f, 0.0399045944f, 0.227386937f, -0.13776727f},
  {-0.382023484f, -0.0893930793f, -0.0815196633f, 0.153402284f},
  {0.194578797f, 0.0343558863f, 0.0231725387f, 0.299820036f},
  {-0.225948542f, 0.194075361f, -0.123133838f, 0.0195043832f},
  {0.140439436f, -0.274540246f, 0.253921419f, 0.185525715f},
  {0.0710852072f, -0.0882358998f, 0.221969292f, -0.101312861f},
  {0.273387164f, -0.00826714467f, 0.201730207f, 0.0528579801f},
  {-0.0218804106f, -0.419759959f, 0.206985503f, 0.153788432f},
  {-0.250740051f, 0.25578776f, 0.21445249f, -0.222966686f},
  {-0.0217199922f, 0.0465855971f, -0.242971972f, 0.0320595689f},
  {0.204487026f, -0.277406186f, 0.0441135056f, -0.0359534025f},
  {0.028881669f, -0.00477887411f, 0.0220793691f, 0.180810526f},
  {0.348301768f, 0.10822577f, -0.113293074f, -0.0265183672f},
  {-0.214776382f, -0.240340829f, 0.324480265f, 0.0403348617f},
  {0.215268373f, 0.024150379f, -0.406497329f, 0.00848561898f},
  {0.342248559f, -0.0874236599f, 0.0191200487f, 0.0669180304f},
  {0.178670689f, 0.212970793f, -0.138344362f, 0.200576916f},
  {0.0516277589f, -0.132096156f, 0.112729482f, -0.308972955f},
  {-0.126266822f, 0.214363486f, -0.0805375427f, -0.191701472f},
  {-0.172874391f, 0.248597041f, 0.287201673f, -0.108976841f},
  {-0.137102872f, -0.132569462f, -0.280980766f, 0.267815858f},
};

static const float kLayer0Conv1dBias[48] = {0.00774798682f, 0.0358662456f, -0.0086233234f, -0.0232806038f, -0.0164713282f, 0.0100669302f, -0.0231999662f, 0.0891499743f, -0.0280951355f, -0.0181636512f, 0.017691737f, 0.105728105f, -0.02930036f, -0.0426549166f, -0.0472926237f, -0.0336201638f, -0.0320443064f, -0.045630075f, 0.0708738118f, -0.0153937386f, 0.0650841594f, -0.0571061671f, 0.0609951094f, -0.0365936644f, 0.0643715635f, 0.0697415024f, -0.0245078746f, -0.0828991607f, 0.0503249541f, 0.00486983452f, 0.00431445846f, -0.0189161021f, -0.0128483819f, -0.064242661f, 0.11999765f, -0.00279542012f, 0.0125288796f, 0.005831338f, 0.0707466453f, -0.0267603379f, 0.0642188936f, 0.0957771689f, -0.0174190532f, -0.032959912f, -0.0248402618f, 0.0750338361f, -0.00915837754f, 0.0466116406f};

static const float kLayer0XProj[34][48] = {
  {0.00515221385f, 0.047179766f, 0.064682357f, -0.153624117f, 0.0140280519f, 0.0516037345f, -0.189487353f, -0.0293594301f, -0.0825708136f, 0.0750919506f, -0.149413869f, -0.294563621f, -0.242991462f, 0.392749637f, -0.138424039f, -0.323950082f, 0.0100683002f, 0.0858062357f, -0.337024122f, 0.478625864f, 0.0698871911f, 0.0289191566f, -0.0787056163f, 0.191348016f, -0.272423059f, 0.276404798f, -0.190954059f, 0.1047718f, 0.19501847f, 0.0649706349f, -0.151568368f, 0.55661267f, 0.187885612f, -0.187768206f, -0.409053773f, -0.183798641f, 0.154115379f, -0.286350757f, -0.0394497439f, 0.106153615f, 0.313686967f, 0.0689806864f, -0.291633755f, 0.0345449336f, 0.126041099f, -0.309034735f, 0.236281201f, 0.212896168f},
  {-0.0643901676f, 0.0205246899f, -0.0166075062f, -0.00418074196f, -0.0279385187f, -0.092733562f, 0.205367818f, -0.0134609295f, -0.0213325843f, 0.0129654109f, 0.0870272815f, 0.174184769f, 0.17132324f, -0.36345917f, 0.253580332f, 0.410686433f, 0.0422896408f, 0.231471211f, 0.365915626f, -0.476828098f, -0.0907752812f, 0.0278279819f, 0.0447265133f, -0.0948914066f, 0.229508981f, -0.277948737f, 0.281211674f, -0.0817898437f, -0.349531829f, -0.0262971204f, 0.18912667f, -0.306515157f, 0.0211119037f, -0.00662423531f, 0.45883587f, 0.380426884f, -0.0542924181f, 0.244122013f, 0.0539177693f, -0.116370536f, -0.133274436f, -0.154086694f, 0.361263573f, 0.0113715036f, -0.188993558f, 0.214313716f, -0.0746604577f, -0.110390604f},
  {0.0318354741f, 0.155101523f, 0.0925671905f, -0.0985535607f, 0.0879836082f, -0.0915974006f, 0.19683753f, -0.0084917713f, 0.000916364836f, 0.0210802536f, 0.114013411f, 0.14583014f, -0.000630601076f, -0.135664061f, 0.155004352f, 0.0767210871f, 0.0494161919f, 0.173913956f, 0.261396468f, 0.0544119813f, 0.0910810977f, -0.0947499201f, 0.10418234f, -0.0402603596f, 0.0424969234f, 0.0992611796f, -0.0894750804f, -0.0201931074f, -0.127111763f, 0.0845477208f, -0.0719334111f, -0.243348792f, -0.183620334f, 0.0500885509f, 0.393923372f, 0.329819441f, -0.12124452f, 0.17229937f, 0.0974103361f, -0.0918614939f, -0.0464775674f, -0.07895156f, 0.150449514f, 0.0896091387f, -0.220384046f, 0.086854741f, 0.125913277f, -0.0457348973f},
  {0.0605115928f, 0.133404255f, 0.0755853876f, -0.106068037f, 0.112631962f, -0.0148240281f, 0.140653387f, 0.032965377f, 0.0718954578f, -0.00268029934f, -0.0186342299f, 0.25773412f, -0.0839162841f, -0.0897741392f, 0.00460548094f, 0.0566269718f, -0.0208461657f, 0.0946631879f, 0.13500683f, -0.0160959158f, 0.108663201f, -0.0725187138f, 0.14724426f, -0.0277890116f, 0.0857417658f, -0.0062728487f, -0.0793472156f, 0.079270646f, -0.0697764009f, 0.106850706f, -0.011278132f, -0.10073635f, -0.114322238f, 0.00302155199f, 0.12684077f, 0.256553054f, -0.0990342721f, -0.0733375028f, 0.0590179451f, 0.0174873788f, -0.0905196592f, -0.0729822442f, 0.0853542238f, -0.0128528289f, -0.129170373f, 0.105543151f, 0.123493336f, -0.0608235672f},
  {0.0957755074f, 0.0313196667f, 0.0672544837f, -0.0472138785f, 0.0917109326f, -0.0160729475f, 0.165019527f, -0.022737585f, 0.112987801f, -0.0303939227f, 0.101674512f, 0.177479863f, 0.0572654866f, -0.124097586f, 0.0799902529f, 0.0457192361f, 0.00116057682f, 0.00363100413f, 0.138816565f, -0.250188529f, 0.0666718856f, -0.037043076f, 0.120749764f, 0.0120591121f, 0.0106411939f, -0.00103627192f, 0.0864287838f, 0.0347068049f, -0.0360161811f, 0.0987893417f, 0.172860637f, -0.182097122f, 0.00160410558f, 0.00276695681f, 0.190822363f, 0.218047306f, -0.049266506f, -0.181118473f, 0.0147403553f, -0.0394473448f, -0.0865823105f, -0.0536036752f, 0.0939239264f, -0.0300925486f, -0.0322093591f, 0.0900142789f, 0.0773321092f, -0.0466429964f},
  {0.0259344094f, 0.0279274788f, -0.135614365f, -0.0705216154f, -0.103357114f, 0.156021684f, -0.129590333f, -0.0387710556f, -0.0984125957f, 0.0206784494f, -0.208113924f, 0.00743586197f, -0.175518379f, 0.0393410549f, -0.0052680932f, -0.0234867912f, -0.0625583306f, 0.0258660428f, -0.229438215f, 0.145527527f, 0.0052085747f, -0.0497442335f, -0.0986635685f, -0.0706002861f, -0.0734116435f, 0.180973649f, -0.0909418538f, -0.0073606465f, -0.070689328f, -0.0513947271f, -0.217058137f, 0.0541857257f, -0.0319711082f, -0.00923016388f, -0.154975012f, -0.130802467f, -0.0176191628f, 0.0312127862f, -0.0110012274f, -0.0381469354f, 0.00280047953f, -0.0128575405f, -0.0752109513f, -0.0636923835f, -0.0229817294f, -0.127094373f, -0.0222889576f, 0.0404717289f},
  {0.01768177f, -0.0847932696f, -0.20452033f, 0.0554063767f, -0.0940965116f, 0.172387034f, -0.245334819f, -0.0355962887f, -0.13456507f, -0.0533652529f, -0.175035834f, -0.135481849f, -0.0340059623f, 0.140740618f, -0.13535051f, -0.0195878502f, -0.100782037f, -0.0719068572f, -0.159272298f, 0.147297978f, -0.0432931259f, -0.0222659893f, -0.166895911f, -0.00834048819f, -0.0122951083f, 0.123992577f, -0.0756174847f, 0.0983996615f, -0.0338644944f, -0.099682495f, -0.158174828f, 0.181244671f, -0.00678663747f, -0.0560014993f, -0.195746243f, -0.138660386f, 0.00927632768f, 0.0313976035f, -0.0713572428f, -0.0175992046f, 0.186942354f, -0.0809906572f, -0.113206111f, -0.0391104072f, 0.0432637036f, -0.0681577995f, 0.10648904f, -0.0286214873f},
  {0.0107425787f, 0.155072466f, 0.242045134f, -0.136545077f, 0.162040919f, -0.282699645f, 0.231514484f, 0.069375053f, 0.156658128f, 0.26039207f, 0.145421475f, -0.0240045171f, 0.159246922f, 0.0145739513f, 0.113238968f, 0.0564248301f, 0.133522198f, 0.284676373f, 0.279603481f, -0.176519156f, 0.0914462656f, 0.0305398274f, 0.146916375f, 0.0383505374f, 0.0242209099f, -0.0774211287f, 0.133726507f, -0.0408432074f, 0.153196588f, 0.127213299f, 0.216377452f, -0.131511062f, -0.0465598181f, 0.0936424658f, 0.251057714f, 0.209092215f, 0.089319855f, 0.0721118152f, 0.0748337805f, 0.100567013f, 0.072089687f, 0.0562532544f, 0.150621638f, 0.232617363f, -0.176903859f, 0.131748214f, 0.0902369246f, 0.0262790173f},
  {-0.0375256613f, 0.159882411f, 0.0792843178f, -0.343114525f, -0.156319082f, -0.163162738f, -0.132927135f, 0.0536237992f, -0.0719945505f, 0.108752951f, -0.051635392f, 0.0699717253f, 0.132545918f, 0.0611284189f, -0.322011143f, 0.0210712943f, 0.104018182f, 0.34399879f, -0.0429387949f, 0.127883747f, 0.205082923f, -0.0204730257f, 0.0250771642f, -0.111072294f, -0.129250929f, 0.203389511f, -0.0551008508f, 0.107080914f, -0.0104550831f, 0.175914064f, -0.22545734f, -0.11483784f, -0.188155636f, 0.0524579994f, -0.153532431f, 0.179664493f, -0.0711913854f, 0.108443171f, 0.0181290358f, 0.0890872404f, 0.281744421f, 0.0479968227f, 0.00688138511f, 0.20838058f, 0.0798079818f, 0.0968942791f, 0.150512442f, -0.0620098226f},
  {0.0194894467f, 0.111536041f, 0.16137442f, -0.0362596624f, 0.225597441f, -0.0195076093f, 0.190199554f, 0.102872536f, 0.131846562f, -0.0483480096f, 0.00422825525f, 0.0414715149f, 0.0480809771f, -0.0816451386f, 0.104062803f, 0.0650661141f, 0.0331663527f, -0.173525885f, -0.0892898068f, 0.0111267567f, 0.108624078f, -0.0180218201f, 0.16043067f, 0.0535714552f, 0.232526943f, -0.0558866225f, -0.0185399596f, -0.114599012f, 0.0137324687f, 0.0917285681f, 0.170392841f, 0.0665150732f, 0.154971004f, -0.0835206732f, 0.0553246774f, -0.365085363f, 0.0540954992f, -0.217162907f, 0.049720984f, 0.0409455933f, -0.0933562294f, 0.110493615f, -0.117154919f, -0.11221242f, -0.301596761f, -0.085129872f, -0.336560965f, -0.189288497f},
  {0.258220583f, -0.129390195f, -0.082893461f, -0.115366168f, 0.144504249f, 0.115132116f, 0.506401539f, 0.241950333f, 0.287543863f, -0.333607584f, -0.100951873f, 0.133400157f, 0.241391376f, 0.014077642f, 0.0680111125f, 0.164010972f, -0.206233278f, -0.216573417f, -0.165321216f, -0.104321241f, 0.0315748788f, -0.123979136f, 0.237240359f, -0.174351811f, 0.350872785f, -0.00891124457f, -0.00562628126f, -0.282331795f, 0.0438108258f, -0.10292843f, 0.123005286f, 0.0219785627f, -0.0294238254f, 0.00289511285f, 0.18112129f, -0.263042748f, -0.154625252f, -0.206481785f, 0.0957625583f, 0.137197569f, -0.0492260456f, 0.166830018f, 0.140466049f, -0.34007147f, -0.147631541f, 0.114549406f, -0.362098604f, -0.493151754f},
  {-0.0577415973f, 0.000749614148f, 0.173424453f, 0.0193424635f, 0.019054031f, -0.176576704f, -0.134628356f, 0.0485608093f, -0.176121861f, 0.196483999f, 0.289258599f, -0.156537682f, -0.231906146f, 0.0292872563f, 0.139305845f, -0.179805145f, 0.0901470333f, 0.130646199f, 0.196303278f, 0.113913037f, -0.0624751188f, 0.0199390445f, -0.0883580223f, 0.152534321f, -0.0777796954f, -0.104012139f, -0.0973231718f, 0.0275252834f, 0.152542606f, 0.0356344543f, 0.0836986974f, -0.260074645f, 0.00898346212f, 0.195226029f, -0.158178017f, 0.342960924f, 0.0227365997f, 0.0177938659f, -0.0536008812f, -0.00394589733f, 0.0726362839f, -0.0858592466f, 0.0485940352f, 0.309100032f, 0.0819572285f, 0.0110135647f, 0.292074472f, 0.336363226f},
  {-0.374080807f, -0.0294358134f, -0.0435982123f, 0.248359293f, -0.174885765f, -0.213304996f, -0.320923805f, 0.105697393f, -0.230313256f, 0.146792904f, -0.0680015981f, -0.390046656f, -0.034664683f, 0.121585868f, -0.0289986208f, -0.0817843303f, 0.0345407389f, -0.0710059479f, 0.197451383f, 0.0667203441f, -0.206634849f, 0.18698287f, -0.167809293f, 0.246644825f, 0.031409841f, -0.150762439f, -0.166687116f, -0.0280411486f, 0.153543606f, -0.180375203f, 0.130004495f, 0.0121070649f, 0.20778048f, 0.155806601f, -0.355748981f, 0.201226741f, 0.148418427f, -0.0747859776f, -0.258409381f, 0.158021316f, -0.158840343f, -0.178420022f, -0.0306939594f, 0.0915416256f, 0.137744829f, -0.14239794f, 0.179515406f, 0.286284178f},
  {0.061683055f, -0.0536857136f, 0.0163962021f, -0.164040908f, 0.0218919013f, 0.116349071f, -0.0728264973f, 0.228843227f, -0.172458664f, -0.179763854f, -0.110547498f, -0.145241946f, -0.00428850856f, -0.134666532f, 0.0824957117f, -0.0898270532f, -0.0798385143f, 0.0402486362f, -0.0241499394f, 0.0774585381f, -0.230046317f, -0.145779207f, 0.26446107f, -0.140741289f, 0.150009796f, -0.237081736f, 0.253027529f, -0.00327741704f, 0.0221491531f, 0.144467145f, 0.289301157f, -0.0645979941f, 0.0018416472f, 0.0530243814f, 0.0390614904f, -0.0148027446f, -0.153618842f, -0.161541894f, 0.198485643f, 0.345538855f, 0.191128105f, 0.0806901604f, 0.123060443f, -0.038884256f, -0.0480531268f, 0.160467654f, -0.0915727913f, 0.480259389f},
  {-0.268105328f, 0.0290236007f, -0.482922971f, 0.280542761f, -0.306693852f, 0.129554734f, -0.591572821f, 0.260299474f, -0.217097998f, 0.223566785f, -0.387931466f, -0.149168164f, 0.0533254333f, -0.157956347f, -0.384794414f, -0.0363178216f, -0.0995112211f, -0.158513665f, -0.151877537f, 0.173022941f, -0.387265265f, 0.0499227121f, -0.142051056f, 0.0468098f, 0.140637159f, 0.13865377f, 0.225768149f, 0.040120367f, 0.350989759f, -0.247752741f, 0.184475496f, 0.18834576f, 0.0538730137f, 0.239420369f, -0.401040941f, 0.0182347521f, 0.100834787f, -0.280045122f, -0.00112929835f, 0.233879656f, -0.107897274f, -0.172867358f, -0.0382016413f, -0.110718399f, 0.0458677113f, -0.00888536777f, 0.109266721f, 0.419579476f},
  {0.102470085f, -0.190175295f, -0.0206447877f, -0.0225511603f, -0.127766579f, 0.31353116f, -0.190354794f, 0.275728315f, -0.0410869196f, -0.265850186f, -0.261233181f, -0.213547274f, -0.290392578f, -0.0660126209f, -0.0784769282f, -0.206940278f, -0.381769031f, -0.0719758049f, -0.243459016f, 0.171950862f, -0.184692636f, -0.335927933f, 0.264490157f, -0.277184248f, 0.256247103f, 0.122018136f, -0.116762899f, 0.256926656f, 0.0409988947f, -0.172849f, -0.00573853496f, -0.418005019f, -0.0312830284f, 0.238957271f, -0.101672374f, -0.0371638536f, -0.214642808f, -0.276183546f, 0.38915056f, 0.331263244f, 0.220174208f, 0.167675748f, 0.243536949f, -0.281709224f, -0.163688764f, 0.295024484f, 0.0847792551f, 0.115942277f},
  {0.0636232123f, 0.0221351013f, -0.11552202f, 0.234973624f, 0.0181879234f, -0.10790541f, 0.20542112f, -0.0611343607f, 0.292510986f, 0.197449327f, 0.324886739f, 0.0233760439f, 0.210804448f, 0.16982238f, 0.00483982358f, 0.0834592581f, 0.193816006f, 0.0466861911f, 0.183487639f, -0.00767848687f, 0.225203976f, 0.207861826f, -0.315379649f, 0.129655108f, -0.115754321f, -0.074934788f, -0.368865997f, -0.155194074f, -0.036624752f, -0.0768555328f, -0.275031358f, 0.223354667f, 0.044122465f, -0.173208892f, -0.0695493743f, 0.00678842654f, 0.161740527f, 0.330481887f, -0.269755572f, -0.177879483f, -0.0345041864f, -0.0367404707f, -0.124473557f, 0.153485492f, 0.112487905f, -0.254181534f, -0.0106962398f, -0.464724839f},
  {-0.204673961f, -0.160855368f, -0.165191278f, 0.108155504f, 0.142269403f, -0.0521820821f, -0.391178191f, 0.149012834f, 0.134780824f, 0.136332497f, -0.0825786442f, -0.0750986859f, -0.00139505777f, 0.129659384f, 0.0435893238f, -0.0180946402f, -0.201749712f, -0.0659750551f, 0.0367754512f, 0.0175586827f, -0.314488471f, 0.206524387f, -0.249080926f, 0.113498613f, 0.0238656253f, 0.023989249f, -0.0220464543f, -0.0656405166f, 0.0670203865f, -0.267747849f, 0.0948812589f, 0.174239188f, 0.299396068f, -0.220717534f, -0.190341637f, 0.145837218f, 0.218244553f, -0.174037188f, 0.0304595642f, 0.266056001f, 0.104935788f, 0.137915328f, -0.0017143311f, -0.241404325f, 0.0563127287f, -0.0351176485f, -0.0316875651f, 0.213222146f},
  {0.112546064f, -0.148149326f, -0.170039162f, 0.0544312932f, -0.11570657f, 0.170090497f, 0.045177158f, 0.0995497182f, 0.126505077f, -0.118854642f, 0.136517301f, 0.170838133f, 0.186309859f, -0.189061627f, 0.150234655f, 0.0582602024f, -0.179317355f, 0.0946097374f, 0.0649968982f, -0.24210462f, -0.114025496f, -0.0687584057f, 0.112941213f, -0.0603524037f, 0.133355156f, -0.0468868501f, 0.134146675f, 0.0319660902f, 0.163139507f, -0.0783701241f, 0.324226379f, -0.0089483168f, -0.0270560738f, 0.0388016365f, 0.215793848f, 0.190082997f, 0.0045972378f, -0.0405419059f, 0.119604453f, 0.0584522747f, -0.0023991398f, -0.00865362491f, 0.0940141305f, -0.177505866f, 0.0135730598f, 0.176871762f, 0.00911732577f, -0.0848369673f},
  {0.205614552f, -0.109752603f, -0.0643549338f, -0.095965229f, -0.0359762125f, -0.00674571283f, 0.0841406807f, 0.0567680039f, 0.114972956f, -0.142539546f, 0.10642609f, 0.127223328f, -0.013414518f, -0.0803833529f, 0.223216921f, 0.0591350012f, -0.0737835169f, 0.121009052f, 0.0446306244f, -0.156777754f, 0.0317701362f, -0.182762608f, 0.200765193f, 0.0167227592f, 0.0561637394f, -0.116049469f, -0.0918423831f, -0.140185624f, 0.116298504f, 0.0437453836f, 0.116092846f, -0.081084989f, -0.173199579f, 0.0404327698f, 0.169036657f, 0.0799635351f, -0.0646803826f, -0.0565763637f, 0.0835805163f, 0.0462141149f, 0.0286569074f, 0.125910178f, -0.00151635741f, -0.0921108425f, -0.0152372848f, 0.075441435f, -0.104740188f, -0.114593185f},
  {0.0870880261f, -0.0671222657f, -0.0456456989f, -0.0167498924f, -0.115423895f, -0.0354623981f, 0.096471712f, 0.0872538164f, 0.123136289f, -0.174543485f, 0.12739794f, 0.105270036f, 0.0195130575f, -0.0241981689f, 0.0290493444f, -0.0238244515f, -0.117037959f, 0.139349371f, 0.0654728264f, -0.0268970802f, 0.0387282446f, -0.133547753f, 0.183772311f, -0.0786227882f, 0.103400424f, -0.0681029782f, -0.0894515961f, -0.00285063242f, 0.216259882f, -0.0207407866f, -0.0316319019f, -0.225571051f, -0.190224856f, 0.171686083f, 0.0809979662f, 0.162268564f, -0.111665994f, 0.016376134f, 0.122489035f, 0.143797591f, 0.00252233283f, 0.0634444356f, 0.0396641418f, -0.154311791f, 0.0418628678f, 0.107523933f, -0.117260747f, -0.178710178f},
  {0.0919182748f, 0.0299664699f, -0.0214891825f, 0.0447906032f, 0.044046279f, 0.144651771f, -0.131285831f, -0.15906933f, -0.0395156965f, 0.124023847f, -0.00682799332f, -0.0268130489f, -0.123083815f, 0.148795798f, -0.0387193263f, 0.0153371813f, 0.0432325974f, -0.00440103514f, -0.109540656f, -0.0162311234f, 0.016558174f, 0.0533561409f, -0.183653057f, 0.169878036f, -0.130698398f, 0.025571553f, -0.0484430529f, -0.13900803f, -0.21060881f, -0.0294142887f, -0.0426407233f, 0.0471707247f, 0.113703288f, -0.0793477222f, -0.0669446215f, -0.0997862592f, 0.068365097f, -0.131686777f, -0.08802858f, -0.195148185f, 0.0342025273f, -0.0183378104f, -0.120101862f, 0.0486109927f, -0.0962454006f, -0.153480887f, -0.0407841615f, 0.132905394f},
  {0.0827722773f, -0.0410571806f, -0.144326106f, 0.12207295f, -0.0471657775f, 0.170163244f, -0.245104387f, -0.136830926f, -0.0703375265f, 0.0189234708f, -0.0865606666f, -0.0702928975f, 0.00956105068f, 0.105611339f, -0.0497204214f, 0.0218555052f, -0.051543355f, -0.0412671007f, -0.148219734f, 0.0698836669f, -0.00731058279f, 0.0742193013f, -0.188873425f, 0.0587895624f, -0.125883996f, 0.0997229517f, 0.0213959552f, 0.0118125034f, -0.167815894f, -0.0557103232f, -0.0572791547f, 0.317069799f, 0.124636784f, -0.131873399f, -0.113936968f, -0.0961367115f, 0.116550408f, -0.0270926803f, -0.159315974f, -0.139685467f, 0.205827653f, -0.0946515426f, -0.100878403f, -0.0601181313f, -0.0190691184f, -0.138376161f, 0.138670817f, 0.0654243082f},
  {-0.0437721536f, 0.0836000666f, 0.222472832f, -0.20038256f, 0.166278914f, -0.191175833f, 0.357746542f, 0.103236586f, 0.112765849f, 0.104939699f, 0.080202654f, 0.0375876576f, -0.0637643412f, 0.0573148429f, 0.157334372f, -0.124834284f, -0.0562988818f, 0.114935942f, 0.310678691f, 0.101809755f, 0.041622892f, -0.196932673f, 0.246752933f, -0.0501418188f, 0.0997414663f, -0.210150182f, -0.178198904f, -0.00754127558f, 0.167080581f, 0.103092998f, -0.192805275f, -0.260737389f, -0.197609872f, 0.158131167f, 0.117657527f, 0.157468647f, -0.129454672f, 0.173716456f, 0.265621632f, 0.118419632f, -0.154547319f, 0.0153044555f, 0.0198917706f, 0.0415620096f, -0.0725704655f, 0.0992193222f, 0.0152067868f, 0.00120563665f},
  {-0.0161161572f, -0.0488049351f, -0.0422601923f, -0.00336724683f, 0.0216865968f, 0.0984439403f, -0.123157494f, -0.198664039f, -0.0079666879f, 0.0792515501f, -0.0955281705f, 0.274615467f, -0.213529512f, -0.192969248f, 0.00559175853f, -0.106974505f, -0.0808160752f, -0.0356100835f, 0.131122291f, 0.0796406642f, -0.126372978f, 0.0284034312f, -0.0248107612f, 0.196702212f, -0.200532556f, 0.0451189317f, -0.11312212f, -0.071110189f, -0.136912331f, 0.0175647214f, -0.114463188f, 0.156456202f, 0.248135895f, -0.316455513f, 0.0764247254f, 0.150215715f, 0.282868028f, -0.0403802469f, 0.0346584246f, -0.197481796f, -0.16404815f, -0.246386334f, -0.162795961f, -0.301948875f, 0.0200787205f, -0.133630961f, 0.0461641215f, 0.213465303f},
