#pragma once

#define BABYMAMBA_VARIANT_CROSSOVER 0
#define BABYMAMBA_VARIANT_CHANNEL_INDEPENDENT 1
#define BABYMAMBA_DATASET_NAME "wisdm"
#define BABYMAMBA_DISPLAY_NAME "WISDM"
#define BABYMAMBA_SEED 29
#define BABYMAMBA_SEQ_LEN 128
#define BABYMAMBA_IN_CHANNELS 3
#define BABYMAMBA_NUM_CLASSES 6
#define BABYMAMBA_D_MODEL 24
#define BABYMAMBA_D_STATE 16
#define BABYMAMBA_D_INNER 48
#define BABYMAMBA_DT_RANK 2
#define BABYMAMBA_D_CONV 4
#define BABYMAMBA_NUM_LAYERS 4
#define BABYMAMBA_STEM_KERNEL 5
#define BABYMAMBA_PATCH_KERNEL 16
#define BABYMAMBA_PATCH_STRIDE 4
#define BABYMAMBA_PATCH_OUT_LEN 31
#define BABYMAMBA_SCAN_IMPL_FALLBACK 1
#define BABYMAMBA_USE_INT8_PROJECTIONS 1
#define BABYMAMBA_FIXTURE_LABEL 1

static const char* const kBabyMambaClassNames[BABYMAMBA_NUM_CLASSES] = {"Walking", "Jogging", "Upstairs", "Downstairs", "Sitting", "Standing"};

static const float kStemWeight[24][1][5] = {
  {
    {-0.497670501f, -0.198713422f, -0.539254725f, 0.641162097f, 0.287485123f},
  },
  {
    {0.220494837f, 0.0658124462f, -0.548944473f, -0.279110163f, 0.8399266f},
  },
  {
    {-1.00148094f, 0.0705740601f, 0.761990368f, -0.28352049f, 0.346456885f},
  },
  {
    {0.126167193f, 0.237428129f, -1.06960857f, -0.155492112f, 0.443102539f},
  },
  {
    {-0.317789048f, -0.101469234f, 0.0265979003f, 0.952465415f, -0.51245755f},
  },
  {
    {0.132198468f, 0.364747286f, 0.264603764f, 0.260534197f, 0.0327968784f},
  },
  {
    {0.283309013f, 0.117275536f, 0.608443797f, 0.0692386106f, 0.19043915f},
  },
  {
    {0.02368089f, -0.61858511f, 0.412386268f, 0.96107626f, -0.960323036f},
  },
  {
    {-0.128496036f, -0.251535922f, 0.0410606712f, -0.0872428939f, -0.817294359f},
  },
  {
    {-0.498503059f, -0.574619293f, 0.0618986934f, 0.0060862652f, 0.447465152f},
  },
  {
    {0.569802403f, 0.000931359711f, -0.21964407f, -0.208203867f, -0.812743247f},
  },
  {
    {0.499877781f, 0.0415050834f, -0.902438521f, 0.0737230852f, -0.317736208f},
  },
  {
    {0.789212346f, 0.154711396f, -0.632163882f, 0.630723298f, -0.652974725f},
  },
  {
    {0.182380289f, 0.544693828f, 0.180542797f, -1.00398314f, 0.251431912f},
  },
  {
    {0.0781328753f, -0.537079751f, 0.029787546f, -0.19524464f, 0.900878906f},
  },
  {
    {0.290122896f, 0.511765063f, 0.219983414f, -0.0782711431f, -0.0326629728f},
  },
  {
    {0.31546253f, 0.279374272f, 0.125944734f, 0.154995576f, 0.194304198f},
  },
  {
    {0.194237843f, -0.0578350052f, 0.933732927f, -0.266093284f, -0.243605718f},
  },
  {
    {-0.263494939f, 0.35801053f, 0.708949804f, -0.619250953f, -0.643762112f},
  },
  {
    {-0.341065198f, -0.693244338f, 0.00304523134f, -0.0996179655f, 0.209579602f},
  },
  {
    {-0.133751273f, 0.444890976f, 0.509994447f, -0.992158711f, 0.182898745f},
  },
  {
    {0.154207975f, -0.391066343f, 0.028237557f, 0.443406969f, 0.520385444f},
  },
  {
    {-0.352776408f, -0.270237654f, -0.275143415f, -0.369983703f, 0.776068807f},
  },
  {
    {0.104192019f, 0.199057937f, 0.369453758f, 0.249423593f, 0.0457060896f},
  },
};

static const float kStemBias[24] = {0.150365815f, 0.0524539873f, 0.219927952f, -0.0229708496f, 0.0190913808f, -0.20126982f, -0.0359969363f, -0.216637254f, 0.29194954f, 0.145764723f, 0.179518133f, -0.0783606395f, -0.252338648f, 0.102688879f, -0.142153293f, -0.0884192288f, 0.0673408732f, -0.113170013f, 0.188252911f, 0.0262978282f, -0.0790255368f, 0.0766831264f, 0.106781028f, -0.0293414127f};

static const float kPatchDepthwise[24][16] = {
  {-0.182661623f, 0.0383662134f, 0.107406832f, 0.150981292f, 0.122669525f, 0.1114498f, -0.097436823f, -0.0580671206f, -0.0337838531f, -0.000383727893f, 0.0750222132f, 0.15013741f, 0.167008892f, -0.0534894541f, -0.0957845896f, -0.196505219f},
  {0.0853829831f, 0.0237016492f, -0.126556486f, -0.202830732f, 0.0548968464f, -0.0222364645f, 0.0885056406f, -0.0582767799f, 0.00866670348f, -0.000303819543f, 0.0674190149f, 0.013844762f, -0.111887507f, -0.0200315211f, -0.0280375872f, 0.19418633f},
  {-0.187740028f, 0.214359388f, 0.0799309462f, 0.142721057f, -0.00534861255f, -0.192644283f, 0.147592425f, 0.0509796664f, -0.0435327441f, -0.0280308928f, 0.00337549997f, -0.168560296f, 0.165166005f, -0.0250344481f, -0.124711573f, -0.109993488f},
  {0.137760863f, -0.164755344f, -0.141609594f, -0.134438649f, -0.121041261f, 0.0327178501f, 0.109321132f, 0.057975769f, 0.0566206835f, -0.0255333986f, -0.117562488f, -0.0718116388f, 0.0125790089f, 0.127077103f, 0.120328307f, -0.0280213449f},
  {0.0729299486f, 0.0143547617f, 0.0593107827f, -0.15129827f, -0.0961726308f, 0.0234060939f, -0.00315003912f, 0.0732375309f, 0.00545262033f, -0.0558575131f, -0.0505278707f, -0.0114815757f, 0.189030379f, 0.0446712002f, -0.0370185673f, -0.136033416f},
  {0.0625269562f, 0.107903719f, -0.0273457225f, -0.0307942741f, -0.0425366685f, 0.0945373029f, -0.0272082705f, 0.139258757f, 0.0250139963f, 0.0540293641f, -0.122376218f, -0.0454178043f, 0.00615987647f, -0.00176470936f, 0.233588547f, 0.0501626544f},
  {0.0448550954f, 0.141101122f, 0.0288458616f, 0.0982396752f, 0.13062875f, 0.129826218f, 0.0606270656f, 0.059533976f, 0.0169988759f, -0.058394935f, -0.0439521521f, -0.200007051f, -0.153676614f, -0.0998512506f, -0.174372435f, -0.107887961f},
  {0.0850244313f, -0.0500914976f, -0.0495559387f, -0.0389385521f, -0.0498608872f, -0.00987742655f, -0.0858375281f, -0.0435960516f, -0.0452384129f, 0.108923607f, 0.175383583f, 0.0475772321f, -0.0367697552f, -0.28540495f, -0.175874397f, -0.15658094f},
  {0.164758176f, 0.201741621f, 0.155191794f, 0.130231231f, 0.0765512362f, 0.0669303685f, 0.0975927785f, -0.0317518823f, -0.0915971622f, -0.10698247f, -0.226603732f, -0.0374452621f, 0.0248193815f, -0.103669412f, -0.0789679214f, -0.162276432f},
  {0.00625381479f, -0.0420352519f, 0.107820466f, 0.00950958394f, -0.0608238056f, 0.112235576f, 0.147456422f, 0.224377841f, 0.140111089f, 0.174416915f, -0.134816006f, -0.0766927302f, -0.0475046039f, 0.0428893603f, -0.00836778432f, -0.190086916f},
  {-0.263834953f, -0.0820384622f, -0.0416366607f, -0.0285014659f, -0.0440830328f, -0.030174939f, 0.0589393228f, -0.106341191f, 0.261285871f, 0.183171868f, -0.0144176492f, 0.0308162998f, -0.0305984113f, -0.0243992209f, 0.0142387087f, 0.0189647358f},
  {0.125691712f, -0.100068562f, -0.06836164f, -0.162740141f, 0.0415298156f, 0.0145702055f, 0.129923806f, 0.179818586f, -0.0338996574f, -0.0540287159f, 0.0697389171f, -0.0670803487f, -0.104651175f, -0.187855169f, -0.114518933f, -0.0131452978f},
  {0.0293525551f, 0.00837424584f, 0.0189311858f, 0.140636459f, 0.0546472482f, 0.118327886f, -0.0252573062f, -0.0484997295f, 0.128415048f, 0.0620506182f, 0.115565106f, 0.131933972f, 0.0841199756f, -0.0135710584f, -0.1673453f, -0.202609643f},
  {0.0218177326f, -0.0854653493f, -0.0344146341f, 0.117536291f, 0.0178140178f, 0.0901382789f, 0.124965288f, -0.210116997f, 0.0783143193f, -0.0089903539f, 0.186167523f, 0.0651233718f, -0.0840608329f, -0.0412887707f, -0.178790838f, -0.140316799f},
  {0.0373202115f, -0.0997980088f, -0.0107459975f, -0.0278887916f, 0.0418332666f, 0.123106785f, 0.00822404958f, 0.0642601475f, 0.0566969626f, 0.049741108f, -0.0274476558f, -0.0776280239f, -0.148687497f, -0.243592039f, -0.0934571624f, -0.115300126f},
  {-0.242225602f, -0.158431634f, -0.0341114588f, -0.077249974f, -0.0162529629f, 0.042801097f, 0.0731690675f, 0.126374856f, 0.0380017124f, 0.0775466487f, 0.103735678f, 0.0282787327f, -0.0138237821f, 0.0202325583f, 0.160597637f, 0.0206985995f},
  {-0.106832393f, -0.0854168609f, -0.0936833099f, -0.128742859f, -0.16434963f, -0.0562994778f, -0.0645887181f, -0.174941957f, 0.0255663786f, 0.0250948854f, -0.00424954668f, 0.0483753048f, -0.0129882898f, 0.0483809412f, 0.069965899f, 0.0446882099f},
  {-0.155367211f, -0.134603903f, 0.0883316845f, -0.025553083f, 0.0597865544f, -0.0344420411f, -0.00116609689f, 0.0305890162f, -0.154490188f, -0.0349487551f, -0.056681864f, -0.00444021262f, -0.0570288859f, 0.163541317f, 0.0701520815f, 0.0387389772f},
  {-0.0673059225f, 0.119255267f, 0.202864707f, 0.173261508f, 0.136206388f, 0.102358505f, -0.0610768497f, -0.0185580384f, 0.00801294763f, -0.157441616f, -0.204141378f, -0.086865969f, 0.0754233003f, 0.05432982f, -0.0910159722f, 0.0042338362f},
  {0.201817423f, 0.116701543f, 0.0981811732f, 0.00928243063f, -0.152277842f, -0.0898166969f, -0.130765229f, 0.123371698f, 0.0288570952f, 0.0264054779f, 9.59621248e-05f, -0.0114216227f, -0.0741112754f, -0.0541258305f, -0.0172564946f, -0.1498923f},
  {0.0271647219f, 0.157041997f, 0.0416673645f, 0.0288145617f, 0.0965742469f, -0.0490376465f, -0.00792362541f, 0.0920512304f, -0.148396924f, -0.0995188728f, -0.0594543852f, 0.102912799f, -0.0787252486f, 0.0303408001f, 0.0790828988f, -0.0721926689f},
  {0.109942034f, -0.0877466798f, 0.0187768172f, -0.0093049258f, -0.0734241605f, 0.0559516959f, 0.00952157378f, 0.00681707822f, -0.0637795776f, -0.204439446f, -0.194145128f, 0.0625680014f, 0.0337592438f, 0.0863524601f, 0.160093889f, 0.00339816813f},
  {0.16614978f, -0.103943147f, -0.122775815f, -0.0129734976f, 0.0772343725f, 0.221679106f, -0.0177568719f, 0.00750289625f, 0.161762461f, 0.107125506f, 0.111486353f, -0.0380533785f, -0.135506064f, -0.0689120516f, -0.00926166028f, 0.133698151f},
  {0.144348338f, -0.0107470835f, -0.0354184806f, 0.014807974f, -0.101075985f, -0.193513185f, -0.13346079f, -0.185886949f, -0.00961007737f, 0.0164257288f, 0.146854252f, 0.125490725f, 0.0193252694f, 0.105510637f, -0.00976228062f, -0.00376591762f},
};

static const int8_t kPatchPointwiseQ[24][24] = {
  {-66, -35, 28, 72, -7, 88, -127, 41, 54, 22, -34, 36, -7, 21, -13, 49, 83, 41, -25, 91, -26, 11, 22, 0},
  {-103, -105, 0, 73, 49, 82, 120, -13, 23, -11, 6, 127, -14, -16, 4, 5, 66, 34, 106, 109, 100, 70, 34, -14},
  {62, -76, -20, 14, -12, 8, 64, -39, -127, -69, -5, 8, -124, -36, 50, -23, -92, -3, -91, 8, -5, -47, -61, -6},
  {-75, 58, -49, -18, -115, 55, -43, 26, -5, 36, -49, 28, -8, 100, 127, 42, 62, 50, -52, -32, -29, -56, 31, 44},
  {127, -2, -2, -65, -71, 9, -28, -1, -35, 61, 12, 65, 94, 23, 20, -104, -55, -33, 0, 66, 9, 25, 8, 49},
  {-99, -6, -83, -3, 9, -7, -28, -58, 103, -34, -2, -54, 51, 4, -3, -11, -49, -8, -19, -21, 5, 16, 127, 21},
  {-71, 25, 127, -71, 13, 29, -13, -9, -16, -23, 49, -9, 70, 1, -17, 12, 15, -7, 46, -31, 36, 24, 78, 41},
  {36, -17, -12, -84, 25, 87, 57, 71, -9, 44, -38, -5, 29, 46, 17, 25, 54, -43, 37, 61, -3, 17, 127, -91},
  {-15, -32, 34, -11, -116, -54, -30, -24, 127, 17, 56, 7, -45, 0, -31, -17, 118, 32, 11, 10, -36, 38, 60, -6},
  {115, 32, -20, 2, 42, -33, 45, -52, -118, -39, -103, -119, 37, -49, 9, -117, 127, 52, -66, -47, 21, 33, -61, 53},
  {-27, -11, -13, -7, -76, -78, 2, -68, -19, -18, -64, -127, 64, -114, -4, 77, -17, 62, -15, -49, 14, -51, 57, 74},
  {80, 52, 91, -108, 127, -4, 5, -7, 56, 4, -32, 41, -68, -46, -69, -61, -19, 5, 12, 0, -61, 29, 111, 28},
  {-5, -82, -40, -70, 9, 54, 29, -1, 46, 2, -15, -70, 46, 33, 26, -15, 28, -48, -9, -15, -31, 127, -31, -45},
  {-100, 34, -53, 15, 11, -50, -4, -98, -8, -109, -26, 84, -11, -18, -127, -11, 36, -40, -11, 15, -61, -37, 92, -41},
  {-59, -66, -38, 30, -5, 94, 39, -21, 8, -95, -20, -7, 3, -91, 36, 23, -94, -17, -61, 42, 19, -37, 27, -127},
  {-88, 20, 89, -17, -59, -23, 29, 7, -106, 58, -41, 18, 110, 7, 27, 24, 17, -63, -127, -25, -6, 9, -9, 8},
  {-1, 70, 19, -63, 2, -87, -127, 71, 81, -52, -29, -22, -69, -70, 104, 57, 41, -47, -1, -76, -14, -71, -4, -5},
  {64, 86, 33, -127, 47, -23, 40, -36, 18, 22, 57, 51, -50, -83, -4, -10, -25, 2, -41, 8, 42, 9, -6, -27},
  {-11, 36, 91, 14, -41, -61, 3, 24, 81, 12, -124, 28, 3, 15, -4, 20, -49, 127, 22, 59, -35, 69, -18, -49},
  {40, -56, 7, -59, 25, -40, -30, -89, -24, 63, -127, -21, -31, -41, -72, 90, 58, 35, 72, -40, 74, -28, 61, 25},
  {-60, -3, 46, -68, 65, 24, 7, 83, -54, -51, 20, -36, -7, -28, 57, -53, 76, 36, -13, -127, -4, -59, 14, 4},
  {-5, -45, 0, -19, -12, 31, -50, 36, -52, -62, 69, 4, 34, 15, -28, 89, 13, 28, -20, 93, -94, 3, -127, -7},
  {-103, 17, 10, 37, 102, 12, -3, -56, -127, 96, -32, 62, -8, -19, 116, -28, 42, 46, 2, 68, -23, 31, 46, 25},
  {-61, 23, -18, -23, -38, -57, 127, -123, -44, -17, 73, -107, -22, 90, -35, 78, -39, 18, 77, -57, -55, -24, 0, -53},
};

static const float kPatchPointwiseScale[24] = {0.0132002383f, 0.0115430616f, 0.00838651415f, 0.0111829974f, 0.0166444965f, 0.0107447691f, 0.014573277f, 0.0229670312f, 0.0154434666f, 0.0106663909f, 0.0151829952f, 0.011808957f, 0.0134700378f, 0.0187285673f, 0.00990906078f, 0.0117129562f, 0.00950297061f, 0.0123524442f, 0.0145183168f, 0.0139897894f, 0.0146444403f, 0.0115378909f, 0.0112268124f, 0.0120939584f};

static const float kPatchBias[24] = {0.0908023342f, 0.104419418f, 0.0786057115f, 0.0820134655f, -0.259578258f, -0.178219974f, -0.0492466502f, -0.396126509f, 0.0287784301f, 0.227351457f, -0.241033912f, -0.20130232f, -0.00680088997f, 0.129758984f, -0.109862156f, 0.178046197f, 0.10381671f, 0.00705670193f, -0.0836845264f, -0.370678127f, 0.303157777f, 0.297216713f, 0.063145116f, -0.092358619f};

static const float kPosEmbed[1][31][24] = {
  {
    {-0.172906145f, 0.00738901878f, -0.0143076926f, -0.0422777571f, -0.0456687324f, 0.0369776748f, 0.173532188f, 0.0926010609f, -0.337488115f, -0.0458512269f, -0.0837355927f, 0.0516624786f, -0.16959922f, 0.0145624997f, 0.101341926f, 0.0589658432f, -0.169705391f, 0.233444855f, 0.107837491f, 0.118817657f, -0.123440064f, -0.112035729f, -0.00926683843f, 0.196938396f},
    {-0.0268332344f, -0.0708498657f, -0.0257028211f, 0.00690479018f, 0.100256898f, 0.0928357765f, 0.0121658696f, 0.060156405f, -0.0494003408f, 0.048724696f, 0.0537482314f, -0.00435548695f, -0.00965683069f, -0.0325653329f, 0.0416903384f, -0.00845716242f, -0.0415042713f, -0.0474889167f, 0.112092614f, -0.00658473792f, -0.0305097513f, -0.0919354036f, 0.00420725625f, -0.000541688234f},
    {-0.0471010581f, -0.0696567819f, -0.0383019187f, 0.0533087626f, 0.00786447525f, 0.0410186909f, -0.00707843807f, 0.0221229047f, -0.107673571f, 0.0143659357f, -0.0221222844f, -0.0243100226f, 0.0138178235f, 0.0546616986f, 0.0379628502f, 0.103493787f, 0.081275411f, 0.0381704047f, -0.0109146703f, 0.00686170114f, -0.0214465093f, -0.092835702f, 0.0154935131f, 0.0588182546f},
    {-0.00885708816f, -0.0177640468f, 0.0148273129f, 0.00683826534f, 0.00684589427f, 0.0135270637f, -0.0320983641f, 0.0575496592f, -0.134527162f, 0.0961102322f, 0.0226529147f, -0.0628221333f, 0.0889965221f, -0.0232911464f, 0.0075863041f, 0.0699032843f, 0.0686539486f, -0.0306149069f, -0.0990912989f, 0.0362194255f, -0.0407770015f, -0.00197440106f, -0.064026922f, 0.00301463273f},
    {-0.0085733477f, 0.0175974388f, -0.0378018394f, -0.090836376f, 0.127103671f, -0.00228520087f, 0.0403658599f, -0.0162594672f, -0.0902124867f, 0.120953202f, 0.000405933562f, -0.0437379256f, 0.116834298f, 0.0162850972f, -0.0423246957f, 0.024920756f, 0.0823850781f, 0.0323194228f, -0.0689916536f, -0.0630589873f, -0.0130664539f, 0.0226780418f, -0.0254893042f, -0.0418442786f},
    {-0.0220861901f, 0.01138914f, -0.0707528591f, -0.0864558443f, 0.0638640597f, 0.0346415006f, 0.0349442661f, -0.0397492386f, -0.0315783508f, 0.0506291352f, 0.0194866378f, -0.00589652872f, 0.0157655291f, 0.0583436824f, -0.0527964719f, -0.0780828521f, 0.0340956859f, 0.0549775511f, 0.0305634458f, -0.0466709472f, 0.0163883306f, -0.0215654969f, -0.0171020888f, 0.0455555432f},
    {-0.0375384577f, -0.0724991709f, -0.0581615232f, -0.0181071665f, -0.0384103321f, 0.0852010325f, 0.0289798491f, -0.00246240594f, -0.0377059579f, -0.00331379496f, 0.0382744782f, 0.0386513546f, -0.0130520882f, -0.00129646168f, 0.0191401578f, -0.00188387686f, -0.0146864541f, 0.0427942276f, -0.00822611433f, -0.0356788896f, 0.00847926084f, -0.0111698005f, -0.0736884475f, 0.0868359655f},
    {-0.0135367978f, -0.14720653f, -0.020517908f, 0.008236208f, 0.00147918484f, 0.0152435703f, 0.029050298f, -0.0179995298f, -0.0117716035f, 0.00923248753f, 0.0261998028f, 0.104932047f, -0.0372905731f, -0.0345839374f, 0.044478748f, 0.0534589589f, 0.0109617403f, -0.00524219871f, -0.0314691663f, -0.0822990909f, 0.0531416424f, 0.0377571471f, -0.0475690812f, 0.0387244746f},
    {0.000155047717f, -0.100460626f, 0.0210447963f, -0.0308129098f, 0.0727884993f, -0.0218771864f, -0.00812162459f, -0.0585850254f, 0.0164845679f, 0.0261831917f, 0.0320980549f, 0.071465008f, -0.0161791593f, 0.0404089615f, 0.0207878929f, 0.0188618898f, -0.0217628088f, -0.0318772271f, -0.0115287229f, -0.0802150443f, 0.0194572378f, 0.0394129753f, -0.0195938256f, 0.0184212532f},
    {-0.0433314443f, -0.034119945f, 0.0443164855f, -0.0560843125f, 0.0681169704f, 0.0129999248f, -0.0449454226f, -0.0554233491f, -0.0107326061f, -0.00455319695f, 0.0636682361f, -0.00621612044f, 0.00855095778f, 0.0919459686f, 0.033681348f, 0.00354379229f, -0.0725732222f, 0.0114339925f, 0.0348429345f, -0.0587962829f, -0.0533394255f, -0.00102289312f, -0.0578680709f, 0.0469395556f},
    {-0.0539757535f, -0.0273512565f, 0.0134350862f, -0.064246662f, 0.0272745248f, 0.000271716184f, -0.02665543f, -0.016480539f, -0.013893324f, -0.0246474147f, 0.0749377906f, 0.0448567607f, -0.0617499202f, 0.0224971473f, 0.071775876f, -0.0198319145f, -0.012628098f, 0.0692147315f, 0.117634244f, -0.0672381893f, -0.0150545677f, -0.00451563159f, -0.0893075541f, 0.0678532198f},
    {0.0201177225f, 0.0547544286f, -0.0417015813f, -0.118848406f, -0.0104140462f, 0.0356524475f, -0.00460978551f, 0.00965124369f, 0.0163267981f, 0.0158334188f, 0.0505546406f, 0.0821522698f, -0.00699769519f, -0.0445404872f, 0.0830469429f, -0.00863936916f, 0.00650380319f, 0.088242203f, 0.0468461961f, 0.0024767092f, -0.0520955771f, 0.0397884883f, -0.129483879f, 0.0321534872f},
    {0.0562135614f, 0.107880101f, 0.00666885218f, -0.0776972845f, 0.0309105888f, 0.00428551203f, -0.0802963823f, -0.067775093f, 0.0289594401f, 0.0377668887f, 0.0278340243f, 0.0282903947f, 0.0646050423f, -0.0373940095f, -0.00796583854f, 0.0124512864f, -0.00251522521f, 0.0375017151f, -0.042071823f, 0.103621706f, -0.0772716701f, 0.0409952141f, -0.0708838031f, -0.093265824f},
    {-0.010011713f, 0.0373850279f, -0.02125852f, 0.0228409357f, 0.0701040998f, 0.0267608222f, -0.0462008342f, -0.0862273425f, -0.00240660738f, 0.0948955864f, 0.0489164069f, 0.079223372f, -0.000436425908f, -0.0763840899f, -0.110896215f, -0.0601169318f, -0.0464579612f, 0.0752713829f, -0.0118729342f, 0.111929931f, -0.0662775785f, 0.0210097525f, 0.00986996945f, 0.00145830982f},
    {-0.0719944611f, 0.0239007585f, 0.0529913418f, 0.0220289528f, -0.0416834317f, 0.0314403325f, -0.0552606471f, -0.00532524008f, -0.0530823246f, 0.0344740748f, -0.014750124f, -0.105441377f, 0.0278439093f, -0.0352334157f, 0.0118757868f, -0.092665419f, -0.0975459814f, 0.113651335f, -0.0147626968f, 0.0573937446f, -0.015659567f, 0.0166456923f, -0.00675879186f, -0.00225221016f},
    {-0.0212884918f, 0.0429757573f, 0.0212862883f, -0.022848703f, -0.0255386159f, 0.0628271922f, -0.0436691865f, -0.0110356798f, -0.0143486299f, -0.0442759208f, -0.0421755314f, -0.0786898807f, 0.137583137f, 0.0825120062f, 0.000284713809f, 0.051560387f, 0.0310809817f, 0.0339946821f, -0.232220754f, 0.100092173f, -0.0649096221f, 0.0549847595f, -0.0739113241f, -0.0148500167f},
    {-0.0465105362f, 0.00151353737f, 0.00711026136f, 0.00105440535f, -0.00894753449f, 0.107497357f, 0.0732700452f, -0.00762868347f, 0.0308379065f, -0.0132462904f, -0.0838040486f, -0.098826386f, 0.0633812845f, 0.0161954667f, -0.101325616f, 0.0287185349f, -0.0756726041f, 0.0608377419f, -0.14475821f, -0.0423071086f, 0.0449715108f, 0.122984149f, -0.042455662f, 0.0199864637f},
    {-0.102195993f, 0.055679027f, 0.0499968529f, -0.00378990592f, -0.0463910736f, 0.0705947354f, 0.00673190411f, -0.0396956876f, -0.0727175623f, 0.0614056475f, 0.0362089686f, -0.0805641711f, 0.0648348331f, -0.132883862f, -0.0390192382f, 0.0268343054f, -0.177614391f, 0.0218670145f, -0.0858214423f, -0.00216303999f, 0.0561805665f, 0.0538956895f, 0.0262575168f, 0.108260073f},
    {-0.0465867892f, 0.0760199204f, -0.00320380111f, -0.00983661506f, 0.0346842632f, 0.0226620734f, 0.0358029529f, 0.0435921513f, -0.145307884f, 0.0584329963f, -0.00764707616f, -0.0407860242f, 0.0721393004f, 0.0332356058f, 0.000549856632f, 0.0266147424f, -0.0501769334f, -0.00748721324f, -0.151691198f, -0.0152685288f, 0.0504300818f, -0.025091799f, 0.0283173043f, 0.0269151926f},
    {-0.0373631045f, 0.0137946149f, -0.012562301f, -0.0572794341f, 0.0635836348f, 0.041266717f, 0.0138029614f, 0.00104099605f, -0.167492032f, 0.0507232025f, -0.0317556113f, -0.0311393961f, 0.0658820122f, 0.0618439652f, -0.00880591758f, 0.0420704447f, -0.00942038838f, 0.0192126557f, -0.0254211482f, -0.0128673725f, -0.0325509496f, 0.0392788313f, -0.00101393694f, -0.0360586643f},
    {-0.00848629232f, 0.0263966955f, 0.00345026539f, -0.0595274121f, 0.0831896961f, 0.0115215816f, 0.0286565218f, -0.0457298383f, -0.112179503f, 0.0450260155f, 0.0185168739f, -0.0272164699f, 0.0470966212f, 0.0850754231f, -0.0437998809f, 0.0166851413f, 0.0413900092f, 0.0151414666f, 0.021487467f, -0.0870720148f, 0.00404381892f, 0.0667023435f, 0.0373286083f, -0.0690748319f},
    {-0.0185108185f, 0.0274044219f, 0.0077651185f, -0.0615035146f, 0.0678340197f, 0.00216810685f, -0.00482456014f, -0.0384158157f, -0.0178160258f, 0.0263546295f, 0.0337769687f, 0.00724308938f, -0.0262678899f, 0.0525486693f, -0.0104829455f, -0.0256440565f, 0.0301849991f, 0.0200328603f, 0.0399690531f, -0.055344563f, -0.00637451187f, -0.0013459411f, 0.0640136003f, -0.0410945155f},
    {-0.0430371948f, -0.034678068f, -0.00153535197f, -0.0575386994f, -0.00367156975f, -0.00101449597f, 0.035286881f, 0.00181870582f, -0.0191012956f, 0.0117887296f, 0.0674791858f, 0.0926093608f, -0.0353752896f, -0.00954773929f, 0.0221781395f, -0.0309525859f, -0.0142253134f, 0.0550629795f, 0.0467844233f, -0.105755322f, 0.0178454258f, -0.0288442709f, -0.000823803071f, 0.00416683732f},
    {-0.0358032137f, -0.103977673f, -0.0234037638f, -0.0240498148f, -0.022880204f, -0.0412995256f, 0.0739264116f, 0.0153792985f, -0.0147130843f, 0.0246753506f, 0.0651518926f, 0.109066278f, -0.0212406293f, 0.0217744932f, -0.0135055901f, 0.00959708821f, -0.0122407991f, 0.053226009f, 0.0432096794f, -0.141619399f, 0.0767140463f, 0.012008355f, -0.0167128611f, -0.0100783333f},
    {-0.0263413489f, -0.0758510232f, -0.0131756067f, -0.0189738702f, 0.0257569179f, -0.0583596639f, 0.0396009646f, -0.0147976819f, 0.00817050785f, 0.0328852311f, 0.0237390213f, 0.0231891945f, 0.00524885207f, 0.0956733376f, -0.0223130845f, 0.0374465734f, -0.000763528165f, 0.0374089777f, 0.041168306f, -0.0889733657f, 0.0221259743f, 0.0233548954f, 0.00379327429f, -0.0313036479f},
    {-0.0367192402f, -0.0180956107f, 0.0221145991f, -0.0792545527f, 0.0483518429f, -0.0243206639f, 0.00447053881f, -0.0188725628f, -0.0189571269f, 0.00419756118f, 0.0178309958f, -0.00573669327f, 0.0403291099f, 0.0970314443f, 0.0282532182f, 0.0131411105f, -0.00280489144f, 0.0450088941f, 0.0292116124f, -0.0403481349f, -0.0765867755f, 0.0035939801f, -0.0372937247f, 0.0134928804f},
    {-0.0303931832f, -0.0430284627f, 0.0103621492f, -0.109233789f, 0.0422612354f, 0.00829221774f, -0.020687148f, 0.035398066f, -0.0225725807f, -0.005880713f, 0.0164676774f, 0.0696003959f, -0.0164010189f, 0.0250188038f, 0.0476253591f, -0.0333684199f, 0.0292166695f, 0.0465218499f, 0.0117163528f, 0.0254439693f, -0.0674307942f, -0.00615781313f, -0.0631882921f, 0.0591742992f},
    {-0.00210222928f, 0.00528170262f, -0.0228945278f, -0.0454812646f, 0.0228403807f, 0.043439351f, -0.020615913f, 0.0507675149f, -0.00757413451f, 0.0151060438f, 0.0164818224f, 0.0520256013f, -0.0545964949f, -0.0618164726f, 0.0619488955f, -0.0492331982f, 0.0421572924f, 0.0735545903f, -0.025450673f, 0.0443581976f, -0.0814770311f, -0.0335140228f, -0.0855727121f, 0.0646698177f},
    {0.0287236553f, 0.0619611964f, -0.0566693656f, -0.0275906194f, -0.0442025922f, 0.0164234079f, -0.031381201f, -0.00817911793f, 0.0765018314f, -0.0662641674f, 0.0119033922f, -0.0572281666f, -0.00910275057f, 0.0195012297f, 0.0252217334f, 0.00110419828f, 0.0187385064f, 0.0452765524f, -0.101516888f, 0.102746792f, -0.148284703f, 0.0484503135f, -0.0994166061f, 0.0819237605f},
    {0.111986637f, -0.00221170625f, 0.000545107934f, -0.051956512f, 0.00207689917f, -0.0670474842f, -0.0213158783f, -0.0703486949f, 0.0406501889f, -0.0382113494f, -0.00351601816f, 0.146953166f, 0.0236793198f, 0.00983047206f, -0.0838241875f, -0.0665750876f, 0.0603950359f, -0.00507398881f, -0.0204240121f, 0.0355403423f, -0.0437067673f, 0.0409390368f, -0.0298862532f, -0.0319577791f},
    {0.0512135625f, -0.069957383f, 0.112539604f, 0.0247671921f, -0.0898644626f, -0.0152546763f, 0.11673376f, 0.0159382671f, -0.113884464f, -0.162736148f, 0.0138851888f, 0.110794134f, -0.038059894f, -0.0910138115f, 0.0976288393f, -0.0122309439f, 0.0961802155f, 3.93736045e-05f, -0.071794346f, -0.0278458111f, 0.0367649198f, 0.0472088829f, -0.115194485f, 0.0191184115f},
  },
};

static const float kLayer0PreNormWeight[24] = {1.08094966f, 1.04917359f, 1.00882256f, 0.996897936f, 1.00935721f, 0.940142632f, 0.960261941f, 1.01060843f, 1.07569623f, 1.00584304f, 0.978598595f, 0.922539234f, 1.12643635f, 1.02858829f, 0.972682834f, 1.24761164f, 1.10585392f, 1.06672573f, 0.993425131f, 1.08640742f, 0.979518592f, 0.986783445f, 1.09890473f, 1.06533873f};

static const float kLayer0PreNormBias[24] = {-0.0675901249f, -0.0731855929f, 0.00206313399f, -0.0381640717f, 0.0510005765f, 0.0258535612f, 0.0559375957f, 0.0657699108f, 0.0483483002f, 0.0326208249f, 0.0282244533f, 0.0586205609f, 0.0772567317f, 0.0557191893f, 0.0178659055f, -0.0297766235f, -0.0526132025f, 0.0108929407f, -0.0186825097f, 0.123450913f, -0.0382685848f, -0.00645709364f, -0.0215626173f, 0.0963773802f};

static const float kLayer0PostNormWeight[24] = {0.87656033f, 0.785086989f, 0.846471846f, 0.909531832f, 0.83290416f, 0.83206141f, 0.948723912f, 0.922731459f, 1.00943112f, 0.896827638f, 0.838037848f, 0.88714391f, 0.803272188f, 0.958234549f, 0.766364038f, 0.860423446f, 0.830082715f, 0.823458552f, 0.865920126f, 0.959709346f, 0.950013041f, 0.924715638f, 0.920515537f, 0.932762325f};

static const float kLayer0PostNormBias[24] = {0.0134075815f, 0.00336971018f, -0.0150718642f, -0.0128459698f, -0.013520211f, 0.00204396108f, 0.00980248488f, 0.0134192603f, 0.0378106125f, -0.00888424087f, 0.00978002325f, 0.0449883901f, -0.000639991427f, 0.000104490544f, 0.00362679316f, -0.0286394507f, -0.0317601413f, -0.032891158f, 0.0051269345f, 0.0710171163f, -0.0387763828f, -0.0224787015f, -0.0208826046f, -0.00278353691f};

static const float kLayer0ALog[48][16] = {
  {0.0921433717f, 0.40963906f, 1.0509243f, 1.36183691f, 1.33169842f, 1.50888455f, 1.73983812f, 1.89945531f, 1.91082585f, 2.06204462f, 2.33274269f, 2.14938998f, 2.39134741f, 2.42791653f, 2.43774843f, 2.50273681f},
  {0.0664828718f, 0.507880628f, 1.02343655f, 1.53401935f, 1.48986781f, 1.75590944f, 1.83142889f, 1.95385242f, 2.04043269f, 2.30845404f, 2.3227942f, 2.41962099f, 2.27721953f, 2.46931601f, 2.41275954f, 2.71993351f},
  {0.0301224068f, 0.615375638f, 1.11647868f, 1.30757475f, 1.66598165f, 1.66173744f, 1.92217803f, 1.8996613f, 1.97025239f, 1.89665461f, 2.22889376f, 2.21407938f, 2.25951457f, 2.23949718f, 2.37454224f, 2.55417585f},
  {0.0593965203f, 0.64172703f, 1.10342026f, 1.10058773f, 1.54002166f, 1.52998555f, 1.82095277f, 1.98081505f, 2.10389447f, 2.17392921f, 2.34093571f, 2.29613328f, 2.49531221f, 2.47797418f, 2.48116112f, 2.50564098f},
  {0.0748521462f, 0.686685503f, 1.0567261f, 1.3745091f, 1.52506876f, 1.64221835f, 1.87465501f, 1.83770573f, 1.87742078f, 1.9312278f, 2.12658978f, 2.07696104f, 2.20170212f, 2.14809394f, 2.12474203f, 2.39559793f},
  {-0.177075073f, 0.5409289f, 0.93063736f, 1.09364069f, 1.08848119f, 1.49629498f, 1.85399044f, 2.00021887f, 2.1551888f, 2.12975574f, 2.10028291f, 2.51149988f, 2.52457881f, 2.49202204f, 2.53510547f, 2.70699763f},
  {-0.119588234f, 0.539892912f, 0.842692971f, 1.37134194f, 1.43540478f, 1.8518548f, 1.66270995f, 1.68424654f, 1.66166735f, 1.74951482f, 2.27332163f, 2.19186211f, 2.2555759f, 2.23935533f, 2.25661278f, 2.23921847f},
  {-0.250926733f, 0.748299658f, 0.800323129f, 1.20448399f, 1.47021818f, 1.65342009f, 1.64784086f, 1.81656408f, 1.94343412f, 2.35434842f, 2.15187764f, 2.13339734f, 2.25827622f, 2.23923159f, 2.10429168f, 2.44595981f},
  {-0.0372212045f, 0.704970777f, 0.986634791f, 1.22617793f, 1.5003767f, 1.74126863f, 1.6716702f, 1.71549225f, 1.72057021f, 1.96719992f, 1.89377964f, 2.11386681f, 2.17377782f, 2.27979064f, 2.28297639f, 2.21405673f},
  {0.0664054006f, 0.406897545f, 1.05504954f, 1.21687257f, 1.24965882f, 1.62232578f, 1.68071938f, 1.92621398f, 1.98258972f, 2.01710105f, 2.28060269f, 2.23860383f, 2.41147566f, 2.37521005f, 2.56910419f, 2.66050959f},
  {-0.0991562381f, 0.77780503f, 1.05970693f, 1.25874853f, 1.299178f, 1.68539524f, 1.69874883f, 1.72638905f, 1.78455937f, 2.32748985f, 2.04306269f, 2.41858864f, 2.44890952f, 2.40360856f, 2.79268956f, 2.51433539f},
  {-0.123175636f, 0.568021059f, 0.918188453f, 1.15610719f, 1.36481512f, 1.55930614f, 1.52676606f, 1.99419773f, 2.0079124f, 2.16892028f, 2.21582508f, 2.10335398f, 2.06612802f, 2.35204887f, 2.07376337f, 2.33586693f},
  {0.0179247428f, 0.752117634f, 0.705112875f, 1.29851806f, 1.30746889f, 1.83032429f, 1.85062313f, 1.74326146f, 1.83340967f, 2.37698603f, 2.36330009f, 2.39446974f, 2.18269753f, 2.35232878f, 2.29027343f, 2.41407299f},
  {-0.353342414f, 0.171541899f, 0.856858969f, 1.35883129f, 1.44481385f, 1.44836569f, 1.85994959f, 1.81908596f, 2.33198333f, 2.33972907f, 2.2686646f, 2.01668358f, 2.09093761f, 2.54738259f, 2.7283864f, 2.16178918f},
  {0.00705810916f, 0.575574934f, 0.996621192f, 1.15641558f, 1.42993474f, 1.4749037f, 1.62890613f, 1.81887031f, 1.78762472f, 2.07522655f, 1.96911395f, 2.02566695f, 2.06262398f, 2.52977395f, 2.4733119f, 2.4896605f},
  {0.109785601f, 0.536376953f, 1.18653023f, 1.18090546f, 1.62649274f, 1.63051391f, 1.48337483f, 2.01537204f, 2.03493285f, 2.01344943f, 2.35105801f, 1.87682652f, 1.97676897f, 2.34166956f, 2.47795725f, 2.50255227f},
  {-0.104521379f, 0.513050139f, 0.865828872f, 1.15534508f, 1.24859321f, 1.41569829f, 1.96728289f, 1.90189064f, 2.22760439f, 2.10145593f, 2.18070388f, 2.14790654f, 2.27179337f, 2.01843381f, 2.27873206f, 2.21562171f},
  {-0.0514607839f, 0.554994702f, 0.947887719f, 0.940964878f, 1.22657776f, 1.58979154f, 1.63105404f, 1.60761547f, 1.69806349f, 1.81563282f, 2.16659522f, 2.11503911f, 2.06859732f, 2.07981873f, 2.50002193f, 2.50702119f},
  {-0.0822210759f, 0.519462228f, 0.796690166f, 1.05917382f, 1.27908587f, 1.47842276f, 1.60422432f, 1.92663252f, 1.66892612f, 2.08430123f, 1.95386708f, 2.10526395f, 2.1606102f, 2.24408722f, 2.6513288f, 2.26281667f},
  {0.0513518229f, 0.77568841f, 0.86264348f, 1.10829866f, 1.31205499f, 1.08019292f, 1.65021312f, 1.8050555f, 1.93002009f, 2.12940335f, 2.14757609f, 2.13684773f, 2.02351379f, 2.03991389f, 2.43018866f, 2.49350548f},
  {0.169208512f, 0.57986629f, 1.21042526f, 1.30666149f, 1.60620236f, 1.59167767f, 1.96545053f, 1.91916883f, 2.26759028f, 2.28899097f, 1.93125224f, 2.14607739f, 2.13227296f, 2.24100614f, 2.50239134f, 2.67298412f},
  {-0.0216277726f, 0.451540619f, 1.0362345f, 1.15951848f, 1.47011566f, 1.5368005f, 1.86959445f, 2.00433064f, 1.93489718f, 2.04123735f, 2.0525434f, 2.4301312f, 2.04043818f, 2.47162127f, 2.41383386f, 2.66488886f},
  {-0.0624304265f, 0.672781885f, 0.996175885f, 1.21930611f, 1.42670107f, 1.49767828f, 1.98094261f, 1.81292868f, 2.1377039f, 2.14256501f, 2.38591099f, 2.35487199f, 2.49979424f, 2.35972285f, 2.42430472f, 2.41543937f},
  {0.0203376431f, 0.772562504f, 0.857342064f, 1.30497074f, 1.32343531f, 1.64960039f, 1.62587106f, 1.79847395f, 2.16293097f, 2.15177608f, 2.34559178f, 2.24780822f, 2.29906583f, 2.32787561f, 2.16340613f, 2.23268437f},
  {-0.0893045068f, 0.563553989f, 1.1068753f, 1.34392858f, 1.33874595f, 1.34354722f, 1.67618489f, 1.80019832f, 2.07735729f, 2.08041668f, 2.18359065f, 2.16874194f, 2.19143414f, 2.22840047f, 2.29303646f, 2.52811909f},
  {-0.0489636622f, 0.266620487f, 0.789564252f, 1.11931431f, 1.40387857f, 1.68488979f, 1.55964613f, 1.91195142f, 1.89357448f, 1.92262566f, 2.24465895f, 2.26674104f, 2.37015724f, 2.2321794f, 2.39569688f, 2.46883559f},
  {0.0893499851f, 0.606316745f, 0.962290406f, 1.20729446f, 1.34606493f, 1.72302496f, 1.59060228f, 1.76065791f, 2.16191006f, 2.06209874f, 2.00661421f, 1.99919569f, 2.00533056f, 2.34743738f, 1.98810565f, 2.38530898f},
  {-0.0765355378f, 0.696423233f, 0.702687919f, 1.21902061f, 1.52837002f, 1.56897211f, 1.77597058f, 1.77810013f, 1.75920558f, 1.85715508f, 2.16900778f, 2.06429577f, 2.43714571f, 2.59619641f, 2.58710289f, 2.47903776f},
  {0.0646555722f, 0.526181459f, 0.803805172f, 1.19779885f, 1.18508303f, 1.30452669f, 1.47275758f, 1.81689799f, 1.88917029f, 2.02734733f, 2.09836435f, 2.10477328f, 2.36287451f, 1.99102938f, 2.40171123f, 2.36429811f},
  {0.0961405858f, 0.653547227f, 1.00145376f, 1.18954241f, 1.19965494f, 1.73190022f, 1.87428319f, 1.84622788f, 1.9242748f, 1.98499417f, 2.0882957f, 2.05957294f, 2.13920116f, 2.11715579f, 2.04532075f, 2.12881875f},
  {0.000626869441f, 0.677891314f, 0.798526585f, 1.21062768f, 1.59801114f, 1.73401368f, 1.74130642f, 1.81325614f, 1.96524751f, 2.13551688f, 2.16971874f, 2.36600661f, 2.44561768f, 2.26422095f, 2.50170064f, 2.59015822f},
  {-0.0224513821f, 0.652673841f, 1.13794434f, 1.38607359f, 1.40589738f, 1.49249709f, 1.83039737f, 2.02656555f, 2.11272025f, 2.30494976f, 2.05387187f, 1.89855671f, 2.44096112f, 2.10893536f, 2.34783244f, 2.67202878f},
  {-0.0808018297f, 0.570563734f, 0.891903281f, 1.17485642f, 1.57068324f, 1.57463861f, 1.66156507f, 1.92894614f, 1.92914963f, 1.8774749f, 2.43387198f, 2.19375587f, 2.283427f, 2.49155831f, 2.47706962f, 2.22279358f},
  {0.00257495837f, 0.651123524f, 1.00689995f, 1.28992486f, 1.47826338f, 1.67162991f, 1.75641084f, 1.58641493f, 1.95697927f, 2.04683471f, 2.05883503f, 2.34063435f, 2.39500022f, 2.40175009f, 2.40586019f, 2.65036917f},
  {-0.225566313f, 0.68907851f, 1.04025972f, 1.25026762f, 1.39524007f, 1.54816782f, 1.86866522f, 1.9750514f, 2.08062935f, 2.03225136f, 2.35443473f, 2.19101739f, 2.38911319f, 2.71407151f, 2.64892077f, 2.68420625f},
  {0.0322012641f, 0.495937675f, 0.851647079f, 1.17164433f, 1.33389962f, 1.57727897f, 1.69578362f, 1.91572297f, 2.07001019f, 2.03966951f, 2.12863994f, 2.1440587f, 2.40928841f, 2.21911716f, 2.12152648f, 2.37326145f},
  {0.0494846329f, 0.759971082f, 1.0086329f, 1.35748577f, 1.6607374f, 1.72756195f, 1.7115624f, 1.90736425f, 2.03249788f, 1.98957551f, 1.97478807f, 2.33090973f, 2.40456939f, 2.57564759f, 2.35423803f, 2.58835864f},
  {0.0984775946f, 0.758605182f, 0.818830073f, 1.196298f, 1.66885245f, 1.65841532f, 1.74076629f, 1.96014798f, 2.04036832f, 2.04334927f, 2.09823418f, 1.95734847f, 2.07796764f, 2.19341302f, 2.07068038f, 2.37479639f},
  {0.193630815f, 0.82668823f, 0.969594836f, 1.54908466f, 1.58644164f, 1.61355436f, 1.83794272f, 1.75584519f, 1.92499125f, 1.93380165f, 2.09577107f, 1.91848683f, 2.38679123f, 2.20527482f, 2.34459305f, 2.16751242f},
  {-0.0309418403f, 0.6345312f, 0.8077721f, 1.20652592f, 1.19093716f, 1.35090649f, 1.67942059f, 1.98292732f, 2.06452155f, 2.03941512f, 2.25836182f, 1.96828556f, 2.18719053f, 1.99145234f, 2.11578274f, 2.30855393f},
  {-0.00279579638f, 0.533472657f, 0.831740022f, 0.903856695f, 1.39364278f, 1.41214371f, 1.81510425f, 1.80488706f, 1.88711798f, 1.75520921f, 2.12645817f, 2.24951911f, 2.02474165f, 2.24964356f, 2.39962959f, 2.45169091f},
  {-0.0205492955f, 0.370732039f, 0.993194401f, 1.23341036f, 1.33415759f, 1.76447928f, 1.41144431f, 1.6135323f, 2.15505385f, 2.14795494f, 2.21271133f, 2.08074331f, 2.19608879f, 2.45789361f, 2.14840937f, 2.62048697f},
  {-0.0830654278f, 0.651620686f, 0.746643484f, 1.2137984f, 1.28989923f, 1.52869654f, 1.61942875f, 1.82984293f, 2.11449313f, 2.19904804f, 2.04106855f, 2.42538404f, 2.1383698f, 2.48182988f, 2.21082973f, 2.46368551f},
  {0.0788387507f, 0.585850954f, 1.01898801f, 1.28565526f, 1.65819669f, 1.62387633f, 1.84377754f, 1.95883012f, 2.04962993f, 2.05190873f, 2.09705496f, 2.29473877f, 2.32081342f, 2.33112955f, 2.61213684f, 2.78899693f},
  {0.316206068f, 0.753783643f, 1.0557797f, 1.04182291f, 1.66544437f, 1.64264274f, 1.95368731f, 1.87124825f, 2.05901504f, 2.18323898f, 2.04615521f, 1.95378149f, 2.63635468f, 2.24407339f, 2.48294616f, 2.49845147f},
  {0.093913801f, 0.574174523f, 1.09032393f, 1.25581563f, 1.49063957f, 1.2802788f, 1.57906926f, 1.76216769f, 1.83652449f, 1.77737904f, 2.21337962f, 2.45323539f, 2.49858069f, 2.50944161f, 2.73980212f, 2.48012543f},
  {-0.0397341736f, 0.636653304f, 0.809481502f, 1.20702875f, 1.47691f, 1.50114107f, 1.90750587f, 1.81778657f, 1.79643548f, 1.99174964f, 2.25285697f, 2.01365566f, 2.19639802f, 2.23897672f, 2.55409408f, 2.65015769f},
  {-0.39377746f, 0.406119466f, 0.674152195f, 1.46284008f, 1.41824389f, 1.58268416f, 1.79005003f, 1.81382596f, 2.12719369f, 2.12738466f, 2.06995392f, 2.05165577f, 2.41116714f, 2.68543053f, 2.50438428f, 2.46228099f},
};

static const float kLayer0D[48] = {0.929240227f, 0.937044442f, 0.945200264f, 1.0222429f, 0.938952029f, 0.909195065f, 0.97486794f, 1.01452804f, 0.867933035f, 0.956350625f, 0.878754854f, 1.08233714f, 0.973540843f, 0.989878714f, 1.1781776f, 1.0472964f, 1.00038397f, 1.0098536f, 1.01200092f, 1.04524875f, 1.05554914f, 0.942459285f, 0.978993475f, 0.927811325f, 1.00343609f, 1.03501427f, 1.01272142f, 0.993673146f, 1.02378285f, 0.962359369f, 0.877848208f, 1.02638602f, 0.909591615f, 0.961284757f, 1.02333415f, 1.02850831f, 0.839728534f, 0.75281179f, 0.925064206f, 0.989891469f, 1.07350779f, 1.1318512f, 1.06783199f, 0.915901244f, 0.951286495f, 0.926346481f, 0.979643703f, 0.944912672f};

static const int8_t kLayer0InProjQ[96][24] = {
  {27, -11, 17, 58, 7, -7, 49, -59, -73, -44, -23, -27, -127, 28, 18, 119, 15, -48, 11, -36, -4, 17, 58, -59},
  {12, -69, 73, -32, 28, 44, 38, -82, -87, -66, 71, 51, -66, 70, 87, 0, -56, -21, 34, 8, -35, 127, -26, 30},
  {-127, 40, 14, 32, -67, -61, -40, 25, 45, 56, -54, -58, 32, -43, -83, 26, 14, 3, -19, -47, 87, 17, 58, 28},
  {-27, 38, 10, 32, -31, -19, -8, -29, -5, 17, -14, -46, 127, -37, -21, 14, 42, -19, -5, -38, 33, 38, 20, -42},
  {127, 19, -35, -45, 66, 24, 31, 38, -5, -94, 18, 62, 44, -2, 14, 31, -32, 15, 38, 56, -83, 17, -60, 12},
  {-27, 50, -29, -2, 34, -18, 41, 14, 14, 12, 32, -18, 127, -46, -33, 54, -17, -11, -15, 8, 25, 5, 20, -45},
  {-49, 111, 106, -24, -26, -71, -20, -127, -77, 29, -76, -22, 2, -20, -2, 77, -10, 15, 104, -104, 22, 84, 75, -47},
  {-91, -23, -45, -29, 10, 38, 44, 19, -25, 35, 29, 27, 127, 46, -33, 97, -55, -23, -4, 16, 14, -51, 8, 31},
  {83, -73, 42, 52, -61, -86, -9, -58, -100, -42, -14, -1, -127, -40, 6, 116, 81, 16, 15, -67, 54, -39, -35, 20},
  {5, 118, 127, -25, -46, -17, -88, -59, -25, -52, -10, -53, -52, 3, 43, -25, -6, 65, -8, -74, -22, 12, 64, -10},
  {-52, 11, 27, -45, -110, -3, -20, -38, 57, 70, -2, -22, 21, 127, 75, -61, 1, -16, 61, 63, -38, -3, -101, -50},
  {-61, -16, 43, 25, 6, -42, -74, -2, -16, -15, -11, -53, -10, 63, 40, 44, -15, -5, -21, 5, -50, -36, -18, 127},
  {19, 0, -29, -35, -78, -15, 23, -12, 15, -31, 52, -108, 12, 105, 11, 127, 2, -113, 14, -2, -2, 39, 20, 62},
  {53, 115, -114, -44, -71, 46, 127, -123, 15, -35, 77, 21, -99, 118, 13, 1, 29, -94, -36, -59, 66, 17, 70, -52},
  {-35, 62, -38, 42, 12, 85, 36, 70, -43, -42, -17, 8, -11, -127, -12, 18, -66, 19, -4, -79, 16, -23, 98, 26},
  {18, 5, 32, -118, 31, -6, -21, -7, -2, 87, -127, 44, 122, 24, 20, 9, -63, 99, -7, -19, -52, 27, -29, -52},
  {12, -3, 23, -70, 22, 20, -39, -41, 40, -28, -71, -59, 88, -35, 67, -20, 17, -15, -3, -70, -8, 127, -107, 27},
  {-95, 127, 43, -102, -10, -12, 59, 11, 57, -59, -13, 64, -96, 75, 47, -11, -99, 7, 103, 20, -43, 4, -77, 81},
  {9, 56, 87, -41, 72, -17, -59, -6, 39, -24, -14, -50, -26, 25, 74, -72, -16, -6, -14, 127, -73, 4, -65, -25},
  {75, 82, -77, 51, -60, 95, 50, 10, 19, -82, 55, -39, -6, 31, -3, 40, -13, -127, 21, -30, -2, -40, 44, 26},
  {-42, -10, -10, 104, -94, 4, -10, -12, 43, 24, 34, 26, 93, -90, -55, 57, 77, -51, -54, -14, 109, -70, 127, 25},
  {-95, 64, -86, -51, 57, 60, 115, 58, -20, 5, 66, 55, 83, 107, -48, 7, -127, 62, 28, 120, -62, -80, 38, -27},
  {-19, 109, 26, 62, -78, -47, -32, -83, -37, 24, -81, -54, -60, -72, -13, 46, 125, 61, 68, -126, 127, 40, 2, -26},
  {73, 7, 52, -23, 91, -59, -68, -26, 16, -71, -27, -20, -127, -58, 38, -7, 17, 57, 78, 10, -43, 44, -25, -79},
  {-39, 57, -54, -30, -1, 26, 63, -31, -9, 22, -6, 14, 127, 44, -38, 86, -60, -6, 31, 14, -4, -23, 42, 16},
  {-58, 5, -61, 38, -39, 43, 23, 19, -60, 29, 12, -67, 49, -26, 21, 102, 18, 33, -76, -127, 36, -32, 21, 33},
  {125, 102, 23, 34, -42, 59, -127, -92, 44, -57, -49, -88, 18, 96, 17, -45, -14, -79, -12, -32, -91, 46, 88, 123},
  {37, 47, 19, 65, -7, -5, -75, 127, -21, -57, -7, 33, -48, -72, 26, -78, 23, -67, 88, 80, -18, -70, 23, 2},
  {-94, 69, -35, -44, 55, 49, 53, 92, -18, 0, -5, -17, 28, -11, 26, -6, -127, 8, 46, -17, -103, -60, 25, 96},
  {-57, 20, 24, -9, -72, -94, 46, -25, -69, 127, 56, 27, 83, -85, -38, -49, 73, 98, -88, 62, 64, -72, 54, 9},
  {93, 127, -24, 25, 9, 18, -28, -70, 21, -58, 31, -43, -37, 14, -56, -20, -93, -24, 105, 21, -34, 55, 92, -57},
  {-40, 9, 18, 36, 127, -10, -3, 25, -36, 10, -14, 4, 102, -18, -48, 58, -58, -33, -38, 22, -25, 6, 40, 3},
  {-48, -9, -24, 42, 65, 94, 6, 27, -23, 18, 94, -58, 127, 8, -30, -20, -58, -75, -108, 66, -6, -9, -37, 95},
  {40, 13, -9, -32, -22, -7, -8, -6, 23, -17, -8, 34, -127, 21, 15, -24, 43, 17, 35, -41, 34, 5, -11, -40},
  {78, -69, 59, 28, 13, 32, -16, 51, 104, -14, 12, -30, 50, -32, 32, -75, -4, -27, 0, 23, -35, 16, -127, -99},
  {21, -29, -51, 35, 21, -10, 44, -72, 23, 33, -9, 22, 36, -38, -127, 17, 3, -22, -12, -10, 0, -25, 91, -12},
  {26, 111, 47, -100, 19, -36, 19, -5, 38, -34, -12, 19, -93, -15, -17, -127, 56, 86, 75, -65, -50, 37, 46, 30},
  {20, 38, 20, 45, 57, -45, -43, -21, 6, -41, -15, -27, -38, -23, -37, -37, 0, -13, 107, -62, -44, 127, 24, -65},
  {61, 6, 9, -24, 29, 26, 6, -127, -12, -22, -1, -1, 11, 52, 19, -19, -11, 25, -17, -122, -22, 60, 4, -56},
  {85, -17, -2, 11, 57, -4, 21, 11, -2, -30, -29, 34, -109, -43, -11, -127, 23, -12, 124, 26, -81, 10, -8, -27},
  {-24, -54, 78, -25, 31, -44, -23, 24, -98, 37, -64, -25, 127, 5, 77, 90, -52, 16, -78, -57, -41, 109, -85, 87},
  {72, -7, -64, 50, 16, 20, 18, 0, -31, -16, 13, 1, -28, -12, -4, 12, 32, -47, 127, -15, -18, -59, 23, -81},
  {31, 30, 75, -65, 41, -98, -67, 35, 17, -33, -120, 36, -81, -18, 54, -42, -21, 92, 55, -74, -26, 127, -87, -16},
  {-9, 68, -36, 52, -30, -59, 17, 67, 26, 25, 29, -11, 79, -33, -127, -33, -70, -69, 18, 46, 14, -41, 89, 14},
  {117, -10, 19, -27, -16, 13, -122, -127, 61, 91, 43, -79, 7, 64, 20, -41, 5, 63, 12, -70, -35, 5, -7, -97},
  {20, 12, -62, 24, 4, 45, 127, 58, -27, 55, -8, 27, 54, 39, -23, 65, -88, -91, 2, 44, -16, -55, 80, -42},
  {127, -15, -45, 27, -18, 15, -2, -19, -4, -24, 50, 73, -83, -10, -16, -21, 0, -77, 110, -21, 5, -58, 17, -81},
  {28, 40, 44, -44, -41, -73, 7, -75, -21, 7, -62, -19, 28, -35, 38, 50, -70, 33, 127, 81, -103, 74, -33, -47},
  {-63, -116, 79, -88, 95, 22, -77, -25, -57, 18, 127, 12, 94, -36, 67, -47, -54, 14, -91, 111, -64, -54, -93, -99},
  {94, 127, -50, 83, -55, -17, -74, 2, 61, 0, -113, -74, 22, -42, -26, -33, 50, -98, 14, -36, 21, -41, 68, -63},
  {3, 127, -20, 61, -73, -40, -53, 29, 87, -21, -108, -58, 2, -42, -24, -65, 90, -38, 60, -73, 60, 50, -17, -56},
  {-7, 53, -32, -61, -83, -12, 127, 27, -7, -46, -16, 55, -12, -17, -8, -38, -21, 20, 23, -28, 32, 3, -25, 42},
  {100, 90, -13, 64, -127, -38, 8, 27, 74, 3, -116, -81, -34, -36, -36, -49, 75, -43, 35, -90, 49, 45, 48, -86},
  {65, 19, -62, 59, -25, 105, 47, 27, 23, -44, -83, -45, 7, 127, -19, 99, -5, -107, 38, -42, -76, 43, 39, 18},
  {35, -21, -51, 13, -73, 26, 111, 53, 8, -110, 26, 79, -42, 13, -6, -127, 44, 46, -34, 40, -3, -19, -40, 27},
  {-25, 12, 29, -89, 69, 2, 28, 7, -2, -61, 43, -45, -60, 94, 43, -43, -127, -67, 65, 6, -57, 36, -43, -77},
  {-52, -44, -3, -83, 46, 16, 63, -77, -50, 127, 45, 69, 11, 98, 3, -64, -12, 51, 8, 26, -30, -14, -65, -51},
  {-91, -82, 26, 58, 17, 38, -72, 29, -28, -15, 94, -37, -84, -98, 40, -64, 30, -42, 28, 37, 46, -127, 63, 19},
  {2, -127, -50, 31, -30, 51, 86, -2, -1, -6, 28, 45, 13, 45, 11, 40, 61, -14, -87, -80, 41, -19, -65, 16},
  {-90, 49, 9, -81, 22, -52, -3, 103, -11, -30, 36, 12, -23, -1, 70, -40, -102, -4, 31, 0, -97, -41, -32, 127},
  {59, -20, 41, 45, -105, -42, -59, 10, 9, -3, 42, -9, -36, -41, 57, 22, 82, 59, -47, -25, 28, 30, -127, -24},
  {67, 1, -59, 4, -8, -54, 34, -9, 127, -8, 49, -60, -87, 98, -37, 2, -90, -18, 113, -66, -62, -9, 6, 114},
  {-116, 41, -41, -1, 46, 52, 56, 25, 6, 32, 50, -27, 52, -51, -85, -9, -127, -34, 3, -4, -16, -69, 56, 31},
  {-81, -34, -8, -72, -91, 13, -99, -127, 64, 50, 58, 2, 56, 16, 47, 39, -5, 14, 127, 5, -86, -33, 33, 38},
  {-31, 29, -11, 2, 7, 51, 21, -41, -1, 30, -60, -29, 48, 117, -22, 127, -119, -28, 42, -42, 8, -16, 17, 8},
  {-52, -23, -41, 0, -98, -39, 87, 97, 18, -67, -37, 45, -30, 108, -35, -52, -35, 27, -95, 37, 48, -46, 29, 127},
  {53, 48, 67, -55, 127, -12, -59, -19, 66, -114, -14, -55, -23, -18, 65, -96, -60, -13, -32, 48, -57, 32, 2, -40},
  {1, 13, -95, 105, -85, -60, -41, 94, 126, 54, -91, 2, -42, -75, -31, -71, 127, -34, 10, -95, 99, -7, -2, -58},
  {-44, -54, -50, 14, -4, 75, 44, 127, 13, -9, 18, 61, 48, -9, -12, 1, -23, -22, 35, 127, -8, -95, -23, 0},
  {37, 27, -98, 72, -75, -16, -50, 6, 33, 61, 38, -9, 50, -1, -127, 86, 52, 29, -67, 53, 32, -52, -4, -61},
  {-1, 30, 36, -63, 2, -23, 25, -40, -127, -77, -53, -16, 5, -2, 47, 50, 10, 47, 9, -48, -22, 56, -66, 30},
  {-63, 83, 1, -127, 121, -103, 111, 33, -12, 21, -66, 22, -42, 10, -21, -45, -52, 64, 48, -95, 20, 37, 82, -60},
  {-54, -67, 43, -98, 127, 67, -56, 36, 13, -43, 49, -32, 30, 23, 90, -100, -84, -110, -28, -22, -48, 29, -58, -43},
  {4, 46, 27, -19, -1, 25, -33, 59, 27, -85, -12, -63, -7, 17, 49, -11, -69, 48, -14, 28, -127, 72, -67, -11},
  {75, -109, -9, 54, 30, -45, -53, -61, 103, 40, -26, -37, 26, -60, -22, 126, -15, -69, 127, 47, -47, 5, -48, 26},
  {-29, -14, -50, 34, -69, 2, 18, -54, 127, 112, 0, 1, 112, -39, -71, 47, 3, -33, -105, -54, 68, -49, -52, -62},
  {2, 43, 2, -18, 127, 41, -12, 34, -82, 14, 52, 8, 11, -55, -1, -18, 6, -108, -71, -9, -22, -103, 73, -28},
  {14, -6, -71, 113, 2, 45, -24, 80, -81, 15, -9, -19, 30, -33, -29, 123, -13, -53, -9, 118, -25, -34, 127, -43},
  {-41, -16, -2, -46, 12, -8, 127, 32, 43, -21, -57, 83, 0, -34, -25, 7, -1, 89, -31, 25, -10, -33, -20, -7},
  {-52, -92, 4, -53, 63, -65, -23, -56, -18, 2, -1, 108, -50, 16, 1, -74, -25, 102, 66, 23, 16, -127, 63, 10},
  {-60, -60, 13, -125, 127, -2, 47, 0, -67, -14, 19, 87, 28, -75, 49, -48, -20, 21, -17, -32, 9, -49, 51, -84},
  {48, -51, 16, 44, -93, 37, 47, -5, 26, -5, 22, -7, -27, 45, -16, 108, -19, -96, -127, 27, 19, 30, -16, 61},
  {30, -88, 81, -99, 54, 78, -20, -65, -53, -10, -81, 27, 127, 78, 57, -15, -67, 67, -31, -63, -58, 24, -51, -94},
  {-58, 22, 28, 74, -39, 55, 17, -73, -127, 45, 18, -91, 108, -6, -48, 117, -27, -43, -69, -75, 36, -34, 46, 23},
  {-47, 65, -17, -13, -57, 3, 46, -7, 9, -23, -30, 0, 10, 1, -43, 127, -45, -31, -11, 18, 36, -2, 15, 46},
  {127, -6, -31, 38, -28, 19, -33, -7, 23, -76, -27, 51, -20, -57, -34, -18, 69, 26, 24, 9, -36, -9, -1, -17},
  {-27, 35, 15, -74, 89, 2, 3, -21, 25, 11, -31, 49, 90, 50, -24, -15, -127, 39, -13, -20, -59, 20, -11, -18},
  {-80, -33, -17, -110, 58, 105, 127, -86, 34, -43, 87, -13, 18, 41, 55, 5, -122, -8, 36, 45, -35, 18, -70, 40},
  {51, 51, -60, -26, -23, -23, -8, 5, 74, -21, -45, 7, -66, 1, -35, -127, 32, 28, 56, 81, -8, 3, 10, -18},
  {-39, -38, 10, -86, 24, -48, -34, 29, 63, 48, -127, -1, 77, -91, 5, -113, -38, 127, -22, 21, -10, 122, -109, 10},
  {21, -73, -79, 100, -46, 37, -24, 49, -114, 21, 36, -63, -39, -60, -34, 127, 69, -119, 7, -5, 55, -42, -35, 4},
  {63, 111, -9, -22, 28, -10, 40, -32, 1, -1, -127, -74, 91, 84, -48, 102, -54, -48, 37, -80, -12, 62, 44, 2},
  {10, 24, -7, -79, 8, 67, -1, -20, -2, 4, 28, -39, 127, 113, -30, -17, -103, 65, -31, -18, -84, 1, 34, 1},
  {-70, -127, 45, -124, 81, -102, -64, -35, 26, 50, 16, 17, 47, -11, 7, -35, -43, 101, -7, 26, -2, 9, -46, 12},
  {-63, 45, 107, -25, 7, 1, -51, 1, 23, 36, -17, -12, 31, -38, -31, -127, 0, 31, -121, 103, 54, -3, 0, 21},
  {26, 40, -69, 56, 37, 53, 61, -31, -1, -37, -27, -19, -51, -13, -37, 127, -33, -34, 10, -62, 0, 1, 88, 18},
};

static const float kLayer0InProjScale[96] = {0.00215059821f, 0.00152300042f, 0.00159362645f, 0.00422435487f, 0.00161507761f, 0.00408425136f, 0.00210123579f, 0.0030057875f, 0.00154564506f, 0.00230396539f, 0.00222905469f, 0.00359476451f, 0.00261916872f, 0.00252124085f, 0.00327436952f, 0.00208845455f, 0.00249370746f, 0.00216162857f, 0.0029775307f, 0.00274627935f, 0.00231753616f, 0.0018477909f, 0.00177439535f, 0.00180480385f, 0.00326904212f, 0.00357180438f, 0.00157332874f, 0.00241289008f, 0.00255468325f, 0.00171068369f, 0.00177280081f, 0.00310446089f, 0.0018723791f, 0.00288645714f, 0.00335802394f, 0.00393430283f, 0.00147611415f, 0.0020840303f, 0.00217511342f, 0.00256761746f, 0.00222749519f, 0.00385225471f, 0.00227299379f, 0.0021008933f, 0.00213866564f, 0.0021163167f, 0.00218086899f, 0.00220368523f, 0.00166924461f, 0.00156520191f, 0.00128663657f, 0.00301006669f, 0.00116859609f, 0.00226348662f, 0.00278238743f, 0.00239418307f, 0.00164008199f, 0.00194962753f, 0.00229316135f, 0.00289594871f, 0.00300086639f, 0.00218826369f, 0.00365905627f, 0.00199645944f, 0.00278286147f, 0.00210531359f, 0.0023664555f, 0.00201826775f, 0.0031893719f, 0.00179705338f, 0.00258438056f, 0.00148521119f, 0.00179122994f, 0.00331701944f, 0.00202637864f, 0.00160294038f, 0.00278040487f, 0.00186492014f, 0.0019319508f, 0.00209931261f, 0.00193110877f, 0.00212111115f, 0.00207013171f, 0.00232330011f, 0.00193246384f, 0.00169630197f, 0.00258164899f, 0.00166843901f, 0.00384664f, 0.00231128861f, 0.00219419342f, 0.00193136826f, 0.00267418427f, 0.00214404333f, 0.00173095672f, 0.0026003716f};

static const float kLayer0Conv1dWeight[48][4] = {
  {-0.030661488f, 0.221771479f, 0.00223049405f, -0.100459777f},
  {-0.041748967f, -0.0482902415f, -0.182654366f, -0.227045491f},
  {0.0524262153f, 0.243974924f, -0.0165132657f, -0.00531531218f},
  {-0.128805906f, -0.300804198f, -0.223953381f, -0.159888357f},
  {-0.180236191f, -0.0744306147f, 0.0307486821f, 0.0292373914f},
  {-0.128045738f, -0.262329161f, -0.0977717713f, -0.0295271054f},
  {0.376696467f, 0.173155814f, 0.0507916585f, -0.00936209876f},
  {-0.311846018f, -0.179313958f, 0.126782909f, -0.071064204f},
  {0.0981641114f, 0.116368808f, -0.133876726f, -0.0173786674f},
  {0.0320096202f, -0.0624471381f, -0.428531229f, -0.111162156f},
  {0.0720981956f, -0.328637987f, 0.0273904391f, 0.0687429756f},
  {0.336014956f, 0.368487507f, -0.249004185f, -0.10531076f},
  {-0.253995627f, 0.152589515f, 0.0663713068f, -0.0166676641f},
  {0.410331905f, -0.155607119f, -0.10219083f, -0.0855016261f},
  {0.393858701f, 0.230191201f, -0.168698743f, -0.14919351f},
  {0.10500107f, -0.12509194f, 0.310009003f, -0.180043653f},
  {-0.13091661f, -0.179500014f, -0.0955201909f, -0.357452542f},
  {0.24386254f, -0.27158609f, -0.0711804181f, -0.0714821517f},
  {0.0950831771f, -0.388740629f, -0.263100713f, 0.230846301f},
  {0.193517029f, -0.151740015f, 0.302050889f, -0.287562698f},
  {0.252824277f, 0.174607992f, -0.17240271f, 0.155049831f},
  {0.170519441f, 0.323157161f, 0.372157395f, 0.0999795273f},
  {0.165808156f, 0.156174257f, 0.132073864f, 0.115233168f},
  {-0.252335668f, 0.0155475326f, -0.0382344723f, -0.0142219476f},
  {-0.195602909f, -0.120887242f, 0.158020437f, -0.215144187f},
  {0.181300774f, -0.223990083f, -0.44939959f, 0.212064087f},
  {-0.127375126f, 0.274632871f, -0.234048948f, 0.182570219f},
  {0.0584841259f, 0.0399045944f, 0.227386937f, -0.13776727f},
  {-0.382023484f, -0.0893930793f, -0.0815196633f, 0.153402284f},
  {0.194578797f, 0.0343558863f, 0.0231725387f, 0.299820036f},
  {-0.225948542f, 0.194075361f, -0.123133838f, 0.0195043832f},
  {0.140439436f, -0.274540246f, 0.253921419f, 0.185525715f},
  {0.0710852072f, -0.0882358998f, 0.221969292f, -0.101312861f},
  {0.273387164f, -0.00826714467f, 0.201730207f, 0.0528579801f},
  {-0.0218804106f, -0.419759959f, 0.206985503f, 0.153788432f},
  {-0.250740051f, 0.25578776f, 0.21445249f, -0.222966686f},
  {-0.0217199922f, 0.0465855971f, -0.242971972f, 0.0320595689f},
  {0.204487026f, -0.277406186f, 0.0441135056f, -0.0359534025f},
  {0.028881669f, -0.00477887411f, 0.0220793691f, 0.180810526f},
  {0.348301768f, 0.10822577f, -0.113293074f, -0.0265183672f},
  {-0.214776382f, -0.240340829f, 0.324480265f, 0.0403348617f},
  {0.215268373f, 0.024150379f, -0.406497329f, 0.00848561898f},
  {0.342248559f, -0.0874236599f, 0.0191200487f, 0.0669180304f},
  {0.178670689f, 0.212970793f, -0.138344362f, 0.200576916f},
  {0.0516277589f, -0.132096156f, 0.112729482f, -0.308972955f},
  {-0.126266822f, 0.214363486f, -0.0805375427f, -0.191701472f},
  {-0.172874391f, 0.248597041f, 0.287201673f, -0.108976841f},
  {-0.137102872f, -0.132569462f, -0.280980766f, 0.267815858f},
};

static const float kLayer0Conv1dBias[48] = {0.00774798682f, 0.0358662456f, -0.0086233234f, -0.0232806038f, -0.0164713282f, 0.0100669302f, -0.0231999662f, 0.0891499743f, -0.0280951355f, -0.0181636512f, 0.017691737f, 0.105728105f, -0.02930036f, -0.0426549166f, -0.0472926237f, -0.0336201638f, -0.0320443064f, -0.045630075f, 0.0708738118f, -0.0153937386f, 0.0650841594f, -0.0571061671f, 0.0609951094f, -0.0365936644f, 0.0643715635f, 0.0697415024f, -0.0245078746f, -0.0828991607f, 0.0503249541f, 0.00486983452f, 0.00431445846f, -0.0189161021f, -0.0128483819f, -0.064242661f, 0.11999765f, -0.00279542012f, 0.0125288796f, 0.005831338f, 0.0707466453f, -0.0267603379f, 0.0642188936f, 0.0957771689f, -0.0174190532f, -0.032959912f, -0.0248402618f, 0.0750338361f, -0.00915837754f, 0.0466116406f};

static const int8_t kLayer0XProjQ[34][48] = {
  {1, 11, 15, -35, 3, 12, -43, -7, -19, 17, -34, -67, -55, 90, -32, -74, 2, 20, -77, 109, 16, 7, -18, 44, -62, 63, -44, 24, 44, 15, -35, 127, 43, -43, -93, -42, 35, -65, -9, 24, 72, 16, -67, 8, 29, -71, 54, 49},
  {-17, 5, -4, -1, -7, -25, 55, -4, -6, 3, 23, 46, 46, -97, 68, 109, 11, 62, 97, -127, -24, 7, 12, -25, 61, -74, 75, -22, -93, -7, 50, -82, 6, -2, 122, 101, -14, 65, 14, -31, -35, -41, 96, 3, -50, 57, -20, -29},
  {10, 50, 30, -32, 28, -30, 63, -3, 0, 7, 37, 47, 0, -44, 50, 25, 16, 56, 84, 18, 29, -31, 34, -13, 14, 32, -29, -7, -41, 27, -23, -78, -59, 16, 127, 106, -39, 56, 31, -30, -15, -25, 49, 29, -71, 28, 41, -15},
  {30, 66, 37, -52, 56, -7, 69, 16, 35, -1, -9, 127, -41, -44, 2, 28, -10, 47, 67, -8, 54, -36, 73, -14, 42, -3, -39, 39, -34, 53, -6, -50, -56, 1, 63, 126, -49, -36, 29, 9, -45, -36, 42, -6, -64, 52, 61, -30},
  {49, 16, 34, -24, 47, -8, 84, -12, 57, -15, 52, 90, 29, -63, 41, 23, 1, 2, 70, -127, 34, -19, 61, 6, 5, -1, 44, 18, -18, 50, 88, -92, 1, 1, 97, 111, -25, -92, 7, -20, -44, -27, 48, -15, -16, 46, 39, -24},
  {14, 15, -75, -39, -57, 86, -72, -21, -54, 11, -115, 4, -97, 22, -3, -13, -35, 14, -127, 81, 3, -28, -55, -39, -41, 100, -50, -4, -39, -28, -120, 30, -18, -5, -86, -72, -10, 17, -6, -21, 2, -7, -42, -35, -13, -70, -12, 22},
  {9, -44, -106, 29, -49, 89, -127, -18, -70, -28, -91, -70, -18, 73, -70, -10, -52, -37, -82, 76, -22, -12, -86, -4, -6, 64, -39, 51, -18, -52, -82, 94, -4, -29, -101, -72, 5, 16, -37, -9, 97, -42, -59, -20, 22, -35, 55, -15},
  {5, 69, 108, -61, 72, -126, 103, 31, 70, 116, 65, -11, 71, 7, 51, 25, 60, 127, 125, -79, 41, 14, 66, 17, 11, -35, 60, -18, 68, 57, 97, -59, -21, 42, 112, 93, 40, 32, 33, 45, 32, 25, 67, 104, -79, 59, 40, 12},
  {-14, 59, 29, -127, -58, -60, -49, 20, -27, 40, -19, 26, 49, 23, -119, 8, 38, 127, -16, 47, 76, -8, 9, -41, -48, 75, -20, 40, -4, 65, -83, -42, -69, 19, -57, 66, -26, 40, 7, 33, 104, 18, 3, 77, 29, 36, 56, -23},
  {7, 39, 56, -13, 78, -7, 66, 36, 46, -17, 1, 14, 17, -28, 36, 23, 12, -60, -31, 4, 38, -6, 56, 19, 81, -19, -6, -40, 5, 32, 59, 23, 54, -29, 19, -127, 19, -76, 17, 14, -32, 38, -41, -39, -105, -30, -117, -66},
  {65, -32, -21, -29, 36, 29, 127, 61, 72, -84, -25, 33, 61, 4, 17, 41, -52, -54, -41, -26, 8, -31, 59, -44, 88, -2, -1, -71, 11, -26, 31, 6, -7, 1, 45, -66, -39, -52, 24, 34, -12, 42, 35, -85, -37, 29, -91, -124},
  {-21, 0, 64, 7, 7, -65, -50, 18, -65, 73, 107, -58, -86, 11, 52, -67, 33, 48, 73, 42, -23, 7, -33, 56, -29, -39, -36, 10, 56, 13, 31, -96, 3, 72, -59, 127, 8, 7, -20, -1, 27, -32, 18, 114, 30, 4, 108, 125},
  {-122, -10, -14, 81, -57, -69, -104, 34, -75, 48, -22, -127, -11, 40, -9, -27, 11, -23, 64, 22, -67, 61, -55, 80, 10, -49, -54, -9, 50, -59, 42, 4, 68, 51, -116, 66, 48, -24, -84, 51, -52, -58, -10, 30, 45, -46, 58, 93},
  {16, -14, 4, -43, 6, 31, -19, 61, -46, -48, -29, -38, -1, -36, 22, -24, -21, 11, -6, 20, -61, -39, 70, -37, 40, -63, 67, -1, 6, 38, 77, -17, 0, 14, 10, -4, -41, -43, 52, 91, 51, 21, 33, -10, -13, 42, -24, 127},
  {-58, 6, -104, 60, -66, 28, -127, 56, -47, 48, -83, -32, 11, -34, -83, -8, -21, -34, -33, 37, -83, 11, -30, 10, 30, 30, 48, 9, 75, -53, 40, 40, 12, 51, -86, 4, 22, -60, 0, 50, -23, -37, -8, -24, 10, -2, 23, 90},
  {31, -58, -6, -7, -39, 95, -58, 84, -12, -81, -79, -65, -88, -20, -24, -63, -116, -22, -74, 52, -56, -102, 80, -84, 78, 37, -35, 78, 12, -53, -2, -127, -10, 73, -31, -11, -65, -84, 118, 101, 67, 51, 74, -86, -50, 90, 26, 35},
  {17, 6, -32, 64, 5, -29, 56, -17, 80, 54, 89, 6, 58, 46, 1, 23, 53, 13, 50, -2, 62, 57, -86, 35, -32, -20, -101, -42, -10, -21, -75, 61, 12, -47, -19, 2, 44, 90, -74, -49, -9, -10, -34, 42, 31, -69, -3, -127},
  {-66, -52, -54, 35, 46, -17, -127, 48, 44, 44, -27, -24, 0, 42, 14, -6, -66, -21, 12, 6, -102, 67, -81, 37, 8, 8, -7, -21, 22, -87, 31, 57, 97, -72, -62, 47, 71, -57, 10, 86, 34, 45, -1, -78, 18, -11, -10, 69},
  {44, -58, -67, 21, -45, 67, 18, 39, 50, -47, 53, 67, 73, -74, 59, 23, -70, 37, 25, -95, -45, -27, 44, -24, 52, -18, 53, 13, 64, -31, 127, -4, -11, 15, 85, 74, 2, -16, 47, 23, -1, -3, 37, -70, 5, 69, 4, -33},
  {117, -62, -37, -55, -20, -4, 48, 32, 65, -81, 61, 72, -8, -46, 127, 34, -42, 69, 25, -89, 18, -104, 114, 10, 32, -66, -52, -80, 66, 25, 66, -46, -99, 23, 96, 45, -37, -32, 48, 26, 16, 72, -1, -52, -9, 43, -60, -65},
  {49, -38, -26, -9, -65, -20, 54, 49, 69, -98, 72, 59, 11, -14, 16, -13, -66, 78, 37, -15, 22, -75, 103, -44, 58, -38, -50, -2, 122, -12, -18, -127, -107, 97, 46, 91, -63, 9, 69, 81, 1, 36, 22, -87, 24, 61, -66, -101},
  {55, 18, -13, 27, 27, 87, -79, -96, -24, 75, -4, -16, -74, 90, -23, 9, 26, -3, -66, -10, 10, 32, -111, 102, -79, 15, -29, -84, -127, -18, -26, 28, 69, -48, -40, -60, 41, -79, -53, -118, 21, -11, -72, 29, -58, -93, -25, 80},
  {33, -16, -58, 49, -19, 68, -98, -55, -28, 8, -35, -28, 4, 42, -20, 9, -21, -17, -59, 28, -3, 30, -76, 24, -50, 40, 9, 5, -67, -22, -23, 127, 50, -53, -46, -39, 47, -11, -64, -56, 82, -38, -40, -24, -8, -55, 56, 26},
  {-16, 30, 79, -71, 59, -68, 127, 37, 40, 37, 28, 13, -23, 20, 56, -44, -20, 41, 110, 36, 15, -70, 88, -18, 35, -75, -63, -3, 59, 37, -68, -93, -70, 56, 42, 56, -46, 62, 94, 42, -55, 5, 7, 15, -26, 35, 5, 0},
  {-6, -20, -17, -1, 9, 40, -49, -80, -3, 32, -38, 110, -86, -77, 2, -43, -32, -14, 53, 32, -51, 11, -10, 79, -80, 18, -45, -29, -55, 7, -46, 63, 100, -127, 31, 60, 114, -16, 14, -79, -66, -99, -65, -121, 8, -54, 19, 86},
  {21, 40, 41, -2, 62, -4, 63, 35, 49, -3, -6, 30, 15, -44, 44, 22, 7, -48, -23, -12, 37, -16, 43, 24, 92, -13, 3, -38, 4, 24, 66, 14, 53, -19, 17, -127, 8, -73, 18, 21, -17, 34, -23, -33, -116, -19, -94, -75},
  {52, -29, -24, -15, 36, 28, 118, 39, 72, -63, -22, 23, 35, -4, 3, 21, -44, -63, -38, -30, 0, -34, 54, -14, 81, 10, -5, -55, 5, -27, 34, 0, 8, -8, 32, -68, -27, -58, 19, 33, -44, 23, 23, -99, -17, 30, -83, -127},
  {-39, 2, 23, 36, -29, -70, -61, 2, -64, 82, 105, -48, -88, 25, 68, -52, 27, 15, 71, 25, -22, 12, -35, 61, -40, -35, -27, 16, 36, -4, 43, -85, 25, 68, -54, 105, 15, -16, -36, 6, 12, -32, -22, 87, 39, 8, 99, 127},
  {36, -33, 62, -26, 43, -29, 41, 77, -7, -35, 121, -82, 14, -37, 40, 0, 34, 53, 52, 13, 35, -22, 43, -15, 18, -95, -32, -65, -4, 58, 60, 1, 56, -9, -8, 41, -6, 6, 14, 77, 127, 74, 92, 108, -1, 35, 7, 27},
  {-36, -1, -4, 106, 3, -93, -14, -54, 28, 49, 127, -44, 11, 72, 7, 49, 57, -19, 44, -66, 42, 62, -82, 77, -20, -4, -53, -32, 13, -57, -24, 7, 9, -3, -74, 24, 21, 61, -93, -39, -53, -33, -39, 77, 38, -55, 34, -70},
  {58, -2, 107, -54, 67, -44, 127, -47, 43, -48, 121, -16, 4, 32, 102, 35, 53, 9, 75, -54, 84, -16, 40, -15, -19, -32, -39, -35, -75, 53, -51, -29, -18, -58, 84, -22, -28, 83, -6, -41, 39, 56, 2, 48, -16, 21, -33, -95},
  {-27, 46, 11, 34, 17, -83, 82, -127, 15, 95, 78, 102, 103, -5, 28, 61, 104, 32, 63, -45, 81, 85, -94, 83, -78, -22, 20, -87, -6, 43, -3, 107, 14, -85, 81, 23, 68, 87, -119, -122, -82, -75, -76, 57, 48, -90, -26, -60},
  {5, 0, -14, -80, -51, 46, -64, 66, -48, -50, -70, 3, -68, -45, 20, -60, -55, 10, -18, 9, -71, -48, 71, -50, 31, 35, 63, 42, 13, 22, 90, -37, 3, 17, 14, 27, -13, -88, 81, 83, 43, 37, 44, -44, -55, 72, 7, 127},
  {55, 41, 2, -54, -71, 1, 32, 4, 21, 45, 36, 101, -56, -60, 120, 54, 43, 36, 29, -28, 84, 10, -19, -25, -27, 63, -58, -70, 7, 25, 3, 15, -29, -56, 90, -26, 61, 127, 31, -33, 51, 42, -39, 74, -16, -28, -7, -98},
};

static const float kLayer0XProjScale[34] = {0.00438277703f, 0.00375455199f, 0.00310175889f, 0.00202940241f, 0.00196998846f, 0.00180660014f, 0.00193177024f, 0.00224154629f, 0.00270865182f, 0.00287468801f, 0.00398741383f, 0.0027004797f, 0.0030712334f, 0.00378156989f, 0.00465805363f, 0.00329137803f, 0.00365925068f, 0.00308014313f, 0.00255296356f, 0.0017576135f, 0.00177614996f, 0.00165833707f, 0.00249661249f, 0.00281690201f, 0.00249177567f, 0.00298156054f, 0.00424113031f, 0.00294795493f, 0.00330358464f, 0.00307524414f, 0.00408897595f, 0.00307133584f, 0.0035395578f, 0.00243528374f};

static const int8_t kLayer0DtProjWeightQ[48][2] = {
  {-42, -127},
  {-127, 48},
  {73, -127},
  {-127, 95},
  {4, -127},
  {-25, 127},
  {127, -118},
  {-91, 127},
  {-127, 77},
  {-52, 127},
  {24, 127},
  {-110, 127},
  {0, 127},
  {-111, 127},
  {-127, 66},
  {91, -127},
  {4, -127},
  {-127, 115},
  {-127, 90},
  {-62, 127},
  {-127, 102},
  {-127, 78},
  {55, -127},
  {15, 127},
  {127, -13},
  {14, 127},
  {-127, 119},
  {86, -127},
  {-127, 10},
  {-121, 127},
  {4, 127},
  {-22, 127},
  {-35, -127},
  {4, 127},
  {-116, 127},
  {-127, -16},
  {-116, 127},
  {-116, 127},
  {-127, 97},
  {127, -16},
  {-55, 127},
  {-127, 116},
  {96, -127},
  {-127, 118},
  {-127, 91},
  {127, -91},
  {-127, -57},
  {85, -127},
};

static const float kLayer0DtProjWeightScale[48] = {0.00161152065f, 0.00104127137f, 0.000825186726f, 0.00384893129f, 0.000852190715f, 0.000632696901f, 0.00251585967f, 0.00175192824f, 0.000974152354f, 0.00193424092f, 0.00056027656f, 0.00144551496f, 0.0010524157f, 0.00434414949f, 0.00153600273f, 0.00100494595f, 0.000433587236f, 0.00313562131f, 0.00143696635f, 0.000399433979f, 0.00343645015f, 0.00230585178f, 0.00268703955f, 0.000259511755f, 0.0010207725f, 0.000781275099f, 0.00227376143f, 0.00301217195f, 0.00168354355f, 0.00200799736f, 0.000374988886f, 0.000871246739f, 0.000489013153f, 0.000936248223f, 0.00126398436f, 0.000341783743f, 0.00219362252f, 0.000865449081f, 0.00340375886f, 0.000731480133f, 0.00264575612f, 0.000525307783f, 0.00100279425f, 0.000615368481f, 0.00242382498f, 0.00144790136f, 0.00032785401f, 0.00332781626f};

static const float kLayer0DtProjBias[48] = {0.04812501f, 0.0402395092f, -0.0697961375f, 0.0543024726f, 0.033603508f, -0.00439915806f, -0.132213712f, 0.0338768177f, -0.0564348251f, 0.187677979f, 0.000396196934f, 0.0620546564f, 0.068866767f, -0.0852806568f, 0.0078479033f, 0.0395388752f, -0.195784882f, 0.0164361447f, 0.0540951528f, -0.0456078015f, 0.197219029f, -0.00210353197f, 0.0415491164f, 0.0118231606f, -0.0543040559f, -0.088741079f, 0.105896749f, -0.113382652f, 0.00985771883f, -0.107019022f, -0.118171811f, 0.0687893778f, -0.0574608035f, 0.14278397f, 0.0298366807f, 0.119932078f, 0.115095876f, 0.100686267f, 0.262089789f, -0.175249264f, -0.00897682458f, -0.13398616f, -0.0328834467f, 0.0909157246f, 0.275159776f, 0.0427157506f, -0.13153778f, -0.0791395381f};

static const int8_t kLayer0OutProjQ[24][48] = {
  {-22, 39, 52, -49, 44, 47, 48, 28, 20, 19, 26, -10, 24, 37, 127, 48, -6, 64, -41, -38, 18, -50, -14, -3, 28, 87, -5, 27, -87, -57, 22, -46, 53, -7, 0, 81, 16, 7, -6, -48, 0, 9, 48, -21, 13, -35, -35, 32},
  {-64, 43, 30, -46, -3, 51, 16, 3, -32, -42, -10, 32, -26, -50, 90, -17, -17, 6, 17, 57, 13, -88, -4, -14, -17, -41, -78, 4, -127, 50, 26, -36, 47, 25, 95, 18, -51, 33, 41, -46, 18, 15, 53, -4, -40, 40, -19, 76},
  {23, -26, -54, 127, -51, -14, -22, -96, -27, 20, 22, -96, -21, -49, -102, 31, 41, 94, 29, 70, 6, 63, 51, -55, -67, -96, 107, -56, -47, 96, -18, -72, -5, -15, 36, -53, 31, -31, -49, -95, -7, -23, -86, -30, 15, -32, -14, 72},
  {33, -31, -46, 14, -33, 6, 0, 127, 50, 12, -31, -12, -29, 75, -53, -67, 16, -73, 83, -64, 127, 74, 108, -62, 66, -15, -116, 29, -23, 29, 33, -7, -36, -71, 79, 65, 41, 10, 34, -20, 31, 27, -112, -44, -36, 38, -58, 52},
  {-1, 45, 74, -74, 80, 35, 110, -50, 3, 69, -26, -49, -42, 40, 95, -19, 59, 69, -108, 34, -127, -89, -63, 112, 31, 34, 33, -61, 7, -61, 28, 89, 89, 43, -31, -23, 3, 42, -103, 61, -41, -13, -29, 74, 115, -63, 65, 13},
  {29, 34, 25, -24, 15, -44, -37, 20, 43, -17, -75, 127, -35, 63, 9, -18, -8, -65, -11, -100, 32, -5, 38, -49, 1, 17, -16, -2, 13, -9, 55, 19, -22, -30, -87, 51, 30, 6, 49, 63, 95, 50, 12, 23, -20, 53, -19, 12},
  {-23, -16, -49, 12, -21, 52, -18, 12, 43, -38, -7, 127, 27, -12, -87, 2, 48, -66, 38, -5, -70, 44, -11, 22, 8, -59, 54, 37, 100, -10, -40, 9, -37, 8, 13, -62, 38, 92, -15, -51, -53, -14, -54, 20, -27, 30, 47, 17},
  {46, -14, -57, 13, -43, 24, -5, 16, 35, 10, 14, 12, -6, -34, -92, 7, 94, -54, 17, 9, -18, 11, 36, 13, 5, -74, -21, -1, 127, 72, 20, -6, -36, 6, 52, -66, 5, 22, -24, -30, -64, 18, -73, -18, 13, 20, 5, 33},
  {-14, -49, -14, 39, -12, 124, 11, 13, -3, -68, 59, -83, 43, -49, -93, 7, -46, 56, 30, 113, -66, 20, 12, -22, -9, 25, 53, 86, 63, -23, -109, -11, -24, -83, 67, -44, -38, 34, -64, -68, -127, 23, -41, -36, -18, -19, 8, -60},
  {-47, -45, -30, -36, -23, 27, 44, -27, -41, -35, 29, 78, 53, 1, -44, -57, -79, -8, 42, 17, -16, 43, -10, -18, -17, 2, 8, 72, 67, -37, -44, 4, -13, 46, 30, -3, -52, -14, 1, -7, 40, -127, 60, -37, -58, 23, 52, -92},
  {-52, 8, 41, -38, 45, 1, -25, -44, -15, 19, 15, 41, -28, 55, 103, 11, -124, -80, 17, -127, -5, 8, 50, 1, -49, 106, -44, 40, -10, -10, 60, 97, 29, 29, -15, 110, -4, -13, 12, 4, 103, 22, 78, -77, -14, -65, -44, -22},
  {0, 12, 22, 58, 27, -24, -90, -12, -7, 71, 12, 38, -34, -32, -11, 100, -30, 73, -127, -21, 14, 5, 53, -1, 40, 105, 87, -63, -4, 30, 14, -38, -25, -14, -73, -12, 7, -24, 10, -13, 14, 58, -22, -71, 32, -10, -35, -12},
  {-33, -35, 20, -62, 43, 36, 83, -91, 33, 66, -69, -48, 105, 124, 60, 8, -20, 29, -34, 26, 108, 38, 17, 50, -91, 127, 20, 53, 1, -90, 20, 98, 42, 98, -62, 63, -21, -59, -53, 57, 7, -15, 98, -66, 108, -77, 45, -89},
  {-66, 1, 24, -29, 22, -32, -4, -127, -30, -70, -9, 34, 10, 37, -96, -20, 43, -33, 45, -14, -114, -7, -1, 19, -62, 6, 74, 26, 15, -19, -29, 37, 45, 40, -80, -12, -12, -28, -38, -25, -81, -93, 13, 20, 45, -67, 34, -4},
  {91, 6, 44, 93, 20, -113, -84, 39, -7, -83, 48, 56, -26, -114, -100, 58, 20, -31, 41, 44, 19, 6, -60, -7, 43, -124, 7, -33, 12, -11, -27, -127, -87, -10, -95, -55, -15, -27, 59, 113, 119, 24, 28, 51, -52, 44, -11, 118},
  {39, -34, 22, -67, 15, -47, 43, -26, 68, -85, 29, 46, 127, 83, 97, -46, -7, -40, -75, -60, -22, 34, -91, 9, 8, 66, -8, 63, -11, -116, -26, 80, 21, 73, -97, -53, -63, -13, -42, 66, 32, -27, 82, 61, 2, 5, 23, 18},
  {9, -21, -29, -27, -28, 18, 57, 61, -16, -19, 44, -53, 0, 3, 50, -4, -36, 30, 57, 76, 91, 0, -53, -9, 50, -13, -101, -1, -6, -29, 0, -39, 1, -17, 31, -21, 5, 24, 15, 29, 24, -127, 24, -26, -4, 14, 16, -76},
  {18, -13, -48, 102, -28, -29, 12, 12, 17, -84, -113, -16, -75, -127, -112, -16, 21, -42, 101, 98, 0, 25, -69, 47, -8, -93, 8, 51, 55, 102, -23, -14, -50, -70, -38, -103, 73, -76, 48, 82, -25, -17, 46, 54, -49, 12, 44, -36},
  {58, 50, 56, 48, 50, -12, 9, 16, -96, 46, 4, -15, -57, -54, 20, -8, 53, 20, -63, -19, 19, -80, -17, 54, -98, -51, -55, -127, 1, -11, 16, -49, -47, 19, -10, 61, 5, -40, -14, 51, -25, 85, -72, 14, 35, 45, 11, 88},
  {-42, 63, 34, 55, 36, -11, -105, 46, -50, 34, 114, 30, -97, -42, -52, 127, -18, -110, -25, -47, -7, -69, 15, -32, 117, 42, 4, -80, 4, 40, -17, 39, -20, -38, -17, 51, -10, -18, 35, 43, -70, 73, -67, -13, 24, -45, -98, 57},
  {9, -67, -56, -78, -69, 10, 24, 35, 13, -18, 0, 0, 122, 1, 57, -44, -56, 56, 9, -32, 48, 87, -3, -47, 40, -22, -49, 48, -30, 15, -9, 16, -1, 52, 125, -11, -58, 59, 34, -47, 62, -127, -11, -38, -86, 42, 41, -79},
  {67, 48, -36, 69, -39, -82, 10, 41, -20, -63, -54, 39, -66, -111, 44, -127, -3, -30, 4, 43, 64, 2, -71, -16, 7, -66, 22, -5, -15, 27, 21, -93, -81, -61, -35, -17, 60, -29, 115, 31, 38, -31, 21, 83, -92, 112, 10, 12},
  {34, 23, 8, -49, -2, 53, 41, 30, 64, 80, -62, -76, 93, 53, 99, -72, 13, 127, -76, -36, 55, -7, 41, -32, 19, 36, -20, -49, -48, 8, 18, -54, 33, 21, 49, 20, 47, 31, -10, -45, 24, 61, 7, 15, -6, 16, -5, -9},
  {40, 42, 33, 26, 37, -85, -45, -34, 9, 32, -9, -73, -15, -14, 80, 20, -2, 42, -40, -8, -16, -46, -20, -3, -65, -15, 61, -51, -127, 36, -2, -5, 3, -37, -31, 56, -5, -25, 29, 28, 86, 66, 51, 41, 27, -5, -31, 47},
};

static const float kLayer0OutProjScale[24] = {0.00201064581f, 0.00182796374f, 0.00203595706f, 0.0019522683f, 0.00218935288f, 0.00290417275f, 0.0024523125f, 0.0024504757f, 0.0023832419f, 0.00322674052f, 0.00210426957f, 0.00250857486f, 0.00195126748f, 0.00290977629f, 0.0015731242f, 0.00182770845f, 0.00268429401f, 0.00211180677f, 0.00192044571f, 0.00231677503f, 0.00212490186f, 0.00166693574f, 0.00216848101f, 0.00275058276f};

static const float kLayer1PreNormWeight[24] = {1.05121791f, 1.08172333f, 1.01515138f, 1.074839f, 1.10581517f, 0.946112096f, 1.01423037f, 0.973737836f, 1.01069129f, 1.00371897f, 1.03660667f, 0.96409452f, 1.15186739f, 1.04012585f, 0.955858231f, 1.06607711f, 1.0985688f, 0.893399596f, 1.0660404f, 1.13103485f, 1.13554192f, 0.982836723f, 1.1959908f, 1.1157403f};

static const float kLayer1PreNormBias[24] = {-0.0156407878f, -0.0239507686f, 0.0155354012f, -0.0111391302f, 0.00918765832f, 0.00967307016f, 0.0168681834f, -0.0258725304f, 0.0676505417f, -0.0033972091f, 0.0495994613f, -0.0332268886f, 0.0300267842f, -0.0144332442f, 0.00683858898f, -0.0203698073f, 0.0482814796f, 0.019534668f, 0.0550163127f, -0.0428494886f, -0.0465153493f, -0.0104708029f, -0.0138518251f, 0.0230328143f};

static const float kLayer1PostNormWeight[24] = {0.804355383f, 0.775629759f, 0.863351762f, 0.879046679f, 0.835985184f, 0.882812917f, 0.947660744f, 0.8979128f, 1.02698541f, 0.862877429f, 0.854326129f, 0.959551454f, 0.837840378f, 0.904983342f, 0.837685466f, 0.757208347f, 0.795315444f, 0.857487857f, 0.836725831f, 0.905567229f, 0.894848347f, 0.937564135f, 0.922032356f, 0.882621109f};

static const float kLayer1PostNormBias[24] = {0.0154950973f, 0.00748467958f, 0.00276725274f, -0.0165754445f, -0.00265658624f, 0.00601125509f, -0.00353094866f, 0.00410044705f, 0.00274246116f, -0.0286855027f, 0.0108794486f, 0.044202514f, -0.0196485035f, -0.0163216852f, 0.0103861457f, -0.0534759127f, -0.0263808165f, -0.0257230401f, -0.000270700024f, 0.0694600046f, -0.0505059175f, 5.0570583e-05f, -0.0150727881f, 0.0235404633f};

static const float kLayer1ALog[48][16] = {
  {-0.280013561f, 0.391038567f, 0.693356931f, 1.1788646f, 1.25973499f, 1.56622267f, 1.67671704f, 2.06398344f, 2.03177452f, 2.03792357f, 2.2442286f, 2.42976618f, 2.43398666f, 2.43352437f, 2.43257713f, 2.43435502f},
  {-0.0548369177f, 0.565270782f, 0.920500457f, 1.24809778f, 1.5233283f, 1.43470061f, 1.8207655f, 1.63884723f, 1.69872868f, 2.11198449f, 2.03189254f, 1.96808553f, 1.97395885f, 2.10670996f, 2.15890837f, 2.1623466f},
  {-0.0982411802f, 0.457040012f, 1.08592999f, 1.02444732f, 1.39772475f, 1.49045038f, 1.4942379f, 2.26918888f, 2.11602592f, 2.26804852f, 2.18395615f, 2.44820261f, 2.46008372f, 2.47855735f, 2.60091138f, 2.64136362f},
  {7.54238645e-05f, 0.61481607f, 0.920830071f, 1.14255202f, 1.27813137f, 1.50920796f, 2.0083735f, 1.72967839f, 1.74817789f, 2.04269052f, 1.90434647f, 2.22036028f, 2.22716951f, 2.23879552f, 2.39661813f, 2.34355521f},
  {0.15111962f, 0.3761926f, 1.09917879f, 1.17780447f, 1.37781262f, 1.56505787f, 1.64954019f, 1.95583832f, 2.20376849f, 2.20510173f, 2.04083586f, 2.07416582f, 2.08005023f, 2.47256207f, 2.51404476f, 2.60287523f},
  {-0.0875337571f, 0.722273886f, 0.943227708f, 1.39545548f, 1.3925308f, 1.97741342f, 2.05661368f, 1.88533568f, 2.31250048f, 1.82488835f, 2.18162036f, 2.11543584f, 2.09910893f, 2.07903337f, 2.09853888f, 2.49200249f},
  {0.0786181539f, 0.372986376f, 0.757856786f, 1.18412876f, 1.23981297f, 1.47978842f, 1.86784112f, 1.81628525f, 2.06867385f, 2.12374496f, 2.34623551f, 2.36777949f, 2.47205377f, 2.39851785f, 2.46380568f, 2.73788619f},
  {-0.139861688f, 0.540204167f, 0.756966472f, 0.941730857f, 1.52980638f, 1.42941523f, 1.82659996f, 1.94531691f, 1.92202735f, 2.16126966f, 2.05777812f, 2.12945724f, 2.31584787f, 2.37601352f, 2.41342092f, 2.41356754f},
  {-0.356314391f, 0.690362096f, 1.0787648f, 1.12915933f, 1.49760532f, 1.79727852f, 1.97155404f, 1.93363273f, 1.94778574f, 1.95345712f, 1.97426128f, 2.0375452f, 2.14975405f, 2.13159418f, 2.16166663f, 2.4888525f},
  {-0.162849903f, 0.600513697f, 1.14927709f, 1.16997659f, 1.46862578f, 1.69570732f, 1.69085932f, 1.81512284f, 2.17051029f, 2.15293884f, 2.13472629f, 1.95427918f, 1.96451747f, 1.95762777f, 2.49587488f, 2.79201436f},
  {-0.230726704f, 0.374598116f, 0.720952511f, 0.976168752f, 1.24329293f, 1.62115538f, 1.68061662f, 1.97006416f, 1.99298108f, 1.99481452f, 2.1361022f, 2.2591393f, 2.28504419f, 2.32430291f, 2.27472568f, 2.32139206f},
  {-0.100115038f, 0.730097175f, 0.972730339f, 1.08561969f, 1.53175569f, 1.68339777f, 1.95859218f, 1.94735324f, 1.71724343f, 2.08522153f, 2.12935233f, 2.12805629f, 2.33565927f, 2.45358968f, 2.39076281f, 2.48909187f},
  {0.147574469f, 0.639093399f, 1.04630876f, 1.45218122f, 1.71611619f, 1.55220866f, 1.67259431f, 1.81414258f, 1.86599338f, 1.89413416f, 2.10519242f, 2.30941319f, 2.65177584f, 2.28567481f, 2.22828031f, 2.26442266f},
  {-0.297248334f, 0.644781828f, 0.736030698f, 1.31433797f, 1.49446356f, 1.45803714f, 1.49167752f, 1.86255562f, 1.84986591f, 1.83803976f, 2.00339651f, 2.33713555f, 2.39023662f, 2.36642766f, 2.38799095f, 2.3985734f},
  {0.110500589f, 0.418874502f, 0.895799756f, 1.14873362f, 1.61490476f, 1.62451625f, 1.6103065f, 1.9615078f, 1.96423256f, 2.17207193f, 2.14097261f, 1.86343431f, 2.08281493f, 2.50574374f, 2.43599749f, 2.50876999f},
  {-0.100763306f, 0.63153559f, 1.09751463f, 1.04905677f, 1.46826434f, 1.56251419f, 1.63938701f, 1.78960466f, 1.7499994f, 1.73561728f, 2.0045619f, 2.24377012f, 2.22233033f, 2.24049783f, 2.24756718f, 2.22895193f},
  {0.0593405403f, 0.783358932f, 1.02960408f, 1.24975407f, 1.53543019f, 1.74107921f, 1.79018867f, 1.90037513f, 2.24881768f, 2.13943601f, 1.96399844f, 2.10109782f, 2.10738635f, 2.47168446f, 2.50214052f, 2.45965075f},
  {0.105512746f, 0.571239233f, 0.921170592f, 1.20376682f, 1.56325626f, 1.49684501f, 1.57832599f, 1.92694056f, 2.00311852f, 2.53482723f, 2.00339603f, 2.21447158f, 2.11308098f, 2.19496393f, 2.3591094f, 2.25074673f},
  {-0.198349863f, 0.397915274f, 0.931016564f, 1.22344398f, 1.43836248f, 1.49961841f, 1.62299418f, 1.9196378f, 1.8957907f, 1.97114599f, 2.252038f, 2.36111641f, 2.38414812f, 2.41818118f, 2.69089842f, 2.72291398f},
  {0.137442127f, 0.755617082f, 1.031304f, 1.14622772f, 1.64162064f, 1.5271666f, 1.73988152f, 1.74849892f, 1.69560063f, 1.86315179f, 1.98163819f, 2.22470307f, 2.13391447f, 2.51772261f, 2.53711557f, 2.54001546f},
  {-0.178191409f, 0.592529297f, 0.997975349f, 1.31995642f, 1.56268322f, 1.65942335f, 1.63650811f, 1.82868266f, 2.09672427f, 2.11541271f, 2.09511924f, 2.35320973f, 2.40456986f, 2.37764907f, 2.44089699f, 2.43155861f},
  {-0.0399836451f, 0.601903796f, 0.876088023f, 1.2731241f, 1.5144819f, 1.70558119f, 1.62556612f, 1.939152f, 2.04384708f, 2.03133035f, 1.79578888f, 1.87141681f, 1.92471015f, 2.06131077f, 1.89684033f, 2.29529691f},
  {-0.0265469626f, 0.635659158f, 1.09612274f, 1.23353219f, 1.37918246f, 1.48733497f, 1.46726346f, 1.79776978f, 1.82279801f, 2.03388119f, 2.12324047f, 2.14112902f, 2.14359617f, 2.10564113f, 2.1407454f, 2.16300583f},
  {-0.00399716059f, 0.602609038f, 0.881649315f, 1.33130026f, 1.46093822f, 1.65547323f, 1.57808578f, 1.97030342f, 2.24700141f, 2.28350663f, 2.02038598f, 2.01516604f, 2.17692614f, 2.4044354f, 2.20573449f, 2.17782187f},
  {-0.110099494f, 0.416221619f, 0.915641427f, 1.30997503f, 1.36617899f, 1.72118163f, 1.68662727f, 1.4925108f, 1.98199964f, 1.98388696f, 1.98431277f, 2.35549331f, 2.59788299f, 2.54831004f, 2.56722951f, 2.56961274f},
  {0.195531592f, 0.582097411f, 0.873990536f, 1.20057356f, 1.37671435f, 1.47724605f, 1.52915621f, 1.88870871f, 2.12413502f, 1.94033873f, 2.00980711f, 1.93328607f, 2.3831501f, 2.43940067f, 2.46215367f, 2.37176132f},
  {0.0180837344f, 0.398083359f, 1.04111946f, 1.11372733f, 1.40221953f, 1.56789041f, 1.60219324f, 1.76351142f, 1.86098909f, 1.9421941f, 2.29415584f, 2.25547981f, 2.39266992f, 2.37759638f, 2.41315079f, 2.40424299f},
  {-0.0580791198f, 0.396475673f, 1.04443717f, 1.0385803f, 1.44746029f, 1.73810887f, 1.76982093f, 2.01484346f, 1.92940497f, 1.93568695f, 2.27892685f, 2.30568457f, 2.27415228f, 2.30177021f, 2.91696167f, 2.9400053f},
  {0.0295873005f, 0.48812151f, 1.00543439f, 1.05886579f, 1.41324973f, 1.40571976f, 1.98904574f, 2.022264f, 2.04948306f, 2.12848639f, 2.32034016f, 2.29183292f, 2.39438987f, 2.43281007f, 2.4491334f, 2.58724356f},
  {0.112269953f, 0.461540967f, 1.23649657f, 1.25084937f, 1.38307142f, 1.41505325f, 1.84713459f, 1.99319446f, 1.91364741f, 1.91583776f, 2.14478159f, 2.2344377f, 2.0573411f, 2.28308225f, 2.27531195f, 2.59301257f},
  {-0.116094016f, 0.576993108f, 1.11776447f, 1.26365733f, 1.59194887f, 1.5784905f, 1.8072958f, 2.05466413f, 2.124722f, 2.27972746f, 2.11144972f, 2.28558373f, 2.37763858f, 2.42584729f, 2.49168253f, 2.68556571f},
  {-0.156880185f, 0.575177848f, 0.954157948f, 1.20812392f, 1.53296065f, 1.69482315f, 1.74959612f, 1.96345639f, 1.89336896f, 2.22444415f, 2.12453246f, 2.37944984f, 2.42491817f, 2.44124126f, 2.42578912f, 2.54789472f},
  {0.0318244807f, 0.618499935f, 0.889012694f, 1.34704769f, 1.57018542f, 1.68337774f, 1.8510201f, 1.82936144f, 1.73896635f, 2.05005598f, 2.43206549f, 2.46510577f, 2.46595788f, 2.45453f, 2.46093202f, 2.41749883f},
  {-0.0152854463f, 0.690193772f, 0.945715129f, 1.12002766f, 1.51783192f, 1.67937851f, 1.71019578f, 1.76988113f, 1.87207508f, 2.24340439f, 2.23852587f, 2.10507894f, 2.15537882f, 2.14533782f, 2.39492965f, 2.62771344f},
  {-0.0804412887f, 0.540582299f, 0.816085696f, 1.54349494f, 1.33448982f, 1.38980651f, 1.80434942f, 1.88822532f, 1.86412406f, 1.96011984f, 2.2999351f, 2.20436454f, 2.25797987f, 2.26676941f, 2.23454642f, 2.24305463f},
  {-0.163628727f, 0.599274039f, 1.07065475f, 1.25088096f, 1.43520331f, 1.36915588f, 1.82237542f, 1.99385834f, 2.08352208f, 2.10702181f, 2.21658278f, 2.23237276f, 2.24131823f, 2.23165798f, 2.2394104f, 2.32083845f},
  {-0.0388016775f, 0.395031989f, 0.888579547f, 0.92954725f, 1.42893171f, 1.64842772f, 1.87157893f, 1.67244732f, 1.79148257f, 1.9187814f, 1.79015219f, 2.36934328f, 2.35968471f, 2.37119174f, 2.45146513f, 2.52322245f},
  {0.00399362529f, 0.586343825f, 1.03846467f, 1.20603502f, 1.49844754f, 1.59011149f, 2.20070624f, 1.7387054f, 1.89154828f, 2.00472116f, 2.22124457f, 2.08140874f, 2.18776035f, 2.18514848f, 2.24096441f, 2.19362164f},
  {-0.215197787f, 0.456971854f, 0.80142802f, 1.25574493f, 1.46351194f, 1.54146397f, 1.61222744f, 1.95285594f, 2.05159187f, 2.04091573f, 2.25498366f, 2.44526386f, 2.49625897f, 2.45570993f, 2.503438f, 2.64381385f},
  {0.132397354f, 0.749850333f, 0.94236511f, 1.13178098f, 1.68449557f, 1.63137984f, 1.91694629f, 2.02589631f, 2.02692032f, 2.02443743f, 2.36647964f, 2.40459609f, 2.49734569f, 2.48548245f, 2.48485422f, 2.51335931f},
  {-0.0516410843f, 0.592970371f, 0.844260037f, 1.14937639f, 1.61401916f, 1.68279445f, 1.73134816f, 1.81960893f, 1.85710883f, 1.96264851f, 1.80654728f, 2.16671705f, 2.44825554f, 2.4523685f, 2.45842886f, 2.46170807f},
  {-0.0312208142f, 0.656699896f, 0.653082907f, 1.26665521f, 1.56208503f, 1.69999981f, 1.82453597f, 2.1566236f, 2.15496588f, 2.1690805f, 2.1783402f, 2.14092779f, 2.19518924f, 2.19608498f, 2.19952178f, 2.20590854f},
  {0.0602783523f, 0.490487158f, 0.828940451f, 1.41943109f, 1.58403718f, 1.51043332f, 1.63414049f, 1.86688721f, 1.84691548f, 1.88268042f, 2.07383347f, 2.31915617f, 2.36992002f, 2.40418053f, 2.4572866f, 2.52401161f},
  {0.219695225f, 0.618515849f, 0.965283215f, 1.17462111f, 1.51087439f, 1.42146492f, 1.94540703f, 1.8901968f, 1.87924194f, 1.88745797f, 2.23057008f, 2.08338714f, 2.12542939f, 2.10407948f, 2.11262536f, 2.1327641f},
  {-0.0877436027f, 0.654152274f, 1.09969735f, 1.28473246f, 1.54479432f, 1.31801057f, 1.54506254f, 1.50988805f, 2.05015135f, 2.0945971f, 2.16943812f, 2.22278857f, 2.21935868f, 2.2207315f, 2.53949761f, 2.46403337f},
  {-0.170012042f, 0.656686425f, 0.91770792f, 1.15533435f, 1.56699741f, 1.64202225f, 1.64177191f, 1.99319088f, 2.04821944f, 2.05460095f, 2.0813725f, 2.33387947f, 2.40692377f, 2.40226102f, 2.41349721f, 2.4103384f},
  {-0.0773315802f, 0.357869685f, 1.04471338f, 1.11349189f, 1.46664917f, 1.53829718f, 1.68521786f, 1.87997139f, 2.07019329f, 2.03419328f, 2.28413296f, 2.14826846f, 2.22067308f, 2.18627f, 2.76717496f, 2.78251934f},
  {0.00265903166f, 0.752738774f, 0.899943709f, 1.20989811f, 1.39181709f, 1.85400879f, 1.69258785f, 1.9125433f, 1.87406445f, 1.93836117f, 2.18512392f, 2.19198775f, 2.13041139f, 2.17426252f, 2.46111727f, 2.50826788f},
};

static const float kLayer1D[48] = {1.02147186f, 1.02347279f, 1.01879013f, 1.03477907f, 0.905802667f, 1.0219177f, 0.878077388f, 1.02603936f, 0.963960469f, 0.919983625f, 1.10154247f, 0.853166997f, 1.16465271f, 1.14857244f, 0.948274374f, 1.08943546f, 0.865751743f, 1.05579793f, 0.990327597f, 0.966162145f, 0.802840054f, 1.1150043f, 1.02218771f, 0.928590894f, 1.02575219f, 0.782320619f, 1.04133785f, 1.0618664f, 0.855421603f, 1.1000123f, 0.903623283f, 0.900723696f, 1.1039654f, 0.985104501f, 1.05044198f, 0.921483636f, 0.904532731f, 0.876865745f, 0.882747591f, 1.04139388f, 1.07595992f, 0.903512478f, 1.25705326f, 1.01636934f, 0.948123574f, 0.782720923f, 1.04005706f, 1.12741876f};

static const int8_t kLayer1InProjQ[96][24] = {
  {71, 11, -3, 11, 14, 21, -5, 0, -4, -54, -12, 11, -127, -26, 37, -35, 22, -14, 7, 1, -22, 12, 24, -10},
  {-40, 5, -17, -20, -1, 65, 64, 18, 30, 49, 26, -37, -52, 62, 17, -51, -58, 41, -34, -32, 15, 23, -35, -127},
  {26, -38, 9, 97, -33, 33, -11, 18, -35, -31, 112, 28, -38, -54, 15, 5, -45, -93, -45, 127, 12, -53, 30, 0},
  {-4, 25, 12, 10, -41, 36, 41, -5, -127, 3, 31, 35, -28, -45, 24, 35, -92, -24, -17, -11, 20, 45, 41, 5},
  {-5, -82, 85, -9, 37, -16, -75, 92, -61, -64, -103, -54, 2, -59, 127, -12, 8, 11, -69, -121, -39, 36, -16, 52},
  {58, -98, -77, 35, 34, 29, -62, -84, -14, -43, 35, 17, 42, -20, -35, 127, 62, 26, -25, -17, 20, 25, -47, 83},
  {8, -77, 86, -14, 79, 35, -62, 1, -59, -62, -107, -6, 19, -19, 117, 6, -127, 123, -63, -125, -88, 19, -42, 44},
  {-20, -34, 23, 1, -14, 57, -8, 17, -127, -13, 96, 31, -7, 54, 56, 10, -62, -18, -80, 20, -45, -60, -3, 29},
  {42, -28, 44, -15, 57, 4, -87, 2, -127, -10, -31, 68, 106, 69, 50, 37, -49, 10, -100, 9, -126, -8, 37, -4},
  {-50, 40, -19, 31, -127, 36, 84, 16, -43, 9, 47, 44, 39, -65, -11, -3, 27, -38, 9, 90, 89, 0, -16, -42},
  {-1, 110, 61, 23, 22, -55, -77, -36, -44, -64, -52, -40, -69, -20, 41, -18, -49, -10, 5, -47, -74, 38, 112, 127},
  {93, 75, -27, 64, -66, 24, 1, 124, 11, -1, 24, -42, 89, -43, 58, 21, -30, -127, -29, 94, -63, 17, -38, -89},
  {2, -79, 13, -40, 58, -13, -35, -96, -64, -93, -21, -12, 26, 28, 2, 44, -21, 11, 32, -53, -84, 28, -21, 127},
  {32, 57, 48, 127, -102, -24, -32, -10, 12, 31, -12, -76, -3, -44, -17, -90, 98, 38, -56, -86, 71, 55, 16, -106},
  {-2, -127, 60, 8, 16, -28, -82, 31, 4, -41, -48, -12, 25, -39, 46, 27, -48, 1, 7, -120, -43, 22, -8, 60},
  {-43, -62, -33, -1, 26, 37, 25, 39, 127, -70, 40, 104, -9, -114, -11, -24, 6, 27, 49, 0, -38, -33, -9, -48},
  {-33, -3, 53, 12, 42, 56, -29, 82, -13, -21, -94, 4, -127, -30, 38, -44, -45, 0, 20, -108, -31, 7, 45, -76},
  {127, 35, -62, -21, -45, -9, -20, -104, 20, -52, -10, -27, -23, 76, -12, 41, -5, -44, 111, -26, -53, 54, 69, -26},
  {1, -49, 50, 73, 98, 26, -96, 3, -1, -5, -57, 12, 25, -10, 23, 41, -3, 52, -33, -37, -92, 49, -30, -127},
  {-27, 80, -27, 11, 33, -90, 22, 70, 91, 48, -71, 15, 63, 97, -77, -79, -3, 1, 8, 18, 8, -127, -9, -36},
  {-30, -32, -28, -2, -28, -65, 69, -29, 25, -6, 99, 18, 9, 21, -30, 38, 62, -18, -68, 27, 79, -8, -33, 127},
  {15, -53, -5, 68, -56, 20, -7, 21, 37, -12, 80, 94, -15, -91, 7, 14, 20, -56, 61, 56, 10, -127, -45, -47},
  {64, 40, 38, 110, -127, 68, -15, -29, 1, -42, 45, -90, 19, -78, 85, 7, -47, -47, 81, -31, -43, 31, -7, 5},
  {-34, -28, 54, -48, 1, 3, 47, 76, -36, -51, -72, -62, -3, 112, 63, -39, -6, 45, -1, -127, -106, 36, -63, 36},
  {43, 35, 36, -42, 23, 20, -37, -107, 9, -89, -113, 34, -20, -77, 4, 55, -79, 74, 40, -55, -82, 14, 127, 35},
  {50, 38, -84, 53, -72, 8, 41, 80, 121, -12, -127, 99, -34, 38, -102, -36, -1, 95, -6, 114, -26, -25, -16, 5},
  {-15, 127, -15, 64, -9, 11, 14, -65, -39, 68, -11, -1, 7, -25, -80, 25, -17, -68, -30, 27, 103, -84, 68, -29},
  {127, 77, -67, -118, 111, -68, -56, -110, -54, 19, 98, -127, -21, 61, -23, 83, 96, -13, -80, 13, -29, 35, -43, 94},
  {-57, 9, 81, -7, 45, -21, -42, 24, 0, 47, 1, 24, -51, -25, 15, -2, -24, 36, 13, 65, -3, -127, 89, -39},
  {107, 59, -34, 61, -12, -25, 35, -127, 0, -6, -9, -71, -12, -36, -109, -2, 87, -37, 10, -61, 73, 78, 62, 93},
  {7, -18, 11, 22, 59, -61, -42, 89, 68, 23, -68, 45, -41, -8, -42, -44, 32, 56, 56, 16, -66, -7, 18, -127},
  {-51, -48, 41, 23, -1, -21, 16, 109, 32, 1, -58, 59, -127, -13, 32, -65, -40, -6, 70, 34, -11, -8, -32, -74},
  {47, 74, -40, -20, -15, -16, 117, 104, 41, -50, -106, -1, 32, 94, -103, 30, -127, -8, -20, -59, -18, -6, 95, 10},
  {49, -67, -42, 39, 31, 2, 29, -127, -71, 62, 58, -67, 36, 14, -124, 62, 37, -46, -35, -6, 27, 32, 13, 127},
  {100, 12, -63, 33, -38, 42, 34, -8, 97, -116, -43, -48, -47, 30, -2, 127, -23, -59, 41, -90, -43, 30, 8, 18},
  {100, 56, -4, 32, -73, 58, -64, -20, -117, 56, -29, -60, 39, 109, 92, 16, 25, -9, -127, -29, -96, -5, -35, 38},
  {68, -59, 20, 29, -103, 31, -44, -56, -17, -5, 56, -14, 72, 85, 62, 78, -16, -8, 39, 13, -95, 88, -52, -127},
  {49, 64, -54, -5, -63, -29, -8, -77, 36, -37, -18, 83, 53, -16, -56, 1, -10, 6, 21, 57, -21, -7, 14, 127},
  {64, 46, 47, -10, -53, -31, -19, -24, -14, -65, -95, -42, -127, -36, 54, -60, 37, -2, 15, -23, -23, 76, -10, 60},
  {-127, -61, 17, 32, -31, 90, 3, 79, -119, 57, 54, 38, 72, -21, 52, 36, -100, -2, -111, -8, 44, -53, 0, -20},
  {-53, -127, 25, -4, -2, 65, -56, -3, -26, -86, 29, 91, 38, -23, 26, 41, 25, 54, 14, -34, -7, -76, 22, 87},
  {-48, -80, 48, -8, 31, 37, 16, 63, -127, 57, 48, 69, -19, -52, 63, 32, -27, -17, -44, 35, 11, -58, 20, -8},
  {-19, 48, 84, 127, -36, 65, -100, -26, 6, 19, 23, -78, 80, 9, -46, -121, -29, -88, 15, 9, 87, 3, -10, 58},
  {0, 50, -8, -28, -23, 15, 57, -4, 47, -73, -30, -5, -77, 55, 9, -39, -79, 13, 89, 68, -127, 100, 60, 13},
  {90, 12, -100, -55, 7, -24, 127, -31, 97, -88, -22, -105, 20, 102, -88, 74, 5, 20, -74, -61, 46, -35, -48, 127},
  {-18, -52, -67, 17, -79, 33, -4, 21, 25, 15, 115, -37, 95, 38, -4, 14, 20, -52, -46, 127, 41, -41, -91, 65},
  {73, 44, -56, -17, 5, 52, 44, -63, 36, 24, -20, 6, 51, 51, -121, 74, -127, 16, -4, -52, -79, 30, -14, -34},
  {27, -112, -51, 58, 18, 33, -38, -32, 2, -31, 11, 83, 16, -55, -28, 31, 28, -20, -87, 127, -13, -47, -22, 41},
  {87, -65, -49, 77, -43, -30, 43, -74, -6, -53, -61, -12, 5, -19, -59, 64, 107, 13, -46, -127, 114, 58, 119, -35},
  {17, -15, 20, -37, 41, -51, -12, -127, -13, 8, 10, -39, -33, 73, -21, -88, 84, 36, -21, -43, 1, 33, -8, -31},
  {58, 28, -35, -71, 62, -127, -85, -28, 26, -6, -61, -17, -33, 16, -74, -28, 63, 73, 102, 5, -80, 79, -88, 15},
  {41, -65, -20, 78, -44, 53, 14, 65, -23, 86, -41, -127, 25, 100, -9, 116, -79, 5, -16, -102, 1, 62, -18, -70},
  {-127, -45, -48, -110, 78, 43, 55, -85, -47, -34, 32, 124, -38, -49, 36, -44, 17, 93, 11, -47, 29, 38, -25, 71},
  {-54, -43, 45, -26, -33, 27, -43, -88, -52, 3, 100, 67, -49, 28, 8, -49, -41, 43, 5, -14, -52, 127, -30, 48},
  {-29, -10, -1, -15, 32, -71, -2, 35, 24, 25, 72, -48, -108, -47, 2, 17, 49, -15, -18, 51, 127, -39, -105, 23},
  {30, 111, -127, -94, 64, 54, -120, -62, -12, -18, 33, -94, -22, 72, -9, 29, 52, -54, 96, -45, 75, -9, 9, 63},
  {51, -40, 13, -10, -2, -44, 24, 24, 112, -77, -4, -10, -48, -48, -25, 13, -46, -33, -6, -17, -127, 48, 1, 107},
  {20, -42, -98, -50, -20, 54, 73, -76, 127, 93, 125, 13, -116, 100, -40, 105, 35, -52, -37, -12, 95, -97, -71, 27},
  {-8, -37, -43, 29, -116, 8, 32, -68, -71, 46, 59, -10, 85, -25, -52, 36, 119, -6, -44, -40, 127, -6, 13, -75},
  {40, 27, 16, 19, -103, -11, -1, 56, 16, -127, 36, -17, -90, -48, 70, 33, -39, -31, 7, 2, -100, 28, -78, 7},
  {8, 40, -6, -47, -1, -12, -10, -34, -33, 2, -21, -30, -10, 59, 3, -88, 29, -4, 62, 64, -18, 97, -127, -42},
  {-14, -7, -28, -81, 100, 8, 1, -9, 0, -36, 89, 77, 78, 106, -18, -1, -35, 4, -42, 127, -113, -41, -88, 22},
  {34, -7, -86, 40, -72, 121, 45, 40, -62, 50, 72, 27, 14, 29, 7, 20, 0, -127, -15, 55, 45, 9, -79, -43},
  {-20, 100, 53, -19, 26, -82, -25, 67, -23, 41, -127, -16, 5, 84, -27, -15, -64, 55, 23, 5, -109, 76, 41, -123},
  {-104, -98, -12, -58, 68, -88, 30, 2, -15, -48, 14, 52, 8, -76, 27, -11, 47, 21, 127, -28, -95, 32, -71, -5},
  {-127, -108, 78, 29, -23, -20, 46, 96, -92, 40, -2, -11, 30, -72, 62, -35, -34, 27, -123, 63, 54, -20, -35, 65},
  {-127, -49, 35, -38, 44, -26, -50, 7, -3, 60, 1, -10, 70, 16, 5, 5, -32, 10, -13, 26, -30, 0, -36, 8},
  {68, 51, 19, 73, -98, 127, -6, 1, -20, -51, 56, 22, 54, 97, -58, 23, -24, -112, -34, -4, -63, -47, 127, -50},
  {-116, -81, 52, -59, 127, -39, -85, 76, -27, -13, 119, 15, 49, -112, 83, -31, -89, 12, 13, -14, -66, -7, -86, -1},
  {-99, 98, 20, -22, 64, -103, -94, 111, -34, 97, -23, -82, 3, 23, -127, -90, 18, -3, 114, -2, 27, 23, 53, -34},
  {-93, -18, -21, -108, 97, 2, 18, 61, -50, 26, 26, 67, 14, 63, 3, -76, 53, 57, -127, 35, 44, -66, -37, -44},
  {-81, 28, 1, -42, 80, 30, -127, -74, -59, 44, 59, -93, 12, -84, 75, 12, -59, -15, 38, -58, 20, 30, -75, 108},
  {-27, -55, -56, -21, 12, 34, 8, -8, -107, -19, 127, -2, 52, -62, -16, 35, 52, -6, -54, -32, 60, 6, -58, 52},
  {-110, -106, 101, 111, 87, -45, -19, -16, 39, 70, -108, -31, 127, -84, -34, 57, -71, -76, -58, 24, -13, 20, 31, -41},
  {24, -12, -41, 79, -61, 127, 56, 75, 43, -40, 34, 33, 35, 12, -27, 31, -78, -100, -27, 80, -42, -100, -26, -4},
  {-55, -7, 74, -70, 8, -127, 29, 23, -25, 69, -110, -3, -104, 76, 49, -1, 17, 98, -9, -51, -48, 78, -12, 7},
  {-10, -46, -6, 32, 127, 28, -31, 29, -7, 11, -37, -58, 32, 46, 54, -88, -4, -39, -40, 41, -76, -40, -28, 33},
  {-43, 2, -54, -26, -62, 99, 102, 36, -92, 14, 44, 61, 50, 19, -49, 36, -127, -43, 12, 20, -41, -23, 25, 27},
  {36, -6, -15, -6, -23, -22, 127, 51, 4, -52, -4, -3, -60, 48, -47, 4, 5, 33, -20, -9, -2, -53, -4, 23},
  {-27, -60, 70, -51, 20, -61, -39, -20, -13, -124, -87, 76, -42, -12, 46, -80, -12, 77, 76, 26, -127, 48, -72, 34},
  {50, 81, -127, -73, 89, 69, -67, 9, -25, -87, 63, -1, -58, -46, -40, -77, 4, -38, 42, -16, 8, -103, 97, 8},
  {-31, 1, -60, -89, -78, 74, 127, 55, -84, 7, 5, 28, -25, 96, -5, 6, -81, 15, 14, 13, 6, -58, -20, 57},
  {19, -3, -40, -16, -23, -9, 93, 2, 70, -106, -3, -15, -75, -17, 11, 127, -69, -39, 36, -49, -12, 37, 20, 40},
  {15, 7, 11, -31, 18, 32, -24, 49, -74, -95, -15, -15, 127, -48, 18, 29, -8, -7, -80, -18, -68, 44, -34, 87},
  {-28, -46, 49, 0, 36, -65, 19, -14, -21, 23, -30, -5, 33, -50, -51, -14, 3, 56, -119, 19, 29, -52, 127, -41},
  {-69, 18, 21, -14, -73, 24, -51, -101, -61, 77, 127, -95, -38, 4, -14, -44, 52, 7, 21, 21, 27, 6, -43, 26},
  {22, 10, -72, 23, -11, -56, 41, -20, -3, -58, -9, 11, -79, -68, -55, 68, 97, 54, -66, 29, 127, -17, 59, -21},
  {-32, -21, -7, -24, 35, 50, -22, -19, -127, -5, 87, 71, 59, 72, -71, 73, -126, -29, 10, 40, -72, -69, 29, 27},
  {35, 58, -61, -84, -95, -5, -58, -127, -28, -83, 43, 68, -7, 3, -11, 49, -50, 29, 57, 4, -80, 96, -51, 87},
  {-44, -48, 17, -18, 13, 22, 45, -8, 2, -36, 50, -23, -98, 61, 127, 21, 40, 74, -62, 2, 41, -93, -54, -37},
  {-34, -1, 77, 0, 1, -50, -46, 64, 107, 20, -81, -61, 48, 27, -46, -1, -44, 31, -45, 127, -88, -30, -28, 17},
  {-18, -28, 42, 60, -33, 6, 9, -15, -61, 27, 51, -127, -49, 62, -11, -72, 24, 10, -51, 11, 58, -28, -30, 12},
  {-35, -12, 14, -22, -36, -13, 82, 14, -7, 29, -22, 44, -6, -3, -127, -11, 48, 14, -30, -12, 95, -57, -5, -4},
  {-127, -43, 27, -98, 47, 10, -41, 89, -66, 57, 46, -18, 41, -22, 37, -89, -77, 110, 53, -27, -53, 58, -96, 5},
  {-24, 43, -5, -127, 34, -79, -33, -89, -17, 103, -106, -4, 18, 60, -2, 22, -20, 119, -5, -41, -51, 85, 78, -26},
  {-96, 42, 17, -38, -113, -11, -86, -26, -85, 46, 50, -87, 3, 127, 77, -49, -4, 37, -35, -53, 11, 117, 1, 73},
};

static const float kLayer1InProjScale[96] = {0.00453536725f, 0.00319814635f, 0.00288103824f, 0.00320176408f, 0.00183200859f, 0.00223315437f, 0.00225337595f, 0.00344170537f, 0.00240221317f, 0.00245351274f, 0.00290009449f, 0.00178878126f, 0.00259692641f, 0.00324199395f, 0.00247842004f, 0.00276831584f, 0.0015453049f, 0.00280269608f, 0.00319895078f, 0.00229264912f, 0.00189168146f, 0.00312889484f, 0.00315991067f, 0.00239536539f, 0.00277160248f, 0.00137971772f, 0.00267703924f, 0.00186086236f, 0.00323482556f, 0.0025644477f, 0.0018948717f, 0.00213222671f, 0.0028456822f, 0.00224278239f, 0.00272516045f, 0.00207452872f, 0.00227398146f, 0.00201321603f, 0.00206887908f, 0.0025746664f, 0.00307646464f, 0.00268401671f, 0.00282365503f, 0.00263202586f, 0.00209231023f, 0.00162784697f, 0.0028181395f, 0.00326481438f, 0.0021612905f, 0.00266501331f, 0.00221366109f, 0.00205117161f, 0.00168661796f, 0.00214831042f, 0.00249877828f, 0.00222165999f, 0.00250329124f, 0.00154867233f, 0.00254744245f, 0.00157705473f, 0.00347441481f, 0.00267954217f, 0.00203926465f, 0.00253902469f, 0.000994236791f, 0.00241782889f, 0.00413381681f, 0.00190230599f, 0.00109525723f, 0.00244423281f, 0.0024887328f, 0.00190378434f, 0.00322100008f, 0.000946334563f, 0.00281843892f, 0.00192280486f, 0.00215845206f, 0.00296603609f, 0.00223752623f, 0.00132692175f, 0.00266540353f, 0.00271399529f, 0.00300418003f, 0.00213634875f, 0.00298133795f, 0.00158765737f, 0.00164279959f, 0.00274553127f, 0.00212412304f, 0.00247971481f, 0.00321278255f, 0.00322298333f, 0.00316343689f, 0.0012535631f, 0.00227765064f, 0.00236511719f};

static const float kLayer1Conv1dWeight[48][4] = {
  {-0.454749823f, -0.0677861944f, -0.0422591753f, -0.120663643f},
  {0.439247191f, -0.000616941194f, -0.246177837f, 0.127751336f},
  {0.0902436078f, -0.307323575f, -0.300894618f, 0.0579040833f},
  {0.0714068785f, -0.331326991f, 0.265734792f, -0.0123049775f},
  {0.175451994f, 0.229548484f, 0.253897667f, 0.0358512625f},
  {-0.275254726f, -0.167218789f, 0.185431063f, -0.109220684f},
  {0.169977576f, -0.0195373762f, 0.423466027f, 0.0548273176f},
  {0.229924023f, -0.0294395294f, 0.337122053f, -0.102470994f},
  {-0.357061088f, 0.0346194878f, -0.291070461f, 0.0176694561f},
  {-0.116988994f, -0.171640918f, -0.317715287f, 0.0535637885f},
  {0.326666147f, 0.371763617f, -0.262104005f, -0.0445987955f},
  {-0.196185172f, 0.0902734026f, 0.160888761f, 0.082051605f},
  {0.37293154f, -0.116482414f, -0.191410989f, -0.0896985531f},
  {0.230363742f, 0.397929609f, 0.498784631f, -0.0366199277f},
  {0.243973359f, 0.148828506f, 0.0571712181f, -0.109197192f},
  {-0.289294392f, 0.245914474f, 0.0719767511f, -0.0977823958f},
  {0.107225545f, -0.0311072748f, 0.100154728f, 0.102495492f},
  {-0.530982673f, 0.0499807112f, 0.0674521476f, -0.032627441f},
  {0.327964097f, -0.158696532f, 0.316787004f, 0.197019622f},
  {-0.0521902926f, 0.0339956582f, 0.418181866f, 0.242119044f},
  {0.121025741f, 0.069792293f, 0.185011506f, 0.0915862247f},
  {0.148602992f, -0.303122371f, -0.262826502f, 0.192694649f},
  {-0.434670597f, 0.257026315f, 0.269904852f, 0.0534059778f},
  {0.075994879f, 0.478177816f, 0.292618513f, -0.0975493565f},
  {0.148221806f, 0.0526253954f, -0.46376875f, -0.0492055118f},
  {0.168924183f, 0.160923257f, 0.0288325865f, 0.0257803071f},
  {0.366935909f, 0.111616068f, 0.07270585f, -0.0407018475f},
  {0.25478211f, 0.162075445f, 0.243888035f, 0.105423905f},
  {-0.223168746f, -0.00775532564f, 0.328812629f, 0.0648674071f},
  {0.356377363f, -0.189754859f, 0.17449218f, -0.0806722865f},
  {0.320751488f, 0.0328986235f, -0.0264188256f, -0.12656337f},
  {0.205976427f, -0.023395773f, 0.032667242f, 0.0909826905f},
  {0.143644527f, -0.327561945f, 0.0618236437f, 0.176359788f},
  {0.243515953f, -0.0825592205f, 0.201896727f, -0.0695616826f},
  {0.497895926f, -0.134970412f, -0.0115656639f, 0.0147853568f},
  {0.239584312f, -0.037108779f, 0.291374207f, -0.122501187f},
  {-0.354882509f, 0.0817481726f, 0.1622812f, 0.0674207136f},
  {-0.228527933f, -0.042180974f, 0.150744677f, -0.0471548215f},
  {0.123894557f, 0.262481391f, 0.025995411f, 0.0272093657f},
  {-0.340755701f, -0.141632348f, -0.26534304f, 0.0965747163f},
  {-0.355519205f, 0.0897932574f, 0.328150243f, -0.0270808432f},
  {0.0699489638f, -0.0162338652f, 0.409275591f, -0.177869737f},
  {-0.117257439f, 0.360654414f, 0.167915374f, -0.166230202f},
  {-0.375711828f, 0.0921709687f, 0.101949319f, -0.0376024321f},
  {0.391394496f, -0.162371591f, 0.0219407082f, -0.130495787f},
  {0.00571210869f, -0.017519353f, -0.174341872f, -0.239564717f},
  {0.0195757821f, 0.401766866f, -0.171613872f, 0.0488398522f},
  {-0.110628426f, 0.450935245f, -0.173118651f, 0.0728685558f},
};

static const float kLayer1Conv1dBias[48] = {0.0031175497f, 0.0548167713f, 0.0481857955f, -0.0487025231f, 0.0153044071f, -0.00704791117f, 0.0336592421f, 0.0121333078f, 0.0477022529f, 0.0610172413f, 0.0467368066f, -0.0374238156f, -0.0916780382f, 0.0444634035f, 0.0112849083f, -0.0755539164f, 0.0143132173f, 0.0487018675f, -0.00760580134f, 0.031193234f, -0.0197407696f, -0.0168479364f, 0.0197929014f, 0.0629758388f, -0.000867436f, 0.00551643828f, -0.0904856846f, -0.00848990772f, 0.0309620462f, -0.00902286638f, -0.026341565f, 0.0322338268f, -0.0252604578f, -0.0871886835f, 0.0362112559f, 0.0849830434f, -0.100094654f, 0.000466619793f, 0.0207195636f, 0.0476418957f, -0.0142595982f, -0.0509401932f, -0.114556074f, 0.0128666181f, 0.0566366054f, 0.0178493094f, 0.0578036532f, -0.0531955175f};

static const int8_t kLayer1XProjQ[34][48] = {
  {6, 43, -21, -21, -66, 23, -95, -13, 53, -55, -29, -30, 83, 71, -78, 89, -35, -99, -93, 67, 30, -53, -127, -80, -3, 7, 55, 6, 81, 81, -51, 2, 21, 36, 49, 5, -68, 22, -24, 87, -3, -38, 12, -94, 75, -28, 34, -2},
  {-8, -37, 10, 3, 57, -41, 72, 19, -43, 49, 26, 24, -62, -62, 58, -72, 33, 94, 68, -48, -31, 51, 127, 54, 1, 6, -49, -9, -73, -84, 47, 5, -17, -32, -52, -8, 68, -14, 20, -72, -11, 21, -9, 92, -68, 22, -16, 10},
  {42, 82, 80, 13, 17, 58, 58, 60, -62, 67, 53, -108, -113, -127, 38, -37, -4, 53, 42, -2, 5, 51, -99, 58, -7, -9, -32, 12, 42, -36, -20, -1, -33, 6, 23, 66, -45, 37, -4, -58, 115, 39, 8, 7, 7, 10, 26, -109},
  {15, 2, -113, -54, -69, 34, -73, -55, 33, -80, -46, 44, 62, 108, -54, -23, -40, -3, -83, -2, 62, -91, 92, -113, 36, 31, 49, -20, -93, 9, 110, -30, -67, 50, -127, -107, 110, -19, -67, -22, -68, -31, -2, -29, -67, -69, 19, 58},
  {47, 5, -7, -37, 66, -4, 41, -2, -80, 1, 44, -19, -29, -15, 63, -4, 29, 84, 99, 48, 6, -8, -36, 49, 0, -49, -16, -70, -71, -64, 2, 9, -40, -18, -63, -19, -77, 38, -2, -106, 77, 11, 45, 72, -127, 23, -26, -16},
  {3, 36, -34, 25, 17, 55, -19, 50, -49, -40, 13, 0, 39, 68, 14, -11, -7, 27, 8, -91, 30, -26, 6, 22, 33, -67, -17, -28, -112, -65, 23, 20, -62, 30, -66, 26, -34, 53, -2, -71, -11, 53, -3, -32, -127, -23, -67, -4},
  {-28, 21, -117, 3, -47, 85, -21, 13, 90, -100, -64, 10, 50, 104, -76, 124, -8, -29, -94, -99, 89, -112, 97, -87, 127, 24, -1, -23, -27, 100, 19, -4, 9, 81, -1, 31, 38, 22, -18, -13, 5, 0, 17, -81, 108, -86, -36, 105},
  {-40, -18, 6, -3, 50, -31, 36, 127, -65, 2, 60, 21, 82, 28, 20, 7, 38, -52, 12, -100, -2, 19, 9, 41, 7, -45, -46, -1, 62, 30, -62, -19, -8, 71, 75, 82, -47, -36, 44, -121, -15, 104, -43, -37, 38, 28, 9, -72},
