#pragma once

#define BABYMAMBA_VARIANT_CROSSOVER 1
#define BABYMAMBA_VARIANT_CHANNEL_INDEPENDENT 0
#define BABYMAMBA_DATASET_NAME "ucihar"
#define BABYMAMBA_DISPLAY_NAME "UCI-HAR"
#define BABYMAMBA_SEED 84507
#define BABYMAMBA_SEQ_LEN 128
#define BABYMAMBA_IN_CHANNELS 9
#define BABYMAMBA_NUM_CLASSES 6
#define BABYMAMBA_D_MODEL 26
#define BABYMAMBA_D_STATE 8
#define BABYMAMBA_D_INNER 52
#define BABYMAMBA_DT_RANK 2
#define BABYMAMBA_D_CONV 4
#define BABYMAMBA_NUM_LAYERS 4
#define BABYMAMBA_STEM_KERNEL 5
#define BABYMAMBA_PATCH_KERNEL 16
#define BABYMAMBA_PATCH_STRIDE 4
#define BABYMAMBA_PATCH_OUT_LEN 31
#define BABYMAMBA_FIXTURE_LABEL 4

static const char* const kBabyMambaClassNames[BABYMAMBA_NUM_CLASSES] = {"Walking", "Walking Upstairs", "Walking Downstairs", "Sitting", "Standing", "Laying"};

static const float kStemWeight[26][9][5] = {
  {
    {-0.121311799f, -0.0627323017f, -0.198558286f, -0.0803550631f, -0.0374882519f},
    {0.253442556f, 0.199976459f, 0.070698522f, 0.123187117f, 0.0460975245f},
    {0.0415830798f, -0.0578657091f, -0.132810324f, -0.126960605f, -0.347854167f},
    {-0.0361387767f, -0.0678468347f, -0.0752761438f, -0.130409166f, -0.157111093f},
    {0.140655652f, 0.0748809054f, 0.119235218f, 0.0314691886f, -0.0987660438f},
    {-0.203310028f, -0.278435409f, -0.208471537f, -0.386577159f, -0.233843863f},
    {0.0904683173f, 0.122901209f, 0.050048966f, 0.0865829885f, 0.0707727075f},
    {0.123245731f, 0.175022766f, -0.00247654249f, -0.0616304018f, -0.0621691421f},
    {0.083777234f, 0.162587911f, 0.120047942f, 0.0256779697f, 0.00713077839f},
  },
  {
    {0.0435981788f, 0.0545490757f, 0.0136023341f, -0.0384907164f, -0.0121126715f},
    {-0.284706265f, -0.176971927f, -0.106403872f, -0.133016557f, -0.163335934f},
    {0.00446423795f, 0.0296869241f, 0.030970538f, 0.0657191053f, -0.0155196758f},
    {-0.171602607f, -0.134283081f, -0.0630814061f, -0.0477977358f, -0.17337656f},
    {0.112562619f, 0.0726513416f, 0.0631511882f, 0.119756922f, 0.127162158f},
    {0.108362712f, 0.0433735587f, -0.057559073f, -0.183006048f, -0.0964907631f},
    {-0.0191275459f, 0.0437448733f, 0.0327766798f, 0.164872229f, 0.0211686399f},
    {0.0628753603f, 0.0893314183f, -0.0467499197f, 0.110257633f, 0.148436442f},
    {-0.0451911762f, -0.0229971409f, -0.0988066643f, -0.0697840378f, -0.196638659f},
  },
  {
    {0.0235555004f, 0.00808832329f, 0.0083973771f, 0.0195100792f, -0.00193832419f},
    {-0.288478643f, -0.375141531f, -0.225865141f, -0.356441975f, -0.313771784f},
    {-0.151351005f, -0.104090147f, -0.0914875343f, -0.0565054491f, -0.121988229f},
    {-0.0537411012f, 0.0589252785f, -0.0647595897f, -0.0622425117f, -0.137857258f},
    {0.0847173557f, 0.147708282f, 0.0838432014f, 0.0614436604f, 0.0270792861f},
    {0.0407630987f, -0.0455618836f, -0.108527988f, -0.0839229971f, -0.000228399702f},
    {-0.014771306f, 0.262059808f, 0.0503607541f, 0.0908347815f, 0.118182652f},
    {0.0183921792f, 0.196308598f, 0.0295866132f, 0.104261145f, 0.120569281f},
    {0.00569539284f, 0.096338965f, 0.0474808179f, 0.0301923975f, 0.0768329129f},
  },
  {
    {-0.117902145f, -0.110573217f, -0.105561525f, -0.0721878409f, -0.10653279f},
    {-0.0186261516f, 0.0469942428f, 0.00469730003f, 0.0888528973f, 0.0985174924f},
    {-0.00962182414f, 0.0229910333f, 0.0920748413f, 0.0369383506f, 0.0315793455f},
    {-0.000910357805f, -0.0346137248f, 0.0353473127f, -0.0460467339f, 0.031775143f},
    {0.0854009539f, 0.00547997095f, 0.0723244622f, 0.0798273385f, 0.0590603091f},
    {-0.0673112869f, -0.0222785976f, -0.0353731215f, -0.0254630074f, -0.0199603308f},
    {-0.0695721358f, -0.0492759608f, -0.113851368f, -0.0866414011f, -0.081261605f},
    {0.0350737534f, -0.00299288845f, 0.0336202644f, -0.00765702873f, 0.0154873105f},
    {0.0521367937f, -0.0337018482f, -0.100623839f, -0.012037144f, -0.00726162363f},
  },
  {
    {-0.00867568795f, -0.123318441f, -0.135631099f, 0.0311370026f, 0.00548579777f},
    {0.00760806073f, -0.0493693352f, -0.0124375029f, -0.0279549994f, -0.0937493071f},
    {0.0100078164f, 0.04281497f, -0.0347574018f, -0.0977615416f, -0.102864809f},
    {-0.0336145498f, -0.0396546647f, 0.0672944039f, -0.146555454f, -0.0672217831f},
    {-0.070193693f, -0.11095573f, -0.204360053f, -0.111451164f, 0.0394411981f},
    {0.101020239f, 0.196172625f, 0.15412651f, 0.31239146f, 0.0846359432f},
    {-0.0467433408f, 0.0498138331f, 0.0695823357f, -0.0604026206f, 0.0985122845f},
    {0.101582348f, 0.0347747505f, 0.128529578f, -0.0318230763f, -0.0364031047f},
    {0.0786127448f, -0.0243625417f, -0.0253106449f, -0.0366704352f, -0.00335583859f},
  },
  {
    {-0.0402712077f, -0.225241065f, -0.0583273955f, -0.0662401989f, -0.166296884f},
    {0.0198649876f, -0.124266148f, -0.0508048609f, -0.00762658427f, -0.0238869973f},
    {-0.075192906f, -0.0218347739f, -0.0156420991f, -0.0869150013f, -0.0960764512f},
    {0.0473069064f, 0.0231245365f, -0.0550587364f, 0.0817266926f, 0.0948870778f},
    {0.0558074974f, 0.0710557923f, 0.0615056939f, 0.0363939479f, 0.0519495644f},
    {0.0610396117f, -0.0568344481f, -0.0751540735f, -0.0259642098f, -0.000606768706f},
    {0.0465050898f, 0.0106231878f, 0.0162364468f, 0.0580619127f, 0.0376291275f},
    {-0.0787973478f, -0.091038473f, -0.0295246821f, -0.103856131f, -0.160540938f},
    {0.0185737778f, 0.0149740018f, -0.0432978831f, -0.0925128087f, -0.0373308621f},
  },
  {
    {-0.158337176f, -0.0836557373f, -0.0792738646f, -0.215033308f, -0.151029319f},
    {0.0252904613f, 0.0755830184f, -0.0145406043f, -0.0771771893f, -0.0225149561f},
    {0.0592403188f, 0.162423581f, 0.213711888f, 0.235339552f, 0.165201917f},
    {0.103651047f, 0.0971306488f, 0.0516854636f, 0.0415606871f, 0.127593786f},
    {-0.000206738361f, 0.0615400448f, 0.0750653595f, 0.0102365548f, 0.0200546663f},
    {-0.0756433308f, -0.0562245138f, 0.00810456276f, -0.096953012f, -0.0135854064f},
    {0.0734761655f, -0.0467138439f, -0.0921146274f, 0.115090474f, 0.0114438375f},
    {-0.0480045192f, -0.0464334153f, 0.0760335401f, 0.0674243718f, 0.0132253794f},
    {0.00619422598f, -0.0765156522f, -0.0207850672f, 0.0684412122f, 0.0265204143f},
  },
  {
    {-0.0835940614f, -0.0276814885f, -0.015251576f, 0.0359600112f, 0.00538225286f},
    {-0.00564672053f, 0.0214266777f, 0.0183871612f, 0.0734280571f, 0.0664012879f},
    {-0.0286827609f, -0.00490922248f, -0.0173130985f, -0.0305150189f, -0.0596172139f},
    {0.0234120861f, 0.0427947156f, -0.00543793477f, 0.0365335979f, -0.00762994355f},
    {-0.0820686743f, -0.0583258756f, -0.0820418596f, -0.0484964475f, -0.0723456517f},
    {-0.12072821f, -0.154460952f, -0.0487488098f, -0.00575937936f, -0.0042323824f},
    {-0.0182072185f, -0.000952451257f, 0.0486145429f, 0.0253981613f, 0.0258026402f},
    {0.0587888137f, 0.0341236368f, -0.00397522189f, -0.00158947438f, 0.0627905875f},
    {-0.00732774846f, 0.00179672276f, 0.00802916661f, -0.00850426499f, -0.0324414149f},
  },
  {
    {0.110460684f, 0.122063279f, 0.0639411062f, -0.00939807016f, 0.098686032f},
    {-0.13601321f, 0.00615756959f, 0.0535620041f, 0.177521735f, 0.18591322f},
    {0.0639413297f, 0.0721085295f, 0.0697618574f, -0.175989062f, -0.0777652413f},
    {0.143961832f, 0.0202045571f, 0.0391902439f, -0.0406911597f, -0.0679008737f},
    {0.0520893671f, -0.164658129f, 0.027802242f, 0.0144567173f, 0.0412235558f},
    {-0.0419182815f, 0.111406788f, 0.116408058f, 0.0542816818f, 0.000602849934f},
    {-0.188814431f, -0.196893498f, -0.170846f, -0.0793669671f, -0.174801916f},
    {-0.143748611f, 0.00153149443f, -0.0884112269f, -0.00401527621f, 0.091391474f},
    {-0.106605254f, 0.0857018158f, 0.0276677124f, -0.0850433931f, -0.132715076f},
  },
  {
    {0.201582491f, -0.0589210726f, -0.116002947f, -0.100698613f, -0.0321025215f},
    {-0.099385187f, -0.239162013f, -0.140165329f, -0.268940598f, -0.234643757f},
    {-0.126628235f, -0.172318012f, -0.232254371f, -0.220672056f, -0.257038563f},
    {-0.0128176929f, 0.229868203f, 0.0398142412f, 0.195690393f, 0.275754124f},
    {-0.0223255176f, 0.150147319f, 0.0209611282f, -0.0890654996f, -0.181226015f},
    {0.0432199612f, -0.0828339681f, 0.0313174836f, -0.00986882765f, -0.0312372651f},
    {-0.0663674995f, 0.0970034227f, 0.121433817f, 0.138908952f, 0.048555553f},
    {-0.0509904996f, -0.0529170744f, 0.116372474f, 0.0387792736f, 0.0701634586f},
    {-0.022636082f, -0.0614364855f, -0.00273518311f, 0.0058560716f, -0.0188228078f},
  },
  {
    {-0.0934567153f, -0.0856894478f, -0.0337837227f, 0.00515763089f, 0.0267604012f},
    {-0.0445579961f, -0.0135315293f, 0.0201557036f, -0.0835788622f, -0.0192839876f},
    {-0.0768424198f, -0.0287084971f, -0.00716116745f, -0.0250287633f, -0.0839595869f},
    {-0.00519448612f, 0.0236314014f, -0.016796099f, -0.0514758602f, -0.0953101888f},
    {-0.0151484003f, -0.0469077639f, -0.00126572629f, -0.00613446534f, 0.0776153877f},
    {-0.0123144407f, -0.00292469049f, 0.0524085686f, 0.0694710538f, -0.0540657416f},
    {0.0638549179f, 0.098888211f, 0.102577537f, 0.0700856969f, 0.0359384231f},
    {-0.0741282776f, -0.107183591f, -0.0719101653f, -0.131009683f, -0.0293762963f},
    {0.0590080507f, 0.0534286574f, -0.0351060852f, -0.00710314978f, 0.00554731674f},
  },
  {
    {0.0969418138f, 0.0584727637f, -0.01194127f, 0.0291088205f, 0.0484134555f},
    {-0.0536755994f, -0.104823016f, -0.0954066738f, -0.0753383487f, -0.120499969f},
    {-0.036825832f, 0.0464063883f, -0.0250043534f, 0.0634076074f, 0.0118083693f},
    {-0.0438827798f, -0.0706851631f, -0.06464497f, -0.119281083f, -0.0946092531f},
    {0.0470787883f, 0.115283899f, 0.0477088466f, 0.0647723228f, -0.00751788029f},
    {-0.0620961562f, -0.143861115f, -0.12332055f, -0.0277110673f, -0.0562430061f},
    {-0.0870142281f, -0.0671316385f, -0.00708249398f, 0.00221605203f, -0.0667738095f},
    {0.0163303968f, -0.000616774836f, 0.0387686193f, 0.00858233962f, 0.0272948593f},
    {-0.082175225f, -0.0396742932f, -0.0877814665f, -0.116594993f, -0.075356245f},
  },
  {
    {-0.0417909846f, -0.1090957f, 0.0107998736f, 0.118216962f, 0.178177416f},
    {0.142513141f, 0.0585675649f, 0.0821460411f, 0.0504006185f, 0.0748546347f},
    {-0.247019157f, -0.250176281f, -0.161479622f, -0.133152381f, -0.156453252f},
    {-0.0793339014f, 0.000956555537f, -0.200740486f, -0.104274668f, -0.342844039f},
    {-0.11535383f, -0.00365358521f, 0.087905854f, 0.151513085f, 0.0636090115f},
    {-0.0811565593f, -0.0286971629f, 0.0910609365f, 0.0525761321f, 0.0340776779f},
    {0.0489047468f, -0.0860962197f, 0.0743746459f, 0.0159020238f, 0.0545737483f},
    {0.0760108232f, 0.026647836f, -0.00880144536f, -0.0924362838f, -0.00945468526f},
    {-0.00533300824f, 0.0121053876f, 0.0427170023f, -0.0526850559f, 0.0218040179f},
  },
  {
    {-0.0562737919f, -0.0278468058f, -0.0924038813f, 0.0471455567f, 0.0928496271f},
    {-0.226932779f, -0.138750613f, -0.132532388f, 0.0358439498f, -0.0735787377f},
    {-0.147456259f, -0.162529692f, -0.207975581f, -0.41101861f, -0.429442853f},
    {-0.269166172f, -0.0556058586f, -0.273805648f, 0.0783727542f, -0.0615203306f},
    {-0.0719190612f, -0.129383311f, 0.030347025f, -0.149801046f, -0.250745714f},
    {-0.152577579f, -0.140621975f, -0.039709717f, -0.0512039103f, 0.0936042443f},
    {-0.071286805f, 0.13503617f, 0.126695231f, 0.150003567f, 0.000706144725f},
    {0.128630295f, -0.0907491967f, -0.157302275f, -0.103638925f, 0.0558137819f},
    {-0.0231065955f, 0.19012773f, 0.150013939f, 0.0639882162f, 0.0179159641f},
  },
  {
    {-0.199915186f, -0.14201729f, -0.121202923f, 0.0883723497f, 0.0355069377f},
    {0.209621072f, 0.281229258f, 0.175963178f, 0.0360567495f, 0.0747738779f},
    {0.122552268f, 0.237255141f, 0.0876947045f, 0.259352833f, 0.210829243f},
    {-0.018470468f, -0.166729122f, -0.0393035486f, 0.11603523f, 0.0762868002f},
    {0.149226859f, -0.270851016f, -0.062358018f, -0.158151194f, 0.0057935142f},
    {0.0470372327f, 0.0644182786f, -0.0672278404f, 0.195095643f, 0.118170023f},
    {0.0923649147f, 0.0994778797f, 0.10212364f, 0.267578572f, 0.202408448f},
    {0.0818156824f, 0.0673670694f, 0.0906592086f, 0.108746663f, 0.000580224383f},
    {0.14587301f, -0.0707879141f, 0.143991336f, -0.0122909313f, 0.235664397f},
  },
  {
    {-0.0895013884f, 0.144454971f, -0.067043744f, -0.00563522009f, -0.101084583f},
    {0.0822577327f, 0.157687455f, -0.00868474599f, 0.0978188515f, 0.121718086f},
    {-0.438794047f, -0.205958501f, -0.206772298f, -0.25314936f, -0.108605325f},
    {0.0672216862f, -0.025990501f, 0.0308323577f, 0.130178437f, 0.182675838f},
    {0.110487588f, 0.100592174f, 0.207826197f, 0.20855318f, -0.00622872123f},
    {-0.401620597f, -0.0684416816f, -0.0698895082f, 0.0439303555f, 0.0485540889f},
    {0.0190521218f, -0.00154629163f, 0.216870829f, -0.0074270796f, 0.137214616f},
    {-0.056491904f, 0.134151399f, 0.0377391465f, 0.0950214341f, 0.0815080628f},
    {-0.0788149536f, -0.185320288f, 0.0778662786f, 0.0359390713f, -0.0724462792f},
  },
  {
    {0.170664057f, 0.177580655f, 0.419964284f, 0.217473343f, 0.18104443f},
    {-0.230267614f, 0.124159746f, 0.235097975f, 0.0782234594f, 0.095895946f},
    {-0.193045527f, -0.0606816001f, 0.0294330828f, 0.0679451153f, 0.43791762f},
    {-0.0185028873f, 0.0323711596f, 0.0703635067f, 0.00864784699f, 0.0650068596f},
    {0.177924812f, -0.119414382f, 0.111112304f, -0.0606190749f, -0.0488030948f},
    {0.0574067347f, 0.0732087791f, -0.144449875f, -0.0757797584f, -0.159354225f},
    {-0.0960298181f, 0.13002336f, 0.131173462f, 0.102295458f, 0.208856687f},
    {-0.0524022803f, 0.0430528112f, -0.0251123775f, 0.0143302176f, 0.163562164f},
    {-0.324974447f, 0.0282293074f, 0.0121979471f, 0.171640083f, 0.211378127f},
  },
  {
    {-0.054332912f, -0.0952543542f, -0.0538632907f, 0.0105243297f, -0.0162435751f},
    {-0.146005958f, -0.109079212f, -0.0088671511f, -0.0717235208f, -0.209496543f},
    {0.0647913367f, 0.000877108483f, -0.00252208882f, 0.0703094304f, 0.0804786384f},
    {-0.119686045f, 0.00975803286f, -0.00606685504f, 0.000763557211f, 0.104080364f},
    {-0.112948962f, -0.0727368444f, -0.103853658f, -0.100561209f, -0.0732345283f},
    {-0.104184188f, -0.196265221f, -0.0968575999f, -0.117302805f, -0.154535368f},
    {-4.25390826e-05f, 0.00956934597f, -0.0231385194f, 0.103877842f, -0.112714753f},
    {-0.188342556f, 0.00768906996f, -0.135198668f, -0.155860782f, -0.117437027f},
    {0.13216956f, 0.0974182785f, 0.100422472f, 0.110062867f, 0.180245385f},
  },
  {
    {0.0580979027f, -0.0759713799f, 0.0369358361f, 0.19929108f, 0.107224584f},
    {0.134113014f, -0.022845434f, -0.00243786583f, -0.00854788534f, 0.186202362f},
    {0.0180209093f, 0.0821012035f, 0.117102772f, 0.0279642362f, 0.115760446f},
    {0.166142106f, 0.108552061f, -0.118061319f, -0.0455153286f, -0.117625572f},
    {-0.111273676f, -0.120576136f, -0.0667772144f, -0.189891189f, -0.164815515f},
    {-0.0298507158f, 0.0473188646f, -0.140229911f, 0.0834005699f, -0.231210172f},
    {0.0163761415f, 0.297269315f, 0.105624527f, 0.118818887f, 0.0940768272f},
    {0.084495686f, 0.0773590207f, 0.00536558265f, 0.194818556f, 0.0908573195f},
    {0.0767274946f, -0.134298056f, -0.111301079f, 0.0232010502f, -0.0329547636f},
  },
  {
    {0.00919711869f, -0.0246253032f, 0.0148639791f, -0.141498372f, -0.0528029874f},
    {-0.292224258f, -0.144612491f, -0.00156036252f, -0.0254192539f, -0.0646022484f},
    {0.252063364f, -0.051041875f, -0.0154943019f, -0.104076803f, -0.312083393f},
    {-0.115524761f, -0.0179988537f, -0.144462556f, -0.0552964173f, 0.00842796452f},
    {-0.147422895f, -0.149543539f, -0.20078364f, -0.217080399f, -0.0576033816f},
    {-0.076672025f, -0.24593845f, -0.0571354143f, -0.152962983f, -0.0678546876f},
    {0.0318289287f, -0.0205988716f, -0.122342996f, -0.0502009429f, 0.0889080465f},
    {-0.0990020931f, -0.027940942f, -0.193976179f, 0.0213890262f, 0.0344013236f},
    {0.0487439968f, 0.0692965165f, -0.0727434009f, 0.0108058536f, -0.0390370712f},
  },
  {
    {-0.170685649f, -0.0638794601f, -0.105093449f, -0.0197171997f, -0.112881698f},
    {0.0987317711f, -0.000168377199f, -0.0391959883f, 0.0205509793f, -0.141364306f},
    {0.213346347f, 0.121891692f, 0.226122767f, 0.179905638f, 0.141496345f},
    {0.0421053246f, 0.190796986f, 0.167518049f, 0.0489932708f, 0.169841856f},
    {0.124668151f, 0.0216213372f, 0.0353223197f, 0.00838267524f, -0.0421660654f},
    {0.122109227f, 0.0537699126f, 0.0991849005f, 0.00787224248f, 0.0584808812f},
    {-0.058152739f, 0.0932189748f, 0.119169571f, 0.0846029669f, 0.0158520397f},
    {0.0438686982f, -0.00785893574f, 0.0389934704f, 0.0140114669f, 0.0496434532f},
    {-0.166344315f, -0.0480892472f, -0.00895159971f, 0.0516337231f, -0.0259794164f},
  },
  {
    {0.10255184f, 0.0530392267f, -0.0417396463f, 0.0162714049f, -0.0357458517f},
    {-0.0195794273f, 0.0534459911f, -0.0149958478f, 0.0877512544f, -0.0105564557f},
    {0.213090509f, 0.283847183f, 0.278898329f, 0.221267164f, 0.168639228f},
    {0.0900099427f, 0.0289563928f, -0.0786222667f, -0.226518705f, -0.280774295f},
    {0.147324026f, 0.0449558869f, 0.0153877204f, 0.0924436003f, 0.0266121738f},
    {0.0318965986f, -0.00111919257f, -0.160746947f, -0.241693914f, -0.229083896f},
    {0.00396610191f, 0.202014729f, 0.103257336f, -0.0483961329f, 0.00244264491f},
    {0.0469163544f, 0.0464560017f, -0.0720805526f, 0.0114327203f, -0.0266475286f},
    {-0.00509474287f, 0.0589482822f, -0.142743886f, -0.0825903565f, -0.180211857f},
  },
  {
    {0.0619642399f, 0.0273312852f, 0.0263064727f, -0.00680134911f, 0.0271756109f},
    {0.0632434413f, 0.022987362f, -0.030768821f, 0.0313316658f, 0.0367807932f},
    {0.0892528519f, 0.162624449f, 0.141282067f, 0.134739757f, 0.128477722f},
    {-0.0304815043f, 0.0454374403f, 0.0372362882f, 0.0486526005f, -0.0127640441f},
    {0.0106766038f, -0.136630937f, -0.0600863881f, -0.115135543f, -0.111752108f},
    {0.190989405f, 0.193227947f, 0.188431516f, 0.207796469f, 0.140129328f},
    {-0.0649915338f, -0.00819863658f, -0.0439723581f, -0.117202349f, 0.0496369489f},
    {0.0299408995f, 0.0898066834f, -0.0300084781f, 0.0567458831f, 0.0493164286f},
    {-0.117792226f, -0.020825915f, -0.0548824035f, -0.0445813574f, 0.0723654628f},
  },
  {
    {0.0556168556f, -0.0426051095f, -0.000367253146f, -0.0609022938f, -0.0513462313f},
    {-0.0349388942f, -0.112449259f, -0.124023616f, -0.02211399f, 0.0126719037f},
    {0.00934557058f, -0.19157353f, -0.250075161f, -0.250208139f, -0.272522867f},
    {-0.209924996f, -0.0127754733f, 0.0725176409f, 0.129313961f, 0.105402388f},
    {-0.170317158f, -0.104101621f, -0.114993289f, -0.0980574116f, -0.216603115f},
    {0.186622545f, 0.179109812f, 0.130753711f, 0.185702085f, 0.202268749f},
    {0.111883916f, 0.0862292126f, 0.0115963323f, 0.0914089903f, -0.0662159249f},
    {0.00709900819f, 0.114005871f, 0.03772505f, -0.0503320061f, 0.0646028072f},
    {-0.0274891276f, -0.0882314444f, 0.00985215604f, -0.132332757f, -0.0464109406f},
  },
  {
    {-0.0238772444f, 0.0827300325f, 0.0948856696f, -0.0278176181f, 0.0167802591f},
    {-0.249832556f, -0.257622033f, -0.102841839f, -0.027546132f, -0.00793192629f},
    {-0.0549649782f, -0.0327091292f, 0.00261796452f, -0.0445041433f, 0.0495515727f},
    {0.0192544609f, -0.0332773551f, -0.0281903874f, -0.062136814f, 0.00141876575f},
    {0.00695337495f, -0.000796957873f, 0.00275797467f, -0.0763835162f, 0.0426362194f},
    {0.00448463252f, 0.0964015499f, -0.00315909367f, -0.0197531339f, 0.0342324302f},
    {0.0264979023f, 0.125718698f, -0.118766487f, 0.0544216f, 0.0549492203f},
    {-0.253679574f, -0.17755352f, -0.0764622688f, -0.231405109f, -0.0863598213f},
    {0.0646756962f, 0.0653352812f, -0.000628510199f, 0.0650981665f, 0.107199185f},
  },
  {
    {-0.0350165144f, -0.0248017292f, -0.0576825328f, -0.012251405f, 0.0117638782f},
    {-0.171118706f, -0.0519748479f, -0.178498328f, -0.135807753f, -0.197021291f},
    {0.141753152f, 0.25113368f, 0.213960648f, 0.324760079f, 0.298953474f},
    {-0.0520609431f, -0.0111554861f, -0.0094349049f, -0.0422324315f, -0.0246647112f},
    {-0.0446991734f, -0.0328991003f, -0.00548001286f, -0.0411031768f, -0.128859237f},
    {-0.129176125f, 0.104562774f, 0.0266495161f, -0.103154346f, -0.134980381f},
    {-0.223142684f, -0.132518888f, -0.0669537634f, -0.120001331f, -0.0779491365f},
    {0.0312867425f, -0.0702748075f, -0.0207767114f, -0.0689521283f, 0.0144547243f},
    {0.012316525f, -0.0324217342f, -0.0895550326f, -0.00338487048f, -0.0237390008f},
  },
};

static const float kStemBias[26] = {-0.889161527f, -0.450420171f, -1.29772162f, 0.648224354f, -0.321109921f, -0.564634085f, 0.0087134121f, -0.520831108f, 1.56401277f, -0.73598069f, -0.950780392f, 0.215494886f, -0.0110330582f, -1.33539224f, -0.930014133f, -0.332001269f, -0.317167968f, -0.328122556f, -1.04492414f, -0.331432164f, -0.145106137f, -0.180963501f, 0.931857049f, -0.633607864f, -0.401643574f, 1.01737058f};

static const float kPatchDepthwise[26][16] = {
  {-0.0180283878f, -0.0844343156f, -0.122780077f, -0.074510023f, -0.1113424f, -0.13614361f, -0.113970198f, -0.131655559f, -0.0538089201f, 0.00753056584f, 0.0547174551f, 0.074823536f, 0.146767333f, 0.249911055f, 0.118451588f, 0.209748015f},
  {-0.161491692f, -0.119819939f, -0.130484238f, -0.0803660452f, -0.170087755f, -0.201847747f, -0.191039428f, -0.0225863419f, -0.0301150065f, 0.034168832f, -0.0364906602f, 0.00483338162f, 0.0308387149f, 0.173047855f, 0.131878495f, 0.1204044f},
  {-0.086836867f, -0.145417094f, -0.037862014f, -0.199810728f, -0.126357079f, -0.131284893f, -0.147269174f, -0.0629918575f, -0.124345824f, -0.0613984801f, -0.0156087913f, -0.0661220402f, 0.0122544244f, 0.0161436573f, -0.0680954829f, -0.0475406162f},
  {0.0322292224f, 0.0615394041f, 0.0333619677f, 0.045217406f, -0.0165289845f, 0.00348449801f, 0.0740205273f, -0.0116005251f, 0.0456624031f, 0.0630605668f, 0.0666690692f, -0.0707991421f, -0.00603198912f, 0.034693446f, 0.0783417821f, 0.099923037f},
  {-0.0192585438f, -0.0937793329f, -0.07960511f, -0.123255789f, -0.0179792866f, -0.0708698481f, -0.0962793604f, -0.00760116987f, -0.0181273539f, 0.00713959988f, 0.0396392755f, -0.00463867188f, -0.00409720978f, 0.00167589879f, 0.0675094947f, 0.125024661f},
  {-0.0358155482f, -0.0508567169f, -0.110690966f, -0.0336288661f, -0.150121197f, -0.24604921f, -0.0799530596f, -0.0870734826f, -0.0917178839f, -0.0714058504f, -0.0193239637f, 0.00709767453f, 0.0882764757f, 0.0571340024f, 0.0510566123f, -0.0333310366f},
  {0.0620859414f, 0.080748789f, 0.033054579f, 0.0341370665f, 0.0793128908f, -0.0507428125f, -0.0109735485f, 0.0403301567f, -0.0369157158f, -0.0238455702f, 0.0309035014f, -0.0649181157f, -0.0183822457f, -0.0251808297f, -0.0791502893f, -0.152127355f},
  {-0.0342846811f, -0.0830869079f, 0.0546314493f, 0.0126735764f, 0.0113671552f, -0.02213143f, -0.0757437572f, -0.0119837197f, -0.0557939187f, 0.0524952449f, -0.000482928124f, 0.0377006605f, -0.0252167191f, -0.0151933124f, 0.0106026363f, 0.139179051f},
  {-0.00398427714f, -0.0572792999f, -0.0749466121f, 0.001771771f, -0.0664775893f, -0.0314265713f, 0.0350735746f, -0.105734237f, -0.00419583218f, -0.09641435f, -0.102286667f, -0.053759288f, -0.0360407643f, -0.0798256248f, -0.10093388f, -0.0806531236f},
  {-0.158267036f, -0.199086204f, -0.13764596f, -0.118575089f, -0.152853519f, -0.0437071398f, -0.0838602558f, -0.0583189726f, 0.134386227f, 0.131180614f, 0.155885994f, 0.140268326f, 0.126828671f, 0.14496778f, 0.156391695f, 0.0383262038f},
  {0.118897319f, 0.101089388f, 0.0563185439f, -0.118789732f, -0.0404621512f, -0.00706590153f, 0.015187853f, -0.0531262942f, -0.0711619705f, -0.080070667f, -0.0447156988f, -0.120730922f, -0.0389858f, -0.0858068541f, -0.0159641393f, -0.0588480532f},
  {-0.101080708f, -0.0858843476f, -0.126163051f, -0.118565835f, 0.00671597524f, -0.0507706925f, -0.0477582812f, 0.0329133049f, 0.0441727228f, -0.0223191716f, -0.0763884708f, -0.0136108696f, 0.0167985186f, 0.0258388929f, -0.0335272476f, -0.0558622479f},
  {0.133238256f, 0.139459968f, 0.0963592902f, 0.188688964f, 0.176873177f, 0.174406022f, 0.112467512f, -0.0496562086f, -0.0471997783f, -0.145957366f, -0.169540361f, -0.231061637f, -0.106827185f, -0.164806068f, -0.099879615f, -0.220197588f},
  {-0.00506542064f, -0.0746014267f, -0.0704554766f, -0.0391146615f, 0.0676006228f, 0.100323774f, 0.204760149f, 0.172802746f, 0.133566663f, 0.143259302f, 0.0500278361f, -0.0916634202f, -0.0232001897f, -0.101628333f, -0.0662881061f, -0.147776514f},
  {-0.0180544164f, -0.051641386f, -0.0844562501f, -0.0767869726f, -0.140903682f, -0.143516824f, -0.11472331f, -0.1649874f, -0.129445791f, -0.178883001f, -0.065707244f, -0.129798874f, -0.0956607237f, -0.0546966977f, -0.0289567802f, 0.035415601f},
  {0.266588688f, 0.214049026f, 0.155751422f, 0.146135837f, 0.164852172f, 0.0688214973f, 0.021483656f, -0.0566936173f, -0.0585060604f, -0.0926335379f, -0.165931717f, -0.112119958f, -0.133427292f, -0.115619108f, -0.0943180695f, -0.0262405984f},
  {-0.173146367f, -0.0848360956f, -0.108505517f, -0.00554127106f, -0.108321071f, -0.244003981f, -0.18587701f, -0.0904244259f, -0.0373118781f, 0.0576715134f, 0.0371802077f, 0.119686209f, 0.00968388095f, 0.114400066f, 0.0869120136f, 0.171903178f},
  {-0.0804134011f, -0.0149436491f, -0.0533437058f, 0.0549775064f, 0.0546595342f, 0.0891474634f, 0.139526054f, 0.129085645f, 0.144315332f, 0.164536908f, 0.0538562834f, 0.0598965287f, 0.112302385f, -0.0624599829f, -0.0523820333f, -0.108647004f},
  {0.0364338756f, -0.0119994245f, -0.0468863472f, -0.0562579073f, -0.126249582f, -0.159072578f, -0.115045935f, -0.171601355f, -0.200963795f, -0.0686066076f, -0.117106207f, -0.045979213f, -0.0366060026f, -0.0162050091f, -0.0162983537f, -0.00496778032f},
  {-0.0892462805f, -0.0221415162f, 0.0920669362f, 0.081456624f, 0.124954052f, 0.192555696f, 0.0851254016f, 0.112366654f, 0.0903160572f, 0.105672054f, 0.0662864223f, -0.00462304289f, -0.0516916066f, -0.0984596014f, -0.121212065f, -0.252814353f},
  {-0.138910413f, -0.0792086497f, -0.0522168726f, -0.0650320426f, -0.0364663228f, -0.0241145622f, 0.0236125346f, 0.00140679255f, 0.0359546952f, 0.143776506f, 0.0898727402f, 0.0935083106f, 0.0801828653f, 0.0946387351f, 0.0540631302f, 0.05534802f},
  {0.00756677287f, -0.136141941f, -0.0787223503f, -0.144118533f, -0.135572985f, -0.0768736899f, 0.000748661405f, -0.019765133f, 0.0659413934f, 0.14012523f, 0.105194911f, 0.0657772645f, 0.21384877f, 0.268086135f, 0.149698958f, 0.166398093f},
  {-0.0615965687f, 0.0347268321f, 0.0763309523f, 0.0287519339f, 0.0216463897f, 0.15177083f, 0.207416147f, 0.137418196f, 0.123897523f, 0.115914151f, 0.117269129f, 0.137877256f, 0.178591207f, 0.0142052332f, 0.0292032007f, -0.000774814165f},
  {0.0201518498f, -0.00107347744f, -0.00553738326f, -0.0555356964f, 0.119207636f, 0.147663802f, 0.115658149f, 0.162880659f, 0.0784713179f, 0.0957918093f, 0.0717741773f, 0.0958156064f, 0.0562929511f, 0.0750653222f, 0.00127806666f, 0.115810446f},
  {-0.129876316f, -0.152331769f, -0.055717878f, -0.0508992523f, -0.054246448f, 0.0354179963f, 0.0208622757f, 0.0616474077f, 0.0770869404f, 0.161924824f, 0.253475428f, 0.0869046375f, 0.152512908f, 0.192937285f, 0.144517466f, 0.212597683f},
  {0.0949914455f, 0.00295875897f, 0.0447484441f, 0.0355627164f, 0.0261735842f, -0.0351250768f, -0.0231465045f, -0.117661916f, -0.0803891718f, -0.0623646975f, -0.111649059f, -0.110839218f, -0.163224608f, -0.112450801f, -0.021456778f, -0.105784096f},
};

static const float kPatchPointwise[26][26] = {
  {-0.204564512f, 0.0439319424f, 0.0468322113f, 0.294178724f, 0.238960639f, 0.211409569f, 0.130561247f, 0.100270182f, -0.249009728f, -0.076559931f, 0.277905732f, -0.228630528f, -0.257463902f, 0.144016162f, -0.419308543f, 0.71640563f, -0.491347998f, 0.455912054f, -0.7055071f, -0.465091556f, -0.146835774f, -0.353651673f, 0.563619971f, -0.0155372135f, -0.18040815f, -0.11662624f},
  {-0.16366449f, -0.292718649f, 0.213817164f, 0.321050584f, 0.346724749f, -1.00520682f, 0.037844453f, -0.26432994f, 0.17875798f, 0.0182625931f, -0.171568349f, 0.191350013f, -0.431080163f, 0.373075604f, 0.410178095f, 0.0564009324f, 0.253127903f, 0.457594246f, 0.00650284719f, 0.947415948f, -0.79592514f, 0.105501868f, -0.410201013f, 0.275133342f, -0.614441633f, 0.114769123f},
  {0.21134156f, 0.462762058f, 0.116927937f, -0.40944615f, -0.665117502f, 0.321445853f, 0.1653824f, 0.160945058f, -0.165633157f, 0.771799922f, -0.709129035f, 0.297895074f, -0.203790635f, 0.0978823453f, 0.454221338f, -0.119284622f, -0.00637657382f, -0.734284639f, -0.27101177f, -0.313703507f, 0.00980794244f, -0.0680192113f, 0.218740374f, 0.620124102f, 0.439015687f, -0.201460421f},
  {-0.402098566f, 0.528993785f, -0.356960237f, -0.704032481f, -0.116696618f, -0.187761262f, 0.268622309f, -0.429372817f, -0.212558553f, -0.179745913f, -0.0643977821f, -0.163057148f, -0.450856388f, 0.389426947f, -0.0585769229f, 0.109314948f, 0.817572415f, 0.0554656498f, -0.302759945f, 0.684499979f, -0.62743026f, -0.472838104f, -0.364705205f, 0.277912527f, 0.179910615f, 0.355861932f},
  {-0.121652059f, 0.0503566004f, -0.175985232f, 0.466402888f, 0.439295799f, -0.309621572f, -0.459150553f, -0.377748519f, 0.0737699121f, -0.485937744f, -0.437415212f, -0.125988096f, -0.468573838f, 0.279891372f, 0.460158676f, -1.00573266f, 0.340703219f, -0.202420488f, 0.147853002f, -0.025035521f, -0.0769844949f, -0.0989780724f, -0.103873409f, 0.293850511f, -0.749451578f, -0.0665951371f},
  {0.338021785f, 0.147833526f, -0.00229670363f, 0.131140634f, -0.905658662f, 0.359002739f, -0.415513456f, 0.0469965972f, 0.174329698f, 0.198440373f, -0.61013484f, -0.0998800844f, -0.196496457f, -0.169481739f, 0.380227149f, -0.468746662f, 0.587004364f, 0.675120711f, 1.16667449f, -0.0940272659f, -0.0503797308f, 0.0784238055f, 0.0022923043f, 0.306991518f, 0.312869728f, -0.566294432f},
  {-0.33744812f, 0.227636158f, -1.28013361f, 0.59097904f, 0.114733331f, 0.574957013f, 0.224042162f, -0.176789969f, 0.0599499978f, 0.484890878f, 0.0829878524f, 0.809760332f, 0.290912956f, 0.427041233f, -0.949101329f, -0.20186536f, 0.430718005f, 0.555540979f, 0.154113725f, 0.00670084124f, 0.611691296f, -0.417294323f, 0.249727428f, -0.27527526f, 0.142228708f, -0.195164025f},
  {-0.632261395f, -0.533699214f, -0.00595042249f, 0.343275845f, 0.541058898f, -0.364389956f, -0.592918456f, 0.0534016266f, -0.38689822f, 0.595184088f, -0.00962872617f, -0.0986683667f, 0.494331121f, -0.281319946f, 0.718955934f, 0.131053001f, 0.212004304f, -0.404006034f, -0.246363714f, -0.572049379f, 0.770782411f, -0.246845827f, -0.281870812f, -0.182222068f, -0.174816996f, -0.0987747461f},
  {-0.0417943858f, 0.0404008403f, -0.0451765284f, -0.0908172578f, -0.0529861823f, -0.0664519966f, 0.355880797f, 0.120653979f, 0.574038386f, -0.103724808f, 0.0259739347f, -0.239161864f, -0.0422922596f, -0.219183356f, 0.517323554f, 0.373040766f, 0.143480897f, -0.650471509f, 0.100436673f, -0.441400111f, -0.160762131f, 0.0817798525f, -0.425115913f, -0.474918604f, -0.467203707f, -0.00903595518f},
  {-0.0565578751f, -0.233593643f, -0.837808251f, -0.00740381284f, -0.500855267f, 0.0312592089f, -0.0401577726f, 0.171679989f, 0.172816247f, -0.0931813791f, 0.067089133f, -0.263954401f, 0.553579926f, 0.659525692f, 0.281719625f, -0.423493862f, 0.173280299f, 0.0235798284f, 0.0629718453f, -0.227186456f, 0.403044164f, 0.278051943f, -0.968201935f, -0.484147578f, -0.318779916f, 0.0910633504f},
  {-0.0119818244f, 0.00110707688f, 0.436193794f, -0.0667030886f, 0.244157717f, -0.231486797f, -0.065549545f, -0.312398553f, 0.33854267f, 0.652327001f, -0.359428942f, 0.116756067f, 0.429244369f, 0.294558913f, 0.254584283f, -0.505633593f, 0.154258683f, 0.172857404f, 0.194594547f, 0.167484835f, 0.466817409f, -0.353927732f, -0.428461939f, -0.0622820966f, -0.00236562407f, 0.177114457f},
  {0.452768385f, 0.350913048f, 0.353746772f, -0.316715002f, 0.1813595f, -0.0472654887f, 0.442196399f, -0.0803387612f, 0.41495207f, -0.233441949f, -0.355144113f, 0.19074361f, -0.229404971f, -0.594905436f, -0.143791512f, -0.0742699951f, -0.0426746868f, -0.818529487f, -0.281877041f, -0.0400464684f, -0.0682715401f, 0.0728936344f, -0.175244287f, 0.270561278f, -0.0993893743f, 0.267460048f},
  {-0.297142953f, -0.446847558f, 0.039943859f, -0.222430274f, -0.368696481f, 0.221160308f, -0.164290071f, 0.0260632932f, 0.301775485f, 1.08643746f, 0.258482963f, 0.182213783f, 0.71876502f, 0.179495156f, -0.149176046f, -0.494549066f, 0.299898058f, -0.386060119f, 0.140907973f, -0.343784571f, -0.0308542494f, -0.40402624f, -0.0569929592f, 0.298772335f, -0.0615131333f, 0.198222876f},
  {0.619758546f, 0.528129637f, -0.0841962025f, -0.386327893f, -0.341770351f, 0.193600684f, -0.234984696f, -0.227032542f, 0.0942731798f, -0.243593246f, -0.127819493f, 0.330714107f, -0.067630738f, 0.0605252162f, -0.0700714812f, -0.249079347f, -0.227717936f, -0.595023572f, -0.307782412f, -0.075507842f, 0.34672749f, 0.247604206f, 0.152054772f, -0.0844291225f, -0.633173347f, 0.210181788f},
  {0.704629183f, 0.0659802929f, 0.0704316497f, -0.197754994f, 0.362787753f, -0.10144262f, 0.183251917f, 0.00100086513f, -0.245885417f, -0.125181913f, -0.0483022071f, 0.113914594f, 0.414066523f, -0.398232162f, 0.135235563f, 0.384507775f, 0.148552254f, -0.57498312f, 0.298320085f, -0.4603692f, -0.259341568f, 0.38378942f, 0.00471756002f, 0.0785844922f, -0.0756519958f, 0.241043985f},
  {0.536233246f, 0.223924592f, 0.176489636f, 0.221605435f, 0.0616779625f, 0.329293668f, -0.0246285163f, -0.0381568745f, -0.485139161f, -0.208221391f, -0.0149178226f, 0.0754116997f, -0.354939729f, -0.0587005801f, -0.136637151f, -0.165748447f, -0.637038648f, 0.172264516f, -0.583978653f, -0.0157549903f, -0.517386556f, 0.656218946f, -0.366615832f, -0.72504729f, 0.240712732f, 0.567212403f},
  {0.0210863519f, -0.00342018157f, 0.138682798f, 0.141965926f, 0.0765401796f, 0.764058471f, 0.233903527f, -0.561988711f, -0.77002871f, 0.205028787f, -0.0899777338f, 0.0829219818f, 0.34102118f, -0.392034024f, 0.00966691505f, 0.591412723f, -0.578079522f, -0.167810008f, 0.669213772f, 0.194479808f, 0.00402592402f, -0.471389413f, 0.0485171154f, 0.145032495f, 0.357813805f, -0.143499851f},
  {-0.0209808797f, 0.619936585f, 0.832856596f, -0.126005605f, 0.287125081f, 0.456647396f, 0.123392791f, 0.0589284636f, 0.138111919f, -1.04089968e-05f, -0.465535283f, -0.268529564f, -0.608707368f, 0.368778795f, -0.061560683f, -0.163612857f, -0.773053288f, 0.134762108f, -0.0604052171f, 0.563695729f, -0.988921762f, -0.27178213f, -0.406668484f, -0.156911597f, -0.192982018f, 0.121327557f},
  {-0.671600282f, 0.516334951f, 0.0812281594f, -0.0718428269f, 0.330050647f, -0.330323249f, -0.038245663f, -0.107608832f, 0.293918163f, 0.105026461f, -0.530009151f, 0.42187193f, 0.274579853f, 0.0741586462f, -0.0164261162f, 0.334108472f, -0.0870275348f, -0.118767984f, 0.7449494f, -0.808125794f, 0.0202156957f, -0.121310323f, 0.0338012427f, -0.404147297f, 0.507858276f, -0.364082962f},
  {-0.0322233997f, 0.189779043f, -0.355736852f, 0.162951425f, -0.389140993f, -0.259283602f, -0.248032525f, -0.322202027f, 0.440411657f, -0.594191074f, -0.953302085f, -0.238170043f, -0.175415128f, -0.631956697f, 0.0183151569f, 0.966597855f, 0.387712508f, -0.158210486f, -0.18671079f, -0.264387459f, -0.162790701f, 0.325467169f, -0.114975549f, -0.214934438f, 0.445392877f, -0.494520187f},
  {0.0478460826f, 0.180897802f, 0.0178747419f, 0.176492512f, 0.468921542f, -0.188017026f, 0.152363926f, -0.137486339f, 0.52685225f, -0.545413554f, -0.205488101f, 0.392034024f, 0.129809707f, -0.60605216f, -0.230992869f, 0.714950085f, -0.272651881f, 0.232038081f, -0.201632187f, -0.74566263f, 0.254995674f, 0.263418406f, -0.105990306f, -0.625433981f, 0.123828582f, 0.317175776f},
  {-0.460214674f, -0.222000867f, 0.463791281f, -0.0191561058f, 0.0350280069f, 0.431140751f, 0.541229725f, -0.0666985884f, 0.802844882f, 0.10848669f, -0.3934986f, -0.220674932f, 0.193083122f, -0.638316214f, -0.146715373f, -0.202693895f, -0.0836494267f, -0.247681111f, -0.854011178f, 0.380262971f, 0.733869672f, 0.464500785f, -0.293064445f, 0.409516871f, -1.05601943f, -0.0280262306f},
  {0.599250197f, -0.294928521f, -0.931335807f, 0.156803608f, 0.187711447f, -0.203096583f, -0.120481692f, 0.053680107f, 0.251669228f, -0.556864202f, 0.0374992043f, 0.00931857806f, -0.25639677f, -0.0170498267f, -0.0379125811f, 0.0829908401f, -0.436630815f, -0.232591182f, -0.197986886f, 0.418673009f, 0.157784998f, 0.0248233639f, -0.0305694919f, -0.163171023f, -0.355834126f, -0.23737137f},
  {-0.797106385f, -0.271832794f, 0.0930762812f, 0.608950615f, 0.580248952f, 0.798582256f, -0.275164455f, -0.303770602f, -0.284807563f, 0.0944133326f, 0.211423904f, -0.435687602f, -0.114482969f, 0.242091149f, 0.547992885f, 0.128985658f, -0.231849223f, 0.736133575f, -1.23651612f, -0.839612782f, 0.595523715f, 0.358214349f, 0.372510046f, 0.360466778f, -0.93066889f, -0.111106701f},
  {-0.496991098f, 0.222930029f, -0.637767434f, -0.440923065f, 0.125468791f, 0.661324084f, -0.0371714346f, 0.0288866181f, 0.447248071f, 0.541529655f, -0.434722036f, -0.330606103f, 0.115152724f, -0.018456772f, -0.738199472f, 0.192692995f, -0.256451637f, -0.305253118f, -0.15672271f, -0.0633358359f, -0.047978837f, -0.545380712f, -0.193583459f, 0.298561662f, -0.291221648f, 0.235960469f},
  {0.0660344958f, 0.0950720832f, -0.234731331f, -0.00955183897f, 0.355824023f, -0.0190547016f, -0.0934026018f, -0.255727023f, 0.889175534f, -0.27994889f, -0.317624599f, 0.702219367f, -0.175923377f, 0.0946270674f, -0.173265696f, -0.244416952f, 0.162115633f, 0.413924783f, -0.0531156287f, -0.37057516f, -0.318377584f, -0.521850348f, -0.725125074f, -0.325494826f, 0.146330193f, 0.783139825f},
};

static const float kPatchBias[26] = {-0.272641838f, -0.0500945002f, -0.00602759421f, 0.0308345687f, 0.283445418f, 0.0804301575f, -0.246902913f, 0.306884825f, 0.499267459f, 0.301326066f, 0.346842438f, 0.254347056f, 0.288618326f, 0.250322461f, 0.243259355f, -0.0192842279f, 0.092645213f, 0.321311563f, 0.19901453f, -0.167252868f, 0.165634975f, 0.155366957f, -0.198304385f, -0.0692725778f, 0.0856666267f, 0.390744835f};

static const float kPosEmbed[1][31][26] = {
  {
    {0.158950284f, 0.00485361787f, -0.154108763f, -0.0721353963f, -0.103282042f, 0.00142780377f, 0.0102213332f, 0.0255498085f, 0.0455598943f, 0.08251293f, -0.0426639728f, -0.048277244f, -0.125353068f, -0.0572959073f, 0.0371562727f, 0.0249147713f, 0.0238793269f, 0.0110379793f, 0.0370537527f, 0.0585026555f, 0.0795324966f, -0.0429646075f, -0.0904069915f, 0.124890313f, -0.030344177f, 0.019259084f},
    {0.0979344174f, 0.030310763f, -0.0680736378f, 0.00459403731f, -0.00827261526f, 0.0118890451f, 0.0616428964f, 0.058587797f, -0.0371081829f, 0.0255873352f, -0.075050205f, -0.0320265889f, -0.0405026153f, -0.0384952575f, -0.0316796787f, 0.00575161492f, 0.102973007f, -0.0580447428f, -0.0805263445f, 0.0994092822f, -0.0213808231f, 0.0569640175f, 0.0423275009f, 0.081722185f, 0.020940477f, -0.048771847f},
    {0.00904670358f, 0.0438014232f, 0.0147656938f, -0.0325636491f, 0.0438617095f, 0.0670059696f, -0.0704374835f, 0.0163217224f, -0.00428199302f, 0.0467565171f, -0.0013272902f, -0.0224227048f, -0.0140641946f, -0.0211908352f, 0.0218155123f, -0.0554250479f, 0.20433262f, -0.042670466f, 0.013760929f, 0.0587599799f, -0.0715553015f, -0.00721430872f, -0.0123618823f, 0.0789618269f, -0.0266131591f, -0.074558951f},
    {-0.0089353174f, 0.0616372749f, 0.00559631316f, 0.0842152685f, 0.00781956315f, 0.0394060127f, -0.0300739594f, -0.00145005889f, -0.026588181f, 0.0526706278f, -0.0146264266f, -0.035365507f, -0.0601852909f, -0.0316545181f, 0.0353855677f, 0.0290440507f, 0.177386612f, 0.0251201726f, 0.0264267847f, 0.0334506743f, -0.0160720497f, -0.157104209f, -0.0349138603f, 0.0695979446f, -0.0671659335f, 0.00986322761f},
    {0.0724071115f, 0.0370731018f, -0.00829729252f, 0.0960464329f, -0.0415712669f, 0.0686480105f, 0.0403301828f, 0.0122319711f, -0.0552956462f, 0.0727610141f, -0.0383455642f, -0.0692778975f, -0.0169918351f, -0.0539788939f, 0.0134152984f, 0.0583301112f, 0.0799636841f, 0.0410853289f, 0.000592272729f, 0.0344973579f, 0.00145585719f, -0.100902617f, -0.0606256798f, 0.0794139504f, -0.0387861319f, 0.0553512536f},
    {0.113205463f, 0.0102335457f, 0.000919053797f, 0.0672098026f, 0.0356757045f, 0.0559270754f, 0.0677739605f, 0.00470693223f, -0.0785918534f, 0.0674202293f, -0.0300946143f, -0.0790263712f, -0.0157512296f, -0.0628310516f, 0.0426171757f, 0.0687737614f, -0.0179263782f, 0.0139245577f, -0.0247100946f, 0.0501331538f, -0.0746902451f, -0.0389174744f, -0.039278131f, 0.0820211992f, -0.0741375163f, -0.0127943158f},
    {0.092618525f, 0.0279305615f, -0.0280393772f, 0.060037937f, 0.0870689601f, 0.00137525611f, 0.0415652245f, -0.00782146864f, -0.0617847405f, 0.0550337881f, -0.0150049329f, -0.0343610235f, -0.0333898887f, -0.0535906777f, 0.0460804254f, 0.0486719348f, -0.0499504358f, -0.0237109885f, -0.0197424497f, 0.0457943082f, -0.0826755166f, -0.00562563585f, -0.0393794365f, 0.0212307498f, -0.0855898708f, -0.0209286045f},
    {0.0873221532f, 0.0093700802f, -0.0520454086f, 0.0433559418f, 0.0710578263f, 0.00558684301f, 0.0232417472f, 0.022020258f, -0.0224871263f, 0.0136494413f, -0.0413532518f, -0.0157984346f, -0.0157520417f, -0.0395024121f, 0.00619067065f, 0.0143304132f, 0.00248496607f, -0.0410954431f, -0.0100721307f, 0.0475264043f, -0.0247651469f, 0.03718476f, -0.0328763872f, 0.0345545933f, -0.0311162937f, -0.0136951068f},
    {0.0815330744f, -0.0280541815f, -0.00762087479f, 0.0034253085f, 0.0732996091f, 0.054577291f, 0.0263587721f, 0.0298376828f, 0.00141968147f, 0.00727335643f, -0.051640708f, -0.0427378453f, -0.0124704475f, -0.0230291355f, -0.029856177f, 0.0295742061f, 0.040804103f, -0.0212592687f, 0.00332983909f, 0.060075976f, -0.0355027579f, 0.0231463499f, -0.00700352341f, 0.0665669665f, -0.0158536155f, -0.0315958261f},
    {0.0416684933f, -0.027784653f, 0.0123089543f, -0.0187749006f, 0.0912212133f, 0.054223109f, 0.0198009145f, 0.0110863457f, -0.00942353718f, 0.0337153561f, -0.0289515071f, -0.0589954108f, -0.0267160647f, -0.0115833413f, -0.0427123308f, 0.0335839801f, 0.0185543448f, 0.0344697647f, 0.00796450302f, 0.0371474326f, -0.074182719f, -0.0242482498f, -0.00622232398f, 0.0497390889f, -0.0222403817f, -0.0128681296f},
    {0.0467295684f, -0.0125247724f, -0.0293891504f, -0.0223972499f, 0.0662244037f, -0.00034922827f, -0.000819807407f, 0.0173399728f, -0.0245829299f, 0.0071778628f, -0.0334447995f, -0.0449938141f, -0.0176205821f, 0.00465643685f, -0.0230522566f, -0.0249269754f, 0.0272214673f, 0.0506623164f, -0.0116717303f, 0.00164482929f, -0.0337640606f, -0.0217763502f, -0.020760728f, 0.0566602722f, 0.0122187976f, 0.00987835974f},
    {0.0957693383f, 0.0171617642f, -0.00399847236f, -0.0175682548f, 0.0505890287f, -0.0315596126f, -0.0253601f, 0.00096195261f, -0.00105744775f, -0.0152436234f, -0.0216232389f, -0.0272103883f, -0.0137838442f, 0.0280600227f, 0.0170877203f, -0.0291700643f, 0.06057363f, -0.0079979375f, -0.0034979512f, 0.00822274573f, 0.00143207656f, -0.0294655245f, -0.029739609f, 0.0386451408f, -0.00925951265f, -0.00895235129f},
    {0.0476090461f, 0.0322785899f, -0.000784289092f, 0.0367369875f, 0.123455703f, -0.000610481948f, -0.0306301564f, 0.0209478326f, 0.00262747775f, -0.00661540311f, 0.0299597103f, -0.0445522964f, -0.00229991158f, 0.0019176784f, 0.015953565f, 0.0041521769f, 0.00290938653f, 0.0203750581f, 0.0215561483f, -0.0128444005f, -0.0345046595f, -0.0551541522f, -0.0464284383f, 0.0499382913f, -0.0535929687f, -0.0175826903f},
    {0.108598307f, -0.0168389194f, -0.0459687188f, -0.0525495969f, 0.113767132f, 0.0569566637f, -0.00724321324f, 0.0711577088f, -0.0261725541f, -0.0254313052f, 0.0172753856f, -0.0508351214f, -0.017457258f, 0.0405705161f, 0.0124987355f, 0.00640910305f, 0.0230462253f, 0.0152807832f, 0.012404195f, -0.0128182387f, -0.0669180155f, -0.0779864937f, -0.0133993523f, 0.139584526f, -0.0479600132f, -0.0629403517f},
    {-0.0330741331f, -0.0727642924f, 0.0672796965f, 0.0898092687f, 0.0155428788f, 0.0230334699f, 0.02674108f, 0.0451059863f, -0.0911510661f, -0.0778697431f, 0.0283958688f, -0.0217469204f, 0.00125877094f, -0.0199253894f, -0.0594140142f, -0.0820729584f, -0.0559180193f, 0.0225744918f, 0.063575156f, -0.0258310512f, 0.0832235292f, -0.181162208f, -0.0604833923f, 0.0252282824f, 0.00320412032f, 0.102913864f},
    {-0.016433686f, 0.0202283785f, -0.0319309272f, -0.00477918331f, 0.0525051504f, 0.000800766051f, 0.0560017005f, 0.0365580842f, 0.0345715247f, -0.071575135f, -0.0406964272f, -0.0303971767f, -0.0398170874f, -0.0163650569f, 0.0112865875f, -0.0296437144f, 0.0666719973f, 0.0665071234f, 0.000603628054f, -0.0419056267f, 0.00506641576f, -0.0325141251f, -0.0224367287f, 0.0570569523f, 0.00184181402f, 0.019788472f},
    {-0.0032259929f, -0.0250270721f, 0.0641516373f, -0.0162109323f, 0.04702029f, 0.0168766193f, 0.0298950076f, 0.000435359892f, 0.0693560466f, -0.0288328771f, -0.0209826976f, -0.0024018446f, -0.00688526779f, -0.0403665788f, 0.00764656533f, -0.0412633009f, -0.0254355893f, -0.00846831501f, -0.0239846464f, 0.0381608978f, -0.072793223f, -0.0426048934f, 0.0375975892f, 0.0231120829f, -0.0357902348f, -0.0130771361f},
    {-0.0024354246f, -0.0700509772f, -0.0104903644f, -0.0794180036f, -0.023039382f, 0.0197383501f, 0.0199244581f, 0.0211879052f, -0.00143207796f, -0.0562853068f, 0.0372641906f, -0.033555001f, 0.0182939861f, -0.00703058951f, -0.0156104621f, -0.0797510669f, -0.0188959017f, 0.0407855026f, -0.0157861579f, -0.0562519915f, 0.0133996066f, 0.0269983355f, -0.0166626591f, 0.0673937425f, 0.00651314436f, 0.067087315f},
    {-0.0456638224f, 0.0634947717f, 0.086363636f, 0.0653539598f, -0.000683940947f, 0.0236802083f, -0.0164118875f, 0.0931824297f, -0.0348972604f, -0.0567945987f, -0.000162278302f, -0.0293171033f, -0.0472215116f, 0.0062291245f, 0.0113153411f, -0.105631284f, 0.0970602706f, 0.020567283f, 0.0239398777f, 0.0130073233f, -0.0429999866f, -0.104211174f, -0.00559355365f, 0.119199984f, -0.049365066f, -0.040889971f},
    {-0.0124641154f, 0.0769253373f, 0.039802067f, 0.0642865896f, 0.000135431183f, -0.000969552901f, -0.00740545196f, 0.0743009299f, 0.0256419908f, -0.0882545859f, 0.0399896577f, -0.0335536972f, -0.0722283199f, -0.0106884241f, 0.043083638f, -0.138743415f, 0.0210433677f, 0.0508677475f, -0.0128343264f, -0.0768842101f, 0.0179971419f, -0.0919804201f, -0.0101142433f, 0.118479811f, -0.0671106875f, 0.00438246131f},
    {0.0527344197f, 0.00771113019f, -0.0146203116f, 0.0602968968f, -0.0230134502f, 0.0339449756f, -0.0128368661f, 0.0362301879f, 0.0198950861f, -0.0415931977f, 0.0283903815f, -0.0497143008f, -0.0443094596f, -0.0505213141f, 0.000515401363f, -0.0734651312f, -0.00685412064f, 0.0193393212f, -0.0140983202f, -0.032697916f, 0.0225821324f, -0.0417979807f, -0.0233652052f, 0.0445241928f, -0.0578051805f, 0.0428573824f},
    {0.0359457135f, 0.0196127966f, -0.0213641115f, 0.0819599926f, 0.0327974185f, 0.0222881194f, 0.0126740094f, 0.0530311987f, -0.0224152841f, -0.0207528323f, 0.0229024887f, -0.0604836419f, -0.0442532934f, -0.0494900644f, 0.00270036608f, -0.0173358154f, 0.00476320134f, 0.00980591495f, 0.00369460997f, 0.0368572958f, -0.0271455552f, -0.0922602415f, -0.0198366046f, -0.0102652516f, -0.0740775168f, 0.0442073941f},
    {0.0205561779f, 0.0192188639f, -0.00749949506f, 0.0747270137f, 0.105258495f, -0.0153420372f, 0.0495103449f, 0.0467414632f, -0.0553831011f, -0.0519892238f, 0.0140567748f, -0.0241595805f, -0.0326578468f, -0.0283377934f, 0.0231923833f, -0.00299345725f, 0.0260282326f, 0.0206288472f, -0.00490082288f, 0.0278121624f, -0.0643108115f, -0.0781312138f, -0.0130491182f, 0.00681481976f, -0.0778534263f, -0.00998833776f},
    {0.0711688921f, -0.000113587012f, -0.0228805244f, 0.0278547499f, 0.117516078f, -0.00995028578f, 0.0484053269f, 0.0585991815f, -0.0471552499f, -0.0852831155f, -0.0294960365f, -0.0157821663f, -0.0308746751f, -0.0017580213f, 0.0180866253f, -0.0103864186f, 0.0159153249f, 0.0138473371f, -0.0188059825f, 0.0264326185f, -0.0585288629f, 0.00505573303f, 0.0270732027f, 0.035905607f, -0.0408026464f, -0.0336572863f},
    {0.0865431726f, -0.022319993f, -0.0106767584f, 0.015549982f, 0.108817071f, 0.0358937308f, 0.0370445959f, 0.0683202446f, -0.0101749301f, -0.0559424162f, -0.0363187827f, -0.0490042008f, -0.0442656763f, 0.0107809687f, -0.0178931281f, -0.00258115679f, -0.00890895538f, 0.00169376284f, -0.0186842624f, 0.0383435935f, -0.0314093456f, -0.00623986684f, 0.0714075267f, 0.0247885492f, -0.021737529f, -0.00288876845f},
    {0.0408075377f, -0.0447936729f, 0.0196499527f, 0.0546504855f, 0.130066276f, 0.049832698f, 0.0531315133f, 0.0284827054f, 0.00212004408f, -0.0134889781f, 0.00247213081f, -0.0629807562f, -0.0305023007f, -0.00375637831f, -0.0403879434f, 0.0211648159f, -0.00390496268f, 0.0183549765f, -0.0183494091f, 0.00494294055f, -0.0177005157f, -0.0756820366f, 0.0528577343f, -0.0096930759f, -0.0287150182f, 0.00597866718f},
    {0.0475679636f, -0.00657683704f, -0.0161626898f, 0.0469434932f, 0.110833272f, -0.0113183521f, 0.0512514487f, 0.0335683748f, -0.0119043551f, -0.0395447314f, -0.0112602189f, -0.0461690351f, -0.00700546429f, -0.00373411272f, 0.00712670945f, 0.00516581628f, -0.000434790039f, 0.0190639477f, -0.0161940604f, -0.0254269745f, 0.00252181571f, -0.0502475537f, 0.0144057106f, -0.0233909357f, 0.00223874394f, -0.0163380094f},
    {0.0730822757f, 0.0607698187f, -0.00438889349f, 0.00464254431f, 0.00955291279f, -0.0476001389f, 0.00887051411f, 0.0736376345f, -0.0381451026f, -0.0394114107f, -0.0347334221f, -0.00315496139f, 0.00421317387f, 0.00598906539f, 0.0343514457f, -0.0220902078f, -0.0170750096f, -0.0454090759f, -0.0123290448f, -0.0262666978f, 0.0344768539f, 0.00512411119f, 0.0261737816f, 0.0300987363f, 0.0346867554f, -0.0358678587f},
    {0.0268942062f, 0.120611027f, 0.0307261646f, 0.0395893455f, 0.0404232219f, 0.0288065989f, 0.0154638207f, 0.0663613901f, -0.117175959f, -0.0368662328f, 0.0146440854f, -0.0290770009f, -0.0112176072f, -0.0321949571f, -0.0315658487f, 0.0281477571f, -0.0390160941f, 0.00889333058f, -0.036637459f, -0.0439686179f, -0.0207781792f, -0.0143312858f, 0.0475925133f, 0.105936676f, 0.0200590417f, -0.0149038415f},
    {0.000593575649f, -0.0760185122f, 0.0874270946f, -0.0613870732f, 0.0704946443f, 0.0482494384f, -0.0125155076f, -0.0216763169f, 0.0332371481f, -0.0236814357f, -0.00193553185f, 0.0488606319f, -0.0190337393f, 0.0284166597f, 0.0114985667f, 0.0455466509f, -0.0683603808f, -0.0570774451f, -0.0107305506f, -0.056124378f, 0.0234637223f, -0.0465677045f, 0.0385484844f, -0.00446224865f, -0.0548035316f, -0.0167014096f},
    {-0.0253854226f, -0.203432724f, 0.149897829f, 0.0300333183f, -0.036982391f, -0.0103455475f, -0.0891368017f, -0.179068089f, 0.202865735f, -0.154084712f, 0.0207164716f, 0.161752209f, 0.0570544936f, 0.0581128858f, 0.0748811662f, -0.0946229398f, -0.0925999582f, -0.0972976163f, -0.0302006379f, -0.161673933f, 0.152384669f, -0.0665102005f, -0.166073576f, -0.150354177f, -0.0716734231f, 0.0572522543f},
  },
};

static const float kLayer0PreNormWeight[26] = {0.773477972f, 0.83954221f, 0.748666584f, 0.793759823f, 0.585433304f, 0.566005528f, 0.647367179f, 0.837903321f, 0.694110692f, 0.81672132f, 0.806461751f, 0.619186699f, 0.885257304f, 0.682567239f, 0.81540066f, 0.672991395f, 0.496902049f, 0.863875508f, 0.687699378f, 0.692690551f, 0.772951066f, 0.696593761f, 0.686589956f, 0.611793876f, 0.841297865f, 0.933699727f};

static const float kLayer0PreNormBias[26] = {0.0643981546f, -0.00372707448f, -0.0534453727f, 0.011772899f, 0.0341506526f, 0.0355771594f, 0.0689084008f, 0.00991653465f, -0.0484475307f, 0.126146078f, -0.0412677675f, -0.16217871f, -0.0539190806f, 0.00790948793f, -0.0557830557f, 0.196300924f, 0.144284427f, -0.0566580184f, 0.0226986594f, 0.182293832f, -0.0255647264f, -0.042472247f, 0.155357882f, 0.0616177022f, 0.0244020987f, -0.0238962322f};

static const float kLayer0PostNormWeight[26] = {0.694054663f, 0.695656121f, 0.75000459f, 0.799284935f, 0.710210741f, 0.74519372f, 0.72893697f, 0.761257529f, 0.703223586f, 0.706770122f, 0.764999807f, 0.773227334f, 0.858471453f, 0.687606692f, 0.817462265f, 0.677699685f, 0.650782347f, 0.72056812f, 0.69501996f, 0.723497927f, 0.776855469f, 0.599499345f, 0.736238003f, 0.641462445f, 0.808605373f, 0.552614033f};

static const float kLayer0PostNormBias[26] = {0.0173394065f, 0.0659425259f, 0.0754867345f, -0.0975383148f, 0.00616540853f, 0.0444669761f, 0.0399401076f, 0.0585538298f, 0.0244620554f, 0.0118356701f, -0.0527768694f, -0.0373856276f, 0.00987876859f, 0.00964964461f, -0.0180534516f, 0.0149712041f, 0.0493770503f, -0.0698824152f, -0.0347328112f, 0.0167390015f, -0.0929568782f, -0.007218902f, 0.0345164686f, 0.117914617f, -0.028067179f, -0.14167048f};

static const float kLayer0ALog[52][8] = {
  {0.0f, 0.693147182f, 1.09861231f, 1.38629436f, 1.60943794f, 1.79175949f, 1.94591022f, 2.07944155f},
  {0.0f, 0.693147182f, 1.09861231f, 1.38629436f, 1.60943794f, 1.79175949f, 1.94591022f, 2.07944155f},
  {0.0f, 0.693147182f, 1.09861231f, 1.38629436f, 1.60943794f, 1.79175949f, 1.94591022f, 2.07944155f},
  {0.0f, 0.693147182f, 1.09861231f, 1.38629436f, 1.60943794f, 1.79175949f, 1.94591022f, 2.07944155f},
  {0.0f, 0.693147182f, 1.09861231f, 1.38629436f, 1.60943794f, 1.79175949f, 1.94591022f, 2.07944155f},
  {0.0f, 0.693147182f, 1.09861231f, 1.38629436f, 1.60943794f, 1.79175949f, 1.94591022f, 2.07944155f},
  {0.0f, 0.693147182f, 1.09861231f, 1.38629436f, 1.60943794f, 1.79175949f, 1.94591022f, 2.07944155f},
  {0.0f, 0.693147182f, 1.09861231f, 1.38629436f, 1.60943794f, 1.79175949f, 1.94591022f, 2.07944155f},
  {0.0f, 0.693147182f, 1.09861231f, 1.38629436f, 1.60943794f, 1.79175949f, 1.94591022f, 2.07944155f},
  {0.0f, 0.693147182f, 1.09861231f, 1.38629436f, 1.60943794f, 1.79175949f, 1.94591022f, 2.07944155f},
  {0.0f, 0.693147182f, 1.09861231f, 1.38629436f, 1.60943794f, 1.79175949f, 1.94591022f, 2.07944155f},
  {0.0f, 0.693147182f, 1.09861231f, 1.38629436f, 1.60943794f, 1.79175949f, 1.94591022f, 2.07944155f},
  {0.0f, 0.693147182f, 1.09861231f, 1.38629436f, 1.60943794f, 1.79175949f, 1.94591022f, 2.07944155f},
  {0.0f, 0.693147182f, 1.09861231f, 1.38629436f, 1.60943794f, 1.79175949f, 1.94591022f, 2.07944155f},
  {0.0f, 0.693147182f, 1.09861231f, 1.38629436f, 1.60943794f, 1.79175949f, 1.94591022f, 2.07944155f},
  {0.0f, 0.693147182f, 1.09861231f, 1.38629436f, 1.60943794f, 1.79175949f, 1.94591022f, 2.07944155f},
  {0.0f, 0.693147182f, 1.09861231f, 1.38629436f, 1.60943794f, 1.79175949f, 1.94591022f, 2.07944155f},
  {0.0f, 0.693147182f, 1.09861231f, 1.38629436f, 1.60943794f, 1.79175949f, 1.94591022f, 2.07944155f},
  {0.0f, 0.693147182f, 1.09861231f, 1.38629436f, 1.60943794f, 1.79175949f, 1.94591022f, 2.07944155f},
  {0.0f, 0.693147182f, 1.09861231f, 1.38629436f, 1.60943794f, 1.79175949f, 1.94591022f, 2.07944155f},
  {0.0f, 0.693147182f, 1.09861231f, 1.38629436f, 1.60943794f, 1.79175949f, 1.94591022f, 2.07944155f},
  {0.0f, 0.693147182f, 1.09861231f, 1.38629436f, 1.60943794f, 1.79175949f, 1.94591022f, 2.07944155f},
  {0.0f, 0.693147182f, 1.09861231f, 1.38629436f, 1.60943794f, 1.79175949f, 1.94591022f, 2.07944155f},
  {0.0f, 0.693147182f, 1.09861231f, 1.38629436f, 1.60943794f, 1.79175949f, 1.94591022f, 2.07944155f},
  {0.0f, 0.693147182f, 1.09861231f, 1.38629436f, 1.60943794f, 1.79175949f, 1.94591022f, 2.07944155f},
  {0.0f, 0.693147182f, 1.09861231f, 1.38629436f, 1.60943794f, 1.79175949f, 1.94591022f, 2.07944155f},
  {0.0f, 0.693147182f, 1.09861231f, 1.38629436f, 1.60943794f, 1.79175949f, 1.94591022f, 2.07944155f},
  {0.0f, 0.693147182f, 1.09861231f, 1.38629436f, 1.60943794f, 1.79175949f, 1.94591022f, 2.07944155f},
  {0.0f, 0.693147182f, 1.09861231f, 1.38629436f, 1.60943794f, 1.79175949f, 1.94591022f, 2.07944155f},
  {0.0f, 0.693147182f, 1.09861231f, 1.38629436f, 1.60943794f, 1.79175949f, 1.94591022f, 2.07944155f},
  {0.0f, 0.693147182f, 1.09861231f, 1.38629436f, 1.60943794f, 1.79175949f, 1.94591022f, 2.07944155f},
  {0.0f, 0.693147182f, 1.09861231f, 1.38629436f, 1.60943794f, 1.79175949f, 1.94591022f, 2.07944155f},
  {0.0f, 0.693147182f, 1.09861231f, 1.38629436f, 1.60943794f, 1.79175949f, 1.94591022f, 2.07944155f},
  {0.0f, 0.693147182f, 1.09861231f, 1.38629436f, 1.60943794f, 1.79175949f, 1.94591022f, 2.07944155f},
  {0.0f, 0.693147182f, 1.09861231f, 1.38629436f, 1.60943794f, 1.79175949f, 1.94591022f, 2.07944155f},
  {0.0f, 0.693147182f, 1.09861231f, 1.38629436f, 1.60943794f, 1.79175949f, 1.94591022f, 2.07944155f},
  {0.0f, 0.693147182f, 1.09861231f, 1.38629436f, 1.60943794f, 1.79175949f, 1.94591022f, 2.07944155f},
  {0.0f, 0.693147182f, 1.09861231f, 1.38629436f, 1.60943794f, 1.79175949f, 1.94591022f, 2.07944155f},
  {0.0f, 0.693147182f, 1.09861231f, 1.38629436f, 1.60943794f, 1.79175949f, 1.94591022f, 2.07944155f},
  {0.0f, 0.693147182f, 1.09861231f, 1.38629436f, 1.60943794f, 1.79175949f, 1.94591022f, 2.07944155f},
  {0.0f, 0.693147182f, 1.09861231f, 1.38629436f, 1.60943794f, 1.79175949f, 1.94591022f, 2.07944155f},
  {0.0f, 0.693147182f, 1.09861231f, 1.38629436f, 1.60943794f, 1.79175949f, 1.94591022f, 2.07944155f},
  {0.0f, 0.693147182f, 1.09861231f, 1.38629436f, 1.60943794f, 1.79175949f, 1.94591022f, 2.07944155f},
  {0.0f, 0.693147182f, 1.09861231f, 1.38629436f, 1.60943794f, 1.79175949f, 1.94591022f, 2.07944155f},
  {0.0f, 0.693147182f, 1.09861231f, 1.38629436f, 1.60943794f, 1.79175949f, 1.94591022f, 2.07944155f},
  {0.0f, 0.693147182f, 1.09861231f, 1.38629436f, 1.60943794f, 1.79175949f, 1.94591022f, 2.07944155f},
  {0.0f, 0.693147182f, 1.09861231f, 1.38629436f, 1.60943794f, 1.79175949f, 1.94591022f, 2.07944155f},
  {0.0f, 0.693147182f, 1.09861231f, 1.38629436f, 1.60943794f, 1.79175949f, 1.94591022f, 2.07944155f},
  {0.0f, 0.693147182f, 1.09861231f, 1.38629436f, 1.60943794f, 1.79175949f, 1.94591022f, 2.07944155f},
  {0.0f, 0.693147182f, 1.09861231f, 1.38629436f, 1.60943794f, 1.79175949f, 1.94591022f, 2.07944155f},
  {0.0f, 0.693147182f, 1.09861231f, 1.38629436f, 1.60943794f, 1.79175949f, 1.94591022f, 2.07944155f},
  {0.0f, 0.693147182f, 1.09861231f, 1.38629436f, 1.60943794f, 1.79175949f, 1.94591022f, 2.07944155f},
};

static const float kLayer0D[52] = {0.549901187f, 0.625977635f, 0.817350328f, 0.529256582f, 0.760099351f, 0.631281972f, 0.682513356f, 0.575054824f, 0.570006073f, 0.755735576f, 0.512911439f, 0.611944795f, 0.631695151f, 0.653658688f, 0.607494235f, 0.624000669f, 0.809346616f, 0.798100054f, 0.645944417f, 0.59882164f, 0.5627684f, 0.741928637f, 0.603171349f, 0.581579864f, 0.702728212f, 0.654868662f, 0.775898874f, 0.646130204f, 0.741407156f, 0.748088777f, 0.663415432f, 0.78169769f, 0.70952487f, 0.725620508f, 0.525008976f, 0.632603645f, 0.82553184f, 0.613995552f, 0.857985735f, 0.745077491f, 0.684357285f, 0.504561126f, 0.605530083f, 0.627148747f, 0.592951953f, 0.730582714f, 0.626511157f, 0.441588432f, 0.732139647f, 0.757105291f, 0.681328475f, 0.802036703f};

static const float kLayer0InProj[104][26] = {
  {-0.00995570794f, -0.00906107016f, -0.0263745543f, -0.0260315817f, -0.0484310836f, -0.0224607773f, 0.010444005f, -0.0215393789f, -0.048663605f, -0.0329501219f, -0.0246102549f, 0.012480367f, 0.0100840302f, -0.00192867895f, -0.0204967242f, -0.0155866286f, -0.00744013675f, -0.0133919409f, -0.000641178049f, -0.0194757879f, -0.0254561473f, 0.00548851816f, -0.00255131652f, -0.0102487244f, 0.00146410265f, -0.00328824297f},
  {-0.0236045402f, 0.000468017301f, -0.00504893484f, 0.026728373f, -0.0295462981f, -0.0151867587f, -0.0273066312f, -0.0223859996f, 0.0034358874f, 0.0107350927f, -0.0326722041f, 0.0121243438f, -0.0230875574f, 0.012292034f, 0.0249694586f, 0.0253893193f, -0.0297084991f, 0.0181431808f, -0.00598172564f, 0.0187740829f, 0.00353184436f, 0.0202281792f, -0.00708910031f, -0.0378883332f, 0.0303437803f, -0.0103300819f},
  {-0.00836171582f, 0.0316538922f, -0.00838527642f, -0.00209363154f, -0.0234155953f, -0.034505263f, -0.00429752236f, 0.0139292395f, 6.49232898e-05f, 0.00221018097f, -0.0189758651f, 0.00212414213f, 0.0189208146f, 0.0328296646f, 0.0120085748f, -0.03369065f, 0.0144762201f, 0.000911522948f, 0.0510860831f, 0.0299272351f, 0.00940730143f, 0.019241184f, -0.0112867225f, -0.00915127061f, 0.0416778512f, -0.0200642645f},
  {-0.00705589121f, -0.0178638063f, -0.0143132415f, 0.0281344112f, -0.00896483567f, -0.0115466993f, 0.0347769f, -0.00434337463f, 0.0271231625f, -0.0205660556f, 0.0289489534f, 0.0167771131f, 0.00734720519f, -0.00136460015f, 0.00165639131f, -0.00246072817f, -0.00376994186f, 0.014730473f, 0.0198725667f, 0.0186116658f, -0.00761186285f, 0.00932680629f, 0.00511647947f, -0.0146655152f, -0.0220493618f, 0.00409948826f},
  {0.00562653784f, -0.00727547286f, 0.010630494f, -0.00341791497f, -0.0174093358f, -0.0153023973f, 0.000976587296f, -0.0194587521f, 0.00332675409f, -0.0309169311f, 0.025729239f, -0.00297121028f, -0.0113366991f, -0.0155483969f, 0.0178153142f, -0.0323155634f, 0.0158455614f, 0.0118525503f, 0.018478943f, 0.0401614383f, -0.0259309076f, -0.0205842629f, -0.01397443f, -0.0119886417f, -0.00638293894f, 0.0311550405f},
  {-0.00642219139f, -0.00671954406f, 0.00985973887f, -0.0117815575f, -0.0107038943f, -0.0445184596f, 0.0306084864f, 0.0272622369f, -0.00331208482f, -0.0162359551f, 0.0321735479f, 0.000121722376f, -0.000859900087f, 0.0194778964f, -0.0306930207f, 0.000747281942f, -0.0164593775f, -0.00981517974f, -0.00230781175f, 0.0208460893f, -0.0251339059f, -0.0167469792f, 0.0112947654f, 0.0131358849f, 0.00936291739f, -0.0149008371f},
  {-0.00134883437f, -0.00932974461f, -0.00175350532f, -0.010134114f, 0.00801313017f, 0.0174016319f, 0.0385961086f, 0.00952795334f, -0.00176726514f, -0.000510013138f, 0.0152134858f, -0.0233980753f, -0.00728215231f, -0.0118179051f, -0.0070095933f, -0.00771335f, 0.00840022136f, 0.0246099625f, 0.00957267918f, -0.0124914004f, -0.00596721517f, 0.00862731878f, -0.0214460678f, -0.0236458033f, 0.00991345476f, 0.0101808803f},
  {0.0264861248f, 0.018506797f, -0.0480053127f, -0.00520504313f, -0.00559977023f, -0.00651995279f, -0.0295030493f, -0.0083819842f, -0.0482529178f, -0.00347838458f, 0.041710034f, -0.00981992576f, 0.00291405641f, 0.00952663459f, 0.0122207282f, -0.00832714885f, -0.0120610613f, 0.0266176201f, 0.00692166248f, -0.0197833125f, 0.0225433093f, 0.0203870051f, 0.00223405682f, 0.0173343923f, -0.00492851436f, 0.0138390074f},
  {-0.00513752084f, 0.0514346622f, 0.00898431242f, -0.0049048895f, 0.0130014317f, 0.0308041386f, -0.00870902743f, -0.0060383305f, 0.0240954477f, 0.000897951832f, -0.00938239042f, -0.0125930682f, -0.0159096718f, 0.0249867681f, -0.00447171973f, 0.0415675119f, 0.0198389255f, -0.00269604987f, 0.0438798927f, 0.0101018883f, 0.00421684654f, -0.00646036677f, -0.0476001985f, 0.0103495978f, 0.00968639553f, 0.0222992115f},
  {-0.00135336875f, -0.0157743227f, -0.0137769161f, 0.0203871522f, 0.027070038f, 0.0272505134f, 0.00701070251f, -0.00805550255f, -0.0404563174f, -0.00552920718f, 0.00529013481f, 0.0225466657f, -0.0162512567f, 0.0242632646f, 0.0157265961f, -0.00821011513f, -0.0318065733f, -0.00268174871f, -0.0271613467f, -0.00158917648f, -0.0298559424f, -0.00472855987f, -0.00164268306f, 0.0231864825f, 0.0238236096f, 0.0090569118f},
  {-0.0167077854f, -0.0177712236f, -0.0119849052f, -0.0266988873f, 0.00191977795f, -0.00656209607f, 0.0130458828f, -0.00525372103f, 0.0266207885f, -0.0217973888f, -0.00223634206f, 0.0114428382f, -0.00746207312f, 0.00956035312f, 0.00577719696f, 0.0122902039f, -0.013984723f, -0.0457805321f, -0.0140008032f, -0.0135646723f, -0.00473947218f, 0.00367054879f, 0.0209247023f, 0.0160561949f, -0.0156281069f, -0.0116442619f},
  {-0.0100353044f, -0.00244898326f, -0.0208291057f, 0.00958615076f, -0.0146837458f, 0.0124428319f, -0.0116833905f, 0.0074349721f, 0.00264957477f, 0.00255782367f, 0.0197071079f, 0.000998558942f, -0.0032801684f, 0.0298750773f, 0.0047893282f, -0.00595750893f, -0.0357137509f, -0.0166848674f, -0.0209552161f, 0.0067042755f, -0.00212576799f, 0.016855156f, -0.0046713599f, 0.00788711943f, -0.0144472178f, -0.00669806451f},
  {0.0193375926f, 0.0161354505f, -0.00628990307f, -0.027899934f, 0.00974576175f, 0.0462212786f, -0.00391791807f, 0.00522340927f, 0.00737104192f, -0.00209815358f, -0.025842851f, -0.0125718601f, 0.0518530682f, 0.0107513648f, 0.0329389833f, 0.00298121711f, 0.013175128f, 0.0149028301f, -0.000398078555f, -0.00163676462f, -0.017815955f, 0.000778749003f, -0.00507179694f, -0.02869647f, -0.0264270492f, -0.0114624016f},
  {-0.0195084587f, 0.00606796332f, -0.0156546347f, -0.0401402339f, -0.0267062243f, -0.00534365512f, 0.0301511195f, -0.0165277477f, 0.017708689f, 0.00375926914f, 0.00649108179f, 0.0307192486f, -0.0115025807f, -0.00264316914f, 0.00327330874f, -0.00885676593f, 0.00550095225f, 0.0177327283f, -0.0170181766f, 0.0410215333f, 0.0128239132f, -0.0033520977f, -0.00779907079f, -0.0168473963f, 0.0170314964f, -0.0173823703f},
  {-0.0330643244f, 0.0412144698f, -0.00449785776f, -0.00538751716f, 0.00476894015f, -0.0132916253f, -0.023704201f, -0.0166119505f, -0.0199774075f, 0.0396435112f, 0.0382741354f, -0.00770068588f, 0.00334219774f, 0.0275759026f, -0.0141990148f, -0.010117894f, 0.0136744501f, -0.0146963038f, 0.00365883787f, -0.0037640864f, 0.0154264709f, 0.0108240619f, -0.0115091493f, 0.0019800025f, -0.00315129035f, 0.0146970982f},
  {0.0150328735f, 0.00049257488f, 0.00080661726f, -0.013275777f, 0.034835007f, 0.0284974054f, 0.0161694475f, -0.0154835004f, 0.0330399238f, 0.0313907452f, -0.038457185f, 0.0166937411f, -0.0365967192f, 0.0071355016f, -0.00387964887f, -0.0095645478f, 0.00863337982f, 0.0232478436f, -0.00200743205f, -0.0339883082f, -0.029356651f, -0.0302085709f, 0.0164423361f, -0.0163613614f, -0.0314606354f, -0.00341719924f},
  {-0.0136050014f, -0.00169338239f, 0.00556008192f, 0.00379373971f, -0.00164758821f, -0.033912465f, 0.0148121035f, 0.00253405864f, 0.0253015608f, 0.0371291377f, -0.0444075763f, 0.0015681223f, -0.00148597534f, 0.00461359648f, 0.00698299846f, 0.0127696935f, -0.0438636243f, -0.0242772251f, 0.00354237924f, -0.00131475704f, -0.0256412737f, 0.0106401965f, 0.0104148202f, -0.00569693046f, 0.0185513124f, -0.0173183698f},
  {-0.00862447917f, 0.00650381437f, 0.00978834555f, -0.00360215572f, 0.0302547906f, -0.0229029618f, -0.00517900847f, -0.0293003973f, -0.0360520296f, -0.0205726027f, -0.0148052555f, 0.00801737886f, 0.0078239236f, -0.0105189579f, 0.00348122721f, -0.0131979622f, -0.00692700548f, 0.032675337f, -0.00871447474f, -0.0129049402f, -0.0221122373f, -0.0246462002f, 0.0230984185f, 0.0264011472f, -0.0112413652f, 0.001031372f},
  {0.00822236203f, -0.00288046896f, 0.0040381006f, 0.0137202004f, -0.0203769039f, -0.0218220763f, -0.0102526834f, -0.0299741607f, -0.0303698406f, -0.00819474738f, 0.0199415237f, 0.0408231206f, -0.0157148857f, 0.00673976587f, 0.0010051321f, -0.00568501279f, -0.0228026658f, 0.0225015134f, 0.0248017106f, 0.0234016534f, -0.0177614391f, 0.0107719619f, -0.00459028035f, 0.00640906347f, -0.0088235382f, 0.00375411706f},
  {0.0201999173f, -0.0234990902f, -0.0280422438f, 0.00458691828f, -0.0216917489f, 0.0172074419f, 0.00310360268f, 0.00315320236f, 0.0507351793f, -0.0104216551f, 0.0191673059f, 0.00911973603f, -0.00746000046f, 0.00720462855f, -0.0218528491f, -0.00908604357f, 0.0184104666f, -0.0201696996f, 0.017926421f, -0.0219127908f, -0.00150065823f, -0.0241192486f, 0.0230816249f, 0.00726810563f, 0.00339923566f, 0.000465058256f},
  {0.0140347593f, -0.0154236872f, 0.00157028635f, -0.0430224612f, 0.0246279817f, 0.0110626472f, 0.00887454487f, -0.0226234961f, -0.0295510795f, -0.00787622668f, -0.0297144987f, 0.0334752165f, -0.00806070399f, -0.00985758938f, -0.0273560155f, -0.00174951588f, 0.00603073416f, 0.0142251784f, -0.00113100745f, -0.0178914256f, 0.0437044278f, 0.0317682996f, -0.00314798346f, -0.0116704404f, 0.024007801f, -0.0153282247f},
  {-0.0137778595f, 0.012309866f, 0.00713275606f, 0.00640355283f, -0.0172567293f, 0.0106310369f, 0.00343240029f, -0.0198710207f, 0.0257907156f, -0.013141402f, -0.0214655865f, 0.0206095707f, -0.0192387924f, -0.0464054942f, 0.011232621f, -0.0080377534f, -0.00225346396f, -0.00691389339f, -0.0188066382f, -0.023482563f, -0.00870857388f, 0.00497965654f, 0.00863011647f, 0.0017508358f, 0.0368626863f, 0.000741552678f},
  {0.0186133981f, 0.0424227118f, 0.00514878798f, -0.0188731402f, -0.00370136439f, -0.0237463191f, 0.0414189734f, -0.0101447627f, 0.00213434151f, 0.0096063409f, 0.032249622f, 0.00384368584f, -0.0104108173f, 0.0020074381f, -0.00208768249f, 9.64304345e-05f, 0.013027207f, 0.0131229972f, -0.0490736105f, 0.0026609276f, 0.0211275741f, 0.0510104634f, -0.0190283526f, -0.0313121043f, -0.00998111349f, -0.00368266553f},
  {-0.0106758112f, 0.0106457975f, 0.0248262975f, -0.0182304941f, -0.00528963981f, 0.00380878826f, -0.00167441543f, 0.0032158033f, 0.00384766143f, -0.018952772f, -0.023925446f, 0.0167459771f, 0.0170696341f, -0.0526865907f, -0.0144974487f, -0.0224194676f, -0.0351770222f, 0.0469740294f, 0.0314935558f, 0.0125512565f, 0.0268692449f, -0.00982898101f, -0.00616897596f, -0.0560365319f, -0.0113704577f, 0.0102995886f},
  {-0.00334777939f, 0.0153172128f, 0.0292831566f, -0.0217100997f, 0.000391099893f, 0.0252901111f, 0.00353559875f, -0.0252367798f, 0.00504627544f, -0.0309174266f, 0.0284983534f, -0.00462800218f, -0.0220264625f, 0.0109382784f, 0.0120843006f, 0.0219201669f, -0.0197935104f, -0.0180236381f, -0.0237967018f, 0.015288895f, 0.005007728f, -0.00936829578f, -0.0300990324f, 0.0339926556f, 0.0151217375f, 0.00898003019f},
  {0.00811087992f, 0.00254770136f, -0.0271415077f, -0.0560935251f, 0.017556116f, -0.00934631284f, 0.0261429567f, -0.0012001507f, 0.000757069036f, -0.00825762935f, 0.00540018827f, 0.00558676664f, 0.0146771418f, -0.0407956131f, 0.00666829711f, 0.0132488264f, -0.024342332f, 0.0122623611f, 0.0179328695f, 0.0225768425f, 0.0144120809f, -0.0240042098f, 0.0121126752f, -0.0118662724f, 0.00344106415f, 0.0173114911f},
  {-0.00929560047f, 0.0219928753f, 0.00844658259f, 0.0271782428f, -0.0265109167f, 0.0120201427f, -0.00615242217f, -0.0152040776f, -0.0274996404f, 0.01267613f, -0.0122649614f, 0.0302560646f, -0.00419252319f, -0.0149539961f, -0.00663050264f, 0.0189586356f, 0.0168585964f, -0.00262490637f, -0.012574547f, 0.018721763f, 0.00626613433f, 0.003785562f, 0.0295522269f, 0.0105469441f, 0.00171475939f, 0.0232627485f},
  {0.030540321f, 0.00983914733f, -0.0187383033f, -0.0201989803f, -0.0268168002f, 0.0115446439f, -0.00969757233f, 0.00932434201f, -0.00117323711f, -0.00076342345f, -0.00776449684f, 0.00800410472f, -0.0362259001f, -0.00589877181f, -0.0282520149f, 0.0259778071f, 0.0116235698f, -0.000480642746f, -0.0256346203f, -0.0460171737f, -0.00162980589f, 0.0299103018f, -0.0419944227f, -0.00376531552f, 0.00790663064f, -0.0124820834f},
  {-0.0195780117f, 0.0155307893f, 0.0376437008f, 0.0130737824f, 0.0340508781f, 0.00769213913f, -0.0435959585f, -0.00396115985f, 0.0166862849f, -0.00130908226f, 0.00927964691f, 0.0169586428f, 0.00462776003f, 7.55491637e-05f, -0.0176468194f, 0.00916557945f, -0.0203289259f, 0.00771836564f, -0.0149968173f, 0.00597466016f, 0.0120558357f, -0.00677987048f, -0.00619543623f, -0.00609668344f, -0.0157000627f, 0.00407275045f},
  {-0.00100198761f, 0.0030715852f, 0.0192515999f, 0.00635586679f, -0.0352382734f, 0.024466686f, 0.0207786914f, -0.000453293876f, -0.01531622f, -0.00938455202f, -0.000459038536f, 0.00853225868f, -0.0148930503f, 0.0135145225f, 0.00524643762f, -0.0260054097f, -0.00174214307f, -0.0129321991f, 0.0168797839f, -0.0224049725f, 0.0155012561f, 0.0316617601f, 0.0244771466f, 0.00510353455f, -0.0103187915f, -0.00445996784f},
  {-0.0196363833f, -0.0085459603f, 0.0151126115f, -0.00558068929f, -0.00960467849f, -0.000478965929f, -0.00667058118f, 0.00326685235f, -0.00761185959f, -0.017640451f, -0.0340900756f, 0.00331527786f, -0.0116077485f, -0.00327239721f, -0.0089017814f, 0.0154528534f, 0.0363707356f, 0.00504986616f, -0.0253746919f, 0.000370197115f, 0.00289613078f, 0.0106551396f, -0.00144502078f, 0.00496191764f, 0.00688626757f, 0.022832511f},
  {-0.0316121802f, 0.0110775186f, -0.0222111139f, -0.000146407896f, 0.00789768808f, -0.00983416662f, 0.0321898982f, 0.0224638656f, -0.0121869277f, -0.0114691006f, 0.0108205127f, 0.0210989136f, 0.0130686695f, -0.0287022423f, 0.0334473923f, -0.0068148775f, 0.0164659228f, -0.00848449953f, 0.0526877418f, -0.00625787443f, 0.00104926236f, -0.019139247f, -0.00488973456f, -0.00125311932f, 0.00557830976f, -0.0163058434f},
  {-0.00481514726f, -0.00032217658f, 0.028553633f, 0.0119842719f, 0.0130173881f, 0.020519169f, -0.00804160256f, 0.0133295637f, 0.0235783402f, -0.0408669077f, -0.0139207263f, -0.0194179136f, 0.0109605603f, 0.0283504315f, 0.0279638171f, -0.0237975437f, -0.01852783f, 0.0174663588f, -0.005660519f, 0.045598954f, -0.0141039137f, -0.0122895259f, 0.0372906215f, 0.0123363733f, -0.00999355316f, -0.0234552715f},
  {-0.0191207323f, -0.0142954635f, -0.00345455133f, 0.00570137706f, 0.000106291402f, -0.0294788741f, -0.00665107043f, 0.0364245139f, -0.0185996573f, -0.0259691272f, 0.00999405049f, -0.0377863795f, 0.0230216607f, -0.00635515945f, 0.00143352256f, 0.0235845614f, 0.0232963637f, -0.0102063185f, -0.000211121544f, -0.00343976635f, -0.0195552129f, 0.0276153442f, 0.024408754f, 0.0185154509f, -0.0113126012f, -0.07226412f},
  {-0.0371780321f, -0.0289353989f, -0.0316796191f, -0.0115316994f, 0.00184436503f, -0.0138395196f, 0.0371774398f, -0.0260508191f, -0.0496002287f, -0.02188728f, -0.00832681917f, -0.0167984348f, -0.0137360049f, 0.00890344847f, -0.00508482894f, 0.00285409484f, 0.0093842214f, -0.0151423644f, -0.0153255798f, -0.0112911444f, 0.0232698321f, 0.00185953791f, -0.0118874563f, -0.0216148086f, 0.014970555f, -0.00899193622f},
  {-0.0114981811f, 0.00441023847f, 0.0229018405f, 0.0145782586f, -0.00638563046f, -0.0147705646f, 0.0384430364f, -0.0106895724f, 0.00414462201f, -0.0518613383f, -0.0178962108f, -0.011015798f, 0.0233160667f, 0.0156433303f, 0.00104135077f, -0.00974363834f, -0.0248920545f, -0.0345803834f, 0.00980475638f, 0.000216389919f, 0.0108701317f, 0.010509437f, -0.00115516118f, -0.0303013548f, 0.0158343557f, -0.0162510071f},
  {-0.00696640974f, -0.0276397131f, 0.0273920074f, 0.0422310792f, -0.0108052958f, -0.0142663792f, 0.0329926535f, -0.0194004774f, -0.00478729885f, 0.0148172453f, 0.0189010054f, -0.0185951125f, -0.00535062561f, 0.0172725562f, -0.0344168544f, 0.0116451681f, -0.0188199263f, 0.0155875646f, -0.000676851836f, 0.00147934456f, -0.0184951648f, -0.00865315832f, 0.0304365847f, 0.0459426045f, -0.0185507797f, 0.0316227227f},
  {0.00816157553f, 0.0242744032f, 0.0253140647f, 0.0241727568f, -0.0287359152f, 0.0490893349f, -0.00514756469f, -0.00462355511f, -3.93208757e-05f, -0.000879350351f, -0.0141184889f, -0.0150694735f, -0.0233680736f, 0.0261296798f, -0.010084454f, 0.0105508249f, 0.0169140343f, 0.0161760114f, -6.46065528e-05f, 0.02681881f, -0.0313540027f, 0.00189428416f, -0.0339522138f, -0.0147210965f, 0.0278808866f, 0.0253257453f},
  {0.0201053489f, 0.0255015679f, -0.0168460235f, -0.00553465914f, -0.00231183367f, 0.0228838213f, 0.0426807031f, -0.0148311043f, -0.0266244896f, 0.0100162085f, -0.017982062f, 0.0393939279f, 0.0225341059f, -0.0404359251f, -0.000423001853f, -0.0127098281f, -0.0109533705f, -0.0380876772f, -0.00631704507f, -0.0161131397f, -0.00560915889f, 0.0118518034f, -0.0116198938f, 0.0153746139f, -0.0131076993f, -0.0131185763f},
  {0.00588087272f, -0.00968430657f, -0.0244843066f, -0.0290808454f, 0.00290350197f, 0.00521537708f, 0.0572872013f, 0.0243556369f, -0.0154459393f, 0.0143904844f, -0.0327618942f, 0.00354359066f, 0.000182374308f, -0.00579918921f, -0.0218738243f, -0.013907739f, 0.0197392367f, 0.00408017635f, -0.00324923219f, 0.022416763f, 0.0210402105f, 0.039682623f, -0.00774637284f, -0.0265867114f, -0.000815409643f, -0.0195094682f},
  {-0.0345587134f, 0.0205932818f, 0.00896012783f, -0.00576600106f, -0.0359116979f, -0.000893498072f, -0.0288999826f, 0.012413593f, -0.00180794951f, 0.0280531794f, 0.0197190549f, -0.0267486405f, -0.0344912559f, -0.0103517361f, -0.00632656598f, 0.00155200914f, 0.00521055143f, -0.00514021982f, 0.0307151079f, 0.0153650306f, -0.00895519927f, 0.00954000466f, 0.0131203327f, 0.0161181707f, 0.0462840162f, 0.0177828986f},
  {-0.0179623067f, -0.00620498927f, -0.0527854525f, 0.00580246793f, -0.0183710642f, -0.0150685888f, 0.00786451902f, -0.0198036116f, 0.0172636192f, -0.0139673632f, -0.0169968568f, -0.00529411156f, -0.0112360995f, -0.0111109065f, 0.00652479334f, 0.0373891816f, -0.00308611128f, -0.0198586155f, -0.00664196676f, 0.0373503864f, -0.0156933181f, 0.0373766162f, -0.00446033245f, -0.00786488969f, 0.0100134984f, 0.0170657858f},
  {0.0445577651f, -0.00955609977f, -0.00554678729f, -0.0128568476f, -0.0219482128f, -0.0203162171f, -0.00720245717f, -0.00683233514f, -0.0190331601f, 0.0129668387f, -0.00918589719f, -0.00794016663f, -0.000729418651f, 0.0152895665f, 0.00646939687f, -0.0144466935f, -0.0218411721f, -0.0143095292f, 0.016030455f, -0.0167562645f, 0.0197028741f, -0.0201482009f, 0.00401108107f, -0.0378813595f, -0.0214800499f, -0.0215113126f},
  {-0.024678342f, -0.00546039967f, 0.0315967612f, 0.0337465554f, -0.0347553901f, -0.013764061f, -0.0237158351f, -0.000307111535f, 0.000883238681f, -0.00481017679f, 0.0241320282f, -0.00013420108f, -0.0172011908f, -0.0241270233f, 0.0163047817f, 0.0120090405f, -0.0258481801f, -0.0138756577f, 0.00787044689f, 0.00295769377f, -0.00269828434f, 0.0112419259f, 0.0146593424f, -0.0258124098f, -0.00817066524f, 0.0414387397f},
  {-0.03576006f, -0.0299417339f, -0.0276541002f, 0.00832836702f, 0.0180242527f, 0.0447776243f, -0.0192708932f, 0.0222034268f, -0.0247632749f, -0.0110450806f, 0.0452284776f, 0.0261097215f, -0.024739556f, 0.00444534468f, -0.00396534055f, -0.00482339459f, 0.0306505095f, 0.0402144678f, 0.0116647258f, 0.00657300418f, -0.00396485301f, 0.0413562246f, -0.0294492692f, 0.013956028f, -0.0361860469f, 0.000109922039f},
  {-0.0367815159f, 0.00710572163f, 0.0113142738f, -0.0342682637f, -0.00444112392f, -0.0102877244f, -0.00659102574f, 0.00357204513f, -0.00986859761f, 0.0192036331f, -0.00339204795f, -0.0009541412f, -0.011823969f, -0.000983184087f, -0.0385662988f, 0.00115996215f, -0.00505364547f, -0.00151561445f, -0.035119351f, -0.000416145573f, 0.00567992637f, -0.0200774856f, -0.039081119f, -0.00838907156f, -0.0205615908f, 0.0175852962f},
  {-0.0172829367f, 0.0172534436f, 0.0254307054f, 0.00943414215f, 0.00401641382f, -0.000208739861f, -0.0223444719f, -0.0151816923f, -0.0181918442f, -0.0327946767f, 0.0241104718f, 0.0262033548f, 0.0136783114f, -0.0276991576f, 0.00742395548f, 0.00201495225f, -0.0350479893f, 0.0171671826f, 0.00688779913f, -0.0101456027f, -0.0331975035f, 0.0111503415f, -0.00415078644f, -0.0267625097f, 0.0276818983f, 0.00258258684f},
  {0.0145496074f, -0.0131140305f, 0.0130735906f, 0.000823454466f, 0.03555369f, -0.0177782346f, 0.0182852782f, 0.00402134983f, -0.010407242f, 0.0114011606f, 0.0151993707f, -0.017405564f, 0.0626692101f, 0.0105962362f, -0.0381556638f, 0.00912387017f, 0.00203005364f, 0.0213326979f, -0.0364353806f, -0.0246390384f, -0.022432046f, -0.00874814205f, 0.0219284017f, 0.00430317968f, -0.00466698408f, 0.00662041688f},
  {0.0320561342f, -0.019479407f, -0.0103473803f, -0.00374269183f, 0.0045779366f, -0.0206990689f, -0.00697922241f, -0.00646873843f, 0.0199216604f, 0.0160928462f, -0.0339073576f, 0.0119487196f, 0.0118568642f, 0.00106150075f, 0.0253409352f, -0.00125035294f, -0.0156771131f, 0.0304709878f, -0.0205564629f, 0.0128982803f, 0.0044217729f, -0.00723252213f, 0.0107774278f, 0.00474943593f, 0.00821305346f, 0.00745458389f},
  {-0.0129553918f, -0.0278007071f, 0.00704774493f, 0.0428969264f, -0.0148290982f, -0.00929241721f, 0.0152068976f, 0.0397931412f, 0.0174822025f, -0.0021004579f, -0.0157853104f, -0.0104974629f, -0.0360586755f, 0.0156552121f, -0.0318939611f, 0.0214468539f, -0.00866520219f, -0.0214463975f, 0.0305411629f, 0.0157370772f, -0.00556936627f, 0.0154993683f, -0.00484203594f, 0.0272584986f, 0.00616043713f, -0.034726873f},
  {-0.00245392066f, -0.00501671666f, 0.0367211998f, -0.0110146431f, 0.0460414961f, 0.00491251424f, 0.00502315862f, 0.00501873298f, -0.0264595989f, 0.00571212405f, -0.0176158901f, 0.0315545201f, -0.0057989927f, 0.0242505651f, 0.0198154207f, 0.0369389988f, 0.0234229155f, -0.00932765659f, 0.00826776028f, 0.0128378291f, 0.00909839571f, 0.000667015323f, 0.0238732453f, -0.00905899797f, 0.0500232168f, 0.015916599f},
  {0.0284209773f, -0.00336242863f, 0.0324924588f, 0.00141099794f, -0.0137840919f, -0.00163938501f, -0.0217491351f, 0.026217645f, -0.00421393756f, -0.0211221781f, -0.00763092004f, 5.94490048e-05f, -0.0143879578f, 0.0136272712f, -0.010335153f, -0.00842945371f, 0.0272417981f, -0.00229415554f, 0.0126731973f, 0.0127731347f, -0.019653704f, 0.0200256892f, 0.0161202289f, 0.0148057826f, 0.0297502354f, -0.00868260115f},
  {-0.031257201f, -0.0122374641f, -0.0494983122f, 0.00110516162f, -0.0217444524f, 0.0171737578f, 0.00225087488f, -0.0218981802f, -0.0274158828f, -0.0100742932f, 0.00186196272f, -0.0237020981f, 0.00868535601f, 0.0074582519f, 0.0196433682f, -0.00500818761f, -0.000403479207f, 0.00758679816f, 0.0214000251f, -0.00810016226f, 0.00578377675f, 0.0102746431f, 0.00354321115f, 0.0576250702f, 0.0061003305f, 0.01009019f},
  {-0.00958894752f, -0.0280514359f, 0.0290648509f, -0.00217531598f, 0.0258832816f, -0.021329008f, -0.0173324998f, 0.0311318599f, -0.0117568541f, 0.012158568f, 0.00696464442f, 0.00249766302f, 0.0353453569f, 0.00278242747f, 0.000356512202f, 0.00899846945f, 0.0249031559f, 0.00391599024f, 0.0294576492f, -0.00822087005f, -0.0115196267f, -0.0404845364f, 0.0181354675f, -0.037777409f, 0.0171868689f, -0.00223936699f},
  {-0.0241428483f, -0.00263501564f, -0.0211123005f, 0.0447983779f, -0.00120146491f, -0.0106205875f, 0.0068304413f, -0.0165918488f, 0.0188640356f, -0.0269752145f, 0.00808010157f, -0.012100067f, -0.0247634239f, -0.0186229628f, 0.0142567968f, 0.0313688815f, -0.0478773452f, 0.000253603706f, -0.00164127687f, -0.00410162099f, 0.0180347357f, 0.0357985608f, 0.0534279794f, 0.0112550054f, 0.0265141744f, -0.00766619388f},
  {-0.0121092908f, -0.00033037411f, 0.021751754f, -0.0287983138f, -0.000496003311f, -0.0135062672f, -0.0199746005f, 0.0207259692f, 0.0236773342f, -0.00896510947f, 0.00163548742f, -0.0259290114f, 0.0150398258f, 0.0393401571f, -0.0116964355f, 0.00394337997f, 0.0222243108f, 0.0497811623f, -0.0100148059f, -5.0081173e-05f, -0.00388334272f, -0.021237174f, 0.0358866528f, 0.015762832f, 0.0131562836f, -0.0188421849f},
  {-0.0135634998f, 0.00719704712f, 0.0322443135f, -0.0287100673f, 0.0112949302f, 0.0117251407f, 0.0114977723f, 0.000621057872f, -0.000516096014f, 0.00912193395f, 0.00604715664f, -0.0195886474f, 0.00367061561f, -0.0110252965f, -0.0312476791f, 0.0274418555f, 0.0161084756f, -0.0115315653f, 0.0194906425f, 0.0333435349f, 0.020893231f, 0.0224301517f, -0.011172628f, 0.024233466f, 0.0369461924f, 0.00153949042f},
  {-0.0293466616f, -0.0429027677f, 0.0354631022f, -0.0140510285f, 0.00179176906f, 0.00126510754f, -0.0103791282f, 0.00944636017f, 0.00197075401f, -0.0141105242f, 0.00829051621f, 0.0286113527f, 0.0101413922f, 0.0292352047f, -0.0145910205f, -0.0272780489f, 0.0132334325f, -0.00244767056f, 0.0136606824f, 0.0013392627f, -0.00890295301f, -0.00941356365f, 0.00535276905f, -0.00567005528f, 0.0221225359f, 0.0258559044f},
  {0.0101033999f, 0.0197792221f, 0.0257542562f, -0.019326549f, 0.014004698f, -0.0183425564f, -0.0139816171f, 0.00566165382f, -0.028378224f, 0.00818809588f, -0.00588984368f, 0.00656220317f, -0.00426373538f, 0.00952431839f, -0.0165551044f, 0.0141255055f, -0.0136627201f, 0.0134797199f, 0.0157205015f, 0.0266413447f, 0.0257272162f, -0.00896615069f, -0.0302306414f, -0.0010243227f, 0.0354387499f, -0.0141521338f},
  {-0.0268930402f, 0.0120613221f, -0.00566604873f, 0.00296846079f, -0.00148275436f, -0.0135492571f, -0.0150534306f, 0.0326560438f, 0.0321169309f, -0.020324884f, -0.032655593f, -0.0382376648f, 0.00323086674f, -0.0140313804f, -0.00839099288f, -0.0533619598f, 0.00988633744f, 0.0012734523f, 0.0197335538f, 0.00480024563f, -0.0111152576f, -0.0148403971f, 0.0149846254f, 0.0357514173f, -0.00294325408f, -0.0249093529f},
  {-0.0129713593f, 0.0155920964f, 0.00870037824f, -0.0023012904f, -0.00897289813f, 0.0185852647f, -0.0233105384f, -0.00326514128f, -0.0271077398f, -0.00393288769f, 0.00723111769f, -0.0159414485f, -0.00204795576f, 0.00360005139f, -0.0386940129f, 0.0207297336f, 0.0114889536f, -0.000639841659f, -0.00598805351f, -0.00259714108f, -0.00287516718f, -0.00491994573f, -0.0054378421f, -0.0104698455f, 0.0205947123f, -0.0016851027f},
  {0.00720976852f, -0.0116345286f, 0.0210427362f, -0.0237378608f, -0.00891468674f, 0.029326167f, -0.0160703138f, 0.00366888335f, -0.0108075757f, 0.0101137962f, 0.014099163f, 0.00483384542f, -0.024714509f, -0.0104563599f, 0.0374669023f, -0.000221517868f, -0.0167584121f, -0.0166020002f, 0.0111529902f, 0.00586565724f, -0.0148572605f, 0.031822402f, 0.0269372258f, -0.0108549055f, 0.0095964456f, 0.00572628435f},
  {0.00731411343f, -0.0143658575f, -0.00827345904f, -0.0207511745f, 0.00606444664f, -0.0653766692f, -0.00563432276f, -0.0347184576f, -0.0068141208f, -0.00282282149f, 0.0329979621f, -0.0108497851f, 0.00104394509f, 0.0373727977f, 0.0129276961f, 0.00304834498f, -0.012970685f, 0.0121380603f, -0.000192453706f, -0.04610724f, -0.0154640004f, 0.0104971547f, -0.0202351511f, 0.0282191914f, -0.00634114351f, -0.000235252213f},
  {-0.0277379043f, 0.0100227566f, -0.014507791f, -0.011877331f, -0.018091334f, 0.00895176735f, -0.0173111986f, 0.00553309405f, 0.0079297116f, 0.0224825852f, -0.013204f, -0.0161333736f, 0.0199452769f, 0.0176064838f, -0.0121821463f, 0.00810595229f, 0.00775000965f, -0.00434729364f, -0.0120908683f, 0.0250283051f, 0.0177366231f, 0.0075346888f, 0.00774859916f, 0.0107457237f, 0.0016100225f, -0.00928397384f},
  {-0.00444245944f, -0.010973664f, -0.000963606522f, 0.00780318864f, 0.0362491943f, 0.0262855962f, 0.0154913571f, 0.017960405f, -0.00900134258f, 0.00207160646f, -0.025306318f, -0.0223583523f, -0.00967898406f, -0.00371311372f, 0.0102719618f, 0.0184481703f, 0.0213014092f, -0.010213892f, -0.0140769472f, -0.0186294336f, -0.0131084519f, 0.00791933574f, 0.00109470519f, 0.0209578443f, 0.0172444507f, -0.0127639463f},
  {-0.0039955331f, -0.00982813165f, 0.0083073331f, -0.0114794578f, 0.0166544616f, 0.00826891884f, 0.0125848316f, 0.0310573988f, 0.0206635036f, -0.00324214716f, -0.016206814f, 3.63058257e-06f, 0.00489614438f, 0.00907284673f, -0.0161680579f, -0.0237142704f, 0.00759174628f, -0.0130014019f, -0.0213896781f, 0.0208349805f, 0.00288229249f, 0.000994367409f, 0.00129304698f, -0.0128349839f, -0.0160137266f, -0.00378658413f},
  {0.0262134261f, 0.000270401477f, -0.00239484897f, 0.0120757157f, 0.00927267317f, -0.00670329854f, -0.0353610627f, -0.0119610708f, 0.025057558f, -0.0239698347f, -0.00728040934f, -0.0141360024f, 0.00473819347f, -0.0121519798f, 0.0208369233f, 0.0364332274f, 0.00629575551f, 0.0239213593f, 0.00962959789f, 0.0162985958f, -0.00768169295f, -0.0190389268f, 0.0236700494f, -0.0365650281f, 0.0206733458f, -0.00869824272f},
  {-0.0315634236f, 0.0114945322f, 0.0307897348f, -0.00164192147f, 0.0244276188f, -0.0140676508f, -0.0198672954f, 0.00782193337f, 0.0123222945f, 0.0296727661f, 0.045121029f, 0.0268489905f, -0.0268726423f, 0.013827973f, 0.00722972443f, -0.0176549647f, 0.00728099002f, -0.000259150169f, -0.0148178861f, -0.0140145663f, 0.0342413746f, 0.0200464502f, 0.00600927323f, 0.00320082065f, 0.00227340567f, -0.0197371356f},
  {-0.020179132f, -0.00835061073f, 0.00608053012f, 0.00893224776f, -0.0404020064f, 0.017182773f, -0.015276595f, -0.021820493f, -0.00433566561f, -0.0375407226f, 0.00362032442f, -0.00927017722f, -0.0332308821f, -0.0113830334f, -0.0297878515f, -0.000330717798f, 0.000805328367f, 0.0160498675f, -0.00611437159f, -0.00868238416f, -0.0226853415f, -0.000746160629f, -0.0271698125f, 0.00459908601f, 0.051184766f, 0.0113463225f},
  {0.00394616462f, -0.00519765308f, -0.0246389806f, -0.0350397788f, -0.0247613471f, -0.0105023365f, -0.012225626f, -0.0114581976f, -0.0130180568f, 0.0116473809f, 0.0190223567f, -0.0384811834f, -0.00484358054f, 0.043091543f, 0.00127385347f, 0.0143251f, -0.0056034876f, -0.0353327431f, -0.0234424565f, -0.00243044179f, -0.0139988447f, 0.0139506729f, -0.00102298812f, -0.0504616201f, 0.0226207767f, 0.0159220137f},
  {-0.00319865649f, -0.0268153753f, 0.00398193859f, 0.00480268756f, -4.96419161e-05f, 0.0350250639f, 0.037921261f, 0.0101926485f, 0.00399120757f, 0.00314925425f, -0.0148233632f, 0.0158531684f, 0.0126326513f, 0.026224561f, 0.00174309092f, 0.0169966519f, -0.0123411799f, 0.0314700492f, -0.0413184576f, 0.0187997166f, -0.0101154195f, 0.024395708f, -0.0120928772f, 0.00946611166f, 0.00606289459f, -0.0210434161f},
  {0.0441688448f, -0.0257852953f, -0.0245209392f, 0.00944910292f, 0.0315361209f, -0.0328109302f, -0.0199656244f, 0.00175720104f, -0.00645678444f, 0.0140361134f, 0.0148594389f, -0.00665799621f, -0.00791055989f, -0.00181542651f, 0.0156659186f, 0.0161643624f, -0.0317501426f, 0.000344250002f, -0.0247346032f, 0.00204539951f, -0.0367105789f, 0.0270337649f, 0.0200586002f, -0.000818744185f, -0.012630594f, -0.0075854077f},
  {-0.0294244401f, 0.0150893573f, 0.0358856618f, 0.00998575054f, 0.00614967523f, -0.0250484552f, 0.0171596278f, 0.0138778891f, -0.0239949394f, -0.0265636295f, -0.0164985191f, -0.000273984566f, 0.000467195321f, 0.00363646704f, 0.0165749826f, 0.0166542456f, 0.0172584131f, -0.0128931273f, 0.0159790497f, 0.0343310721f, 0.00549318176f, 0.0146740517f, 0.0184438284f, 0.0262324344f, 0.0107317278f, -0.018780129f},
  {0.00973191392f, -0.0142758843f, -0.0189003833f, -0.0204029679f, -0.0410031825f, 0.0351927206f, 0.00290191337f, -0.0012796832f, -0.0049179527f, 0.00687465211f, 0.00244276342f, 0.00769987516f, -0.0138784749f, -0.0358750112f, 0.0255043563f, -0.00932624657f, -0.0208319798f, -0.0100201098f, -0.00112260354f, -0.0156740677f, -0.0177670512f, 0.0194251202f, 0.00149203418f, 0.0142261777f, -0.0509153865f, -0.0122290691f},
  {0.0140120368f, 0.0201758854f, 0.0119671598f, 0.0321768709f, -0.0532292537f, -0.0157656446f, -0.0155328177f, 0.00769009581f, 0.0107978946f, -0.0244296081f, -0.00600523734f, -0.00288069854f, 0.00554276304f, -0.0123913558f, -0.0106390538f, 0.00821703952f, 0.000323670858f, -0.00755347777f, -0.000501927629f, 0.0275587048f, -0.0105714565f, 0.00669739442f, 0.00842082407f, -0.0350936763f, 0.0112963002f, 0.00862008519f},
  {0.0516480394f, 0.0269125178f, -0.0107727116f, -0.0325136781f, -0.00491438666f, 0.00135804398f, -0.0165331457f, -0.0427365638f, 0.0338070802f, -0.021724809f, 0.0313240401f, -0.00528125418f, -0.00862109754f, -0.0161229037f, -0.0205332264f, 0.0336065628f, 0.0100302473f, -0.012741101f, 0.00176165253f, 0.0311793033f, -0.0179524049f, -0.0219122469f, -0.0180510841f, -0.0206152033f, 0.0279613324f, -0.00483164564f},
  {0.0174958892f, -0.0222632289f, -0.00890931487f, 0.0143438969f, 0.00831924099f, 0.000429344102f, 0.00884320494f, 0.0338408686f, 0.0260575563f, -0.0188695472f, 0.0400780216f, 0.00670454372f, -0.0176851545f, -0.0473609045f, -0.0188954622f, 0.00171641179f, 0.00942748226f, 0.000760430121f, 0.00853341352f, 0.026467165f, -0.00473752711f, 0.00300006685f, 0.0106269866f, 0.010850193f, -0.0192921199f, 0.00347485323f},
  {-0.00703054573f, -0.014000494f, -0.0192988254f, 0.00745181041f, 0.0241374113f, 0.00847467594f, -0.00827919506f, 0.00830504764f, 0.00286542764f, -0.0113451183f, -0.00958569534f, 0.0147152748f, -0.0113210995f, 0.000641441147f, 0.042064812f, -0.00799653865f, 0.025702903f, 0.0329765156f, -0.0127678327f, -0.0110708755f, -0.00138906215f, 0.0304575264f, -0.00021552929f, -0.0380787961f, 0.00255741691f, -0.0073866765f},
  {0.0116908448f, -0.0493435115f, -0.00971208047f, -0.00885483436f, 0.0347970836f, -0.00774397049f, -0.00725595141f, -0.00491589867f, -0.0214883182f, 0.0131742368f, 0.0286763106f, 0.026556693f, 0.0395288318f, 0.0203906428f, 0.0291653685f, -0.0117614074f, -0.00790009461f, -0.0162305813f, 0.00978056155f, 0.0257890224f, 0.000456303678f, -0.0281303357f, -0.0133585026f, 0.00638564304f, -0.00327835442f, -0.0121663231f},
  {-0.0215668976f, -0.0218277872f, -0.0128676798f, -0.0507671051f, -0.00674540224f, -0.00321272784f, -0.0439038351f, 0.0191421155f, -0.00393117545f, -0.027349636f, -0.00738627696f, -0.00921385083f, 0.0235135891f, -0.0188359171f, -0.0062237354f, 0.0190312099f, 0.00647207303f, 0.0141039938f, 0.0401203446f, 0.0007716947f, 0.0234496184f, -0.000674594485f, 0.00429442804f, -0.0355666988f, 0.0154273324f, 0.0154680787f},
  {-0.0136416489f, -0.0314324424f, 0.0189962015f, -0.013297745f, -0.0274924282f, 0.00187732885f, -0.0193603653f, 0.0095404936f, 0.000772585801f, -0.00236010039f, -0.00389418332f, -0.000798462075f, 0.00982194208f, -0.00293320487f, 0.00408454891f, -0.00372297596f, 0.0101102032f, -0.0249937288f, 0.0208509304f, -0.00432913098f, 0.00622717664f, 0.00346612604f, 0.02872831f, 0.00957736373f, 0.0184631329f, -0.00520167686f},
  {0.0043821861f, -0.0185798071f, 0.0102720447f, 0.0535744317f, -0.00916137546f, -0.0182996113f, -0.000482208969f, 0.020809371f, 0.0197971966f, 0.0294818413f, -0.0166727845f, -0.00976636354f, 0.0218936317f, -0.0166729335f, 0.0062615592f, -0.0289652497f, -0.0223624688f, -0.0242095329f, -0.0224160962f, 0.0248933304f, -0.0125039509f, -0.0198796075f, -0.0119681712f, -0.00181721163f, 0.0169627499f, -0.00410697656f},
  {-0.00185253937f, -0.0153370164f, 7.31855325e-05f, 0.0042115543f, 0.0278491322f, 0.0270309933f, -0.029080769f, 0.0302010346f, -0.0148086315f, -0.00401780382f, -0.0181469917f, -0.0058855f, -0.0145768598f, 0.0283811167f, -0.0102023734f, -0.0173035264f, -0.0160615779f, 0.00635506492f, 0.00861209445f, 0.0250521488f, 0.0253908727f, -0.0582313724f, -0.0403719321f, 0.0318803824f, -0.00984068308f, -0.0351490043f},
  {-0.00402279804f, 0.0306680314f, 0.00608732179f, 0.00667233439f, 0.0118408771f, -0.00495901471f, 0.0208133534f, 0.0503735356f, -0.0181291047f, -0.0127418116f, 0.0404551849f, 0.00206689583f, -0.0170108303f, 0.00563654583f, 0.0328192189f, -0.0140011888f, 0.00300382613f, 0.00876059569f, -0.0208854191f, -0.0148940636f, -0.00429529883f, 0.0174420588f, -0.00242340378f, 0.00617245445f, 0.0328586064f, 0.0305127427f},
  {0.00738258241f, -0.0270443782f, 0.0108599262f, -0.0188543722f, 0.00949093606f, -0.00622434402f, 0.0175307319f, -0.0118537256f, 0.00885905325f, -0.0305565242f, 0.0155557012f, 0.0131955883f, -0.0393977724f, -0.00945508014f, 0.0235115737f, -0.0355561301f, 0.0260684807f, 0.0324362516f, -0.00491494406f, -0.00595531939f, 0.0202345066f, -0.0171697792f, 0.00572144659f, 0.0353401601f, 0.0182528142f, -0.00671200734f},
  {0.0178536605f, -0.0164669249f, -0.0165368486f, -0.0184154157f, -0.0139661431f, 0.00670001144f, 0.00342436437f, -0.00147378643f, -0.0304744504f, -0.00900234375f, -0.0319079831f, -0.0286969393f, 0.0115024084f, -0.0122803533f, -0.0120166959f, -0.0423197784f, -0.0347661898f, -0.0161510874f, 0.0284834262f, -0.00830131676f, 0.011477368f, 0.0215277746f, -0.00422399584f, 0.0440992042f, -0.000724709244f, -0.0165864229f},
  {0.0157527328f, 0.0511793941f, 0.00138749555f, 0.00103013031f, 0.00609166315f, 0.024378432f, 0.00966510549f, -0.00315567409f, 0.00899156835f, 0.00801530574f, 0.00570265949f, 0.00577125931f, -0.0162717793f, 0.0279284026f, 0.0062643867f, -0.0205940288f, 0.0107362252f, 0.00151320803f, -0.00709809642f, 0.0195774045f, 0.0106145563f, 0.0104187429f, 0.0264896601f, 0.0174124613f, 0.00966386311f, 0.0128624756f},
  {0.0237996131f, 0.0157829281f, 0.00652815914f, 0.0102926875f, -0.00850804243f, -0.0141006792f, 0.0135143837f, 0.0208188556f, 0.0190773346f, 0.00485683791f, 0.0173162539f, -0.00632037735f, -0.0204517338f, 0.010677089f, 0.00844337698f, -0.0251095854f, -0.0465049408f, -0.0450745486f, 0.00959361997f, 0.00440761773f, -0.0160257965f, -0.00709724659f, -0.0167483874f, -0.00126522733f, -0.041618526f, -0.0325519592f},
  {-0.0213255733f, -0.0016107749f, 0.0526574589f, -0.0146222757f, 0.00375353917f, -0.0106511414f, -0.0137614366f, -0.0179549493f, 0.0315270275f, 0.0213896465f, 0.00469854381f, 0.0251157582f, -0.0386335663f, -0.0319664329f, -0.0261258148f, 0.0522043519f, 0.0198039524f, -0.0204223394f, -0.000261268899f, 0.0111841569f, 0.0245304387f, 0.00367512531f, -0.0133192856f, 0.00502807135f, 0.0174885523f, -0.00894348789f},
  {-0.002784624f, -0.0243337601f, -0.0330740437f, -0.0210436806f, -0.0442403704f, -0.0206226893f, 0.00739605445f, 0.0224928912f, 0.0305716433f, -0.000591946067f, -0.0139189819f, 0.0202257708f, 0.0399909243f, -0.0268922336f, 0.0136566227f, -0.0158471353f, 0.013004561f, 0.0530302189f, -0.023967579f, -0.00383155397f, -0.0189468749f, 0.0118775275f, 0.0132067688f, -0.00333462865f, -0.0283024069f, 0.049844075f},
  {0.00994461309f, -0.0262252595f, 0.0231751762f, 0.0471425653f, -0.0181372259f, 0.0203665346f, -0.0189454369f, 0.00920498464f, 0.00302450429f, 0.0255733971f, -0.00735963276f, 0.0313040353f, 0.00966777839f, -0.0117653217f, -0.027696874f, 0.00703035854f, -0.00677247439f, 0.022706259f, 0.0432290509f, 0.0509080626f, 0.0154983513f, 0.0034377526f, 0.00532168383f, 0.0071750218f, 0.0146923065f, -0.008763141f},
  {0.0224259999f, 0.00670005567f, -0.0013867917f, 0.0168401804f, 0.0023588005f, -0.0441794656f, -0.0473970883f, 0.0192819107f, 0.0227553919f, -0.014074835f, -0.00837135315f, 0.0195659548f, 0.00841702987f, -0.00598888798f, -0.0138776843f, 0.00889115874f, -0.0414159149f, 0.00472635031f, 0.00872797705f, 0.00599322282f, 0.0061600199f, 0.00751020247f, 0.0052984748f, 0.00411439594f, -0.0158393104f, -0.027610803f},
  {0.00949717686f, 0.0237731077f, -0.0251984969f, 0.00433606934f, -0.019833304f, 0.0175648145f, 0.00761145493f, 0.00571255386f, 0.00919538178f, 0.00432562875f, -0.0327471793f, -0.0179358982f, 0.00155267457f, -0.00880031474f, 0.00991538167f, -0.0206143484f, -0.00310588325f, 0.00459707947f, -0.00437972788f, 0.010949878f, -0.0226179324f, 0.014150721f, 0.0121680023f, -0.00828677695f, 0.011406743f, 0.00774293626f},
  {-0.00510871178f, 0.0575396642f, -0.0155004254f, -0.0183824077f, 0.00958072487f, -0.0216855016f, 0.00215538521f, -0.0101434821f, -0.00597918779f, 0.00661398144f, -0.00798070338f, 0.0287504587f, 0.00157019054f, 0.00133481552f, 0.0295675304f, 0.000267132156f, 0.0159262829f, 0.0187557209f, 0.0286693033f, 0.0238027815f, 0.0178814232f, 0.0061853826f, -0.010890658f, 0.038739901f, 0.0241431445f, 0.0256316531f},
  {-0.00286642695f, 0.0276496243f, 0.000251535792f, -0.0310385469f, 0.00616103224f, 0.0387684368f, 0.00475602318f, 0.00405482622f, 0.0196832754f, -0.00782562234f, 0.0284195915f, -0.00919697899f, -0.0304804146f, -0.0172017477f, -0.00744347041f, -0.00512397615f, -0.0253543705f, 0.0085498495f, 0.00365352933f, -0.00926076993f, -0.0122356983f, 0.0406559668f, 0.0383081697f, 0.0453936867f, 0.00123340741f, 0.00255544973f},
  {-0.00673019933f, -0.00313682342f, -0.0161569156f, -0.0287128557f, 0.0375414006f, -0.000647199224f, 0.0250488669f, -0.0144469263f, -0.00520520704f, -0.0145700993f, -0.014693955f, -0.00182869798f, -0.0121070324f, -0.00983059965f, -0.00312154437f, -0.0189707708f, 0.0111434162f, 0.00744965486f, -0.0152820321f, 0.00483753113f, -0.00409823656f, -0.0103762457f, -0.0140756387f, 0.0310745332f, 0.00471596513f, -0.000170316707f},
  {0.0140378987f, 0.0231354646f, 0.00828396156f, -0.00655182917f, 0.0106309922f, 0.0143168857f, 0.0134633631f, -0.0017217804f, -0.0127471555f, -0.00895195547f, 0.0179835297f, 0.03047763f, 0.0178807378f, 0.0172420107f, 0.00997702871f, 0.0129323434f, 0.0217551161f, 0.0149893695f, 0.00989539735f, -0.00787714031f, 0.00545450393f, -0.00458041485f, -0.025594512f, -0.0487417243f, 0.00325354375f, 0.00872843433f},
  {-0.0372559428f, 0.025294764f, -0.0241686758f, -0.013120641f, 0.0237996206f, -0.0465614274f, -0.0104786539f, 0.0127370711f, -0.0015700137f, 0.0188708045f, 0.0194048248f, 0.000196879351f, -0.0252587032f, 0.0146835456f, -0.000422965997f, 0.0122549692f, 0.0133583304f, 0.0209819321f, -0.00747786881f, -0.0314004049f, 0.0181110147f, -0.000980509445f, 0.0213636402f, 0.0255956985f, -0.024771452f, -0.0118753929f},
  {-0.00208293251f, 0.0270431247f, -0.00653510261f, -0.022129491f, 0.0250810832f, -0.0137218563f, -0.00558628794f, -0.0265546087f, 0.0116811087f, -0.00785380881f, -0.00362785766f, 0.0541763231f, 0.00547568314f, -0.0302591268f, 0.0151237892f, 0.011022496f, -0.0184507817f, -0.00089807756f, 0.0185458865f, -0.00972347613f, -0.00912654679f, -0.00134472537f, 0.00574887404f, 0.00609745691f, 0.0143073201f, 0.0513381064f},
  {0.0163463056f, 0.00471098768f, -0.0214933492f, -0.0139369639f, 0.0195106138f, -0.00258762483f, 0.0169173218f, -0.0135125592f, 0.0164037813f, 0.00196976005f, 0.00615246315f, 0.00962099805f, 0.0126360655f, 0.000190801205f, -0.00467545912f, -0.0114267692f, 0.00313581573f, -0.00627173716f, 0.0112759108f, -0.0134290587f, 0.0424897149f, -0.00900491327f, -0.0101319943f, 0.0110608293f, -0.0102075227f, -0.0185591374f},
