#pragma once

#define BABYMAMBA_VARIANT_CROSSOVER 1
#define BABYMAMBA_VARIANT_CHANNEL_INDEPENDENT 0
#define BABYMAMBA_DATASET_NAME "pamap2"
#define BABYMAMBA_DISPLAY_NAME "PAMAP2"
#define BABYMAMBA_SEED 74096
#define BABYMAMBA_SEQ_LEN 128
#define BABYMAMBA_IN_CHANNELS 19
#define BABYMAMBA_NUM_CLASSES 12
#define BABYMAMBA_D_MODEL 26
#define BABYMAMBA_D_STATE 8
#define BABYMAMBA_D_INNER 52
#define BABYMAMBA_DT_RANK 2
#define BABYMAMBA_D_CONV 4
#define BABYMAMBA_NUM_LAYERS 4
#define BABYMAMBA_STEM_KERNEL 5
#define BABYMAMBA_PATCH_KERNEL 16
#define BABYMAMBA_PATCH_STRIDE 4
#define BABYMAMBA_PATCH_OUT_LEN 31
#define BABYMAMBA_SCAN_IMPL_FALLBACK 0
#define BABYMAMBA_USE_INT8_PROJECTIONS 1
#define BABYMAMBA_FIXTURE_LABEL 0

static const char* const kBabyMambaClassNames[BABYMAMBA_NUM_CLASSES] = {"Lying", "Sitting", "Standing", "Walking", "Running", "Cycling", "Nordic Walking", "Ascending Stairs", "Descending Stairs", "Vacuum Cleaning", "Ironing", "Rope Jumping"};

static const float kStemWeight[26][19][5] = {
  {
    {0.0032097958f, -0.0783227459f, -0.0502250865f, -0.0810621232f, 0.0529378131f},
    {-0.0185874775f, 0.0272344388f, 0.0409618877f, 0.03359586f, -0.0149322953f},
    {0.00994840916f, -0.0108343167f, 0.0707006305f, 0.067737177f, 0.0114276716f},
    {-0.0138611775f, -0.0444105081f, 0.0661136359f, 0.0436191186f, 0.0140737211f},
    {0.01858587f, -0.0176242553f, 0.0362315997f, -0.00353132002f, 0.000562232512f},
    {0.00478644622f, 0.0400273129f, -0.0119646881f, 0.0415493287f, 0.00949762017f},
    {-0.0322650895f, -0.0180090331f, -0.0435982049f, 0.0337763578f, -0.0133569213f},
    {-0.0122613292f, -0.109744452f, -0.0389687791f, -0.0255224984f, -0.0354235321f},
    {-0.0605056062f, -0.0172593575f, 0.0515733771f, 0.0112355668f, -0.0151580246f},
    {-0.0511907041f, 0.0526225381f, 0.0154760936f, -0.0622642078f, -0.0740950704f},
    {0.0350257382f, 0.0696671307f, -0.0100189252f, 0.047658328f, 0.111102775f},
    {0.075521782f, 0.0266585834f, -0.0266828965f, -0.0587217696f, 0.0434194133f},
    {0.00174263609f, -0.0896811485f, -0.0918194205f, -0.0438986309f, 0.00765080983f},
    {0.0258109141f, -0.0121388109f, 0.00674029579f, 0.0180482287f, 0.0815029219f},
    {0.00447900128f, -0.0473800711f, -0.0226569045f, 0.00386289973f, -0.0333615169f},
    {-0.0355087183f, -0.027601419f, -0.0978146642f, 0.0616449341f, 0.00559423305f},
    {-0.077552475f, 0.0525709987f, -0.0323601551f, -0.0686714873f, 0.0256661959f},
    {0.120304056f, -0.0119650522f, -0.024847934f, 0.0484417938f, -0.00329733454f},
    {0.068844907f, 0.0287747625f, 0.0176658388f, -0.0304621216f, -0.0946084186f},
  },
  {
    {-0.0406098813f, 0.0732044578f, 0.0170582961f, 0.0530742593f, -0.0638624653f},
    {-0.11245811f, 0.0119357882f, -0.0320771001f, 0.0544159859f, -0.118357077f},
    {-0.0439612642f, 0.110407002f, 0.0851806998f, -0.125071555f, -0.0100255115f},
    {0.0133487498f, 0.00653605349f, 0.0518112332f, -0.0118820705f, -0.049613636f},
    {0.0188454427f, -0.086702764f, -0.0504595339f, 0.0400137529f, -0.0450064503f},
    {0.0169846509f, 0.0856880546f, -0.00633450318f, -0.0545732602f, -0.0447761379f},
    {-0.0573352762f, 0.0243241992f, -0.0534544997f, -0.0175107885f, 0.0638748705f},
    {0.112772286f, 0.0936091617f, 0.0460955352f, 0.0558268949f, 0.170129642f},
    {-0.0572532527f, -0.0394190252f, -0.0220216569f, 0.0741152167f, -0.0244264212f},
    {-0.0216747001f, -0.0599791594f, -0.0379545949f, -0.0519501679f, -0.0255851243f},
    {-0.00588860596f, 0.196479768f, -0.00879986119f, 0.00962402951f, -0.0692955405f},
    {0.0301017091f, 0.12547408f, -0.0304973312f, -0.0938198119f, -0.0719176382f},
    {-0.0977213308f, -0.0564599894f, 0.00797831547f, 0.000278664374f, 0.019309666f},
    {-0.0554719567f, -0.0396458879f, -0.0471805334f, -0.0979645848f, -0.0611245632f},
    {-0.028986983f, 0.00281625125f, 0.0714267343f, 0.026466107f, 0.0955097452f},
    {0.0856561214f, 0.0431213304f, -0.0141427014f, 0.0581283867f, 0.0248044506f},
    {0.0826632679f, -0.00264485856f, 0.024924079f, -0.0949957073f, -0.0755552426f},
    {-0.0671815127f, 0.049473796f, 0.0166593809f, -0.0686106458f, 0.0887425989f},
    {-0.0223625768f, -0.0447007529f, -0.087210685f, -0.071249716f, 0.0858889818f},
  },
  {
    {0.000779546972f, 0.00411021011f, 0.0733032674f, 0.0778233707f, 0.0145828808f},
    {-0.0966703221f, -0.0815609843f, -0.112499252f, -0.0413249545f, -0.0162045937f},
    {0.0436614528f, -0.0114740189f, -0.0394891649f, 0.0022426534f, 0.0629577413f},
    {0.0110128559f, 0.0465364754f, 0.00810886081f, 0.000754547422f, -0.0141672147f},
    {-0.00154550595f, -0.00488747563f, -0.00128008123f, 0.0142238457f, -0.037449453f},
    {-0.00949375145f, 0.00217229174f, -0.0389848948f, -0.042842567f, -0.0433000773f},
    {0.0545709655f, -0.00812727865f, 0.0723568648f, 0.0342415608f, -0.0109519698f},
    {-0.0647903308f, 0.0158855412f, -0.0432749018f, 0.0138831586f, 0.00879998133f},
    {-0.016000133f, 0.0194441862f, 0.0141267488f, 0.023786759f, 0.0779876933f},
    {-0.0759811774f, -0.0280157141f, 0.0233349223f, -0.0289477874f, -0.010330053f},
    {-0.00784709211f, -0.0280244611f, -0.0430269055f, 0.00125382317f, -0.0682596713f},
    {-0.0361323841f, -0.0523867309f, 0.0461348668f, -0.0273273122f, -0.0133631052f},
    {-0.0498154983f, -0.0302756876f, 0.00199765293f, 0.025727924f, -0.0202378333f},
    {-0.0693607256f, -0.0437009297f, -0.0261490475f, -0.0741171315f, 0.0289530866f},
    {-0.0124679292f, -0.0328919552f, -0.012840813f, -0.00876254775f, -0.000389124878f},
    {0.0470508598f, -0.00056152622f, 0.0164047983f, 0.00357904402f, -0.0839751959f},
    {0.0907009095f, 0.0154749388f, 0.0120610353f, -0.0535593517f, 0.0158028286f},
    {-0.0309209805f, 0.0194556471f, -0.0905089602f, 0.046148248f, -0.0441835597f},
    {0.0180177949f, -0.0203671046f, 0.0624240786f, 0.00791819859f, 0.0910060331f},
  },
  {
    {-0.0163826235f, 0.0770336464f, -0.012005426f, -0.0698297992f, -0.000782954681f},
    {-0.0530902483f, -0.0611290112f, 0.016795624f, -0.0176189486f, -0.0735172853f},
    {-0.0321968347f, 0.139812872f, -0.0437439531f, 0.0501740426f, -0.00909023266f},
    {-0.0418912135f, 0.0297090076f, -0.03272596f, 0.0492265709f, 0.109217189f},
    {-0.0209820345f, 0.0156029435f, 0.032905668f, 0.0119772526f, -0.0101842945f},
    {-0.107489154f, -0.0757701993f, 0.123511076f, 0.019342944f, -0.035746973f},
    {-0.0301103797f, -0.0843511969f, -0.0609757379f, 0.0148564763f, 0.0439160019f},
    {-0.0469564348f, -0.0158211626f, -2.45836618e-05f, 0.136722654f, -0.00914477091f},
    {-0.0176882017f, -0.0391746797f, -0.0547179952f, 0.00602297438f, 0.0318577066f},
    {0.0828834325f, 0.0968870223f, -0.0600230582f, -0.0163436066f, 0.0256830081f},
    {-0.00631934404f, 0.0166416299f, 0.0264111198f, 0.0753199011f, -0.00478013139f},
    {0.0162766166f, 0.0535213836f, 0.0343711488f, -0.03905968f, -0.0237050485f},
    {-0.0877708942f, -0.0422248244f, 0.0689084306f, 0.0115615558f, 0.0486460999f},
    {-0.0340148322f, 0.0605393425f, -0.00374733936f, 0.0066926172f, -0.0350286812f},
    {0.0285116825f, -0.0210559741f, 0.155351445f, 0.0218329355f, 0.0015715647f},
    {-0.0188390352f, -0.0770883858f, -0.135139048f, 0.00680206297f, -0.0693132281f},
    {-0.0917187706f, -0.0668889657f, 0.0815541446f, -0.0060413843f, 0.0128081217f},
    {0.01627638f, -0.0696253404f, -0.0391071737f, 0.00536170881f, 0.00150267174f},
    {-0.0795162767f, 0.119845048f, 0.0769553259f, -0.000902057276f, 0.0188201051f},
  },
  {
    {-0.00837755203f, -0.0669710189f, 0.0615995862f, -0.0234245379f, -0.0464348681f},
    {-0.0232126787f, -0.050810039f, -0.0336759612f, -0.0413374379f, -0.039019566f},
    {0.0415247083f, 0.0268696155f, 0.0152693456f, 0.0408431664f, 0.0360431746f},
    {0.0591137409f, -0.0592842139f, 0.00345627801f, -0.00831029471f, -0.00621293532f},
    {0.0118714813f, -0.0273553152f, -0.0329587571f, -0.0100132041f, -0.00241241837f},
    {-0.0183840208f, -0.0261208154f, -0.0335355625f, 0.06262362f, 0.0589041747f},
    {0.00171103911f, 0.0919887051f, -0.0330911465f, -0.0580450855f, -0.0308075547f},
    {0.00255009322f, -0.0159509312f, 0.0612767711f, 0.0144950086f, -0.0317854434f},
    {0.00789504405f, -0.00474294368f, 0.0557761416f, -0.0263316277f, 0.0641793758f},
    {0.0350348018f, -0.0337165892f, -0.0148546956f, 0.0344099216f, 0.0091737695f},
    {0.0390413702f, 0.0106719481f, 0.00985268876f, 0.0782671124f, 0.0158211421f},
    {-0.0364486128f, 0.00283466023f, -0.0735144317f, 0.0717895925f, 0.00389223406f},
    {-0.0539217032f, -0.0645368099f, -0.0173401646f, -0.0333252773f, 0.0223720483f},
    {0.00318443379f, 0.0296995044f, 0.00476161344f, 0.046236638f, 0.0103295818f},
    {0.0511518754f, 0.0379601084f, -0.0196673814f, 0.0313968733f, -0.0121329566f},
    {-0.0352329314f, 0.00906961039f, -0.0663179755f, 0.009541912f, 0.0156616308f},
    {-0.0104344431f, -0.063014932f, -0.126178265f, -0.0671909153f, -0.0431463234f},
    {0.0206505768f, 0.103477724f, -0.0231442563f, 0.0730531141f, 0.0546158478f},
    {0.0105961254f, -0.0324893966f, -0.0900840536f, -0.0028186792f, 0.0158157721f},
  },
  {
    {-0.0941306055f, 0.0094918143f, 0.109277412f, 0.139127672f, 0.0278303213f},
    {0.0577364005f, -0.0510047041f, -0.0653020144f, -0.0574499145f, 0.112559862f},
    {-0.0785780847f, -0.0916861147f, -0.163548976f, -0.110760033f, -0.0448838063f},
    {0.0153574301f, -0.0991202667f, 0.0263145175f, -0.0445956774f, 0.0863384604f},
    {0.250678539f, 0.00826185383f, 0.12006519f, -0.0234262031f, 0.0791518092f},
    {0.0286951233f, -0.0427068919f, -0.0162364282f, 0.0801657811f, -0.0782682523f},
    {-0.0889958814f, 0.0840584561f, -0.0496962778f, -0.0707422569f, -0.0152079388f},
    {-0.0946722478f, -0.0394890569f, -0.00519246049f, -0.025754245f, 0.0384250768f},
    {-0.0303132106f, 0.0054618232f, 0.00351051358f, -0.0374271013f, 0.0597974733f},
    {0.0247175954f, 0.0785613731f, -0.104422107f, 0.140507087f, 0.0112253167f},
    {0.0730179846f, -0.0684995726f, -0.0012646789f, -0.0499851257f, -0.0904855728f},
    {0.0688061044f, 0.0216997862f, 0.0583697036f, -0.151306406f, 0.0717128515f},
    {-0.0545712449f, 0.0830618218f, -0.00271630101f, -0.0735548064f, -0.0343450159f},
    {0.0751887113f, -0.0737493262f, -0.00880687404f, -0.0957776159f, -0.0782799497f},
    {-0.0423881225f, -0.0551535301f, -0.0548564829f, 0.0267312322f, -0.156247765f},
    {-0.051624354f, 0.0627015904f, 0.0245327093f, 0.0273009483f, 0.0341110565f},
    {0.0345232859f, 0.102588199f, -0.0593623742f, -0.00558353309f, 0.0462544262f},
    {-0.0401102155f, -0.0215497836f, -0.0466195829f, 0.184996501f, 0.0225137006f},
    {-0.0421756767f, 0.0199298561f, 0.034191411f, 0.0394694991f, -0.00503660366f},
  },
  {
    {0.0306968428f, -0.000188627659f, -0.0152204959f, -0.00541567709f, -0.0522180982f},
    {-0.0444952771f, -0.0105583053f, -0.0929670334f, 0.00453428598f, -0.0679537877f},
    {0.00961016957f, 0.105398893f, 0.0328272879f, 0.0744457617f, 0.0507236384f},
    {-0.0885724947f, -0.0110327331f, -0.108995095f, 0.0485619307f, 0.0335154347f},
    {-0.0543833598f, -0.114583865f, -0.119874619f, 0.17961359f, -0.0114434008f},
    {0.0670779273f, 0.098441489f, 0.0315574706f, 0.00980550051f, -0.143284902f},
    {0.0332508683f, 0.046632994f, 0.0308076907f, -0.118864879f, -0.0108600911f},
    {0.0179004371f, -0.0712879673f, -0.164718553f, -0.0996529832f, -0.100740343f},
    {0.00773231685f, -0.0587919466f, 0.0814753845f, 0.0406271145f, -0.0292591602f},
    {0.111821033f, 0.09945108f, 0.0114055714f, 0.140292227f, 0.0929021686f},
    {0.00695975125f, 0.072653681f, -0.0252091605f, 0.073529467f, 0.0725829676f},
    {0.0065100193f, 0.0112146856f, -0.0479613952f, 0.0636445433f, 0.0486837961f},
    {0.00605639024f, 0.0562052429f, 0.0415845215f, -0.0634577274f, -0.0712242723f},
    {-0.163879573f, 0.061613448f, -0.044491183f, 0.0421461314f, -0.0855003148f},
    {-0.0566014126f, -0.0719330311f, -0.0325434841f, 0.00718557136f, -0.0339190885f},
    {0.0551220141f, 0.114293471f, 0.0501025468f, 0.0216483101f, 0.0526015013f},
    {-0.0299344417f, 0.0836186111f, -0.0374665782f, 0.0295194164f, 0.0539969541f},
    {0.107570156f, -0.0825034827f, 0.122793771f, -0.0386675932f, -0.116701394f},
    {-0.0550777167f, -0.0859083384f, 0.079406552f, -0.0389479436f, 0.0827604011f},
  },
  {
    {-0.0651729926f, 0.0100428853f, 0.0256756246f, 0.0206570178f, -0.00838448573f},
    {-0.0582369678f, -0.123485938f, -0.0578520894f, -0.051876191f, -0.0629776567f},
    {-0.0331816189f, -0.0415508263f, -0.0180648435f, 0.0358781181f, -0.075618118f},
    {-0.0469175987f, 0.0952809229f, -0.0146438628f, -0.0544948578f, -0.043115776f},
    {-0.0120879067f, 0.0403794199f, 0.0607850552f, -0.056113895f, -0.0432383865f},
    {-0.0631367862f, -0.036643412f, -0.0491452329f, -0.0276165288f, -0.0190793462f},
    {0.000859157008f, 0.0222299621f, 0.0516197495f, -0.00819629803f, 0.0445041358f},
    {-0.0445776805f, 0.0130375111f, -0.000410661247f, -0.0506091341f, 0.0404915214f},
    {0.010687029f, -0.0148029663f, -0.0142494161f, 0.0593802519f, 0.0257858578f},
    {0.0254696887f, 0.0447799452f, 0.0275398344f, 0.120627783f, 0.0686736926f},
    {-0.0030587255f, -0.0537412763f, 0.0572174862f, 0.00569889974f, -0.0193637758f},
    {0.0340795964f, -0.0325873159f, -0.0160229802f, 0.0263802987f, 0.000353034033f},
    {0.0212258231f, 0.0305398162f, -0.041298151f, 0.0403698757f, -0.0341411605f},
    {-0.0437567718f, -0.0851025954f, -0.0346919596f, -0.0693216845f, 0.0189017449f},
    {0.00806248561f, 0.0173033066f, 0.0530552119f, 0.0657968149f, -0.0330509804f},
    {-0.0078173466f, 0.105699562f, 0.0299376175f, -0.00163272407f, -0.00431770459f},
    {0.0032035117f, 0.0239338465f, 0.0249490812f, -0.0422937274f, 0.0884874612f},
    {-0.00461762352f, -0.0359026454f, 0.0129855955f, -0.0341706052f, -0.05292923f},
    {0.0396713652f, -0.0152293378f, 0.0102668097f, -0.00062722509f, -0.0123779327f},
  },
  {
    {0.0296949949f, 0.0276060421f, 0.0722940788f, -0.0542675182f, 0.0227601603f},
    {0.0323904753f, 0.0973793268f, 0.152718708f, 0.0716932192f, 0.191351116f},
    {-0.0389947221f, -0.0549649708f, -0.0716137365f, -0.125994876f, -0.0351545364f},
    {0.0805854052f, 0.0109359752f, 0.0974038765f, -0.0336875692f, -0.0267341658f},
    {-0.108895801f, -0.255827129f, 0.0377308987f, 0.0136058563f, -0.131200567f},
    {-0.00236708322f, 0.0348069295f, 0.0695575401f, -0.119111516f, -0.0762814656f},
    {0.026991846f, 0.00128190918f, 0.0390028767f, 0.0382684618f, -0.0617706552f},
    {-0.0799925551f, -0.0685722679f, 0.133805633f, -0.0169868749f, -0.117300496f},
    {0.00392197445f, 0.0361892432f, -0.0017253235f, -0.0120622087f, 0.0112758884f},
    {0.0595084243f, 0.0517099649f, -0.120532006f, 0.0587283038f, -0.0042183809f},
    {0.0263958722f, 0.070213303f, 0.0770573094f, -0.0379720144f, -0.0706552267f},
    {-0.0473326333f, -0.0484496653f, -0.00811755192f, -0.0260795429f, 0.0352719314f},
    {0.111603387f, 0.0282511096f, -0.0371969119f, -0.0540044606f, -0.0364064127f},
    {0.034143731f, -0.124394037f, -0.0616344474f, 0.0472890288f, 0.0463731773f},
    {-0.151144624f, 0.0741643086f, -0.0360282362f, -0.0625051036f, -0.0534598753f},
    {0.0943333209f, -0.0969351158f, -0.0164135545f, -0.0828744769f, 0.0810640752f},
    {-0.0454065539f, 0.0157136209f, 0.0273416284f, 0.0167653263f, 0.084989503f},
    {-0.040657226f, 0.0249805618f, 0.0296088792f, 0.0555874333f, 0.0233577229f},
    {0.00895620789f, -0.0665846691f, 0.0197138339f, 0.00920430943f, -0.0938774273f},
  },
  {
    {0.0239787064f, -0.00359806139f, -0.00272202003f, -0.0618997328f, -0.0391103253f},
    {-0.0589733869f, -0.0239103101f, -0.00523482636f, -0.0932428837f, 0.0681109056f},
    {-0.0361107215f, -0.00911167823f, -0.085165076f, 0.00855638273f, -0.00132555596f},
    {-0.016198108f, -0.0338058434f, -0.0744629949f, -0.0311233494f, -0.0834173709f},
    {0.0101277987f, -0.0153455492f, -0.011605477f, 0.0205871016f, -0.0101165213f},
    {-0.0410380028f, -0.0660960898f, -0.0506831966f, 0.0246805083f, -0.0308100153f},
    {-0.0477819555f, -0.0228640269f, -0.0272092335f, 0.0310042072f, -0.00010887807f},
    {-0.00770040369f, 0.0376657993f, 0.00470642839f, 0.0731082186f, 0.0640880391f},
    {-0.00213951268f, -0.0716063529f, -0.0662824363f, -0.023576349f, 0.0508242808f},
    {-0.0435743183f, 0.0168627258f, 0.00920396019f, -0.0360806249f, 0.0220537465f},
    {-0.018352041f, 0.0815255791f, -0.0592297576f, -0.00152176362f, -0.0611647144f},
    {0.0146748545f, -0.00806617085f, -0.0179666206f, 0.0118376138f, -0.0325886309f},
    {0.0349210687f, -0.0202897806f, -0.0269920994f, 0.0181675609f, 0.0693437904f},
    {-0.00102197821f, 0.0148103945f, -0.00857796147f, -0.0274745282f, -0.0399127938f},
    {-0.00348262535f, 0.0855809376f, -0.0343628079f, 0.0353670083f, -0.0379008353f},
    {0.041989468f, -0.07144133f, -0.0261774473f, 0.0713010728f, -0.00132824492f},
    {-0.0586479716f, 0.00964207947f, 0.0459192656f, 0.0566604324f, -0.0387373082f},
    {-0.00387252402f, -0.068469882f, -0.0418525413f, 0.0178623013f, -0.0715105832f},
    {0.00281887501f, 0.0545792207f, 0.013043059f, 0.0480754003f, 0.0462985188f},
  },
  {
    {0.0182679165f, -0.0305362102f, 0.096749194f, 0.00759721547f, -0.0485946275f},
    {0.0583701544f, 0.0897489265f, 0.113215774f, -0.00795863662f, -0.00695416518f},
    {-0.0811861157f, -0.0134586236f, 0.0614635833f, -0.0209433753f, -0.120575145f},
    {0.0240867473f, -0.00120049471f, 0.00887015648f, -0.00467016129f, -0.122051902f},
    {0.0506873615f, 0.0213202834f, 0.0950697437f, -0.0102398302f, 0.0143074384f},
    {0.053230729f, 0.0179134756f, 0.00452033291f, 0.01466408f, -0.00775294611f},
    {0.0973887146f, -0.0176931117f, -0.0309016667f, -0.0346986353f, -0.0207776017f},
    {0.00941247307f, 0.00392015697f, 0.0076809153f, -0.0825299248f, 0.0884245783f},
    {-0.0284406766f, -0.00569034182f, -0.0383158103f, 0.0340273976f, 0.0532821007f},
    {0.0676406175f, -0.0206007604f, -0.0267716907f, -0.0203082878f, -0.0405975804f},
    {-0.0933046192f, -0.0328480452f, -0.0692952275f, 0.0633062571f, 0.0191359725f},
    {-0.0448312312f, -0.000737096067f, 0.000814340485f, 0.0212137047f, -0.0349066556f},
    {-0.11226289f, -0.0778770223f, 0.0118343383f, -0.0166370142f, -0.109516703f},
    {-0.0322641768f, 0.0264370795f, -0.00738015538f, 0.0246111993f, 0.122602783f},
    {0.00306128711f, 0.0363263935f, -0.00926147308f, -0.00566198397f, 0.0628402159f},
    {0.0319088548f, 0.0569078177f, 0.013589981f, 0.0353618748f, -0.0847461447f},
    {0.0741133317f, -0.0344099849f, 0.0668850318f, -0.0554200672f, -0.081883207f},
    {-0.0257969052f, -0.0390237048f, 0.0256750565f, -0.0465589724f, -0.0533157736f},
    {0.0386080109f, -0.0850055814f, -0.0297094379f, 0.0942551047f, 0.00162431283f},
  },
  {
    {0.0443849638f, 0.0988479182f, 0.112446874f, 0.179482594f, 0.092665948f},
    {0.093530871f, 0.030489821f, 0.0503219813f, 0.0208203141f, 0.136808544f},
    {0.0445835963f, 0.0175024942f, -0.129755408f, -0.0148961581f, -0.080844149f},
    {0.0732912496f, 0.000583009736f, 0.0543433428f, 0.0714937225f, -0.133392438f},
    {-0.0993070826f, -0.0501212291f, 0.0912850276f, 0.0141840689f, -0.0343151018f},
    {0.0422996879f, 0.0213839523f, -0.00489850668f, 0.0474200062f, -0.117772967f},
    {0.0649659783f, 0.0319903269f, -0.0790014863f, -0.000783097697f, -0.0351007655f},
    {0.0519836843f, 0.108527675f, 0.027239712f, 0.0466535762f, 0.0728807151f},
    {0.0501867235f, -0.0932418704f, 0.0500007011f, -0.0801367611f, -0.0207234416f},
    {-0.0121187912f, -0.00165154773f, 0.142862529f, -0.148430049f, 0.0434841476f},
    {-0.13004826f, -0.0100056678f, -0.112380117f, -0.022592172f, 0.00583814317f},
    {-0.0429605953f, 0.00111033162f, -0.0644214749f, -0.154864118f, -0.103977911f},
    {-0.0689467266f, -0.0503935441f, 0.0713291317f, 0.129019111f, -0.020845715f},
    {-0.0439780392f, -0.168007091f, -0.061815571f, -0.107982613f, -0.0300807152f},
    {-0.0317545272f, -0.112086192f, 0.0934145302f, 0.0257474408f, 0.0502216928f},
    {0.00549695687f, 0.00867295079f, -0.0146150813f, -0.0176789463f, -0.0765037015f},
    {-0.00198775553f, -0.0546135493f, -0.00649315631f, -0.0413927697f, 0.0679636523f},
    {0.0173325688f, 0.00578329107f, 0.0277273338f, 0.0283173528f, -0.0955965519f},
    {-0.0516688786f, -0.0369240455f, 0.0465149507f, 0.0162629038f, 0.0109548885f},
  },
  {
    {-0.0426475964f, -0.0781907812f, -0.0941574723f, -0.0765591264f, -0.125125468f},
    {-0.0242624748f, 0.0396849588f, -0.00431466242f, -0.0037478283f, 0.0132372063f},
    {-0.0672012344f, -0.0870287865f, 0.00490055326f, 0.0613020323f, 0.0175531134f},
    {0.123887017f, -0.058060661f, -0.0166442245f, 0.0225885827f, 0.0300024375f},
    {0.0368042663f, 0.00279444689f, 0.0227126498f, 0.105739199f, -0.0845877081f},
    {0.0560771376f, -0.00627448643f, 0.0415693037f, -0.0543469675f, -0.0314998813f},
    {-0.0328487307f, -0.0526959114f, -0.0146934967f, 0.0722246617f, -0.00322344038f},
    {-0.0333930589f, -0.0900961384f, -0.0160134546f, -0.120408401f, -0.0932895541f},
    {0.00329609681f, 0.0369625278f, -0.0979541615f, -0.00728022074f, -0.0783800334f},
    {-0.00452977046f, -0.0325864516f, 0.0436862111f, -0.0954277739f, 0.0481438003f},
    {-0.0297606643f, -0.0782248452f, 0.00863692164f, -0.0490812548f, -0.0708028302f},
    {-0.0202247687f, -0.00758612715f, 0.0210828185f, -0.0665589273f, -0.0201450754f},
    {-0.0314644277f, -0.0948130637f, -0.0298175588f, -0.0327746421f, -0.018177567f},
    {0.00339996349f, -0.0578721315f, -0.0966669172f, -0.0910388306f, -0.0496226102f},
    {-0.0279850047f, -0.0148006687f, 0.000853150792f, -0.0833652988f, -0.018238198f},
    {0.0076919822f, -0.0341672525f, -0.0861355141f, 0.066905722f, -0.0657193661f},
    {0.0378530845f, -0.0587777644f, -0.0213396177f, 0.0123697352f, 0.0707049221f},
    {-0.0264758077f, 0.0712944344f, 0.0251318682f, 0.00327353342f, 0.0707648247f},
    {0.067652747f, -0.029898826f, 0.0659307316f, 0.0402815193f, -0.00357371056f},
  },
  {
    {0.0715960041f, 0.0676710606f, 0.0736945346f, 0.0617416836f, 0.0718674064f},
    {0.0351419933f, -0.0592086501f, -0.075601995f, -0.0715564713f, -0.089330107f},
    {-0.00300122844f, -0.0530255623f, -0.0805243328f, -0.0282059163f, -0.00535672251f},
    {0.0186075009f, 0.0465692952f, 0.00234514638f, -0.0649868771f, 0.0229360666f},
    {-0.0530128367f, 0.0196643434f, -0.0385896377f, 0.0319926292f, -0.0845142454f},
    {0.0125614423f, 0.0595221035f, -0.0977791324f, 0.0463839024f, 0.00421850476f},
    {-0.0147515032f, 0.0653890893f, 0.0184521358f, -0.0211609844f, -0.0351037048f},
    {0.0646211877f, 0.150234506f, 0.0954971537f, 0.0342139564f, 0.0719492584f},
    {-0.0597254299f, 0.0696656555f, -0.0502468869f, 0.0333833247f, -0.0382372104f},
    {-0.0928940624f, 0.0293934103f, 0.0257704109f, 0.00268748892f, 0.00535971904f},
    {0.0475775748f, -0.0621266291f, 0.018439183f, 0.0281437952f, -0.00198443956f},
    {-0.0162778478f, 0.0384600386f, -0.0075336704f, 0.0213129129f, -0.0833661258f},
    {-0.0192410946f, -0.0767292976f, 0.0172308162f, 0.0152828041f, 0.0705158338f},
    {-0.0614720434f, -0.0303262845f, 0.0407118239f, -0.0477123298f, -0.0896229297f},
    {0.0633001477f, -0.0366533697f, 0.0216388125f, -0.0507592708f, -0.0325715058f},
    {0.0507349446f, 0.0337650403f, 0.0786897242f, -0.0766259432f, -0.0173228178f},
    {-0.0265772101f, -0.00154457614f, 0.0636749268f, 0.00230967277f, -0.092584528f},
    {-9.73970091e-05f, 0.133672222f, 0.015206825f, 0.046196457f, 0.0443798266f},
    {-0.0277726986f, 0.0289154369f, -0.0371020176f, 0.0735754892f, -0.10415481f},
  },
  {
    {-0.00696660625f, -0.128805414f, -0.0223333146f, 0.0426480807f, -0.076842092f},
    {0.0738166943f, 0.135820642f, 0.0775733665f, 0.071511291f, -0.00424969243f},
    {0.129590303f, 0.0559976585f, 0.0931460857f, 0.0191099271f, 0.124973215f},
    {-0.0411158539f, 0.0496974476f, -0.12661469f, -0.0837850794f, -0.0330869555f},
    {0.147492632f, -0.0794292018f, 0.0853677541f, 0.059845116f, -0.0920006111f},
    {-0.065642722f, 0.0422753729f, -0.054679215f, -0.0714434534f, -0.0475611463f},
    {-0.166005686f, -0.0501197875f, -0.0599480383f, 0.0421972424f, 0.130109847f},
    {-0.0382521041f, 0.00945819356f, -0.0676098838f, -0.0965721831f, 0.045956783f},
    {-0.164059162f, -0.0164214168f, 0.0869568437f, 0.0109190447f, 0.0587638617f},
    {0.000299564272f, -0.02856954f, -0.0503131784f, -0.0395477153f, 0.0147423344f},
    {-0.0540627055f, -0.0536922812f, -0.00112062751f, -0.21732828f, -0.0753661841f},
    {0.0672170222f, -0.0383305214f, -0.0538682565f, -0.112315156f, 0.0254690293f},
    {-0.0242372043f, -0.0344987698f, 0.0692542195f, -0.0549844243f, -0.112617463f},
    {-0.0726990029f, -0.00872518122f, 0.0680029318f, -0.09441863f, -0.0783624277f},
    {0.0258199051f, 0.0527028367f, -0.0537838116f, -0.012179154f, 0.0660720542f},
    {0.0963954851f, 0.118336149f, 0.0172233414f, 0.0917408839f, 0.0272269323f},
    {0.0592786856f, 0.0691491887f, -0.0988982543f, 0.135022134f, 0.0527283922f},
    {-0.106689036f, -0.0218741223f, 0.0479942001f, 0.132944584f, 0.0282084048f},
    {0.163449645f, 0.00758862961f, -0.0595904775f, -0.131588712f, 0.0190960933f},
  },
  {
    {0.0938004777f, 0.0643278062f, 0.019510407f, 0.0429523885f, -0.0179518666f},
    {0.0726375207f, 0.0303732324f, -0.0170877576f, -0.0592500195f, -0.111492254f},
    {-0.00192244875f, -0.0642093942f, 0.0898689479f, 0.07306467f, -0.121836804f},
    {-0.0289808288f, 0.00930249691f, -0.0503631197f, -0.0488158576f, 0.064330548f},
    {0.0350651257f, -0.110378295f, -0.00867321994f, 0.0520247407f, -0.0271069445f},
    {-0.00663432479f, -0.00132871256f, 0.0121790003f, 0.0851532221f, -0.03244403f},
    {-0.066220589f, 0.0494058579f, 0.0111267259f, 0.0687989891f, -0.0215954632f},
    {-0.0227929465f, -0.0182636883f, -0.0420443714f, -0.0616707765f, -0.0770381466f},
    {-0.0712378919f, -0.0441075079f, -0.0376521125f, -0.132025093f, -0.0185221657f},
    {-0.0779012144f, -0.0620334074f, -0.101546548f, 0.0561405905f, -0.0586676486f},
    {0.0893552899f, 0.0531913079f, 0.0508319996f, -0.00744680129f, 0.0797880739f},
    {0.0392539576f, -0.0295216683f, 0.0376256555f, 0.119549744f, 0.0338380001f},
    {0.0281371884f, 0.0653515458f, 0.0508912802f, -0.0178449731f, -0.0360021554f},
    {-5.68433134e-05f, 0.00698324386f, 0.00962900836f, -0.114968047f, -0.0488610156f},
    {0.0286960658f, -0.00268688262f, 0.0500818416f, 0.00918941665f, -0.0644614846f},
    {0.033152923f, -0.0848229676f, 0.00800677203f, -0.0779613778f, -0.0886109546f},
    {-0.0306060705f, -0.0221714135f, 0.0162949488f, -0.054897733f, -0.0630499274f},
    {-0.0776966661f, 0.00137681991f, -0.00957795233f, -0.0299772676f, -0.0503298715f},
    {0.0209946372f, 0.00266229245f, -0.0163512733f, 0.0146517036f, -0.017795939f},
  },
  {
    {0.00837101508f, 0.0216204487f, -0.0893622488f, 0.00684918277f, 0.0768944845f},
    {0.058506459f, 0.0980225354f, 0.0477997698f, 0.0671021193f, -0.025379112f},
    {-0.0307107177f, -0.028518673f, -0.0170598831f, -0.0238819104f, -0.0565031096f},
    {0.0211753305f, 0.056481868f, -0.0798531771f, 0.0596502498f, -0.0546096042f},
    {0.0685508102f, -0.0914176106f, 0.0768725798f, 0.0189345703f, 0.06040534f},
    {-0.0168398414f, 0.0298780948f, -0.00728576584f, -0.0697750598f, 0.0068388544f},
    {0.084283337f, -0.0652462393f, 0.0231700521f, 0.0501476713f, -0.019930765f},
    {0.19009468f, -0.0382916182f, 0.0211714059f, -0.00192483026f, 0.067165643f},
    {0.169686541f, 0.0926421508f, 0.170799285f, 0.0109398533f, 0.0355726071f},
    {-0.0422874577f, -0.0198335536f, -0.0368928723f, 0.0332313888f, 0.0246003736f},
    {-0.0172785018f, -0.0580914281f, 0.000507626566f, -0.0199265722f, -0.0115052955f},
    {0.118612699f, -0.0772058219f, 0.0641397685f, -0.0158488844f, 0.0501136333f},
    {0.0636567399f, -0.0235576574f, 0.0784711018f, 0.117778018f, 0.00458728755f},
    {-0.0871621072f, 0.023213014f, 0.0181839895f, 0.0197126977f, -0.0928658471f},
    {-0.000302970089f, 0.101846322f, -0.0781617612f, -0.0363063999f, 0.00582410255f},
    {0.124289289f, -0.0143967345f, -0.0846211165f, 0.0710262656f, 0.0711817443f},
    {-0.0725137144f, -0.0184525326f, -0.0912950709f, 0.0561807379f, -0.0526850596f},
    {0.0122198071f, 0.020179769f, -0.063519679f, -0.0120416461f, -0.0553782657f},
    {-0.0283596423f, 0.0539301522f, -0.0300906971f, 0.0573268458f, -0.00676897215f},
  },
  {
    {-0.026916055f, 0.0369898863f, 0.0613900498f, 0.0414598361f, 0.110484481f},
    {-0.0141302627f, 0.0995423198f, 0.0758944675f, -0.0421571806f, -0.011917199f},
    {-0.0983048826f, 0.0313575193f, -0.00812914781f, -0.0300206989f, -0.0362863019f},
    {0.029403042f, -0.0167037342f, -0.0378523171f, 0.00190279866f, -0.00773162488f},
    {0.0817699358f, 0.0966066122f, 0.075111717f, -0.0501108468f, -0.038476605f},
    {0.043934755f, 0.0861705169f, 0.00980799086f, 0.00679836795f, 0.00211825687f},
    {0.0348319672f, -0.0358242467f, -0.0422238372f, 0.0345270485f, -0.0260994583f},
    {0.0614038743f, 0.0602267981f, -0.0081001725f, 0.0138639966f, 0.0726392418f},
    {0.05530506f, 0.045475103f, -0.0582314953f, -0.0343128666f, 0.0378632396f},
    {-0.0135538755f, 0.0336050093f, -0.102359667f, -0.0315554328f, -0.00931510236f},
    {-0.00290186633f, -0.0879672989f, -0.000276562088f, -0.0899173394f, 0.00333021139f},
    {0.0742342025f, -0.0556863882f, -0.00316014024f, 0.101450913f, -0.0770564228f},
    {-0.11230763f, 0.0518000349f, 0.0106240083f, -0.0216290411f, -0.0205302499f},
    {-0.0138318883f, -0.0276269279f, 0.0409545749f, -0.0578943081f, -0.0265586972f},
    {0.0861061364f, 0.0552841239f, -0.00556545286f, 0.0534201637f, -0.0998058319f},
    {0.0332128368f, 0.0285714939f, 0.062049944f, -0.0257488135f, 0.0924445689f},
    {-0.0514021739f, -0.0585245565f, -0.024664443f, -0.0941503197f, 0.0136790611f},
    {-0.0043023196f, 0.0870565698f, 0.0261839498f, -0.0693157613f, -0.0600733273f},
    {0.0846048146f, 0.0244190544f, 0.0944738835f, -0.0813052952f, 0.0142533937f},
  },
  {
    {0.0022735002f, 0.0200143326f, 0.0929084867f, 0.00970954727f, 0.0754497275f},
    {0.00530912681f, 0.000261374575f, 0.0100527778f, -0.0672501251f, -0.0237104073f},
    {-0.0150286853f, 0.0642280504f, 0.0526493341f, -0.015204329f, -0.00300125033f},
    {-0.0365971066f, 0.00167899742f, -0.010889018f, 0.0114405649f, -0.0691041127f},
    {-0.1232666f, 0.0670748577f, -0.0291143879f, -0.0283584949f, -0.0299355667f},
    {0.0132827554f, 0.0125222998f, 0.0823594704f, -0.0805617943f, -0.0231747758f},
    {-0.0431490317f, -0.000162904485f, -0.0666544363f, -0.0838413239f, -0.0281232446f},
    {0.0357418656f, -0.0629770905f, 0.111870304f, 0.114443414f, 0.0534127094f},
    {0.0234155785f, -0.0302903373f, -0.0321130343f, -0.0793705285f, -0.0195359401f},
    {0.00475003337f, -0.0331326313f, -0.0679580793f, -0.0493129604f, 0.0344671123f},
    {0.00351593271f, -0.0788994506f, -0.0171391722f, -0.134389609f, -0.0738750547f},
    {-0.00661557959f, -0.0911719128f, 0.0316248462f, 0.0831355676f, -0.0300109126f},
    {-0.0562015474f, -0.0969505757f, 0.036860425f, 0.0881987661f, 0.0314831957f},
    {-0.073265925f, -0.007780327f, -0.026085455f, 0.0418159999f, -0.076070793f},
    {-0.107832596f, -0.0602831915f, -0.0583675765f, 0.0861582756f, -0.0674184114f},
    {0.0555520691f, 0.0147012882f, -0.00682750717f, 0.0217085946f, -0.00507097831f},
    {-0.0212579165f, -0.036817953f, 0.0930850729f, 0.0677764714f, -0.0123046627f},
    {0.011848229f, 0.0770778283f, 0.0350444801f, -0.00738708023f, 0.0298705492f},
    {0.0108649321f, 0.0674128979f, -0.0488675199f, -0.0475817323f, 0.0186991896f},
  },
  {
    {0.0372135453f, 0.0328110941f, -0.200838372f, -0.000968346489f, 0.00910492614f},
    {-0.0784274563f, -0.0734090135f, -0.003767655f, 0.106379785f, 0.0267731212f},
    {0.0705429167f, 0.0626710504f, 0.0126508959f, -0.0131707108f, 0.089061588f},
    {0.0249734167f, -0.0285625923f, -0.0382858291f, 0.156059787f, 0.0165378358f},
    {0.107039914f, 0.131556347f, 0.00531230541f, 0.0183567666f, 0.0152880708f},
    {-0.00182123866f, -0.0213457122f, 0.0635346994f, 0.0288290773f, -0.0803749338f},
    {-0.0999380648f, -0.0191989187f, -0.0398851149f, -0.0336464196f, 0.158132866f},
    {-0.143333808f, -0.0184632894f, -0.110812113f, -0.181411594f, -0.030188933f},
    {-0.0504917949f, -0.18279539f, -0.0108129038f, 0.0115593132f, 0.01249569f},
    {0.105682909f, 0.112350963f, 0.0216734372f, 0.0984833166f, 0.138847634f},
    {-0.0855396912f, -0.126793653f, -0.0919660479f, -0.0565231629f, -0.0174567252f},
    {0.112083368f, 0.00768962875f, -0.0182941388f, -0.0320517458f, -0.0534892455f},
    {-0.0164684672f, 0.07375554f, -0.0539157726f, 0.127394065f, -0.000900936779f},
    {0.08030691f, -0.0922472328f, -0.016462544f, 0.0324921533f, 0.0160332602f},
    {0.00530488882f, -0.151557356f, 0.0605950467f, 0.0348443352f, 0.0525015034f},
    {0.0256027505f, -0.00592462672f, 0.0170968976f, 0.0515918173f, -0.0368594564f},
    {-0.0976268575f, -0.112751551f, -0.000434516056f, -0.0749053061f, -0.0217602272f},
    {0.0734974816f, 0.0241625309f, -0.134072542f, 0.0038937896f, 0.158862874f},
    {-0.00220258487f, -0.0379558019f, -0.0696521923f, 0.0620866083f, 0.0210728887f},
  },
  {
    {0.0197365414f, -0.00943853706f, -0.0530107468f, -0.107568458f, -0.0640435293f},
    {-0.0815199912f, 0.0575891249f, -0.046715524f, -0.0150612416f, 0.0113140279f},
    {-0.0593459718f, -0.0845886767f, -0.0200986415f, -0.057506457f, -0.0353640281f},
    {-0.016759323f, 0.00333152851f, -0.0292462185f, -0.0110277291f, 0.0179530233f},
    {0.0136153912f, 0.0706730038f, -0.0468209721f, 0.0212708302f, -0.0246196892f},
    {-0.00542510534f, 0.0405509248f, 0.0267543085f, 0.0757860318f, 0.0614033639f},
    {-0.01315975f, 0.0091613438f, 0.0569620095f, -0.0169350486f, -0.0284393635f},
    {-0.0975817293f, 0.0316453055f, -0.02520434f, 0.0354775935f, 0.00182623172f},
    {0.00762254652f, 0.065336816f, -0.0655252263f, 0.0136280553f, 0.0101228124f},
    {-0.0318869501f, 0.0211062543f, -0.01452317f, -0.0922937542f, -0.0139813107f},
    {0.0385547318f, 0.041431386f, -0.0119442241f, -0.0350770727f, -0.00331063592f},
    {-0.0526566468f, 0.0675602779f, 0.00538773835f, 0.00679973327f, 0.00163734437f},
    {0.0454586484f, 0.00936754234f, 0.089592427f, 0.0303163398f, -0.00932982285f},
    {0.0515381172f, -0.0330232307f, -0.0490460247f, 0.0229996052f, 0.0391270742f},
    {0.00275443145f, -0.17819339f, 0.0157138873f, 0.0142865917f, -0.067445606f},
    {-0.0514119975f, -0.0578015111f, 0.0505299345f, 0.0836585984f, 0.0362882428f},
    {-0.0137305995f, -0.0830279365f, -0.0353052765f, -0.016776517f, -0.0838635415f},
    {0.047720395f, -0.0550558344f, 0.00621729856f, -0.00121507118f, -0.0204873662f},
    {-0.0306195971f, -0.0722985864f, -0.0120495139f, 0.00629445491f, -0.0150276069f},
  },
  {
    {0.120637588f, 0.27664569f, 0.22120589f, 0.066821292f, 0.254561305f},
    {0.00742056826f, -0.0312716067f, -0.0434890464f, -0.0157110281f, -0.133723632f},
    {0.147817686f, 0.090396598f, -0.0573141091f, 0.0897303969f, 0.100252107f},
    {0.0612500347f, 0.120270386f, -0.154427096f, -0.114384815f, 0.140761793f},
    {-0.0411719568f, -0.211828053f, 0.11153686f, -0.0249598399f, 0.0125703001f},
    {-0.136025295f, 0.0515917279f, 0.125744358f, -0.0153553644f, -0.0307997819f},
    {0.0712155327f, 0.005634211f, 0.0332017951f, -0.0567591712f, 0.0275405794f},
    {0.0423445851f, 0.0875236318f, 0.0228613149f, -0.0487539135f, 0.155551389f},
    {-0.247320265f, 0.107391581f, -0.114825152f, -0.0142210489f, 0.0225566141f},
    {-0.0299941394f, 0.0595449619f, 0.0697068572f, -0.00898643769f, -0.00220186496f},
    {-0.19178021f, 0.119672202f, 0.181711942f, 0.00071341428f, 0.0734377503f},
    {-0.0717732012f, -0.171468034f, -0.0654722601f, 0.121815555f, 0.166015655f},
    {-0.111009434f, -0.0714214966f, -0.00248852512f, -0.0808838233f, 0.15097101f},
    {-0.0580715947f, 0.083114028f, 0.0339486189f, 0.00890696049f, -0.0522780716f},
    {-0.0327016301f, 0.0386991315f, -0.00462199282f, -0.161872804f, -0.019417217f},
    {0.0396135375f, -0.0698081404f, -0.125465319f, 0.0809620321f, -0.00291396002f},
    {-0.0084977271f, 0.0127974153f, 0.0709322914f, -0.0359776951f, 0.0412850007f},
    {0.0288131516f, 0.0151515873f, 0.128423452f, -0.168061987f, -0.0615457892f},
    {-0.0799264386f, 0.0174256079f, -0.0776985884f, -0.0208278f, 0.158284456f},
  },
  {
    {-0.0519927144f, -0.0501071177f, 0.0518947877f, -0.0599236935f, -0.0329316147f},
    {-0.028527556f, 0.00703444704f, 0.0373471007f, 0.0165046621f, -0.0388065614f},
    {0.202456027f, 0.0498249345f, -0.014560136f, 0.0231818613f, -0.0180352814f},
    {0.0169691425f, -0.00773353875f, -0.013551414f, 0.00213985634f, 0.0533269234f},
    {-0.00350443437f, -0.0533495247f, -0.0093250284f, 0.0642364994f, 0.00521254865f},
    {0.107169807f, -0.0165483933f, 0.0831545591f, -0.0162215102f, -0.0536852702f},
    {0.00714487303f, 0.135026604f, 0.0822878033f, 0.130035222f, -0.0140407225f},
    {-0.122808084f, 0.00381769799f, 0.0510602184f, -0.0310890041f, -0.0470230468f},
    {0.0951229855f, 0.120315872f, 0.0303753857f, 0.0609062761f, -0.040718969f},
    {0.0862778053f, 0.0192296915f, 0.0259677544f, 0.0522185676f, 0.0757298097f},
    {-0.105106749f, 0.0430156179f, -0.025323052f, -0.0264810082f, -0.0688815042f},
    {0.030318033f, 0.000996794086f, 0.0191766731f, -0.0598411709f, -0.0293704923f},
    {-0.0594059676f, 0.0629292056f, 0.0241158977f, 0.0242690351f, -0.0600124784f},
    {0.0666206852f, 0.0496993028f, 0.0287603568f, -0.00899027474f, 0.000622079417f},
    {0.0086482456f, 0.00829504523f, -0.0642795712f, -0.0188061148f, -0.0967139676f},
    {0.0193394683f, 0.00392888207f, -0.0184115358f, -0.0470959879f, 0.0163194146f},
    {-0.0424776971f, -0.0221415423f, -0.0664628968f, -0.00188214378f, 0.0877861157f},
    {-0.0029236665f, -0.00496514514f, 0.0177497175f, -0.0421497598f, -0.00150964328f},
    {-0.121736407f, 0.0221068934f, -0.006294569f, -0.0220783353f, -0.0105713494f},
  },
  {
    {-0.0539286807f, 0.00755714858f, 0.0252491515f, 0.0902566612f, 0.0271128584f},
    {0.053543102f, 0.000115876399f, 0.0181969441f, 0.135213271f, -0.0248079393f},
    {-0.062594071f, 0.0852633491f, -0.137514964f, -0.0541635938f, -0.0792583972f},
    {0.0633098334f, -0.0728194788f, 0.027307f, 0.0845648199f, 0.0631292388f},
    {-0.123255409f, -0.0719011724f, 0.0366861448f, -0.0602031834f, 0.105350241f},
    {-0.0928620547f, -0.0257621631f, -0.0184379369f, -0.0692844242f, -0.106220335f},
    {-0.0444554687f, 0.123054892f, 0.0125516066f, -0.000749193656f, -0.0594539009f},
    {0.0203356426f, -0.0235827733f, 0.00191665941f, 0.0583872162f, 0.0309558883f},
    {-0.229658917f, -0.142916173f, -0.0831597969f, -0.12760824f, -0.0464970917f},
    {-0.065499872f, 0.0650163889f, -0.0784536377f, -0.0134550873f, -0.00347741693f},
    {-0.0755600557f, 0.0585126542f, 0.0281433295f, 0.0122238221f, -0.0895726457f},
    {0.000270514167f, -0.0255163088f, 0.0379308872f, -0.0333342329f, 0.00608186703f},
    {-0.0438652113f, 0.0270969886f, 0.0142478002f, -0.0320719257f, -0.0803673267f},
    {-0.091863744f, 0.0182362497f, 0.0345880575f, -0.0309460852f, -0.0503016785f},
    {-0.0297911912f, 0.0157035254f, -0.0145674413f, -0.00426124036f, 0.00665815407f},
    {0.0322411917f, 0.020917017f, -0.00464581838f, 0.00667456957f, -0.032770209f},
    {-0.0443748385f, 0.0790351182f, -0.0156938061f, 0.0502407774f, 0.0447730087f},
    {-0.0597472191f, -0.103964835f, 0.0908715352f, 0.0678128228f, 0.00452630129f},
    {0.00177932496f, 0.0597126633f, 0.0318374932f, -0.0727468058f, 0.0410194322f},
  },
  {
    {-0.0692327395f, -0.031309884f, -0.11531958f, -0.078376554f, -0.103959061f},
    {0.0718749538f, 0.13384454f, 0.091615513f, 0.0199631546f, 0.0368166119f},
    {-0.00837845355f, -0.0574540012f, 0.020113172f, -0.0195419509f, -0.0138092227f},
    {-0.0856427103f, 0.00412144279f, 0.0399063751f, 0.00953021552f, -0.0334232673f},
    {0.0330240577f, 0.0269911643f, -0.100171052f, 0.00159030338f, -0.0197408032f},
    {-0.0548699163f, -0.0642009526f, -0.022760164f, -0.0135869393f, -0.0965730771f},
    {0.0309731197f, 0.0728768408f, 0.0590829439f, 0.0326631516f, -0.0473237373f},
    {-0.0741854832f, 0.0193449538f, -0.0146836983f, -0.0853343755f, -0.0850888416f},
    {-0.104338117f, 0.0231663845f, 0.0147626847f, -0.00450178841f, 0.0164265875f},
    {0.024688419f, -0.0553245507f, 0.144242302f, 0.0447494313f, 0.0695950761f},
    {0.0389829651f, -0.0734464377f, 0.118490748f, 0.0503576361f, 0.0322378092f},
    {-0.0620975979f, 0.00933101494f, 0.0308451112f, -0.028939873f, -0.0117191458f},
    {-0.00744125061f, 0.0225316416f, -0.0186435357f, -0.0727189258f, -0.0283050146f},
    {0.0322136879f, 0.0549299121f, 0.0523702763f, 0.106491938f, 0.0200467929f},
    {0.0672797114f, -0.0914463177f, 0.105547212f, 0.0490069352f, 0.0898064822f},
    {0.113894209f, 0.0572231561f, -0.0155019471f, -0.0032147821f, -0.0127011519f},
    {-0.00456430623f, -0.0123037221f, 0.037950214f, 0.0493113957f, 0.00554495258f},
    {-0.0362768695f, 0.00174569699f, 0.00585972331f, -0.0226547103f, 0.0437161624f},
    {-0.0529679246f, -0.0389137752f, 0.0524978004f, -0.0287600551f, 0.0164740551f},
  },
  {
    {0.0713884607f, -0.0886947736f, 0.0864736512f, 0.0302453432f, 0.00247322279f},
    {0.0415974297f, -0.118260629f, -0.00678317249f, 0.00576470234f, 0.127271011f},
    {-0.025899088f, -0.0931762457f, 0.0492349043f, 0.0167399626f, 0.0863917768f},
    {0.0472566485f, -0.0109445676f, 0.0131117282f, -0.00315495417f, -0.0381556042f},
    {-0.070326224f, -0.0554387569f, -0.0323513001f, -0.0702471882f, -0.0807263851f},
    {0.0464973971f, -0.0710556805f, 0.068557553f, 0.0620570295f, 0.180362299f},
    {-0.0369806513f, -0.0887164921f, 0.0198109336f, -0.0166838877f, -0.107570648f},
    {0.0164045077f, 0.0236487519f, -0.0644351617f, 0.021835709f, -0.0698363334f},
    {0.00480870437f, 0.0331034809f, 0.0295271147f, -0.0413069464f, 0.000413691771f},
    {-0.0221746024f, -0.0699795261f, 0.0839929432f, 0.0195623003f, -0.0103605622f},
    {-0.00175468565f, 0.0769097432f, -0.00790487789f, 0.0420116372f, 0.020460315f},
    {0.0457980596f, -0.0779512823f, -0.0533360876f, -0.0129488437f, 0.126271278f},
    {0.126320392f, 0.121902116f, 0.0135441246f, -0.0653685704f, 0.0237327032f},
    {0.0347550623f, -0.0010871999f, -0.0399447754f, -0.00110400736f, 0.107868113f},
    {-0.0459779091f, 0.00646459591f, -0.111676447f, 0.000560215965f, 0.036261566f},
    {0.102876402f, -0.00961739849f, 0.0236372519f, 0.00898267608f, -0.0901106074f},
    {-0.00568408892f, 0.116649672f, 0.0670573711f, -0.0125324782f, -0.0101535227f},
    {0.0387876928f, -0.043806076f, -0.0290075354f, -0.014069845f, 0.00529270153f},
    {-0.00415931875f, -0.10283424f, 0.0537121035f, 0.00960470922f, 0.037169259f},
  },
};

static const float kStemBias[26] = {-0.0552026629f, -0.0461940095f, 0.0399227738f, 0.0706074238f, -0.120384976f, 0.0570133328f, 0.102595553f, 0.0885431543f, 0.156251848f, -0.0196639951f, -0.0447220132f, 0.0146757104f, 0.0519540645f, 0.0397113636f, 0.0717540979f, -0.242037535f, -0.0215226486f, -0.0339793861f, -0.135301948f, 0.128082797f, -0.161986023f, 0.00577414036f, 0.0542273149f, -0.0305281542f, 0.190685585f, 0.0334803686f};

static const float kPatchDepthwise[26][16] = {
  {0.0771268383f, 0.040526256f, 0.106726453f, -0.0450710952f, 0.0731303021f, 0.0605949126f, 0.154319882f, 0.087059848f, 0.0673606396f, -0.0379077718f, 0.0874476358f, 0.0235407241f, 0.00830977224f, 0.0509120263f, 0.00167532277f, -0.146910936f},
  {-0.0617723651f, 0.0068695629f, 0.00613509631f, -0.111259907f, -0.0180228632f, -0.0286191646f, -0.0756419003f, -0.00804086123f, -0.0380848348f, -0.0274482891f, -0.0839214996f, 0.054023169f, -0.0403558128f, -0.022744149f, -0.0240911748f, -0.0293204933f},
  {0.0264257919f, 0.105857305f, 0.077814877f, 0.0369553603f, -0.113873661f, 0.0559544638f, 0.0153310345f, 0.0609365776f, -0.00714424765f, -0.193168625f, -0.151680306f, -0.05989106f, -0.202647656f, 0.0260011982f, 0.00280370936f, -0.109282032f},
  {-0.0319937244f, -0.107353576f, 0.0089526223f, -0.0770733133f, -0.042789299f, 0.160176307f, -0.143950745f, 0.146931589f, -0.00763756875f, -0.0646259859f, -0.0124476235f, -0.166582003f, -0.0253199842f, -0.013329545f, -0.097473599f, -0.102559917f},
  {-0.0994757339f, -0.049227912f, -0.108690754f, 0.0333732963f, -0.0371199623f, 0.0206769127f, -0.0605144612f, -0.116215833f, -0.0416966341f, -0.229548305f, -0.021610016f, -0.0154818557f, 0.122329913f, -0.00664340844f, -0.00743874488f, -0.00840986148f},
  {-0.00710926391f, -0.00513713295f, 0.0212470368f, -0.0252984986f, -0.034002576f, -0.0217353068f, 0.070807457f, -0.0201812256f, 0.175157383f, 0.0551662073f, 0.139281571f, 0.124035016f, 0.0124848923f, 0.0124339219f, 0.0316534899f, 0.14301461f},
  {0.0472596027f, 0.0251564961f, 0.155497968f, 0.056290552f, 0.0500068814f, -0.067312941f, 0.0231104847f, -0.0605938099f, -0.0252521224f, -0.160731092f, -0.123781696f, -0.060909383f, -0.216528013f, -0.0561130755f, -0.0966968089f, -0.0785254985f},
  {-0.100111119f, -0.136036336f, -0.0526103154f, -0.0338194743f, 0.058886569f, -0.0320901684f, -0.117954724f, -0.00317194522f, -0.0424169376f, -0.0490258187f, 0.0267024674f, -0.102423653f, -0.0733803436f, 0.0485555269f, 0.0113673992f, -0.0380563475f},
  {0.0638929009f, 0.0504235663f, 0.110572174f, 0.00398196653f, 0.128417745f, 0.0611147843f, 0.0646025464f, -0.00265169539f, 0.00927722082f, 0.186653674f, 0.015886303f, -0.0413483456f, -0.126230434f, -0.0639323518f, -0.0533870496f, 0.107345775f},
  {0.0274673812f, -0.0725140944f, -0.1135244f, -0.103494808f, 0.0302392635f, -0.0924793705f, 0.00717459526f, -0.143518686f, 0.0157162063f, 0.0111633996f, 0.0112778731f, -0.0714153871f, 0.0809733272f, -0.00793982204f, 0.0719621629f, 0.00715485774f},
  {0.0490224808f, 0.0553132035f, -0.0199711844f, -0.0693513528f, -0.0205701254f, 0.052172482f, 0.0365865789f, 0.0706714541f, -0.00154298404f, 0.0837224275f, 0.0686971992f, 0.0696461499f, 0.0391358323f, 0.108494386f, 0.0321631283f, 0.00780316815f},
  {0.0144163538f, 0.0296321474f, -0.00777029898f, -0.0301692225f, 0.105943955f, -0.0238816589f, -0.0959736928f, -0.0295574162f, 0.0547859296f, 0.124075867f, -0.00018838355f, 0.0925708562f, -0.0401843376f, -0.0619445182f, 0.0627371371f, 0.0601682551f},
  {0.0442109294f, 0.00126146595f, 0.0352864228f, 0.0812018067f, 0.139617011f, 0.0287925303f, 0.17055887f, 0.0286355224f, -0.0249490719f, 0.0549530461f, 0.0311262123f, -0.0430882238f, 0.0398056805f, 0.0483728535f, 0.0152174812f, 0.0239418279f},
  {-0.167081162f, 0.0331107453f, 0.0280110575f, -0.0853307694f, -0.0813926309f, -0.117860205f, 0.023919154f, -0.00797909405f, -0.0107542165f, -0.0864685476f, -0.105720207f, 0.00476673292f, 0.0193101689f, 0.0148891108f, -0.0116559239f, 0.0287267212f},
  {0.00367736234f, 0.0769336224f, 0.126793101f, 0.0994378999f, 0.0784843862f, 0.0647546649f, -0.00309588993f, 0.013095743f, 0.0796469748f, -0.071593672f, 0.00622086413f, 0.0422839485f, 0.0819164142f, 0.0113202035f, -0.12150944f, 0.174177021f},
  {-0.0474357866f, 0.00239416654f, -0.0473835394f, -0.162337556f, 0.0337142609f, 0.0817868486f, -0.0312345065f, -0.00554753328f, -0.150892705f, -0.100051239f, -0.094460547f, 0.0372410305f, -0.0177272167f, 0.00769425603f, -0.0434515141f, -0.12983045f},
  {-0.00705359969f, -0.0747991726f, 0.032533031f, 0.157564968f, 0.00337821315f, -0.0821191147f, -0.0300755464f, 0.058449585f, 0.17021507f, 0.0726254806f, 0.00227247225f, 0.0351559855f, 0.139747694f, 0.0684069544f, 0.158234805f, -0.0194978211f},
  {-0.106111556f, -0.0606973134f, 0.0330928899f, -0.104764745f, -0.0257737283f, 0.0117117735f, 0.11442516f, 0.0218642242f, -0.022111034f, 0.00174776628f, 0.0818729177f, 0.0564091317f, 0.0258654952f, -0.0409628637f, 0.0697950497f, 0.0343049727f},
  {-0.00215062522f, -0.00286373962f, 0.0717828795f, 0.0955533162f, 0.109992139f, -0.0141348047f, -0.0639562011f, -0.0663648173f, -0.0596114919f, -0.0562923662f, 0.0557926893f, -0.0111067556f, -0.135315984f, -0.0753923506f, 0.0067668166f, -0.0144549021f},
  {0.0674779117f, -0.191277131f, -0.00533617847f, -0.00220925151f, -0.172741756f, -0.0584768318f, 0.0716274008f, -0.0979012251f, -0.109530471f, -0.082173869f, -0.00176384556f, -0.0565474145f, 0.031895116f, 0.103994884f, -0.0616699941f, -0.0852105245f},
  {0.0537408106f, 0.0770641491f, -0.0387137309f, -0.0029939157f, 0.0362132415f, -0.0279932786f, 0.0252890904f, -0.0231449809f, -0.0789773092f, 0.0340962335f, 0.0595917888f, 0.0922546014f, -0.00482131215f, -0.0763270557f, 0.0686180294f, 0.0984026864f},
  {-0.151130542f, 0.00654138206f, -0.0601685047f, -0.0807836428f, -0.111614563f, -0.0251159109f, 0.0107353544f, -0.00463039894f, -0.0857816786f, -0.0762962252f, 0.037896771f, -0.00533582084f, -0.204711556f, 0.000340463797f, 0.025429422f, -0.0885612667f},
  {0.0937677026f, 0.0109846313f, -0.0232074019f, -0.130473346f, -0.109374337f, -0.0759594738f, -0.067606315f, -0.0630047098f, -0.0206162818f, 0.00129858754f, -0.0675510094f, 0.0157454442f, -0.0937913284f, -0.0169615317f, 0.0685836673f, -0.00421810895f},
  {-0.11225117f, -0.0277557559f, 0.0506736003f, 0.0499831587f, 0.0166108795f, -0.0194890033f, 0.0840657204f, -0.0129088042f, -0.0960797444f, 0.0394098647f, -0.0567677468f, -0.00642853789f, -0.120877624f, -0.0726227611f, -0.0418120176f, -0.0821994245f},
  {-0.111082539f, -0.115639485f, -0.0439386703f, -0.00176987005f, 0.0669749603f, -0.111057207f, -0.0869362727f, -0.0418553576f, 0.0538805574f, -0.205871955f, -0.0298675075f, -0.0963952169f, -0.0381100141f, -0.131253362f, -0.10535197f, -0.00999331102f},
  {-0.0143497735f, 0.000794073159f, -0.145556122f, -0.15442498f, -0.0646349415f, -0.0135052167f, -0.105591379f, 0.101120017f, -0.0104679875f, 0.0156318005f, -0.117889374f, -0.0214942954f, -0.00893684197f, -0.0272500031f, -0.0305393208f, -0.0416207574f},
};

static const int8_t kPatchPointwiseQ[26][26] = {
  {-66, 11, 42, -33, -33, 11, 37, -5, 8, -127, 28, 23, 0, -33, 38, 99, 16, -20, -36, 44, -27, 104, -14, -108, 47, -84},
  {-55, -127, 81, -38, -55, 58, 3, 18, 19, -84, 24, -53, -27, -4, 15, -5, -59, -25, 31, 55, -16, -47, 10, -19, -3, -63},
  {-6, -81, -20, 17, 95, -32, 59, -2, -104, 54, -94, -15, -31, -127, 3, 37, -69, 34, -67, -6, 47, -111, -68, 22, 20, -48},
  {81, 3, -62, 24, -3, -43, -49, -50, 43, 32, 19, -29, 30, -127, -45, 3, -23, -56, -43, -37, -16, -14, -52, 47, -42, -72},
  {102, -18, -32, -111, 39, 80, -66, -95, 110, 90, -127, 89, 39, 33, 28, -1, 51, 70, -39, -4, -113, -31, 18, -50, 80, -113},
  {-7, 85, 66, 2, 103, 61, -9, -111, 54, -101, -9, 38, 90, -59, -14, 68, -25, 5, 99, 64, 83, 34, 54, 127, 31, 47},
  {56, 10, 91, -97, -53, -58, 83, 11, -26, 44, 16, -35, 13, -95, 44, 39, 46, 127, 88, -8, -2, -85, 107, 40, 8, -12},
  {73, 41, -99, 123, 35, -83, 31, 46, 25, -7, 64, 55, 81, -68, 95, -14, 127, -82, -55, -101, -57, 97, -57, -17, 78, 113},
  {13, -127, 39, 24, -11, -16, -11, -44, -45, -112, -48, 42, -58, -60, -7, -25, 3, -97, 62, 104, -11, 36, -43, 66, 16, -11},
  {12, 44, 17, -29, -66, -3, -57, 2, 37, -25, 67, -20, -1, 21, -74, 127, 16, 29, -87, -32, 44, -35, 91, 49, -44, -27},
  {88, 19, -47, 108, 91, 127, -56, -72, 84, -39, -72, -8, 19, -107, -42, 67, 112, -122, 22, 67, -23, -108, 74, 32, -117, -119},
  {127, 9, -51, 67, -86, -67, 48, -7, 20, 19, 30, -34, 19, -5, -16, -36, 126, 14, -10, -25, -34, 22, 108, 120, -23, -48},
  {-42, 51, 1, 62, 73, -33, -80, -70, -49, 19, 27, -18, 78, 53, 114, 127, 85, 10, -18, -91, 8, 20, 34, -41, 88, -99},
  {-76, 52, 25, -17, -71, 24, -127, 85, -98, -34, -26, -49, -89, 0, 102, 78, -63, 10, 7, -85, 37, 20, -46, 56, 17, -34},
  {-5, -18, -91, -81, -122, -127, -97, -43, -86, -92, -12, -64, -21, 15, -12, -6, 26, -46, -9, 63, -30, 11, -49, -35, 63, 4},
  {20, 34, -47, -43, 15, -1, 1, 100, -49, 54, -25, 0, 99, 59, 73, 20, 19, -31, 35, 57, 31, -24, -85, 127, 2, -107},
  {20, -68, 15, 70, -13, 14, 69, 108, 24, 29, 121, -28, -7, 4, -71, -58, -62, -62, -22, 97, 121, 127, -11, -21, 52, -25},
  {-77, 13, -114, 40, -74, 4, 100, 87, 93, 19, 48, 73, 27, -86, 127, -83, -55, -61, -11, -1, -124, -24, -75, 7, -55, -29},
  {-25, -29, -27, 70, 69, 54, 21, 69, 99, -4, 11, 31, 78, -29, -12, -39, 100, 90, -80, 127, -69, -39, 56, 45, 38, -1},
  {-24, 4, -45, -13, -2, -127, -1, 27, -42, -65, -39, 20, -55, -85, 54, -26, 15, -13, -31, -50, 46, -46, 15, 43, 84, 75},
  {-2, 47, -21, 119, 14, -127, -119, 68, 102, 29, -53, -15, -9, -18, 35, -95, -113, -112, 61, 6, -73, -48, 79, 90, -30, 85},
  {75, 127, 116, -26, -18, -89, 76, 94, 25, 61, -15, -59, 12, 67, 123, -104, 36, 42, 25, -73, -81, -100, 8, 62, -49, 76},
  {-96, -71, -9, 36, -18, 104, 0, -5, -43, 68, 79, 2, -22, -26, 40, -17, 12, 127, -51, -51, -98, -25, 35, 57, 54, 8},
  {-37, -13, -12, 66, -41, 112, -15, -54, -13, 18, 65, -27, -45, 66, 55, 42, 42, -127, 37, 89, 84, 22, -20, 35, 31, 93},
  {-99, 60, 30, 34, 40, -93, 1, 90, -12, -62, 6, 127, -39, -36, 5, 30, 26, 59, 43, -36, 10, -46, 16, -32, 92, -35},
  {3, 31, -24, -11, -25, -24, 10, 56, 7, 58, 54, -20, -127, -45, -76, 30, 6, -101, 45, 79, -77, -13, -23, -95, 7, 4},
};

static const float kPatchPointwiseScale[26] = {0.0111721391f, 0.0121014575f, 0.0137955975f, 0.00968009792f, 0.00906444248f, 0.0108719561f, 0.0111896815f, 0.00863386318f, 0.0144439181f, 0.0149892047f, 0.00771990512f, 0.0107821934f, 0.0094771944f, 0.00975281186f, 0.0112954434f, 0.00958320964f, 0.0086069908f, 0.00975200348f, 0.0113477027f, 0.0150553547f, 0.00979567505f, 0.0104981652f, 0.0127925007f, 0.0131993797f, 0.0119896941f, 0.0143494839f};

static const float kPatchBias[26] = {0.148631498f, -0.182597056f, 0.0773851275f, -0.594766796f, -0.596652508f, 0.174965397f, -0.087321505f, 0.0013916865f, 0.193143815f, -0.212436721f, -0.668474317f, -0.13243258f, -0.0637170076f, 0.14829725f, -0.0642009974f, -0.0509725474f, 0.536270976f, -0.435060024f, 0.0622904822f, 0.339063585f, 0.345656514f, 0.0415546782f, 0.00635733828f, 0.229482174f, 0.573735058f, 0.605241001f};

static const float kPosEmbed[1][31][26] = {
  {
    {-0.00347025483f, 0.00861150492f, 0.0308982637f, 0.047175549f, 0.0656274334f, -0.0177750215f, 0.0447693914f, -0.0106947524f, 0.0202805288f, 0.0764452815f, 0.0355104953f, 0.0336402543f, 0.0139420964f, 0.00339175574f, -0.00552367466f, -0.0129902381f, -0.0289818812f, -0.0412382931f, 0.0116715897f, -0.04240885f, -0.0177335292f, 0.000787667872f, -0.0216209963f, -0.0311742611f, -7.57117159e-05f, -0.0118251266f},
    {-0.0251400266f, 0.000483570766f, 0.0482321866f, 0.0678544343f, 0.0376333334f, -0.0234282427f, 0.0149193257f, -0.0213733111f, 0.0115826642f, 0.0972289443f, 0.0348903909f, 0.0360553563f, 0.00752776582f, -0.0483656339f, -0.0130706271f, 0.00427289447f, -0.0349804759f, -0.00772444159f, -0.000128566709f, -0.015021937f, -0.0108045805f, -0.0509641655f, -0.0196224432f, -0.0381643772f, 0.00229092222f, -0.0113700246f},
    {0.0147103015f, 0.0307019353f, 0.0550220832f, 0.0765038803f, 0.0487588383f, -0.0432852283f, 0.0284054801f, -0.0340492465f, 0.0145799313f, 0.0371016264f, 0.038731683f, 0.0305643417f, -0.0240227319f, -0.0415817313f, -0.0146609638f, -0.0123768244f, -0.0384989977f, 0.0134413708f, 0.011692605f, 0.0117408391f, -0.0415853634f, -0.0373569205f, 0.00165562797f, -0.0377394855f, -0.00243765512f, -0.00950035267f},
    {-0.0326938182f, 0.0437641852f, 0.0461056009f, 0.0909511968f, 0.0492223613f, -0.0382113755f, 0.0689090714f, -0.0162154976f, 0.01667751f, 0.0320080332f, 0.0621358342f, 0.0253734905f, -0.00554735912f, -0.0531843007f, -0.0303331614f, -0.0145343924f, -0.0307055954f, 0.0230853055f, 0.022195207f, -0.00665223459f, -0.0108963475f, -0.0283711217f, -0.0115335258f, -0.0609304756f, -0.000713082729f, 0.0225570071f},
    {-0.0236439798f, 0.0507571548f, 0.0363575257f, 0.0614942871f, 0.0637692884f, -0.023458695f, 0.0536408164f, -0.0148754707f, 0.0228449609f, 0.0402663499f, 0.0190546736f, 0.00749365473f, -0.0149654718f, -0.0569867752f, -0.0549939647f, -0.0150955105f, -0.054976169f, 0.0178695414f, 0.0353074372f, -0.00343234395f, -0.0330269784f, -0.0550125502f, 0.000769043167f, -0.0570228584f, 0.023451075f, 0.0109867398f},
    {-0.0453504212f, 0.0305353515f, 0.0583643429f, 0.0260066073f, 0.0430760607f, -0.0283117611f, 0.0387182385f, 0.00957324822f, -0.008983762f, 0.0137917995f, 0.0418730862f, 0.0239494294f, -0.0395166539f, -0.0240156371f, -0.0463325083f, -0.0069972584f, -0.063106142f, 0.0255016889f, 0.0460149199f, 0.00268506864f, -0.0376476236f, -0.0631235912f, 0.0306605231f, -0.0553392097f, 0.0214406531f, -0.00694411574f},
    {-0.0444626957f, 0.0351252742f, 0.0722148791f, 0.0191775654f, 0.0300820321f, -0.046900373f, 0.0149573879f, 0.0476527847f, -0.0036578991f, 0.00254949345f, 0.0418151282f, 0.0375820436f, -0.015730951f, -0.0207560845f, -0.0551479161f, 0.00503528677f, -0.082157366f, 0.0405517966f, 0.0287882388f, 0.0241956338f, -0.0352561846f, -0.0430219136f, 0.0368863456f, -0.051822111f, 0.0170088634f, -0.0192945823f},
    {-0.035354767f, 0.0300502889f, 0.0670204535f, 0.0207627807f, 0.031863533f, -0.0604005344f, 0.0170623492f, 0.052114103f, -0.0122202178f, -0.00740688434f, 0.0381464548f, 0.0257815272f, 0.00265182904f, -0.048421409f, -0.0578389764f, 0.00358869391f, -0.0824863315f, 0.0466246046f, 0.00369343651f, 0.0412459001f, -0.0709916353f, -0.0155737838f, 0.0436871611f, -0.0187707003f, -0.00711741997f, -0.00935623329f},
    {-0.033520814f, 0.026012525f, 0.0574556105f, 0.0167956017f, 0.0239284243f, -0.0665493235f, 0.0446687639f, 0.0348445736f, -0.0244756248f, -0.00876512565f, 0.0372261144f, 0.0343859829f, -0.0103421798f, -0.0617240109f, -0.0570741743f, -0.00430045137f, -0.0686963052f, 0.0302841887f, 0.00614811387f, 0.0179298036f, -0.0697605088f, -0.0153735382f, 0.0306607317f, -0.00381844374f, -0.0189196281f, -0.0118127279f},
    {-0.00868655834f, 0.0294116866f, 0.0520480201f, 0.0095519172f, 0.0226220153f, -0.0513467267f, 0.0435268953f, 0.0208905619f, -0.0129627697f, 0.0091808876f, 0.0110329688f, 0.0497898124f, -0.0192286447f, -0.0657869726f, -0.0535551868f, -5.94821358e-06f, -0.0533132963f, 0.00507665519f, 0.0171075501f, 0.0130605604f, -0.0415590219f, -0.0135501958f, 0.0128415711f, -0.0224038195f, -0.00321851578f, -0.0202147905f},
    {0.0134997359f, 0.0286639053f, 0.0436637253f, 0.00349788344f, 0.0323930308f, -0.0175526645f, 0.0199999604f, -0.00208737282f, -0.0025024137f, 0.0291724354f, 0.00407900661f, 0.037102893f, -0.00517444964f, -0.0663742349f, -0.0249871239f, 0.0108896755f, -0.0426265784f, -0.000467864971f, 0.00405268744f, 0.0474500582f, -0.049717214f, -0.00908437185f, 0.037890736f, -0.0314872004f, -0.00125560816f, -0.00533958478f},
    {-0.00724203885f, 0.0650516078f, 0.0275952574f, 0.00970550068f, 0.0210244786f, -0.016762998f, 0.0274163708f, -0.0211537797f, 0.0272108093f, 0.049841363f, 0.036599312f, 0.052482035f, 0.012929895f, -0.0441512801f, -0.011298215f, 0.00676762685f, -0.0512104742f, 0.00983210001f, -0.0105187781f, 0.0283861421f, -0.035130959f, -0.0518391989f, 0.0555236004f, -0.0398700647f, -0.00632273359f, -0.0124933301f},
    {-0.0243871566f, 0.0543874875f, 0.0299201589f, 0.0201384258f, 0.0159589276f, -0.0424553044f, 0.0396908559f, -0.01131518f, 0.0148145752f, 0.0303569715f, 0.0644774958f, 0.071926482f, -0.0166174602f, -0.0471732616f, -0.0111735091f, -0.0021433006f, -0.000154989757f, 0.00910791475f, -0.0144018177f, 0.0188694242f, -0.0562061071f, -0.0338356011f, 0.0501934998f, -0.0417578816f, -0.021039132f, 0.000498226378f},
    {0.000598666549f, 0.0104204761f, 0.0151438229f, 0.0313146785f, 0.0267983116f, -0.0315573476f, -0.00425347686f, -0.0307249464f, -0.00070414698f, 0.0308486912f, 0.00911123119f, 0.0206996556f, -0.00900064409f, -0.0497937091f, -0.0295104329f, 0.0346994586f, -0.0196711104f, -0.00909962226f, -0.0415694527f, 0.0233762134f, -0.0413610376f, -0.0393939614f, 0.00384666352f, -0.0470737666f, -0.0123132113f, 0.0448577218f},
    {-0.0166176111f, 0.0423995256f, 0.0115887932f, 0.0285202879f, 0.0482808091f, -0.0325586274f, 0.0126058599f, -0.042837128f, 0.0120297009f, 0.0352127701f, 0.0554452799f, 0.0644640625f, 0.00701330183f, -0.0293774419f, -0.0268227439f, 0.00997634698f, -0.0135380747f, 0.0289611928f, -0.0373399779f, -0.0398638137f, -0.000910330738f, -0.00303612184f, -0.0440201685f, -0.0344528258f, -0.016680399f, 0.0449706204f},
    {0.00177160848f, 0.0260782484f, 0.0498034135f, 0.0378962494f, 0.0389687605f, -0.00261626136f, 0.0272347704f, 0.0228889734f, 0.0253526159f, 0.0302077252f, 0.0569122061f, 0.0758350343f, -0.037408933f, -0.0450098552f, -0.051573962f, -0.00497425999f, -0.036602892f, 0.0114289215f, -0.00868332013f, 0.00150313263f, -0.0518595353f, -0.0396820009f, 0.00536270486f, -0.0342365652f, 0.0319783986f, 0.0466501452f},
    {0.02865538f, 0.0369537137f, 0.0379215591f, 0.0422298238f, -0.00197560363f, -0.0475867763f, 0.0471474417f, -0.0426313989f, 0.0179523658f, 0.0086024804f, 0.0483600646f, 0.0191674605f, -0.0176150221f, -0.0120116575f, -0.0611264445f, -0.00965061877f, 0.000776286586f, 0.00473953178f, 0.00483678281f, -0.0178528242f, -0.0498508662f, -0.00816277694f, 0.00564499758f, -0.0549760498f, 0.0182187129f, 0.0659644678f},
    {-0.0332395285f, 0.0230690427f, 0.0088486867f, 0.0114411367f, -0.010461485f, -0.0445789732f, 0.00880338158f, -0.0159171168f, -0.0155822719f, 0.0141924927f, 0.0264413506f, 0.0648573712f, -0.000169917694f, -0.0210046005f, -0.0393371731f, -0.00551771745f, -0.00332999579f, 0.0322138034f, 0.0275440998f, -0.0168435704f, -0.0420341305f, -0.0183234271f, -0.00461923098f, -0.0341186821f, -0.00574691454f, 0.0573885441f},
    {0.008597726f, 0.0463212803f, 0.0345643312f, 0.0454692207f, 0.00949592795f, -0.0396889299f, 0.00690302858f, -0.0083611384f, 0.00552063389f, 0.0197205022f, 0.0495108068f, 0.062073227f, 0.000485986093f, -0.0327827521f, -0.0275315456f, 0.00813521817f, 0.0103248274f, 0.0402851142f, 0.0575511903f, -0.0197068304f, -0.0632807687f, 0.0114012975f, -0.0279814005f, -0.0465473086f, -0.0281807762f, 0.050924968f},
    {0.0321882106f, 0.0568418317f, 0.0168276019f, 0.030372493f, 0.0130510116f, -0.0529732034f, 0.0219992008f, 0.0122732855f, 0.0406523459f, 0.023244381f, 0.031969592f, 0.0731165409f, -0.0351756997f, -0.0459446497f, -0.0423442014f, 0.00638992758f, 0.0101511786f, 0.0256741215f, 0.0114440899f, 0.00139879924f, -0.0646809116f, -0.0122670084f, -0.0210476294f, -0.0388453789f, -0.0108842198f, 0.048698999f},
    {0.0361370519f, 0.0304330699f, 0.00984478462f, 0.0470512286f, 0.00941724423f, -0.0285159163f, 0.00412246678f, 0.0261052679f, 0.0239481162f, 0.0161971077f, 0.0342689119f, 0.0722856447f, -0.0161253009f, -0.0616971739f, -0.0185507871f, 5.15215179e-05f, -0.00156012876f, 0.0198669229f, -0.0221971888f, -0.0199223366f, -0.0561780743f, -0.0276852716f, -0.0348815173f, -0.0265003163f, -0.00945067219f, 0.0401095934f},
    {0.036209289f, 0.0177112054f, 0.00228601042f, 0.0377863199f, 0.0323436931f, -0.0301749595f, 0.00100885902f, 0.0205994658f, 0.0277145393f, 0.0230904464f, 0.036791686f, 0.0707498044f, 0.0097992681f, -0.0361388661f, -0.0390301123f, -0.00507066725f, 0.0188304652f, 0.00417325087f, -0.00113184762f, 0.00296907849f, -0.0496241748f, -0.0356128179f, -0.0114443889f, -0.0257457327f, 0.00681408308f, 0.0137037644f},
    {0.0406447053f, 0.00299084908f, 0.00263811368f, 0.0265177358f, 0.0257293917f, -0.039095819f, 0.00568563025f, 0.0270301998f, 0.0298379604f, 0.0139383571f, 0.0186738279f, 0.0653252974f, 0.0120536136f, 0.00125306461f, -0.0471395999f, 0.00561174378f, -0.00759963319f, 0.00553208916f, 0.0153338527f, -0.00349381589f, -0.0380973965f, -0.0147863533f, -0.010659215f, -0.0227860659f, 0.00241195806f, 0.0173406024f},
    {0.0180735812f, 0.0123394812f, -0.00502100028f, 0.017738048f, 0.00103456515f, -0.0413475595f, 0.0129028549f, 0.0232400708f, 0.0409441963f, -0.000842214969f, 0.00669273688f, 0.0516391397f, -0.0213713702f, -0.0162771679f, -0.0231342781f, 0.0228494536f, -0.0368261561f, 0.0229304992f, -0.00104101864f, -0.00940285437f, -0.040118169f, -0.0205965433f, -0.00889406353f, -0.0200550035f, -0.00782105513f, 0.0130081605f},
    {-0.0120815579f, 0.03522842f, 0.00552477315f, 0.0190292243f, 0.00801147986f, -0.0190911498f, 0.014060433f, 0.0216576997f, 0.039622426f, 0.0135706998f, -0.000588984694f, 0.0398488902f, -0.0132165914f, -0.0482266098f, -0.00936160702f, 0.0272555854f, -0.0156102609f, 0.0254768059f, 0.00967624038f, 0.00864376873f, -0.0530634262f, -0.0273253191f, 0.00038651636f, -0.0167484507f, -0.00788358785f, -0.011867837f},
    {-0.00536307506f, 0.0170937646f, 0.0296568274f, 0.0384422392f, 0.0247070696f, -0.0060856645f, -0.00425150851f, 0.0403899699f, 0.0141461017f, 0.0280675273f, -0.0118595231f, 0.0435935296f, 0.0250964127f, -0.0217916016f, -0.0083749257f, 0.0242238306f, -0.00588497985f, 0.00247450545f, 0.0339946933f, -0.00375176058f, -0.0641483217f, -0.000222991483f, -0.0068965205f, -0.0148797734f, -0.00758383004f, -0.0240037534f},
    {0.01781765f, -0.0125819333f, 0.00980943069f, 0.0379642844f, 0.0191592816f, -0.0323438197f, -0.0138779711f, 0.0297261216f, 0.0200439133f, 0.0180214904f, 3.21469452e-06f, 0.0502205677f, 0.00174616859f, 0.0184574872f, -0.00873230118f, 0.0292292349f, -0.0262507293f, -0.0105089853f, 0.0060589551f, -0.0206974354f, -0.0608881749f, -0.0125361718f, 0.0116405198f, -0.0291510411f, 0.00664416235f, -0.0280211363f},
    {0.0318858586f, 0.000599318417f, -0.00349142309f, 0.0334422216f, 0.0232458822f, -0.00248064147f, 0.0120682353f, 0.00440878095f, 0.0294481702f, 0.0319195576f, 0.0222375672f, 0.0405822359f, 0.0155761987f, 0.00801370014f, -0.00415771548f, 0.0255363826f, -0.028600473f, 0.00720453449f, -0.00489740586f, -0.0181758571f, -0.0255366694f, -0.0348306336f, 0.0215062592f, -0.0441166796f, 0.00783643499f, -0.0119639868f},
    {0.0308918376f, 0.0329970382f, -0.00840235595f, 0.0600122996f, 0.0341515839f, -0.0117894886f, 0.0422570184f, 0.011785144f, 0.0527163111f, 0.0427237637f, 0.0128912143f, 0.056764096f, 0.00497160712f, -0.0103227403f, 0.0297477841f, -0.00434159162f, -0.0324137546f, -0.0313299708f, -0.00495972577f, -0.0106556602f, -0.0440332144f, -0.0354361199f, -0.0104879662f, -0.0472421758f, -0.0236125235f, -0.0136101758f},
    {0.00878340099f, 0.0668054596f, 0.02294234f, 0.0932516009f, -0.0099154301f, 0.0260593239f, 0.0311292466f, -0.0165734366f, 0.0356703885f, 0.0430542082f, -0.0120323887f, 0.0260766037f, 0.00132934889f, -0.014879629f, 0.0533374436f, 0.0359485783f, -0.0111202961f, 0.0246809795f, -0.00713943969f, 0.0412288755f, -0.0177132469f, -0.0245432593f, -0.0319503918f, -0.0461954623f, -0.0165463779f, -0.0292219929f},
    {0.00138635619f, 0.0093353549f, 0.0298971739f, 0.0686173588f, 0.0381219015f, -0.0251794755f, 0.0412646011f, 0.0407291055f, 0.0238153432f, 0.0243426766f, -0.0162503123f, 0.0481553786f, -0.0136346696f, -0.0213459879f, 0.019087635f, 0.0238790456f, -0.0107081663f, 0.000423312857f, -0.045840241f, 0.0164624341f, -0.038710162f, -0.0130313281f, -0.0426864438f, -0.0842448696f, -0.0353355631f, -0.0691324472f},
  },
};

static const float kLayer0PreNormWeight[26] = {1.04852235f, 1.03515899f, 1.08900082f, 1.00586772f, 0.957998633f, 1.09572804f, 1.03275669f, 1.09794593f, 1.06730902f, 0.974960566f, 0.993921399f, 1.05591643f, 1.08698392f, 1.10378337f, 1.05599916f, 1.09779108f, 1.14492977f, 1.07327294f, 1.08615887f, 1.1118784f, 1.12783575f, 1.14204466f, 1.08698964f, 1.09487331f, 1.02300918f, 1.03052151f};

static const float kLayer0PreNormBias[26] = {-0.0220321268f, -0.010096726f, -0.00880778115f, -0.0049420679f, 0.0592760742f, 0.004692988f, -0.0110705607f, -0.0214166399f, 0.010429238f, 0.00926274341f, 0.0475788675f, 0.0221643392f, 0.0286148041f, 0.0106490292f, -0.00413490739f, -0.011749397f, -0.0139178783f, -0.00149059715f, 0.027274875f, -0.0145677524f, 0.000233371291f, 0.00131730502f, 0.00207703211f, 0.029223159f, 0.0134611912f, -0.00559325749f};

static const float kLayer0PostNormWeight[26] = {0.978082478f, 0.898506463f, 0.937763691f, 0.930849791f, 1.08927917f, 0.986421585f, 0.984482825f, 1.04114115f, 0.993499815f, 0.982887387f, 0.985998392f, 0.976982117f, 0.949943662f, 0.966501355f, 1.07732737f, 1.00898731f, 1.02018499f, 0.934445441f, 0.979814529f, 1.01626337f, 0.997442782f, 0.970689416f, 1.00138795f, 0.920121968f, 0.999780118f, 1.05737495f};

static const float kLayer0PostNormBias[26] = {-0.0077915201f, 0.00923405774f, 0.0184635259f, 0.00209356705f, -0.0124364309f, -0.0340203345f, 0.0296383668f, -0.0209038332f, 0.0125653883f, 0.000224668605f, 0.0265069809f, 0.00394506566f, -0.028380109f, -0.0190737434f, -0.0309350584f, -0.0326897427f, 0.0147267291f, 0.019498596f, 0.0181840882f, -0.0133016715f, 0.0230172183f, 0.0119796582f, -0.00136803335f, 0.00791426469f, 0.0144223161f, 0.00673804805f};

static const float kLayer0ALog[52][8] = {
  {-0.0125150234f, 0.671594143f, 1.07457519f, 1.35768032f, 1.58632314f, 1.7728616f, 1.92408025f, 2.05493331f},
  {0.00540692871f, 0.6875965f, 1.08854425f, 1.37440157f, 1.59225059f, 1.77308452f, 1.92769361f, 2.06256914f},
  {-0.0190021694f, 0.665692925f, 1.0690397f, 1.35622787f, 1.58477688f, 1.76447582f, 1.91662979f, 2.05015278f},
  {-0.0129151437f, 0.672454119f, 1.07194674f, 1.35957432f, 1.59188795f, 1.77904737f, 1.92580998f, 2.06360054f},
  {-0.0190126654f, 0.66435802f, 1.06728733f, 1.35447764f, 1.58377779f, 1.76256943f, 1.91409028f, 2.04939318f},
  {-0.00040150623f, 0.690862417f, 1.08902347f, 1.37827826f, 1.60251391f, 1.7841804f, 1.93321037f, 2.07044053f},
  {-0.0872616246f, 0.598024607f, 1.00151038f, 1.28948069f, 1.52040088f, 1.70512056f, 1.85665023f, 1.99248874f},
  {-0.0410341285f, 0.629919827f, 1.02813351f, 1.31538665f, 1.54737508f, 1.73158884f, 1.88536453f, 2.02031326f},
  {0.0144240772f, 0.698813438f, 1.09733915f, 1.38290703f, 1.60201716f, 1.7776593f, 1.93219876f, 2.06222963f},
  {-0.0414504483f, 0.644831836f, 1.04672599f, 1.33472979f, 1.56371248f, 1.74729943f, 1.89491212f, 2.03192973f},
  {0.0130514288f, 0.696578205f, 1.0962081f, 1.38293207f, 1.61202013f, 1.79370058f, 1.94386125f, 2.07573247f},
  {-0.17738831f, 0.512671173f, 0.919091761f, 1.21130157f, 1.44418716f, 1.6204859f, 1.78727853f, 1.92215645f},
  {-0.128075093f, 0.562306285f, 0.967480302f, 1.25510883f, 1.49293625f, 1.68916476f, 1.84211552f, 1.98274755f},
  {-0.0944264829f, 0.593291342f, 0.999575853f, 1.28785038f, 1.51537907f, 1.69841695f, 1.84590411f, 1.9925822f},
  {0.0344800726f, 0.718245387f, 1.1194762f, 1.4071027f, 1.62840629f, 1.81103837f, 1.95962787f, 2.09313297f},
  {-0.0501113869f, 0.62143898f, 1.02153349f, 1.30319571f, 1.53935492f, 1.71990359f, 1.87781835f, 2.00590515f},
  {-0.0253074914f, 0.658279121f, 1.06261158f, 1.34518397f, 1.57842886f, 1.76205766f, 1.91028023f, 2.04163933f},
  {-0.022267228f, 0.649841189f, 1.04833734f, 1.33094323f, 1.55491304f, 1.73714375f, 1.88729823f, 2.02378941f},
  {-0.0247116778f, 0.662775576f, 1.06263268f, 1.35166883f, 1.57807684f, 1.75388253f, 1.90522182f, 2.04154444f},
  {0.0135889966f, 0.698283613f, 1.10100687f, 1.38666868f, 1.61548471f, 1.79944813f, 1.94931626f, 2.08189321f},
  {-0.250868887f, 0.395769924f, 0.800958812f, 1.08951747f, 1.32829857f, 1.50919092f, 1.6770916f, 1.82219505f},
  {-0.0269671008f, 0.660023332f, 1.06199074f, 1.34812772f, 1.57735479f, 1.7600739f, 1.91129673f, 2.04416919f},
  {-0.0473657548f, 0.637586653f, 1.03711116f, 1.32615447f, 1.54840314f, 1.73136342f, 1.87763417f, 2.01553369f},
  {-0.0451291166f, 0.638346136f, 1.03722942f, 1.3278836f, 1.55530488f, 1.73798883f, 1.88814878f, 2.02378917f},
  {-0.0649408847f, 0.625304043f, 1.03116035f, 1.3170836f, 1.54890323f, 1.73350942f, 1.88659549f, 2.02070761f},
  {-0.0043425425f, 0.683452725f, 1.08138943f, 1.36962497f, 1.60159147f, 1.78211975f, 1.93088877f, 2.06816649f},
  {-0.00581483683f, 0.672632635f, 1.06933534f, 1.35762501f, 1.58116102f, 1.7599442f, 1.9108218f, 2.04705358f},
  {-0.0923542902f, 0.592968464f, 0.9960078f, 1.28194332f, 1.50960052f, 1.68943894f, 1.83971167f, 1.97322845f},
  {0.016122479f, 0.702911437f, 1.10617304f, 1.39558184f, 1.62003195f, 1.80470479f, 1.95529842f, 2.09130073f},
  {0.0489192046f, 0.731470227f, 1.13550293f, 1.41985071f, 1.64721167f, 1.82479858f, 1.97495174f, 2.10510588f},
  {-0.0514664836f, 0.633361578f, 1.03673363f, 1.32495415f, 1.5530014f, 1.73136127f, 1.88436866f, 2.01820445f},
  {0.00649154931f, 0.69129765f, 1.09317744f, 1.37983871f, 1.61273193f, 1.79639947f, 1.94457817f, 2.08237243f},
  {-0.00187231333f, 0.683522582f, 1.08420396f, 1.37178338f, 1.59824479f, 1.78180599f, 1.93300557f, 2.0648582f},
  {-0.0220480729f, 0.659632921f, 1.06154597f, 1.34826684f, 1.57835591f, 1.75668001f, 1.90823603f, 2.04102492f},
  {-0.0846472308f, 0.607763648f, 1.00966978f, 1.3021096f, 1.53466833f, 1.7122035f, 1.86614859f, 2.00713134f},
  {0.0581352748f, 0.738643765f, 1.13231492f, 1.42015612f, 1.63977396f, 1.82438278f, 1.96946108f, 2.11064291f},
  {0.0206844714f, 0.705750287f, 1.10741222f, 1.39398062f, 1.62160325f, 1.80399573f, 1.95660365f, 2.08804154f},
  {0.0225953981f, 0.708632231f, 1.11191356f, 1.39692628f, 1.62553644f, 1.81027341f, 1.95947421f, 2.09540558f},
  {-0.0153636327f, 0.668129563f, 1.07041502f, 1.35648584f, 1.58695972f, 1.7685101f, 1.91979599f, 2.05072689f},
  {-0.203897879f, 0.476872742f, 0.884008408f, 1.17053795f, 1.40521073f, 1.58832359f, 1.74567437f, 1.87845659f},
  {-0.0220926777f, 0.662964284f, 1.06545508f, 1.35187852f, 1.5841974f, 1.7663579f, 1.91574883f, 2.04961681f},
  {-0.0235315319f, 0.663712204f, 1.06700242f, 1.3556608f, 1.5873524f, 1.77145195f, 1.92255414f, 2.0575707f},
  {0.0065120142f, 0.690610468f, 1.09256768f, 1.37907767f, 1.60710716f, 1.78725755f, 1.93952191f, 2.07034945f},
  {0.0107578449f, 0.693868101f, 1.09577072f, 1.38164592f, 1.60855174f, 1.79513693f, 1.94627321f, 2.07755518f},
  {-0.0380964242f, 0.650088251f, 1.0535239f, 1.33858943f, 1.56754649f, 1.7503593f, 1.90059102f, 2.0350244f},
  {-0.076898858f, 0.608311594f, 1.01166284f, 1.29747868f, 1.52804136f, 1.70938313f, 1.86224258f, 1.99554753f},
  {-0.0143634807f, 0.669932008f, 1.07245803f, 1.35664487f, 1.58580005f, 1.76977468f, 1.91958141f, 2.05074549f},
  {-0.0184585936f, 0.664724231f, 1.06696796f, 1.35188591f, 1.57474089f, 1.75746405f, 1.91222322f, 2.03965878f},
  {-0.0345563106f, 0.64523387f, 1.04596841f, 1.3331629f, 1.55800986f, 1.74423015f, 1.89309621f, 2.02590585f},
  {0.00992024317f, 0.693929851f, 1.09292936f, 1.38238525f, 1.60802472f, 1.78899693f, 1.93932104f, 2.07281327f},
  {0.00250579091f, 0.687315583f, 1.08915889f, 1.37684691f, 1.60472965f, 1.7851752f, 1.9362843f, 2.06993341f},
  {-0.0645699427f, 0.625441313f, 1.02983141f, 1.31611156f, 1.54491532f, 1.72703683f, 1.87822723f, 2.01398826f},
};

static const float kLayer0D[52] = {1.06226778f, 1.09000587f, 1.01861763f, 1.10939407f, 0.994967401f, 1.06135309f, 1.12309897f, 1.07348073f, 1.07158637f, 1.11629581f, 1.00787723f, 1.04268909f, 1.1091634f, 1.09676564f, 0.997548938f, 1.08797586f, 1.02488446f, 1.12106788f, 1.04774797f, 1.04493988f, 1.10852015f, 1.07581949f, 1.09026098f, 1.07661438f, 1.14599299f, 1.05389595f, 1.06308174f, 1.11686993f, 1.05761898f, 1.00778973f, 1.06258857f, 1.05206466f, 1.05800593f, 1.04921889f, 0.982830107f, 1.07514215f, 0.982911289f, 1.03093195f, 1.04512966f, 1.09495366f, 1.0333792f, 1.06947398f, 0.992938042f, 1.0406388f, 1.06184506f, 1.10908842f, 1.02863431f, 1.0365057f, 1.06850588f, 1.01894557f, 1.0137254f, 1.05498672f};

static const int8_t kLayer0InProjQ[104][26] = {
  {3, 93, 30, 66, 40, 20, -50, -47, 61, 24, 52, -19, -30, -39, 86, -85, -7, 58, -62, 57, 54, -127, 30, -74, -37, 4},
  {56, 5, 13, -73, -22, 104, 12, -42, 87, -127, 60, 31, 96, 55, 73, 77, -43, -54, -22, 9, -85, -68, 27, 101, -2, -57},
  {-68, 73, 71, 15, 26, -94, 17, -5, 90, -94, 20, 99, -60, -100, 4, -22, -102, 68, 44, 127, -119, -118, 110, 75, -48, -44},
  {-52, 60, 50, 10, 11, -118, 97, 58, -1, -41, 29, 84, -127, -85, -37, -124, 40, 117, 116, 16, -72, -76, 90, -55, 22, -26},
  {123, -73, -57, -13, -38, 55, 6, 80, -125, 28, 17, -58, 27, 127, -95, 29, 56, 28, -67, -117, 46, 81, -102, -14, -7, 11},
  {49, 2, -70, 108, 42, 1, -34, 28, -26, -19, 58, 28, 82, 104, 3, -11, 43, 75, -121, -25, -5, 10, 75, -4, -127, 4},
  {54, -127, -118, -52, -40, 93, -63, 15, 7, 56, -51, -15, -8, -45, -4, -37, 47, -114, 6, -10, 16, -42, -34, 42, 44, 65},
  {-101, 24, -53, -70, -13, -107, -16, 54, -17, -70, 2, -3, -77, -9, 33, 14, -93, 115, 14, 114, 101, 127, 77, 123, -88, -44},
  {43, 127, 10, 24, 16, -54, 24, -35, 97, 12, 53, 6, -95, -81, 76, -114, 124, 68, -121, -5, -10, -58, -7, -17, -24, 27},
  {21, -110, -2, -88, -38, 82, -85, -82, 77, 61, -88, -25, -18, -55, -33, 16, 49, -127, 107, -18, 68, -21, -69, 36, 73, 98},
  {117, -51, -106, -36, -38, 111, -7, -15, -30, -4, -29, -82, 127, 73, -21, -41, -33, 38, -69, -104, 43, 35, -96, -18, 36, 48},
  {-87, 54, 115, 0, 49, -49, 114, -85, 8, -10, -31, -18, 59, 66, 88, 42, -105, -24, -17, 127, 57, 0, 80, -62, -32, -56},
  {56, -50, -69, 11, 32, 47, -38, 29, -29, 60, 54, 14, 2, 2, -8, -20, 55, -7, -53, -127, -6, 61, -35, 12, -17, 38},
  {-23, 30, 40, -10, -9, 21, -20, -61, 27, 14, 39, -24, -49, -14, 49, -127, -36, -29, -20, 71, 12, -52, 88, -12, 22, 30},
  {-29, 58, -7, 41, 36, -46, 36, 39, 37, 6, 43, 85, -23, 3, 127, -56, -20, 57, 8, 50, -20, -16, 44, -5, -26, -32},
  {7, -107, -120, 4, 35, 52, -127, 50, 61, 23, 50, 51, 26, -11, -15, 34, 20, -86, 85, -12, -37, -38, -102, 2, 27, 33},
  {-7, -37, -17, -7, -16, 47, -91, 66, -28, -10, -72, -85, 127, 86, 22, 44, -101, -12, -95, 9, 97, -2, -60, 38, -1, -9},
  {61, 13, -59, -2, -17, 22, 91, 56, -109, 24, -28, 1, -33, -44, -69, 9, 8, 96, -38, -127, -54, 121, -50, 72, -32, 51},
  {0, -3, 8, -26, -30, 116, -48, -103, 24, 60, -27, -127, -98, -62, -26, -74, 66, -91, 30, -87, 43, 9, -67, -19, 88, 101},
  {-19, -101, -100, -11, -20, 94, -123, 127, 26, 65, -39, -89, 122, 99, -26, 68, -119, 6, -101, -24, 99, 37, -92, -8, -17, 9},
  {-59, 15, -50, 63, 52, -2, -127, 28, -3, 8, 80, -51, -34, -14, -8, -23, -64, 65, 7, -52, 39, -24, -43, 4, -53, 80},
  {-73, 125, 127, 70, 52, -116, 88, -56, 8, -32, 13, 35, -88, -68, 35, -44, 72, 87, 72, 53, 15, -97, 90, -77, -56, -37},
  {-53, 42, 44, 30, 31, -36, 50, 90, 6, -34, 36, 109, 34, -63, 2, 5, -90, 100, 55, 47, -64, -10, 62, 16, -82, -127},
  {1, 37, 21, 37, -21, -22, 103, 6, 109, -55, -8, 117, -96, -101, 97, -50, 94, 66, 29, 52, -127, -78, 39, 1, -57, -52},
  {2, -39, -24, 5, 39, -40, 33, 95, -42, -18, 26, 91, 47, 7, -49, 81, -3, 35, -46, -107, -127, 84, -2, 36, -32, -41},
  {-6, -57, 98, -23, -91, 45, -24, -55, -47, 8, -68, -110, 61, 45, -118, 87, 37, -57, 10, -30, 127, -54, -61, -45, 96, 54},
  {29, -3, 12, -25, -35, 127, 26, -67, -34, 10, -48, -67, -19, -59, 77, 41, 106, -106, 5, -33, -19, -31, -65, -46, 60, 54},
  {59, 4, 9, 3, -18, -8, 53, 22, -28, -43, -37, 39, -56, -51, 2, 59, 92, 21, -26, -5, -127, 55, -56, -26, 1, 10},
  {11, 62, 68, -15, 40, -26, 59, 67, -20, -122, -97, 78, -53, -97, 15, -61, 89, 81, 127, 24, -51, -65, 3, -42, 13, -90},
  {43, -17, -17, -8, -61, 127, -55, 34, -32, 28, -3, -91, 77, 31, 11, -27, -41, -54, -18, -25, 43, 29, -1, -51, 35, 22},
  {-65, 43, 49, 18, 21, -47, 7, -11, 127, 4, 42, 58, -12, -5, 65, -71, -78, 18, 34, 60, -42, -91, 59, 23, -54, -37},
  {90, -33, 63, -56, -83, 34, 30, 127, -89, 100, -69, -11, 67, 13, -85, 46, -33, 52, 54, -114, 92, 71, -11, -2, 78, 76},
  {-3, -78, 5, -55, -46, 127, -112, 13, 4, -22, -60, -104, 72, 99, -94, 23, -87, -119, -35, -16, 107, 92, -54, 38, 98, 91},
  {11, 36, 0, 1, 15, -52, 48, 10, 56, -20, -17, 56, -34, -62, 127, -48, 26, -4, 41, 109, -116, -52, 24, -5, -1, -28},
  {127, 0, -22, -27, -80, 115, -25, 7, -100, 4, -78, -90, 49, 25, -32, 29, 117, -16, -75, -98, 37, 73, -52, -61, 112, 96},
  {59, 0, -8, -52, -38, 126, -1, 20, -3, -43, -26, -50, 19, 2, 3, -12, -23, -42, 1, 54, -66, -127, 110, 107, -6, -66},
  {15, -23, -20, 13, -30, 25, -47, -39, -26, 17, -30, -56, -25, 58, -39, 65, 18, -6, -69, 14, 127, 80, -19, -35, -9, 12},
  {30, 49, 35, 8, 29, -35, 82, -31, -28, 4, 58, 13, -21, -75, 73, -127, -66, 24, 64, 96, -126, -124, 58, -41, 58, 15},
  {-65, 79, 51, 49, 75, -55, 53, -16, 79, 14, 61, 108, -127, -120, -17, -106, 33, 57, 98, 63, -96, -52, 123, -3, -33, -34},
  {-19, 16, -28, 5, -13, 47, -23, -19, -32, 89, 28, -17, 106, 66, -34, -4, -96, -38, -45, -62, 127, -14, 35, 25, -32, -26},
  {-42, 63, 19, -16, 8, -74, 81, -16, 35, -77, 63, 122, -57, -65, 127, -58, -28, 38, 95, 111, -98, -32, 41, 16, -46, -37},
  {103, -93, -71, 29, 30, 53, -27, 40, -32, 78, -44, -50, 61, 82, -43, 79, -13, -4, -127, -64, 68, 85, -67, -43, -5, 21},
  {63, -7, 16, 11, -57, 5, 41, -69, -70, 57, 19, -99, 32, 63, -103, 12, -33, 24, -12, -127, 102, 94, -110, -119, 60, 53},
  {77, -59, 12, -74, -70, 89, -116, 23, -29, 38, 4, -85, 47, 36, -127, 55, -7, -124, -68, -92, -70, 88, -75, 102, 96, 34},
  {-6, 58, 53, -6, 8, -9, 86, 10, -4, -32, 17, 78, -103, -74, -16, -115, 86, 62, 88, 30, -127, -59, 94, -31, 43, 50},
  {-83, 68, 117, 78, 32, -105, 114, -36, 16, -47, 32, 78, -39, -67, 51, -63, -73, 92, 51, 108, -73, -5, 81, -127, -13, -40},
  {13, -79, -75, -7, -39, 37, -84, 15, -34, 11, -33, -42, 127, 74, -38, 88, -72, 23, -62, -54, 59, 23, -72, 19, -14, -21},
  {45, -43, -44, -36, -21, -11, 10, 55, -40, 4, -60, -24, 88, 57, -38, 6, -47, 3, -127, -84, -88, 72, -53, -5, 65, 36},
  {30, 102, -31, 31, 60, -72, 51, 11, 33, -78, 75, 104, -98, -59, 3, -66, 78, 109, 48, -86, -58, 4, 33, -10, -127, -111},
  {-85, 13, 93, -53, 43, -37, 39, 25, 35, -78, -16, 37, -22, -16, -29, 65, -18, -18, 89, 127, -68, -16, 82, 2, 21, -30},
  {-54, 35, 60, 1, 15, -51, -7, -28, 40, -28, -7, 27, -65, -46, 40, -46, -8, -10, 45, 84, -30, -68, 127, 45, -15, -29},
  {-8, -69, -84, 3, -41, -11, -71, 80, 33, 25, -32, -44, 68, 126, 24, 114, -20, -3, -127, -28, 110, 67, -82, 67, -50, -52},
  {1, -24, -53, -13, -6, 13, 23, 74, -32, -9, 9, 63, 50, 7, 13, -2, -36, 14, 28, -16, -127, -20, 15, 44, 14, -3},
  {6, -1, -85, 21, 33, -127, -11, 5, -80, 52, -8, 48, 10, -26, -108, -36, 45, 69, 32, -102, 73, 107, -30, -14, -50, 16},
  {26, -59, -68, 22, 31, 104, -54, -6, -49, 96, -25, -44, 52, 127, -3, 33, 92, -2, -65, -111, 98, 92, -116, -86, -22, 33},
  {-77, 4, 61, -21, -21, -5, 44, -24, -53, -46, 21, -8, -104, -52, -34, -98, -5, -6, 82, 99, -23, -64, 127, -24, 35, 13},
  {5, -17, 0, -6, -7, -106, 21, 94, -36, -21, 24, 84, -14, 13, -34, -19, -30, 26, -1, 33, -127, -18, 35, -1, -7, 5},
  {-61, 59, 95, -49, -18, 28, 38, -91, 78, 16, -39, -50, -127, -79, 28, -12, -78, -47, 94, 88, 50, -66, -57, 43, 72, 26},
  {47, 16, -46, -4, -9, 87, -33, -60, 29, 61, 25, 17, -35, -127, -60, -29, 20, -33, 91, -68, -26, -87, -60, 27, 28, 47},
  {5, -10, 82, 57, 11, -55, 84, 27, 26, -31, -51, -3, 73, 99, -14, 97, 86, -4, -127, -23, -37, -36, -9, -123, 2, -11},
  {17, -65, -127, -1, -16, 18, 25, 34, -29, 49, 9, 43, 12, 32, -12, -24, -19, 3, 82, -9, -85, -37, 19, 34, 8, -18},
  {-32, 11, 66, -77, -45, 66, -18, -92, 84, 14, -6, -87, -85, -127, 40, -44, -27, -58, 121, 94, 2, -112, 4, 30, 43, 74},
  {-36, 49, 37, 77, 62, -74, -7, -50, -14, -12, 103, 69, -127, -16, 37, -27, -29, 9, 66, 64, -1, -6, 61, -19, -17, -20},
  {-37, -10, 68, -35, -8, -95, -12, 16, -66, -29, -47, -78, 90, 127, -38, 38, -67, 28, -82, 54, 46, 111, 34, 0, 55, -5},
  {-54, -13, -43, -95, 51, 105, -91, -24, -17, -68, -30, -110, -8, 54, 127, -33, -80, -107, -9, 116, 62, -47, 49, 67, 69, 38},
  {14, -15, 20, -43, -7, -6, 57, 31, -12, -18, -1, 73, 17, -65, -13, 42, -11, 58, 72, 38, -127, -19, 6, 79, -10, -30},
  {60, -29, -83, 43, -2, 16, 4, -21, -37, 93, 39, 19, 59, 70, -25, -33, -36, 94, -39, -127, 42, 21, 1, -74, -49, 30},
  {-5, 17, 9, -9, -7, -7, 28, 65, -32, -25, -55, -44, -10, 110, 10, 54, -27, 40, -127, 33, 72, 52, 30, -6, -23, -24},
  {44, -36, -81, 35, -21, 43, -57, 62, -11, 7, -21, 11, 127, 105, 43, 31, -83, -12, -41, -46, 45, -9, -82, 8, -46, -8},
  {51, 21, -20, -7, 4, 15, 57, 107, -88, 21, 1, 12, 22, -34, -47, -33, -91, 127, -20, -62, -13, 62, 15, 92, -24, -5},
  {125, 1, -127, 64, -30, 95, 2, 35, -80, 39, 68, -3, 6, 29, -16, -51, 56, 81, -76, -106, -39, 1, -51, -69, -61, -5},
  {18, -89, -103, 28, -3, 29, -90, 127, 38, 28, -8, -26, 98, 121, -38, 87, -33, 22, -45, -46, -4, 35, -59, -4, -30, -46},
  {-6, -25, 31, -27, -76, -47, -47, 9, 14, -50, 20, -64, -127, 3, -21, -1, -20, 107, -57, -11, 1, 16, -5, 77, -38, 86},
  {86, -119, -127, -41, -68, 29, 13, 125, -10, 13, 32, 66, 120, 102, -9, 82, -106, 27, -91, -92, -111, 56, -73, 58, -45, -63},
  {15, -77, 32, -35, -18, -2, -34, 59, 40, -11, -8, -24, 17, -6, 26, -34, 7, -42, 74, 114, -49, -127, 85, 66, 28, -5},
  {-111, 46, 88, 20, 19, -8, 32, -89, 11, -38, -4, -23, -59, -52, 44, -54, -27, 11, 53, 127, 47, -36, 97, -58, 0, -3},
  {-33, 47, 28, 56, 82, -127, -15, 20, 47, -69, -2, 68, -61, -89, 28, 22, 72, 75, 76, 6, -25, -41, -34, -84, -48, 5},
  {-50, 57, 127, -2, -19, -40, 70, -69, -11, -59, -35, -13, -10, -54, 3, 9, 28, -61, 71, 71, 9, -33, 5, -47, 28, 12},
  {15, 22, -58, 33, -21, 1, -14, 61, -42, 44, 93, 51, -36, 12, -65, -69, 27, 73, -16, -127, 49, 41, -44, -21, -42, 39},
  {-40, -46, -107, 18, 0, 32, -127, 60, 48, 42, 44, -17, 114, 111, 12, 12, -56, -16, -7, -60, 60, -90, 108, 103, -73, -74},
  {58, -93, -77, 68, 2, -1, -57, 26, -16, 36, 39, 43, 42, 127, -72, 117, 19, 8, -113, -122, 21, 60, -41, 59, -57, -44},
  {-80, -88, 16, 51, 51, -106, 14, 109, -61, -34, 1, 39, -65, 15, -53, 84, 76, -50, 10, 62, -127, 76, 53, -52, 39, -20},
  {-19, -34, -75, 59, 6, 86, -53, -82, -83, 63, -35, -43, -32, 32, 16, 38, 86, -30, -51, -95, 125, 66, -79, -127, -26, 50},
  {-6, 34, 119, -25, 30, -69, 70, 51, -90, -1, -46, 82, -53, -32, -50, -127, -6, 80, 121, 64, -85, 74, 95, -19, 76, 33},
  {111, -18, -100, -37, 5, -44, 23, 78, -3, 7, 4, 18, 66, 91, -23, -28, -59, 56, -90, -127, -21, 35, -42, 35, 32, -21},
  {-127, 25, 102, -3, 23, -62, 71, -80, -22, -7, -10, -4, -102, -54, -21, -27, -37, -9, 56, 125, -14, 42, 23, -52, -11, 12},
  {59, 47, 46, -17, -15, -50, 27, 40, 7, -50, -17, -36, 63, 25, -7, -42, 0, 42, -74, -28, -127, -20, 9, -45, 29, 6},
  {14, -14, 94, -31, -26, 50, 23, -2, 13, -70, 30, -31, 4, 16, -9, -59, -63, -48, -4, 99, -45, -112, 127, 68, 1, -48},
  {106, -112, -54, 27, 59, 14, 35, -90, -72, -27, -26, -12, 60, 127, 16, 107, 7, 29, -65, -8, 36, 48, -97, -50, -47, -35},
  {-127, 61, 85, -54, 27, -21, 28, 10, -55, 15, -23, 27, -50, -110, -53, -2, 76, -3, 111, 59, 44, 31, 89, 20, -8, -25},
  {42, -78, -48, -66, -37, 29, -21, 3, -30, 29, -14, -63, 118, 127, -47, 87, 20, -4, -75, -105, 112, 111, -75, 8, 8, -9},
  {74, 7, 73, -28, -52, -18, 64, 28, -85, -10, -57, -22, -53, -41, -25, -36, 127, 11, -36, 23, -47, 67, -19, -54, 67, 63},
  {45, -39, -127, 73, -30, 76, -62, 103, -62, 55, -38, -100, 85, 83, -53, 103, 34, -35, -91, -108, 66, 30, -70, -22, -12, -24},
  {-8, -69, -95, -6, 3, 20, -77, 63, -8, 25, 21, -10, 60, 127, -2, 89, 68, -47, -73, -61, 48, 48, -98, -5, -3, 26},
  {57, -4, 19, -24, 15, 81, 34, -122, -38, 48, -1, -127, 84, 94, 15, 75, 33, 34, -48, -60, 90, 69, -108, -99, -12, 36},
  {-7, 88, 74, -28, 13, -8, -10, -63, 62, -2, -28, -16, -104, -91, 20, -37, 27, 19, 79, 127, -29, -49, 50, 21, 13, 10},
  {77, -72, -110, 23, 52, -6, -64, 59, 64, 17, 16, 35, 91, 127, 58, 95, -35, -31, -103, -56, -15, 6, -93, 72, -49, -68},
  {20, -13, -26, 28, -11, 89, -24, -38, 9, 41, 25, 3, -58, -127, -15, -61, 68, 15, 76, -45, -4, -110, -9, -26, 6, 30},
  {24, -98, -88, -52, 3, 60, -82, 49, 7, -9, -20, -55, 127, 84, 1, 92, -95, 24, -53, -20, 67, 11, -92, 28, -15, -63},
  {95, -41, -89, -35, -25, 13, 4, 103, -20, -26, 34, -3, 127, -5, -74, 26, -2, -3, -118, -96, -107, 66, -49, 3, 26, 22},
  {-49, 15, 47, -35, -28, -20, 2, -21, 43, -58, 11, -51, -85, -48, 89, -41, -24, -32, 34, 127, 23, -64, 1, 28, 40, 26},
  {-28, 67, -13, 37, 32, -35, 24, -4, -15, -4, -8, 39, -15, -78, 60, -127, -107, 78, 83, 37, -36, -80, 109, -28, -30, -69},
  {45, 7, -65, -3, -24, 108, -59, -57, -60, 19, -26, -96, 63, 87, -7, 39, 92, 16, -84, -68, 127, 10, -43, 24, -37, 6},
  {-2, -125, -116, 30, 3, 12, -72, 63, 82, -3, -3, 48, 67, 108, 76, 127, -51, -79, -83, -50, 30, 27, -107, 66, -58, 1},
};

static const float kLayer0InProjScale[104] = {0.00149332441f, 0.000993487891f, 0.000751821324f, 0.00116938795f, 0.000925950299f, 0.000918449427f, 0.0016565976f, 0.00116511923f, 0.00111496821f, 0.00111612899f, 0.000807665056f, 0.00144190004f, 0.00154216425f, 0.00195264944f, 0.00130003539f, 0.00149335864f, 0.00110631657f, 0.001692513f, 0.000973449263f, 0.00071086461f, 0.00240943418f, 0.00102222175f, 0.00148142036f, 0.00138302741f, 0.00150848343f, 0.000981218531f, 0.00136898505f, 0.00218694215f, 0.000830598641f, 0.000960903999f, 0.00155781663f, 0.000766178069f, 0.000998411444f, 0.00145109498f, 0.00128620386f, 0.00138532009f, 0.00104105647f, 0.00123336783f, 0.000971040921f, 0.00218870514f, 0.0010144792f, 0.00115420844f, 0.000768498983f, 0.00089080201f, 0.00111586787f, 0.00143007142f, 0.00113970856f, 0.00123123894f, 0.001072229f, 0.00102394272f, 0.00115285104f, 0.00121656177f, 0.00213399041f, 0.00113831519f, 0.000799079367f, 0.00118645595f, 0.00131450058f, 0.00100869325f, 0.00179847376f, 0.00128167134f, 0.00145248359f, 0.00118788343f, 0.000926199311f, 0.00166133826f, 0.00114227668f, 0.00157765183f, 0.000858516956f, 0.00180650526f, 0.00116284448f, 0.00162619876f, 0.000856537197f, 0.000960743288f, 0.00223556045f, 0.000904915854f, 0.00150857307f, 0.0012436345f, 0.00174275285f, 0.00116467581f, 0.00125148753f, 0.0013037672f, 0.000880952401f, 0.000791461149f, 0.00103352126f, 0.000829408469f, 0.00101479911f, 0.00134546461f, 0.00143911631f, 0.00125578081f, 0.000622853695f, 0.000966332562f, 0.00083582208f, 0.00172135478f, 0.000919510901f, 0.00110609899f, 0.000728381681f, 0.00105133094f, 0.000995564507f, 0.00172109366f, 0.000909813039f, 0.00108233653f, 0.00143403118f, 0.0011035183f, 0.000853536942f, 0.00103982235f};

static const float kLayer0Conv1dWeight[52][4] = {
  {-0.0956233218f, -0.0547480509f, -0.109905444f, -0.191419527f},
  {-0.167546973f, 0.0982587859f, -0.144834965f, 0.0071166167f},
  {-0.11841426f, -0.202560455f, 0.0937449858f, 0.0179317128f},
  {-0.11010848f, -0.138374314f, -0.0792658031f, 0.0594504401f},
  {0.0267061088f, 0.064631395f, 0.0790196508f, 0.187289417f},
  {-0.00776685122f, -0.135594726f, 0.0310558304f, 0.220085248f},
  {-0.207669213f, 0.121855848f, -0.227942511f, -0.20900023f},
  {0.0187808257f, 0.0801234916f, 0.218355358f, 0.115339845f},
  {-0.182475671f, -0.126287341f, -0.0853963122f, -0.00234783674f},
  {0.0612658039f, 0.191579163f, 0.124987975f, 0.132603779f},
  {-0.103713349f, -0.158354655f, -0.0481486171f, -0.0712590516f},
  {-0.257890463f, -0.136836618f, -0.35367924f, -0.112057038f},
  {-0.115742519f, -0.101410314f, 0.0221909638f, 0.0123673026f},
  {0.052235309f, 0.108807541f, 0.200326174f, 0.12782602f},
  {0.0524271838f, -0.0436959639f, 0.151870355f, 0.0285415836f},
  {0.0652579889f, 0.105115891f, 0.170146078f, 0.178885028f},
  {-0.124303877f, -0.0708805546f, -0.0496493839f, -0.0878751352f},
  {0.127751052f, 0.173673734f, 0.179452956f, 0.155097395f},
  {0.242595077f, 0.19714801f, 0.0648535341f, 0.0624525025f},
  {0.0386652425f, 0.0597470514f, 0.190433547f, -0.127212852f},
  {0.117858641f, 0.0428670645f, -0.170962185f, -0.416956484f},
  {0.0343098603f, -0.175303429f, -0.0662660152f, -0.124875441f},
  {0.0481569991f, 0.154579118f, 0.289098382f, 0.22263357f},
  {0.206198677f, 0.0927911401f, 0.146116123f, 0.0838418752f},
  {0.190351397f, 0.177678019f, 0.0637571141f, 0.147384495f},
  {0.088782005f, 0.0204122476f, -0.0199450981f, 0.295138359f},
  {0.186891824f, -0.0596161187f, 0.151863232f, 0.253162384f},
  {0.328665286f, 0.23336187f, 0.104498558f, -0.0084280204f},
  {0.00127815863f, 0.0659476519f, 0.0373557918f, 0.0169599354f},
  {0.0583254769f, 0.124193914f, 0.0122135514f, 0.0610703789f},
  {-0.295093477f, -0.117973067f, -0.129138961f, -0.131937206f},
  {-0.0377198271f, -0.0161855761f, 0.152823567f, 0.217803523f},
  {-0.160272822f, -0.244164124f, -0.0807715654f, -0.298488021f},
  {0.194598079f, 0.0725515708f, 0.000337750738f, 0.25207296f},
  {0.0642773658f, 0.207421973f, 0.239149928f, 0.0695936903f},
  {0.228881851f, 0.0414759666f, 0.224513069f, 0.00472242897f},
  {0.123002097f, -0.0299618877f, 0.000911148032f, 0.115605876f},
  {-0.0558556952f, -0.0809608549f, -0.142305583f, -0.048748266f},
  {-0.251570106f, -0.0129780425f, -0.133222446f, -0.0504755303f},
  {0.327093244f, 0.130026475f, 0.241746888f, -0.00289118546f},
  {0.246408567f, -0.030034272f, 0.100819893f, 0.267954528f},
  {-0.0209902525f, -0.0545930043f, -0.211660132f, -0.0703929663f},
  {-0.124197237f, -0.0428626984f, 0.0330908485f, -0.099273935f},
  {-0.220567346f, 0.00147666479f, -0.0214005504f, -0.0689451545f},
  {0.111439705f, 0.160875872f, 0.0153729971f, -0.0361541025f},
  {-0.0141866896f, -0.258767098f, -0.152846634f, -0.155502886f},
  {0.191798493f, -0.0466176085f, 0.0636406466f, 0.124437466f},
  {0.135399222f, 0.0728984624f, 0.0227574781f, 0.103622213f},
  {0.093628414f, 0.141111404f, 0.149315342f, 0.187087849f},
  {-0.0690792724f, -0.0727570727f, -0.0918999463f, -0.102173358f},
  {-0.0104254931f, 0.153243631f, 0.0835612565f, 0.0360150039f},
  {0.0100479247f, 0.130435959f, 0.177269146f, 0.0623631515f},
};

static const float kLayer0Conv1dBias[52] = {0.0667811781f, 0.105875663f, 0.0314507671f, 0.0784770176f, 0.0110263005f, -0.0847527906f, -0.154222846f, -0.0449278131f, 0.0410735235f, 0.115501396f, -0.050067734f, -0.0392240994f, 0.105183877f, -0.0231825784f, -0.0411495194f, 0.0671598986f, -0.0262104254f, 0.0518174842f, 0.0483398326f, 0.0526736118f, -0.0646483526f, 0.0767295584f, -0.0500335693f, -0.0608156547f, 0.00921197049f, 0.0743078962f, 0.0493727773f, -0.0720183328f, -0.0681559518f, 0.0354767814f, 0.059296824f, 0.0698090196f, -0.0577838719f, -0.0456039459f, 0.0142183546f, 0.0306195989f, 0.0187708177f, 0.0373632498f, 0.035616789f, 0.0576918945f, -0.0432232469f, -0.0484066121f, -0.0122405877f, -0.074654527f, -0.0587471351f, 0.0716965124f, 0.0309520476f, 0.0542604588f, -0.0927973315f, 0.0281258561f, -0.0100708865f, 0.0497369915f};

static const int8_t kLayer0XProjQ[18][52] = {
  {-113, -68, -94, -74, -107, 19, 27, 4, -82, -36, 40, -43, 41, 110, 73, 24, 62, -113, -47, -41, 17, -55, 63, 79, -50, -86, -78, -15, 72, -40, -107, -47, 83, 74, -117, 65, -99, -73, -127, -22, 81, 95, 104, 66, 62, -49, -94, -110, 61, -80, 70, -112},
  {-81, -85, -101, -77, -90, 46, 37, 31, -56, -65, 42, -1, 17, 90, 90, 41, 38, -105, -39, -53, -29, -80, 93, 79, -72, -77, -97, -11, 53, -37, -126, -83, 48, 74, -104, 70, -105, -120, -100, -29, 95, 127, 79, 78, 84, -50, -76, -81, 82, -69, 81, -117},
  {74, 118, 100, 95, 66, -95, -104, -52, 40, 84, -75, 42, -29, -100, -83, 98, -36, 127, 49, 94, -97, 53, -118, -119, 9, 109, 95, -70, -45, 39, 111, 54, -96, -68, 56, 65, 58, 111, 113, 107, -99, -99, -92, -65, -64, 102, 56, 80, -71, 73, -65, 70},
  {-104, -53, -86, -104, -66, 62, 57, 76, -25, -76, 59, -55, 1, 73, 58, -65, 40, -86, -31, -55, 55, -67, 120, 62, -18, -66, -71, 58, 78, -64, -126, -94, 76, 54, -107, -50, -56, -127, -62, -75, 81, 54, 49, 50, 85, -52, -80, -101, 79, -90, 99, -82},
  {-60, -109, -96, -120, -86, 76, 79, 89, -78, -91, 61, -106, 17, 74, 71, -62, 77, -111, -61, -81, 50, -84, 74, 84, -25, -107, -45, 69, 51, -50, -127, -109, 113, 84, -109, -59, -108, -89, -106, -114, 122, 106, 70, 66, 63, -94, -44, -78, 101, -102, 100, -105},
  {-84, -76, -73, -60, -108, 39, 73, 92, -78, -76, 88, -110, 20, 112, 66, -95, 87, -127, -60, -49, 53, -62, 53, 114, -57, -78, -54, 77, 38, -46, -107, -110, 76, 85, -72, -49, -113, -98, -122, -78, 114, 66, 78, 43, 68, -90, -109, -75, 81, -65, 74, -108},
  {-59, -83, -66, -99, -50, 10, 56, 71, -23, -101, 68, -52, 13, 97, 78, -78, 50, -127, -51, -78, 54, -82, 85, 69, -2, -43, -46, 64, 30, -31, -85, -56, 64, 107, -65, -55, -46, -73, -101, -56, 63, 97, 78, 93, 42, -84, -44, -74, 52, -41, 100, -80},
  {-95, -88, -110, -74, -102, 79, 52, 37, -14, -76, 55, -49, 22, 61, 81, -46, 47, -109, -60, -52, 82, -60, 72, 71, 4, -49, -85, 70, 72, -76, -109, -127, 33, 74, -97, -35, -61, -90, -63, -94, 107, 93, 92, 72, 59, -115, -111, -74, 57, -91, 42, -82},
  {76, 75, 117, 109, 73, -39, -95, -62, 47, 79, -85, 99, -8, -127, -83, 68, -67, 89, 69, 60, -80, 101, -70, -85, -9, 69, 87, -79, -88, 63, 97, 99, -105, -64, 73, 33, 74, 108, 73, 59, -117, -93, -46, -36, -82, 102, 67, 84, -68, 53, -73, 106},
  {58, 75, 63, 67, 66, -41, -85, -55, 29, 76, -47, 51, -14, -72, -76, 55, -83, 73, 32, 87, -48, 80, -77, -57, 9, 69, 55, -55, -70, 33, 92, 86, -76, -68, 77, 27, 56, 104, 77, 127, -101, -73, -76, -78, -39, 60, 65, 85, -25, 45, -91, 64},
  {88, 96, 72, 81, 89, -43, -113, -68, 84, 97, -45, 74, -19, -103, -90, 79, -76, 117, 59, 77, -94, 96, -86, -47, 28, 118, 74, -66, -66, 44, 127, 74, -83, -122, 40, 47, 73, 98, 123, 90, -125, -87, -52, -86, -24, 86, 90, 65, -92, 1, -67, 122},
  {-65, -60, -114, -86, -82, 72, 65, 79, -100, -76, 56, -117, 27, 95, 91, -68, 83, -105, -50, -104, 82, -83, 127, 84, -33, -53, -45, 77, 89, -10, -85, -96, 77, 116, -94, -37, -68, -114, -97, -126, 96, 97, 87, 81, 106, -108, -49, -80, 68, -59, 96, -111},
  {-88, -85, -114, -104, -61, 39, 77, 68, -71, -67, 85, -44, 60, 67, 67, -60, 88, -127, -67, -43, 68, -61, 89, 93, -37, -101, -87, 58, 49, -93, -95, -85, 91, 78, -79, -55, -55, -78, -80, -105, 97, 65, 110, 74, 64, -87, -98, -103, 46, -44, 83, -57},
  {-67, -94, -93, -94, -61, 38, 34, 33, -68, -51, 89, -55, 30, 40, 64, -47, 66, -88, -25, -83, 81, -69, 104, 97, 0, -73, -63, 94, 72, -102, -126, -127, 85, 78, -67, -89, -99, -92, -93, -77, 59, 105, 86, 80, 80, -88, -90, -66, 95, -60, 66, -77},
  {-92, -107, -97, -119, -55, 50, 93, 58, -57, -86, 108, -102, -10, 65, 72, -71, 52, -126, -48, -37, 64, -114, 114, 70, -2, -90, -80, 51, 82, -6, -56, -124, 124, 122, -92, -71, -100, -127, -91, -109, 106, 121, 68, 95, 52, -105, -61, -60, 84, -28, 92, -85},
  {-50, -63, -62, -94, -74, 50, 63, 30, -38, -115, 54, -90, 26, 72, 84, -76, 51, -89, -35, -58, 102, -45, 102, 50, -57, -47, -57, 49, 5, -55, -127, -113, 58, 73, -106, -20, -60, -85, -67, -110, 93, 73, 62, 63, 33, -76, -65, -72, 70, -25, 62, -81},
  {55, 83, 73, 127, 92, -26, -68, -73, 67, 77, -67, 65, -43, -81, -76, 115, -72, 85, 81, 80, -88, 53, -117, -69, 26, 104, 40, -87, -49, 78, 97, 60, -66, -97, 90, 37, 51, 67, 71, 77, -80, -69, -88, -88, -41, 96, 56, 79, -86, 55, -87, 83},
  {97, 96, 61, 35, 94, -61, -87, -63, 18, 72, -51, 93, 6, -114, -68, 75, -62, 124, 66, 33, -67, 102, -92, -93, 31, 70, 68, -25, -70, 49, 104, 92, -90, -55, 69, 60, 101, 84, 127, 55, -102, -101, -51, -75, -65, 97, 81, 112, -62, 55, -65, 74},
};

static const float kLayer0XProjScale[18] = {0.00141518086f, 0.00141743722f, 0.000853201956f, 0.00105582841f, 0.000913796597f, 0.000974003284f, 0.00101580552f, 0.000970840571f, 0.00103826099f, 0.00120758615f, 0.000858192216f, 0.000944857544f, 0.00102305261f, 0.000984331477f, 0.000848703727f, 0.00103355397f, 0.00100475631f, 0.00104529806f};

static const int8_t kLayer0DtProjWeightQ[52][2] = {
  {127, 116},
  {127, 57},
  {-127, 119},
  {121, 127},
  {-127, -29},
  {127, 77},
  {-127, -69},
  {-113, -127},
  {-127, -124},
  {-127, -48},
  {127, -23},
  {-127, -127},
  {-108, -127},
  {-112, -127},
  {127, 75},
  {-112, -127},
  {-127, -114},
  {-127, -11},
  {-127, -10},
  {127, 65},
  {-127, -127},
  {116, 127},
  {-101, -127},
  {127, 10},
  {127, 46},
  {35, 127},
  {-127, -91},
  {-127, -93},
  {127, 85},
  {75, 127},
  {-69, -127},
  {66, 127},
  {11, 127},
  {49, 127},
  {-127, -97},
  {127, 95},
  {92, 127},
  {127, 112},
  {-127, 56},
  {-105, -127},
  {-32, 127},
  {127, 66},
  {127, -50},
  {127, 61},
  {-62, -127},
  {-127, -96},
  {122, 127},
  {-71, -127},
  {127, 59},
  {14, 127},
  {127, 61},
  {-77, -127},
};

static const float kLayer0DtProjWeightScale[52] = {0.000284171867f, 0.000387107459f, 7.24921192e-05f, 0.000244028502f, 0.000258384884f, 0.000272859965f, 0.000635116245f, 0.000798440422f, 0.000243543662f, 0.00023021565f, 8.38309497e-05f, 0.00169030752f, 0.000531150552f, 0.000418777199f, 0.000617291895f, 0.000713042624f, 0.000188549588f, 0.000273258105f, 0.000375186675f, 0.000691912719f, 0.00253596902f, 0.000184116259f, 0.000322380685f, 0.000285644724f, 0.000284051494f, 0.000403611659f, 0.000440669712f, 0.000799383153f, 0.000807287812f, 0.00076233875f, 0.000296806364f, 0.000192926775f, 0.000438416231f, 0.000277454063f, 0.000989947584f, 0.000557123218f, 0.000213104373f, 0.00029259955f, 0.000156997645f, 0.00167299528f, 0.000114641123f, 0.000457634364f, 0.000250802899f, 0.00042191922f, 0.000200033915f, 0.000757823582f, 8.72101737e-05f, 0.000101811129f, 0.000340884406f, 0.000132672896f, 1.56477945e-05f, 0.000397293363f};

